,0,1,2,3,4,5,6,7,8,9,10,11,12,13,14,15
LDHB,4.542468,-0.03194749,-0.029452328,-0.050485518,-0.059300046,1.7841747,1.8772012,-0.056890868,-0.033570524,3.5370433,1.2129328,4.7252626,-0.032626428,1.4469378,5.6324058,-0.0065568453
TGM2,3.6671412,-0.023594836,-0.023595074,-0.042180505,-0.058362126,1.314104,2.1044395,-0.0583052,-0.027324032,3.5254586,1.2027676,4.5284824,-0.032631814,0.7014973,4.7590866,-0.0032019427
EYA2,4.6064973,-0.03177869,-0.029713701,-0.04972821,-0.061732944,1.8080338,1.9594387,-0.05868619,-0.032763325,3.546895,1.492752,4.8470397,-0.03370294,1.5503123,5.763499,-0.005945755
COL4A1,4.8192425,-0.03401971,-0.029595755,-0.053077716,-0.062211435,1.6368991,1.917756,-0.060891207,-0.035449352,3.7774417,0.8777812,4.99531,-0.033340104,1.7332536,6.0304947,-0.0069547277
CD63-PS,4.913017,-0.04090764,-0.027157826,-0.058783803,-0.064773336,1.2227858,1.7298865,-0.064100005,-0.039248552,3.9624455,0.993388,4.9743457,-0.030413475,1.5405807,6.8851,-0.010148234
TEK,4.7570577,-0.038359523,-0.028060036,-0.05590172,-0.06487238,1.1186701,1.8042344,-0.060266964,-0.03663475,4.004307,1.1395901,5.055785,-0.030415019,1.5157517,6.6085744,-0.008474343
HOXA9,4.763166,-0.032856014,-0.029976033,-0.051530365,-0.06294724,1.7531741,1.9891908,-0.06067578,-0.034028504,3.6659224,1.3240293,4.977763,-0.034249846,1.6544762,5.991043,-0.005972117
AKNA,4.10141,-0.027257591,-0.029025253,-0.04474469,-0.05405898,1.6823087,1.7519569,-0.05141041,-0.030083863,3.1372654,1.2117473,4.263002,-0.030915737,1.300897,5.1576734,-0.0051710284
ITGA6,4.297376,-0.029320795,-0.02928891,-0.04668323,-0.058793377,1.8595054,1.890542,-0.054805543,-0.030707052,3.3431387,1.6476966,4.570191,-0.032451842,1.3586752,5.368945,-0.0054675606
ENPP5,4.860057,-0.03415195,-0.029938001,-0.053304896,-0.06360719,1.6748602,1.9850191,-0.06215484,-0.035400152,3.8108885,1.030597,5.0941997,-0.03424662,1.7536389,6.117859,-0.006605868
COQ8A,4.5772877,-0.031631246,-0.029824737,-0.050007563,-0.060695317,1.8260621,1.9429872,-0.057792176,-0.033057895,3.5137079,1.4189398,4.785455,-0.03349431,1.4940196,5.6814184,-0.006028036
IL17RA,4.712016,-0.033612493,-0.029139131,-0.052566443,-0.061426427,1.6000216,1.859026,-0.06003249,-0.035511304,3.8148334,0.736058,4.927084,-0.032168847,1.7215651,5.9600463,-0.0069757216
MCM5,4.5312195,-0.031181628,-0.029690538,-0.049319685,-0.060119867,1.8204713,1.9092215,-0.057037,-0.032655206,3.469713,1.4340806,4.715893,-0.033095717,1.4755175,5.630392,-0.0059006363
GAS2L3,4.355401,-0.029601885,-0.029389404,-0.047161058,-0.059626836,1.8438759,1.920139,-0.055885103,-0.030925073,3.3939762,1.61052,4.6353636,-0.032802317,1.4258971,5.479096,-0.005185355
GATA2,4.2924795,-0.034122303,-0.026247242,-0.05016091,-0.057271607,1.249423,1.5247116,-0.054570675,-0.032627583,3.376936,1.0893282,4.38932,-0.028024713,1.2178102,5.8964725,-0.0079914825
DHRS3,4.484637,-0.03091189,-0.029601043,-0.048986927,-0.060677495,1.8717768,1.9397324,-0.05708746,-0.032494567,3.4807975,1.5740798,4.7420735,-0.033156045,1.4487193,5.6052117,-0.005671712
LDHD,4.6668386,-0.031954687,-0.030232772,-0.05068297,-0.060184635,1.7099247,1.923316,-0.05889084,-0.03382151,3.5396028,1.0293199,4.7980895,-0.033743944,1.6330041,5.8619905,-0.006069607
GM4951,4.2385297,-0.028448874,-0.028694248,-0.045305923,-0.057849444,1.6834471,1.8390633,-0.054104406,-0.030368742,3.3006442,1.4587368,4.472312,-0.031171205,1.4422865,5.439062,-0.004704514
NEAT1,4.797967,-0.03589362,-0.028802203,-0.054550566,-0.058502078,0.68463147,1.6934791,-0.057753123,-0.03682447,3.5577462,1.0595579,4.5900397,-0.03029889,1.3764119,6.3632817,-0.015012146
UBASH3A,4.722752,-0.032901645,-0.029963907,-0.0518647,-0.062131286,1.764447,1.9681174,-0.05981016,-0.034597695,3.6792674,1.2796947,4.9357367,-0.033787068,1.5620278,5.915971,-0.0065127057
CTSS,4.743241,-0.033754688,-0.029205335,-0.0514852,-0.06218161,1.7004514,1.9391729,-0.05977812,-0.03409021,3.6130917,1.263265,4.9573746,-0.03371983,1.6053175,5.900236,-0.0066283946
SERPINB1A,4.3951416,-0.030352682,-0.029510478,-0.04842013,-0.059372194,1.8803115,1.9080057,-0.055760268,-0.032087427,3.41845,1.551877,4.653008,-0.032774217,1.3766743,5.4711347,-0.005699967
TSPAN3,4.6932893,-0.032650746,-0.029754749,-0.051152572,-0.061460335,1.7670219,1.9423085,-0.05892119,-0.033922255,3.586549,1.3148836,4.866374,-0.03357788,1.5615867,5.8257694,-0.0063915025
CD93,4.9119763,-0.034437057,-0.029806746,-0.05328989,-0.062912725,1.6170663,1.9602318,-0.061815016,-0.03533787,3.7338893,1.0005364,5.0617824,-0.034271773,1.7592026,6.157562,-0.006718623
DYNLL1,4.5818515,-0.03182141,-0.029972043,-0.050045654,-0.06102813,1.8613381,1.9486959,-0.057903193,-0.03287476,3.532831,1.4743006,4.7968483,-0.03362257,1.5004058,5.7200727,-0.006111599
AI504432,4.7640667,-0.041040063,-0.026390066,-0.057715893,-0.064752735,1.189203,1.6440688,-0.06364987,-0.040050555,3.9362645,1.1101741,4.8535805,-0.028614687,1.5784827,6.7538877,-0.009647578
SGMS1,4.6796336,-0.0324847,-0.029826177,-0.051006336,-0.06220662,1.8056728,1.9782369,-0.059525415,-0.03376523,3.6090534,1.4090382,4.916509,-0.03396928,1.5684732,5.8449655,-0.006126806
RHOH,4.2974825,-0.029022455,-0.02907853,-0.046008863,-0.058598865,1.7718611,1.8798163,-0.054779038,-0.030530762,3.3324215,1.558296,4.5381203,-0.03196083,1.4249116,5.430771,-0.005200959
GM45837,4.913017,-0.04090764,-0.027157826,-0.058783803,-0.064773336,1.2227858,1.7298865,-0.064100005,-0.039248552,3.9624455,0.993388,4.9743457,-0.030413475,1.5405807,6.8851,-0.010148234
LY9,4.236435,-0.03286358,-0.027098354,-0.049904242,-0.058643263,1.5672169,1.6275678,-0.056251038,-0.02967898,3.2278354,1.356325,4.7852583,-0.0315508,1.3488532,5.533982,-0.005902322
GSTM1,4.769024,-0.033356275,-0.02983015,-0.05201843,-0.06237089,1.7329546,1.9777693,-0.06037845,-0.034305282,3.654606,1.2491249,4.9781594,-0.034239434,1.6246642,5.9410295,-0.006501942
TEAD2,4.674605,-0.032363378,-0.029915204,-0.051082596,-0.06054555,1.7719038,1.9260514,-0.05851906,-0.033778187,3.579507,1.1946939,4.812757,-0.03357517,1.539726,5.782867,-0.006579878
RAB38,4.5241647,-0.031848766,-0.029361848,-0.050104864,-0.058995374,1.78584,1.8598996,-0.05634409,-0.03331479,3.5036268,1.240567,4.6920733,-0.03236939,1.4410001,5.596155,-0.0065431767
MAGED2,4.4222918,-0.02972871,-0.029989852,-0.048187327,-0.057705786,1.7401068,1.8662289,-0.05575806,-0.032073885,3.3729038,1.1283171,4.568753,-0.032859545,1.4863094,5.564839,-0.005558272
NR3C2,4.5579233,-0.031676944,-0.029782003,-0.05012031,-0.060736477,1.8568056,1.9438049,-0.057696655,-0.033179816,3.538378,1.4307563,4.7947116,-0.033393454,1.4753183,5.6735473,-0.0060316366
SNAP47,4.792729,-0.03340715,-0.030004587,-0.052340243,-0.06251874,1.734756,1.9880776,-0.06072246,-0.034520984,3.6829753,1.2048664,4.9936957,-0.034391787,1.6414815,5.9820714,-0.006466104
CRIP1,4.750314,-0.033022404,-0.029940942,-0.05184152,-0.06126333,1.7243713,1.9423724,-0.0596998,-0.034322284,3.6237578,1.1138686,4.8944,-0.033928256,1.612083,5.9063272,-0.0065542124
GM11346,4.547424,-0.04063184,-0.025863985,-0.056047585,-0.05976263,1.3073888,1.741151,-0.06423761,-0.040983558,3.9892313,0.6795904,4.539895,-0.027045812,1.3820568,6.4098096,-0.013251745
BC035044,4.285869,-0.032143958,-0.026695361,-0.048900437,-0.05836087,1.3723451,1.5973947,-0.056469228,-0.030076776,3.2736833,1.0681082,4.710449,-0.03035345,1.5201601,5.765323,-0.005271303
NUCB2,4.3857155,-0.030086672,-0.029556893,-0.04769237,-0.059643224,1.8938382,1.9184786,-0.055737607,-0.031388745,3.40246,1.6264187,4.645627,-0.032896925,1.4008462,5.4623513,-0.0056765513
CTSL,4.78628,-0.032770894,-0.02988761,-0.051614862,-0.061579477,1.7722139,1.9792391,-0.06009995,-0.034724165,3.5921328,1.1991991,4.965297,-0.03414257,1.601092,5.847979,-0.006383199
RASSF2,4.4663715,-0.030785147,-0.029584778,-0.048817795,-0.060053688,1.866055,1.9207217,-0.05649957,-0.03234299,3.4578388,1.5263389,4.702776,-0.032944873,1.4328356,5.5667524,-0.005726277
ART4,4.3447123,-0.029587263,-0.029606676,-0.047714572,-0.05759524,1.8282092,1.8433552,-0.054466207,-0.031576227,3.337527,1.3777741,4.520586,-0.032369565,1.3673774,5.3949895,-0.005632718
TRPC6,4.8659935,-0.034031384,-0.029774003,-0.052900743,-0.061660312,1.5581597,1.9366858,-0.061265014,-0.035199497,3.6664567,0.8106877,5.000083,-0.03416087,1.7864414,6.138121,-0.0064786747
KCNK5,4.655381,-0.03333586,-0.030040368,-0.05006887,-0.06166339,1.8971603,1.9011426,-0.057041768,-0.0313131,3.4147785,1.4578246,4.7004166,-0.0335986,1.7761766,5.736254,-0.006305687
MCTP2,4.731938,-0.033160064,-0.029667638,-0.051856015,-0.06123323,1.7038474,1.9387238,-0.05935983,-0.03429157,3.617594,1.1627097,4.8970757,-0.033718266,1.5826769,5.8705926,-0.006738371
SERPINA3F,4.5364895,-0.030953957,-0.02918734,-0.049040537,-0.06199812,1.7353065,1.9833986,-0.058801163,-0.032641713,3.6126354,1.4573269,4.8526893,-0.03305491,1.5703719,5.8459525,-0.005280318
LONP2,4.237896,-0.028636815,-0.029187426,-0.046097506,-0.056853216,1.7765117,1.8129834,-0.05331859,-0.03078328,3.2629085,1.4223882,4.438556,-0.031615973,1.352249,5.3234677,-0.0052830894
9030619P08RIK,4.913017,-0.04090764,-0.027157826,-0.058783803,-0.064773336,1.2227858,1.7298865,-0.064100005,-0.039248552,3.9624455,0.993388,4.9743457,-0.030413475,1.5405807,6.8851,-0.010148234
VAMP5,4.2882733,-0.02954394,-0.029211344,-0.04703948,-0.05861647,1.878896,1.878335,-0.05445883,-0.03127875,3.3597987,1.6460106,4.5544844,-0.032158155,1.3133451,5.357393,-0.005787976
CSGALNACT1,4.5727563,-0.031815518,-0.029634446,-0.050047588,-0.06059461,1.8361375,1.9121674,-0.057371072,-0.0332939,3.5256064,1.428799,4.764415,-0.032966908,1.4786705,5.6793284,-0.006165083
SPC24,4.284515,-0.02970522,-0.029091096,-0.04756995,-0.057806667,1.8615267,1.8392493,-0.05405046,-0.031647228,3.3525236,1.5227559,4.5252986,-0.031809505,1.2917895,5.338557,-0.005787343
ABHD17B,4.580872,-0.0316936,-0.029852867,-0.05015575,-0.061077327,1.8300854,1.9634383,-0.05822356,-0.033087548,3.5345309,1.4461516,4.8247147,-0.033772126,1.492807,5.705075,-0.006012862
EMP1,4.7720656,-0.03334599,-0.029800128,-0.052241426,-0.061389074,1.7038739,1.9413602,-0.059791725,-0.03460298,3.6542575,1.0917072,4.9161825,-0.033792626,1.6148332,5.924186,-0.006752068
CPXM1,4.8573976,-0.03420765,-0.02967495,-0.053249512,-0.062302936,1.6261547,1.936746,-0.06116771,-0.03540588,3.7517185,0.91082066,5.0129585,-0.033746596,1.7324744,6.062387,-0.0068851714
PRPS2,4.7146454,-0.0318747,-0.028819293,-0.050029866,-0.061286844,1.8155644,2.002625,-0.060615014,-0.031792607,3.4476867,1.4265412,4.91276,-0.03467581,1.625008,5.70562,-0.0069502085
IGHV1-74,4.797967,-0.03589362,-0.028802203,-0.054550566,-0.058502078,0.68463147,1.6934791,-0.057753123,-0.03682447,3.5577462,1.0595579,4.5900397,-0.03029889,1.3764119,6.3632817,-0.015012146
SDC1,4.8814106,-0.03430849,-0.029851612,-0.053253982,-0.06334516,1.6709073,1.9777273,-0.062067073,-0.0352081,3.7721038,1.0291735,5.084477,-0.034411762,1.7588571,6.113217,-0.006657441
WFDC18,4.913017,-0.04090764,-0.027157826,-0.058783803,-0.064773336,1.2227858,1.7298865,-0.064100005,-0.039248552,3.9624455,0.993388,4.9743457,-0.030413475,1.5405807,6.8851,-0.010148234
ANGPT1,4.8381405,-0.033880606,-0.029752225,-0.052532967,-0.06284703,1.6876199,1.9661824,-0.06102673,-0.0348272,3.7077367,1.1686059,5.0188246,-0.03408681,1.680656,6.051892,-0.0066618286
FSTL1,4.647843,-0.03301858,-0.029415978,-0.05095661,-0.0623873,1.795088,1.9796691,-0.059497803,-0.03376757,3.6268036,1.3939697,4.9596057,-0.033935104,1.5395536,5.820165,-0.0062043956
ITGB2,4.491327,-0.030843379,-0.029397916,-0.048507832,-0.06079582,1.8274308,1.9271984,-0.057174955,-0.032169152,3.4724112,1.5757712,4.7392797,-0.03294635,1.4801925,5.640311,-0.0055409614
MILR1,4.913017,-0.04090764,-0.027157826,-0.058783803,-0.064773336,1.2227858,1.7298865,-0.064100005,-0.039248552,3.9624455,0.993388,4.9743457,-0.030413475,1.5405807,6.8851,-0.010148234
ENG,4.542117,-0.031188408,-0.029877333,-0.049314786,-0.06036253,1.8087425,1.9414145,-0.05767197,-0.032421388,3.4736938,1.4084749,4.7584076,-0.033643566,1.5095698,5.6605744,-0.0059288284
IGHV1-82,4.9130187,-0.040907536,-0.027157955,-0.05878378,-0.06477331,1.222793,1.7298968,-0.0641,-0.039248608,3.9624336,0.99337775,4.9743514,-0.03041358,1.5405918,6.8851085,-0.010148203
ITPR2,4.4702325,-0.025965039,-0.031307228,-0.04467326,-0.054896668,1.1795225,1.9197619,-0.051778,-0.02985446,3.1217833,1.5212327,4.414637,-0.033325233,1.4024968,5.2397842,-0.011082386
CCR7,4.8601413,-0.033043697,-0.030213665,-0.051562257,-0.061819214,1.476459,2.001757,-0.061695594,-0.03524639,3.6587684,0.7893489,4.887081,-0.03280716,1.7893094,6.17176,-0.00644275
F2R,4.7725177,-0.03332346,-0.029805563,-0.052252002,-0.061383974,1.7019706,1.9411181,-0.059781983,-0.03457657,3.6518092,1.092322,4.9159174,-0.03380383,1.6120794,5.9231405,-0.0067603746
CD48,4.102806,-0.02794637,-0.028626366,-0.044745535,-0.056625143,1.7980638,1.8062598,-0.052149914,-0.029826893,3.219621,1.6450725,4.372571,-0.030974822,1.2507589,5.1669073,-0.0052155084
CTSF,4.5733833,-0.03094751,-0.03012074,-0.049451083,-0.060842678,1.7632195,1.9649782,-0.05860747,-0.032616336,3.5036924,1.3073002,4.798347,-0.033870608,1.5954362,5.7897763,-0.005308746
RUNX1T1,4.861909,-0.034159083,-0.029868163,-0.053190514,-0.063683204,1.6899004,1.9859263,-0.062206462,-0.035215855,3.799353,1.0438408,5.0967765,-0.034330294,1.7674613,6.1079526,-0.006560105
ELF1,5.0371194,-0.040392797,-0.027854748,-0.055447258,-0.06111321,1.3082571,1.572134,-0.06216593,-0.03721616,3.5990505,0.99979055,4.949396,-0.03193277,1.3667415,6.3734565,-0.011563004
C030034L19RIK,4.913017,-0.04090764,-0.027157826,-0.058783803,-0.064773336,1.2227858,1.7298865,-0.064100005,-0.039248552,3.9624455,0.993388,4.9743457,-0.030413475,1.5405807,6.8851,-0.010148234
UHRF1,4.294971,-0.029119315,-0.02929286,-0.04668969,-0.057825506,1.8171389,1.8353205,-0.054100223,-0.031071622,3.3045766,1.4933584,4.488331,-0.03188487,1.3768348,5.3783946,-0.005281621
CBX7,3.8331692,-0.026125612,-0.026176905,-0.042939343,-0.05717594,1.4724281,1.7495282,-0.052730467,-0.028971717,3.5393088,1.2837347,4.3006644,-0.027990788,1.3164573,5.4108024,-0.0034842168
NUPR1,4.7746024,-0.028205287,-0.031930316,-0.047986154,-0.055950113,0.9882497,1.9323606,-0.05456465,-0.03219516,3.2646496,1.1338322,4.6299453,-0.03439078,1.5884014,5.5574775,-0.0123497965
STK10,4.3021526,-0.029078837,-0.028977789,-0.046017867,-0.058495913,1.754524,1.8607697,-0.054641746,-0.030677656,3.3362863,1.5414139,4.515789,-0.03167756,1.4220992,5.441174,-0.0053029936
MOGS,4.4953847,-0.030875508,-0.029624071,-0.049025185,-0.06008065,1.813605,1.9106445,-0.05696094,-0.032416847,3.4638321,1.4671664,4.7076125,-0.033088177,1.453781,5.6173573,-0.005770859
RNF125,3.9879608,-0.030492429,-0.022548163,-0.04695077,-0.055436004,1.2943907,2.2367663,-0.052464128,-0.028377768,2.8990762,1.2728248,4.3970675,-0.02998837,1.6231034,5.54176,-0.0016117772
MGAT1,4.4246707,-0.030629894,-0.029580658,-0.04822086,-0.05998208,1.9045882,1.9186937,-0.05602338,-0.03163504,3.4310482,1.6623961,4.6685014,-0.03288024,1.4059913,5.5367117,-0.0059701996
PLXNA4OS1,4.503287,-0.036558654,-0.0239647,-0.05373002,-0.06296496,1.0021695,1.5361769,-0.0606284,-0.03857031,3.9067967,0.78526384,4.6466937,-0.025793523,1.6410761,7.028067,-0.010324351
PKN3,4.420795,-0.030344207,-0.029308228,-0.047804553,-0.060123425,1.8500938,1.907505,-0.056044314,-0.031674173,3.4376187,1.6258098,4.669676,-0.032571655,1.4262687,5.5469613,-0.0057315114
TRIB3,5.0353417,-0.029804155,-0.03187159,-0.0451019,-0.05620916,2.2568839,1.6935285,-0.05219683,-0.031653643,3.601119,1.0049976,4.134386,-0.028227568,1.6925768,5.557814,-0.0059271776
USP11,4.404756,-0.028733376,-0.03020625,-0.04597947,-0.059571955,1.7126591,2.0018284,-0.05674635,-0.031518824,3.374339,1.4702854,4.5012355,-0.03126818,1.4635874,5.565829,-0.0054438026
SLC39A6,4.1617684,-0.028459758,-0.02896933,-0.045625247,-0.05748787,1.875994,1.8492904,-0.053088095,-0.03014041,3.2633674,1.6961569,4.4493127,-0.031737357,1.2621286,5.203601,-0.0053152316
SPNS2,4.553988,-0.034773048,-0.027776202,-0.052896157,-0.06139327,1.5302458,1.7216059,-0.059935115,-0.032325238,3.4780624,1.1482532,5.026453,-0.032659903,1.5451013,5.928937,-0.0061742538
METTL7A1,4.6787767,-0.032523196,-0.029807672,-0.050907686,-0.06216593,1.8085954,1.9723527,-0.059368342,-0.033719275,3.5991683,1.4258598,4.908105,-0.03389289,1.5650467,5.832907,-0.00615588
GPR65,4.730241,-0.033128187,-0.029674897,-0.051783867,-0.061152827,1.7071161,1.9370224,-0.059292816,-0.034253117,3.6120298,1.1635714,4.8900104,-0.033698488,1.5802838,5.8631024,-0.0067445813
IL1R1,4.609711,-0.031681117,-0.029821305,-0.05033086,-0.061510462,1.8147664,1.9552879,-0.05854028,-0.03339203,3.5736566,1.4534181,4.834076,-0.03353236,1.5034537,5.782712,-0.005929182
ALDH1A1,4.8872695,-0.034248915,-0.02996603,-0.05327339,-0.06373631,1.6713171,1.9911684,-0.06237065,-0.035158582,3.7896407,1.0679972,5.109961,-0.034586728,1.7654928,6.1473207,-0.006467318
IL18BP,3.405367,-0.021083862,-0.026199369,-0.03710549,-0.04557326,1.289448,1.493166,-0.044305157,-0.026500475,2.8454187,0.6270588,3.579034,-0.025349239,1.0662509,4.594807,-0.003903
ITSN1,4.477478,-0.031526674,-0.029737052,-0.04965474,-0.060125664,1.9116821,1.9183079,-0.05657183,-0.03284089,3.5113986,1.5363395,4.737379,-0.03298962,1.3852481,5.5860095,-0.0063091097
TRIM59,4.7817883,-0.03323073,-0.02997804,-0.052167606,-0.062280916,1.7350569,1.9703213,-0.060245983,-0.03460756,3.67504,1.2228199,4.9576745,-0.034007177,1.6173459,5.9633327,-0.0065785176
GPR171,4.5369544,-0.030691406,-0.029683655,-0.048337154,-0.060613852,1.744679,1.9540836,-0.05809985,-0.03181816,3.4637334,1.347763,4.7634945,-0.03349465,1.6180402,5.7351065,-0.0054378407
SLCO3A1,4.605001,-0.03133576,-0.029650234,-0.049076576,-0.06112286,1.7241819,1.9359518,-0.05858528,-0.032519206,3.5009274,1.3340641,4.794525,-0.03335584,1.6390849,5.821144,-0.005635819
NFE2,4.5737696,-0.03144037,-0.029793043,-0.049576014,-0.061010092,1.8241982,1.9431092,-0.05795708,-0.032789834,3.5076218,1.4726514,4.7861743,-0.033467315,1.5163496,5.7017508,-0.005778978
MN1,4.627519,-0.03258523,-0.029614143,-0.05150061,-0.060335364,1.7522134,1.896248,-0.05838119,-0.03443969,3.6454678,1.0855252,4.828423,-0.032894235,1.5308712,5.7687945,-0.0067770355
MYC,4.365094,-0.03826699,-0.023771787,-0.0540303,-0.056398902,0.8571994,1.3774257,-0.05823776,-0.034892462,3.52092,0.25052622,4.142358,-0.025141599,1.5162998,6.5153537,-0.009881882
C130089K02RIK,4.913017,-0.04090764,-0.027157826,-0.058783803,-0.064773336,1.2227858,1.7298865,-0.064100005,-0.039248552,3.9624455,0.993388,4.9743457,-0.030413475,1.5405807,6.8851,-0.010148234
TTC39B,4.7652044,-0.03326566,-0.029964957,-0.05204996,-0.062455457,1.7732036,1.9817517,-0.060284246,-0.034481958,3.673619,1.2545568,4.9727,-0.034147985,1.6194997,5.924168,-0.0065067452
CTSG,4.7565126,-0.032605972,-0.030157188,-0.05131862,-0.061613075,1.696945,1.9457612,-0.060150016,-0.034261685,3.6009693,1.0957518,4.899187,-0.033948272,1.6989793,5.9989624,-0.0060074725
PTGS1,4.6847167,-0.032682896,-0.029748596,-0.051557407,-0.060841564,1.7569757,1.931242,-0.05877791,-0.034143586,3.6046078,1.1842364,4.8554797,-0.033547137,1.5531727,5.8133926,-0.006526808
FUT8,4.6741858,-0.03253187,-0.029973883,-0.05090848,-0.061958045,1.8322079,1.9624904,-0.05904621,-0.033529233,3.5998583,1.4266478,4.8820553,-0.03383893,1.559664,5.8399224,-0.006251254
GM20342,4.913017,-0.04090764,-0.027157826,-0.058783803,-0.064773336,1.2227858,1.7298865,-0.064100005,-0.039248552,3.9624455,0.993388,4.9743457,-0.030413475,1.5405807,6.8851,-0.010148234
IGHV1-81,4.913017,-0.04090764,-0.027157826,-0.058783803,-0.064773336,1.2227858,1.7298865,-0.064100005,-0.039248552,3.9624455,0.993388,4.9743457,-0.030413475,1.5405807,6.8851,-0.010148234
KLF3,4.89251,-0.03394213,-0.029963689,-0.052649487,-0.062914096,1.6088594,1.9632916,-0.06200585,-0.03495998,3.7006607,0.9591523,5.057552,-0.034432277,1.8261231,6.197716,-0.006181756
TFEC,4.051317,-0.027226673,-0.028478807,-0.043767944,-0.05607345,1.752374,1.798534,-0.051647138,-0.02931947,3.1855738,1.5997074,4.318128,-0.030547483,1.2713261,5.156276,-0.004886363
UBE2L6,3.758886,-0.02900814,-0.022093538,-0.04518221,-0.052143857,1.3060338,2.1110096,-0.04877728,-0.027392324,2.754579,1.2423108,4.1372576,-0.028422777,1.4348346,5.219506,-0.0018214863
ANXA2,4.882793,-0.034367543,-0.02975315,-0.053396232,-0.06315151,1.6465645,1.9551446,-0.061810803,-0.035507295,3.7845273,0.98557085,5.063536,-0.033974834,1.7565812,6.1230392,-0.0068012914
IFI27L2A,4.7382507,-0.034971233,-0.025022715,-0.048714746,-0.0610144,1.3705084,1.6887727,-0.05392695,-0.03060349,3.698197,0.91857904,4.7932043,-0.031331614,1.7143917,5.700498,-0.007626819
IGHM,4.913017,-0.04090764,-0.027157826,-0.058783803,-0.064773336,1.2227858,1.7298865,-0.064100005,-0.039248552,3.9624455,0.993388,4.9743457,-0.030413475,1.5405807,6.8851,-0.010148234
TFPI,4.2723484,-0.028913788,-0.02916359,-0.046473537,-0.05801801,1.8473642,1.8314154,-0.053916328,-0.030944224,3.3142424,1.5652394,4.475153,-0.031646173,1.3490762,5.3587174,-0.0051215272
ITM2A,4.345642,-0.02959244,-0.029440774,-0.047230795,-0.057103924,1.7204298,1.8313681,-0.054545645,-0.031534676,3.2883315,1.2576592,4.506047,-0.032184657,1.4327,5.4379363,-0.005717573
SDSL,4.712016,-0.033612493,-0.029139131,-0.052566446,-0.061426427,1.6000216,1.859026,-0.06003249,-0.035511304,3.8148334,0.736058,4.927084,-0.032168847,1.7215651,5.960047,-0.0069757216
FHL1,4.669726,-0.032398317,-0.029957308,-0.051245067,-0.062257346,1.8332853,1.998565,-0.059704803,-0.033885434,3.6364934,1.388043,4.935554,-0.03416439,1.5586352,5.8373413,-0.0060592787
LTB,4.51323,-0.031340797,-0.029690322,-0.049126524,-0.060613453,1.8656161,1.929847,-0.057109043,-0.03227767,3.4824367,1.5730664,4.743937,-0.033227954,1.462993,5.6398993,-0.0061457613
COL4A2,4.7048182,-0.03252223,-0.03007257,-0.051290464,-0.062281635,1.7899044,1.994558,-0.059995294,-0.033714026,3.6283035,1.3449861,4.94169,-0.034388684,1.592514,5.888121,-0.006022264
DENND2D,4.5238395,-0.031084048,-0.029513463,-0.04901903,-0.061177146,1.8096745,1.9649304,-0.057870362,-0.032245927,3.535002,1.521611,4.8082266,-0.033445254,1.4971727,5.702716,-0.005943586
PLAC8,4.2979183,-0.029973775,-0.030351141,-0.049074207,-0.056921005,1.4433036,1.7255757,-0.056053758,-0.029781189,3.5792816,0.46505857,4.716416,-0.03346483,2.0041416,5.5377603,-0.002788243
PAG1,4.5856776,-0.03497191,-0.027835825,-0.053122543,-0.06133753,1.5095204,1.722047,-0.060132693,-0.032567304,3.4890363,1.0856473,5.031874,-0.03273723,1.5694162,5.959162,-0.006280318
FLNA,4.771567,-0.03334191,-0.029800724,-0.052238002,-0.061388582,1.704072,1.9415418,-0.059788268,-0.03459702,3.6537752,1.0927225,4.916118,-0.03379619,1.6144055,5.923719,-0.006748678
SIGLECG,4.6643324,-0.033032704,-0.029446505,-0.051631495,-0.061664958,1.720572,1.916563,-0.059282433,-0.034672737,3.70694,1.1648887,4.9214587,-0.03298346,1.5647092,5.889413,-0.006642565
CD53,4.490539,-0.031114915,-0.029422702,-0.049085606,-0.059727814,1.8007803,1.9056575,-0.05651526,-0.032491878,3.465299,1.4516091,4.708784,-0.032877002,1.4159253,5.5873713,-0.0062455256
PAFAH2,4.5799127,-0.031812556,-0.029872559,-0.050064597,-0.061236944,1.8734885,1.950434,-0.057860408,-0.03302696,3.5402513,1.5164293,4.805806,-0.03349845,1.4878584,5.71491,-0.0060850023
SLA,3.4947937,-0.022734882,-0.026869169,-0.039254963,-0.04671571,1.4310516,1.5125335,-0.04466741,-0.027388416,2.8300233,0.91408867,3.7157617,-0.026945645,0.9939283,4.5281343,-0.0046518855
GM37124,4.910541,-0.040902123,-0.027131738,-0.058765996,-0.064738,1.2216691,1.7284075,-0.064068705,-0.03923088,3.9636576,0.99272054,4.9753637,-0.030414896,1.5397513,6.8849254,-0.010126159
BDH2,4.465679,-0.030637274,-0.029691562,-0.048725065,-0.060158312,1.8442575,1.9385297,-0.056997724,-0.032062266,3.4479382,1.5207464,4.719417,-0.033365753,1.4477657,5.5762434,-0.0055731204
SMPDL3A,4.7458735,-0.03325186,-0.029725628,-0.05195133,-0.0612361,1.7164946,1.924212,-0.059256956,-0.034462724,3.636135,1.122005,4.889421,-0.03346018,1.6067272,5.878514,-0.006727009
WLS,4.8963795,-0.03425976,-0.029944558,-0.053125754,-0.06323452,1.6599935,1.9818474,-0.06208463,-0.03509022,3.7391374,1.0274832,5.087138,-0.03464105,1.7753098,6.1422553,-0.006497821
BCL2,4.6133013,-0.032036617,-0.029745998,-0.05060753,-0.06027765,1.7747904,1.9254316,-0.05794548,-0.033392247,3.530945,1.2807012,4.7905912,-0.033518884,1.4993604,5.7125783,-0.0064027095
PF4,4.2037635,-0.028599493,-0.029132498,-0.045580767,-0.057518672,1.8485829,1.850533,-0.053245623,-0.030108402,3.2485454,1.6691725,4.456381,-0.031837624,1.3094155,5.241639,-0.0053795576
MLLT3,4.098656,-0.029668033,-0.029426498,-0.043323707,-0.0594012,1.8521175,1.9104283,-0.054330252,-0.029364413,3.3583372,1.7772021,4.5131516,-0.030376801,1.2411795,5.409569,-0.006181423
OAS2,3.330071,-0.02286894,-0.026832651,-0.04100127,-0.0487996,1.4474738,1.4168607,-0.043613903,-0.029383086,2.8025796,1.0602114,3.741407,-0.026969723,1.3296611,4.372008,-0.00074011524
CDK19,4.238288,-0.02586096,-0.030584779,-0.037745073,-0.0515571,2.376776,1.5335181,-0.044631895,-0.026282534,3.2323592,1.5091406,3.7082436,-0.025924666,1.2474574,4.8564105,-0.0053923773
SP100,4.426891,-0.029728994,-0.029661464,-0.047655,-0.058126878,1.697562,1.8638772,-0.05578436,-0.03178325,3.3746667,1.1842152,4.571762,-0.032489907,1.5215906,5.6008472,-0.00549022
SLBP,4.3054004,-0.029321343,-0.029322041,-0.04661823,-0.05830575,1.8473997,1.8616357,-0.05442871,-0.030882677,3.3145447,1.5899682,4.520488,-0.03214847,1.3686216,5.36636,-0.0055226455
ZMIZ1,4.7424912,-0.03300579,-0.029970001,-0.051647224,-0.062464908,1.7946608,1.9887924,-0.06010136,-0.034119975,3.6428826,1.3300222,4.9579763,-0.03423079,1.6077354,5.898183,-0.006289185
ZBTB20,4.270762,-0.029025529,-0.028984975,-0.046386864,-0.05848095,1.8031783,1.8623835,-0.054458935,-0.03072989,3.3348687,1.5877174,4.5356145,-0.031904202,1.3742335,5.401967,-0.005034123
P2RY14,4.3730593,-0.03007443,-0.029401021,-0.04814917,-0.058103725,1.7997928,1.8590713,-0.054969236,-0.031766504,3.3726656,1.4043487,4.5700054,-0.032501567,1.3642138,5.433898,-0.0058698026
CCL3,4.2871785,-0.030573193,-0.028796047,-0.04589584,-0.058421798,1.8021171,1.7465751,-0.052329764,-0.029378757,3.2248495,1.5314388,4.359169,-0.030604346,1.585704,5.470171,-0.005623098
PARP8,4.5617733,-0.031523023,-0.029750103,-0.04968748,-0.061295714,1.8509309,1.9591858,-0.058061738,-0.032830298,3.5352106,1.5231371,4.8120813,-0.033575814,1.4878708,5.6944766,-0.0061068577
MPL,4.913017,-0.04090764,-0.027157826,-0.058783803,-0.064773336,1.2227858,1.7298865,-0.064100005,-0.039248552,3.9624455,0.993388,4.9743457,-0.030413475,1.5405807,6.8851,-0.010148234
TNFAIP2,4.7565126,-0.032605972,-0.030157188,-0.05131862,-0.061613075,1.696945,1.9457612,-0.060150016,-0.034261685,3.6009693,1.0957518,4.899187,-0.033948272,1.6989793,5.9989624,-0.0060074725
HID1,3.814834,-0.024641482,-0.023089238,-0.04339786,-0.06054239,1.155172,2.1438675,-0.061296552,-0.0280589,3.670531,0.9767506,4.7159004,-0.03314658,0.88100576,4.9848623,-0.0029922682
GGT5,4.862556,-0.033546265,-0.03003499,-0.052270994,-0.06303659,1.6333625,1.991016,-0.062121157,-0.034554545,3.7022638,0.99291915,5.0625944,-0.03467058,1.8275188,6.171151,-0.0059523657
SPI1,4.327788,-0.03761569,-0.023261266,-0.05262152,-0.054197248,0.76822966,1.3070455,-0.056022286,-0.033503678,3.4198744,0.07827177,4.026486,-0.024637865,1.4963472,6.4111624,-0.009926765
HDAC7,4.36204,-0.030497542,-0.029409422,-0.048492804,-0.05875636,1.8977242,1.874667,-0.054973334,-0.03216926,3.413928,1.5638896,4.6072526,-0.032294624,1.3165598,5.443075,-0.006070363
ERP29,4.534923,-0.031014537,-0.029690279,-0.04906394,-0.060046792,1.7679449,1.9075737,-0.057297546,-0.032473233,3.4690442,1.3580736,4.7191453,-0.03313521,1.5145652,5.689079,-0.0058239335
VLDLR,4.712016,-0.033612493,-0.029139131,-0.052566446,-0.061426427,1.6000216,1.859026,-0.06003249,-0.035511304,3.8148334,0.736058,4.927084,-0.032168847,1.7215651,5.960047,-0.0069757216
RGS19,4.2969165,-0.02962579,-0.02914204,-0.046897188,-0.05893479,1.8790065,1.8790895,-0.054530203,-0.031193886,3.36346,1.688399,4.564823,-0.032079913,1.3298026,5.3752165,-0.005744103
SELL,4.857397,-0.03420765,-0.029674944,-0.053249504,-0.062302936,1.6261545,1.9367459,-0.06116771,-0.03540588,3.7517185,0.9108208,5.0129585,-0.03374659,1.7324744,6.062387,-0.006885169
TMEM268,3.8533387,-0.025586437,-0.030401869,-0.04336822,-0.053790387,1.727689,1.7401719,-0.050227895,-0.02538775,3.0881531,1.37014,4.319275,-0.033421103,1.5795499,4.9000196,-0.0012792316
H2-OB,3.694704,-0.027038552,-0.01927252,-0.04275379,-0.054431684,1.0009353,2.0278192,-0.050120547,-0.028470058,2.907114,0.9751367,4.1338916,-0.025312863,1.8013514,5.8459487,-0.0021378654
EVI2A,4.7496266,-0.032817155,-0.029999055,-0.051389318,-0.061506514,1.6767153,1.9413311,-0.06002463,-0.034241572,3.5857866,1.1066302,4.9059467,-0.033933815,1.687276,5.9827647,-0.006119977
ME2,4.469791,-0.030580703,-0.02946794,-0.048138283,-0.06019673,1.8060621,1.9230087,-0.056787338,-0.031678315,3.4448335,1.5240611,4.7042675,-0.033019457,1.4775522,5.594716,-0.0057496415
LHCGR,3.5151813,-0.021985533,-0.027323479,-0.039456747,-0.045755915,1.4125717,1.494695,-0.04486382,-0.027336668,2.8460357,0.6309987,3.6616864,-0.026980557,1.0361149,4.5875506,-0.0042808917
PLPPR3,3.989872,-0.02779041,-0.028267922,-0.04575939,-0.053839784,1.8057619,1.723032,-0.050833087,-0.030508751,3.2196634,1.3366249,4.2695365,-0.030346507,1.0730733,4.9999523,-0.0057766205
5430427O19RIK,4.4062996,-0.03548944,-0.029522127,-0.049546506,-0.06141345,1.8018382,1.803851,-0.058285616,-0.032081697,3.8001578,1.0974815,5.063411,-0.03307626,1.466721,5.9160967,-0.008703759
IRF6,4.749376,-0.032876074,-0.030060014,-0.05161236,-0.06233112,1.7533765,1.986522,-0.060406458,-0.034067236,3.634544,1.2441957,4.9598665,-0.03439765,1.6501886,5.949051,-0.0060955244
SERPINA3G,4.9162164,-0.034321018,-0.029892744,-0.05316421,-0.064035185,1.6504678,1.9822984,-0.062563814,-0.03514411,3.7956223,1.0825591,5.1140165,-0.034475505,1.7959602,6.2184815,-0.0063414536
GFI1B,4.735753,-0.035069942,-0.028595228,-0.05304024,-0.061064016,1.451108,1.7660561,-0.05849678,-0.0356449,3.601616,1.123938,4.840643,-0.03126012,1.53098,6.258529,-0.007591234
ELOVL5,4.0924325,-0.026912967,-0.026291775,-0.04461222,-0.05741694,1.5928164,1.6840595,-0.052851055,-0.032301906,3.4201128,1.1116,4.353067,-0.028018303,1.5433215,5.7344484,-0.006416053
MKI67,4.503616,-0.031095898,-0.029719472,-0.049340803,-0.060124487,1.8504558,1.9286973,-0.056892827,-0.03262469,3.4717672,1.4754981,4.7260375,-0.033183664,1.446263,5.592626,-0.0058976454
CD244A,3.8968577,-0.026715023,-0.028091324,-0.0434055,-0.054785836,1.7868751,1.762943,-0.050356872,-0.029263293,3.1693275,1.6438385,4.232652,-0.02992805,1.083922,4.958528,-0.0051865233
PGR,4.317092,-0.02981773,-0.029303107,-0.04832476,-0.057494827,1.8433298,1.8438929,-0.054524023,-0.03193637,3.3775973,1.3734013,4.551253,-0.03224039,1.3029207,5.3731117,-0.0058376244
ANKRD33B,4.905267,-0.033140086,-0.030371223,-0.051486395,-0.06421087,1.5610685,2.0598457,-0.06303489,-0.03514914,3.7779734,1.0548929,4.9826665,-0.032925103,1.8142941,6.260985,-0.006235229
SLC18A2,4.161238,-0.029845674,-0.028210048,-0.04787549,-0.055691533,1.7406181,1.749926,-0.05318663,-0.032296076,3.4162998,1.1311768,4.438362,-0.03026667,1.2207406,5.250156,-0.006515624
NCAPD2,4.483067,-0.030739198,-0.029635714,-0.048520803,-0.06005373,1.8284816,1.9165082,-0.056831773,-0.032008853,3.4428122,1.5019579,4.697171,-0.033108342,1.4658746,5.5841227,-0.005890313
ADAM17,4.911649,-0.04089912,-0.02717646,-0.058793154,-0.0647842,1.2231696,1.7295569,-0.06410272,-0.039240386,3.9634316,0.99251837,4.9727273,-0.030405393,1.5407494,6.8860545,-0.010153202
MCM4,4.27551,-0.02929674,-0.029118104,-0.046468653,-0.058586072,1.8701339,1.8710353,-0.054141667,-0.030780938,3.328395,1.6788057,4.5365386,-0.032007933,1.3370575,5.3442926,-0.005500386
TNS2,4.572283,-0.030968878,-0.030115137,-0.04943487,-0.060848,1.7656528,1.9654685,-0.05861475,-0.032640014,3.5059683,1.3077639,4.7985797,-0.033861764,1.5981296,5.790446,-0.005295204
ITGAM,4.2654533,-0.028574347,-0.02843469,-0.045328744,-0.057389583,1.5969076,1.8100188,-0.054093823,-0.030538343,3.3215644,1.2644197,4.445836,-0.030771188,1.4926234,5.5152545,-0.0048984527
EPSTI1,4.6698794,-0.032431424,-0.029743304,-0.05074417,-0.060977623,1.7497746,1.9355648,-0.05868362,-0.03346099,3.559367,1.289398,4.8430266,-0.033683207,1.545291,5.7978754,-0.0065028346
TMEM173,4.162382,-0.028236452,-0.028953379,-0.045336645,-0.056803253,1.8026404,1.8169665,-0.05272799,-0.030176228,3.2338207,1.5740271,4.409081,-0.03140788,1.2941335,5.2287335,-0.005235702
PPCDC,4.796111,-0.033641722,-0.029979376,-0.05212132,-0.06309122,1.7649137,1.9660407,-0.0609321,-0.03421668,3.7193427,1.2597286,4.991804,-0.03407177,1.6952866,6.0579405,-0.0064437655
NKG7,4.8801227,-0.033875283,-0.030059317,-0.05270697,-0.06280781,1.6219475,1.9755574,-0.06201862,-0.034916632,3.6979418,0.95119005,5.062639,-0.034632612,1.8164822,6.1743455,-0.0061295354
HAAO,4.677584,-0.03242478,-0.029862165,-0.05101676,-0.061341766,1.7720804,1.9491659,-0.058968157,-0.033727966,3.5796623,1.3192973,4.8614697,-0.03379162,1.5470937,5.81774,-0.006347983
LAG3,4.6714745,-0.03279405,-0.029978747,-0.05112578,-0.061114065,1.7838159,1.9305878,-0.058677476,-0.033711765,3.5797458,1.3097904,4.846274,-0.0336613,1.5520142,5.838188,-0.006564515
ARRDC4,4.7419868,-0.03293324,-0.029993504,-0.051771495,-0.06249817,1.7888598,1.996105,-0.06030626,-0.03417024,3.657182,1.3030119,4.9685297,-0.034330864,1.612237,5.915047,-0.006246707
CD63,4.8804107,-0.034217276,-0.02997763,-0.05332188,-0.06450124,1.680596,1.994613,-0.06287498,-0.035535622,3.8686266,1.0689433,5.1345215,-0.03421826,1.7900102,6.212073,-0.006400534
RGS2,4.5424237,-0.031393953,-0.02985237,-0.04946875,-0.060815923,1.8614882,1.9412935,-0.05754599,-0.03259481,3.5009902,1.5296618,4.7632985,-0.033414442,1.4795266,5.6786513,-0.0059516993
KLHL4,4.5976357,-0.032027904,-0.02962706,-0.05040042,-0.060205292,1.7668142,1.9196904,-0.057727374,-0.03332366,3.5135126,1.3123331,4.7805185,-0.033375055,1.4898568,5.6877832,-0.006450287
STK17B,4.5609593,-0.031498715,-0.029718647,-0.049563155,-0.06107804,1.8481369,1.9435906,-0.0577457,-0.03285494,3.5054088,1.5176352,4.784806,-0.03336071,1.4973946,5.676333,-0.0058484147
UNC93B1,4.3217974,-0.02955053,-0.029297398,-0.04699992,-0.058501344,1.8233263,1.8715671,-0.054612644,-0.031140031,3.3574343,1.5699869,4.5539546,-0.03220524,1.3542131,5.397984,-0.0057768375
ITGAL,4.063849,-0.027578106,-0.02830624,-0.04415194,-0.05671449,1.7815568,1.802212,-0.051998608,-0.029585041,3.22771,1.6787639,4.344821,-0.030482525,1.2475189,5.168255,-0.0049960935
CD81,4.7608056,-0.033034697,-0.03004774,-0.051839694,-0.062356696,1.7410666,1.9849552,-0.06049217,-0.034148604,3.6485536,1.2316618,4.969435,-0.034422975,1.643177,5.9621825,-0.00618887
IL7R,4.102806,-0.02794637,-0.028626366,-0.044745535,-0.056625143,1.7980638,1.8062598,-0.052149914,-0.029826893,3.219621,1.6450725,4.372571,-0.030974822,1.2507589,5.1669073,-0.0052155084
CD69,4.2037635,-0.028599493,-0.029132498,-0.045580767,-0.057518672,1.8485829,1.850533,-0.053245623,-0.030108402,3.2485454,1.6691725,4.456381,-0.031837624,1.3094155,5.2416396,-0.0053795576
PRDM16,4.547605,-0.031884238,-0.029529123,-0.050695647,-0.059500225,1.7882704,1.8922653,-0.05725734,-0.033760298,3.5587094,1.2019126,4.7510386,-0.032823462,1.4503156,5.658611,-0.006507737
SLC18A1,4.538027,-0.031400587,-0.029595712,-0.049651455,-0.060191855,1.8143415,1.919578,-0.057205565,-0.032927394,3.4951813,1.4123275,4.750242,-0.033155676,1.4626899,5.6441317,-0.006101345
TMEM246,4.0770416,-0.027428742,-0.029029196,-0.0454899,-0.054518215,1.7983565,1.7529136,-0.051303312,-0.030395698,3.1914093,1.3567104,4.2847056,-0.030948982,1.18751,5.09406,-0.005330612
SYK,4.4008923,-0.030198839,-0.029497318,-0.047662124,-0.05964211,1.8666313,1.9154061,-0.055956252,-0.03135965,3.3880124,1.6102974,4.6538305,-0.03294455,1.4189309,5.474258,-0.0056538587
CD44,4.79185,-0.03324311,-0.029977368,-0.05199234,-0.063191324,1.7606966,1.9960328,-0.060985312,-0.034387656,3.6934967,1.3026296,5.0088925,-0.034333378,1.6620252,6.005859,-0.0062033897
PKIB,4.520617,-0.031828616,-0.02935036,-0.050068174,-0.058947906,1.7842867,1.8575305,-0.05628181,-0.03330521,3.50293,1.238652,4.687727,-0.03232409,1.4386469,5.5929494,-0.0065485556
DEF8,4.649239,-0.032143753,-0.029841337,-0.050598137,-0.061972473,1.8083512,1.9746919,-0.059172325,-0.03342396,3.58306,1.4441745,4.8875575,-0.033915453,1.5495878,5.815036,-0.005981156
NCEH1,4.2785954,-0.029258175,-0.029185494,-0.046324767,-0.058563508,1.8708193,1.8781229,-0.054326743,-0.030499896,3.3111885,1.6819149,4.5394983,-0.032224562,1.353951,5.330577,-0.005428955
TBXA2R,4.479576,-0.030628413,-0.029646544,-0.048611265,-0.059152145,1.7647452,1.8865447,-0.056341104,-0.032138865,3.4263165,1.3345091,4.653785,-0.03290876,1.4723134,5.602183,-0.005923993
POLA2,4.7636585,-0.033715706,-0.030026602,-0.05225213,-0.061923865,1.7562387,1.9302044,-0.059818156,-0.03441266,3.679337,1.1850944,4.926495,-0.033750236,1.6229584,5.9694023,-0.006881583
CMAH,4.789012,-0.03359826,-0.030096391,-0.05200863,-0.062143225,1.7314482,1.9346747,-0.060262065,-0.03427051,3.6562636,1.1791853,4.9373546,-0.03389316,1.6875929,6.055924,-0.0065408163
PRNP,4.3719134,-0.0255226,-0.0314345,-0.044412255,-0.053534023,1.2795484,1.870892,-0.05031607,-0.029847886,3.0308714,1.5271848,4.2939363,-0.03293326,1.3041662,5.08061,-0.010628108
APP,4.7360454,-0.033994503,-0.03011386,-0.05081966,-0.062309645,1.8790469,1.8997769,-0.057830863,-0.031758904,3.4688776,1.3706443,4.741407,-0.0336623,1.8592782,5.850827,-0.0064277705
NT5C3,4.155461,-0.0279923,-0.028657459,-0.044819754,-0.057715517,1.8001696,1.8454448,-0.053315733,-0.029813886,3.2836921,1.6592938,4.4317837,-0.031172926,1.3258295,5.2950516,-0.004869164
CFP,3.923295,-0.026629848,-0.02811141,-0.043254275,-0.05491024,1.7542224,1.7587631,-0.050393,-0.029076606,3.1475084,1.6275764,4.2322025,-0.029969497,1.1448773,4.992591,-0.0049543157
CD33,4.3752995,-0.029546509,-0.029155916,-0.046671465,-0.0594266,1.7630346,1.8947381,-0.055811014,-0.030984065,3.3883448,1.5239154,4.600247,-0.03220051,1.479632,5.5413904,-0.005267592
PAQR5,4.88965,-0.034429695,-0.02972958,-0.05337556,-0.062957965,1.6406043,1.9556075,-0.061758045,-0.035432633,3.764272,0.98560923,5.0572853,-0.0340841,1.7484177,6.118834,-0.006829001
NAV1,4.823839,-0.034059156,-0.029594379,-0.05308666,-0.0621959,1.6292133,1.9170321,-0.060865264,-0.0354906,3.7800143,0.87233263,4.994235,-0.03330558,1.7297064,6.034024,-0.0069946763
NAPSA,4.753673,-0.033634007,-0.030078497,-0.04991383,-0.059275236,1.7187171,1.7799101,-0.059088353,-0.033239983,3.4094067,1.2499033,4.817878,-0.034424372,1.3939776,5.814114,-0.0078106034
BLNK,4.7720656,-0.03334599,-0.029800128,-0.052241426,-0.061389074,1.7038739,1.9413602,-0.059791725,-0.03460298,3.6542575,1.0917072,4.9161825,-0.033792626,1.6148332,5.924186,-0.006752068
VDR,4.870791,-0.034319907,-0.029745921,-0.053379398,-0.06336552,1.6506383,1.953154,-0.061865356,-0.035650965,3.8172064,0.9744572,5.0665975,-0.03377004,1.7602503,6.12608,-0.0068108723
F11R,4.49967,-0.033804484,-0.028458528,-0.05066564,-0.05776881,1.704911,1.9250046,-0.060971282,-0.037008278,3.8028939,0.5962754,4.6109276,-0.030315742,1.5916592,5.61542,-0.009718637
CDKN1C,4.799444,-0.033929873,-0.029718623,-0.053046107,-0.063472465,1.6848598,1.9657662,-0.061933346,-0.03548634,3.8467288,0.96697116,5.06993,-0.0336753,1.7558907,6.0760026,-0.0065909824
GM973,4.8573976,-0.03420765,-0.02967495,-0.053249512,-0.062302936,1.6261547,1.936746,-0.06116771,-0.03540588,3.7517185,0.91082066,5.0129585,-0.033746596,1.7324744,6.062387,-0.0068851714
DACH1,4.820969,-0.03403116,-0.029590445,-0.05308547,-0.06221918,1.635817,1.9197239,-0.0609066,-0.035461955,3.7781885,0.8770719,4.995438,-0.03335977,1.73148,6.029898,-0.0069680577
ABCG2,4.792729,-0.03340715,-0.030004587,-0.052340243,-0.06251874,1.734756,1.9880775,-0.060722455,-0.03452098,3.6829753,1.2048664,4.9936953,-0.034391787,1.6414816,5.9820714,-0.006466104
FCHO2,4.803108,-0.03580838,-0.025273513,-0.04977498,-0.061685782,1.397939,1.678959,-0.05470213,-0.031248381,3.803645,0.83672863,4.847004,-0.031278037,1.7604581,5.8059177,-0.008096507
DOK2,4.600012,-0.031864516,-0.029655723,-0.05003832,-0.060469586,1.7766435,1.9257929,-0.057803802,-0.033010367,3.5173702,1.360873,4.785708,-0.033399828,1.4926468,5.706617,-0.006412963
KAZALD1,4.5584145,-0.031320542,-0.02961296,-0.049152732,-0.061414227,1.8279424,1.9532053,-0.05803014,-0.0324201,3.5198264,1.5444325,4.8057723,-0.03344844,1.5171639,5.7126637,-0.005818363
MYCT1,4.1311474,-0.028344963,-0.02880084,-0.045829542,-0.058626637,1.8857903,1.9048388,-0.054276958,-0.030530727,3.3835747,1.716816,4.5368185,-0.031772114,1.2613593,5.30581,-0.004822014
FCRL1,4.6698794,-0.032431424,-0.029743308,-0.05074417,-0.060977623,1.7497746,1.9355648,-0.058683623,-0.033460993,3.559367,1.2893978,4.8430266,-0.033683207,1.545291,5.7978754,-0.006502836
STARD4,4.115371,-0.028631851,-0.028971996,-0.044364076,-0.05668124,1.8988817,1.7857157,-0.050955255,-0.028329154,3.1076162,1.7557371,4.268662,-0.031111991,1.3750085,5.0890217,-0.0054940763
GIMAP4,4.337238,-0.02955729,-0.029407153,-0.047207903,-0.05708899,1.7195747,1.830115,-0.054497104,-0.031489193,3.2860336,1.2642429,4.505333,-0.032166954,1.430705,5.4342732,-0.0056695263
FDFT1,4.4072857,-0.030217823,-0.029547771,-0.047856458,-0.05960307,1.8756385,1.904459,-0.055705875,-0.031632308,3.4116278,1.6032633,4.6339364,-0.03269635,1.3997247,5.486882,-0.005851888
PPIC,4.5703707,-0.030644171,-0.030196609,-0.0487508,-0.059987426,1.6930047,1.9863,-0.05775543,-0.03347378,3.5084908,1.2513189,4.6048713,-0.03130197,1.483179,5.713059,-0.006284477
SLC16A10,4.5585384,-0.031619355,-0.029688854,-0.04992737,-0.061028223,1.846608,1.945811,-0.057797205,-0.033115607,3.532496,1.48601,4.7994246,-0.033347886,1.4781832,5.686058,-0.0059806597
PLSCR4,4.475436,-0.026329355,-0.031951465,-0.04546751,-0.054062724,1.2341022,1.9052323,-0.05140862,-0.030190116,3.09121,1.440451,4.3806663,-0.033600606,1.3822817,5.23414,-0.011236308
CDT1,4.0211544,-0.02707429,-0.028698081,-0.044077862,-0.055463936,1.8076981,1.7786379,-0.051199183,-0.029557506,3.1603367,1.6014295,4.2829404,-0.03066544,1.2057543,5.0679836,-0.0049895174
CAPG,4.395541,-0.027900275,-0.025209745,-0.049803548,-0.05768596,1.8069762,2.0809383,-0.057138655,-0.030390691,3.2935421,1.2891506,4.8977575,-0.035944447,1.5453502,5.4275217,-0.0043162936
TIPIN,4.651321,-0.032162093,-0.029849123,-0.050632928,-0.061976187,1.8069165,1.9751941,-0.059193384,-0.03344144,3.5846317,1.4410373,4.889281,-0.033928216,1.5494413,5.8175077,-0.0059929495
CCL9,3.9457705,-0.026751807,-0.028500233,-0.04383548,-0.054645002,1.8002408,1.7654908,-0.050529093,-0.029356748,3.1308255,1.5974178,4.241935,-0.03052331,1.1295497,4.964896,-0.00511558
ARHGAP18,4.473465,-0.030518366,-0.029651187,-0.04820579,-0.060413007,1.853426,1.9320986,-0.05693288,-0.031741258,3.442436,1.5631591,4.7053776,-0.033175476,1.4796342,5.587856,-0.005573036
PIRB,3.8248527,-0.02698992,-0.028113522,-0.04118921,-0.054801535,1.6935542,1.732955,-0.05042013,-0.027413853,3.1632159,1.5114926,4.285106,-0.029837286,1.2215263,5.1332746,-0.0051984536
PROCR,3.3246434,-0.023326205,-0.025391297,-0.040025644,-0.045483373,1.5077124,1.4568012,-0.044181187,-0.027495624,2.9521651,0.82340926,3.6330917,-0.025456643,0.7408798,4.3084693,-0.00580304
IGHV1-77,4.913017,-0.04090764,-0.027157826,-0.058783803,-0.064773336,1.2227858,1.7298865,-0.064100005,-0.039248552,3.9624455,0.993388,4.9743457,-0.030413475,1.5405807,6.8851,-0.010148234
FAM171A1,4.7445183,-0.032981243,-0.029930023,-0.05180742,-0.061249837,1.725605,1.9434954,-0.05965003,-0.03425997,3.6190026,1.1243793,4.893299,-0.033951882,1.60753,5.9003553,-0.0065138247
SLC2A3,3.8266766,-0.028335227,-0.03077907,-0.04318541,-0.055786233,1.8176389,1.7347941,-0.05176456,-0.024603087,3.255457,1.437769,4.581697,-0.034351733,1.5664254,5.134666,-0.0027288618
TAPT1,4.8117733,-0.03363978,-0.029873857,-0.052445516,-0.062401712,1.7159398,1.9636315,-0.060487594,-0.03482347,3.6857069,1.1791142,4.976404,-0.03399551,1.6441716,5.988563,-0.0066787624
PARVG,4.184513,-0.028376538,-0.028731087,-0.04527264,-0.057598833,1.7867217,1.8315128,-0.053271547,-0.030153126,3.2866762,1.62369,4.4339266,-0.031216612,1.3193372,5.2934484,-0.0051964168
GNG11,4.4963574,-0.031070916,-0.0296449,-0.04939784,-0.059014123,1.8234713,1.8793643,-0.05608857,-0.03260712,3.444107,1.3464435,4.658335,-0.032774575,1.432245,5.552154,-0.0060956115
SAMSN1,4.5404325,-0.031116456,-0.029685076,-0.04887385,-0.060473,1.7892747,1.925505,-0.05753257,-0.032267854,3.4633858,1.4431694,4.7416596,-0.033282023,1.5268224,5.671881,-0.0059260675
GM2A,4.3646083,-0.029782107,-0.029450621,-0.047384694,-0.059122488,1.859993,1.8861401,-0.05533805,-0.031372484,3.3640215,1.5809842,4.590723,-0.032495737,1.4021949,5.45096,-0.005352792
RNASE6,4.7287574,-0.03303417,-0.029727548,-0.0516522,-0.06110716,1.7301271,1.9262255,-0.059038356,-0.03417128,3.6004384,1.1747419,4.8697376,-0.033547845,1.5911199,5.85334,-0.0065509086
ARHGEF39,4.823975,-0.03342712,-0.029830392,-0.051915072,-0.063038506,1.6769476,1.9714897,-0.061162125,-0.034381066,3.6837053,1.1871977,5.0155363,-0.03418587,1.7272226,6.087701,-0.0061674705
SLC43A2,4.184513,-0.028376538,-0.028731087,-0.04527264,-0.05759883,1.7867218,1.8315128,-0.053271547,-0.030153126,3.286676,1.6236901,4.4339266,-0.031216612,1.3193375,5.2934484,-0.0051964168
VAMP1,4.057373,-0.027484104,-0.028584508,-0.04441311,-0.05617153,1.80669,1.7901258,-0.051713623,-0.029743174,3.2058504,1.6320716,4.325985,-0.030694805,1.2210156,5.125006,-0.005055641
2810468N07RIK,4.913017,-0.04090764,-0.027157826,-0.058783803,-0.064773336,1.2227858,1.7298865,-0.064100005,-0.039248552,3.9624455,0.993388,4.9743457,-0.030413475,1.5405807,6.8851,-0.010148234
FKBP9,4.457721,-0.034105606,-0.02779673,-0.052230794,-0.060421076,1.5510951,1.7099066,-0.05890734,-0.031572808,3.4052715,1.1846222,4.95934,-0.03265077,1.4713403,5.8086934,-0.0059937662
KLF6,4.5270953,-0.03138785,-0.029658437,-0.049352445,-0.06060383,1.8351214,1.9105192,-0.0570692,-0.032751206,3.4800127,1.5308506,4.757424,-0.033091735,1.4477233,5.647757,-0.0058938307
PYGL,4.745103,-0.032493807,-0.030047234,-0.05106642,-0.06218756,1.7027006,1.9684131,-0.06045953,-0.033857394,3.606828,1.1832656,4.932887,-0.034131482,1.7119426,6.008594,-0.0057118796
AMPD2,4.199295,-0.028006323,-0.02879067,-0.044794343,-0.057253417,1.6898409,1.8286133,-0.0535599,-0.030038495,3.2616296,1.4602823,4.416427,-0.031046715,1.4188243,5.376925,-0.004757704
AFF3,4.799171,-0.033954687,-0.029521814,-0.05299902,-0.062113013,1.6309724,1.9067911,-0.060737047,-0.035518967,3.7921364,0.8468947,4.9848146,-0.03309729,1.730488,6.019508,-0.0069715027
NRROS,4.8221264,-0.034510147,-0.030021757,-0.050822813,-0.059698176,1.7173274,1.7818404,-0.05976688,-0.033859227,3.4615192,1.2107257,4.882924,-0.034642227,1.3960426,5.865222,-0.0083139315
APLP2,4.690418,-0.032459766,-0.029943228,-0.05105589,-0.062133912,1.8082922,1.9742649,-0.05940287,-0.033802647,3.6104562,1.3929114,4.90303,-0.033897072,1.5723641,5.850536,-0.0060979472
IRF8,4.718588,-0.036487713,-0.028126916,-0.054303173,-0.062402185,1.5251935,1.7609862,-0.059348382,-0.03643995,3.7941332,1.246683,4.922359,-0.031022083,1.3946536,6.1633477,-0.009045728
CBFB,4.807985,-0.041172948,-0.025793519,-0.057811793,-0.06280604,1.0832889,1.5764017,-0.061986584,-0.037307013,3.8249834,0.83781093,4.74192,-0.028738413,1.5128273,6.8145614,-0.010875627
MPO,4.7565126,-0.032605972,-0.030157188,-0.05131862,-0.061613075,1.696945,1.9457612,-0.060150016,-0.034261685,3.6009693,1.0957518,4.899187,-0.033948272,1.6989793,5.9989624,-0.0060074725
TES,4.7296147,-0.032936964,-0.029833589,-0.051512025,-0.06228238,1.7785958,1.9767232,-0.05982338,-0.034127455,3.6387684,1.3267909,4.9445605,-0.033989187,1.5925604,5.891535,-0.0063668815
MEIS1,4.423931,-0.03503187,-0.026780905,-0.05177807,-0.061166838,1.3624823,1.6641428,-0.05609465,-0.0340358,3.6556954,1.4266573,4.638801,-0.028813025,1.3042756,6.1021476,-0.007822234
BTLA,4.326707,-0.030149896,-0.0291658,-0.04803498,-0.057578664,1.8293531,1.8327353,-0.054094166,-0.031884074,3.3585777,1.4441904,4.5366387,-0.03192635,1.303003,5.3527966,-0.0061648707
GM10384,4.7640667,-0.041040063,-0.026390066,-0.057715893,-0.064752735,1.189203,1.6440688,-0.06364987,-0.040050555,3.9362645,1.1101741,4.8535805,-0.028614687,1.5784827,6.7538877,-0.009647578
ARL11,4.3501687,-0.02939289,-0.029405888,-0.04681213,-0.05856824,1.7808247,1.8823311,-0.05518948,-0.03101045,3.3514614,1.471485,4.5623407,-0.03237218,1.4355973,5.4672303,-0.0054494687
RHOF,4.7669086,-0.033776905,-0.029989427,-0.05227529,-0.06181675,1.7508512,1.9288265,-0.05971974,-0.03437719,3.6699784,1.194029,4.926224,-0.03380388,1.6137539,5.969464,-0.0068890243
TMEM14C,4.294084,-0.029370617,-0.029353946,-0.04675077,-0.058693636,1.8953322,1.8855898,-0.054497447,-0.030807665,3.3306782,1.6657773,4.5532656,-0.03239663,1.345171,5.3452353,-0.0054491637
SSH2,4.2726135,-0.029432988,-0.029357737,-0.046827577,-0.05830012,1.9140091,1.87607,-0.0540526,-0.030806517,3.3183515,1.6915642,4.5312896,-0.032277156,1.3020937,5.319627,-0.0057059615
TIE1,4.913017,-0.04090764,-0.027157826,-0.058783803,-0.064773336,1.2227858,1.7298865,-0.064100005,-0.039248552,3.9624455,0.993388,4.9743457,-0.030413475,1.5405807,6.8851,-0.010148234
CD34,4.4346623,-0.030514833,-0.029665584,-0.048631866,-0.059928536,1.8916315,1.9271879,-0.056359902,-0.032088432,3.4420066,1.553166,4.690395,-0.033060446,1.4165581,5.5263085,-0.005546376
NOTCH1,4.657271,-0.03524219,-0.02884923,-0.05242238,-0.06153383,1.619694,1.7660042,-0.05779599,-0.034977432,3.6941643,1.3294487,4.8150463,-0.031178309,1.453863,6.0485463,-0.008080915
PECAM1,4.7048182,-0.03252223,-0.03007257,-0.051290464,-0.062281635,1.7899044,1.994558,-0.059995294,-0.033714026,3.6283035,1.3449861,4.94169,-0.034388684,1.5925142,5.888121,-0.006022264
CLEC12A,4.5451493,-0.03134298,-0.029556546,-0.04923262,-0.0606675,1.8083009,1.91768,-0.05742303,-0.032661334,3.4895744,1.4798344,4.754724,-0.033103343,1.4920093,5.674304,-0.0058849496
NPDC1,4.743486,-0.032811955,-0.029958209,-0.05154758,-0.062162183,1.7544231,1.9650607,-0.05992824,-0.034103774,3.6350055,1.2900074,4.924777,-0.03401607,1.6064731,5.931611,-0.006265671
JAM3,4.473777,-0.030041376,-0.030161079,-0.04848563,-0.058037147,1.7481067,1.8703865,-0.05622205,-0.032411303,3.399126,1.1014881,4.5938544,-0.03293738,1.513656,5.608205,-0.005742045
PDE1B,4.384605,-0.034157455,-0.029931668,-0.048741393,-0.061828446,1.9366133,1.8992305,-0.058098283,-0.031252477,3.6744232,1.4957217,5.027739,-0.034134578,1.3871418,5.8141103,-0.007709549
FLT3,4.7302213,-0.033128005,-0.029674916,-0.051783636,-0.061152644,1.7071278,1.9370205,-0.059292562,-0.034252968,3.6120174,1.1635882,4.8899884,-0.033698432,1.5802684,5.8630743,-0.006744606
SERPINF1,4.887866,-0.034237362,-0.029969148,-0.053250425,-0.06371044,1.6718807,1.99151,-0.062350567,-0.035143476,3.7888036,1.068841,5.110437,-0.03458457,1.7665021,6.1467023,-0.006456107
IL17RE,4.5235744,-0.031225948,-0.029706087,-0.049577706,-0.059504032,1.7829001,1.9053864,-0.056992896,-0.032690506,3.4628227,1.3136221,4.7084885,-0.03327869,1.4711257,5.6252356,-0.0060607074
SLC44A2,3.7601523,-0.025664,-0.02795659,-0.042707156,-0.053105548,1.7644219,1.7311248,-0.049253758,-0.028784242,3.104322,1.5791225,4.1360083,-0.02966315,0.982442,4.7955394,-0.0050327033
RASAL3,4.3374553,-0.03245591,-0.02857756,-0.048182257,-0.056955155,1.8381579,1.9906442,-0.06030499,-0.03547614,3.6410947,0.9628915,4.4865313,-0.030705338,1.4809171,5.413713,-0.0094607705
H2-Q6,4.836727,-0.03410823,-0.029634045,-0.053169794,-0.062259033,1.6368469,1.9286702,-0.06104233,-0.03543235,3.765097,0.8952716,5.0047035,-0.033572074,1.7316381,6.0406156,-0.0069430238
ICA1,4.8529773,-0.03421187,-0.029655641,-0.053245258,-0.062281888,1.6333363,1.9376132,-0.06120659,-0.035389517,3.7490165,0.91333085,5.014168,-0.033805363,1.7309101,6.0572834,-0.0068890145
GMNN,4.494296,-0.031037675,-0.029665193,-0.048776295,-0.060793564,1.8768523,1.9421006,-0.05712544,-0.031974655,3.4844494,1.6178306,4.7427645,-0.033215147,1.4682783,5.6410255,-0.0058956128
CYFIP2,4.2982535,-0.029566513,-0.029071469,-0.046761055,-0.059110425,1.8416541,1.8811288,-0.054808993,-0.031018687,3.3799055,1.6777921,4.5757475,-0.03203962,1.3479462,5.4100847,-0.005694237
SERPINB6A,4.6742606,-0.032352235,-0.02985652,-0.050685856,-0.061928935,1.7909697,1.9668163,-0.059335064,-0.033456188,3.5837393,1.3920457,4.8897376,-0.033954706,1.5803958,5.835448,-0.0061216075
NUDT19,4.2842865,-0.028821966,-0.029052967,-0.04590551,-0.058471486,1.7636235,1.8682873,-0.054652747,-0.03056242,3.3313987,1.5397075,4.512663,-0.03176007,1.4270314,5.4384565,-0.0050520212
MMRN1,4.862556,-0.033546265,-0.03003499,-0.052270994,-0.06303659,1.6333625,1.991016,-0.062121157,-0.034554545,3.7022638,0.99291915,5.0625944,-0.03467058,1.8275188,6.171151,-0.0059523657
SAT1,4.731322,-0.032734826,-0.029806703,-0.051117778,-0.06314533,1.7700548,1.9952645,-0.06051405,-0.033712786,3.6685216,1.394014,4.9822717,-0.03415636,1.6443769,5.9589677,-0.0060451943
ANXA5,4.247476,-0.032516144,-0.029786043,-0.04706649,-0.059921037,1.9632654,1.8391169,-0.05550095,-0.03024146,3.5142224,1.6403476,4.7889557,-0.033067875,1.2910172,5.605786,-0.007326912
SSTR2,4.208493,-0.0327624,-0.022238689,-0.049813867,-0.05649509,1.0972451,2.179359,-0.05501122,-0.030829508,3.159664,0.6738717,4.558534,-0.029332018,1.8598527,5.8557167,-0.0025969052
MEF2C,4.638302,-0.032730963,-0.029493928,-0.05057759,-0.06209985,1.7765844,1.9066812,-0.058242057,-0.03364538,3.6175623,1.4872289,4.86777,-0.032865454,1.5323011,5.8767056,-0.006371545
CSF3R,4.516808,-0.03100372,-0.030972298,-0.05005217,-0.059054717,1.4749032,1.8349364,-0.05822681,-0.029902272,3.546403,0.77781755,4.8799453,-0.035464037,2.0318341,5.7654204,-0.0026900708
DOCK10,4.393816,-0.030056464,-0.029428443,-0.047607798,-0.059758484,1.8635771,1.9144001,-0.055891164,-0.03138249,3.4074154,1.612779,4.6525655,-0.032791324,1.4172373,5.497943,-0.0055493126
ROBO4,4.913017,-0.04090764,-0.027157826,-0.058783803,-0.064773336,1.2227858,1.7298865,-0.064100005,-0.039248552,3.9624455,0.993388,4.9743457,-0.030413475,1.5405807,6.8851,-0.010148234
SELENOP,4.5888824,-0.031546947,-0.029718995,-0.04941946,-0.06091455,1.7614448,1.9254,-0.058087654,-0.03264333,3.509758,1.3894489,4.7810297,-0.03321404,1.5839593,5.8044558,-0.005802682
PEAR1,4.703768,-0.032641374,-0.029900193,-0.051461447,-0.061124276,1.7426398,1.9456358,-0.0593268,-0.03402192,3.5924065,1.1728834,4.8761787,-0.033944853,1.5926031,5.86231,-0.0062843347
PDZK1IP1,4.712016,-0.033612493,-0.029139131,-0.052566446,-0.061426427,1.6000216,1.859026,-0.06003249,-0.035511304,3.8148334,0.736058,4.927084,-0.032168847,1.7215651,5.960047,-0.0069757216
MAML3,4.4093347,-0.0307385,-0.029326567,-0.048917342,-0.058950923,1.8571024,1.8717302,-0.055579513,-0.032589365,3.449575,1.4500498,4.638448,-0.03228948,1.3643657,5.4971757,-0.006005466
TINAGL1,4.9022284,-0.03441241,-0.029930072,-0.053546105,-0.064231515,1.6341734,1.9683222,-0.06261163,-0.035940494,3.8746476,1.0277067,5.116182,-0.033853617,1.7740902,6.23976,-0.006665565
GBP4,4.6175714,-0.032142416,-0.029754804,-0.050513238,-0.061148,1.8134114,1.9485509,-0.05826108,-0.03342966,3.551748,1.401369,4.8343067,-0.033543527,1.5146025,5.7335157,-0.0062061446
CADPS2,4.547605,-0.031884238,-0.029529123,-0.050695647,-0.059500225,1.7882704,1.8922653,-0.05725734,-0.033760298,3.5587094,1.2019126,4.7510386,-0.032823462,1.4503156,5.658611,-0.006507737
STXBP1,4.583245,-0.03186356,-0.029675402,-0.050296467,-0.060644653,1.8279912,1.9205091,-0.0576494,-0.033422526,3.5440342,1.3934604,4.7825007,-0.033111203,1.4820291,5.703709,-0.0061858506
RNF213,4.7128024,-0.032793477,-0.029748058,-0.051435933,-0.061596166,1.7493067,1.9526227,-0.059368633,-0.03405793,3.6162083,1.2526709,4.900959,-0.033788476,1.5806519,5.871851,-0.0064150733
TESPA1,4.1564126,-0.028003797,-0.028454943,-0.044509962,-0.05730986,1.7277981,1.8220859,-0.052999757,-0.029816197,3.263666,1.5898784,4.3959875,-0.030744007,1.3524808,5.3032975,-0.0049900324
FRMD6,4.1680927,-0.028787533,-0.02893126,-0.046067785,-0.057394743,1.864315,1.8453233,-0.05319587,-0.030690357,3.3058639,1.6514964,4.4581637,-0.031585123,1.2253171,5.2291055,-0.0057776696
AFDN,4.792729,-0.03340715,-0.030004587,-0.052340243,-0.06251874,1.734756,1.9880774,-0.060722455,-0.03452098,3.6829753,1.2048664,4.9936953,-0.034391783,1.6414815,5.9820714,-0.006466104
DOCK11,4.5224895,-0.030880947,-0.029548248,-0.048629884,-0.061246116,1.8021786,1.973078,-0.05815362,-0.03186608,3.5134153,1.5041251,4.800466,-0.033606675,1.545532,5.6995444,-0.005628993
ADGRL4,4.520617,-0.031828616,-0.02935036,-0.050068174,-0.058947906,1.7842867,1.8575305,-0.05628181,-0.03330521,3.50293,1.2386519,4.687727,-0.032324087,1.4386467,5.5929494,-0.0065485556
ARID5A,4.105151,-0.02820591,-0.028580856,-0.04532464,-0.05702801,1.8616285,1.8207003,-0.052437093,-0.03021516,3.2554872,1.6875585,4.411945,-0.031084126,1.2156436,5.1719522,-0.0052024177
CTNNAL1,4.8276095,-0.032568045,-0.03045926,-0.05100166,-0.063124634,1.610533,2.059597,-0.061742477,-0.034794338,3.692569,1.1552304,4.893665,-0.032820605,1.6942457,6.099491,-0.0063550966
4833407H14RIK,4.913017,-0.04090764,-0.027157826,-0.058783803,-0.064773336,1.2227858,1.7298865,-0.064100005,-0.039248552,3.9624455,0.993388,4.9743457,-0.030413475,1.5405807,6.8851,-0.010148234
GPR18,4.7813725,-0.033369575,-0.029746976,-0.051950235,-0.061937325,1.6993396,1.9577144,-0.06001287,-0.034333587,3.6495013,1.1891738,4.9515185,-0.0339511,1.6206883,5.9491105,-0.006780193
TRIM47,4.1984644,-0.028508475,-0.029122228,-0.045741636,-0.057576645,1.8438314,1.8576669,-0.053529233,-0.030147785,3.267429,1.6434517,4.4697404,-0.031960692,1.3065966,5.25417,-0.0052693477
PRUNE2,4.5022244,-0.030138642,-0.026754221,-0.0483496,-0.062420715,1.4573431,1.7947321,-0.05922906,-0.034642827,3.763091,0.87196773,4.7979646,-0.029859776,1.8911401,6.329461,-0.006654095
MAGED1,4.987142,-0.040813744,-0.0253117,-0.059669256,-0.06108038,1.0375977,1.4425797,-0.060513746,-0.039626103,3.7276742,1.1761743,4.9252315,-0.02752023,1.2729555,6.7999063,-0.010209349
GIMAP1,4.876205,-0.034296077,-0.029674262,-0.053218182,-0.062065158,1.5991858,1.9443355,-0.061275866,-0.035266902,3.7038214,0.9064882,5.0178647,-0.034081917,1.7405871,6.1007276,-0.006722785
PRR5,4.674605,-0.032363378,-0.029915204,-0.051082596,-0.06054555,1.7719038,1.9260514,-0.05851906,-0.033778187,3.579507,1.1946939,4.812757,-0.03357517,1.539726,5.782867,-0.006579878
C230085N15RIK,4.913017,-0.04090764,-0.027157826,-0.058783803,-0.064773336,1.2227858,1.7298865,-0.064100005,-0.039248552,3.9624455,0.993388,4.9743457,-0.030413475,1.5405807,6.8851,-0.010148234
F630028O10RIK,4.913017,-0.04090764,-0.027157826,-0.058783803,-0.064773336,1.2227858,1.7298865,-0.064100005,-0.039248552,3.9624455,0.993388,4.9743457,-0.030413475,1.5405807,6.8851,-0.010148234
DUSP1,4.66718,-0.032208875,-0.029928021,-0.05067134,-0.061248764,1.7563286,1.9447744,-0.059040602,-0.03362916,3.5546322,1.2790405,4.8508334,-0.033801854,1.5940851,5.84415,-0.0060629826
E430014B02RIK,4.547424,-0.04063184,-0.025863985,-0.056047585,-0.05976263,1.3073888,1.741151,-0.06423761,-0.040983558,3.9892313,0.6795904,4.539895,-0.027045812,1.3820568,6.4098096,-0.013251745
ARHGEF18,4.2845693,-0.028742973,-0.029425902,-0.04640431,-0.0578561,1.7715751,1.8658234,-0.0546365,-0.03083743,3.2966847,1.4381058,4.5167365,-0.03223333,1.4195474,5.4184303,-0.0049282154
RANBP1,4.187797,-0.028436748,-0.028812474,-0.04543232,-0.05801983,1.8431947,1.8473121,-0.05342569,-0.030139219,3.2917163,1.7002379,4.464093,-0.031457197,1.3089389,5.290216,-0.0050544804
CD74,4.775106,-0.03224132,-0.028652439,-0.05052997,-0.061663646,1.7601581,1.9829242,-0.061044235,-0.032477602,3.502121,1.351659,4.935888,-0.034243904,1.6547743,5.8176622,-0.0070766527
ADGRG3,4.6216493,-0.032862373,-0.030201815,-0.04988334,-0.061712332,1.9399674,1.920787,-0.056962732,-0.031099476,3.4262896,1.5161649,4.69491,-0.0337618,1.7346375,5.7066293,-0.006092368
SYTL1,4.873198,-0.034306854,-0.02967346,-0.053257525,-0.062188677,1.6119797,1.9443243,-0.0612839,-0.035306532,3.7213392,0.91908354,5.019386,-0.034007717,1.7337669,6.086802,-0.0068001524
CORO7,4.7018604,-0.03396676,-0.02988407,-0.050731543,-0.06167102,1.8769599,1.876416,-0.05700074,-0.031809006,3.4486835,1.3837805,4.6975164,-0.0332365,1.7937771,5.767803,-0.006762331
SELPLG,4.432741,-0.030616289,-0.029519796,-0.048117816,-0.059784617,1.858398,1.904174,-0.056129154,-0.031565007,3.4197092,1.5979594,4.6564736,-0.032793716,1.4349244,5.553979,-0.00590501
UAP1L1,4.497582,-0.030896317,-0.029647125,-0.048868984,-0.0606238,1.8544039,1.935547,-0.057275336,-0.032325353,3.4679227,1.5467968,4.734641,-0.033245917,1.4687799,5.613279,-0.0056009493
EBI3,4.8015757,-0.03325506,-0.029732337,-0.051655814,-0.062475692,1.6824299,1.9549161,-0.06041207,-0.03418467,3.652669,1.2143333,4.9621634,-0.033893287,1.6802446,6.027667,-0.006411689
IRAK3,4.730117,-0.032798454,-0.029905733,-0.05132747,-0.06224289,1.7592212,1.9728596,-0.060007624,-0.033964716,3.6183555,1.3065338,4.9343057,-0.03410892,1.6248475,5.9171567,-0.006158071
PRIM1,4.3423476,-0.02988538,-0.02940287,-0.047457602,-0.059260458,1.910486,1.8976346,-0.055115122,-0.031226048,3.372618,1.6925088,4.59752,-0.03248208,1.3564837,5.4398775,-0.00554663
ST8SIA4,4.795833,-0.033722002,-0.030110301,-0.05230994,-0.06263832,1.7668673,1.9601765,-0.060639918,-0.034336206,3.6988208,1.2127253,4.985015,-0.034195516,1.6727387,6.0206456,-0.0066046705
NFIA,4.7419868,-0.032933243,-0.029993504,-0.051771495,-0.06249817,1.7888601,1.996105,-0.06030626,-0.03417024,3.657182,1.3030118,4.9685297,-0.03433086,1.6122371,5.9150467,-0.0062467055
PANX1,4.505439,-0.030918634,-0.029490838,-0.048622657,-0.06105121,1.8228248,1.9454181,-0.05757174,-0.031975664,3.4912083,1.572627,4.766188,-0.033281278,1.4937987,5.6539197,-0.0057461984
ARHGAP27,4.5094957,-0.030804621,-0.029783802,-0.048795003,-0.06068763,1.8257625,1.9540144,-0.057644997,-0.031985514,3.4737027,1.4979749,4.761634,-0.033623327,1.5044199,5.6448097,-0.0055897874
IPCEF1,4.4633064,-0.02921981,-0.030027512,-0.046276998,-0.060006026,1.6675074,1.9955966,-0.05716259,-0.03173599,3.4221475,1.4173831,4.538143,-0.031182898,1.5117248,5.6567,-0.005692716
RCSD1,4.7021003,-0.033978887,-0.029925112,-0.050854348,-0.06097285,1.8561063,1.8594826,-0.056729537,-0.031714555,3.4331315,1.259009,4.6586595,-0.03320734,1.8064903,5.7594714,-0.0067910915
P2RX1,4.8781767,-0.033101596,-0.03237972,-0.05215783,-0.057707276,1.9703605,1.6952041,-0.059569795,-0.036583245,3.200256,1.1170913,4.3849993,-0.030164812,1.2769473,5.722001,-0.005912511
SLC22A3,4.6030874,-0.032329485,-0.029642753,-0.05119229,-0.05992194,1.761219,1.8959328,-0.05794245,-0.034210645,3.625606,1.1100426,4.7885194,-0.032830134,1.4926418,5.73122,-0.0069003776
CTR9,4.4853187,-0.030757248,-0.0296036,-0.048411243,-0.060587525,1.8463356,1.9354634,-0.05713475,-0.031932425,3.4515183,1.5727993,4.7285037,-0.03322671,1.4777489,5.60172,-0.0056689293
RAG2,4.6179194,-0.03969033,-0.025060205,-0.0561024,-0.06074691,1.0407116,1.5134736,-0.06055841,-0.03620828,3.7378972,0.69305104,4.51272,-0.027474374,1.4842552,6.661792,-0.010422962
GUCY1A1,4.143835,-0.029849939,-0.028025469,-0.04756255,-0.055274863,1.7404895,1.7239612,-0.052721646,-0.031926673,3.3778534,1.1154646,4.4062634,-0.030019717,1.2353178,5.212772,-0.0063871113
KCTD12,4.419242,-0.030566705,-0.029256519,-0.048054274,-0.059791856,1.8371629,1.8871058,-0.05581138,-0.031704694,3.4309826,1.6138123,4.646855,-0.032329977,1.4210774,5.5794864,-0.005791856
LACTB,4.7011104,-0.032502368,-0.029949283,-0.050984714,-0.062205933,1.7923807,1.9768468,-0.059704646,-0.03371519,3.6052876,1.3684843,4.9128,-0.034070764,1.6004778,5.87885,-0.0060282615
TUBB4B,4.293733,-0.028560678,-0.029026661,-0.0455784,-0.058295023,1.6977752,1.8714576,-0.054951746,-0.030475736,3.3362985,1.4156715,4.5006075,-0.031588607,1.4928523,5.507115,-0.004849472
PGRMC1,3.3452544,-0.023588762,-0.016604496,-0.039999094,-0.056015875,0.6293094,2.449333,-0.05690935,-0.023113407,2.9887981,0.90928,4.3745546,-0.030547043,1.140053,5.039895,0.1974644
JPT1,4.3934135,-0.030007552,-0.029367303,-0.047534827,-0.059977114,1.8540249,1.9151789,-0.056139845,-0.03133043,3.4123378,1.630255,4.658882,-0.03277478,1.4279706,5.512171,-0.005434909
CCT2,4.287759,-0.029330002,-0.029236317,-0.046623792,-0.058389127,1.8682839,1.8639147,-0.054210205,-0.030898778,3.325631,1.6407074,4.5216126,-0.032058418,1.3375208,5.3409615,-0.005613685
OSGIN1,4.117194,-0.027325803,-0.028720759,-0.044384155,-0.05607195,1.6825402,1.7926244,-0.05252076,-0.029866213,3.2134693,1.3993658,4.352758,-0.030739173,1.3562584,5.2856517,-0.0045762933
FCGRT,4.9025908,-0.034413736,-0.029933548,-0.053548973,-0.06423167,1.6336696,1.9682809,-0.06262049,-0.035942283,3.8746817,1.0282301,5.116427,-0.033856243,1.7729816,6.2412095,-0.0066559915
PPM1G,4.5877495,-0.031958155,-0.029694017,-0.050608814,-0.0599952,1.7997139,1.9103091,-0.057462256,-0.033510666,3.5344393,1.280325,4.768136,-0.033192,1.4798194,5.682682,-0.0063787177
TRPV2,4.00613,-0.030509211,-0.022498764,-0.046718128,-0.055587023,1.2687883,2.221832,-0.052641876,-0.028278917,2.90191,1.2556063,4.3987017,-0.029882789,1.6572033,5.5792117,-0.0015348857
CDK18,4.359478,-0.029954635,-0.029486269,-0.04766024,-0.059249826,1.8784573,1.9087014,-0.055425886,-0.031437088,3.3939204,1.6049414,4.6251173,-0.03277513,1.3736862,5.434169,-0.005806255
IL10RA,4.913017,-0.04090764,-0.027157826,-0.058783803,-0.064773336,1.2227858,1.7298865,-0.064100005,-0.039248552,3.9624455,0.993388,4.9743457,-0.030413475,1.5405807,6.8851,-0.010148234
ESR1,4.695586,-0.039147496,-0.026572533,-0.056131672,-0.06276193,1.1979814,1.6497848,-0.060960487,-0.037032112,3.790337,1.0467013,4.720263,-0.029069012,1.4702605,6.6438885,-0.009675149
NDN,4.0543694,-0.027303163,-0.028848771,-0.045109633,-0.053996433,1.7866284,1.7282166,-0.05069021,-0.030059969,3.1586754,1.3426236,4.2369175,-0.030589359,1.1836716,5.0516176,-0.0052841445
RNF13,4.4417787,-0.030459702,-0.029476985,-0.04786579,-0.060133956,1.8666412,1.9101293,-0.056164764,-0.03160814,3.4235272,1.6243938,4.665541,-0.032749522,1.4420803,5.5339165,-0.005794099
PPP1R15A,4.5501814,-0.03124853,-0.02988756,-0.049388476,-0.060425323,1.8076762,1.9428273,-0.05775762,-0.032479856,3.4778035,1.4035707,4.7646737,-0.033667546,1.5148404,5.6695743,-0.005939061
HNF4A,4.712016,-0.033612493,-0.029139131,-0.052566446,-0.061426427,1.6000216,1.859026,-0.06003249,-0.035511304,3.8148334,0.736058,4.927084,-0.032168847,1.7215651,5.960047,-0.0069757216
IL12A,4.2844877,-0.028957896,-0.029003458,-0.04625651,-0.05819604,1.7892637,1.8316164,-0.05416241,-0.030830588,3.3218653,1.5211666,4.4921246,-0.03154786,1.3980253,5.4190598,-0.0050247735
GNG2,4.413426,-0.02980028,-0.029503617,-0.04732104,-0.059548534,1.7865043,1.9154335,-0.056267064,-0.031263888,3.4034665,1.4772292,4.6376567,-0.032757685,1.4895042,5.5619555,-0.005367959
MAMDC2,4.3233,-0.02993784,-0.029301891,-0.048182923,-0.057504818,1.8446422,1.835631,-0.0542463,-0.03186948,3.367063,1.4068677,4.538855,-0.032104738,1.3017304,5.361346,-0.0059509566
GM4759,4.913017,-0.04090764,-0.027157826,-0.058783803,-0.064773336,1.2227858,1.7298865,-0.064100005,-0.039248552,3.9624455,0.993388,4.9743457,-0.030413475,1.5405807,6.8851,-0.010148234
TBC1D5,4.779547,-0.033294898,-0.029956803,-0.052117534,-0.06252844,1.7505548,1.986175,-0.06064322,-0.034393605,3.6709154,1.2269181,4.9849453,-0.034351535,1.6458889,5.9647756,-0.0063540023
DPP4,4.6509924,-0.032920185,-0.029510727,-0.051583413,-0.060493443,1.725866,1.8766612,-0.05845391,-0.034542885,3.6639104,1.0336984,4.836525,-0.032626513,1.5722324,5.7929444,-0.006891803
ARHGAP15,4.003953,-0.026968509,-0.02819013,-0.043329027,-0.05553789,1.7136693,1.7820805,-0.051161736,-0.029028911,3.1627707,1.5830406,4.2743526,-0.03018479,1.2498713,5.106016,-0.004909488
XRCC6,4.001048,-0.026361108,-0.026721353,-0.04658514,-0.056594186,1.9583788,1.9566282,-0.05172185,-0.029870404,3.2623224,1.7392735,4.5657344,-0.033141345,1.209083,5.1573324,-0.003484738
RORA,4.823875,-0.033994537,-0.030028805,-0.05276291,-0.06288577,1.7359163,1.96263,-0.061052654,-0.034832116,3.7386189,1.1369028,5.0184016,-0.034149718,1.6910274,6.03995,-0.0067978567
SPNS3,4.451741,-0.030643111,-0.03086225,-0.049828466,-0.05788936,1.4726315,1.8060162,-0.057270087,-0.029792577,3.5209684,0.645346,4.8065853,-0.035016153,2.0092902,5.648709,-0.0027830584
SULT1A1,4.0682178,-0.027623666,-0.02846331,-0.045154694,-0.055947643,1.7448747,1.7934864,-0.05206049,-0.030242037,3.2780936,1.4789971,4.350608,-0.030628761,1.2024317,5.1984243,-0.0051061707
SATB1,4.7829366,-0.03758226,-0.027945323,-0.05562271,-0.0631121,1.4779398,1.764708,-0.06036154,-0.03718886,3.7822838,1.2502744,4.9494724,-0.031182384,1.4550186,6.2974663,-0.009338969
RBPMS,4.573433,-0.031196503,-0.029476838,-0.049184043,-0.061525032,1.7631446,1.9417905,-0.05840051,-0.032560058,3.5452569,1.4591054,4.8071194,-0.033191267,1.5622629,5.79441,-0.0054455283
KIF17,4.517316,-0.031006586,-0.0310081,-0.04999803,-0.059485145,1.5121479,1.8508022,-0.058605194,-0.029835777,3.5584753,0.8018561,4.9058366,-0.035696004,2.0488706,5.774149,-0.0025861573
MYLK,4.473777,-0.030041376,-0.030161079,-0.04848563,-0.058037147,1.7481067,1.8703865,-0.05622205,-0.032411303,3.399126,1.1014881,4.5938544,-0.03293738,1.513656,5.608205,-0.005742045
TSC22D3,5.137028,-0.030232793,-0.031878047,-0.045889366,-0.05589244,2.2084134,1.6937591,-0.053390827,-0.032515228,3.6307983,0.6862777,4.209647,-0.028524274,1.7992195,5.602916,-0.0060241395
DUSP6,4.3933086,-0.030075619,-0.029496074,-0.047658924,-0.059524015,1.854542,1.9137526,-0.05596988,-0.031297434,3.3936126,1.5847808,4.6488724,-0.032960065,1.4145112,5.4755716,-0.005642081
GAA,4.79185,-0.03324311,-0.029977364,-0.051992342,-0.063191324,1.7606966,1.9960328,-0.060985312,-0.034387656,3.6934967,1.3026296,5.0088925,-0.034333378,1.6620252,6.005859,-0.0062033897
CERS4,4.7954793,-0.032411702,-0.027927894,-0.052343134,-0.057954077,1.5731364,1.6576674,-0.05579196,-0.03417186,3.3495502,1.5617942,4.8828287,-0.030973827,1.2784327,5.7875195,-0.006114247
LAX1,4.4490237,-0.03056826,-0.029508084,-0.048106965,-0.06036933,1.8691041,1.9254091,-0.056530967,-0.031725243,3.4375765,1.6258353,4.698509,-0.032980975,1.4432842,5.5495205,-0.005739791
SLC39A13,4.4493923,-0.03053271,-0.02958951,-0.048248187,-0.06022643,1.8680015,1.927998,-0.05665049,-0.031830966,3.4345524,1.5935304,4.698178,-0.033107966,1.440681,5.547569,-0.0056685214
SEMA3D,4.8529773,-0.03421187,-0.029655647,-0.053245258,-0.062281884,1.6333361,1.9376132,-0.06120659,-0.035389517,3.7490165,0.91333073,5.014168,-0.03380536,1.7309101,6.057283,-0.0068890145
LPCAT2,4.576142,-0.031213734,-0.029609999,-0.04959282,-0.059423123,1.8094189,1.9309031,-0.05745877,-0.0332788,3.420526,1.314528,4.769749,-0.033490248,1.4690498,5.565872,-0.0060721166
APOE,4.8801227,-0.033875283,-0.030059317,-0.05270697,-0.06280781,1.6219475,1.9755574,-0.06201862,-0.034916632,3.6979418,0.95119005,5.062639,-0.034632612,1.8164822,6.1743455,-0.0061295354
SLC29A1,4.127266,-0.031697407,-0.022624545,-0.048648804,-0.05646358,1.2259231,2.2428362,-0.054026112,-0.029867312,3.040978,1.1050745,4.5062666,-0.02998663,1.6929806,5.7522607,-0.0020919393
PRSS57,4.5891533,-0.03158419,-0.029918827,-0.049956735,-0.060974795,1.8026888,1.9578583,-0.058374256,-0.032942224,3.5190077,1.3982221,4.8140593,-0.033820417,1.5299071,5.730937,-0.00585419
PLEK,4.7946286,-0.03214265,-0.030227436,-0.050151657,-0.06265984,1.5886173,2.0317698,-0.060903504,-0.03426725,3.643476,1.1921991,4.835564,-0.032349754,1.6838651,6.070979,-0.0063480013
FAM110C,4.798939,-0.033956442,-0.029515928,-0.053002547,-0.062114816,1.6312109,1.9069651,-0.060746316,-0.03551986,3.7925508,0.8470139,4.984369,-0.03310029,1.7300085,6.0180416,-0.006980253
CD55,4.7772074,-0.033366587,-0.030052809,-0.051971767,-0.062579334,1.768363,1.9675894,-0.06036711,-0.034244422,3.6707568,1.282181,4.964637,-0.034143116,1.6408055,5.987479,-0.006445816
ADSSL1,4.794175,-0.033457886,-0.029939288,-0.052380018,-0.06251928,1.7412984,1.9834452,-0.060708478,-0.034626834,3.6895237,1.1886538,4.9937644,-0.03428426,1.6476862,5.973204,-0.006519631
GM5111,4.8659935,-0.034031384,-0.029774003,-0.052900743,-0.061660312,1.5581597,1.9366858,-0.061265014,-0.035199497,3.6664567,0.8106877,5.000083,-0.03416087,1.7864414,6.138121,-0.0064786747
DCK,4.617656,-0.03228246,-0.029782534,-0.050704107,-0.06100572,1.8316029,1.9370848,-0.05813951,-0.033649776,3.5739567,1.3678302,4.8308578,-0.0333685,1.5074884,5.731267,-0.006325095
PLXDC2,4.7054496,-0.032981854,-0.029928837,-0.05163069,-0.062139113,1.7988183,1.9614398,-0.059669107,-0.034307104,3.6680493,1.2763015,4.9373937,-0.03377908,1.5875711,5.8668904,-0.0064475625
PDGFRB,4.823839,-0.034059156,-0.029594379,-0.05308666,-0.0621959,1.6292133,1.917032,-0.060865264,-0.0354906,3.7800143,0.872333,4.9942346,-0.03330558,1.7297063,6.034024,-0.006994676
HSD3B7,4.1854706,-0.02793107,-0.028943438,-0.044546932,-0.0570447,1.7171723,1.8559371,-0.053510573,-0.029616853,3.2238119,1.4914658,4.4195952,-0.031485155,1.4166634,5.307015,-0.004968903
SLFN2,4.594795,-0.03146952,-0.029772643,-0.049362306,-0.06123552,1.7765206,1.9485966,-0.058443196,-0.03255433,3.51166,1.4207015,4.809854,-0.033599436,1.5775213,5.762383,-0.0058320113
ARPP21,4.6464887,-0.031638842,-0.029809574,-0.050061144,-0.061635345,1.8249859,2.0122383,-0.05944268,-0.033173915,3.5366068,1.4301765,4.9333324,-0.034377847,1.5446037,5.7386255,-0.005913965
SH2D5,4.9026246,-0.034350835,-0.029954996,-0.053359628,-0.064134866,1.6689676,1.9848369,-0.062589236,-0.035353035,3.820715,1.0735933,5.117735,-0.034367543,1.7813538,6.1840577,-0.0065204767
IGKC,4.913017,-0.04090764,-0.027157826,-0.058783803,-0.064773336,1.2227858,1.7298865,-0.064100005,-0.039248552,3.9624455,0.993388,4.9743457,-0.030413475,1.5405807,6.8851,-0.010148234
HNRNPAB,3.849055,-0.025836784,-0.028302511,-0.0428074,-0.05383987,1.7736627,1.7449005,-0.04967067,-0.028713843,3.0828888,1.6009121,4.1755433,-0.03000092,1.0984257,4.893815,-0.0046405434
IFI27,4.4720664,-0.031410728,-0.02905474,-0.048217278,-0.06076228,1.8265494,1.9256372,-0.05701977,-0.031649455,3.436324,1.5861989,4.7650275,-0.033217803,1.468872,5.5666914,-0.0059065106
PRKCH,4.1686597,-0.028452741,-0.02882215,-0.045590095,-0.057791244,1.8487978,1.8471292,-0.05331699,-0.030291392,3.285985,1.7018265,4.458141,-0.031513162,1.2796448,5.253226,-0.0052589113
XPC,4.965268,-0.029059796,-0.03182194,-0.044096626,-0.05599683,2.268593,1.685113,-0.051593326,-0.031039575,3.5393949,1.0764486,4.0732856,-0.02800363,1.698724,5.507313,-0.005412155
SLAMF1,4.5903726,-0.03166952,-0.029870156,-0.050002337,-0.05978192,1.7014301,1.9107056,-0.05797082,-0.033246364,3.4757907,1.148117,4.75879,-0.033473726,1.5832014,5.7678714,-0.005983762
ANKRD44,4.467977,-0.030988438,-0.029759273,-0.04888559,-0.0598678,1.8785951,1.9212959,-0.056441896,-0.032130506,3.4498348,1.5439619,4.6942015,-0.03316791,1.4184846,5.5584345,-0.006189447
CIPC,4.392868,-0.030052502,-0.029280605,-0.047361042,-0.059711613,1.8438203,1.8944935,-0.05556135,-0.031389304,3.413647,1.6191584,4.6252527,-0.03234107,1.4197215,5.5104003,-0.00571424
RRAS,4.520167,-0.031130288,-0.029732475,-0.04940423,-0.059321105,1.782079,1.8970773,-0.0567852,-0.032613587,3.4549093,1.3025814,4.687367,-0.033157103,1.469039,5.613205,-0.0061289566
AC174780.1,4.913017,-0.04090764,-0.027157826,-0.058783803,-0.064773336,1.2227858,1.7298865,-0.064100005,-0.039248552,3.9624455,0.993388,4.9743457,-0.030413475,1.5405807,6.8851,-0.010148234
NHP2,3.9555664,-0.026217308,-0.028439164,-0.043232884,-0.05511519,1.8699982,1.8329146,-0.05142754,-0.029050864,3.1021152,1.6894509,4.3290253,-0.031108985,1.1284012,4.9205046,-0.004498382
GIMAP8,4.6588607,-0.031532593,-0.030480113,-0.049650107,-0.061386716,1.7094423,2.0220587,-0.05910527,-0.033807956,3.5895624,1.3008969,4.71363,-0.031990398,1.533902,5.8678403,-0.0065479116
ELL2,4.791149,-0.033289135,-0.030044092,-0.052137207,-0.06234497,1.7103286,1.9799311,-0.060767975,-0.034420088,3.6567676,1.1557544,4.983823,-0.034430783,1.6748072,6.006559,-0.006254248
GDF3,4.7634044,-0.03296533,-0.029983386,-0.05169482,-0.062251754,1.7519457,1.9631119,-0.060123228,-0.03429079,3.651564,1.2639751,4.9308305,-0.033977862,1.6197389,5.949534,-0.0064060357
IKZF1,4.816295,-0.041176766,-0.025868697,-0.05793952,-0.06297931,1.0891789,1.5919094,-0.06230423,-0.037735883,3.8492682,0.8065714,4.7471657,-0.028647684,1.559498,6.8553667,-0.010812278
TMEM206,4.425079,-0.030179,-0.029407177,-0.04765969,-0.06002477,1.845849,1.9117807,-0.056213535,-0.03141111,3.4226542,1.5942227,4.661517,-0.03274775,1.4479359,5.5437865,-0.0055461912
VEGFC,4.267722,-0.028919837,-0.03114745,-0.047731694,-0.057578348,1.6567607,1.8375515,-0.055404495,-0.028249068,3.3948174,1.10362,4.700847,-0.035134442,1.8434757,5.4227204,-0.0019955754
OTUB2,4.6668386,-0.031954687,-0.030232772,-0.05068297,-0.06018463,1.7099247,1.923316,-0.05889084,-0.03382151,3.5396028,1.0293199,4.7980895,-0.033743944,1.6330038,5.8619905,-0.0060696076
LYN,4.729713,-0.03275183,-0.029965758,-0.05111803,-0.062331323,1.7473844,1.9785582,-0.060157344,-0.033614594,3.6123555,1.2995762,4.9526687,-0.034318622,1.6510029,5.9236684,-0.006130905
GP9,4.253228,-0.02809478,-0.029013881,-0.04557375,-0.05758075,1.7208823,1.8098052,-0.054339416,-0.030945992,3.3179348,1.3492272,4.4345374,-0.030996181,1.4512433,5.471787,-0.0045133675
GSN,4.707269,-0.03279349,-0.029822363,-0.05132473,-0.062146623,1.7872825,1.9687039,-0.059517656,-0.03402967,3.6219387,1.3624288,4.9201245,-0.033843465,1.5737759,5.860634,-0.0063354615
TM6SF1,4.839651,-0.033800956,-0.029835127,-0.052458677,-0.0635006,1.707535,1.9842091,-0.06142497,-0.034723252,3.734409,1.2280778,5.051587,-0.034238543,1.6980642,6.0825887,-0.00642926
PLD4,4.4515142,-0.030498344,-0.029376129,-0.04793985,-0.06001894,1.810339,1.917279,-0.05642008,-0.031607635,3.4445791,1.5389344,4.684944,-0.032807168,1.4584203,5.573023,-0.0059316475
UBA7,4.4713526,-0.030653635,-0.029688548,-0.04845974,-0.060091294,1.8387499,1.9304484,-0.056890965,-0.03185484,3.4388845,1.5142528,4.7094827,-0.033306755,1.4651839,5.570169,-0.0057894713
FGD5,4.8681283,-0.03428935,-0.029657071,-0.053234205,-0.062171392,1.6165965,1.9445932,-0.06130245,-0.035304587,3.7184591,0.9150658,5.0199957,-0.034029607,1.737657,6.0851746,-0.00677982
NCF1,4.4105,-0.029514411,-0.029122915,-0.046818107,-0.058113463,1.6134429,1.8553474,-0.05555148,-0.031337474,3.3806598,1.1594516,4.541796,-0.031809308,1.5630003,5.6434164,-0.005409347
GBP2,4.144424,-0.028072786,-0.028793253,-0.0453565,-0.056331575,1.7547066,1.7938366,-0.05248377,-0.030340757,3.246573,1.4725717,4.3768086,-0.031039964,1.2872013,5.238078,-0.005163665
CPNE8,4.988398,-0.036016215,-0.02992825,-0.052904997,-0.06108259,1.5916057,1.7797363,-0.061947502,-0.035447206,3.6466117,0.8883861,5.02897,-0.03454482,1.5767949,6.126099,-0.008692207
TBXAS1,4.7192917,-0.032522347,-0.029538745,-0.050751194,-0.062434297,1.7077618,1.9522845,-0.059757374,-0.033652574,3.6402972,1.3401067,4.920121,-0.033514265,1.6272672,5.967965,-0.0060826903
D630039A03RIK,4.779547,-0.033294894,-0.029956803,-0.052117534,-0.06252844,1.7505546,1.986175,-0.060643207,-0.034393605,3.6709154,1.2269182,4.9849453,-0.034351535,1.6458889,5.9647756,-0.0063540023
CISH,4.071782,-0.026979327,-0.028138794,-0.043294735,-0.05650237,1.6501822,1.8214434,-0.052879166,-0.029097075,3.2229338,1.4749057,4.3425045,-0.030367553,1.3866619,5.287403,-0.0044958256
GIMAP5,4.873198,-0.034306854,-0.02967346,-0.053257525,-0.062188677,1.6119797,1.9443243,-0.0612839,-0.035306532,3.7213392,0.91908354,5.019386,-0.034007717,1.7337669,6.086802,-0.0068001524
NWD1,4.5367794,-0.03100679,-0.029715165,-0.048978526,-0.060914867,1.8169804,1.9424448,-0.05781368,-0.03234986,3.486769,1.4948565,4.764615,-0.03339652,1.5213091,5.686425,-0.005631855
MYCN,4.335521,-0.029838199,-0.029351834,-0.047805794,-0.05775141,1.8291347,1.8413682,-0.054331664,-0.031611837,3.3463051,1.4432949,4.532757,-0.03220257,1.3363799,5.372272,-0.005827846
TSPAN2,4.873198,-0.034306854,-0.02967346,-0.053257525,-0.062188677,1.6119797,1.9443243,-0.0612839,-0.035306532,3.7213392,0.91908354,5.019386,-0.034007717,1.7337669,6.086802,-0.0068001524
MYO5A,4.6155434,-0.0318001,-0.029665455,-0.050121874,-0.061466217,1.7919708,1.9503356,-0.058462147,-0.03318801,3.564786,1.438654,4.837151,-0.03347985,1.5190538,5.788132,-0.0060396376
PLXNC1,4.7575064,-0.033275288,-0.029775599,-0.0522274,-0.061469644,1.7145679,1.9406266,-0.05974098,-0.034642763,3.6608498,1.0978063,4.9184294,-0.03370056,1.6168998,5.9102535,-0.0066959877
OBSL1,4.702555,-0.03264844,-0.029863065,-0.051460356,-0.062209353,1.7942839,1.9664956,-0.059611924,-0.03429399,3.6506872,1.3446975,4.916451,-0.033711124,1.5690223,5.8863897,-0.006266735
GOLM1,4.8096766,-0.033601582,-0.029927863,-0.05248523,-0.062460586,1.7099087,1.9782652,-0.060864937,-0.034608517,3.6848845,1.1554846,4.99788,-0.034357384,1.6613297,6.0064425,-0.00649931
C1RL,4.6745887,-0.03153478,-0.029165125,-0.0496807,-0.06193955,1.5519729,1.986216,-0.06104123,-0.032969937,3.6848345,0.9155745,4.9091725,-0.033300906,1.8584892,6.092625,-0.0051604826
CPQ,4.493916,-0.03310386,-0.024427384,-0.04594493,-0.059246063,1.468301,1.6273897,-0.050356857,-0.02881022,3.5531895,1.1642994,4.5666914,-0.029997723,1.5498861,5.3732495,-0.007183844
S100A6,4.5088367,-0.03075758,-0.029500494,-0.048631098,-0.060640816,1.7834045,1.9252486,-0.057468664,-0.032230612,3.476205,1.4733438,4.7385564,-0.03303255,1.5195314,5.686783,-0.005416123
KRT18,4.186104,-0.030661704,-0.027995672,-0.051578406,-0.056991577,1.4105682,1.5717707,-0.054112017,-0.036400348,3.5153944,0.45769992,4.53179,-0.030157357,1.8173746,5.3562093,-0.002701106
TMEM37,4.765316,-0.033116553,-0.029889006,-0.0519291,-0.06239963,1.7562609,1.9704567,-0.060201805,-0.034463983,3.6643767,1.2654651,4.9511,-0.03397307,1.6185628,5.9491777,-0.0064062993
ZNRF2,4.395685,-0.029779812,-0.029464163,-0.047288075,-0.05955435,1.8117902,1.907593,-0.056088943,-0.03124074,3.3897731,1.5411676,4.628673,-0.03270503,1.461551,5.5254846,-0.0053441883
CAV2,4.487148,-0.030989992,-0.029640965,-0.04929391,-0.058985937,1.8283587,1.8768064,-0.056021955,-0.03255734,3.438194,1.3548595,4.6533628,-0.03274497,1.4308783,5.5432973,-0.006031624
AP1S2,4.4763675,-0.030433191,-0.02966401,-0.04818033,-0.060125373,1.8060067,1.9259626,-0.05702875,-0.03177961,3.431934,1.4796025,4.697505,-0.03315788,1.5056554,5.6144257,-0.0055471794
MCM7,4.2940354,-0.029493384,-0.029191745,-0.046832543,-0.05877041,1.8900603,1.878583,-0.054409757,-0.030872945,3.351427,1.6991678,4.5534034,-0.03211004,1.333861,5.3976073,-0.0056324974
BPIFC,4.6668386,-0.031954687,-0.030232772,-0.05068297,-0.060184635,1.7099247,1.923316,-0.05889084,-0.03382151,3.5396028,1.0293199,4.7980895,-0.033743944,1.6330041,5.8619905,-0.006069607
LGALS1,4.757617,-0.03307248,-0.03006966,-0.052053377,-0.062488224,1.7671868,1.998149,-0.06042146,-0.034358867,3.6738415,1.2710401,4.9795585,-0.034379523,1.6085316,5.939528,-0.006377282
MPZL1,4.4051604,-0.03029122,-0.02946093,-0.048181772,-0.05896519,1.8531449,1.8717978,-0.055368666,-0.03194401,3.3923812,1.5058905,4.6049404,-0.032462426,1.392317,5.4688377,-0.0057259956
SLC16A11,4.5213566,-0.031150615,-0.029729232,-0.049435962,-0.059352346,1.782136,1.8983316,-0.056822356,-0.03262895,3.456255,1.3037666,4.690987,-0.033175714,1.4699761,5.6157227,-0.006118566
WFDC17,2.7163844,-0.015297227,-0.02256575,-0.030706529,-0.045422774,1.1093571,1.6823496,-0.044609707,-0.021009643,2.7325242,1.0167598,3.4337435,-0.025437893,0.5697293,3.893588,-0.0014836913
SCARF1,4.8659935,-0.034031384,-0.029774003,-0.052900743,-0.061660312,1.5581597,1.9366858,-0.061265014,-0.035199497,3.6664567,0.8106877,5.000083,-0.03416087,1.7864414,6.138121,-0.0064786747
RFTN1,4.8090606,-0.033589583,-0.029867368,-0.05248685,-0.06241895,1.71684,1.9659992,-0.06061493,-0.03482508,3.6921742,1.163554,4.981532,-0.03405256,1.6499017,5.9969625,-0.006624528
RAMP1,3.8578582,-0.03058398,-0.02675232,-0.0491031,-0.052664675,1.478569,1.5928898,-0.054705728,-0.03812747,3.5110686,0.2506353,4.1465893,-0.027409982,1.695285,4.950534,-0.0051804814
FUT7,3.7663102,-0.02413899,-0.026690193,-0.039550576,-0.05233062,1.4283247,1.6953123,-0.049558014,-0.027753403,3.1072385,1.1082636,3.9899573,-0.027325872,1.3053732,5.066484,-0.0041584955
UPP1,4.4897127,-0.030898659,-0.029453978,-0.048845343,-0.06101875,1.8542776,1.9401962,-0.057310387,-0.032388747,3.502524,1.5837406,4.7586284,-0.033058207,1.4639829,5.6482286,-0.0055521587
ITGB5,4.582553,-0.031901266,-0.029679408,-0.050547175,-0.059975445,1.8041883,1.9088368,-0.057409465,-0.03347759,3.5288825,1.2877327,4.7634625,-0.03316774,1.4802336,5.6755776,-0.0063287723
TRAF1,4.7285814,-0.034977075,-0.025084028,-0.04918125,-0.060013134,1.3542893,1.6666718,-0.053448185,-0.03105298,3.6828742,0.82290536,4.741091,-0.030978376,1.6570765,5.655123,-0.008061738
HLF,4.779547,-0.033294898,-0.029956803,-0.052117534,-0.06252844,1.7505548,1.986175,-0.06064322,-0.034393605,3.6709154,1.2269181,4.9849453,-0.034351535,1.6458889,5.9647756,-0.0063540023
SNAP23,4.7705426,-0.033363912,-0.030037675,-0.052003384,-0.06268099,1.7892909,1.9733666,-0.060278613,-0.034265317,3.6789534,1.3157136,4.9697833,-0.03412938,1.6239158,5.9693975,-0.006519238
LRRC8C,4.6974635,-0.03244292,-0.029743565,-0.05070028,-0.06284932,1.774061,1.9900165,-0.06012052,-0.033390205,3.6458888,1.4129994,4.951722,-0.03405641,1.6303515,5.921123,-0.0060283677
RASA4,4.80906,-0.033589583,-0.029867368,-0.05248685,-0.06241894,1.7168398,1.9659992,-0.06061493,-0.03482508,3.6921742,1.163554,4.981532,-0.03405256,1.6499017,5.9969625,-0.0066245263
GIMAP3,4.8659935,-0.034031384,-0.029774003,-0.052900743,-0.061660312,1.5581597,1.9366858,-0.061265014,-0.035199497,3.6664567,0.8106877,5.000083,-0.03416087,1.7864414,6.138121,-0.0064786747
N4BP3,4.873198,-0.034306854,-0.02967346,-0.053257525,-0.062188677,1.6119797,1.9443243,-0.0612839,-0.035306532,3.7213392,0.91908354,5.019386,-0.034007717,1.7337669,6.086802,-0.0068001524
DNTT,4.704506,-0.032409918,-0.029674362,-0.050940365,-0.061625507,1.4986053,1.9421089,-0.060563758,-0.035600584,3.8048956,0.7121302,4.7902236,-0.030500202,1.725479,6.0068693,-0.0069068735
IL18RAP,4.892734,-0.034079812,-0.029846376,-0.05286611,-0.062312525,1.5714164,1.9445034,-0.061658867,-0.03520471,3.684106,0.8800386,5.030328,-0.03422326,1.8109366,6.1852965,-0.0063965973
FGD2,4.4064436,-0.02939928,-0.029129114,-0.04648916,-0.059342667,1.6873286,1.9041052,-0.056430094,-0.030937625,3.4040504,1.355151,4.606949,-0.032178774,1.5761238,5.646302,-0.0051117954
TFR2,4.8992047,-0.034429584,-0.029793957,-0.05342149,-0.063047044,1.631827,1.9591088,-0.061806746,-0.03546482,3.7672687,0.9951902,5.063138,-0.034111094,1.7485551,6.132543,-0.0068170284
CD52,4.673133,-0.03246047,-0.02984876,-0.050834913,-0.062064648,1.7884716,1.9802109,-0.059494518,-0.03348792,3.5897415,1.4047714,4.9172153,-0.034121927,1.5739548,5.8330083,-0.0060772398
CAMK1D,4.492781,-0.030771192,-0.02981016,-0.048995238,-0.058999937,1.8089459,1.8844945,-0.056269,-0.032380536,3.4183443,1.315669,4.6473627,-0.03297149,1.4711996,5.574803,-0.0058328044
ZFP367,4.1620173,-0.027898604,-0.030962676,-0.04606281,-0.05699432,1.7049949,1.83236,-0.05427719,-0.027056338,3.2901518,1.2757872,4.6048994,-0.034914695,1.7774318,5.283962,-0.0018291303
SOX18,4.712016,-0.033612493,-0.029139131,-0.052566446,-0.061426427,1.6000216,1.859026,-0.06003249,-0.035511304,3.8148334,0.736058,4.927084,-0.032168847,1.7215651,5.960047,-0.0069757216
CTTN,4.6696796,-0.032108568,-0.029914431,-0.0504842,-0.0617284,1.7583597,1.9638972,-0.059336673,-0.03337596,3.575914,1.3231802,4.881829,-0.033912983,1.6063063,5.86698,-0.005854258
LGMN,4.2200437,-0.02743229,-0.026918072,-0.048636436,-0.05806477,1.9097742,2.0173516,-0.054132566,-0.031061152,3.3615997,1.5383687,4.7437654,-0.034473043,1.3849872,5.378098,-0.0033303504
LSP1,4.517434,-0.030812727,-0.0295764,-0.04845533,-0.060752936,1.7918926,1.9378983,-0.05760805,-0.03192677,3.4700093,1.4936565,4.745814,-0.033247717,1.5334657,5.673936,-0.0056501697
DDX4,4.314341,-0.03181379,-0.024380947,-0.04550014,-0.0562518,1.4681517,1.5536336,-0.04824666,-0.028515643,3.4539843,1.0076092,4.3893156,-0.02930659,1.387655,5.1490374,-0.0072395722
REL,4.4006414,-0.030281713,-0.029544815,-0.047800664,-0.059837215,1.8959742,1.9188057,-0.05582383,-0.031516157,3.405606,1.641394,4.657212,-0.032876827,1.4091948,5.473464,-0.0056761373
MECOM,4.903912,-0.034394156,-0.029883975,-0.053290427,-0.064180665,1.6737391,1.9846666,-0.062621124,-0.03530046,3.817231,1.0762525,5.119185,-0.03438502,1.7931414,6.189114,-0.006476465
OTULINL,4.6823425,-0.032302685,-0.029807342,-0.050522346,-0.06178999,1.783057,1.9377759,-0.058893632,-0.033605702,3.5722208,1.3844118,4.845613,-0.03343175,1.5935975,5.8405633,-0.0059907036
BTG2,4.6721663,-0.032472603,-0.029811786,-0.05107414,-0.06070612,1.7491753,1.9323056,-0.058674905,-0.033702906,3.564466,1.2227701,4.8326726,-0.0337121,1.5447105,5.791028,-0.0064835087
CD9,4.6668386,-0.031954687,-0.030232772,-0.05068297,-0.060184635,1.7099247,1.923316,-0.05889084,-0.03382151,3.5396028,1.0293199,4.7980895,-0.033743944,1.6330041,5.8619905,-0.006069607
MAN1A,4.4097857,-0.030235846,-0.029515322,-0.04787854,-0.05978373,1.8628063,1.9213953,-0.056255583,-0.031479895,3.405444,1.5890905,4.669594,-0.03305483,1.4254726,5.497909,-0.0056106267
CST7,4.3782296,-0.030371444,-0.029753318,-0.04650814,-0.058967166,1.8859028,1.8602815,-0.054184213,-0.029355206,3.2194235,1.5438416,4.458693,-0.032533992,1.644124,5.439233,-0.0055164127
CDK17,4.6109343,-0.032570403,-0.029494075,-0.051065326,-0.059948333,1.7519598,1.8716445,-0.057687793,-0.034112126,3.6054509,1.1135072,4.7859216,-0.03257333,1.5213351,5.722015,-0.0068271067
WFDC2,4.7237144,-0.028381571,-0.03158565,-0.048330672,-0.055015992,1.000842,1.8944421,-0.0537929,-0.032589197,3.2814748,0.9877073,4.5664115,-0.03361345,1.5417172,5.456056,-0.012536834
2610307P16RIK,4.913017,-0.04090764,-0.027157826,-0.058783803,-0.064773336,1.2227858,1.7298865,-0.064100005,-0.039248552,3.9624455,0.993388,4.9743457,-0.030413475,1.5405807,6.8851,-0.010148234
TOP2A,4.7586327,-0.033051994,-0.03007637,-0.052067664,-0.06248313,1.765103,1.9978443,-0.06041488,-0.03433839,3.6716475,1.2704902,4.979421,-0.034388777,1.6062661,5.9390388,-0.006388992
ZFP62,4.0910583,-0.027801206,-0.028557485,-0.044645775,-0.056663636,1.8084124,1.803615,-0.052141108,-0.029795121,3.2307875,1.6547774,4.357397,-0.030823948,1.2404051,5.164254,-0.005155706
RARB,4.791921,-0.03311425,-0.030018048,-0.05180397,-0.06284135,1.7288706,1.984841,-0.060925484,-0.03430304,3.664142,1.2334236,4.989118,-0.034316298,1.6944796,6.027511,-0.006062767
H1F0,4.1984644,-0.028508475,-0.029122228,-0.045741636,-0.057576645,1.8438314,1.8576669,-0.053529233,-0.030147785,3.267429,1.6434517,4.4697404,-0.031960692,1.3065966,5.25417,-0.0052693477
SLC9A9,4.366069,-0.02564077,-0.03130772,-0.044216204,-0.05367698,1.2812935,1.879489,-0.05037814,-0.029543946,3.0312967,1.5692464,4.306396,-0.03299179,1.2989516,5.0535197,-0.010835888
IGFBP4,4.018339,-0.028512865,-0.02860375,-0.049143553,-0.054844756,1.4798384,1.5678899,-0.051950336,-0.03478005,3.2711647,0.60094166,4.324483,-0.030472752,1.7207432,5.1738343,-0.001711019
RNF38,4.367876,-0.030174984,-0.029553303,-0.04781126,-0.059258994,1.9160869,1.8988713,-0.055181198,-0.031533785,3.3911684,1.6537998,4.6085258,-0.032598436,1.3584683,5.444213,-0.0058727735
RAB27B,4.743898,-0.033122405,-0.029776663,-0.052029103,-0.061373737,1.7233809,1.9444957,-0.059626464,-0.034410518,3.6344104,1.1378989,4.907727,-0.033849087,1.6014564,5.897344,-0.0065645496
FADS1,4.654323,-0.032406565,-0.029892934,-0.050842136,-0.06194153,1.8383257,1.971379,-0.0590414,-0.033644743,3.602164,1.4184434,4.8937044,-0.03381212,1.5484797,5.795189,-0.0061006527
SOCS2,4.792729,-0.03340715,-0.030004587,-0.052340243,-0.06251874,1.734756,1.9880774,-0.060722455,-0.03452098,3.6829753,1.2048664,4.9936953,-0.034391787,1.6414815,5.9820714,-0.0064661033
DTL,4.5114923,-0.03107199,-0.029730953,-0.049032364,-0.06060339,1.8623674,1.9383799,-0.05725824,-0.032407783,3.478231,1.5379087,4.743125,-0.03333238,1.4643742,5.6129804,-0.005935362
CDK6,4.443375,-0.033255566,-0.028549366,-0.049910076,-0.056980927,1.7732428,1.9572586,-0.060266435,-0.036386196,3.6933603,0.78546244,4.5372906,-0.03072699,1.4882947,5.5084147,-0.009583091
DUSP5,4.811683,-0.0335749,-0.029713167,-0.05204828,-0.06293259,1.7032552,1.9669564,-0.060783718,-0.03451422,3.6904771,1.2460206,5.00184,-0.033983108,1.66663,6.0335793,-0.0065005645
PLIN3,3.7500157,-0.02488576,-0.02755528,-0.041036427,-0.052823137,1.6542144,1.7121706,-0.04878945,-0.028022632,3.0597596,1.472508,4.071128,-0.02874848,1.1155294,4.8775177,-0.0045064692
GRAMD1A,4.584247,-0.03149119,-0.029708756,-0.04963186,-0.061900165,1.8292367,1.9745649,-0.058699317,-0.032679107,3.5531476,1.534408,4.852401,-0.033752847,1.5367477,5.7592673,-0.0056925532
ATP8B4,4.450742,-0.030401861,-0.029478125,-0.047870193,-0.059873767,1.8051934,1.9060615,-0.056470558,-0.03163323,3.4157133,1.528777,4.665522,-0.032808874,1.4723834,5.5651627,-0.005735258
CASP12,4.8872695,-0.034248915,-0.02996603,-0.05327339,-0.06373631,1.6713171,1.9911684,-0.06237065,-0.035158582,3.7896407,1.0679972,5.109961,-0.034586728,1.7654928,6.1473207,-0.006467318
GSTT1,4.7631125,-0.032855313,-0.029975919,-0.051529076,-0.06294705,1.7532156,1.9891839,-0.06067513,-0.034027938,3.6658568,1.3240925,4.9776974,-0.034249447,1.6545106,5.990977,-0.005971791
LCK,4.3911247,-0.03113934,-0.0293758,-0.045692272,-0.055606775,1.8016403,1.6592616,-0.054144084,-0.030361708,3.1242635,1.5304862,4.4751663,-0.032850575,1.1259584,5.298277,-0.0077516763
CTSW,4.8659935,-0.034031384,-0.029774003,-0.052900743,-0.061660312,1.5581597,1.9366858,-0.061265014,-0.035199497,3.6664567,0.8106877,5.000083,-0.03416087,1.7864414,6.138121,-0.0064786747
CCDC112,4.909159,-0.034447744,-0.029861983,-0.053299904,-0.06375152,1.6603667,1.9772941,-0.06236611,-0.035257176,3.7815924,1.058717,5.1054583,-0.034468837,1.7812549,6.1735396,-0.0065484415
ABCG3,4.836822,-0.02811478,-0.031882644,-0.043213658,-0.054293938,2.3043826,1.6682352,-0.049982514,-0.030313732,3.444817,1.086283,3.958407,-0.027897453,1.584386,5.312489,-0.0054317825
NDRG2,4.6694427,-0.03263689,-0.029923825,-0.051084366,-0.06163472,1.810564,1.9585364,-0.05897681,-0.03361672,3.5957613,1.3737123,4.8822827,-0.033900633,1.5492861,5.826061,-0.0064064953
CTSB,4.5373178,-0.03101332,-0.029715475,-0.048988413,-0.06091862,1.8167529,1.9425097,-0.057817113,-0.03235116,3.487362,1.4950056,4.7651315,-0.03339949,1.5208157,5.686794,-0.0056358986
CD7,4.531758,-0.030890157,-0.029769916,-0.048822146,-0.060583886,1.7631207,1.9446054,-0.057902277,-0.032322392,3.458751,1.395606,4.764067,-0.033456363,1.5700105,5.7108817,-0.005388903
HMGB2,4.7991643,-0.03320989,-0.03001182,-0.05196494,-0.06287488,1.7234372,1.985169,-0.060989197,-0.034361947,3.672735,1.2316855,4.9958196,-0.0343431,1.6870244,6.0342784,-0.0061184126
FOXO1,4.200123,-0.030013077,-0.02892766,-0.04765009,-0.056578998,1.797337,1.8191072,-0.052480757,-0.030949818,3.4572446,1.4432279,4.490217,-0.031206524,1.1834003,5.4599576,-0.006216219
NEURL3,4.3176084,-0.02940869,-0.029097514,-0.046444334,-0.058904648,1.8086874,1.8750215,-0.054933686,-0.030772751,3.3458922,1.6253811,4.5550942,-0.032056533,1.3963463,5.420121,-0.0054589575
EFNA1,4.7565126,-0.032605972,-0.030157188,-0.05131862,-0.061613075,1.696945,1.9457612,-0.060150016,-0.034261685,3.6009693,1.095752,4.899187,-0.033948272,1.6989791,5.998962,-0.0060074725
TRIM16,4.5707974,-0.03147732,-0.029802097,-0.04969864,-0.061156735,1.8529637,1.9490374,-0.05791109,-0.03290195,3.5181942,1.4970509,4.7918034,-0.03345849,1.5049597,5.6945825,-0.0057870043
RUNX2,4.773406,-0.033137467,-0.02985681,-0.05155571,-0.06315343,1.7505143,1.9887778,-0.06078397,-0.033974126,3.67511,1.3386673,5.001948,-0.034291442,1.6619097,5.9880433,-0.00622288
SLC35D3,4.4493732,-0.029853396,-0.029281491,-0.047524843,-0.05966434,1.8303666,1.9363227,-0.05669855,-0.03179558,3.3675897,1.5389191,4.7210274,-0.033072293,1.44706,5.50379,-0.005148645
CHRNB1,4.8378754,-0.034252677,-0.02964601,-0.053317145,-0.06342917,1.6453929,1.9382,-0.06182938,-0.03585594,3.8589244,0.9324046,5.0609503,-0.033337284,1.7648357,6.1278057,-0.006802346
RP2,4.475405,-0.031399827,-0.02930445,-0.0494986,-0.05943527,1.8109393,1.885315,-0.056344077,-0.03296715,3.4963837,1.3895684,4.7107534,-0.03250833,1.395372,5.585342,-0.0063106054
TMEM123,4.449968,-0.030666087,-0.029656205,-0.048479784,-0.060119543,1.8890355,1.9224962,-0.056393743,-0.031907175,3.4381561,1.6119684,4.682738,-0.03298318,1.426892,5.5650487,-0.0057360358
PBX1,4.916275,-0.034322217,-0.029894242,-0.053168662,-0.06403473,1.6503797,1.9823024,-0.06256461,-0.035146926,3.7957845,1.0825918,5.114167,-0.034476485,1.7956038,6.218511,-0.006342242
TPM4,4.749352,-0.033001687,-0.029948477,-0.0518135,-0.061232623,1.7258409,1.9409633,-0.05966774,-0.03429727,3.6223288,1.1152705,4.8947268,-0.033909027,1.6145707,5.9062777,-0.0065321634
PTP4A3,4.825391,-0.033667833,-0.029935779,-0.05248952,-0.06304847,1.7324079,1.9878047,-0.061184067,-0.03470562,3.7087345,1.2148832,5.0256624,-0.034369573,1.6759835,6.031279,-0.0064779697
ACAP1,4.0224867,-0.027360443,-0.028598418,-0.044647545,-0.05408644,1.7799604,1.7266704,-0.050407846,-0.029916644,3.1323435,1.4280016,4.2283316,-0.03036339,1.1696736,5.0059376,-0.0054017813
H2-DMA,4.6696987,-0.03210879,-0.029914416,-0.050484523,-0.06172855,1.7583525,1.9638976,-0.059336763,-0.033376016,3.575935,1.3231893,4.8818445,-0.033913042,1.6062897,5.8669915,-0.0058543854
CREG1,3.9314456,-0.028808156,-0.023083767,-0.044757303,-0.054128066,1.1558431,2.2548451,-0.051822428,-0.028137283,2.8276272,1.1198655,4.1469426,-0.027868263,1.6002774,5.5073094,-0.001684497
HACD4,4.4622927,-0.030258821,-0.029400991,-0.0476569,-0.060068857,1.7666258,1.9157798,-0.056807306,-0.031535845,3.430451,1.4733756,4.6753087,-0.03274662,1.5212747,5.627483,-0.005490385
FUCA2,4.6945653,-0.032515295,-0.02993327,-0.051096033,-0.06230321,1.8157793,1.9810791,-0.05961167,-0.033832848,3.6183228,1.4009022,4.917913,-0.034005493,1.5786004,5.8594837,-0.006091384
TXNIP,4.4724436,-0.031124992,-0.029497761,-0.04941898,-0.058935806,1.8254157,1.874385,-0.05592655,-0.03276868,3.4505947,1.3609681,4.659112,-0.032597266,1.4110847,5.532808,-0.0061952947
SERP1,4.1395416,-0.02826701,-0.02897719,-0.045545414,-0.056407336,1.846184,1.8098214,-0.052331164,-0.030194359,3.2196352,1.5979103,4.385047,-0.03146335,1.2385558,5.1504893,-0.0054518045
9530082P21RIK,4.913017,-0.04090764,-0.027157826,-0.058783803,-0.064773336,1.2227858,1.7298865,-0.064100005,-0.039248552,3.9624455,0.993388,4.9743457,-0.030413475,1.5405807,6.8851,-0.010148234
TYROBP,4.38002,-0.03003812,-0.029323988,-0.04742052,-0.059600696,1.856972,1.9045888,-0.055625815,-0.031295177,3.3920538,1.628569,4.6377835,-0.032631814,1.4073993,5.474873,-0.0056038564
GM1966,4.5879946,-0.032029394,-0.029754141,-0.050224833,-0.06131163,1.8088179,1.9659702,-0.05839673,-0.0331248,3.567142,1.4487389,4.8536153,-0.033759,1.4929899,5.7265058,-0.00647158
GIMAP1OS,4.913017,-0.04090764,-0.027157826,-0.058783803,-0.064773336,1.2227858,1.7298865,-0.064100005,-0.039248552,3.9624455,0.993388,4.9743457,-0.030413475,1.5405807,6.8851,-0.010148234
PTPRE,4.278789,-0.029195627,-0.029198417,-0.0464233,-0.058560677,1.8729323,1.8699303,-0.054290432,-0.030683687,3.3187425,1.6722908,4.527233,-0.032093745,1.3476663,5.344126,-0.0053474093
YBX1,4.7238812,-0.032820955,-0.02995797,-0.051405534,-0.0621934,1.7914956,1.9754579,-0.059675198,-0.03398152,3.6241224,1.3344699,4.9263396,-0.033999793,1.5989772,5.872829,-0.0062294165
PSTPIP1,4.086156,-0.027738549,-0.028888669,-0.04481306,-0.055858903,1.8262131,1.7986119,-0.051767364,-0.029772472,3.1785553,1.5962843,4.335367,-0.031211175,1.2271897,5.0983543,-0.0053068227
MSMO1,4.044196,-0.030995935,-0.02244994,-0.047495574,-0.055313744,1.2611189,2.2063732,-0.052492198,-0.028916482,2.9206805,1.1718446,4.391923,-0.02964137,1.6544253,5.5921035,-0.001885476
NLRC3,4.7656164,-0.0323373,-0.029189553,-0.050476678,-0.062688544,1.5358179,1.9675928,-0.061631992,-0.033694956,3.7207391,0.9344839,4.948855,-0.03325444,1.8866869,6.205339,-0.0054692863
CNN3,4.790097,-0.033406995,-0.029978255,-0.052333392,-0.062496398,1.7334383,1.9865117,-0.060701422,-0.03451077,3.6845055,1.2038543,4.994458,-0.0343941,1.6402413,5.982178,-0.0064499583
CCNG2,4.6189036,-0.032042213,-0.029990682,-0.050293405,-0.060942497,1.8128555,1.9327639,-0.058209054,-0.03318541,3.5389154,1.3945595,4.8030977,-0.03355393,1.5327327,5.7833476,-0.0062035243
