,0,1,2,3,4,5,6,7,8,9,10,11,12,13,14,15
MUC13,-0.08639536,-0.009146895,4.053097,7.494087,-0.05114539,-0.13458334,10.6137295,-0.11472269,-0.10244977,7.3353605,-0.07728127,-0.06853974,-0.07502862,7.2073026,-0.055959318,-0.10274537
GOLT1B,-0.07575733,-0.0139573645,4.084556,7.69086,-0.045615137,-0.12395746,9.410141,-0.09961895,-0.094832875,6.460578,-0.071892545,-0.071429096,-0.08104114,5.7828574,-0.06408467,-0.10587391
PHF10,-0.08639536,-0.009146895,4.053097,7.494087,-0.05114539,-0.13458334,10.6137295,-0.11472269,-0.10244977,7.3353605,-0.07728127,-0.06853974,-0.07502862,7.2073026,-0.055959318,-0.10274537
EBI3,-0.08639536,-0.009146895,4.053097,7.494087,-0.05114539,-0.13458334,10.6137295,-0.11472269,-0.10244977,7.3353605,-0.07728127,-0.06853974,-0.07502862,7.2073026,-0.055959318,-0.10274537
TMEM97,-0.07913642,-0.0012935605,4.228679,7.2523584,-0.057029944,-0.1267153,9.8438,-0.12109777,-0.094310254,6.22722,-0.064147845,-0.061038323,-0.068985514,7.4372816,-0.04885119,-0.09120905
NAP1L3,-0.08634998,-0.009187599,4.046205,7.49919,-0.051119193,-0.13454951,10.609465,-0.11462928,-0.102398515,7.3306785,-0.07730842,-0.06850455,-0.075006686,7.201691,-0.05594503,-0.10279686
CTSL,-0.08639536,-0.009146895,4.053097,7.494087,-0.05114539,-0.13458334,10.6137295,-0.11472269,-0.10244977,7.3353605,-0.07728127,-0.06853974,-0.07502862,7.2073026,-0.055959318,-0.10274537
PRKCH,-0.08639536,-0.009146895,4.053097,7.494087,-0.05114539,-0.13458334,10.6137295,-0.11472269,-0.10244977,7.3353605,-0.07728127,-0.06853974,-0.07502862,7.2073026,-0.055959318,-0.10274537
SLCO3A1,-0.08639536,-0.009146895,4.053097,7.494087,-0.05114539,-0.13458334,10.6137295,-0.11472269,-0.10244977,7.3353605,-0.07728127,-0.06853974,-0.07502862,7.2073026,-0.055959318,-0.10274537
FCER1G,-0.08639536,-0.009146895,4.053097,7.494087,-0.05114539,-0.13458334,10.6137295,-0.11472269,-0.10244977,7.3353605,-0.07728127,-0.06853974,-0.07502862,7.2073026,-0.055959318,-0.10274537
AGPS,-0.08639717,-0.009154639,4.053846,7.494293,-0.05113612,-0.13454205,10.611772,-0.11474363,-0.102426566,7.3325863,-0.077293895,-0.068510175,-0.07503734,7.21032,-0.055980463,-0.10272401
RUNX1T1,-0.078213744,-0.0077428254,3.734237,6.7054915,-0.045218114,-0.12083795,9.450021,-0.09838006,-0.08730171,6.6336555,-0.07037968,-0.066578604,-0.069555394,6.4411187,-0.051973637,-0.09674009
GBP7,-0.076035544,-0.0076293442,3.587002,6.613791,-0.043403987,-0.116465606,9.131032,-0.09573856,-0.084345564,6.512737,-0.06884211,-0.063181296,-0.066746496,6.2469497,-0.0504099,-0.093354665
RNF4,-0.06906204,-0.006076484,3.3409698,6.0302052,-0.0396379,-0.105490185,8.326542,-0.08576693,-0.076712854,5.9477057,-0.062212013,-0.058592856,-0.060623307,5.67915,-0.045862418,-0.08530662
INPP5B,-0.08639536,-0.009146895,4.053097,7.494087,-0.05114539,-0.13458334,10.6137295,-0.11472269,-0.10244977,7.3353605,-0.07728127,-0.06853974,-0.07502862,7.2073026,-0.055959318,-0.10274537
UNC93B1,-0.08639536,-0.009146895,4.053097,7.494087,-0.05114539,-0.13458334,10.6137295,-0.11472269,-0.10244977,7.3353605,-0.07728127,-0.06853974,-0.07502862,7.2073026,-0.055959318,-0.10274537
RPRD1B,-0.0714103,-0.00611,3.4681036,6.211127,-0.041099925,-0.1094182,8.650922,-0.089402094,-0.07934548,6.1349144,-0.063862406,-0.060296968,-0.062616654,5.8902316,-0.047069304,-0.08754128
TM6SF1,-0.086201034,-0.017020999,3.8546975,7.439516,-0.04647356,-0.11199608,9.26374,-0.10346769,-0.07810729,6.8654156,-0.06077836,-0.05443497,-0.0693328,6.9906297,-0.047446597,-0.08490561
ZFP367,-0.07575733,-0.0139573645,4.084556,7.69086,-0.045615137,-0.12395746,9.410141,-0.09961895,-0.094832875,6.460578,-0.071892545,-0.071429096,-0.08104114,5.7828574,-0.06408467,-0.10587391
GIMAP6,-0.08639536,-0.009146895,4.053097,7.494087,-0.05114539,-0.13458334,10.6137295,-0.11472269,-0.10244977,7.3353605,-0.07728127,-0.06853974,-0.07502862,7.2073026,-0.055959318,-0.10274537
MGAT5,-0.08639536,-0.009146895,4.053097,7.494087,-0.05114539,-0.13458334,10.6137295,-0.11472269,-0.10244977,7.3353605,-0.07728127,-0.06853974,-0.07502862,7.2073026,-0.055959318,-0.10274537
RELB,-0.08449777,-0.006998082,4.160656,7.2586575,-0.046658266,-0.13241538,10.517226,-0.10857706,-0.095192514,7.216361,-0.076900855,-0.07123907,-0.07407502,6.9771485,-0.054593924,-0.103628755
CNRIP1,-0.08639536,-0.009146895,4.053097,7.494087,-0.05114539,-0.13458334,10.6137295,-0.11472269,-0.10244977,7.3353605,-0.07728127,-0.06853974,-0.07502862,7.2073026,-0.055959318,-0.10274537
EYA2,-0.085928075,-0.0036587226,4.6282406,6.8088355,-0.054987565,-0.1337987,10.193425,-0.10667823,-0.094004296,7.310589,-0.07432367,-0.075349435,-0.07487394,6.698478,-0.05834973,-0.10541562
HMGB2,-0.059948333,-0.0053168554,2.85751,5.146757,-0.033866458,-0.090498015,7.170835,-0.073501974,-0.06584445,5.039746,-0.052472193,-0.049503125,-0.05141191,4.8817725,-0.03907953,-0.07292476
ANXA3,-0.08639536,-0.009146895,4.053097,7.494087,-0.05114539,-0.13458334,10.6137295,-0.11472269,-0.10244977,7.3353605,-0.07728127,-0.06853974,-0.07502862,7.2073026,-0.055959318,-0.10274537
AURKB,-0.053903505,-0.0038167685,2.5982132,4.658243,-0.030222997,-0.08140289,6.4599223,-0.06598857,-0.059497178,4.6106806,-0.04816136,-0.04555119,-0.046612132,4.3486257,-0.03533013,-0.06637738
EZR,-0.08640606,-0.009150638,4.054999,7.4951906,-0.051124856,-0.13456924,10.61485,-0.11470834,-0.10243421,7.33383,-0.07729552,-0.06852306,-0.075019106,7.2080636,-0.05595317,-0.102757536
ZFP945,-0.08639292,-0.00914541,4.0528984,7.4940863,-0.051142327,-0.13458028,10.613931,-0.11472332,-0.1024469,7.3349767,-0.07728413,-0.068538845,-0.075029716,7.206936,-0.055963133,-0.102745906
EPAS1,-0.08450024,-0.008230165,4.006873,7.319218,-0.048042387,-0.13216077,10.391826,-0.10901343,-0.09638919,7.247003,-0.07664531,-0.06982702,-0.0747241,7.0073233,-0.055636507,-0.10352833
RTP4,-0.07892413,-0.008001849,3.736944,6.824114,-0.045495648,-0.12133433,9.4963665,-0.100904554,-0.087508686,6.6731176,-0.0711558,-0.06534997,-0.06948685,6.511232,-0.052076597,-0.09649052
WDR5,-0.066843525,-0.0059561203,3.2098932,5.793741,-0.03828,-0.10125061,8.011312,-0.08238858,-0.07375102,5.7098646,-0.05944866,-0.05614039,-0.057981014,5.4716496,-0.044034448,-0.08197783
TACC3,-0.08639536,-0.009146895,4.053097,7.494087,-0.05114539,-0.13458334,10.6137295,-0.11472269,-0.10244977,7.3353605,-0.07728127,-0.06853974,-0.07502862,7.2073026,-0.055959318,-0.10274537
ACOX1,-0.08639536,-0.009146895,4.053097,7.494087,-0.05114539,-0.13458334,10.6137295,-0.11472269,-0.10244977,7.3353605,-0.07728127,-0.06853974,-0.07502862,7.2073026,-0.055959318,-0.10274537
XAF1,-0.07809663,-0.0077784224,3.6973686,6.7352953,-0.04431948,-0.11965126,9.402369,-0.09917274,-0.08576765,6.5770774,-0.06996978,-0.06395871,-0.06800185,6.4303207,-0.05118277,-0.09519035
POLR2B,-0.05827853,-0.004421635,2.816511,5.033207,-0.032975476,-0.08789829,6.973553,-0.071414866,-0.063921936,4.9661307,-0.051879324,-0.049187806,-0.050198793,4.726406,-0.03812266,-0.071540706
1700017B05RIK,-0.08639536,-0.009146895,4.053097,7.494087,-0.05114539,-0.13458334,10.6137295,-0.11472269,-0.10244977,7.3353605,-0.07728127,-0.06853974,-0.07502862,7.2073026,-0.055959318,-0.10274537
RORA,-0.08449848,-0.008332288,4.0324183,7.3745027,-0.04790143,-0.1324922,10.455986,-0.10948791,-0.097199135,7.273219,-0.07694352,-0.07010505,-0.07509222,7.0478506,-0.056017444,-0.10350788
MPO,-0.072799526,-0.007031218,3.4889026,6.2782474,-0.041729238,-0.111056805,8.774124,-0.09132085,-0.08004621,6.1383853,-0.064607084,-0.0606265,-0.06350059,5.99762,-0.04779133,-0.08890834
PROCR,-0.08639536,-0.009146895,4.053097,7.494087,-0.05114539,-0.13458334,10.6137295,-0.11472269,-0.10244977,7.3353605,-0.07728127,-0.06853974,-0.07502862,7.2073026,-0.055959318,-0.10274537
CSAD,-0.069265425,-0.0008489868,3.1890168,6.009715,-0.043524887,-0.14063978,9.506365,-0.11872963,-0.08896666,5.7387133,-0.06460198,-0.051308416,-0.08039883,5.743299,-0.052878726,-0.101924315
MCM7,-0.05544796,-0.004035912,2.675243,4.793619,-0.031152224,-0.08369358,6.6424904,-0.06791111,-0.061096225,4.734103,-0.04944327,-0.046770256,-0.04784944,4.4807725,-0.036246043,-0.068152644
APLP2,-0.08639536,-0.009146895,4.053097,7.494087,-0.05114539,-0.13458334,10.6137295,-0.11472269,-0.10244977,7.3353605,-0.07728127,-0.06853974,-0.07502862,7.2073026,-0.055959318,-0.10274537
ZNRF2,-0.07391929,-0.0072272704,3.51047,6.455469,-0.042292397,-0.11350196,8.930021,-0.093087174,-0.08189111,6.325486,-0.06642469,-0.061874345,-0.065172285,6.144752,-0.04912865,-0.09093313
CDCA4,-0.08639536,-0.009146895,4.053097,7.494087,-0.05114539,-0.13458334,10.6137295,-0.11472269,-0.10244977,7.3353605,-0.07728127,-0.06853974,-0.07502862,7.2073026,-0.055959318,-0.10274537
SLC44A2,-0.08593462,-0.0075623845,4.187489,7.384258,-0.04949214,-0.13504122,10.71903,-0.11362598,-0.102252364,7.3156843,-0.077547275,-0.06983329,-0.07404519,7.1377673,-0.054239534,-0.10237707
SELL,-0.07411209,-0.007119683,3.5272746,6.4057975,-0.042009454,-0.113682985,8.982086,-0.092806675,-0.0822224,6.332624,-0.066255994,-0.061885003,-0.06498365,6.1288176,-0.049058378,-0.09083887
PECAM1,-0.08639536,-0.009146895,4.053097,7.494087,-0.05114539,-0.13458334,10.6137295,-0.11472269,-0.10244977,7.3353605,-0.07728127,-0.06853974,-0.07502862,7.2073026,-0.055959318,-0.10274537
H2-AA,-0.08639536,-0.009146895,4.053097,7.494087,-0.05114539,-0.13458334,10.6137295,-0.11472269,-0.10244977,7.3353605,-0.07728127,-0.06853974,-0.07502862,7.2073026,-0.055959318,-0.10274537
NKG7,-0.06696947,-0.00065166916,4.346427,7.5251555,-0.033125874,-0.11213645,9.665103,-0.09259779,-0.08690687,6.8474255,-0.07471739,-0.061323836,-0.0647238,4.9507403,-0.053360496,-0.08808093
ATAD1,-0.08639717,-0.009154639,4.053846,7.494293,-0.05113612,-0.13454205,10.611772,-0.11474363,-0.102426566,7.3325863,-0.077293895,-0.068510175,-0.07503734,7.21032,-0.055980463,-0.10272401
TES,-0.09204113,-0.011847496,3.520635,8.080372,-0.048769455,-0.123613834,9.057465,-0.099492565,-0.10578851,7.177656,-0.07354174,-0.06672537,-0.06190161,6.4615335,-0.057854902,-0.087472744
TIPIN,-0.053578448,-0.003724389,2.5823772,4.6335354,-0.03000801,-0.08091233,6.4201965,-0.06557352,-0.059180092,4.592973,-0.04799528,-0.045349732,-0.04634318,4.319911,-0.03510399,-0.06601835
PLEKHO2,-0.07231808,0.21284887,4.016111,6.178654,-0.05807544,-0.123665266,9.015131,-0.10945133,-0.109999925,7.492264,-0.07013451,-0.07231243,-0.07870375,6.079909,-0.048529476,-0.090990305
TFG,-0.08639536,-0.009146895,4.053097,7.494087,-0.05114539,-0.13458334,10.6137295,-0.11472269,-0.10244977,7.3353605,-0.07728127,-0.06853974,-0.07502862,7.2073026,-0.055959318,-0.10274537
TIE1,-0.08639536,-0.009146895,4.053097,7.494087,-0.05114539,-0.13458334,10.6137295,-0.11472269,-0.10244977,7.3353605,-0.07728127,-0.06853974,-0.07502862,7.2073026,-0.055959318,-0.10274537
SNAP47,-0.08639536,-0.009146895,4.053097,7.494087,-0.05114539,-0.13458334,10.6137295,-0.11472269,-0.10244977,7.3353605,-0.07728127,-0.06853974,-0.07502862,7.2073026,-0.055959318,-0.10274537
MXD3,-0.08639536,-0.009146895,4.053097,7.494087,-0.05114539,-0.13458334,10.6137295,-0.11472269,-0.10244977,7.3353605,-0.07728127,-0.06853974,-0.07502862,7.2073026,-0.055959318,-0.10274537
STT3B,-0.08639536,-0.009146895,4.053097,7.494087,-0.05114539,-0.13458334,10.6137295,-0.11472269,-0.10244977,7.3353605,-0.07728127,-0.06853974,-0.07502862,7.2073026,-0.055959318,-0.10274537
SEH1L,-0.08223482,-0.009577816,3.7535954,6.9790854,-0.046953063,-0.12636736,9.92763,-0.10570344,-0.093638636,6.8109436,-0.0719033,-0.06395197,-0.070685565,6.797044,-0.054084547,-0.097556666
TUBGCP2,-0.086379066,-0.009131584,4.054429,7.491936,-0.051127784,-0.13458852,10.614981,-0.114722386,-0.10244785,7.3346195,-0.07725728,-0.06854822,-0.075010136,7.208183,-0.05594692,-0.102737814
APOE,-0.08639536,-0.009146895,4.053097,7.494087,-0.05114539,-0.13458334,10.6137295,-0.11472269,-0.10244977,7.3353605,-0.07728127,-0.06853974,-0.07502862,7.2073026,-0.055959318,-0.10274537
TAF12,-0.06424932,-0.005281946,3.097419,5.5840673,-0.036550414,-0.097211994,7.698737,-0.07874434,-0.0710796,5.5419855,-0.0577045,-0.054505058,-0.055772766,5.2416925,-0.04221406,-0.07898853
MLKL,-0.08639536,-0.009146895,4.053097,7.494087,-0.05114539,-0.13458334,10.6137295,-0.11472269,-0.10244977,7.3353605,-0.07728127,-0.06853974,-0.07502862,7.2073026,-0.055959318,-0.10274537
CD9,-0.07681065,-0.009229107,3.7592533,7.6150684,-0.048442952,-0.12545608,9.995824,-0.10380211,-0.095053844,6.836808,-0.068753,-0.07151319,-0.068604335,6.468792,-0.057809055,-0.09527583
ZDHHC13,-0.07913222,-0.0013258043,4.2216115,7.2468643,-0.057047937,-0.12672378,9.841839,-0.1210659,-0.09428931,6.231133,-0.06417354,-0.06102128,-0.068965726,7.4310036,-0.04887268,-0.09123214
SCARB1,-0.08639536,-0.009146895,4.053097,7.494087,-0.05114539,-0.13458334,10.6137295,-0.11472269,-0.10244977,7.3353605,-0.07728127,-0.06853974,-0.07502862,7.2073026,-0.055959318,-0.10274537
FAM76B,-0.08639536,-0.009146895,4.053097,7.494087,-0.05114539,-0.13458334,10.6137295,-0.11472269,-0.10244977,7.3353605,-0.07728127,-0.06853974,-0.07502862,7.2073026,-0.055959318,-0.10274537
METTL7A1,-0.08639536,-0.009146895,4.053097,7.494087,-0.05114539,-0.13458334,10.6137295,-0.11472269,-0.10244977,7.3353605,-0.07728127,-0.06853974,-0.07502862,7.2073026,-0.055959318,-0.10274537
TRIM59,-0.08639536,-0.009146895,4.053097,7.494087,-0.05114539,-0.13458334,10.6137295,-0.11472269,-0.10244977,7.3353605,-0.07728127,-0.06853974,-0.07502862,7.2073026,-0.055959318,-0.10274537
BC035044,-0.08639536,-0.009146895,4.053097,7.494087,-0.05114539,-0.13458334,10.6137295,-0.11472269,-0.10244977,7.3353605,-0.07728127,-0.06853974,-0.07502862,7.2073026,-0.055959318,-0.10274537
HELLS,-0.054079764,-0.0038605307,2.6081524,4.6727953,-0.03030014,-0.08167675,6.48392,-0.06619695,-0.059654158,4.620547,-0.048279166,-0.0456811,-0.04674723,4.3632693,-0.035431568,-0.06656992
LIG1,-0.056423742,-0.0040629487,2.7283673,4.8920054,-0.031771615,-0.08505513,6.7489347,-0.06897957,-0.062059972,4.838599,-0.05058083,-0.047827914,-0.048670907,4.565269,-0.036873806,-0.06945817
RCSD1,-0.08639536,-0.009146895,4.053097,7.494087,-0.05114539,-0.13458334,10.6137295,-0.11472269,-0.10244977,7.3353605,-0.07728127,-0.06853974,-0.07502862,7.2073026,-0.055959318,-0.10274537
CYB5R1,-0.086388245,-0.009147613,4.051434,7.493731,-0.051144026,-0.1345962,10.612337,-0.11470655,-0.102443285,7.337059,-0.07726277,-0.06853392,-0.07503868,7.2066383,-0.055951055,-0.102735914
ELP2,-0.086388245,-0.009147613,4.051434,7.493731,-0.051144026,-0.1345962,10.612337,-0.11470655,-0.102443285,7.337059,-0.07726277,-0.06853392,-0.07503868,7.2066383,-0.055951055,-0.102735914
CISH,-0.07244949,-0.0064256466,3.4846323,6.34392,-0.041548986,-0.11117234,8.754869,-0.090947285,-0.0808536,6.27918,-0.06589627,-0.06138867,-0.06392763,5.977895,-0.048197426,-0.08948619
DNAJC10,-0.08639536,-0.009146895,4.053097,7.494087,-0.05114539,-0.13458334,10.6137295,-0.11472269,-0.10244977,7.3353605,-0.07728127,-0.06853974,-0.07502862,7.2073026,-0.055959318,-0.10274537
ADO,-0.07575733,-0.0139573645,4.084556,7.69086,-0.045615137,-0.12395746,9.410141,-0.09961895,-0.094832875,6.460578,-0.071892545,-0.071429096,-0.08104114,5.7828574,-0.06408467,-0.10587391
TPM4,-0.08639536,-0.009146895,4.053097,7.494087,-0.05114539,-0.13458334,10.6137295,-0.11472269,-0.10244977,7.3353605,-0.07728127,-0.06853974,-0.07502862,7.2073026,-0.055959318,-0.10274537
OASL2,-0.0787378,-0.008351235,3.6970053,6.845426,-0.04533015,-0.12106351,9.463459,-0.09982414,-0.08814437,6.7361784,-0.07146724,-0.06564958,-0.06971734,6.492162,-0.05243353,-0.096596554
SLC39A6,-0.08639536,-0.009146895,4.053097,7.494087,-0.05114539,-0.13458334,10.6137295,-0.11472269,-0.10244977,7.3353605,-0.07728127,-0.06853974,-0.07502862,7.2073026,-0.055959318,-0.10274537
ABCG2,-0.08637533,-0.009129262,4.054427,7.493587,-0.05115937,-0.13457096,10.612972,-0.11470319,-0.10246559,7.3356457,-0.07726338,-0.06855361,-0.075042695,7.205688,-0.05595672,-0.10274732
B230219D22RIK,-0.08639536,-0.009146895,4.053097,7.494087,-0.05114539,-0.13458334,10.6137295,-0.11472269,-0.10244977,7.3353605,-0.07728127,-0.06853974,-0.07502862,7.2073026,-0.055959318,-0.10274537
RCC1,-0.053042274,-0.0035837297,2.5544262,4.590964,-0.029695107,-0.08008483,6.3518376,-0.0649119,-0.05867724,4.5606227,-0.047653716,-0.04497035,-0.045875013,4.273172,-0.034747586,-0.06538202
JPT2,-0.08639536,-0.009146895,4.053097,7.494087,-0.05114539,-0.13458334,10.6137295,-0.11472269,-0.10244977,7.3353605,-0.07728127,-0.06853974,-0.07502862,7.2073026,-0.055959318,-0.10274537
NUP107,-0.08639536,-0.009146895,4.053097,7.494087,-0.05114539,-0.13458334,10.6137295,-0.11472269,-0.10244977,7.3353605,-0.07728127,-0.06853974,-0.07502862,7.2073026,-0.055959318,-0.10274537
TOR3A,-0.08639536,-0.009146895,4.053097,7.494087,-0.05114539,-0.13458334,10.6137295,-0.11472269,-0.10244977,7.3353605,-0.07728127,-0.06853974,-0.07502862,7.2073026,-0.055959318,-0.10274537
IL21R,-0.08639536,-0.009146895,4.053097,7.494087,-0.05114539,-0.13458334,10.6137295,-0.11472269,-0.10244977,7.3353605,-0.07728127,-0.06853974,-0.07502862,7.2073026,-0.055959318,-0.10274537
USP10,-0.08639536,-0.009146895,4.053097,7.494087,-0.05114539,-0.13458334,10.6137295,-0.11472269,-0.10244977,7.3353605,-0.07728127,-0.06853974,-0.07502862,7.2073026,-0.055959318,-0.10274537
LAPTM4B,-0.08632925,-0.009145274,4.0501175,7.493715,-0.051120576,-0.13458729,10.614789,-0.11466955,-0.10242456,7.3315706,-0.077295594,-0.06850934,-0.07498448,7.205363,-0.055910937,-0.10275815
INTS13,-0.074947536,-0.01762386,3.0412855,7.4152775,-0.05275793,-0.115774974,8.790311,-0.09686662,-0.08732918,6.4196305,-0.07000894,-0.07435462,-0.06653237,6.96881,-0.056377653,-0.09328583
HDAC11,-0.073961936,-0.0066182157,3.5536635,6.4267163,-0.042588457,-0.11339526,8.929689,-0.09297027,-0.08211767,6.3493967,-0.066106774,-0.061974775,-0.06511156,6.10606,-0.049009886,-0.090923116
MYC,-0.064175844,-0.0057715485,3.059375,5.539715,-0.036400754,-0.09653461,7.6582055,-0.07839769,-0.070379,5.45184,-0.056915186,-0.053701114,-0.055086873,5.230411,-0.04208863,-0.07845566
ADA,-0.06324424,-0.0066419262,2.9412827,5.3698015,-0.035209123,-0.09455739,7.4894266,-0.07718391,-0.06804871,5.187885,-0.05473534,-0.05095715,-0.05335327,5.1358824,-0.040850904,-0.07594117
BTK,-0.08639536,-0.009146895,4.053097,7.494087,-0.05114539,-0.13458334,10.6137295,-0.11472269,-0.10244977,7.3353605,-0.07728127,-0.06853974,-0.07502862,7.2073026,-0.055959318,-0.10274537
ARL6IP6,-0.08639536,-0.009146895,4.053097,7.494087,-0.05114539,-0.13458334,10.6137295,-0.11472269,-0.10244977,7.3353605,-0.07728127,-0.06853974,-0.07502862,7.2073026,-0.055959318,-0.10274537
PNO1,-0.08637533,-0.009129262,4.054427,7.493587,-0.05115937,-0.13457096,10.612972,-0.11470319,-0.10246559,7.3356457,-0.07726338,-0.06855361,-0.075042695,7.205688,-0.05595672,-0.10274732
CDC7,-0.053606197,-0.0037535452,2.5820603,4.633988,-0.030054977,-0.080955476,6.4218445,-0.06562979,-0.059214376,4.5912623,-0.047953438,-0.04532317,-0.04636429,4.3240886,-0.035125867,-0.06601588
CDT1,-0.043713152,-0.003480538,2.1138325,3.7528682,-0.033159424,-0.074012496,5.552594,-0.06163358,-0.0617895,4.171278,-0.042085465,-0.033495866,-0.039635252,3.4146278,-0.03695879,-0.061184444
PLXNC1,-0.08639536,-0.009146895,4.053097,7.494087,-0.05114539,-0.13458334,10.6137295,-0.11472269,-0.10244977,7.3353605,-0.07728127,-0.06853974,-0.07502862,7.2073026,-0.055959318,-0.10274537
PTDSS1,-0.09228746,-0.013941071,3.554922,6.9123263,-0.040345263,-0.12442283,10.720056,-0.11191736,-0.09161547,6.8204017,-0.081669025,-0.059213877,-0.063582025,6.993223,-0.04162348,-0.10801908
RP2,-0.08639536,-0.009146895,4.053097,7.494087,-0.05114539,-0.13458334,10.6137295,-0.11472269,-0.10244977,7.3353605,-0.07728127,-0.06853974,-0.07502862,7.2073026,-0.055959318,-0.10274537
SLC18A2,-0.08639536,-0.009146895,4.053097,7.494087,-0.05114539,-0.13458334,10.6137295,-0.11472269,-0.10244977,7.3353605,-0.07728127,-0.06853974,-0.07502862,7.2073026,-0.055959318,-0.10274537
WDR55,-0.08639536,-0.009146895,4.053097,7.494087,-0.05114539,-0.13458334,10.6137295,-0.11472269,-0.10244977,7.3353605,-0.07728127,-0.06853974,-0.07502862,7.2073026,-0.055959318,-0.10274537
PARP8,-0.08639536,-0.009146895,4.053097,7.494087,-0.05114539,-0.13458334,10.6137295,-0.11472269,-0.10244977,7.3353605,-0.07728127,-0.06853974,-0.07502862,7.2073026,-0.055959318,-0.10274537
CLEC12A,-0.072321065,0.21173975,4.0157194,6.1775928,-0.058071766,-0.12366149,9.015342,-0.1094562,-0.110005215,7.492756,-0.07013076,-0.072321385,-0.07870819,6.079013,-0.048538517,-0.09098649
SLC28A2,-0.08639536,-0.009146895,4.053097,7.494087,-0.05114539,-0.13458334,10.6137295,-0.11472269,-0.10244977,7.3353605,-0.07728127,-0.06853974,-0.07502862,7.2073026,-0.055959318,-0.10274537
ATP6AP1,-0.08634554,-0.009160587,4.048785,7.495866,-0.05113818,-0.1345821,10.613538,-0.11466985,-0.10242647,7.3323116,-0.077319585,-0.06850086,-0.07500296,7.2044826,-0.055923335,-0.1027657
TRP53I11,-0.08639536,-0.009146895,4.053097,7.494087,-0.05114539,-0.13458334,10.6137295,-0.11472269,-0.10244977,7.3353605,-0.07728127,-0.06853974,-0.07502862,7.2073026,-0.055959318,-0.10274537
ST6GALNAC4,-0.08639536,-0.009146895,4.053097,7.494087,-0.05114539,-0.13458334,10.6137295,-0.11472269,-0.10244977,7.3353605,-0.07728127,-0.06853974,-0.07502862,7.2073026,-0.055959318,-0.10274537
RRM2,-0.053903893,-0.0038044793,2.597644,4.6603374,-0.03023858,-0.08139859,6.457552,-0.06599257,-0.059514035,4.614442,-0.048207812,-0.04557442,-0.04662167,4.349161,-0.035323363,-0.06639604
DDX58,-0.07171964,-0.006528192,3.4518816,6.251005,-0.04146925,-0.10995794,8.642195,-0.09012414,-0.07987027,6.15971,-0.06477597,-0.060610123,-0.06329861,5.8968453,-0.047802676,-0.088669114
CSRP3,-0.072126746,-0.005756705,3.8173203,6.1230216,-0.053399935,-0.101074226,7.665351,-0.09820121,-0.08566274,7.022811,-0.053627856,-0.058216617,-0.07301237,5.86234,-0.040025797,-0.073146746
FAM136A,-0.08639536,-0.009146895,4.053097,7.494087,-0.05114539,-0.13458334,10.6137295,-0.11472269,-0.10244977,7.3353605,-0.07728127,-0.06853974,-0.07502862,7.2073026,-0.055959318,-0.10274537
MOB3C,-0.08639536,-0.009146895,4.053097,7.494087,-0.05114539,-0.13458334,10.6137295,-0.11472269,-0.10244977,7.3353605,-0.07728127,-0.06853974,-0.07502862,7.2073026,-0.055959318,-0.10274537
HACD3,-0.08639536,-0.009146895,4.053097,7.494087,-0.05114539,-0.13458334,10.6137295,-0.11472269,-0.10244977,7.3353605,-0.07728127,-0.06853974,-0.07502862,7.2073026,-0.055959318,-0.10274537
NEURL3,-0.08636217,-0.009139469,4.051291,7.494407,-0.05114621,-0.13457333,10.611529,-0.11474077,-0.10247305,7.3325367,-0.07730725,-0.068507396,-0.07501648,7.204282,-0.055934265,-0.10275917
BTG2,-0.06678165,-0.005908489,3.2042506,5.794121,-0.038170528,-0.10104606,8.002115,-0.082213245,-0.073743865,5.717479,-0.059508055,-0.05605431,-0.05782683,5.4626775,-0.04394189,-0.0818957
MYCN,-0.05980588,-0.009832746,2.5024905,5.188932,-0.037253592,-0.086060576,6.555623,-0.070305176,-0.06298075,5.0227757,-0.055611413,-0.05349872,-0.05155112,5.260206,-0.038916886,-0.07368864
TMEM43,-0.08639536,-0.009146895,4.053097,7.494087,-0.05114539,-0.13458334,10.6137295,-0.11472269,-0.10244977,7.3353605,-0.07728127,-0.06853974,-0.07502862,7.2073026,-0.055959318,-0.10274537
CST7,-0.09204559,-0.011874509,3.5180547,8.083696,-0.048750468,-0.12358125,9.053391,-0.099452,-0.10576055,7.176023,-0.07353058,-0.06672907,-0.061905336,6.458742,-0.057876598,-0.087503895
METTL27,-0.08639536,-0.009146895,4.053097,7.494087,-0.05114539,-0.13458334,10.6137295,-0.11472269,-0.10244977,7.3353605,-0.07728127,-0.06853974,-0.07502862,7.2073026,-0.055959318,-0.10274537
ABCB8,-0.08593462,-0.0075623845,4.187489,7.384258,-0.04949214,-0.13504122,10.71903,-0.11362598,-0.102252364,7.3156843,-0.077547275,-0.06983329,-0.07404519,7.1377673,-0.054239534,-0.10237707
SLC43A3,-0.08639536,-0.009146895,4.053097,7.494087,-0.05114539,-0.13458334,10.6137295,-0.11472269,-0.10244977,7.3353605,-0.07728127,-0.06853974,-0.07502862,7.2073026,-0.055959318,-0.10274537
ZDHHC6,-0.08639536,-0.009146895,4.053097,7.494087,-0.05114539,-0.13458334,10.6137295,-0.11472269,-0.10244977,7.3353605,-0.07728127,-0.06853974,-0.07502862,7.2073026,-0.055959318,-0.10274537
RHOF,-0.074212246,-0.008868789,3.4778032,6.406537,-0.05520338,-0.12622999,9.552413,-0.11001264,-0.1059225,6.8214903,-0.07003641,-0.053845834,-0.06678086,6.086602,-0.058427736,-0.09694501
RAB44,-0.08639536,-0.009146895,4.053097,7.494087,-0.05114539,-0.13458334,10.6137295,-0.11472269,-0.10244977,7.3353605,-0.07728127,-0.06853974,-0.07502862,7.2073026,-0.055959318,-0.10274537
MFSD1,-0.08639536,-0.009146895,4.053097,7.494087,-0.05114539,-0.13458334,10.6137295,-0.11472269,-0.10244977,7.3353605,-0.07728127,-0.06853974,-0.07502862,7.2073026,-0.055959318,-0.10274537
HDC,-0.08639536,-0.009146895,4.053097,7.494087,-0.05114539,-0.13458334,10.6137295,-0.11472269,-0.10244977,7.3353605,-0.07728127,-0.06853974,-0.07502862,7.2073026,-0.055959318,-0.10274537
IL12A,-0.08453224,-0.017541649,3.3351288,7.2942963,-0.055460367,-0.124902226,9.408216,-0.10778721,-0.0947251,6.918183,-0.07853721,-0.07138117,-0.07295666,7.7073207,-0.05452792,-0.10075536
IRF8,-0.073811024,-0.0072740912,3.5158012,6.380455,-0.04222979,-0.11259818,8.873441,-0.091801554,-0.0816411,6.283139,-0.06585177,-0.061937317,-0.064698145,6.0803456,-0.048915096,-0.090448424
CCL9,-0.08639536,-0.009146895,4.053097,7.494087,-0.05114539,-0.13458334,10.6137295,-0.11472269,-0.10244977,7.3353605,-0.07728127,-0.06853974,-0.07502862,7.2073026,-0.055959318,-0.10274537
MFNG,-0.08639536,-0.009146895,4.053097,7.494087,-0.05114539,-0.13458334,10.6137295,-0.11472269,-0.10244977,7.3353605,-0.07728127,-0.06853974,-0.07502862,7.2073026,-0.055959318,-0.10274537
GCNT2,-0.08639536,-0.009146895,4.053097,7.494087,-0.05114539,-0.13458334,10.6137295,-0.11472269,-0.10244977,7.3353605,-0.07728127,-0.06853974,-0.07502862,7.2073026,-0.055959318,-0.10274537
ARHGEF18,-0.08639536,-0.009146895,4.053097,7.494087,-0.05114539,-0.13458334,10.6137295,-0.11472269,-0.10244977,7.3353605,-0.07728127,-0.06853974,-0.07502862,7.2073026,-0.055959318,-0.10274537
PSEN1,-0.06748569,-0.007841498,3.083037,5.7096252,-0.037639007,-0.10026252,7.946293,-0.08233838,-0.07263244,5.517055,-0.058067042,-0.05377416,-0.056665037,5.5240536,-0.043727033,-0.08018596
TCF19,-0.05973002,-0.0048713353,2.8614123,5.1667705,-0.03368364,-0.08990383,7.137039,-0.07286921,-0.06578765,5.10181,-0.05307328,-0.050076693,-0.05135174,4.8494534,-0.03898872,-0.073098
CYBC1,-0.08639536,-0.009146895,4.053097,7.494087,-0.05114539,-0.13458334,10.6137295,-0.11472269,-0.10244977,7.3353605,-0.07728127,-0.06853974,-0.07502862,7.2073026,-0.055959318,-0.10274537
MYO1F,-0.08639536,-0.009146895,4.053097,7.494087,-0.05114539,-0.13458334,10.6137295,-0.11472269,-0.10244977,7.3353605,-0.07728127,-0.06853974,-0.07502862,7.2073026,-0.055959318,-0.10274537
GSR,-0.086384445,-0.009141762,4.054211,7.4922338,-0.051149443,-0.1346037,10.61354,-0.11474382,-0.102441296,7.3329444,-0.07730178,-0.06853438,-0.075051285,7.2070007,-0.055953253,-0.102724165
PLEK,-0.078213744,-0.0077428254,3.734237,6.7054915,-0.045218114,-0.12083795,9.450021,-0.09838006,-0.08730171,6.6336555,-0.07037968,-0.066578604,-0.069555394,6.4411187,-0.051973637,-0.09674009
HDGF,-0.08639536,-0.009146895,4.053097,7.494087,-0.05114539,-0.13458334,10.6137295,-0.11472269,-0.10244977,7.3353605,-0.07728127,-0.06853974,-0.07502862,7.2073026,-0.055959318,-0.10274537
IGTP,-0.07575733,-0.0139573645,4.084556,7.69086,-0.045615137,-0.12395746,9.410141,-0.09961895,-0.094832875,6.460578,-0.071892545,-0.071429096,-0.08104114,5.7828574,-0.06408467,-0.10587391
DHX33,-0.063236535,-0.006639234,2.9399147,5.369007,-0.035223886,-0.09456752,7.4886208,-0.077194214,-0.0680599,5.1889853,-0.054725096,-0.050969146,-0.05336012,5.135335,-0.040855326,-0.07593243
UMPS,-0.08639536,-0.009146895,4.053097,7.494087,-0.05114539,-0.13458334,10.6137295,-0.11472269,-0.10244977,7.3353605,-0.07728127,-0.06853974,-0.07502862,7.2073026,-0.055959318,-0.10274537
SNAP23,-0.08639536,-0.009146895,4.053097,7.494087,-0.05114539,-0.13458334,10.6137295,-0.11472269,-0.10244977,7.3353605,-0.07728127,-0.06853974,-0.07502862,7.2073026,-0.055959318,-0.10274537
USP37,-0.08639536,-0.009146895,4.053097,7.494087,-0.05114539,-0.13458334,10.6137295,-0.11472269,-0.10244977,7.3353605,-0.07728127,-0.06853974,-0.07502862,7.2073026,-0.055959318,-0.10274537
ARL8B,-0.08638689,-0.009143247,4.054409,7.4922347,-0.051152505,-0.13460673,10.613339,-0.114743195,-0.10244417,7.3333282,-0.077298924,-0.068535276,-0.07505018,7.2073674,-0.05594944,-0.102723636
TESPA1,-0.08115334,-0.008867602,4.3737993,6.154979,-0.040886827,-0.12657212,11.090771,-0.09986375,-0.089537635,5.786662,-0.07462357,-0.07370272,-0.06361829,6.8624167,-0.041715134,-0.08963801
STXBP4,-0.07986248,-0.011596403,2.9427612,6.996146,-0.052808464,-0.11522791,7.992073,-0.094741955,-0.10923328,6.662153,-0.06628572,-0.052035164,-0.053657576,5.338042,-0.06034502,-0.081703536
KAT7,-0.08639536,-0.009146895,4.053097,7.494087,-0.05114539,-0.13458334,10.6137295,-0.11472269,-0.10244977,7.3353605,-0.07728127,-0.06853974,-0.07502862,7.2073026,-0.055959318,-0.10274537
PUS7,-0.06612705,-0.0061558997,3.14548,5.6421547,-0.037364796,-0.10008507,7.9383035,-0.08208966,-0.07176409,5.479491,-0.057448637,-0.053933997,-0.05633803,5.4343514,-0.043190204,-0.079916045
CTR9,-0.06475978,-0.0053725475,3.1248207,5.6302195,-0.03693984,-0.098080814,7.7655716,-0.07948817,-0.07168466,5.584734,-0.05808837,-0.05491156,-0.05629834,5.287668,-0.04264857,-0.07964476
GM1966,-0.08639536,-0.009146895,4.053097,7.494087,-0.05114539,-0.13458334,10.6137295,-0.11472269,-0.10244977,7.3353605,-0.07728127,-0.06853974,-0.07502862,7.2073026,-0.055959318,-0.10274537
EGR1,-0.064967014,-0.0043992526,3.2566328,5.435439,-0.03880452,-0.09748556,7.5883536,-0.07722772,-0.06879166,5.5573745,-0.056874733,-0.056498654,-0.056306913,5.155585,-0.044041965,-0.08063208
IDH1,-0.069251776,0.30539587,3.628106,5.433937,-0.049018953,-0.13941012,8.979367,-0.111765765,-0.08071211,5.7353163,-0.061359864,-0.05681875,-0.08123763,5.3033457,-0.056980655,-0.10495341
CD74,-0.08639536,-0.009146895,4.053097,7.494087,-0.05114539,-0.13458334,10.6137295,-0.11472269,-0.10244977,7.3353605,-0.07728127,-0.06853974,-0.07502862,7.2073026,-0.055959318,-0.10274537
XRCC3,-0.0574936,-0.0043259333,2.7700458,4.966123,-0.032546405,-0.08660183,6.8668866,-0.070275106,-0.06315117,4.9154706,-0.051306438,-0.048604965,-0.049529076,4.665055,-0.037610393,-0.07061087
MYO5A,-0.08639536,-0.009146895,4.053097,7.494087,-0.05114539,-0.13458334,10.6137295,-0.11472269,-0.10244977,7.3353605,-0.07728127,-0.06853974,-0.07502862,7.2073026,-0.055959318,-0.10274537
FUT7,-0.08639536,-0.009146895,4.053097,7.494087,-0.05114539,-0.13458334,10.6137295,-0.11472269,-0.10244977,7.3353605,-0.07728127,-0.06853974,-0.07502862,7.2073026,-0.055959318,-0.10274537
PIM2,-0.08537947,-0.008834563,4.056204,7.4092226,-0.04883361,-0.13340066,10.511171,-0.11055606,-0.097674586,7.248772,-0.07719688,-0.07039295,-0.07537968,7.102731,-0.056315273,-0.104659595
HP,-0.08639536,-0.009146895,4.053097,7.494087,-0.05114539,-0.13458334,10.6137295,-0.11472269,-0.10244977,7.3353605,-0.07728127,-0.06853974,-0.07502862,7.2073026,-0.055959318,-0.10274537
SLC30A5,-0.08639292,-0.00914541,4.0528984,7.4940863,-0.051142327,-0.13458028,10.613931,-0.11472332,-0.1024469,7.3349767,-0.07728413,-0.068538845,-0.075029716,7.206936,-0.055963133,-0.102745906
RFC4,-0.05537144,-0.0039986996,2.6705596,4.793516,-0.03115072,-0.08353065,6.626245,-0.06777706,-0.061018247,4.739266,-0.04949418,-0.04677027,-0.047816496,4.4753675,-0.03622484,-0.06812014
PAK1,-0.072518334,-0.008400342,3.5370693,7.0737615,-0.04394055,-0.11692661,9.242167,-0.09383604,-0.08448214,6.4381037,-0.06551633,-0.06941278,-0.065736346,6.0495934,-0.054819982,-0.092626855
KLF6,-0.064804435,-0.00563178,3.10443,5.61859,-0.03685267,-0.097676344,7.747847,-0.079393916,-0.071466774,5.552965,-0.0578698,-0.05451996,-0.055909146,5.284174,-0.042558383,-0.07945268
TOP2A,-0.053034868,-0.007031974,2.1652622,4.0524673,-0.023659583,-0.073757716,6.4609904,-0.060452648,-0.052463572,4.2686114,-0.046344437,-0.04209061,-0.041970175,4.6381288,-0.038453236,-0.062872425
SDF2L1,-0.08639717,-0.009154639,4.053846,7.494293,-0.05113612,-0.13454205,10.611772,-0.11474363,-0.102426566,7.3325863,-0.077293895,-0.068510175,-0.07503734,7.21032,-0.055980463,-0.10272401
MARS,-0.06612705,-0.0061558997,3.14548,5.6421547,-0.037364796,-0.10008507,7.9383035,-0.08208966,-0.07176409,5.479491,-0.057448637,-0.053933997,-0.05633803,5.4343514,-0.043190204,-0.079916045
ARID3B,-0.08639536,-0.009146895,4.053097,7.494087,-0.05114539,-0.13458334,10.6137295,-0.11472269,-0.10244977,7.3353605,-0.07728127,-0.06853974,-0.07502862,7.2073026,-0.055959318,-0.10274537
AFAP1L1,-0.08639536,-0.009146895,4.053097,7.494087,-0.05114539,-0.13458334,10.6137295,-0.11472269,-0.10244977,7.3353605,-0.07728127,-0.06853974,-0.07502862,7.2073026,-0.055959318,-0.10274537
PHF6,-0.08639536,-0.009146895,4.053097,7.494087,-0.05114539,-0.13458334,10.6137295,-0.11472269,-0.10244977,7.3353605,-0.07728127,-0.06853974,-0.07502862,7.2073026,-0.055959318,-0.10274537
PREP,-0.08639536,-0.009146895,4.053097,7.494087,-0.05114539,-0.13458334,10.6137295,-0.11472269,-0.10244977,7.3353605,-0.07728127,-0.06853974,-0.07502862,7.2073026,-0.055959318,-0.10274537
APBB1,-0.08607,-0.008619949,4.085932,7.439259,-0.0488145,-0.13490143,10.651198,-0.11230159,-0.09918335,7.3196263,-0.077938825,-0.070710786,-0.07620809,7.1892085,-0.056492247,-0.104951344
NFE2,-0.08639536,-0.009146895,4.053097,7.494087,-0.05114539,-0.13458334,10.6137295,-0.11472269,-0.10244977,7.3353605,-0.07728127,-0.06853974,-0.07502862,7.2073026,-0.055959318,-0.10274537
TLE2,-0.079398386,-0.011204321,3.1788495,7.47157,-0.04346909,-0.12968494,10.128575,-0.10383655,-0.1077015,7.7612696,-0.07726005,-0.058244567,-0.075090066,7.4676685,-0.04568674,-0.099516846
GLB1,-0.0686904,-0.009539755,2.78913,6.2962594,-0.035780862,-0.108187355,8.488087,-0.083395705,-0.084837615,6.5129514,-0.065076366,-0.052252945,-0.063629426,6.2924414,-0.040096246,-0.086976066
KCTD12,-0.08639536,-0.009146895,4.053097,7.494087,-0.05114539,-0.13458334,10.6137295,-0.11472269,-0.10244977,7.3353605,-0.07728127,-0.06853974,-0.07502862,7.2073026,-0.055959318,-0.10274537
BID,-0.08639536,-0.009146895,4.053097,7.494087,-0.05114539,-0.13458334,10.6137295,-0.11472269,-0.10244977,7.3353605,-0.07728127,-0.06853974,-0.07502862,7.2073026,-0.055959318,-0.10274537
IFI44,-0.07743054,-0.015381138,3.4533548,6.6839113,-0.04000521,-0.09787012,8.044682,-0.08772719,-0.06334831,6.190775,-0.054997962,-0.051197477,-0.0629164,6.183435,-0.043461706,-0.07839109
SERPINB1A,-0.08640606,-0.009150638,4.054999,7.4951906,-0.051124856,-0.13456924,10.61485,-0.11470834,-0.10243421,7.33383,-0.07729552,-0.06852306,-0.075019106,7.2080636,-0.05595317,-0.102757536
GRK3,-0.08639717,-0.009154639,4.053846,7.494293,-0.05113612,-0.13454205,10.611772,-0.11474363,-0.102426566,7.3325863,-0.077293895,-0.068510175,-0.07503734,7.21032,-0.055980463,-0.10272401
GBP3,-0.07603951,-0.007628944,3.587931,6.6139903,-0.043404747,-0.116458416,9.13181,-0.095747575,-0.08434919,6.511788,-0.068852454,-0.063184544,-0.06674088,6.2473207,-0.050414514,-0.09335993
DHRS3,-0.0863998,-0.009173907,4.0505166,7.4974113,-0.051126402,-0.13455077,10.609656,-0.114682116,-0.10242181,7.3337274,-0.077270105,-0.06854343,-0.07503234,7.204511,-0.055981014,-0.10277653
TFR2,-0.072321065,0.21173975,4.0157194,6.1775928,-0.058071766,-0.12366149,9.015342,-0.1094562,-0.110005215,7.492756,-0.07013076,-0.072321385,-0.07870819,6.079013,-0.048538517,-0.09098649
CTSG,-0.065228015,-0.005841256,3.112904,5.6449103,-0.037113577,-0.09827377,7.792997,-0.07988045,-0.0717342,5.568384,-0.058103364,-0.0548043,-0.05622369,5.335156,-0.042791832,-0.079845525
TLR4,-0.066891484,-0.006078489,3.1971126,5.801338,-0.038254492,-0.10102545,7.9949,-0.08233113,-0.07369182,5.7111034,-0.059497856,-0.05598663,-0.057841647,5.472782,-0.044081673,-0.081910096
FCGR2B,-0.08639536,-0.009146895,4.053097,7.494087,-0.05114539,-0.13458334,10.6137295,-0.11472269,-0.10244977,7.3353605,-0.07728127,-0.06853974,-0.07502862,7.2073026,-0.055959318,-0.10274537
CSF3R,-0.078213744,-0.0077428254,3.734237,6.7054915,-0.045218114,-0.12083795,9.450021,-0.09838006,-0.08730171,6.6336555,-0.07037968,-0.066578604,-0.069555394,6.4411187,-0.051973637,-0.09674009
TMEM173,-0.07809663,-0.0077784224,3.6973686,6.7352953,-0.04431948,-0.11965126,9.402369,-0.09917274,-0.08576765,6.5770774,-0.06996978,-0.06395871,-0.06800185,6.4303207,-0.05118277,-0.09519035
CDC45,-0.05358434,-0.0037250745,2.5843465,4.6343474,-0.030006804,-0.08090932,6.4229717,-0.06556632,-0.0592014,4.591678,-0.047963776,-0.045351695,-0.046315093,4.3195252,-0.035108626,-0.066002615
LY6C2,-0.08639536,-0.009146895,4.053097,7.494087,-0.05114539,-0.13458334,10.6137295,-0.11472269,-0.10244977,7.3353605,-0.07728127,-0.06853974,-0.07502862,7.2073026,-0.055959318,-0.10274537
GFI1B,-0.06783006,-0.0061970335,3.250847,5.867106,-0.038898688,-0.10271369,8.118828,-0.083589874,-0.07476367,5.779953,-0.060433347,-0.05696444,-0.058811586,5.5399437,-0.04478349,-0.08324262
PLIN3,-0.086392365,-0.009135804,4.053488,7.4951487,-0.051149063,-0.13458711,10.613519,-0.114717826,-0.10244448,7.3348684,-0.077285014,-0.06853078,-0.07502418,7.2081985,-0.055950277,-0.102749184
GTF2H1,-0.060582425,-0.0047350554,2.9368634,5.2333317,-0.03449842,-0.09173016,7.2758613,-0.07461135,-0.066540845,5.1511145,-0.05366173,-0.05099694,-0.05227305,4.935108,-0.039777312,-0.07429455
SPO11,-0.0574263,-0.0043270956,2.7643492,4.9867005,-0.03251352,-0.08644603,6.8549438,-0.07008835,-0.063310854,4.9417667,-0.05151197,-0.04863905,-0.049562905,4.656418,-0.03761825,-0.07066088
ACOT9,-0.08637533,-0.009129262,4.054427,7.493587,-0.05115937,-0.13457096,10.612972,-0.11470319,-0.10246559,7.3356457,-0.07726338,-0.06855361,-0.075042695,7.205688,-0.05595672,-0.10274732
KPNA3,-0.08639536,-0.009146895,4.053097,7.494087,-0.05114539,-0.13458334,10.6137295,-0.11472269,-0.10244977,7.3353605,-0.07728127,-0.06853974,-0.07502862,7.2073026,-0.055959318,-0.10274537
PRKCQ,-0.08639536,-0.009146895,4.053097,7.494087,-0.05114539,-0.13458334,10.6137295,-0.11472269,-0.10244977,7.3353605,-0.07728127,-0.06853974,-0.07502862,7.2073026,-0.055959318,-0.10274537
CFP,-0.08639536,-0.009146895,4.053097,7.494087,-0.05114539,-0.13458334,10.6137295,-0.11472269,-0.10244977,7.3353605,-0.07728127,-0.06853974,-0.07502862,7.2073026,-0.055959318,-0.10274537
FLT3,-0.071893245,-0.0146197695,2.3829725,5.815856,-0.02921848,-0.106279336,9.157596,-0.08186293,-0.08164397,6.5132995,-0.06810754,-0.053249374,-0.063169055,7.181466,-0.04880457,-0.08961171
NCLN,-0.08639536,-0.009146895,4.053097,7.494087,-0.05114539,-0.13458334,10.6137295,-0.11472269,-0.10244977,7.3353605,-0.07728127,-0.06853974,-0.07502862,7.2073026,-0.055959318,-0.10274537
ABHD17B,-0.08639536,-0.009146895,4.053097,7.494087,-0.05114539,-0.13458334,10.6137295,-0.11472269,-0.10244977,7.3353605,-0.07728127,-0.06853974,-0.07502862,7.2073026,-0.055959318,-0.10274537
TK1,-0.08639114,-0.009179139,4.0460286,7.488593,-0.051163387,-0.1345918,10.611769,-0.11469082,-0.10242882,7.3392735,-0.07730696,-0.06852269,-0.07500883,7.2010245,-0.05598081,-0.102768466
POLR1B,-0.0633528,-0.005458297,3.0381732,5.4889407,-0.035961963,-0.09558572,7.573051,-0.07734473,-0.069800116,5.4233427,-0.056499433,-0.05342069,-0.054744754,5.1639743,-0.04164766,-0.07770562
IPO9,-0.08639536,-0.009146895,4.053097,7.494087,-0.05114539,-0.13458334,10.6137295,-0.11472269,-0.10244977,7.3353605,-0.07728127,-0.06853974,-0.07502862,7.2073026,-0.055959318,-0.10274537
MAPKAPK3,-0.08093273,-0.008328169,3.7950344,6.9675527,-0.046313018,-0.12493942,9.784627,-0.1034232,-0.090975024,6.875783,-0.0730033,-0.06680238,-0.071376234,6.6979327,-0.053196106,-0.09918436
RMND5A,-0.08639536,-0.009146895,4.053097,7.494087,-0.05114539,-0.13458334,10.6137295,-0.11472269,-0.10244977,7.3353605,-0.07728127,-0.06853974,-0.07502862,7.2073026,-0.055959318,-0.10274537
RABGGTB,-0.08639536,-0.009146895,4.053097,7.494087,-0.05114539,-0.13458334,10.6137295,-0.11472269,-0.10244977,7.3353605,-0.07728127,-0.06853974,-0.07502862,7.2073026,-0.055959318,-0.10274537
PDZK1IP1,-0.08639536,-0.009146895,4.053097,7.494087,-0.05114539,-0.13458334,10.6137295,-0.11472269,-0.10244977,7.3353605,-0.07728127,-0.06853974,-0.07502862,7.2073026,-0.055959318,-0.10274537
ATP8B4,-0.08639536,-0.009146895,4.053097,7.494087,-0.05114539,-0.13458334,10.6137295,-0.11472269,-0.10244977,7.3353605,-0.07728127,-0.06853974,-0.07502862,7.2073026,-0.055959318,-0.10274537
SORT1,-0.08634554,-0.009160587,4.048785,7.495866,-0.05113818,-0.1345821,10.613538,-0.11466985,-0.10242647,7.3323116,-0.077319585,-0.06850086,-0.07500296,7.2044826,-0.055923335,-0.1027657
DENND1C,-0.08639536,-0.009146895,4.053097,7.494087,-0.05114539,-0.13458334,10.6137295,-0.11472269,-0.10244977,7.3353605,-0.07728127,-0.06853974,-0.07502862,7.2073026,-0.055959318,-0.10274537
SNX30,-0.08639536,-0.009146895,4.053097,7.494087,-0.05114539,-0.13458334,10.6137295,-0.11472269,-0.10244977,7.3353605,-0.07728127,-0.06853974,-0.07502862,7.2073026,-0.055959318,-0.10274537
RGCC,-0.08639536,-0.009146895,4.053097,7.494087,-0.05114539,-0.13458334,10.6137295,-0.11472269,-0.10244977,7.3353605,-0.07728127,-0.06853974,-0.07502862,7.2073026,-0.055959318,-0.10274537
MIS18BP1,-0.060224507,-0.004878646,2.888651,5.2203383,-0.03402982,-0.09068526,7.1958804,-0.07347103,-0.06646236,5.163717,-0.053712796,-0.050664544,-0.051883295,4.891833,-0.03932735,-0.07380955
CASP1,-0.07208703,-0.006622902,3.4824922,6.259449,-0.041640036,-0.1107682,8.73278,-0.09119625,-0.079963714,6.1285043,-0.064475074,-0.060627945,-0.06356463,5.9581237,-0.047582407,-0.08862693
MTMR6,-0.08639536,-0.009146895,4.053097,7.494087,-0.05114539,-0.13458334,10.6137295,-0.11472269,-0.10244977,7.3353605,-0.07728127,-0.06853974,-0.07502862,7.2073026,-0.055959318,-0.10274537
AKNA,-0.08639536,-0.009146895,4.053097,7.494087,-0.05114539,-0.13458334,10.6137295,-0.11472269,-0.10244977,7.3353605,-0.07728127,-0.06853974,-0.07502862,7.2073026,-0.055959318,-0.10274537
RFC5,-0.058025014,-0.0043977927,2.8012428,5.0334,-0.032757245,-0.08744881,6.938504,-0.070982315,-0.063806154,4.9669595,-0.051898047,-0.04904768,-0.050040442,4.7004423,-0.03796967,-0.071349785
GTF2F1,-0.063966766,-0.0054370463,3.0705075,5.5393934,-0.03625862,-0.096548416,7.6521626,-0.07824027,-0.070408784,5.4809546,-0.05717188,-0.05398409,-0.055268172,5.2160306,-0.04196693,-0.078436896
RARB,-0.067317985,-0.0054509556,3.2643692,5.84426,-0.038559895,-0.10261505,8.111832,-0.08348061,-0.07458666,5.7954903,-0.060303587,-0.056916356,-0.058765974,5.5239177,-0.044267673,-0.08284354
ERLIN1,-0.08639536,-0.009146895,4.053097,7.494087,-0.05114539,-0.13458334,10.6137295,-0.11472269,-0.10244977,7.3353605,-0.07728127,-0.06853974,-0.07502862,7.2073026,-0.055959318,-0.10274537
LCP2,-0.08639536,-0.009146895,4.053097,7.494087,-0.05114539,-0.13458334,10.6137295,-0.11472269,-0.10244977,7.3353605,-0.07728127,-0.06853974,-0.07502862,7.2073026,-0.055959318,-0.10274537
HEXA,-0.08639536,-0.009146895,4.053097,7.494087,-0.05114539,-0.13458334,10.6137295,-0.11472269,-0.10244977,7.3353605,-0.07728127,-0.06853974,-0.07502862,7.2073026,-0.055959318,-0.10274537
RAB31,-0.07575733,-0.0139573645,4.084556,7.69086,-0.045615137,-0.12395746,9.410141,-0.09961895,-0.094832875,6.460578,-0.071892545,-0.071429096,-0.08104114,5.7828574,-0.06408467,-0.10587391
GMIP,-0.08639536,-0.009146895,4.053097,7.494087,-0.05114539,-0.13458334,10.6137295,-0.11472269,-0.10244977,7.3353605,-0.07728127,-0.06853974,-0.07502862,7.2073026,-0.055959318,-0.10274537
SERPINA3G,-0.08639536,-0.009146895,4.053097,7.494087,-0.05114539,-0.13458334,10.6137295,-0.11472269,-0.10244977,7.3353605,-0.07728127,-0.06853974,-0.07502862,7.2073026,-0.055959318,-0.10274537
RAD51,-0.05583487,-0.0040855734,2.6937013,4.830155,-0.031444773,-0.08422365,6.6811213,-0.06836389,-0.06147649,4.769703,-0.04981423,-0.047129214,-0.048174832,4.5159736,-0.036486004,-0.06862369
HLF,-0.08639536,-0.009146895,4.053097,7.494087,-0.05114539,-0.13458334,10.6137295,-0.11472269,-0.10244977,7.3353605,-0.07728127,-0.06853974,-0.07502862,7.2073026,-0.055959318,-0.10274537
NFAT5,-0.08639536,-0.009146895,4.053097,7.494087,-0.05114539,-0.13458334,10.6137295,-0.11472269,-0.10244977,7.3353605,-0.07728127,-0.06853974,-0.07502862,7.2073026,-0.055959318,-0.10274537
ITIH5,-0.08639536,-0.009146895,4.053097,7.494087,-0.05114539,-0.13458334,10.6137295,-0.11472269,-0.10244977,7.3353605,-0.07728127,-0.06853974,-0.07502862,7.2073026,-0.055959318,-0.10274537
EMILIN1,-0.08639536,-0.009146895,4.053097,7.494087,-0.05114539,-0.13458334,10.6137295,-0.11472269,-0.10244977,7.3353605,-0.07728127,-0.06853974,-0.07502862,7.2073026,-0.055959318,-0.10274537
HCFC1,-0.06659177,-0.005398889,3.222608,5.7712755,-0.038023558,-0.10138495,8.015263,-0.0823557,-0.07362722,5.724548,-0.059622563,-0.05627815,-0.05801756,5.4563727,-0.043751486,-0.081982985
DOK2,-0.07746686,-0.007944073,3.6194124,6.5976167,-0.04315065,-0.11799544,9.314012,-0.097270474,-0.084303446,6.4968414,-0.06919979,-0.06346885,-0.06686332,6.3940463,-0.05054696,-0.093927145
TIMM29,-0.08639536,-0.009146895,4.053097,7.494087,-0.05114539,-0.13458334,10.6137295,-0.11472269,-0.10244977,7.3353605,-0.07728127,-0.06853974,-0.07502862,7.2073026,-0.055959318,-0.10274537
MSH6,-0.05363337,-0.003747534,2.584981,4.637384,-0.030046917,-0.080992095,6.427035,-0.06564136,-0.059238285,4.5946226,-0.04800133,-0.045371003,-0.04637813,4.324969,-0.035139415,-0.066063575
HDAC7,-0.08284817,-0.008559429,3.8913455,7.1372514,-0.046587937,-0.1280839,10.052542,-0.10557546,-0.091727495,7.003117,-0.07459989,-0.06816517,-0.07279735,6.833383,-0.05497703,-0.10167135
SALL2,-0.08639536,-0.009146895,4.053097,7.494087,-0.05114539,-0.13458334,10.6137295,-0.11472269,-0.10244977,7.3353605,-0.07728127,-0.06853974,-0.07502862,7.2073026,-0.055959318,-0.10274537
PRIM2,-0.054930866,-0.0039570206,2.646132,4.7522783,-0.030826222,-0.08285391,6.57135,-0.06723778,-0.06046561,4.6961412,-0.04910864,-0.04637787,-0.047426336,4.4360285,-0.03591407,-0.06758647
UBE2L6,-0.074764475,-0.0068561863,3.5946226,6.5427117,-0.043083567,-0.11521121,9.056342,-0.09470242,-0.08350976,6.451211,-0.06776847,-0.06288429,-0.06617128,6.180312,-0.04973169,-0.092253104
MYCT1,-0.08639536,-0.009146895,4.053097,7.494087,-0.05114539,-0.13458334,10.6137295,-0.11472269,-0.10244977,7.3353605,-0.07728127,-0.06853974,-0.07502862,7.2073026,-0.055959318,-0.10274537
MCM2,-0.051477656,0.23530181,2.7402713,4.7108006,-0.023487465,-0.07757448,6.797724,-0.06482683,-0.055734232,4.9143057,-0.051730916,-0.040370096,-0.038046002,4.0920925,-0.030400952,-0.058092978
FLNB,-0.08639536,-0.009146895,4.053097,7.494087,-0.05114539,-0.13458334,10.6137295,-0.11472269,-0.10244977,7.3353605,-0.07728127,-0.06853974,-0.07502862,7.2073026,-0.055959318,-0.10274537
SLC35B4,-0.08639536,-0.009146895,4.053097,7.494087,-0.05114539,-0.13458334,10.6137295,-0.11472269,-0.10244977,7.3353605,-0.07728127,-0.06853974,-0.07502862,7.2073026,-0.055959318,-0.10274537
GNG11,-0.08639292,-0.00914541,4.0528984,7.4940863,-0.051142327,-0.13458028,10.613931,-0.11472332,-0.1024469,7.3349767,-0.07728413,-0.068538845,-0.075029716,7.206936,-0.055963133,-0.102745906
ZFP35,-0.08639536,-0.009146895,4.053097,7.494087,-0.05114539,-0.13458334,10.6137295,-0.11472269,-0.10244977,7.3353605,-0.07728127,-0.06853974,-0.07502862,7.2073026,-0.055959318,-0.10274537
RGS1,-0.08639536,-0.009146895,4.053097,7.494087,-0.05114539,-0.13458334,10.6137295,-0.11472269,-0.10244977,7.3353605,-0.07728127,-0.06853974,-0.07502862,7.2073026,-0.055959318,-0.10274537
CD300A,-0.08639536,-0.009146895,4.053097,7.494087,-0.05114539,-0.13458334,10.6137295,-0.11472269,-0.10244977,7.3353605,-0.07728127,-0.06853974,-0.07502862,7.2073026,-0.055959318,-0.10274537
TMX4,-0.08639536,-0.009146895,4.053097,7.494087,-0.05114539,-0.13458334,10.6137295,-0.11472269,-0.10244977,7.3353605,-0.07728127,-0.06853974,-0.07502862,7.2073026,-0.055959318,-0.10274537
PRIM1,-0.060069717,-0.0069042393,2.480631,4.6109166,-0.026181733,-0.080345534,6.870714,-0.068182275,-0.056581598,4.5632286,-0.05292058,-0.04285404,-0.042861357,4.486431,-0.029552963,-0.0726512
GMFB,-0.08639536,-0.009146895,4.053097,7.494087,-0.05114539,-0.13458334,10.6137295,-0.11472269,-0.10244977,7.3353605,-0.07728127,-0.06853974,-0.07502862,7.2073026,-0.055959318,-0.10274537
TARS,-0.08639536,-0.009146895,4.053097,7.494087,-0.05114539,-0.13458334,10.6137295,-0.11472269,-0.10244977,7.3353605,-0.07728127,-0.06853974,-0.07502862,7.2073026,-0.055959318,-0.10274537
NCAPD2,-0.05330226,-0.0036641352,2.5677316,4.610607,-0.02985147,-0.08048193,6.3852882,-0.06523069,-0.058923505,4.573442,-0.047775745,-0.04513246,-0.04608488,4.2963433,-0.034917336,-0.06566593
MFSD14B,-0.08453224,-0.017541649,3.3351288,7.2942963,-0.055460367,-0.124902226,9.408216,-0.10778721,-0.0947251,6.918183,-0.07853721,-0.07138117,-0.07295666,7.7073207,-0.05452792,-0.10075536
MCM3,-0.054604445,-0.0039259116,2.635546,4.7177258,-0.030682717,-0.08248913,6.5464096,-0.06689607,-0.06022232,4.662332,-0.048680644,-0.046111174,-0.04718868,4.410656,-0.03577448,-0.067183785
F630028O10RIK,-0.08639536,-0.009146895,4.053097,7.494087,-0.05114539,-0.13458334,10.6137295,-0.11472269,-0.10244977,7.3353605,-0.07728127,-0.06853974,-0.07502862,7.2073026,-0.055959318,-0.10274537
PLPPR3,-0.08639536,-0.009146895,4.053097,7.494087,-0.05114539,-0.13458334,10.6137295,-0.11472269,-0.10244977,7.3353605,-0.07728127,-0.06853974,-0.07502862,7.2073026,-0.055959318,-0.10274537
TRMT11,-0.074263565,-0.007923535,3.4829817,6.316829,-0.041876126,-0.11206058,8.87103,-0.09202883,-0.08063495,6.1726255,-0.065084375,-0.060450897,-0.063583486,6.082967,-0.048290543,-0.08957079
FOXO1,-0.06717801,-0.006266484,3.1945343,5.81608,-0.03822456,-0.101296954,8.024441,-0.08247992,-0.07387294,5.72419,-0.059749622,-0.05620122,-0.057990894,5.500561,-0.04418326,-0.08211436
JUN,-0.06876549,-0.006089901,3.3084693,5.966403,-0.03944787,-0.10458334,8.26342,-0.08514595,-0.07608109,5.8888197,-0.061399095,-0.05789931,-0.059937365,5.6436296,-0.045346674,-0.084515795
CD53,-0.072321065,0.21173975,4.0157194,6.1775928,-0.058071766,-0.12366149,9.015342,-0.1094562,-0.110005215,7.492756,-0.07013076,-0.072321385,-0.07870819,6.079013,-0.048538517,-0.09098649
PA2G4,-0.064019874,-0.0060197064,3.0335262,5.486179,-0.036250237,-0.0962411,7.628711,-0.07841623,-0.069583,5.361139,-0.056057528,-0.05287237,-0.054631747,5.2331567,-0.04174187,-0.077678025
CTSF,-0.0863998,-0.009173907,4.0505166,7.4974113,-0.051126402,-0.13455077,10.609656,-0.114682116,-0.10242181,7.3337274,-0.077270105,-0.06854343,-0.07503234,7.204511,-0.055981014,-0.10277653
FRRS1,-0.08639536,-0.009146895,4.053097,7.494087,-0.05114539,-0.13458334,10.6137295,-0.11472269,-0.10244977,7.3353605,-0.07728127,-0.06853974,-0.07502862,7.2073026,-0.055959318,-0.10274537
MCM4,-0.05467763,-0.0038822305,2.6388109,4.726481,-0.03070083,-0.082498215,6.548506,-0.066891484,-0.06029862,4.6777844,-0.048853654,-0.046243157,-0.04718696,4.414185,-0.035767075,-0.067261726
ISYNA1,-0.08639536,-0.009146895,4.053097,7.494087,-0.05114539,-0.13458334,10.6137295,-0.11472269,-0.10244977,7.3353605,-0.07728127,-0.06853974,-0.07502862,7.2073026,-0.055959318,-0.10274537
KRT18,-0.08639536,-0.009146895,4.053097,7.494087,-0.05114539,-0.13458334,10.6137295,-0.11472269,-0.10244977,7.3353605,-0.07728127,-0.06853974,-0.07502862,7.2073026,-0.055959318,-0.10274537
CTSO,-0.0863998,-0.009173907,4.0505166,7.4974113,-0.051126402,-0.13455077,10.609656,-0.114682116,-0.10242181,7.3337274,-0.077270105,-0.06854343,-0.07503234,7.204511,-0.055981014,-0.10277653
CBX7,-0.08639536,-0.009146895,4.053097,7.494087,-0.05114539,-0.13458334,10.6137295,-0.11472269,-0.10244977,7.3353605,-0.07728127,-0.06853974,-0.07502862,7.2073026,-0.055959318,-0.10274537
XRCC6,-0.057037182,-0.004209121,2.7598715,4.9344296,-0.03226123,-0.08610686,6.833165,-0.069915704,-0.062752105,4.8738503,-0.05081829,-0.04816546,-0.049232263,4.6211276,-0.03735787,-0.07012619
CD69,-0.08639536,-0.009146895,4.053097,7.494087,-0.05114539,-0.13458334,10.6137295,-0.11472269,-0.10244977,7.3353605,-0.07728127,-0.06853974,-0.07502862,7.2073026,-0.055959318,-0.10274537
GNG12,-0.08639536,-0.009146895,4.053097,7.494087,-0.05114539,-0.13458334,10.6137295,-0.11472269,-0.10244977,7.3353605,-0.07728127,-0.06853974,-0.07502862,7.2073026,-0.055959318,-0.10274537
GALNT6,-0.08639536,-0.009146895,4.053097,7.494087,-0.05114539,-0.13458334,10.6137295,-0.11472269,-0.10244977,7.3353605,-0.07728127,-0.06853974,-0.07502862,7.2073026,-0.055959318,-0.10274537
BC005561,-0.07088037,-0.006053109,3.437056,6.160423,-0.04078252,-0.10846527,8.574987,-0.08861801,-0.07870068,6.0887284,-0.06334611,-0.059773486,-0.062061194,5.846321,-0.04666217,-0.08684538
PTGR1,-0.08639536,-0.009146895,4.053097,7.494087,-0.05114539,-0.13458334,10.6137295,-0.11472269,-0.10244977,7.3353605,-0.07728127,-0.06853974,-0.07502862,7.2073026,-0.055959318,-0.10274537
GATA2,-0.0739128,-0.006706054,3.5679805,6.418477,-0.042713422,-0.11379198,8.943726,-0.09279282,-0.082577586,6.33574,-0.0662528,-0.06245721,-0.065352775,6.084438,-0.04900353,-0.0913016
CCL4,-0.08639717,-0.009154639,4.053846,7.494293,-0.05113612,-0.13454205,10.611772,-0.11474363,-0.102426566,7.3325863,-0.077293895,-0.068510175,-0.07503734,7.21032,-0.055980463,-0.10272401
CASP4,-0.08636692,-0.009144954,4.052352,7.494837,-0.051146705,-0.13458258,10.611522,-0.11468138,-0.10242053,7.3368206,-0.077298366,-0.06851124,-0.07503738,7.2091393,-0.055916805,-0.102763005
CSF2RB,-0.07821491,-0.0077477824,3.7347164,6.705624,-0.045212187,-0.12081154,9.448769,-0.098393455,-0.08728686,6.63188,-0.07038777,-0.06655968,-0.06956097,6.4430494,-0.05198717,-0.09672642
VPS16,-0.08639536,-0.009146895,4.053097,7.494087,-0.05114539,-0.13458334,10.6137295,-0.11472269,-0.10244977,7.3353605,-0.07728127,-0.06853974,-0.07502862,7.2073026,-0.055959318,-0.10274537
OTUD6B,-0.08639536,-0.009146895,4.053097,7.494087,-0.05114539,-0.13458334,10.6137295,-0.11472269,-0.10244977,7.3353605,-0.07728127,-0.06853974,-0.07502862,7.2073026,-0.055959318,-0.10274537
UBL4A,-0.08639536,-0.009146895,4.053097,7.494087,-0.05114539,-0.13458334,10.6137295,-0.11472269,-0.10244977,7.3353605,-0.07728127,-0.06853974,-0.07502862,7.2073026,-0.055959318,-0.10274537
ZBTB20,-0.08639536,-0.009146895,4.053097,7.494087,-0.05114539,-0.13458334,10.6137295,-0.11472269,-0.10244977,7.3353605,-0.07728127,-0.06853974,-0.07502862,7.2073026,-0.055959318,-0.10274537
PHF11B,-0.08639536,-0.009146895,4.053097,7.494087,-0.05114539,-0.13458334,10.6137295,-0.11472269,-0.10244977,7.3353605,-0.07728127,-0.06853974,-0.07502862,7.2073026,-0.055959318,-0.10274537
HNRNPAB,-0.08639536,-0.009146895,4.053097,7.494087,-0.05114539,-0.13458334,10.6137295,-0.11472269,-0.10244977,7.3353605,-0.07728127,-0.06853974,-0.07502862,7.2073026,-0.055959318,-0.10274537
COLGALT1,-0.08639536,-0.009146895,4.053097,7.494087,-0.05114539,-0.13458334,10.6137295,-0.11472269,-0.10244977,7.3353605,-0.07728127,-0.06853974,-0.07502862,7.2073026,-0.055959318,-0.10274537
NDN,-0.08639536,-0.009146895,4.053097,7.494087,-0.05114539,-0.13458334,10.6137295,-0.11472269,-0.10244977,7.3353605,-0.07728127,-0.06853974,-0.07502862,7.2073026,-0.055959318,-0.10274537
MECOM,-0.08342371,-0.008466172,3.9431555,7.234775,-0.047133524,-0.12965642,10.205035,-0.107383884,-0.09364261,7.095259,-0.07542591,-0.0686029,-0.073567666,6.916284,-0.055294454,-0.102242745
IL27RA,-0.08640606,-0.009150638,4.054999,7.4951906,-0.051124856,-0.13456924,10.61485,-0.11470834,-0.10243421,7.33383,-0.07729552,-0.06852306,-0.075019106,7.2080636,-0.05595317,-0.102757536
FTSJ3,-0.055001106,-0.006400803,2.5879054,4.634673,-0.04119403,-0.09213084,6.929618,-0.077351786,-0.07511384,5.00627,-0.050812967,-0.040096622,-0.048609633,4.3794613,-0.045525856,-0.07466311
NDE1,-0.077600375,0.4158082,4.313305,7.328027,-0.03865477,-0.12277519,10.867299,-0.107685395,-0.09451727,7.7239065,-0.080087624,-0.058428656,-0.058721337,6.3745217,-0.045226872,-0.08494294
LONP1,-0.08639536,-0.009146895,4.053097,7.494087,-0.05114539,-0.13458334,10.6137295,-0.11472269,-0.10244977,7.3353605,-0.07728127,-0.06853974,-0.07502862,7.2073026,-0.055959318,-0.10274537
SELENBP1,-0.08639536,-0.009146895,4.053097,7.494087,-0.05114539,-0.13458334,10.6137295,-0.11472269,-0.10244977,7.3353605,-0.07728127,-0.06853974,-0.07502862,7.2073026,-0.055959318,-0.10274537
BTAF1,-0.08639536,-0.009146895,4.053097,7.494087,-0.05114539,-0.13458334,10.6137295,-0.11472269,-0.10244977,7.3353605,-0.07728127,-0.06853974,-0.07502862,7.2073026,-0.055959318,-0.10274537
TMEM229B,-0.08639536,-0.009146895,4.053097,7.494087,-0.05114539,-0.13458334,10.6137295,-0.11472269,-0.10244977,7.3353605,-0.07728127,-0.06853974,-0.07502862,7.2073026,-0.055959318,-0.10274537
RARS,-0.08639536,-0.009146895,4.053097,7.494087,-0.05114539,-0.13458334,10.6137295,-0.11472269,-0.10244977,7.3353605,-0.07728127,-0.06853974,-0.07502862,7.2073026,-0.055959318,-0.10274537
LDHB,-0.08639536,-0.009146895,4.053097,7.494087,-0.05114539,-0.13458334,10.6137295,-0.11472269,-0.10244977,7.3353605,-0.07728127,-0.06853974,-0.07502862,7.2073026,-0.055959318,-0.10274537
TNIP3,-0.08593462,-0.0075623845,4.187489,7.384258,-0.04949214,-0.13504122,10.71903,-0.11362598,-0.102252364,7.3156843,-0.077547275,-0.06983329,-0.07404519,7.1377673,-0.054239534,-0.10237707
GIMAP1OS,-0.086484835,-0.009213015,4.0384493,7.491634,-0.051086243,-0.13448812,10.594588,-0.1146693,-0.10225938,7.3305516,-0.077225834,-0.0685023,-0.07491939,7.2000194,-0.055954363,-0.102628216
LTB,-0.08639536,-0.009146895,4.053097,7.494087,-0.05114539,-0.13458334,10.6137295,-0.11472269,-0.10244977,7.3353605,-0.07728127,-0.06853974,-0.07502862,7.2073026,-0.055959318,-0.10274537
GM4759,-0.08639536,-0.009146895,4.053097,7.494087,-0.05114539,-0.13458334,10.6137295,-0.11472269,-0.10244977,7.3353605,-0.07728127,-0.06853974,-0.07502862,7.2073026,-0.055959318,-0.10274537
SERPINB9,-0.08639114,-0.009179139,4.0460286,7.488593,-0.051163387,-0.1345918,10.611769,-0.11469082,-0.10242882,7.3392735,-0.07730696,-0.06852269,-0.07500883,7.2010245,-0.05598081,-0.102768466
MEIS1,-0.06863046,-0.005756909,3.3237138,5.970614,-0.039442964,-0.10474891,8.274232,-0.085351124,-0.07617008,5.9095907,-0.06144397,-0.057942078,-0.060039144,5.6402993,-0.045229156,-0.08444263
ICAM1,-0.072074056,-0.006610703,3.4835534,6.2577353,-0.041626014,-0.11077234,8.733777,-0.09119601,-0.079962194,6.127914,-0.06445598,-0.060634706,-0.0635499,5.9588246,-0.047572527,-0.08862091
ESAM,-0.08639536,-0.009146895,4.053097,7.494087,-0.05114539,-0.13458334,10.6137295,-0.11472269,-0.10244977,7.3353605,-0.07728127,-0.06853974,-0.07502862,7.2073026,-0.055959318,-0.10274537
TMEM50B,-0.08639536,-0.009146895,4.053097,7.494087,-0.05114539,-0.13458334,10.6137295,-0.11472269,-0.10244977,7.3353605,-0.07728127,-0.06853974,-0.07502862,7.2073026,-0.055959318,-0.10274537
SCARF1,-0.08639536,-0.009146895,4.053097,7.494087,-0.05114539,-0.13458334,10.6137295,-0.11472269,-0.10244977,7.3353605,-0.07728127,-0.06853974,-0.07502862,7.2073026,-0.055959318,-0.10274537
CCNB2,-0.053817976,-0.0037809585,2.5971732,4.653179,-0.030154342,-0.08127257,6.453154,-0.06585863,-0.05943552,4.6063333,-0.048105113,-0.045524605,-0.046520032,4.3396335,-0.035279077,-0.06628227
MAGED1,-0.08639536,-0.009146895,4.053097,7.494087,-0.05114539,-0.13458334,10.6137295,-0.11472269,-0.10244977,7.3353605,-0.07728127,-0.06853974,-0.07502862,7.2073026,-0.055959318,-0.10274537
H1F0,-0.068022996,-0.0062373686,3.253318,5.900783,-0.038736235,-0.10316618,8.148485,-0.08374296,-0.07502031,5.8314176,-0.06069516,-0.057112575,-0.059315342,5.5614433,-0.044977278,-0.083443545
FLOT2,-0.08639536,-0.009146895,4.053097,7.494087,-0.05114539,-0.13458334,10.6137295,-0.11472269,-0.10244977,7.3353605,-0.07728127,-0.06853974,-0.07502862,7.2073026,-0.055959318,-0.10274537
IGSF6,-0.08453224,-0.017541649,3.3351288,7.2942963,-0.055460367,-0.124902226,9.408216,-0.10778721,-0.0947251,6.918183,-0.07853721,-0.07138117,-0.07295666,7.7073207,-0.05452792,-0.10075536
SPNS2,-0.08639536,-0.009146895,4.053097,7.494087,-0.05114539,-0.13458334,10.6137295,-0.11472269,-0.10244977,7.3353605,-0.07728127,-0.06853974,-0.07502862,7.2073026,-0.055959318,-0.10274537
CBFB,-0.06603053,-0.0056763873,3.1766624,5.713306,-0.0377756,-0.100080214,7.913643,-0.08119216,-0.0728388,5.651214,-0.058927774,-0.055701368,-0.05729775,5.4002924,-0.043444265,-0.08114277
TCN2,-0.08639536,-0.009146895,4.053097,7.494087,-0.05114539,-0.13458334,10.6137295,-0.11472269,-0.10244977,7.3353605,-0.07728127,-0.06853974,-0.07502862,7.2073026,-0.055959318,-0.10274537
PGLYRP2,-0.08639536,-0.009146895,4.053097,7.494087,-0.05114539,-0.13458334,10.6137295,-0.11472269,-0.10244977,7.3353605,-0.07728127,-0.06853974,-0.07502862,7.2073026,-0.055959318,-0.10274537
PLAA,-0.08639717,-0.009154639,4.053846,7.494293,-0.05113612,-0.13454205,10.611772,-0.11474363,-0.102426566,7.3325863,-0.077293895,-0.068510175,-0.07503734,7.21032,-0.055980463,-0.10272401
PBX1,-0.067633934,-0.005510182,3.277279,5.871717,-0.038706977,-0.10325958,8.155479,-0.083970934,-0.07501317,5.8230867,-0.060658287,-0.05720209,-0.05914348,5.5463505,-0.044511642,-0.083379455
MRPL37,-0.08639536,-0.009146895,4.053097,7.494087,-0.05114539,-0.13458334,10.6137295,-0.11472269,-0.10244977,7.3353605,-0.07728127,-0.06853974,-0.07502862,7.2073026,-0.055959318,-0.10274537
ABL1,-0.062038142,-0.005316079,2.9920006,5.3630238,-0.03506833,-0.093892075,7.4484677,-0.07625781,-0.06802261,5.2451606,-0.05489158,-0.051939752,-0.053520612,5.0477867,-0.04063158,-0.07603421
IRF9,-0.0787447,-0.008045094,3.7028804,6.808778,-0.045150127,-0.12074527,9.450066,-0.09962859,-0.08768132,6.730682,-0.07138998,-0.065306775,-0.0691441,6.474797,-0.052068986,-0.09634736
MYO1G,-0.07575733,-0.0139573645,4.084556,7.69086,-0.045615137,-0.12395746,9.410141,-0.09961895,-0.094832875,6.460578,-0.071892545,-0.071429096,-0.08104114,5.7828574,-0.06408467,-0.10587391
ZFP467,-0.08639536,-0.009146895,4.053097,7.494087,-0.05114539,-0.13458334,10.6137295,-0.11472269,-0.10244977,7.3353605,-0.07728127,-0.06853974,-0.07502862,7.2073026,-0.055959318,-0.10274537
GM5111,-0.08638689,-0.009143247,4.054409,7.4922347,-0.051152505,-0.13460673,10.613339,-0.114743195,-0.10244417,7.3333282,-0.077298924,-0.068535276,-0.07505018,7.2073674,-0.05594944,-0.102723636
ZBTB16,-0.069203615,-0.006008711,3.3473148,6.0434628,-0.039674453,-0.105640896,8.339189,-0.08586175,-0.07698246,5.980088,-0.06249626,-0.05879433,-0.060735617,5.6853285,-0.045977764,-0.085414544
SPNS3,-0.08639536,-0.009146895,4.053097,7.494087,-0.05114539,-0.13458334,10.6137295,-0.11472269,-0.10244977,7.3353605,-0.07728127,-0.06853974,-0.07502862,7.2073026,-0.055959318,-0.10274537
ZFP24,-0.072321065,0.21173975,4.0157194,6.1775928,-0.058071766,-0.12366149,9.015342,-0.1094562,-0.110005215,7.492756,-0.07013076,-0.072321385,-0.07870819,6.079013,-0.048538517,-0.09098649
EML4,-0.08639717,-0.009154639,4.053846,7.494293,-0.05113612,-0.13454205,10.611772,-0.11474363,-0.102426566,7.3325863,-0.077293895,-0.068510175,-0.07503734,7.21032,-0.055980463,-0.10272401
INO80D,-0.063291125,-0.0052022208,3.0550163,5.437139,-0.036272347,-0.096244924,7.614382,-0.07839441,-0.06944712,5.3393064,-0.05562374,-0.052907217,-0.05452917,5.193504,-0.041749705,-0.07734493
GLIPR2,-0.08639536,-0.009146895,4.053097,7.494087,-0.05114539,-0.13458334,10.6137295,-0.11472269,-0.10244977,7.3353605,-0.07728127,-0.06853974,-0.07502862,7.2073026,-0.055959318,-0.10274537
GANAB,-0.0864893,-0.009240028,4.035869,7.494958,-0.051067255,-0.13445555,10.590515,-0.11462873,-0.102231435,7.3289185,-0.077214666,-0.06850599,-0.074923106,7.197228,-0.05597606,-0.102659374
CYP2J6,-0.08639536,-0.009146895,4.053097,7.494087,-0.05114539,-0.13458334,10.6137295,-0.11472269,-0.10244977,7.3353605,-0.07728127,-0.06853974,-0.07502862,7.2073026,-0.055959318,-0.10274537
MS4A3,-0.08639536,-0.009146895,4.053097,7.494087,-0.05114539,-0.13458334,10.6137295,-0.11472269,-0.10244977,7.3353605,-0.07728127,-0.06853974,-0.07502862,7.2073026,-0.055959318,-0.10274537
SSH3,-0.08634554,-0.009160587,4.048785,7.495866,-0.05113818,-0.1345821,10.613538,-0.11466985,-0.10242647,7.3323116,-0.077319585,-0.06850086,-0.07500296,7.2044826,-0.055923335,-0.1027657
FES,-0.09228746,-0.013941071,3.554922,6.9123263,-0.040345263,-0.12442283,10.720056,-0.11191736,-0.09161547,6.8204017,-0.081669025,-0.059213877,-0.063582025,6.993223,-0.04162348,-0.10801908
BACE1,-0.07650263,-0.007824522,3.6464546,6.7328973,-0.046302285,-0.1191875,9.38907,-0.10246895,-0.09224569,6.4351945,-0.068508536,-0.06074436,-0.06579891,6.29738,-0.0497807,-0.09039337
RUVBL2,-0.054661058,-0.007401828,2.2292678,4.158946,-0.024529655,-0.07582495,6.640659,-0.06219324,-0.05365363,4.3829165,-0.047637023,-0.04337245,-0.043122232,4.792514,-0.039608814,-0.06469218
RPS6KA5,-0.065228015,-0.005841256,3.112904,5.6449103,-0.037113577,-0.09827377,7.792997,-0.07988045,-0.0717342,5.568384,-0.058103364,-0.0548043,-0.05622369,5.335156,-0.042791832,-0.079845525
SLC25A46,-0.08593462,-0.0075623845,4.187489,7.384258,-0.04949214,-0.13504122,10.71903,-0.11362598,-0.102252364,7.3156843,-0.077547275,-0.06983329,-0.07404519,7.1377673,-0.054239534,-0.10237707
PSTPIP1,-0.07746686,-0.007944073,3.6194124,6.5976167,-0.04315065,-0.11799544,9.314012,-0.097270474,-0.084303446,6.4968414,-0.06919979,-0.06346885,-0.06686332,6.3940463,-0.05054696,-0.093927145
GUSB,-0.058247905,-0.009389968,3.1598735,5.8272624,-0.033530045,-0.09161031,7.007206,-0.069926135,-0.06685492,4.984404,-0.05466765,-0.057196774,-0.060961477,4.3722878,-0.048936576,-0.08269122
PRPS2,-0.08639536,-0.009146895,4.053097,7.494087,-0.05114539,-0.13458334,10.6137295,-0.11472269,-0.10244977,7.3353605,-0.07728127,-0.06853974,-0.07502862,7.2073026,-0.055959318,-0.10274537
CSGALNACT1,-0.08639536,-0.009146895,4.053097,7.494087,-0.05114539,-0.13458334,10.6137295,-0.11472269,-0.10244977,7.3353605,-0.07728127,-0.06853974,-0.07502862,7.2073026,-0.055959318,-0.10274537
PRSS57,-0.08639536,-0.009146895,4.053097,7.494087,-0.05114539,-0.13458334,10.6137295,-0.11472269,-0.10244977,7.3353605,-0.07728127,-0.06853974,-0.07502862,7.2073026,-0.055959318,-0.10274537
CNIH1,-0.08639536,-0.009146895,4.053097,7.494087,-0.05114539,-0.13458334,10.6137295,-0.11472269,-0.10244977,7.3353605,-0.07728127,-0.06853974,-0.07502862,7.2073026,-0.055959318,-0.10274537
RANBP3,-0.072321065,0.21173975,4.0157194,6.1775928,-0.058071766,-0.12366149,9.015342,-0.1094562,-0.110005215,7.492756,-0.07013076,-0.072321385,-0.07870819,6.079013,-0.048538517,-0.09098649
HK3,-0.08636217,-0.009139469,4.051291,7.494407,-0.05114621,-0.13457333,10.611529,-0.11474077,-0.10247305,7.3325367,-0.07730725,-0.068507396,-0.07501648,7.204282,-0.055934265,-0.10275917
PRMT7,-0.08639536,-0.009146895,4.053097,7.494087,-0.05114539,-0.13458334,10.6137295,-0.11472269,-0.10244977,7.3353605,-0.07728127,-0.06853974,-0.07502862,7.2073026,-0.055959318,-0.10274537
DLST,-0.08639536,-0.009146895,4.053097,7.494087,-0.05114539,-0.13458334,10.6137295,-0.11472269,-0.10244977,7.3353605,-0.07728127,-0.06853974,-0.07502862,7.2073026,-0.055959318,-0.10274537
USP11,-0.06647864,-0.0056983214,3.19392,5.7110076,-0.03795131,-0.10099081,7.9962935,-0.08251937,-0.072884314,5.610114,-0.058478486,-0.055191524,-0.057144985,5.4594517,-0.043702535,-0.08108224
TGM2,-0.07939393,-0.011177308,3.1814296,7.468246,-0.043488078,-0.12971751,10.132649,-0.103877135,-0.10772945,7.7629027,-0.07727121,-0.058240876,-0.07508634,7.47046,-0.045665048,-0.09948569
TTF2,-0.08453224,-0.017541649,3.3351288,7.2942963,-0.055460367,-0.124902226,9.408216,-0.10778721,-0.0947251,6.918183,-0.07853721,-0.07138117,-0.07295666,7.7073207,-0.05452792,-0.10075536
H2-OB,-0.08639536,-0.009146895,4.053097,7.494087,-0.05114539,-0.13458334,10.6137295,-0.11472269,-0.10244977,7.3353605,-0.07728127,-0.06853974,-0.07502862,7.2073026,-0.055959318,-0.10274537
CD82,-0.086388245,-0.009147613,4.051434,7.493731,-0.051144026,-0.1345962,10.612337,-0.11470655,-0.102443285,7.337059,-0.07726277,-0.06853392,-0.07503868,7.2066383,-0.055951055,-0.102735914
CALCRL,-0.07939393,-0.011177308,3.1814296,7.468246,-0.043488078,-0.12971751,10.132649,-0.103877135,-0.10772945,7.7629027,-0.07727121,-0.058240876,-0.07508634,7.47046,-0.045665048,-0.09948569
NFIA,-0.08639536,-0.009146895,4.053097,7.494087,-0.05114539,-0.13458334,10.6137295,-0.11472269,-0.10244977,7.3353605,-0.07728127,-0.06853974,-0.07502862,7.2073026,-0.055959318,-0.10274537
GBP2,-0.08639536,-0.009146895,4.053097,7.494087,-0.05114539,-0.13458334,10.6137295,-0.11472269,-0.10244977,7.3353605,-0.07728127,-0.06853974,-0.07502862,7.2073026,-0.055959318,-0.10274537
ALAS1,-0.08639536,-0.009146895,4.053097,7.494087,-0.05114539,-0.13458334,10.6137295,-0.11472269,-0.10244977,7.3353605,-0.07728127,-0.06853974,-0.07502862,7.2073026,-0.055959318,-0.10274537
ZBTB38,-0.08639536,-0.009146895,4.053097,7.494087,-0.05114539,-0.13458334,10.6137295,-0.11472269,-0.10244977,7.3353605,-0.07728127,-0.06853974,-0.07502862,7.2073026,-0.055959318,-0.10274537
PTTG1IP,-0.08637607,-0.009120493,4.05482,7.4929976,-0.05113147,-0.1345923,10.61477,-0.11471752,-0.10244257,7.3341274,-0.07726104,-0.06853926,-0.075005695,7.2090783,-0.05593788,-0.10274163
CSTF2,-0.076603346,-0.008917105,3.0027556,6.7088556,-0.039093994,-0.100126065,7.342096,-0.076476246,-0.08197767,5.9752603,-0.060595956,-0.05863829,-0.05139933,5.288567,-0.04894173,-0.07465995
POR,-0.08639536,-0.009146895,4.053097,7.494087,-0.05114539,-0.13458334,10.6137295,-0.11472269,-0.10244977,7.3353605,-0.07728127,-0.06853974,-0.07502862,7.2073026,-0.055959318,-0.10274537
GNS,-0.06578621,-0.0059811734,3.137581,5.6878257,-0.037448894,-0.09914001,7.8600936,-0.08062895,-0.07225239,5.6042924,-0.058486216,-0.05514931,-0.056700893,5.381679,-0.043178786,-0.08047427
MPL,-0.08639536,-0.009146895,4.053097,7.494087,-0.05114539,-0.13458334,10.6137295,-0.11472269,-0.10244977,7.3353605,-0.07728127,-0.06853974,-0.07502862,7.2073026,-0.055959318,-0.10274537
MTFR1,-0.08639536,-0.009146895,4.053097,7.494087,-0.05114539,-0.13458334,10.6137295,-0.11472269,-0.10244977,7.3353605,-0.07728127,-0.06853974,-0.07502862,7.2073026,-0.055959318,-0.10274537
SOX18,-0.08639536,-0.009146895,4.053097,7.494087,-0.05114539,-0.13458334,10.6137295,-0.11472269,-0.10244977,7.3353605,-0.07728127,-0.06853974,-0.07502862,7.2073026,-0.055959318,-0.10274537
SRSF1,-0.08639536,-0.009146895,4.053097,7.494087,-0.05114539,-0.13458334,10.6137295,-0.11472269,-0.10244977,7.3353605,-0.07728127,-0.06853974,-0.07502862,7.2073026,-0.055959318,-0.10274537
MOGS,-0.08639536,-0.009146895,4.053097,7.494087,-0.05114539,-0.13458334,10.6137295,-0.11472269,-0.10244977,7.3353605,-0.07728127,-0.06853974,-0.07502862,7.2073026,-0.055959318,-0.10274537
IGKC,-0.08639536,-0.009146895,4.053097,7.494087,-0.05114539,-0.13458334,10.6137295,-0.11472269,-0.10244977,7.3353605,-0.07728127,-0.06853974,-0.07502862,7.2073026,-0.055959318,-0.10274537
ANXA1,-0.08639536,-0.009146895,4.053097,7.494087,-0.05114539,-0.13458334,10.6137295,-0.11472269,-0.10244977,7.3353605,-0.07728127,-0.06853974,-0.07502862,7.2073026,-0.055959318,-0.10274537
TSC22D3,-0.08639536,-0.009146895,4.053097,7.494087,-0.05114539,-0.13458334,10.6137295,-0.11472269,-0.10244977,7.3353605,-0.07728127,-0.06853974,-0.07502862,7.2073026,-0.055959318,-0.10274537
DEF8,-0.08637533,-0.009129262,4.054427,7.493587,-0.05115937,-0.13457096,10.612972,-0.11470319,-0.10246559,7.3356457,-0.07726338,-0.06855361,-0.075042695,7.205688,-0.05595672,-0.10274732
TCIRG1,-0.0863998,-0.009173907,4.0505166,7.4974113,-0.051126402,-0.13455077,10.609656,-0.114682116,-0.10242181,7.3337274,-0.077270105,-0.06854343,-0.07503234,7.204511,-0.055981014,-0.10277653
GMCL1,-0.08634554,-0.009160587,4.048785,7.495866,-0.05113818,-0.1345821,10.613538,-0.11466985,-0.10242647,7.3323116,-0.077319585,-0.06850086,-0.07500296,7.2044826,-0.055923335,-0.1027657
FCGR3,-0.08639536,-0.009146895,4.053097,7.494087,-0.05114539,-0.13458334,10.6137295,-0.11472269,-0.10244977,7.3353605,-0.07728127,-0.06853974,-0.07502862,7.2073026,-0.055959318,-0.10274537
SPI1,-0.06527615,-0.0059888517,3.1112127,5.637067,-0.037071753,-0.09838206,7.7967663,-0.07987509,-0.07163996,5.5438056,-0.057874564,-0.05451891,-0.0561712,5.330083,-0.0428289,-0.07983366
NFKBIA,-0.08643251,-0.00841338,4.136367,7.508018,-0.049214616,-0.13575049,10.71757,-0.11244986,-0.09977226,7.4281025,-0.07842672,-0.07170566,-0.076943845,7.1957726,-0.057099085,-0.105843276
CASP12,-0.08639536,-0.009146895,4.053097,7.494087,-0.05114539,-0.13458334,10.6137295,-0.11472269,-0.10244977,7.3353605,-0.07728127,-0.06853974,-0.07502862,7.2073026,-0.055959318,-0.10274537
CHRNB1,-0.08639656,-0.00915272,4.053055,7.494022,-0.051141866,-0.13458246,10.613994,-0.11471565,-0.10244819,7.3346114,-0.07727289,-0.068532996,-0.0750239,7.2075295,-0.055960026,-0.10274231
TEAD2,-0.08639536,-0.009146895,4.053097,7.494087,-0.05114539,-0.13458334,10.6137295,-0.11472269,-0.10244977,7.3353605,-0.07728127,-0.06853974,-0.07502862,7.2073026,-0.055959318,-0.10274537
MSMO1,-0.08639007,-0.009155356,4.052183,7.4939375,-0.051134765,-0.13455492,10.610379,-0.1147275,-0.10242008,7.3342857,-0.077275395,-0.068504356,-0.07504739,7.209656,-0.0559722,-0.10271455
TCP11L2,-0.09204113,-0.011847496,3.520635,8.080372,-0.048769455,-0.123613834,9.057465,-0.099492565,-0.10578851,7.177656,-0.07354174,-0.06672537,-0.06190161,6.4615335,-0.057854902,-0.087472744
PPAT,-0.08639536,-0.009146895,4.053097,7.494087,-0.05114539,-0.13458334,10.6137295,-0.11472269,-0.10244977,7.3353605,-0.07728127,-0.06853974,-0.07502862,7.2073026,-0.055959318,-0.10274537
AHCYL1,-0.08639536,-0.009146895,4.053097,7.494087,-0.05114539,-0.13458334,10.6137295,-0.11472269,-0.10244977,7.3353605,-0.07728127,-0.06853974,-0.07502862,7.2073026,-0.055959318,-0.10274537
CD48,-0.07680412,-0.005325445,4.200005,7.0396466,-0.053938378,-0.12421356,9.470219,-0.09685438,-0.08680577,6.8317127,-0.06552939,-0.07702933,-0.069433086,6.029503,-0.061919246,-0.09831438
PLD3,-0.072321065,0.21173975,4.0157194,6.1775928,-0.058071766,-0.12366149,9.015342,-0.1094562,-0.110005215,7.492756,-0.07013076,-0.072321385,-0.07870819,6.079013,-0.048538517,-0.09098649
CTLA2A,-0.08638529,-0.0091394065,4.0523624,7.4911413,-0.051153507,-0.13454984,10.612738,-0.11469507,-0.10244598,7.3312206,-0.07724002,-0.0685017,-0.075041965,7.202838,-0.05595169,-0.10271629
OSBPL1A,-0.08639536,-0.009146895,4.053097,7.494087,-0.05114539,-0.13458334,10.6137295,-0.11472269,-0.10244977,7.3353605,-0.07728127,-0.06853974,-0.07502862,7.2073026,-0.055959318,-0.10274537
VSIR,-0.08636217,-0.009139469,4.051291,7.494407,-0.05114621,-0.13457333,10.611529,-0.11474077,-0.10247305,7.3325367,-0.07730725,-0.068507396,-0.07501648,7.204282,-0.055934265,-0.10275917
PPP1R15A,-0.08639536,-0.009146895,4.053097,7.494087,-0.05114539,-0.13458334,10.6137295,-0.11472269,-0.10244977,7.3353605,-0.07728127,-0.06853974,-0.07502862,7.2073026,-0.055959318,-0.10274537
NEAT1,-0.08639536,-0.009146895,4.053097,7.494087,-0.05114539,-0.13458334,10.6137295,-0.11472269,-0.10244977,7.3353605,-0.07728127,-0.06853974,-0.07502862,7.2073026,-0.055959318,-0.10274537
TRIM35,-0.08639536,-0.009146895,4.053097,7.494087,-0.05114539,-0.13458334,10.6137295,-0.11472269,-0.10244977,7.3353605,-0.07728127,-0.06853974,-0.07502862,7.2073026,-0.055959318,-0.10274537
PRDM16,-0.08639536,-0.009146895,4.053097,7.494087,-0.05114539,-0.13458334,10.6137295,-0.11472269,-0.10244977,7.3353605,-0.07728127,-0.06853974,-0.07502862,7.2073026,-0.055959318,-0.10274537
GPR65,-0.08639536,-0.009146895,4.053097,7.494087,-0.05114539,-0.13458334,10.6137295,-0.11472269,-0.10244977,7.3353605,-0.07728127,-0.06853974,-0.07502862,7.2073026,-0.055959318,-0.10274537
RASSF4,-0.08639536,-0.009146895,4.053097,7.494087,-0.05114539,-0.13458334,10.6137295,-0.11472269,-0.10244977,7.3353605,-0.07728127,-0.06853974,-0.07502862,7.2073026,-0.055959318,-0.10274537
EMID1,-0.08639536,-0.009146895,4.053097,7.494087,-0.05114539,-0.13458334,10.6137295,-0.11472269,-0.10244977,7.3353605,-0.07728127,-0.06853974,-0.07502862,7.2073026,-0.055959318,-0.10274537
CTC1,-0.08639536,-0.009146895,4.053097,7.494087,-0.05114539,-0.13458334,10.6137295,-0.11472269,-0.10244977,7.3353605,-0.07728127,-0.06853974,-0.07502862,7.2073026,-0.055959318,-0.10274537
MAN2A2,-0.079137616,-0.0012993839,4.228637,7.252293,-0.05702642,-0.12671444,9.844064,-0.12109073,-0.09430867,6.226471,-0.06413948,-0.061031587,-0.0689808,7.437509,-0.04885189,-0.091205984
RASA4,-0.08639536,-0.009146895,4.053097,7.494087,-0.05114539,-0.13458334,10.6137295,-0.11472269,-0.10244977,7.3353605,-0.07728127,-0.06853974,-0.07502862,7.2073026,-0.055959318,-0.10274537
DPP8,-0.08639536,-0.009146895,4.053097,7.494087,-0.05114539,-0.13458334,10.6137295,-0.11472269,-0.10244977,7.3353605,-0.07728127,-0.06853974,-0.07502862,7.2073026,-0.055959318,-0.10274537
MCM6,-0.054781545,-0.003932512,2.64204,4.7352924,-0.030761681,-0.082681686,6.561226,-0.06705665,-0.06039382,4.68243,-0.048915304,-0.046281967,-0.047310103,4.424266,-0.0358357,-0.067391515
MCM5,-0.05518937,-0.003992869,2.6635182,4.7701592,-0.031007508,-0.0833112,6.612032,-0.06758245,-0.06082322,4.7128615,-0.049215622,-0.046580985,-0.0476391,4.458761,-0.03609434,-0.06785507
ZFP451,-0.08639536,-0.009146895,4.053097,7.494087,-0.05114539,-0.13458334,10.6137295,-0.11472269,-0.10244977,7.3353605,-0.07728127,-0.06853974,-0.07502862,7.2073026,-0.055959318,-0.10274537
CSGALNACT2,-0.08639536,-0.009146895,4.053097,7.494087,-0.05114539,-0.13458334,10.6137295,-0.11472269,-0.10244977,7.3353605,-0.07728127,-0.06853974,-0.07502862,7.2073026,-0.055959318,-0.10274537
NCF1,-0.08093273,-0.008328169,3.7950344,6.9675527,-0.046313018,-0.12493942,9.784627,-0.1034232,-0.090975024,6.875783,-0.0730033,-0.06680238,-0.071376234,6.6979327,-0.053196106,-0.09918436
GOLPH3,-0.08639536,-0.009146895,4.053097,7.494087,-0.05114539,-0.13458334,10.6137295,-0.11472269,-0.10244977,7.3353605,-0.07728127,-0.06853974,-0.07502862,7.2073026,-0.055959318,-0.10274537
LY6A,-0.08639536,-0.009146895,4.053097,7.494087,-0.05114539,-0.13458334,10.6137295,-0.11472269,-0.10244977,7.3353605,-0.07728127,-0.06853974,-0.07502862,7.2073026,-0.055959318,-0.10274537
RPS6KA3,-0.08590625,-0.0153266275,3.3011415,6.4683027,-0.03974175,-0.12210241,10.722066,-0.10584407,-0.090408,6.7690387,-0.07455732,-0.06289836,-0.06733457,7.8144426,-0.06232265,-0.09742475
UTP4,-0.08639536,-0.009146895,4.053097,7.494087,-0.05114539,-0.13458334,10.6137295,-0.11472269,-0.10244977,7.3353605,-0.07728127,-0.06853974,-0.07502862,7.2073026,-0.055959318,-0.10274537
FAM91A1,-0.08639536,-0.009146895,4.053097,7.494087,-0.05114539,-0.13458334,10.6137295,-0.11472269,-0.10244977,7.3353605,-0.07728127,-0.06853974,-0.07502862,7.2073026,-0.055959318,-0.10274537
GRINA,-0.07939393,-0.011177308,3.1814296,7.468246,-0.043488078,-0.12971751,10.132649,-0.103877135,-0.10772945,7.7629027,-0.07727121,-0.058240876,-0.07508634,7.47046,-0.045665048,-0.09948569
FGL2,-0.08636692,-0.009144954,4.052352,7.494837,-0.051146705,-0.13458258,10.611522,-0.11468138,-0.10242053,7.3368206,-0.077298366,-0.06851124,-0.07503738,7.2091393,-0.055916805,-0.102763005
TSPAN14,-0.08453224,-0.017541649,3.3351288,7.2942963,-0.055460367,-0.124902226,9.408216,-0.10778721,-0.0947251,6.918183,-0.07853721,-0.07138117,-0.07295666,7.7073207,-0.05452792,-0.10075536
MYL10,-0.08639536,-0.009146895,4.053097,7.494087,-0.05114539,-0.13458334,10.6137295,-0.11472269,-0.10244977,7.3353605,-0.07728127,-0.06853974,-0.07502862,7.2073026,-0.055959318,-0.10274537
CERK,-0.08635917,-0.009128377,4.051682,7.4954686,-0.051149882,-0.1345771,10.611319,-0.11473591,-0.10246775,7.3320446,-0.077310994,-0.06849844,-0.07501205,7.205178,-0.055925224,-0.10276298
TOPORS,-0.08639536,-0.009146895,4.053097,7.494087,-0.05114539,-0.13458334,10.6137295,-0.11472269,-0.10244977,7.3353605,-0.07728127,-0.06853974,-0.07502862,7.2073026,-0.055959318,-0.10274537
FAM111A,-0.08639536,-0.009146895,4.053097,7.494087,-0.05114539,-0.13458334,10.6137295,-0.11472269,-0.10244977,7.3353605,-0.07728127,-0.06853974,-0.07502862,7.2073026,-0.055959318,-0.10274537
TBXAS1,-0.08639536,-0.009146895,4.053097,7.494087,-0.05114539,-0.13458334,10.6137295,-0.11472269,-0.10244977,7.3353605,-0.07728127,-0.06853974,-0.07502862,7.2073026,-0.055959318,-0.10274537
FAR1,-0.07760748,0.41587996,4.3149676,7.328383,-0.03865613,-0.122762315,10.868692,-0.107701525,-0.09452375,7.722207,-0.080106124,-0.058434475,-0.058711275,6.375186,-0.045235142,-0.08495239
POLE3,-0.054873943,-0.0039467863,2.6443028,4.7435303,-0.030834729,-0.08283593,6.5699563,-0.067235924,-0.060447846,4.688719,-0.04900654,-0.046313718,-0.0474024,4.4354696,-0.035883803,-0.06748522
PANX1,-0.08639536,-0.009146895,4.053097,7.494087,-0.05114539,-0.13458334,10.6137295,-0.11472269,-0.10244977,7.3353605,-0.07728127,-0.06853974,-0.07502862,7.2073026,-0.055959318,-0.10274537
ATP6AP2,-0.08639536,-0.009146895,4.053097,7.494087,-0.05114539,-0.13458334,10.6137295,-0.11472269,-0.10244977,7.3353605,-0.07728127,-0.06853974,-0.07502862,7.2073026,-0.055959318,-0.10274537
FOXRED1,-0.08639536,-0.009146895,4.053097,7.494087,-0.05114539,-0.13458334,10.6137295,-0.11472269,-0.10244977,7.3353605,-0.07728127,-0.06853974,-0.07502862,7.2073026,-0.055959318,-0.10274537
TBL3,-0.08639536,-0.009146895,4.053097,7.494087,-0.05114539,-0.13458334,10.6137295,-0.11472269,-0.10244977,7.3353605,-0.07728127,-0.06853974,-0.07502862,7.2073026,-0.055959318,-0.10274537
ATG12,-0.07809663,-0.0077784224,3.6973686,6.7352953,-0.04431948,-0.11965126,9.402369,-0.09917274,-0.08576765,6.5770774,-0.06996978,-0.06395871,-0.06800185,6.4303207,-0.05118277,-0.09519035
TMEM206,-0.08639536,-0.009146895,4.053097,7.494087,-0.05114539,-0.13458334,10.6137295,-0.11472269,-0.10244977,7.3353605,-0.07728127,-0.06853974,-0.07502862,7.2073026,-0.055959318,-0.10274537
MTREX,-0.08639536,-0.009146895,4.053097,7.494087,-0.05114539,-0.13458334,10.6137295,-0.11472269,-0.10244977,7.3353605,-0.07728127,-0.06853974,-0.07502862,7.2073026,-0.055959318,-0.10274537
DNM1L,-0.08639536,-0.009146895,4.053097,7.494087,-0.05114539,-0.13458334,10.6137295,-0.11472269,-0.10244977,7.3353605,-0.07728127,-0.06853974,-0.07502862,7.2073026,-0.055959318,-0.10274537
IIGP1,-0.08639536,-0.009146895,4.053097,7.494087,-0.05114539,-0.13458334,10.6137295,-0.11472269,-0.10244977,7.3353605,-0.07728127,-0.06853974,-0.07502862,7.2073026,-0.055959318,-0.10274537
MAP4K2,-0.08639536,-0.009146895,4.053097,7.494087,-0.05114539,-0.13458334,10.6137295,-0.11472269,-0.10244977,7.3353605,-0.07728127,-0.06853974,-0.07502862,7.2073026,-0.055959318,-0.10274537
NUDT19,-0.08639536,-0.009146895,4.053097,7.494087,-0.05114539,-0.13458334,10.6137295,-0.11472269,-0.10244977,7.3353605,-0.07728127,-0.06853974,-0.07502862,7.2073026,-0.055959318,-0.10274537
TBC1D9B,-0.08639536,-0.009146895,4.053097,7.494087,-0.05114539,-0.13458334,10.6137295,-0.11472269,-0.10244977,7.3353605,-0.07728127,-0.06853974,-0.07502862,7.2073026,-0.055959318,-0.10274537
CTLA2B,-0.08639656,-0.00915272,4.053055,7.494022,-0.051141866,-0.13458246,10.613994,-0.11471565,-0.10244819,7.3346114,-0.07727289,-0.068532996,-0.0750239,7.2075295,-0.055960026,-0.10274231
SLA2,-0.092288665,-0.013946895,3.5548804,6.912261,-0.04034174,-0.124421954,10.720319,-0.11191033,-0.09161388,6.8196526,-0.08166065,-0.059207138,-0.0635773,6.99345,-0.04162419,-0.108016
DUS1L,-0.08639536,-0.009146895,4.053097,7.494087,-0.05114539,-0.13458334,10.6137295,-0.11472269,-0.10244977,7.3353605,-0.07728127,-0.06853974,-0.07502862,7.2073026,-0.055959318,-0.10274537
CUL3,-0.0739556,-0.0064284406,3.5824244,6.486298,-0.042596057,-0.11458283,8.997962,-0.09384314,-0.08368119,6.443925,-0.06765749,-0.06227957,-0.0656788,6.091163,-0.049201924,-0.091500625
PADI4,-0.086379066,-0.009131584,4.054429,7.491936,-0.051127784,-0.13458852,10.614981,-0.114722386,-0.10244785,7.3346195,-0.07725728,-0.06854822,-0.075010136,7.208183,-0.05594692,-0.102737814
DUSP1,-0.06496922,-0.0057154554,3.1080241,5.629455,-0.036951616,-0.097904496,7.765572,-0.079570286,-0.07157268,5.559092,-0.05796164,-0.054638766,-0.056027483,5.303701,-0.04265613,-0.07960758
PRPF4,-0.07088537,-0.0064957794,3.4095035,6.124999,-0.040504202,-0.107825704,8.539182,-0.08796803,-0.07802126,6.025393,-0.06287069,-0.05935467,-0.061554536,5.838593,-0.046577748,-0.08639805
DNAJC5,-0.08639536,-0.009146895,4.053097,7.494087,-0.05114539,-0.13458334,10.6137295,-0.11472269,-0.10244977,7.3353605,-0.07728127,-0.06853974,-0.07502862,7.2073026,-0.055959318,-0.10274537
JARID2,-0.083414264,-0.008462316,3.9423819,7.2317376,-0.047139507,-0.12962182,10.204198,-0.107351266,-0.093637735,7.090566,-0.07537855,-0.06855988,-0.07357819,6.911891,-0.05528715,-0.102211185
RPA2,-0.058042776,-0.0033228952,2.9211519,4.8795834,-0.03429841,-0.08708046,6.793864,-0.069017254,-0.061634205,4.9795995,-0.051095266,-0.05065898,-0.05029056,4.586181,-0.039113235,-0.07220756
SLA,-0.08639536,-0.009146895,4.053097,7.494087,-0.05114539,-0.13458334,10.6137295,-0.11472269,-0.10244977,7.3353605,-0.07728127,-0.06853974,-0.07502862,7.2073026,-0.055959318,-0.10274537
ARID5A,-0.08639536,-0.009146895,4.053097,7.494087,-0.05114539,-0.13458334,10.6137295,-0.11472269,-0.10244977,7.3353605,-0.07728127,-0.06853974,-0.07502862,7.2073026,-0.055959318,-0.10274537
ERCC8,-0.058532055,-0.010247345,2.6818976,5.031794,-0.029789954,-0.071878865,6.0212064,-0.06345941,-0.04662964,4.6760273,-0.040353313,-0.039316803,-0.04638754,4.60524,-0.032180976,-0.05902895
LYN,-0.06621584,-0.0059816586,3.1685975,5.733865,-0.037798934,-0.10000864,7.925291,-0.081399344,-0.07285955,5.645967,-0.058944177,-0.055651177,-0.05725532,5.4250956,-0.043501087,-0.08109743
REL,-0.085163765,-0.008421214,4.064407,7.380972,-0.048312392,-0.13282971,10.478909,-0.11012134,-0.096331,7.2620826,-0.077092744,-0.07047517,-0.07538665,7.0760503,-0.05619265,-0.104367875
CD52,-0.08639536,-0.009146895,4.053097,7.494087,-0.05114539,-0.13458334,10.6137295,-0.11472269,-0.10244977,7.3353605,-0.07728127,-0.06853974,-0.07502862,7.2073026,-0.055959318,-0.10274537
LMO4,-0.09204113,-0.011847496,3.520635,8.080372,-0.048769455,-0.123613834,9.057465,-0.099492565,-0.10578851,7.177656,-0.07354174,-0.06672537,-0.06190161,6.4615335,-0.057854902,-0.087472744
STAT2,-0.070236444,-0.008044198,3.426009,6.8811674,-0.042516656,-0.1122947,8.870074,-0.08950523,-0.08111396,6.304946,-0.06389046,-0.067407764,-0.063382626,5.8083973,-0.05338254,-0.089632526
ST8SIA4,-0.08639536,-0.009146895,4.053097,7.494087,-0.05114539,-0.13458334,10.6137295,-0.11472269,-0.10244977,7.3353605,-0.07728127,-0.06853974,-0.07502862,7.2073026,-0.055959318,-0.10274537
ATF7,-0.084025264,-0.014537084,3.2909272,6.350433,-0.037491642,-0.12006751,10.40658,-0.100116,-0.08463858,6.6701674,-0.07390013,-0.0646217,-0.06780302,7.5807285,-0.06163492,-0.09862799
TRPS1,-0.086392365,-0.009135804,4.053488,7.4951487,-0.051149063,-0.13458711,10.613519,-0.114717826,-0.10244448,7.3348684,-0.077285014,-0.06853078,-0.07502418,7.2081985,-0.055950277,-0.102749184
CDC6,-0.05385215,-0.0038021784,2.5960464,4.6541376,-0.030200047,-0.08132884,6.453755,-0.06592573,-0.059457336,4.6076517,-0.04812311,-0.045517944,-0.046567846,4.344482,-0.03529344,-0.06631429
MS4A6C,-0.08639536,-0.009146895,4.053097,7.494087,-0.05114539,-0.13458334,10.6137295,-0.11472269,-0.10244977,7.3353605,-0.07728127,-0.06853974,-0.07502862,7.2073026,-0.055959318,-0.10274537
LZTS1,-0.08639536,-0.009146895,4.053097,7.494087,-0.05114539,-0.13458334,10.6137295,-0.11472269,-0.10244977,7.3353605,-0.07728127,-0.06853974,-0.07502862,7.2073026,-0.055959318,-0.10274537
UAP1,-0.08639536,-0.009146895,4.053097,7.494087,-0.05114539,-0.13458334,10.6137295,-0.11472269,-0.10244977,7.3353605,-0.07728127,-0.06853974,-0.07502862,7.2073026,-0.055959318,-0.10274537
ADSSL1,-0.074212246,-0.008868789,3.4778032,6.406537,-0.05520338,-0.12622999,9.552413,-0.11001264,-0.1059225,6.8214903,-0.07003641,-0.053845834,-0.06678086,6.086602,-0.058427736,-0.09694501
MAML3,-0.08634554,-0.009160587,4.048785,7.495866,-0.05113818,-0.1345821,10.613538,-0.11466985,-0.10242647,7.3323116,-0.077319585,-0.06850086,-0.07500296,7.2044826,-0.055923335,-0.1027657
NUPR1,-0.09204113,-0.011847496,3.520635,8.080372,-0.048769455,-0.123613834,9.057465,-0.099492565,-0.10578851,7.177656,-0.07354174,-0.06672537,-0.06190161,6.4615335,-0.057854902,-0.087472744
SATB1,-0.08639536,-0.009146895,4.053097,7.494087,-0.05114539,-0.13458334,10.6137295,-0.11472269,-0.10244977,7.3353605,-0.07728127,-0.06853974,-0.07502862,7.2073026,-0.055959318,-0.10274537
CLN5,-0.09204113,-0.011847496,3.520635,8.080372,-0.048769455,-0.123613834,9.057465,-0.099492565,-0.10578851,7.177656,-0.07354174,-0.06672537,-0.06190161,6.4615335,-0.057854902,-0.087472744
UHRF1,-0.05376467,-0.0037826966,2.5914748,4.647736,-0.030135436,-0.08119504,6.443183,-0.065811224,-0.05937153,4.6027155,-0.048078783,-0.045459047,-0.046495844,4.3365893,-0.03523428,-0.06621902
GT(ROSA)26SOR,-0.08639536,-0.009146895,4.053097,7.494087,-0.05114539,-0.13458334,10.6137295,-0.11472269,-0.10244977,7.3353605,-0.07728127,-0.06853974,-0.07502862,7.2073026,-0.055959318,-0.10274537
CLPTM1L,-0.086392365,-0.009135804,4.053488,7.4951487,-0.051149063,-0.13458711,10.613519,-0.114717826,-0.10244448,7.3348684,-0.077285014,-0.06853078,-0.07502418,7.2081985,-0.055950277,-0.102749184
CENPK,-0.060800727,-0.0050957603,2.9081287,5.254003,-0.03432005,-0.09151405,7.2620263,-0.07422255,-0.06687828,5.1860743,-0.053949382,-0.050837763,-0.052282315,4.9391766,-0.03970292,-0.0743415
DHFR,-0.053816576,-0.0038360946,2.586137,4.648656,-0.030206107,-0.08132081,6.4411383,-0.065937154,-0.059373245,4.605785,-0.048141398,-0.045429952,-0.04663723,4.345788,-0.03526626,-0.06630482
MAPK12,-0.05270606,0.0395412,2.4856074,4.5624666,-0.03158972,-0.10338566,7.006246,-0.08338603,-0.0620604,4.4045057,-0.048931263,-0.042166974,-0.060595464,4.2588773,-0.040754594,-0.07967847
ELMO2,-0.08639536,-0.009146895,4.053097,7.494087,-0.05114539,-0.13458334,10.6137295,-0.11472269,-0.10244977,7.3353605,-0.07728127,-0.06853974,-0.07502862,7.2073026,-0.055959318,-0.10274537
RRM1,-0.054025263,-0.0038859963,2.601592,4.6660414,-0.030287651,-0.081592426,6.4739428,-0.066147,-0.059596222,4.612279,-0.04818178,-0.045569934,-0.04669393,4.3607564,-0.03538616,-0.06646129
IGHM,-0.08639536,-0.009146895,4.053097,7.494087,-0.05114539,-0.13458334,10.6137295,-0.11472269,-0.10244977,7.3353605,-0.07728127,-0.06853974,-0.07502862,7.2073026,-0.055959318,-0.10274537
TGTP2,-0.08639536,-0.009146895,4.053097,7.494087,-0.05114539,-0.13458334,10.6137295,-0.11472269,-0.10244977,7.3353605,-0.07728127,-0.06853974,-0.07502862,7.2073026,-0.055959318,-0.10274537
PLAG1,-0.08453224,-0.017541649,3.3351288,7.2942963,-0.055460367,-0.124902226,9.408216,-0.10778721,-0.0947251,6.918183,-0.07853721,-0.07138117,-0.07295666,7.7073207,-0.05452792,-0.10075536
DDX20,-0.08073965,-0.008729551,3.7522383,6.9261665,-0.045667242,-0.12336153,9.698341,-0.10220859,-0.08860604,6.7715025,-0.071975455,-0.06575132,-0.07009763,6.6668944,-0.053364947,-0.09812543
EIF1AD,-0.08639536,-0.009146895,4.053097,7.494087,-0.05114539,-0.13458334,10.6137295,-0.11472269,-0.10244977,7.3353605,-0.07728127,-0.06853974,-0.07502862,7.2073026,-0.055959318,-0.10274537
RAB37,-0.08639536,-0.009146895,4.053097,7.494087,-0.05114539,-0.13458334,10.6137295,-0.11472269,-0.10244977,7.3353605,-0.07728127,-0.06853974,-0.07502862,7.2073026,-0.055959318,-0.10274537
TRIB3,-0.08639536,-0.009146895,4.053097,7.494087,-0.05114539,-0.13458334,10.6137295,-0.11472269,-0.10244977,7.3353605,-0.07728127,-0.06853974,-0.07502862,7.2073026,-0.055959318,-0.10274537
TYMS,-0.05326681,-0.0036566667,2.5636377,4.6076417,-0.029842926,-0.08044189,6.377723,-0.065207005,-0.05887775,4.5738277,-0.047794804,-0.045104735,-0.046096444,4.2942886,-0.034897942,-0.06564976
AKAP8L,-0.08639536,-0.009146895,4.053097,7.494087,-0.05114539,-0.13458334,10.6137295,-0.11472269,-0.10244977,7.3353605,-0.07728127,-0.06853974,-0.07502862,7.2073026,-0.055959318,-0.10274537
PCLAF,-0.08639536,-0.009146895,4.053097,7.494087,-0.05114539,-0.13458334,10.6137295,-0.11472269,-0.10244977,7.3353605,-0.07728127,-0.06853974,-0.07502862,7.2073026,-0.055959318,-0.10274537
RGS2,-0.08639536,-0.009146895,4.053097,7.494087,-0.05114539,-0.13458334,10.6137295,-0.11472269,-0.10244977,7.3353605,-0.07728127,-0.06853974,-0.07502862,7.2073026,-0.055959318,-0.10274537
SLC19A1,-0.08639536,-0.009146895,4.053097,7.494087,-0.05114539,-0.13458334,10.6137295,-0.11472269,-0.10244977,7.3353605,-0.07728127,-0.06853974,-0.07502862,7.2073026,-0.055959318,-0.10274537
CAD,-0.08639536,-0.009146895,4.053097,7.494087,-0.05114539,-0.13458334,10.6137295,-0.11472269,-0.10244977,7.3353605,-0.07728127,-0.06853974,-0.07502862,7.2073026,-0.055959318,-0.10274537
F11R,-0.08639536,-0.009146895,4.053097,7.494087,-0.05114539,-0.13458334,10.6137295,-0.11472269,-0.10244977,7.3353605,-0.07728127,-0.06853974,-0.07502862,7.2073026,-0.055959318,-0.10274537
EBF1,-0.07193907,-0.0068005454,3.4453137,6.226412,-0.040986866,-0.109860964,8.683062,-0.089320935,-0.07971858,6.145835,-0.06413247,-0.0604917,-0.06305702,5.9217944,-0.04770248,-0.08841113
SMPDL3A,-0.08639536,-0.009146895,4.053097,7.494087,-0.05114539,-0.13458334,10.6137295,-0.11472269,-0.10244977,7.3353605,-0.07728127,-0.06853974,-0.07502862,7.2073026,-0.055959318,-0.10274537
SETD2,-0.07243745,-0.006354249,3.504814,6.300032,-0.04166717,-0.11094418,8.768818,-0.09094609,-0.08039869,6.2155337,-0.06480111,-0.060889322,-0.06344786,5.9784527,-0.047823638,-0.08867811
CDCA8,-0.053564742,-0.0037414806,2.5793836,4.630743,-0.030028287,-0.080892235,6.416028,-0.06557505,-0.05917424,4.5897746,-0.047943406,-0.04529877,-0.04633555,4.3203063,-0.03509936,-0.06597955
PRODH,-0.08639536,-0.009146895,4.053097,7.494087,-0.05114539,-0.13458334,10.6137295,-0.11472269,-0.10244977,7.3353605,-0.07728127,-0.06853974,-0.07502862,7.2073026,-0.055959318,-0.10274537
ORC6,-0.056430973,-0.0045275497,2.7094789,4.8640275,-0.031776518,-0.0851615,6.755435,-0.0691129,-0.06200794,4.772423,-0.04963904,-0.046956148,-0.04853661,4.5661182,-0.037002876,-0.06899598
TBC1D10C,-0.07760748,0.41587996,4.3149676,7.328383,-0.03865613,-0.122762315,10.868692,-0.107701525,-0.09452375,7.722207,-0.080106124,-0.058434475,-0.058711275,6.375186,-0.045235142,-0.08495239
IARS2,-0.08632925,-0.009145274,4.0501175,7.493715,-0.051120576,-0.13458729,10.614789,-0.11466955,-0.10242456,7.3315706,-0.077295594,-0.06850934,-0.07498448,7.205363,-0.055910937,-0.10275815
BATF2,-0.08639536,-0.009146895,4.053097,7.494087,-0.05114539,-0.13458334,10.6137295,-0.11472269,-0.10244977,7.3353605,-0.07728127,-0.06853974,-0.07502862,7.2073026,-0.055959318,-0.10274537
TOP3B,-0.08639536,-0.009146895,4.053097,7.494087,-0.05114539,-0.13458334,10.6137295,-0.11472269,-0.10244977,7.3353605,-0.07728127,-0.06853974,-0.07502862,7.2073026,-0.055959318,-0.10274537
GIMAP1,-0.08639536,-0.009146895,4.053097,7.494087,-0.05114539,-0.13458334,10.6137295,-0.11472269,-0.10244977,7.3353605,-0.07728127,-0.06853974,-0.07502862,7.2073026,-0.055959318,-0.10274537
VDR,-0.08639536,-0.009146895,4.053097,7.494087,-0.05114539,-0.13458334,10.6137295,-0.11472269,-0.10244977,7.3353605,-0.07728127,-0.06853974,-0.07502862,7.2073026,-0.055959318,-0.10274537
ACAA2,-0.08639536,-0.009146895,4.053097,7.494087,-0.05114539,-0.13458334,10.6137295,-0.11472269,-0.10244977,7.3353605,-0.07728127,-0.06853974,-0.07502862,7.2073026,-0.055959318,-0.10274537
IKZF1,-0.06899586,-0.0065146326,3.2877183,5.9833894,-0.039071817,-0.10448628,8.281755,-0.0850434,-0.07603436,5.8897934,-0.06134025,-0.057580154,-0.059842505,5.6563315,-0.04553511,-0.08435949
TYROBP,-0.078213744,-0.0077428254,3.734237,6.7054915,-0.045218114,-0.12083795,9.450021,-0.09838006,-0.08730171,6.6336555,-0.07037968,-0.066578604,-0.069555394,6.4411187,-0.051973637,-0.09674009
NR3C2,-0.08639536,-0.009146895,4.053097,7.494087,-0.05114539,-0.13458334,10.6137295,-0.11472269,-0.10244977,7.3353605,-0.07728127,-0.06853974,-0.07502862,7.2073026,-0.055959318,-0.10274537
METAP1,-0.08639536,-0.009146895,4.053097,7.494087,-0.05114539,-0.13458334,10.6137295,-0.11472269,-0.10244977,7.3353605,-0.07728127,-0.06853974,-0.07502862,7.2073026,-0.055959318,-0.10274537
TUBGCP3,-0.08639536,-0.009146895,4.053097,7.494087,-0.05114539,-0.13458334,10.6137295,-0.11472269,-0.10244977,7.3353605,-0.07728127,-0.06853974,-0.07502862,7.2073026,-0.055959318,-0.10274537
PRELID3B,-0.08639536,-0.009146895,4.053097,7.494087,-0.05114539,-0.13458334,10.6137295,-0.11472269,-0.10244977,7.3353605,-0.07728127,-0.06853974,-0.07502862,7.2073026,-0.055959318,-0.10274537
XPNPEP1,-0.09228746,-0.013941071,3.554922,6.9123263,-0.040345263,-0.12442283,10.720056,-0.11191736,-0.09161547,6.8204017,-0.081669025,-0.059213877,-0.063582025,6.993223,-0.04162348,-0.10801908
LONP2,-0.08639536,-0.009146895,4.053097,7.494087,-0.05114539,-0.13458334,10.6137295,-0.11472269,-0.10244977,7.3353605,-0.07728127,-0.06853974,-0.07502862,7.2073026,-0.055959318,-0.10274537
PTGS1,-0.08639536,-0.009146895,4.053097,7.494087,-0.05114539,-0.13458334,10.6137295,-0.11472269,-0.10244977,7.3353605,-0.07728127,-0.06853974,-0.07502862,7.2073026,-0.055959318,-0.10274537
RPA1,-0.05670776,-0.004156485,2.7360272,4.91569,-0.03198051,-0.08538588,6.7727327,-0.069278166,-0.06235193,4.86004,-0.050763447,-0.048047975,-0.048891224,4.588786,-0.037093394,-0.069752246
YBX1,-0.069194265,-0.0065681613,3.2990723,5.955098,-0.03927619,-0.10473657,8.296861,-0.08526352,-0.075632334,5.84525,-0.061095886,-0.057616644,-0.059667762,5.6910577,-0.045371693,-0.08408398
ZEB2,-0.08639536,-0.009146895,4.053097,7.494087,-0.05114539,-0.13458334,10.6137295,-0.11472269,-0.10244977,7.3353605,-0.07728127,-0.06853974,-0.07502862,7.2073026,-0.055959318,-0.10274537
ME2,-0.08639536,-0.009146895,4.053097,7.494087,-0.05114539,-0.13458334,10.6137295,-0.11472269,-0.10244977,7.3353605,-0.07728127,-0.06853974,-0.07502862,7.2073026,-0.055959318,-0.10274537
CERS4,-0.08638529,-0.0091394065,4.0523624,7.4911413,-0.051153507,-0.13454984,10.612738,-0.11469507,-0.10244598,7.3312206,-0.07724002,-0.0685017,-0.075041965,7.202838,-0.05595169,-0.10271629
IRF6,-0.08639536,-0.009146895,4.053097,7.494087,-0.05114539,-0.13458334,10.6137295,-0.11472269,-0.10244977,7.3353605,-0.07728127,-0.06853974,-0.07502862,7.2073026,-0.055959318,-0.10274537
PLAC8,-0.074263565,-0.007923535,3.4829817,6.316829,-0.041876126,-0.11206058,8.87103,-0.09202883,-0.08063495,6.1726255,-0.065084375,-0.060450897,-0.063583486,6.082967,-0.048290543,-0.08957079
SH2D5,-0.086379066,-0.009131584,4.054429,7.491936,-0.051127784,-0.13458852,10.614981,-0.114722386,-0.10244785,7.3346195,-0.07725728,-0.06854822,-0.075010136,7.208183,-0.05594692,-0.102737814
PCMTD2,-0.086388245,-0.009147613,4.051434,7.493731,-0.051144026,-0.1345962,10.612337,-0.11470655,-0.102443285,7.337059,-0.07726277,-0.06853392,-0.07503868,7.2066383,-0.055951055,-0.102735914
UBA7,-0.07447733,-0.0069064717,3.5721135,6.5205274,-0.042876847,-0.114687994,9.011204,-0.0941374,-0.083227664,6.432238,-0.067584276,-0.06265345,-0.06590477,6.149683,-0.049595207,-0.09197262
ALDH9A1,-0.09228746,-0.013941071,3.554922,6.9123263,-0.040345263,-0.12442283,10.720056,-0.11191736,-0.09161547,6.8204017,-0.081669025,-0.059213877,-0.063582025,6.993223,-0.04162348,-0.10801908
OTULINL,-0.08639536,-0.009146895,4.053097,7.494087,-0.05114539,-0.13458334,10.6137295,-0.11472269,-0.10244977,7.3353605,-0.07728127,-0.06853974,-0.07502862,7.2073026,-0.055959318,-0.10274537
TBC1D5,-0.08639536,-0.009146895,4.053097,7.494087,-0.05114539,-0.13458334,10.6137295,-0.11472269,-0.10244977,7.3353605,-0.07728127,-0.06853974,-0.07502862,7.2073026,-0.055959318,-0.10274537
TNFRSF21,-0.08453224,-0.017541649,3.3351288,7.2942963,-0.055460367,-0.124902226,9.408216,-0.10778721,-0.0947251,6.918183,-0.07853721,-0.07138117,-0.07295666,7.7073207,-0.05452792,-0.10075536
GPR160,-0.068686835,-0.006962598,2.451709,4.9863834,-0.03218039,-0.12825407,9.633842,-0.1099044,-0.07711528,5.1772003,-0.06193347,-0.045704484,-0.072814,6.3577228,-0.05924701,-0.09672085
SAMD9L,-0.07809663,-0.0077784224,3.6973686,6.7352953,-0.04431948,-0.11965126,9.402369,-0.09917274,-0.08576765,6.5770774,-0.06996978,-0.06395871,-0.06800185,6.4303207,-0.05118277,-0.09519035
CCDC137,-0.08639536,-0.009146895,4.053097,7.494087,-0.05114539,-0.13458334,10.6137295,-0.11472269,-0.10244977,7.3353605,-0.07728127,-0.06853974,-0.07502862,7.2073026,-0.055959318,-0.10274537
G6PDX,-0.08639536,-0.009146895,4.053097,7.494087,-0.05114539,-0.13458334,10.6137295,-0.11472269,-0.10244977,7.3353605,-0.07728127,-0.06853974,-0.07502862,7.2073026,-0.055959318,-0.10274537
