,0,1,2,3,4,5,6,7,8,9,10,11,12,13,14,15
CPSF3,-0.039980464,-0.035694987,-0.051195648,-0.04165725,-0.025481531,2.3707838,-0.020480914,-0.05226705,-0.017709678,-0.036240917,1.9549426,-0.04484531,2.71975,-0.046507742,2.1348536,2.7239225
LGALS3,-0.045673765,-0.036119793,-0.05524767,-0.045296047,-0.032936893,2.4789052,-0.027686456,-0.054283317,-0.023485662,-0.034482542,1.8766719,-0.048220683,2.887093,-0.04480115,2.6575541,2.749767
PPARA,-0.04456112,-0.03521593,-0.05405512,-0.04427124,-0.031975687,2.4214506,-0.027082743,-0.053077765,-0.022543004,-0.033932354,1.8268936,-0.04707132,2.8103752,-0.04372984,2.6747916,2.6787868
HMGA1,-0.044946473,-0.03546725,-0.054246224,-0.044572327,-0.0322077,2.4295692,-0.027152525,-0.053381156,-0.02280337,-0.03406061,1.8447516,-0.04727885,2.834691,-0.04408522,2.6775937,2.6888738
TAF5,-0.04486892,-0.035394132,-0.054040577,-0.044412717,-0.03217453,2.426402,-0.027001493,-0.05322135,-0.022821795,-0.034004435,1.8395327,-0.047063913,2.8230882,-0.04402118,2.6796896,2.677043
WFDC2,-0.06587405,-0.06495924,-0.08787568,-0.05732372,-0.061453927,4.547083,-0.05470384,-0.08070321,-0.03964413,-0.048043087,2.2214718,-0.088005096,4.515453,-0.068662144,0.11690337,6.81926
ZNF397,-0.044837236,-0.035369202,-0.054295097,-0.04449407,-0.032166548,2.431379,-0.027136581,-0.053380065,-0.02271948,-0.034076322,1.8402946,-0.047293633,2.8305101,-0.04397132,2.6756315,2.6925435
SMOX,-0.04488276,-0.03533927,-0.054267604,-0.04445996,-0.03217892,2.4290829,-0.027107487,-0.05340244,-0.02284555,-0.034072123,1.8410869,-0.04721529,2.8333015,-0.043982,2.6597903,2.6928298
CHD8,-0.044911485,-0.035467084,-0.054338224,-0.044574276,-0.032245014,2.4337885,-0.027171426,-0.053435434,-0.022754679,-0.034085236,1.8448179,-0.047361195,2.8323464,-0.04409542,2.681852,2.6949904
HIST1H1C,-0.044787508,-0.035319667,-0.05421808,-0.04446445,-0.03213208,2.4279742,-0.027080698,-0.05331508,-0.022693034,-0.034022134,1.8389304,-0.047239035,2.827105,-0.043927774,2.6779964,2.6852965
SMARCC1,-0.05766282,-0.055308003,-0.07617778,-0.04903088,-0.05440069,4.0999336,-0.04744636,-0.06943932,-0.034618683,-0.04069819,1.8957393,-0.07672025,3.980628,-0.058065828,-0.0005837213,5.9823666
PSAT1,-0.04540058,-0.035874646,-0.05482575,-0.044907775,-0.03263597,2.458209,-0.027466156,-0.053931873,-0.023091018,-0.034356326,1.8598102,-0.0477971,2.8599248,-0.04454833,2.6719084,2.737352
FOXA2,-0.053605225,-0.05420358,-0.069991894,-0.04561088,-0.049671162,4.007092,-0.0459819,-0.064126864,-0.032847557,-0.03657144,1.7067847,-0.066594176,3.4510927,-0.05476891,-0.00063800864,5.173165
NODAL,-0.04420795,-0.034718283,-0.053403895,-0.04392743,-0.031597342,2.3931468,-0.026557183,-0.05254834,-0.022386674,-0.033583306,1.8169191,-0.046511404,2.792252,-0.04331235,2.6740131,2.6185067
KIFAP3,-0.044810094,-0.035323765,-0.054199584,-0.044450093,-0.032141138,2.42782,-0.027059985,-0.053287424,-0.022694018,-0.034018863,1.8390377,-0.047227554,2.8266692,-0.04396962,2.6794333,2.6874077
BIRC5,-0.04461331,-0.035198297,-0.053988617,-0.044355147,-0.03197608,2.4166543,-0.026976056,-0.05309455,-0.02258862,-0.03391175,1.8331208,-0.04706251,2.8188882,-0.04377005,2.6838927,2.6642926
C1GALT1,-0.04501741,-0.03552422,-0.054401476,-0.044611838,-0.03229973,2.4379902,-0.027218405,-0.053518005,-0.022843013,-0.03413854,1.8467754,-0.047401182,2.8387618,-0.044141352,2.6741385,2.7012813
DDIT4,-0.044854853,-0.035370927,-0.05429942,-0.04449852,-0.03218003,2.432055,-0.027125917,-0.05339004,-0.022735113,-0.03407891,1.8414617,-0.047294125,2.8310275,-0.044000134,2.6749437,2.6935298
DROSHA,-0.048554424,-0.035433963,-0.047218252,-0.042450156,-0.02932209,2.713502,-0.028034486,-0.04626693,-0.022124546,-0.027410299,2.178066,-0.043607272,2.4383736,-0.036333032,2.3487391,1.878295
RAB25,-0.03786399,-0.03344387,-0.048601083,-0.039870482,-0.023708502,2.236948,-0.018986171,-0.04963974,-0.016636008,-0.034613907,1.8669715,-0.04262311,2.598784,-0.04400068,2.1438644,2.5001879
FOXM1,-0.041151516,-0.028758334,-0.04865403,-0.040666495,-0.03096924,1.8461038,-0.020035515,-0.048592813,-0.022696352,-0.030642897,2.0514836,-0.041499857,2.6954317,-0.042608585,2.8429642,2.012567
FOSL1,-0.044375684,-0.034882247,-0.05358215,-0.044055875,-0.03172266,2.4009418,-0.026666617,-0.05272592,-0.022482729,-0.033685714,1.8239776,-0.04665608,2.7989597,-0.043518145,2.6730568,2.6348429
SNRPD1,-0.033767443,-0.027590599,-0.04512877,-0.042929273,-0.025436198,2.1800086,-0.02930519,-0.041257933,-0.015257652,-0.025448816,1.6135463,-0.042386096,2.1034794,-0.03831041,2.9269252,3.4006932
ANXA3,-0.044476394,-0.035001863,-0.053730913,-0.044148274,-0.031824723,2.4036844,-0.026784502,-0.052875932,-0.022578355,-0.033773,1.8335657,-0.04671743,2.8028917,-0.04365439,2.6678727,2.644382
DPPA4,-0.0449825,-0.035593595,-0.0545363,-0.044734817,-0.032330707,2.4398654,-0.027343668,-0.053608067,-0.0228012,-0.034200642,1.84809,-0.04765167,2.8499146,-0.044146713,2.6869605,2.7072988
DEPDC7,-0.044642415,-0.03514987,-0.053851184,-0.04426316,-0.031959586,2.4110715,-0.026899869,-0.053014725,-0.022652177,-0.03383883,1.834127,-0.046892066,2.8140903,-0.043763403,2.6718998,2.6590104
AXL,-0.0443922,-0.03495291,-0.05380198,-0.044179376,-0.031792942,2.405521,-0.0268154,-0.052895635,-0.022479508,-0.03380483,1.8277161,-0.046867903,2.8080401,-0.043541208,2.6780787,2.6478174
FLRT2,-0.06587405,-0.06495924,-0.08787568,-0.05732372,-0.061453927,4.547083,-0.05470384,-0.08070321,-0.03964413,-0.048043087,2.2214718,-0.088005096,4.515453,-0.068662144,0.11690337,6.81926
PIM2,-0.045225915,-0.03572995,-0.05462958,-0.04471483,-0.03249975,2.4473455,-0.027377428,-0.053711485,-0.022970127,-0.03423747,1.8508017,-0.04755307,2.8419213,-0.04439465,2.6709812,2.7289023
EWSR1,-0.044796336,-0.035344727,-0.054151658,-0.044482067,-0.03212896,2.4250464,-0.027070709,-0.05327818,-0.022710059,-0.03399992,1.8396924,-0.047227204,2.8300548,-0.04395302,2.6818106,2.6792626
ZNF287,-0.04427286,-0.034778174,-0.053578377,-0.043979116,-0.031682268,2.4013784,-0.02665558,-0.05266554,-0.02241787,-0.0336646,1.813316,-0.046654955,2.796585,-0.04337218,2.671664,2.6388152
MEF2C,-0.06587405,-0.06495924,-0.08787568,-0.05732372,-0.061453927,4.547083,-0.05470384,-0.08070321,-0.03964413,-0.048043087,2.2214718,-0.088005096,4.515453,-0.068662144,0.11690337,6.81926
MLXIPL,-0.04464405,-0.035196032,-0.054079484,-0.044420056,-0.03200385,2.42034,-0.027012583,-0.053205732,-0.02268921,-0.033985313,1.8342042,-0.047122385,2.8252797,-0.043775253,2.673093,2.6700342
EFTUD2,-0.04474152,-0.035285234,-0.05402436,-0.044409633,-0.03207737,2.4187968,-0.026980361,-0.053169187,-0.022672812,-0.03391868,1.8405727,-0.047089703,2.821072,-0.04392023,2.681255,2.6690261
CACYBP,-0.044626493,-0.03518853,-0.05401115,-0.044345856,-0.03198441,2.4163857,-0.026965117,-0.053115305,-0.022602446,-0.0339226,1.8368033,-0.047056302,2.817944,-0.043795917,2.679872,2.66608
ADNP,-0.044657204,-0.035272464,-0.054157104,-0.044435516,-0.032038894,2.423356,-0.027064146,-0.053228803,-0.022618081,-0.03399187,1.8369403,-0.04717646,2.8215814,-0.04385562,2.6834052,2.6745427
TRIM22,-0.06587405,-0.06495924,-0.08787568,-0.05732372,-0.061453927,4.547083,-0.05470384,-0.08070321,-0.03964413,-0.048043087,2.2214718,-0.088005096,4.515453,-0.068662144,0.11690337,6.81926
BRIX1,-0.04460463,-0.035154484,-0.053970687,-0.044325355,-0.031968825,2.4165561,-0.02693436,-0.053086597,-0.022591574,-0.033891603,1.8329973,-0.047018696,2.816451,-0.04375233,2.6803012,2.6635249
POLR2K,-0.04458085,-0.035153143,-0.053826742,-0.044264928,-0.03196253,2.4111836,-0.0268967,-0.05295521,-0.022607502,-0.03379797,1.8332214,-0.04690803,2.8101888,-0.043775693,2.6787221,2.6551416
CREB1,-0.05593074,-0.054839253,-0.07439256,-0.04703997,-0.054112315,4.0218153,-0.047281194,-0.06757815,-0.033972878,-0.03942163,1.8225422,-0.0763422,3.9273791,-0.056534007,-0.0024559014,5.914145
POLR2B,-0.045150742,-0.03569577,-0.05458728,-0.044748053,-0.0324553,2.4451613,-0.027318276,-0.053704403,-0.022937138,-0.034237105,1.850868,-0.047566995,2.8464022,-0.04436685,2.6773858,2.7158294
SRSF3,-0.04490263,-0.035412665,-0.054266326,-0.0445546,-0.03223942,2.436456,-0.027161976,-0.053384583,-0.022799138,-0.034036797,1.842566,-0.047368173,2.8360524,-0.044023003,2.6727881,2.6929672
OCIAD2,-0.03210763,-0.025487985,-0.0561873,-0.03798433,-0.02325512,1.3468205,-0.021262417,-0.054287147,-0.021352338,-0.034039304,1.4427357,-0.03758887,3.1013508,-0.031210044,1.8124464,1.9070933
HIST1H1B,-0.04638626,-0.036834408,-0.055899203,-0.04550304,-0.033533547,2.5051682,-0.02820807,-0.054974236,-0.023812484,-0.034915242,1.8877716,-0.048666347,2.905085,-0.04563366,2.6380768,2.847788
SSBP3,-0.044195283,-0.034687504,-0.053495128,-0.043906927,-0.03160856,2.398682,-0.026593996,-0.052577127,-0.022376494,-0.033616934,1.809068,-0.046565555,2.791882,-0.04327483,2.668889,2.6329262
TAF1A,-0.0445806,-0.03517733,-0.054049015,-0.04433425,-0.031969212,2.4189284,-0.02700207,-0.053118423,-0.022560371,-0.033933025,1.8313923,-0.04707999,2.8165245,-0.04373371,2.6802785,2.6701362
NOP16,-0.044811115,-0.035357006,-0.05423037,-0.04448823,-0.03214472,2.4281235,-0.027107205,-0.05333372,-0.022708615,-0.034042083,1.8412207,-0.047257833,2.8295016,-0.04396728,2.6785474,2.6859198
SERPIND1,-0.044880826,-0.035463214,-0.054319136,-0.044574644,-0.032223597,2.431816,-0.02717268,-0.05340239,-0.022728596,-0.034080427,1.8439214,-0.04737595,2.832974,-0.044077706,2.685987,2.692622
TOP2B,-0.039768755,-0.037312094,-0.055707164,-0.04247115,-0.026558004,2.156387,-0.029588982,-0.052296326,-0.02057183,-0.03796329,1.4598293,-0.04748636,2.8882031,-0.038374882,2.1599035,2.2649977
GEMIN2,-0.044907086,-0.035421457,-0.054308027,-0.044559266,-0.032227647,2.4324832,-0.02714868,-0.053438187,-0.022795286,-0.034079015,1.844202,-0.04734752,2.836658,-0.044049256,2.6754262,2.6925023
ABT1,-0.044774342,-0.035295118,-0.054159697,-0.04444288,-0.032123275,2.4258096,-0.027057981,-0.053281263,-0.022717485,-0.033997312,1.8401256,-0.047201246,2.8282351,-0.04392412,2.67454,2.6804452
MED21,-0.04456112,-0.03521593,-0.05405512,-0.04427124,-0.031975687,2.4214506,-0.027082743,-0.053077765,-0.022543004,-0.033932354,1.8268936,-0.04707132,2.8103752,-0.04372984,2.6747916,2.6787868
EPHX2,-0.04466677,-0.035275895,-0.054222878,-0.04443437,-0.032055825,2.425487,-0.027129142,-0.053276904,-0.02262155,-0.034033395,1.8358028,-0.04725836,2.826261,-0.043814354,2.6783993,2.683442
TFE3,-0.044962075,-0.035488382,-0.054330006,-0.044616584,-0.03224878,2.4354537,-0.027199201,-0.053437226,-0.022793766,-0.03409004,1.8444972,-0.04740109,2.8377957,-0.044078853,2.6737223,2.6968353
S100A16,-0.044547215,-0.03512562,-0.053991728,-0.044300426,-0.031933997,2.4159212,-0.026949083,-0.053069312,-0.022547841,-0.03389993,1.8301746,-0.047026165,2.814847,-0.043696865,2.6802692,2.6650813
MMS19,-0.044388454,-0.03488079,-0.053612974,-0.04405572,-0.03173389,2.4007068,-0.026709914,-0.052778,-0.022509135,-0.033717208,1.825851,-0.046633728,2.8011951,-0.043481372,2.6654923,2.6375585
ENO1,-0.044457898,-0.03500161,-0.05373383,-0.04418706,-0.031806406,2.4044847,-0.026788255,-0.052879136,-0.022523751,-0.03377661,1.8295954,-0.046800774,2.8076348,-0.04360288,2.6770427,2.6436005
TBPL1,-0.044781405,-0.035311308,-0.054113057,-0.04442568,-0.032103814,2.4238954,-0.027026005,-0.05323797,-0.022691226,-0.03397441,1.8401848,-0.047128208,2.8228512,-0.043943137,2.6775963,2.6774163
CNOT10,-0.03958295,-0.035168167,-0.050411522,-0.041184686,-0.025069723,2.3395245,-0.020049715,-0.05153219,-0.017401908,-0.03578657,1.9313483,-0.044173498,2.6869726,-0.045898557,2.1449742,2.6671891
DPF2,-0.044708665,-0.035275996,-0.05417356,-0.04444606,-0.032070998,2.4237454,-0.027070023,-0.053248193,-0.022635158,-0.034003563,1.8363307,-0.04724782,2.8279705,-0.04385133,2.6833808,2.68032
DNAJC2,-0.044633258,-0.035176344,-0.05391314,-0.044313774,-0.031960484,2.413172,-0.026927825,-0.05303773,-0.022615392,-0.03387332,1.8352757,-0.046966095,2.81531,-0.04379556,2.6794357,2.66117
AKR1B1,-0.044382896,-0.034941807,-0.05375939,-0.04414848,-0.03177393,2.4054239,-0.026806375,-0.05286641,-0.022473717,-0.033783283,1.8239398,-0.0468074,2.806263,-0.043498628,2.6763282,2.6461003
H1F0,-0.04492074,-0.03547039,-0.054366462,-0.044557963,-0.032249816,2.4341686,-0.027200282,-0.053437784,-0.02275957,-0.034106284,1.844128,-0.04736599,2.8318753,-0.044106115,2.6805003,2.70094
FUBP1,-0.044803213,-0.03535521,-0.054149184,-0.044508234,-0.03218912,2.4228358,-0.027066788,-0.053292483,-0.022786533,-0.03396761,1.843333,-0.047275003,2.8315058,-0.044027448,2.6774004,2.6801157
KPNA2,-0.044659656,-0.035225954,-0.054066427,-0.04441997,-0.03202496,2.4175215,-0.026985401,-0.053186137,-0.022639478,-0.033949237,1.8373417,-0.047145933,2.8243885,-0.0438329,2.6818016,2.6680317
TNNI3,-0.04641067,-0.036856573,-0.05597093,-0.045533784,-0.033560935,2.5077019,-0.028246924,-0.0550349,-0.023833683,-0.034959443,1.8891959,-0.048731007,2.9087934,-0.045659523,2.637389,2.8526452
C11orf74,-0.044598956,-0.035163127,-0.05389732,-0.04430622,-0.0319565,2.4133964,-0.026910204,-0.05302255,-0.022583716,-0.03385176,1.8334274,-0.04697417,2.8137412,-0.043765288,2.6828666,2.6581514
HIF1AN,-0.044849053,-0.03540941,-0.054253004,-0.04452564,-0.032183647,2.4294853,-0.027142758,-0.05336049,-0.022726769,-0.034050465,1.8414958,-0.047306444,2.8314095,-0.044005208,2.6815777,2.6883657
PAWR,-0.04667398,-0.03228707,-0.0485941,-0.03888009,-0.033561885,2.707761,-0.022471396,-0.047823865,-0.02078424,-0.03195749,1.6510938,-0.04016388,2.955956,-0.040764663,2.4127269,2.450153
GSTK1,-0.04464817,-0.034883108,-0.056380935,-0.04363027,-0.032136314,2.4199648,-0.02790247,-0.053051714,-0.022606863,-0.03513054,2.083004,-0.045769982,2.7065954,-0.045266327,2.5472791,2.9333026
ZNF160,-0.045075748,-0.03563399,-0.054518037,-0.044660926,-0.032382328,2.4437344,-0.027306763,-0.05359034,-0.022833914,-0.034195583,1.8500153,-0.047495626,2.8371916,-0.04428946,2.6792893,2.7154078
PWP1,-0.044545878,-0.035116933,-0.053784616,-0.044229373,-0.031936716,2.4110627,-0.026830446,-0.052947506,-0.02255744,-0.033816785,1.8339183,-0.046862908,2.8130064,-0.04371639,2.672753,2.6528022
AHSG,-0.044618443,-0.03518155,-0.053912338,-0.044325165,-0.03195652,2.4129798,-0.02691663,-0.053044192,-0.022596566,-0.0338611,1.8346109,-0.04699117,2.8148408,-0.043781374,2.6822667,2.6587224
PRIM1,-0.04468525,-0.03522012,-0.054073844,-0.0443773,-0.032029238,2.4213192,-0.026997421,-0.053184457,-0.022640457,-0.033957794,1.8356218,-0.047103096,2.8221874,-0.04382379,2.6774886,2.6729827
NT5DC2,-0.04463711,-0.035127997,-0.053935297,-0.04430136,-0.03195984,2.4147038,-0.02691787,-0.053083036,-0.02263743,-0.03389746,1.8315979,-0.0470039,2.8220196,-0.043713484,2.6721535,2.6638763
MXD1,-0.044729855,-0.03524455,-0.054097194,-0.04440506,-0.0320614,2.4230137,-0.027006589,-0.053226985,-0.022686409,-0.033971597,1.8375932,-0.047124304,2.825379,-0.043864958,2.6746273,2.6748986
PLAGL2,-0.045106966,-0.035637356,-0.054486863,-0.044739988,-0.03243401,2.4430072,-0.027318431,-0.053609647,-0.022936856,-0.034152295,1.8535651,-0.047595613,2.8496985,-0.044282753,2.6776593,2.7087386
NCAPG,-0.044802587,-0.035410687,-0.054274887,-0.044547174,-0.032183923,2.4285834,-0.027131455,-0.053364184,-0.02270573,-0.034061328,1.8418307,-0.047339804,2.8313794,-0.044041377,2.6863177,2.686438
DLGAP5,-0.033648312,-0.0270245,-0.058391895,-0.03932332,-0.024686515,1.4298675,-0.02253672,-0.05641321,-0.022266412,-0.03520226,1.4952931,-0.039164953,3.2047448,-0.032741707,1.8174782,2.0570168
S100A14,-0.06587405,-0.06495924,-0.08787568,-0.05732372,-0.061453927,4.547083,-0.05470384,-0.08070321,-0.03964413,-0.048043087,2.2214718,-0.088005096,4.515453,-0.068662144,0.11690337,6.81926
EXOSC3,-0.044773724,-0.035312217,-0.054213542,-0.044450335,-0.032111615,2.4263835,-0.027105454,-0.053310364,-0.02270294,-0.034032404,1.839515,-0.04721816,2.8275867,-0.043914605,2.6751554,2.685684
ZNF202,-0.044652384,-0.03521714,-0.053963933,-0.04431982,-0.032021455,2.4173996,-0.026976807,-0.05306977,-0.022632798,-0.033881523,1.8346357,-0.047012012,2.8150806,-0.043831047,2.6769004,2.6677246
PCGF6,-0.04485635,-0.035406444,-0.05418453,-0.044483583,-0.03217239,2.4297152,-0.027081486,-0.053287122,-0.022722032,-0.033990543,1.8382112,-0.047184885,2.822362,-0.044028085,2.6820054,2.6840518
COPS2,-0.044873763,-0.03541934,-0.054238923,-0.044532027,-0.032201413,2.4293132,-0.027117498,-0.053355977,-0.022739967,-0.03403693,1.8425248,-0.04729463,2.8310027,-0.04404198,2.6824176,2.6875398
ZNF581,-0.04444714,-0.035004262,-0.053814176,-0.04418724,-0.03184879,2.4091868,-0.026866158,-0.052920308,-0.022524573,-0.033815518,1.827382,-0.046880506,2.8097653,-0.04357887,2.6754286,2.6516137
PLIN2,-0.04453648,-0.03509725,-0.053835675,-0.044280365,-0.03185106,2.4042222,-0.02683528,-0.052976903,-0.022580488,-0.03383151,1.8335117,-0.046947114,2.814818,-0.04371053,2.677396,2.6517289
SLC7A6,-0.044666156,-0.035229877,-0.05405334,-0.04438966,-0.032033876,2.4187431,-0.026989967,-0.05316135,-0.02262596,-0.033930935,1.8375305,-0.04711146,2.8198748,-0.043846115,2.6817107,2.6698742
ANAPC4,-0.04485863,-0.035390366,-0.054267645,-0.04450237,-0.0321969,2.4287515,-0.027121378,-0.053399038,-0.022798123,-0.034083776,1.8417566,-0.047268763,2.8337126,-0.044052128,2.6719368,2.6905067
SEPP1,-0.06587405,-0.06495924,-0.08787568,-0.05732372,-0.061453927,4.547083,-0.05470384,-0.08070321,-0.03964413,-0.048043087,2.2214718,-0.088005096,4.515453,-0.068662144,0.11690337,6.81926
MEST,-0.048443682,-0.035353478,-0.047246564,-0.042369805,-0.029198922,2.7103493,-0.0280089,-0.04626211,-0.02202178,-0.027466191,2.1747308,-0.04352151,2.4312878,-0.036224116,2.3452575,1.8777554
ATIC,-0.044810507,-0.035352245,-0.05415946,-0.04446333,-0.03213317,2.4250715,-0.027073357,-0.053288322,-0.022715552,-0.034005407,1.8421581,-0.047190297,2.8269296,-0.04397241,2.6772857,2.6808527
ZNF93,-0.06587405,-0.06495924,-0.08787568,-0.05732372,-0.061453927,4.547083,-0.05470384,-0.08070321,-0.03964413,-0.048043087,2.2214718,-0.088005096,4.515453,-0.068662144,0.11690337,6.81926
MT1X,-0.04442169,-0.03497618,-0.05382733,-0.04418442,-0.03184804,2.4105492,-0.026845219,-0.05292593,-0.022514982,-0.033799935,1.8260089,-0.046879057,2.8084526,-0.043555774,2.6739733,2.651124
CREG1,-0.04396913,-0.032344256,-0.04755182,-0.04360915,-0.03629942,2.7317135,-0.020817101,-0.049194835,-0.02494827,-0.030661331,1.1922898,-0.047367103,2.8678155,-0.040772464,2.3664248,2.5396497
ZNF638,-0.0448305,-0.03538416,-0.054137927,-0.044485066,-0.03215382,2.4238188,-0.027070006,-0.05327649,-0.022713192,-0.033988465,1.8420467,-0.047195815,2.8266177,-0.04399728,2.6826801,2.6793816
MYCBP,-0.06587405,-0.06495924,-0.08787568,-0.05732372,-0.061453927,4.547083,-0.05470384,-0.08070321,-0.03964413,-0.048043087,2.2214718,-0.088005096,4.515453,-0.068662144,0.11690337,6.81926
APOA1,-0.044731587,-0.035250995,-0.0540855,-0.04439642,-0.032070506,2.4210756,-0.02699966,-0.053220205,-0.0226834,-0.03395392,1.838286,-0.047136158,2.8230019,-0.04388242,2.6761038,2.6729152
YAE1D1,-0.06587405,-0.06495924,-0.08787568,-0.05732372,-0.061453927,4.547083,-0.05470384,-0.08070321,-0.03964413,-0.048043087,2.2214718,-0.088005096,4.515453,-0.068662144,0.11690337,6.81926
GLI2,-0.06587405,-0.06495924,-0.08787568,-0.05732372,-0.061453927,4.547083,-0.05470384,-0.08070321,-0.03964413,-0.048043087,2.2214718,-0.088005096,4.515453,-0.068662144,0.11690337,6.81926
EYA3,-0.044590633,-0.03514817,-0.0539801,-0.044338368,-0.03195204,2.4155266,-0.026962172,-0.053091798,-0.02259841,-0.033916447,1.832833,-0.047074884,2.8222833,-0.04372247,2.680029,2.6635954
RBPJ,-0.044608325,-0.035158437,-0.053979643,-0.044336107,-0.03200487,2.4151006,-0.026945869,-0.05311729,-0.022640621,-0.033903472,1.8343198,-0.047059126,2.8219438,-0.04378702,2.6750853,2.6668541
MUSTN1,-0.043980222,-0.034579955,-0.053779177,-0.043901447,-0.031537518,2.4020145,-0.026792245,-0.052792985,-0.022401838,-0.033776276,1.8107967,-0.046743494,2.801703,-0.043052543,2.6347232,2.6470392
TEAD2,-0.044098582,-0.034626905,-0.05360412,-0.043899044,-0.031567365,2.3981416,-0.026657438,-0.05266427,-0.022345707,-0.03368684,1.8124905,-0.046613254,2.7941327,-0.043175925,2.65746,2.638355
WDR5,-0.044400238,-0.034905966,-0.053759802,-0.044100966,-0.03177752,2.4063601,-0.026790231,-0.052872557,-0.022498092,-0.03379139,1.823626,-0.046772856,2.8058596,-0.04348619,2.6674616,2.6506908
TARDBP,-0.044848412,-0.035404887,-0.054269437,-0.04455739,-0.032190397,2.429768,-0.02712997,-0.0533932,-0.022759592,-0.034065645,1.8424286,-0.04732851,2.8357987,-0.044015445,2.6803937,2.6851723
HPN,-0.044863246,-0.035418544,-0.05427185,-0.04452804,-0.032212272,2.4314744,-0.02714813,-0.05337015,-0.022741191,-0.034051996,1.8419297,-0.04731574,2.8311973,-0.04403544,2.680565,2.690134
KLF6,-0.044454522,-0.035041727,-0.053812183,-0.044245247,-0.031857084,2.405459,-0.026842888,-0.052906975,-0.02253042,-0.033795293,1.8302428,-0.046938088,2.8117719,-0.043660335,2.6808414,2.6508367
HMGA2,-0.044647787,-0.03520167,-0.054074362,-0.0444105,-0.03199875,2.4158745,-0.02701094,-0.053167805,-0.022626165,-0.03393861,1.8322618,-0.047113948,2.8206162,-0.04383142,2.6854823,2.6738365
PRC1,-0.044608578,-0.035184387,-0.053939313,-0.0443503,-0.031980276,2.4128819,-0.026929552,-0.05307477,-0.022624884,-0.033885695,1.8364171,-0.04701667,2.818223,-0.043807413,2.6820517,2.6580536
CHAF1A,-0.044447616,-0.034991417,-0.0536933,-0.04417331,-0.031807818,2.4037542,-0.02674378,-0.052839518,-0.022509463,-0.03373735,1.8289115,-0.046807546,2.8062472,-0.043606836,2.6803653,2.639734
BMP2,-0.044851307,-0.035600126,-0.05527625,-0.04306104,-0.03283459,2.5925734,-0.028929228,-0.05336762,-0.023196382,-0.034517087,1.7875504,-0.049404528,2.9285674,-0.04324145,2.1883202,3.0796673
CEBPD,-0.060522493,-0.057068747,-0.0792337,-0.051994264,-0.055615276,4.206628,-0.048456386,-0.0726443,-0.03591281,-0.04277916,2.043243,-0.0784767,4.0851784,-0.06133251,0.19355148,6.143641
FOSB,-0.04428576,-0.034800466,-0.053503416,-0.044008445,-0.03165359,2.3959644,-0.026609166,-0.052647952,-0.02243331,-0.033642888,1.8216777,-0.046609297,2.7969413,-0.043425087,2.6749337,2.6263697
CXXC1,-0.044712108,-0.03526291,-0.05408115,-0.04443537,-0.032073665,2.4188054,-0.027006526,-0.05321702,-0.022685664,-0.033950705,1.8380187,-0.04716753,2.8275747,-0.04388459,2.6782634,2.6744735
ELAVL2,-0.06587405,-0.06495924,-0.08787568,-0.05732372,-0.061453927,4.547083,-0.05470384,-0.08070321,-0.03964413,-0.048043087,2.2214718,-0.088005096,4.515453,-0.068662144,0.11690337,6.81926
PRAP1,-0.044606943,-0.035192687,-0.054131802,-0.04437348,-0.031994622,2.4213974,-0.027042374,-0.053190764,-0.022595104,-0.033984955,1.8341694,-0.047158893,2.8215895,-0.043768138,2.678452,2.6756055
MRPS27,-0.045082178,-0.03565115,-0.05451383,-0.044728708,-0.03237694,2.4399762,-0.027299533,-0.053610735,-0.022871383,-0.034177296,1.846459,-0.04755339,2.8443546,-0.04423702,2.6788242,2.7104297
ATL2,-0.0425316,-0.041068643,-0.048929844,-0.03685016,-0.037584353,2.3444204,-0.029019736,-0.049000196,-0.01606657,-0.02607272,1.7192858,-0.048527095,2.1079724,-0.047770653,2.251104,3.2446954
ARG2,-0.044736933,-0.035225566,-0.05407821,-0.0443539,-0.032067645,2.424405,-0.026966225,-0.05317025,-0.022654593,-0.033949934,1.835041,-0.047095932,2.8196068,-0.043889668,2.6764348,2.6792057
SIRT1,-0.045015242,-0.031873725,-0.054024525,-0.041244317,-0.03193139,2.510219,-0.023918571,-0.0521487,-0.022272378,-0.033273656,1.8264463,-0.044283323,2.671609,-0.044051606,2.7092807,2.3976552
SMC4,-0.03396114,-0.027383985,-0.05892931,-0.03963484,-0.025001504,1.444708,-0.022822782,-0.0569314,-0.022516245,-0.035504017,1.506802,-0.039572902,3.232263,-0.03313627,1.811281,2.093419
PITX2,-0.06587405,-0.06495924,-0.08787568,-0.05732372,-0.061453927,4.547083,-0.05470384,-0.08070321,-0.03964413,-0.048043087,2.2214718,-0.088005096,4.515453,-0.068662144,0.11690337,6.81926
SIRT2,-0.04457307,-0.035074573,-0.053718016,-0.044195548,-0.03192635,2.407123,-0.02679962,-0.05290272,-0.022594562,-0.03375238,1.8350798,-0.04682737,2.8086233,-0.043716114,2.6748688,2.648888
E2F8,-0.04450014,-0.035015643,-0.053837378,-0.044226006,-0.031843908,2.4087853,-0.026824307,-0.052964877,-0.02253949,-0.033794835,1.8327826,-0.046815474,2.8099556,-0.043634046,2.6708174,2.6526678
ARID3B,-0.04438311,-0.034949854,-0.05362281,-0.044128444,-0.031755295,2.4005647,-0.026752446,-0.052772168,-0.022480207,-0.033708796,1.8249924,-0.04672544,2.803681,-0.04351114,2.6799846,2.6342633
POLR3E,-0.04551551,-0.035794783,-0.057359107,-0.044377316,-0.032907095,2.4673991,-0.028566496,-0.05401091,-0.02307968,-0.035652354,2.1139026,-0.04676508,2.7566142,-0.04620738,2.55707,3.0132318
NUPR1,-0.044821065,-0.03536552,-0.05424956,-0.044482637,-0.032153726,2.4283245,-0.027117755,-0.053328082,-0.02269978,-0.034042254,1.8394003,-0.04726247,2.8276386,-0.043969598,2.6805308,2.6893647
YAF2,-0.044272646,-0.034850013,-0.05360657,-0.044034958,-0.031678427,2.3990045,-0.026734501,-0.05271285,-0.022422018,-0.0336958,1.8212714,-0.04666315,2.7969174,-0.043405507,2.6726778,2.6351025
GPM6B,-0.06587405,-0.06495924,-0.08787568,-0.05732372,-0.061453927,4.547083,-0.05470384,-0.08070321,-0.03964413,-0.048043087,2.2214718,-0.088005096,4.515453,-0.068662144,0.11690337,6.81926
PHGDH,-0.044567674,-0.03505191,-0.05398786,-0.04425694,-0.03190829,2.4132354,-0.026954787,-0.053130396,-0.02270691,-0.03392388,1.8327494,-0.046954267,2.8222318,-0.04363384,2.6545703,2.6645117
MTHFD2,-0.045028534,-0.03551592,-0.05445636,-0.04464049,-0.032315526,2.4391835,-0.027229346,-0.05357472,-0.022887183,-0.034168337,1.8490531,-0.047451794,2.8436666,-0.04416179,2.6708925,2.7038991
ECHDC2,-0.039462544,-0.035231937,-0.050514955,-0.041205734,-0.025026735,2.3422933,-0.020148994,-0.051545523,-0.017271342,-0.035844147,1.9297198,-0.044301406,2.6834102,-0.045899753,2.1525238,2.6753144
TCEB3,-0.06587405,-0.06495924,-0.08787568,-0.05732372,-0.061453927,4.547083,-0.05470384,-0.08070321,-0.03964413,-0.048043087,2.2214718,-0.088005096,4.515453,-0.068662144,0.11690337,6.81926
FANCB,-0.046880722,-0.037474323,-0.056726396,-0.046028364,-0.034328613,2.5504458,-0.028984603,-0.05565569,-0.024445908,-0.035193827,1.893118,-0.0497045,2.961721,-0.046263736,2.6034253,2.9348147
DEK,-0.04464712,-0.035237573,-0.054109666,-0.04437287,-0.03202201,2.42131,-0.027042491,-0.05316828,-0.022593498,-0.033971064,1.8340775,-0.047144253,2.8194523,-0.043819487,2.6823049,2.676874
SGK1,-0.044675153,-0.035197906,-0.0541095,-0.044387806,-0.03202396,2.4206288,-0.02700954,-0.053202286,-0.022667501,-0.033973284,1.837674,-0.047119554,2.823207,-0.043818098,2.6760254,2.6728935
TAF11,-0.04453074,-0.035054006,-0.053752016,-0.044209264,-0.03187292,2.4065342,-0.026797103,-0.052911606,-0.022568516,-0.03378129,1.8317144,-0.046841178,2.8101459,-0.04368069,2.676981,2.6474397
PA2G4,-0.043897577,-0.036512177,-0.051149596,-0.039903283,-0.031979576,2.2549171,-0.027341539,-0.052987806,-0.019414913,-0.031613316,1.6997144,-0.04524547,2.4234633,-0.04308847,2.3411744,2.8188767
TMEM120A,-0.04495819,-0.035478197,-0.054363303,-0.04456444,-0.032260142,2.4363947,-0.027166871,-0.053460903,-0.02279445,-0.03410254,1.8445858,-0.04732098,2.8311338,-0.044129055,2.6759129,2.6985843
TDGF1,-0.044397347,-0.035003595,-0.053867172,-0.04423023,-0.031821966,2.4108388,-0.026846936,-0.052968435,-0.022504747,-0.0338157,1.8266361,-0.046872802,2.807602,-0.04356897,2.6752992,2.6481094
PON2,-0.044658933,-0.035214137,-0.054050993,-0.044368725,-0.03202647,2.4206083,-0.026977453,-0.05315205,-0.022610428,-0.033923514,1.833891,-0.047083944,2.8176894,-0.04381281,2.6811953,2.670783
THAP1,-0.04511763,-0.035439122,-0.05449585,-0.044668563,-0.032379013,2.4483414,-0.027185697,-0.053561345,-0.022979531,-0.03419059,1.836167,-0.047560662,2.84898,-0.04423501,2.685835,2.7217338
ITGB5,-0.041476034,-0.029009907,-0.0488993,-0.040862594,-0.03127342,1.860776,-0.02014972,-0.048844498,-0.022899738,-0.030738333,2.059478,-0.041693013,2.7070465,-0.042957418,2.8462017,2.0371163
HNRNPK,-0.044726815,-0.03525709,-0.05417288,-0.04441089,-0.032093965,2.425511,-0.02706028,-0.053265825,-0.022676965,-0.034000892,1.83874,-0.047193374,2.8254185,-0.04387336,2.6738536,2.6814146
HP,-0.04481501,-0.035365064,-0.054252576,-0.04451694,-0.03215842,2.4288971,-0.027127462,-0.05336213,-0.022721592,-0.034049515,1.8413436,-0.04730922,2.8329039,-0.043961562,2.6794646,2.686525
TCF19,-0.04464649,-0.03518621,-0.054061096,-0.044340737,-0.03202363,2.421485,-0.026981017,-0.05316076,-0.022615999,-0.033924654,1.83311,-0.047073822,2.8165655,-0.043785714,2.6751707,2.6738536
BTG2,-0.044990797,-0.03550739,-0.05440339,-0.044572767,-0.032306988,2.4381092,-0.027202966,-0.053546246,-0.022894975,-0.034177907,1.8487918,-0.04736868,2.843948,-0.044153813,2.6574907,2.7059066
PLCD1,-0.06536705,-0.061695654,-0.07998477,-0.05256382,-0.05991645,4.123289,-0.05812489,-0.074078254,-0.046099696,-0.044355426,2.2541666,-0.08142233,4.111247,-0.06847485,-0.0029349844,6.9977617
UHRF1,-0.043943483,-0.034523416,-0.05317109,-0.043732952,-0.03138441,2.3797662,-0.026461486,-0.052316178,-0.02227124,-0.033459354,1.8115536,-0.04623361,2.7758574,-0.04306663,2.662282,2.5986152
INMT,-0.045042302,-0.035686232,-0.054588746,-0.044784836,-0.032411,2.445564,-0.027371056,-0.05367644,-0.022819191,-0.03425629,1.8515408,-0.0477297,2.8574877,-0.04423121,2.6833045,2.7148092
GMNN,-0.044770993,-0.035310093,-0.054128997,-0.04443554,-0.032100208,2.4243627,-0.027045898,-0.053242654,-0.022682147,-0.03398826,1.8378338,-0.047169913,2.8254414,-0.043919045,2.6800404,2.6788576
PEMT,-0.044516146,-0.035077162,-0.053844098,-0.044240665,-0.031876612,2.410101,-0.026872631,-0.052967627,-0.022546353,-0.03383492,1.8309333,-0.046888527,2.8105984,-0.04366187,2.678368,2.6527033
C12orf10,-0.04488097,-0.035404146,-0.054298356,-0.044533808,-0.032206636,2.4327645,-0.027121186,-0.05340526,-0.022756586,-0.03407026,1.8430456,-0.047303114,2.831946,-0.044049602,2.677331,2.691766
MLF1,-0.04436144,-0.03487289,-0.053656634,-0.044133466,-0.03168405,2.4021175,-0.026705401,-0.05275069,-0.02244655,-0.033725526,1.8230602,-0.046769656,2.8050494,-0.043462656,2.6725261,2.6392086
SEC11C,-0.04513712,-0.03571824,-0.05449522,-0.044717807,-0.032429226,2.4430447,-0.027311632,-0.053598225,-0.022878475,-0.034156702,1.8496056,-0.047466774,2.8357763,-0.0443503,2.684358,2.7104585
FOXP1,-0.04497414,-0.035534,-0.05437602,-0.04461372,-0.032290585,2.4363382,-0.027207281,-0.05347339,-0.022785833,-0.034112528,1.8452426,-0.0474028,2.8352075,-0.04416045,2.6834476,2.6992872
SKIL,-0.0445151,-0.035046104,-0.053880975,-0.044240635,-0.031863745,2.4100785,-0.026863117,-0.05299701,-0.022545304,-0.03386122,1.8311883,-0.046922736,2.8132777,-0.04364699,2.6758876,2.6566658
EGR1,-0.044084564,-0.03465455,-0.053282265,-0.043876365,-0.031489998,2.3845692,-0.026532177,-0.052458037,-0.022343202,-0.03352682,1.8163484,-0.04636351,2.7860966,-0.043197203,2.6710167,2.6042519
WDR12,-0.044763517,-0.035290144,-0.054204706,-0.04442305,-0.03207314,2.430706,-0.027106749,-0.053278416,-0.022662083,-0.03405122,1.8388832,-0.04726894,2.8306694,-0.043861058,2.6697702,2.689608
RAD51C,-0.044667814,-0.035180848,-0.053976458,-0.044344656,-0.031978846,2.4144647,-0.026905198,-0.05310194,-0.022634456,-0.033902314,1.8373593,-0.047040857,2.8189268,-0.043835826,2.6776466,2.6657157
HMMR,-0.044744227,-0.03531511,-0.054132316,-0.044409264,-0.032155164,2.4294007,-0.02704929,-0.05324683,-0.022692807,-0.033985533,1.8377854,-0.04717003,2.8271503,-0.04391877,2.6677897,2.6828701
DCTPP1,-0.044902366,-0.03546099,-0.054332122,-0.044583783,-0.032249346,2.4337363,-0.027197812,-0.05343832,-0.022784198,-0.03408019,1.8434765,-0.047386423,2.8365235,-0.044065855,2.6791103,2.6945093
MYCN,-0.04885117,-0.03574731,-0.047528088,-0.042694382,-0.029519074,2.727732,-0.028231775,-0.046579674,-0.022232773,-0.027587261,2.1924233,-0.04388936,2.4509673,-0.036616538,2.3530855,1.897745
EIF5B,-0.03983254,-0.03742596,-0.055772655,-0.04254424,-0.026628027,2.1574137,-0.029642902,-0.052370206,-0.020602535,-0.03800318,1.462387,-0.04757224,2.8922467,-0.038487557,2.1631267,2.268816
PLK1,-0.04476137,-0.03531576,-0.054200575,-0.04445011,-0.03210572,2.4269066,-0.027081748,-0.053286962,-0.022667868,-0.03401987,1.8377552,-0.047214653,2.825563,-0.04390838,2.6793258,2.6833751
DPYSL2,-0.044797458,-0.03525965,-0.054129615,-0.044370912,-0.032114208,2.425971,-0.027002314,-0.053224266,-0.022714734,-0.033965312,1.8348646,-0.047115095,2.8212023,-0.043919735,2.6715267,2.6854546
CDCA3,-0.044801954,-0.0353399,-0.054157402,-0.04448955,-0.032166936,2.4264,-0.027108356,-0.05328165,-0.02276988,-0.033977933,1.8370218,-0.047253776,2.8332038,-0.043947324,2.67658,2.682491
BCOR,-0.045365743,-0.03581353,-0.05467983,-0.04477449,-0.032589294,2.448069,-0.027447924,-0.05383547,-0.023191975,-0.03429205,1.8555053,-0.04761655,2.857283,-0.044481277,2.651862,2.7340243
FAM114A1,-0.044557683,-0.035106864,-0.053978324,-0.044301704,-0.03192833,2.416845,-0.026913796,-0.05306145,-0.022560375,-0.033891167,1.8315246,-0.046997897,2.8139749,-0.043694284,2.6794662,2.661406
TTC39C,-0.04474834,-0.035348687,-0.05417914,-0.044479955,-0.032116685,2.4249222,-0.027088977,-0.05325903,-0.022645801,-0.033997074,1.8388789,-0.047249224,2.8248534,-0.043940004,2.6878178,2.6804757
TIMM21,-0.044305038,-0.034835115,-0.053504102,-0.04407912,-0.031700492,2.392804,-0.026679764,-0.052664112,-0.022438142,-0.033658862,1.8248247,-0.04662896,2.8032455,-0.043392744,2.678367,2.6272109
RFC2,-0.045270503,-0.036010806,-0.05467791,-0.044964686,-0.032343946,2.4697924,-0.027549796,-0.05382715,-0.023036676,-0.03424957,1.8482344,-0.047198653,2.8275466,-0.044548128,2.698321,2.6865554
GULP1,-0.06587405,-0.06495924,-0.08787568,-0.05732372,-0.061453927,4.547083,-0.05470384,-0.08070321,-0.03964413,-0.048043087,2.2214718,-0.088005096,4.515453,-0.068662144,0.11690337,6.81926
ILF2,-0.048831843,-0.035669938,-0.047600087,-0.042646646,-0.029491305,2.7342916,-0.028279154,-0.046633534,-0.022281801,-0.027652612,2.1884866,-0.04389896,2.4546437,-0.03652899,2.3341925,1.9096487
ZNF567,-0.044996202,-0.03551168,-0.05451235,-0.044673312,-0.032298766,2.4400847,-0.027257519,-0.053611707,-0.022820791,-0.034163084,1.8474689,-0.04749402,2.8463283,-0.04413551,2.6722226,2.710037
ACTL6A,-0.04494339,-0.035460398,-0.05433706,-0.044568393,-0.032258842,2.4359925,-0.027173072,-0.05344504,-0.022788204,-0.034089267,1.8459135,-0.047362585,2.834374,-0.044097304,2.6772788,2.6967602
COPS5,-0.04506629,-0.035620525,-0.054476812,-0.044674262,-0.032357868,2.4389641,-0.027269997,-0.05357513,-0.022842892,-0.03416422,1.8493596,-0.04749177,2.8381987,-0.044270236,2.6830094,2.7073004
BPHL,-0.044778485,-0.035256945,-0.05413734,-0.044427328,-0.03209371,2.4237444,-0.027014358,-0.05326385,-0.022753345,-0.033979442,1.8390635,-0.047115177,2.8258548,-0.043898463,2.6718106,2.6763875
SSBP2,-0.044695266,-0.035246857,-0.05413419,-0.044400863,-0.032052394,2.4228413,-0.027032532,-0.053219363,-0.022639055,-0.033977192,1.835703,-0.04714382,2.8218093,-0.043845847,2.67926,2.677665
TM4SF4,-0.04504795,-0.035655905,-0.054620914,-0.04479722,-0.032386884,2.4439044,-0.027394034,-0.053693056,-0.02283957,-0.034249023,1.8508012,-0.047744136,2.855599,-0.044211317,2.687143,2.713669
XBP1,-0.044969156,-0.035443865,-0.054380525,-0.044606045,-0.032268662,2.4364967,-0.027210316,-0.053511232,-0.022881033,-0.03411836,1.8499645,-0.047423363,2.8435802,-0.044065967,2.6682398,2.6963646
SCGB3A2,-0.06670449,-0.06703397,-0.08091705,-0.060231637,-0.058685664,4.151882,-0.05329632,-0.07477453,-0.040458065,-0.044470098,2.396341,-0.08257302,4.38372,-0.07194813,0.53339356,6.14484
TFRC,-0.044757638,-0.035287652,-0.054078124,-0.044410713,-0.032088228,2.4209194,-0.027003469,-0.053197604,-0.022673175,-0.033957273,1.8400118,-0.047134385,2.8232045,-0.043928355,2.6804101,2.6753044
BUB1,-0.044566195,-0.03509627,-0.053981952,-0.044283394,-0.03192904,2.4151387,-0.026946358,-0.053085726,-0.02258862,-0.033908363,1.8311847,-0.047009453,2.817956,-0.04367458,2.673554,2.6660438
DKC1,-0.06587405,-0.06495924,-0.08787568,-0.05732372,-0.061453927,4.547083,-0.05470384,-0.08070321,-0.03964413,-0.048043087,2.2214718,-0.088005096,4.515453,-0.068662144,0.11690337,6.81926
SSRP1,-0.044785302,-0.03535926,-0.054220103,-0.044501867,-0.032144986,2.4279423,-0.027098147,-0.053316254,-0.022685446,-0.03401769,1.840184,-0.04726451,2.8271885,-0.043966096,2.683933,2.683226
GATAD2B,-0.044668008,-0.035231005,-0.05409205,-0.044386912,-0.032052014,2.4234657,-0.027035471,-0.053171497,-0.022630798,-0.033945024,1.8359787,-0.047152013,2.821394,-0.04382689,2.6794164,2.6750872
PHB2,-0.04842122,-0.03530693,-0.047124546,-0.042328037,-0.029163888,2.7036207,-0.027921537,-0.04618637,-0.02202426,-0.027411694,2.1748955,-0.043419495,2.429792,-0.036212035,2.3456666,1.8681387
CYP3A5,-0.044895854,-0.03550835,-0.05428357,-0.044671305,-0.032216072,2.4272606,-0.027172118,-0.05340376,-0.022763552,-0.03404173,1.8416822,-0.04735423,2.834362,-0.04414082,2.6961174,2.6855056
DPH6,-0.04498423,-0.035509214,-0.054419607,-0.04462345,-0.032293346,2.438504,-0.027207263,-0.05351835,-0.022816824,-0.03413587,1.8472806,-0.04741966,2.837719,-0.04414739,2.6779425,2.7004824
MORN2,-0.044712752,-0.035265565,-0.054147076,-0.04441111,-0.03206675,2.4237664,-0.027036749,-0.05323009,-0.022647128,-0.033984717,1.8370259,-0.04714702,2.8213086,-0.0438839,2.680061,2.678768
DDIT3,-0.044498365,-0.035059143,-0.05387091,-0.044266064,-0.031862475,2.4084463,-0.026873168,-0.052994568,-0.022531437,-0.033845995,1.831479,-0.046942934,2.813571,-0.04363327,2.6801486,2.6534014
FANCL,-0.044820573,-0.03536174,-0.054185484,-0.044467643,-0.03214212,2.4272394,-0.027084984,-0.053295918,-0.022707313,-0.03401893,1.8393078,-0.04720932,2.8268185,-0.043971475,2.6794298,2.6840355
TMEM37,-0.04473268,-0.035245005,-0.05413974,-0.044413354,-0.032069933,2.4232602,-0.027028315,-0.053257696,-0.022696763,-0.033998907,1.8393954,-0.047168244,2.827426,-0.043874502,2.6728961,2.6781049
ETS1,-0.044461567,-0.035055175,-0.05411474,-0.044290546,-0.03187833,2.4174511,-0.026986977,-0.05315801,-0.022582397,-0.033985697,1.8329768,-0.047089,2.8169289,-0.043665823,2.6668684,2.668039
THAP11,-0.044072855,-0.034607876,-0.053235576,-0.04382831,-0.031488527,2.385549,-0.026456589,-0.05240939,-0.022329666,-0.033486076,1.8146465,-0.046334643,2.7831154,-0.043185804,2.6709769,2.6010413
JMJD1C,-0.044569593,-0.035103746,-0.053895704,-0.044275727,-0.031905726,2.4117396,-0.026885375,-0.053018384,-0.022574667,-0.033867646,1.8318832,-0.04695803,2.8151865,-0.043708783,2.678189,2.6588583
HDAC2,-0.056205645,-0.053437896,-0.07430888,-0.048123896,-0.052760486,4.0243964,-0.046088457,-0.06764945,-0.033617903,-0.03944754,1.8529284,-0.07447316,3.8726187,-0.056310773,-0.00018484883,5.8215804
NVL,-0.04467253,-0.035263598,-0.054154642,-0.044434853,-0.03204498,2.4235964,-0.02705712,-0.053229358,-0.02261954,-0.033993192,1.8364199,-0.04719906,2.8239818,-0.043842137,2.6833608,2.6759279
TK1,-0.044925146,-0.035469793,-0.05430301,-0.04456965,-0.032238916,2.4326596,-0.0271652,-0.05341953,-0.022770418,-0.034074858,1.843117,-0.047342576,2.833899,-0.044073634,2.6810143,2.6925313
ASL,-0.045238316,-0.035720453,-0.05464129,-0.044761367,-0.032494623,2.4494095,-0.027349902,-0.053743754,-0.022966659,-0.03425736,1.8526306,-0.047623005,2.8493714,-0.04438128,2.6736038,2.7246313
ZIC2,-0.06587405,-0.06495924,-0.08787568,-0.05732372,-0.061453927,4.547083,-0.05470384,-0.08070321,-0.03964413,-0.048043087,2.2214718,-0.088005096,4.515453,-0.068662144,0.11690337,6.81926
LITAF,-0.044421658,-0.035001528,-0.053931035,-0.044187874,-0.031839408,2.4126692,-0.026902953,-0.052980956,-0.022495564,-0.03387446,1.8265009,-0.04692737,2.8077292,-0.043582704,2.6723857,2.6622267
KHDRBS1,-0.06587405,-0.06495924,-0.08787568,-0.05732372,-0.061453927,4.547083,-0.05470384,-0.08070321,-0.03964413,-0.048043087,2.2214718,-0.088005096,4.515453,-0.068662144,0.11690337,6.81926
TPM2,-0.043980222,-0.034579955,-0.053779177,-0.043901447,-0.031537518,2.4020145,-0.026792245,-0.052792985,-0.022401838,-0.033776276,1.8107967,-0.046743494,2.801703,-0.043052543,2.6347232,2.6470392
EZH2,-0.051522844,-0.042550612,-0.06355535,-0.05050036,-0.038565826,2.923817,-0.0334023,-0.062151305,-0.026607363,-0.03929511,2.0866363,-0.05668485,3.294526,-0.051193893,2.576677,3.538528
ACADVL,-0.044734214,-0.03529372,-0.05421951,-0.04445282,-0.032092568,2.4263382,-0.027082657,-0.053292602,-0.022660485,-0.034031942,1.8396195,-0.047241442,2.826295,-0.043904115,2.6791015,2.683393
ATP1B3,-0.04464778,-0.035114124,-0.054014042,-0.044275936,-0.031962816,2.4151776,-0.026933756,-0.05314446,-0.022677321,-0.033932198,1.8337605,-0.046984058,2.8181744,-0.043751504,2.6645718,2.6701014
NDUFAF7,-0.06587405,-0.06495924,-0.08787568,-0.05732372,-0.061453927,4.547083,-0.05470384,-0.08070321,-0.03964413,-0.048043087,2.2214718,-0.088005096,4.515453,-0.068662144,0.11690337,6.81926
UQCC1,-0.044683892,-0.03521992,-0.054026823,-0.04436093,-0.032024954,2.4188607,-0.02698031,-0.05315154,-0.022639763,-0.033930298,1.8365698,-0.047065575,2.819912,-0.04382669,2.6777327,2.669891
TCEB2,-0.062162556,-0.06655853,-0.08910381,-0.055895366,-0.057326607,4.3464327,-0.05666527,-0.08003256,-0.038077362,-0.051065996,1.9370348,-0.088306494,4.566108,-0.064558044,-0.0027209574,6.510517
LEAP2,-0.044984408,-0.035544787,-0.054473218,-0.04466551,-0.032319337,2.4395437,-0.02726635,-0.05356831,-0.02281251,-0.034160536,1.8479886,-0.0475117,2.8414488,-0.044159282,2.6807268,2.7048485
MST1,-0.044856794,-0.035376724,-0.054236367,-0.04448441,-0.032165468,2.4298992,-0.027107267,-0.053357653,-0.022746861,-0.03404827,1.8408861,-0.047225986,2.829103,-0.043986186,2.673383,2.687612
GSN,-0.044504102,-0.035075605,-0.053900454,-0.044277806,-0.031871047,2.4104054,-0.026885636,-0.052997343,-0.022533128,-0.033862147,1.8318886,-0.046956725,2.8128185,-0.043660402,2.6820605,2.6541176
BBS9,-0.0449137,-0.03545884,-0.05429434,-0.044547923,-0.032226328,2.4320304,-0.027165093,-0.05340606,-0.022768684,-0.034078736,1.8431724,-0.047315758,2.8327446,-0.044072747,2.6792164,2.6930573
TCOF1,-0.044733446,-0.035402745,-0.054265764,-0.044537596,-0.03210177,2.424006,-0.027184488,-0.053321354,-0.022633638,-0.034008123,1.8351387,-0.04729618,2.8288913,-0.04390003,2.6806567,2.6893091
PARPBP,-0.044741027,-0.035296794,-0.054161236,-0.04444119,-0.032083828,2.4249895,-0.027068276,-0.053264275,-0.022668125,-0.03400542,1.8380902,-0.04719181,2.8261242,-0.04388799,2.6789749,2.6794074
SRSF6,-0.044195283,-0.034687504,-0.053495128,-0.043906927,-0.03160856,2.398682,-0.026593996,-0.052577127,-0.022376494,-0.033616934,1.809068,-0.046565555,2.791882,-0.04327483,2.668889,2.6329262
ZNF101,-0.044654112,-0.035229664,-0.054132137,-0.0444288,-0.03202538,2.4224408,-0.027030826,-0.05321922,-0.022615928,-0.033977807,1.8356144,-0.047189835,2.8253565,-0.04380087,2.6826377,2.672682
MAP1B,-0.04477094,-0.03540386,-0.05429496,-0.04450308,-0.03214298,2.4286904,-0.027203169,-0.053342022,-0.022655213,-0.034071613,1.8392388,-0.0473297,2.8280654,-0.043945145,2.6837556,2.691459
NUP88,-0.04467714,-0.035245568,-0.054121528,-0.044392753,-0.032040056,2.4227896,-0.027036445,-0.053201973,-0.02261655,-0.033974875,1.8347526,-0.047147635,2.8214183,-0.043825235,2.6801195,2.676746
DPAGT1,-0.044547338,-0.035114482,-0.05388923,-0.04427643,-0.031916883,2.4121783,-0.02690503,-0.052997198,-0.022545476,-0.033847295,1.8342721,-0.046955936,2.8116155,-0.043703713,2.6817837,2.6564786
TOP2A,-0.044475727,-0.034975193,-0.0536884,-0.04415019,-0.031828843,2.4059987,-0.02675208,-0.052838206,-0.022524972,-0.03373411,1.8302629,-0.04675483,2.8041368,-0.043598652,2.6759393,2.6429515
NR2F6,-0.04406053,-0.03459932,-0.05325333,-0.043831013,-0.031478368,2.3861458,-0.026457658,-0.05241405,-0.02232047,-0.033493135,1.8135812,-0.04632944,2.7821507,-0.04318224,2.67059,2.6026511
HAUS1,-0.044807184,-0.035308287,-0.054255612,-0.04441575,-0.032137524,2.430514,-0.027097195,-0.053336933,-0.022725048,-0.03404881,1.8372416,-0.04719931,2.825029,-0.043927807,2.666075,2.69331
DNMT3B,-0.044704765,-0.035190795,-0.05410026,-0.044373978,-0.03202618,2.4216933,-0.026999954,-0.053235263,-0.022700865,-0.033983007,1.8365461,-0.047107022,2.8271961,-0.043794002,2.667434,2.6744459
ING5,-0.04473967,-0.035255726,-0.05413008,-0.04442357,-0.032068495,2.4238784,-0.027024832,-0.053242967,-0.022688715,-0.033984657,1.8379138,-0.04714591,2.8256097,-0.04386173,2.6764686,2.6753907
GPN3,-0.04467955,-0.035215784,-0.054054163,-0.044363216,-0.032050863,2.4217625,-0.026985887,-0.053163886,-0.022641893,-0.03392405,1.834824,-0.047082894,2.8185978,-0.04382742,2.6772668,2.6718972
SERPINB1,-0.04491865,-0.03552653,-0.054441385,-0.04467018,-0.032277197,2.4344296,-0.027258595,-0.053509157,-0.02276127,-0.034144737,1.848576,-0.04755259,2.8424325,-0.044121094,2.6874812,2.6990776
BTF3,-0.044751562,-0.035282128,-0.054240942,-0.04446706,-0.03210542,2.426398,-0.027075747,-0.05332404,-0.022683205,-0.034043618,1.8399668,-0.04727694,2.8305016,-0.04389746,2.6764684,2.6848838
UGT2B11,-0.04504795,-0.035655905,-0.054620914,-0.04479722,-0.032386884,2.4439044,-0.027394034,-0.053693056,-0.02283957,-0.034249023,1.8508012,-0.047744136,2.855599,-0.044211317,2.687143,2.713669
HMGXB4,-0.035539567,-0.029512025,-0.04737654,-0.044485163,-0.027475152,2.2991242,-0.03135848,-0.04322956,-0.016817871,-0.02632045,1.6601927,-0.044753894,2.2163343,-0.04050774,2.8552346,3.6895657
DPEP1,-0.05441259,-0.051422384,-0.07086762,-0.05006801,-0.047010783,3.5910506,-0.054264016,-0.06789302,-0.02842052,-0.048637856,2.8564453,-0.07991743,5.044015,-0.053509478,0.88866633,5.7845163
MTF2,-0.04472677,-0.035283282,-0.05406246,-0.044412956,-0.032075386,2.4204712,-0.026998887,-0.053185042,-0.022655977,-0.033936534,1.8395251,-0.047110096,2.8202138,-0.043911852,2.6822965,2.6715155
LMO7,-0.043259706,-0.03976045,-0.051893342,-0.041332778,-0.03761823,2.5099921,-0.028696528,-0.04921153,-0.019262914,-0.028427282,1.8569945,-0.05044082,2.5068579,-0.048483595,2.5874486,3.0985324
POLB,-0.044697974,-0.03519687,-0.054092605,-0.04436752,-0.032033533,2.420881,-0.026989955,-0.053212713,-0.022687847,-0.033976417,1.8383293,-0.047102492,2.8243728,-0.04383799,2.6701603,2.6747477
ERCC8,-0.0445338,-0.035096448,-0.053971313,-0.044297986,-0.03191832,2.4150953,-0.026917122,-0.053058088,-0.022546772,-0.033887077,1.8299727,-0.047015056,2.8155375,-0.0436771,2.6804762,2.6619186
FOSL2,-0.05857584,-0.056068197,-0.07705471,-0.049892016,-0.05498951,4.1368628,-0.04806705,-0.07037181,-0.03516444,-0.041169666,1.9387165,-0.07756492,4.0147886,-0.059129126,-0.00014812402,6.047885
TGIF1,-0.044681013,-0.03522693,-0.054033954,-0.044379108,-0.03202915,2.4192107,-0.026990213,-0.053154,-0.022631474,-0.033928953,1.834675,-0.047101524,2.8215265,-0.043810613,2.6811228,2.6698537
PPP1R7,-0.04460633,-0.035137326,-0.05382574,-0.044271506,-0.031944167,2.411869,-0.026860164,-0.052984394,-0.022602152,-0.033812463,1.83181,-0.046898764,2.812018,-0.04374288,2.679176,2.6536236
HSD17B11,-0.04479362,-0.035350826,-0.054238386,-0.04448729,-0.032144535,2.4281743,-0.027104152,-0.0533247,-0.022685487,-0.034034096,1.8406423,-0.04727065,2.8275003,-0.04396339,2.68139,2.6864998
RFX5,-0.061403163,-0.05631824,-0.081566624,-0.054741114,-0.05453723,4.1850824,-0.048887137,-0.075257726,-0.036694426,-0.04532223,2.0673592,-0.07867518,4.21501,-0.061105378,0.59169906,6.027733
TGIF2,-0.0447573,-0.03526966,-0.054160394,-0.044417113,-0.032086603,2.425448,-0.027047269,-0.05327099,-0.022690644,-0.034009475,1.8380765,-0.04717427,2.8267765,-0.043883715,2.6736693,2.681557
C19orf48,-0.044628657,-0.03516566,-0.053953692,-0.044310775,-0.031974144,2.4163306,-0.026919901,-0.053072836,-0.022603089,-0.033886064,1.8342772,-0.046984114,2.8149376,-0.04378524,2.6785312,2.6634846
CDK5RAP1,-0.044677503,-0.035251174,-0.054035664,-0.044397,-0.03203818,2.418513,-0.026987467,-0.05314992,-0.022625871,-0.033922262,1.838047,-0.047097906,2.819189,-0.043861974,2.6840117,2.6677935
POLR2L,-0.044684105,-0.035210725,-0.054034412,-0.04435177,-0.03201425,2.41833,-0.02700557,-0.053156193,-0.022655137,-0.03394074,1.8344133,-0.047063265,2.821485,-0.043792423,2.6749988,2.6720343
ILF3,-0.044595473,-0.03514117,-0.05383283,-0.04427345,-0.031936843,2.410645,-0.026872907,-0.052983787,-0.02259583,-0.033825856,1.8342183,-0.046913356,2.8130498,-0.04375388,2.679265,2.6536322
SLC7A3,-0.06587405,-0.06495924,-0.08787568,-0.05732372,-0.061453927,4.547083,-0.05470384,-0.08070321,-0.03964413,-0.048043087,2.2214718,-0.088005096,4.515453,-0.068662144,0.11690337,6.81926
ID3,-0.06587405,-0.06495924,-0.08787568,-0.05732372,-0.061453927,4.547083,-0.05470384,-0.08070321,-0.03964413,-0.048043087,2.2214718,-0.088005096,4.515453,-0.068662144,0.11690337,6.81926
NONO,-0.044220623,-0.03479554,-0.053506225,-0.043991897,-0.031606283,2.3925498,-0.026727961,-0.052658692,-0.022407286,-0.03367783,1.8189602,-0.04658953,2.7991714,-0.04328411,2.6702588,2.6272461
IFITM1,-0.06587405,-0.06495924,-0.08787568,-0.05732372,-0.061453927,4.547083,-0.05470384,-0.08070321,-0.03964413,-0.048043087,2.2214718,-0.088005096,4.515453,-0.068662144,0.11690337,6.81926
C17orf75,-0.04670607,-0.032379504,-0.04861187,-0.03893196,-0.033627104,2.713439,-0.022512367,-0.04781948,-0.020729927,-0.031956375,1.649525,-0.04024938,2.9561768,-0.04082666,2.4253905,2.4522033
GTF2H2,-0.044570517,-0.03512656,-0.05389319,-0.044293497,-0.031931628,2.4123368,-0.026897263,-0.053021923,-0.022572724,-0.03385291,1.8329128,-0.04695869,2.814054,-0.04372075,2.6811535,2.6567304
ELL2,-0.044595394,-0.035143588,-0.053932652,-0.044304974,-0.03195368,2.414307,-0.026907539,-0.053047553,-0.022587974,-0.033864953,1.8355863,-0.046966996,2.8123407,-0.04375433,2.6795714,2.6588604
LHX1,-0.04641067,-0.036856573,-0.05597093,-0.045533784,-0.033560935,2.5077019,-0.028246924,-0.0550349,-0.023833683,-0.034959443,1.8891959,-0.048731007,2.9087934,-0.045659523,2.637389,2.8526452
ECT2,-0.044668764,-0.03520425,-0.05414665,-0.044359487,-0.032033563,2.4241662,-0.027038213,-0.05322319,-0.022630086,-0.033990126,1.8343006,-0.047143824,2.8219528,-0.043792892,2.671723,2.6810875
TARBP2,-0.044698566,-0.035246424,-0.054105844,-0.044375665,-0.03205197,2.4227386,-0.027012868,-0.053199552,-0.022644898,-0.033954177,1.8352731,-0.047079213,2.8174748,-0.043858197,2.6764386,2.676481
PHF5A,-0.04468382,-0.035209797,-0.053988915,-0.04434469,-0.032013293,2.4177225,-0.026955508,-0.053128675,-0.022648424,-0.03391438,1.8367444,-0.04701982,2.819068,-0.043826345,2.6756585,2.667023
IFITM3,-0.04515024,-0.035986923,-0.05438666,-0.0449691,-0.032385454,2.4575627,-0.027382804,-0.053619172,-0.022955868,-0.033967547,1.8447921,-0.04715891,2.8142624,-0.044511065,2.7216663,2.6608975
PAFAH1B3,-0.04468927,-0.035244845,-0.054056805,-0.04439293,-0.03203134,2.420137,-0.027006017,-0.053168535,-0.022631206,-0.033947647,1.834926,-0.0471157,2.822701,-0.04382383,2.6817327,2.6709266
HPX,-0.044367187,-0.034916542,-0.053662337,-0.044125173,-0.031745773,2.402148,-0.02672938,-0.052790117,-0.022463746,-0.033724383,1.8253284,-0.046732362,2.8027263,-0.043503657,2.6789978,2.6359303
CCND1,-0.0448273,-0.03536685,-0.054267332,-0.044518724,-0.03216478,2.4294744,-0.027110118,-0.053363774,-0.02271385,-0.03405315,1.841696,-0.04730795,2.8319874,-0.0439827,2.68062,2.6876485
ZNF208,-0.06587405,-0.06495924,-0.08787568,-0.05732372,-0.061453927,4.547083,-0.05470384,-0.08070321,-0.03964413,-0.048043087,2.2214718,-0.088005096,4.515453,-0.068662144,0.11690337,6.81926
DTWD1,-0.044770945,-0.0353377,-0.054101586,-0.044436086,-0.032103043,2.4230905,-0.027045328,-0.053215865,-0.022672525,-0.03396678,1.8392113,-0.04714522,2.8222332,-0.04394862,2.6827152,2.6761463
HDGF,-0.048162844,-0.035074957,-0.046868972,-0.04213573,-0.028959628,2.689045,-0.02774928,-0.04594519,-0.021898977,-0.027288552,2.1643944,-0.043157984,2.4178748,-0.03597513,2.3439343,1.8473556
PMAIP1,-0.045603264,-0.036121547,-0.055122416,-0.04511543,-0.03283487,2.4693835,-0.02769902,-0.054210138,-0.023211159,-0.034515277,1.8678299,-0.048109535,2.8755937,-0.04478007,2.6743958,2.7629306
SERTAD3,-0.04488727,-0.035460588,-0.054289397,-0.044589423,-0.032221995,2.4304008,-0.027168937,-0.053406093,-0.02276219,-0.034071792,1.8449572,-0.047382392,2.837172,-0.044067916,2.6838007,2.688864
MAPK1,-0.044747625,-0.035275195,-0.05396985,-0.044365507,-0.032057043,2.4203558,-0.02694859,-0.053115897,-0.022669854,-0.033885986,1.8364346,-0.047012318,2.8166575,-0.04389935,2.678855,2.6662176
LRR1,-0.044533134,-0.035116255,-0.05402615,-0.044316307,-0.031955212,2.415081,-0.02695375,-0.053119548,-0.022584515,-0.033925887,1.8308531,-0.047051266,2.8179922,-0.043732896,2.677797,2.6674192
TMEM69,-0.044528253,-0.035024606,-0.053768653,-0.044229567,-0.03184194,2.4034271,-0.026813934,-0.05293504,-0.02260641,-0.033794023,1.8308369,-0.046787985,2.809702,-0.043702587,2.674436,2.6495123
RNASEH2A,-0.044767696,-0.035400987,-0.05429045,-0.04449986,-0.032140598,2.4285989,-0.027201451,-0.053338494,-0.02265336,-0.03406999,1.8389001,-0.047327485,2.8279166,-0.043940175,2.6836433,2.691305
CENPE,-0.044599123,-0.035185132,-0.054014888,-0.04436326,-0.031953838,2.4151719,-0.026958417,-0.053115502,-0.022578144,-0.033924147,1.8361303,-0.047060438,2.817452,-0.0437842,2.682757,2.6643338
POP5,-0.044596333,-0.034895767,-0.056355614,-0.04364297,-0.03208632,2.4144373,-0.027896281,-0.05300854,-0.022550516,-0.035126396,2.0878015,-0.045758456,2.7033777,-0.04527613,2.5536363,2.9268653
ZNF675,-0.04475379,-0.035148665,-0.054063346,-0.04433677,-0.032042857,2.428287,-0.026940158,-0.053125083,-0.022684252,-0.03394764,1.8267369,-0.047102317,2.8200169,-0.043843295,2.6828768,2.6832745
TUBB6,-0.0450287,-0.03199309,-0.05400077,-0.04123629,-0.031830337,2.5185802,-0.024117457,-0.052020945,-0.022237936,-0.033309687,1.8400879,-0.044424396,2.682261,-0.044082478,2.6695259,2.4114792
TRIP13,-0.04494134,-0.03548652,-0.054437216,-0.044609614,-0.032264892,2.4381862,-0.027230777,-0.053516973,-0.022790607,-0.034149766,1.8469431,-0.04742922,2.837143,-0.04410291,2.6769953,2.7011504
POLR2D,-0.04482862,-0.035352703,-0.054218274,-0.044486187,-0.032145984,2.4285622,-0.027094513,-0.053342976,-0.022734184,-0.034037273,1.8404312,-0.047235344,2.8305483,-0.04395542,2.6750517,2.684534
E2F5,-0.04479168,-0.03534862,-0.05423583,-0.044472057,-0.03213233,2.42887,-0.027107412,-0.053323474,-0.022687184,-0.03403878,1.8388333,-0.04723673,2.8264637,-0.043941718,2.678371,2.6863482
APOA4,-0.06587405,-0.06495924,-0.08787568,-0.05732372,-0.061453927,4.547083,-0.05470384,-0.08070321,-0.03964413,-0.048043087,2.2214718,-0.088005096,4.515453,-0.068662144,0.11690337,6.81926
RNF19A,-0.044565387,-0.035084274,-0.05387197,-0.044245873,-0.031871896,2.410506,-0.026884696,-0.0530089,-0.02258327,-0.03382756,1.828549,-0.046923064,2.8159904,-0.04367796,2.674577,2.6542008
ADSL,-0.046353776,-0.03681612,-0.055855367,-0.045490053,-0.033510964,2.503548,-0.02818217,-0.05493757,-0.023795256,-0.03488695,1.8855896,-0.048632886,2.90317,-0.045606475,2.6396043,2.8433528
ESPL1,-0.044805273,-0.035349194,-0.054312877,-0.044522952,-0.032153323,2.4311056,-0.02713929,-0.05339357,-0.022714557,-0.034085333,1.841481,-0.047348883,2.8343701,-0.04395553,2.6780207,2.690584
ING1,-0.044651985,-0.035202794,-0.05396895,-0.04436069,-0.032006647,2.4169226,-0.026962161,-0.053103507,-0.02262384,-0.033889808,1.8369935,-0.047057707,2.8194537,-0.043800287,2.6812816,2.66367
POLR2G,-0.044657577,-0.03519514,-0.05412127,-0.04435816,-0.03202278,2.4218748,-0.02702212,-0.05319805,-0.02262542,-0.033975538,1.8339562,-0.047127943,2.8213816,-0.04378897,2.67496,2.6785026
YBX1,-0.045030337,-0.035561334,-0.054439418,-0.044638064,-0.03236596,2.4416404,-0.027292091,-0.053527303,-0.022860905,-0.034127437,1.8474243,-0.04749295,2.8407044,-0.044180043,2.6752505,2.7086697
LAMB2,-0.04471444,-0.035256308,-0.05415602,-0.04441081,-0.032057352,2.4241242,-0.027064625,-0.053255986,-0.022662086,-0.034007575,1.8367746,-0.04717742,2.8262434,-0.043832686,2.6748438,2.6795433
MYBL2,-0.06537979,-0.061702184,-0.08578106,-0.05797194,-0.05841161,4.3749075,-0.051849555,-0.07931851,-0.03850992,-0.047713727,2.3145924,-0.08333223,4.32237,-0.06774333,0.6533727,6.493463
JARID2,-0.044841927,-0.03530132,-0.05417119,-0.04445849,-0.032164887,2.4253404,-0.027105073,-0.05330634,-0.022800688,-0.03402214,1.8437408,-0.047191925,2.8332949,-0.043914735,2.6635106,2.6880722
ZNHIT3,-0.044579696,-0.035131615,-0.053957723,-0.044298384,-0.031941447,2.4143157,-0.02692313,-0.053058203,-0.022574706,-0.033892665,1.8342125,-0.047000162,2.815,-0.043739103,2.6791604,2.6623166
BPTF,-0.04450631,-0.035013683,-0.053829897,-0.044163503,-0.031827237,2.414662,-0.026870843,-0.052926846,-0.022520756,-0.033854965,1.8289623,-0.046910312,2.813199,-0.043574933,2.6645415,2.6618578
MED30,-0.043973632,-0.036550075,-0.05125724,-0.03994058,-0.03203053,2.260443,-0.027361164,-0.05307111,-0.019440012,-0.03166879,1.7001108,-0.045306087,2.4253235,-0.043161668,2.3403277,2.8305387
NEK2,-0.044525404,-0.035072703,-0.05375762,-0.04422627,-0.03189522,2.407046,-0.026811073,-0.052910224,-0.022561269,-0.033768274,1.832326,-0.046860393,2.8085876,-0.043698747,2.6801236,2.6468341
CENPW,-0.044820026,-0.03533352,-0.0542569,-0.04449485,-0.032118406,2.4257255,-0.027118828,-0.053343404,-0.02272574,-0.034053393,1.8372458,-0.04722788,2.8277993,-0.043984625,2.6784978,2.691614
DRAP1,-0.044848602,-0.03541375,-0.054265566,-0.04451606,-0.032182682,2.43031,-0.027135517,-0.053350862,-0.022707963,-0.034054905,1.8407327,-0.04729139,2.8287396,-0.044021185,2.682993,2.6900008
SNRPB,-0.044950575,-0.035453435,-0.05436584,-0.044520963,-0.032217313,2.4410338,-0.027210502,-0.053434547,-0.02274787,-0.03414524,1.8440163,-0.047412913,2.8370838,-0.044058703,2.668165,2.708494
TFAP2C,-0.06587405,-0.06495924,-0.08787568,-0.05732372,-0.061453927,4.547083,-0.05470384,-0.08070321,-0.03964413,-0.048043087,2.2214718,-0.088005096,4.515453,-0.068662144,0.11690337,6.81926
DAB2,-0.04463661,-0.035225507,-0.054049194,-0.04435932,-0.032019187,2.420293,-0.027003514,-0.053123944,-0.02258566,-0.03392431,1.8329736,-0.047106642,2.8164377,-0.043814737,2.6842394,2.6724107
G6PC3,-0.044571824,-0.035104543,-0.053915523,-0.044252336,-0.031923424,2.4143147,-0.026901603,-0.053026456,-0.022574604,-0.033868816,1.8313383,-0.046936844,2.8123684,-0.043702286,2.674524,2.6615126
EGFR,-0.06587405,-0.06495924,-0.08787568,-0.05732372,-0.061453927,4.547083,-0.05470384,-0.08070321,-0.03964413,-0.048043087,2.2214718,-0.088005096,4.515453,-0.068662144,0.11690337,6.81926
GLIPR2,-0.045678325,-0.036090158,-0.055267736,-0.045262363,-0.032944348,2.4821806,-0.027690534,-0.054297023,-0.023475556,-0.03451064,1.8796247,-0.04821749,2.886941,-0.044817105,2.6575842,2.7530098
FEN1,-0.044237573,-0.03475654,-0.053422194,-0.04393886,-0.031615745,2.392969,-0.026579902,-0.052580502,-0.022421721,-0.033593174,1.8222301,-0.046480212,2.7898297,-0.04337213,2.6686327,2.6190677
CDKN3,-0.04465008,-0.035151076,-0.053851802,-0.04426763,-0.031973604,2.413254,-0.02689554,-0.053010654,-0.022631936,-0.03384022,1.836581,-0.04692206,2.8141603,-0.0437783,2.674203,2.6599505
TFDP1,-0.044920947,-0.03546043,-0.054358345,-0.04454554,-0.03223848,2.4335966,-0.027195223,-0.053433258,-0.02275995,-0.03410064,1.8428298,-0.047341645,2.83106,-0.04407421,2.6786044,2.6999195
WDR74,-0.04436425,-0.034910727,-0.053519208,-0.044027302,-0.031728607,2.3994768,-0.026689976,-0.052683488,-0.022476537,-0.033647656,1.8246664,-0.046598535,2.7954116,-0.04349838,2.6721208,2.6292968
SH3BGRL,-0.04427286,-0.034778174,-0.053578377,-0.043979116,-0.031682268,2.4013784,-0.02665558,-0.05266554,-0.02241787,-0.0336646,1.813316,-0.046654955,2.796585,-0.04337218,2.671664,2.6388152
MCM8,-0.044043276,-0.03168707,-0.04561368,-0.039269876,-0.03031885,1.97059,-0.030453043,-0.046083983,-0.029338164,-0.029982772,1.8681487,-0.040002637,2.3889537,-0.04351953,2.245556,2.8421361
ARSE,-0.04472418,-0.03526232,-0.05419659,-0.044440344,-0.03207832,2.4259048,-0.027059184,-0.053279646,-0.022661619,-0.034020714,1.8377995,-0.04723143,2.827898,-0.043869723,2.6782982,2.681893
MCM6,-0.04403397,-0.03180719,-0.045788217,-0.039290886,-0.030364813,1.9785383,-0.030677432,-0.046147022,-0.029310653,-0.030066961,1.8630168,-0.04016514,2.3864574,-0.04354462,2.245705,2.8643937
CUEDC2,-0.044632934,-0.035213493,-0.054127406,-0.04443221,-0.032006703,2.4207816,-0.02701126,-0.05320844,-0.022592757,-0.03394417,1.8368233,-0.04714999,2.8241243,-0.04382355,2.6806161,2.6743457
HGD,-0.04456856,-0.03509517,-0.054015987,-0.04434686,-0.031885806,2.4086113,-0.026933432,-0.05312266,-0.02260072,-0.033934858,1.8332595,-0.04703802,2.8189106,-0.043758348,2.6802723,2.665271
DNMT1,-0.04496159,-0.0355896,-0.05440224,-0.044704814,-0.03230447,2.4361758,-0.027253954,-0.053501945,-0.022773108,-0.03411406,1.8461891,-0.047513314,2.841353,-0.04416116,2.6930819,2.6950655
ZSCAN21,-0.044616494,-0.035159733,-0.054055594,-0.044344466,-0.031973924,2.4192128,-0.026991682,-0.05315625,-0.022612985,-0.03395563,1.8342596,-0.047089405,2.821959,-0.04374212,2.6751292,2.6700242
OAZ2,-0.04456388,-0.035079032,-0.053972702,-0.044288248,-0.03192054,2.4157865,-0.026923055,-0.05309199,-0.022604631,-0.033912964,1.8323476,-0.047007635,2.819911,-0.04367587,2.6713326,2.663318
ZNF239,-0.06587405,-0.06495924,-0.08787568,-0.05732372,-0.061453927,4.547083,-0.05470384,-0.08070321,-0.03964413,-0.048043087,2.2214718,-0.088005096,4.515453,-0.068662144,0.11690337,6.81926
GLI1,-0.0655263,-0.066043235,-0.08733664,-0.056580305,-0.06279063,4.5679555,-0.05510777,-0.07973784,-0.038830787,-0.046707086,2.2261295,-0.08879165,4.4392643,-0.0697706,0.0943057,6.9208975
PIH1D1,-0.044664014,-0.03524345,-0.054060362,-0.044410236,-0.032029483,2.4192526,-0.027027242,-0.05317269,-0.022621192,-0.033942066,1.8353317,-0.047158137,2.8242025,-0.04380113,2.6840022,2.6699352
CUTC,-0.044831973,-0.03536601,-0.054240145,-0.044503067,-0.032158025,2.4285798,-0.02710953,-0.053355087,-0.022729622,-0.034046784,1.8418474,-0.04727183,2.8315763,-0.043975115,2.6773088,2.6860967
OTX2,-0.06587405,-0.06495924,-0.08787568,-0.05732372,-0.061453927,4.547083,-0.05470384,-0.08070321,-0.03964413,-0.048043087,2.2214718,-0.088005096,4.515453,-0.068662144,0.11690337,6.81926
PRKCE,-0.03371146,-0.027522335,-0.045015123,-0.042873524,-0.025377002,2.1753058,-0.029239472,-0.041179303,-0.015237815,-0.025388703,1.6103371,-0.042292304,2.1012359,-0.038214922,2.925764,3.3898194
STMN1,-0.04472953,-0.035422623,-0.053874515,-0.044451565,-0.03186127,2.4307652,-0.027022758,-0.053096484,-0.02275067,-0.03380926,1.8303865,-0.046481498,2.7933397,-0.043968324,2.6939979,2.6236339
HMGCS2,-0.04465914,-0.035213538,-0.054097917,-0.044384394,-0.032022707,2.42037,-0.027009644,-0.05317622,-0.022606505,-0.03396345,1.8342961,-0.047163088,2.823741,-0.043800406,2.682517,2.6746302
GNRH2,-0.044952326,-0.035592116,-0.05446133,-0.0446911,-0.032308064,2.4394972,-0.027325207,-0.05356769,-0.022856714,-0.034242246,1.8439783,-0.047574352,2.8496284,-0.044081874,2.689753,2.7029977
COQ3,-0.04491084,-0.035461783,-0.05433411,-0.04457183,-0.032248676,2.4334624,-0.02715434,-0.05344451,-0.022772884,-0.034097116,1.8424739,-0.04735629,2.8347278,-0.04410041,2.6803513,2.6944087
ETV1,-0.044695873,-0.03519662,-0.054107975,-0.044383366,-0.032013413,2.4189947,-0.027010418,-0.05319161,-0.02266157,-0.033969693,1.830924,-0.04710057,2.8214164,-0.043848302,2.676879,2.6807036
GATM,-0.044799037,-0.03532178,-0.05420876,-0.044466402,-0.032129996,2.4286242,-0.027060272,-0.053303633,-0.022703247,-0.034020677,1.8401892,-0.047208194,2.825975,-0.04395397,2.67822,2.683142
ACAD11,-0.04473404,-0.035243224,-0.05410939,-0.044349927,-0.03206987,2.4246273,-0.02701707,-0.053186983,-0.022667028,-0.033957947,1.8331805,-0.047097478,2.8183198,-0.04386752,2.6737254,2.682122
PAPOLA,-0.044826295,-0.035345472,-0.05429033,-0.044480264,-0.03216299,2.429707,-0.027118078,-0.053377423,-0.022727687,-0.03407021,1.8423172,-0.047272682,2.8294191,-0.04398076,2.6737514,2.6921983
ASNS,-0.044534545,-0.035101388,-0.0539668,-0.044294883,-0.031918224,2.4150562,-0.026909577,-0.053049758,-0.022548616,-0.03388733,1.8309044,-0.04699595,2.813665,-0.04370418,2.6812348,2.661253
PEF1,-0.044307087,-0.0348219,-0.053508956,-0.044034615,-0.031660307,2.394845,-0.026629543,-0.052685756,-0.022457695,-0.033652928,1.8238455,-0.046589714,2.7989159,-0.04342148,2.6715658,2.6254554
GTF2E1,-0.044941425,-0.03193173,-0.053890288,-0.041229382,-0.031931255,2.5001998,-0.023890967,-0.052083883,-0.022224743,-0.03317343,1.8382642,-0.044183176,2.6658483,-0.04407767,2.703829,2.3789592
IQGAP2,-0.044737205,-0.03527531,-0.0541893,-0.044408686,-0.032084644,2.4264712,-0.027070357,-0.053268574,-0.022658302,-0.034016024,1.836218,-0.04718933,2.8241253,-0.04386862,2.6749613,2.6847138
FANCD2,-0.044519424,-0.035068214,-0.053770892,-0.04421609,-0.03189667,2.406422,-0.026838997,-0.05291118,-0.022576334,-0.03379034,1.8299661,-0.04685504,2.8108459,-0.043688823,2.6772542,2.652108
MTFP1,-0.04500478,-0.03544129,-0.0539763,-0.044414982,-0.032391936,2.4405608,-0.027203593,-0.05316389,-0.022986183,-0.033764947,1.8596638,-0.047339115,2.8274622,-0.044129346,2.6460903,2.6997273
SRSF10,-0.04480975,-0.035411295,-0.05438676,-0.044590387,-0.032230243,2.4296727,-0.027180146,-0.05347763,-0.022787608,-0.034136012,1.8425064,-0.04744062,2.8400912,-0.044096455,2.6805613,2.6960464
PDZK1,-0.044622708,-0.035210945,-0.054072842,-0.044347767,-0.032001145,2.4204159,-0.027019829,-0.05313246,-0.022579674,-0.033950165,1.832379,-0.04711614,2.8178973,-0.04378883,2.6816251,2.6745536
MAF,-0.033830676,-0.0276071,-0.04515079,-0.04294704,-0.025481593,2.183003,-0.029306518,-0.04130069,-0.015299889,-0.025448281,1.6138675,-0.04240244,2.1053162,-0.038340293,2.9234114,3.40552
SGOL1,-0.06587405,-0.06495924,-0.08787568,-0.05732372,-0.061453927,4.547083,-0.05470384,-0.08070321,-0.03964413,-0.048043087,2.2214718,-0.088005096,4.515453,-0.068662144,0.11690337,6.81926
AASS,-0.044758048,-0.035317563,-0.054259818,-0.044478185,-0.032112837,2.4284976,-0.027116776,-0.05333349,-0.022676958,-0.03405677,1.8394792,-0.047284033,2.8295183,-0.043911874,2.6786847,2.6868262
F2RL1,-0.044569187,-0.035142317,-0.054063626,-0.04432392,-0.031957217,2.4185553,-0.026991379,-0.053126324,-0.022569573,-0.033946957,1.8320558,-0.04709241,2.818277,-0.043723654,2.678143,2.6712563
NEIL2,-0.03883668,-0.03442149,-0.049487863,-0.040632144,-0.024421504,2.2922873,-0.019629456,-0.05070086,-0.01710898,-0.035285264,1.9066274,-0.043435264,2.6608267,-0.044954933,2.135661,2.583108
GPC3,-0.045568295,-0.036078036,-0.054926522,-0.045013953,-0.032794457,2.463311,-0.027550528,-0.054041393,-0.023174731,-0.0343902,1.8659586,-0.047886457,2.8610272,-0.044799283,2.6750433,2.749717
AGTRAP,-0.044299502,-0.034852948,-0.053545713,-0.044067662,-0.031676423,2.3954992,-0.026644383,-0.05270255,-0.022443572,-0.03365828,1.8262236,-0.046642493,2.7980661,-0.043463405,2.6760433,2.625255
CTDSPL,-0.046361525,-0.036817215,-0.055841394,-0.04548153,-0.033509817,2.5032449,-0.028177308,-0.05493188,-0.023800086,-0.034883786,1.8855488,-0.048618358,2.9026723,-0.045614615,2.6390355,2.8430831
UCP2,-0.04469742,-0.035266276,-0.054072686,-0.044396162,-0.032038692,2.420799,-0.027030366,-0.053180154,-0.022633335,-0.03395897,1.8353846,-0.04711416,2.821724,-0.043836746,2.68123,2.6726103
RNASE4,-0.048741464,-0.035565495,-0.047457293,-0.042564295,-0.029441003,2.732939,-0.028165115,-0.04647601,-0.022223191,-0.027556488,2.1787167,-0.043810237,2.4481773,-0.036454678,2.3353617,1.9058198
NR5A2,-0.04504795,-0.035655905,-0.054620914,-0.04479722,-0.032386884,2.4439044,-0.027394034,-0.053693056,-0.02283957,-0.034249023,1.8508012,-0.047744136,2.855599,-0.044211317,2.687143,2.713669
CENPF,-0.04485028,-0.035441387,-0.054224618,-0.044528946,-0.032192573,2.4295573,-0.02712433,-0.05332409,-0.022699632,-0.034012206,1.8403621,-0.047266204,2.8250976,-0.044035275,2.687394,2.6852596
POLR2F,-0.044663675,-0.035216782,-0.054008365,-0.044317644,-0.03199396,2.4180849,-0.027015466,-0.053129,-0.022636041,-0.03393674,1.8336568,-0.047010355,2.817377,-0.043775987,2.6725368,2.6706123
BRIP1,-0.044735108,-0.035314467,-0.05410042,-0.04444164,-0.032087825,2.4218912,-0.027046064,-0.05321361,-0.022651175,-0.03395953,1.8381064,-0.04716703,2.8229847,-0.043903545,2.684879,2.674361
ING3,-0.04500786,-0.035519477,-0.054435648,-0.04463309,-0.032319173,2.4390607,-0.027216172,-0.053544693,-0.022831568,-0.034142196,1.8470118,-0.04745736,2.8402257,-0.04416284,2.6772065,2.7042658
VRK1,-0.044806063,-0.03189555,-0.053911667,-0.041209087,-0.03182579,2.4969165,-0.023924643,-0.052050646,-0.022120574,-0.033202503,1.83128,-0.044181824,2.6624007,-0.043962464,2.7091677,2.3784535
TRIM59,-0.044233672,-0.034732755,-0.05353572,-0.04394288,-0.031645082,2.4000473,-0.026624605,-0.052620437,-0.022396589,-0.033640247,1.8111585,-0.04661034,2.7942214,-0.04332285,2.6702886,2.635833
U2AF1,-0.044646196,-0.03519235,-0.053986207,-0.04435216,-0.031970035,2.4196134,-0.026964687,-0.053074226,-0.022594897,-0.033901356,1.8352088,-0.047028948,2.8156142,-0.043789487,2.6738164,2.6674173
PIGH,-0.044598002,-0.035144683,-0.05397358,-0.044290144,-0.03195193,2.416524,-0.026950939,-0.053070724,-0.022581423,-0.033908814,1.8315874,-0.047007296,2.815858,-0.043733478,2.677493,2.6668794
CNBP,-0.04513872,-0.035638593,-0.054511737,-0.044711903,-0.032416034,2.4442976,-0.027263246,-0.0536246,-0.022905178,-0.034183744,1.8509315,-0.047519427,2.8437648,-0.04430484,2.6785028,2.710895
ANAPC7,-0.044780005,-0.035312332,-0.054227028,-0.04447263,-0.03210809,2.4280226,-0.027073171,-0.053328484,-0.022676464,-0.03400263,1.8387964,-0.047183488,2.8273187,-0.043930482,2.6733718,2.687335
E2F7,-0.044885594,-0.03541541,-0.054225855,-0.04448557,-0.03219676,2.4325368,-0.027108759,-0.053362627,-0.022817755,-0.034117673,1.8373073,-0.047240604,2.8328476,-0.043980006,2.6799517,2.6905046
HNF4A,-0.046967395,-0.04136887,-0.060469348,-0.041134153,-0.041411694,3.1349776,-0.035297822,-0.055385575,-0.026891805,-0.032714564,1.7192342,-0.056926828,2.9792857,-0.046143465,0.726375,4.3057127
PAX6,-0.044674486,-0.03511634,-0.054155078,-0.044086397,-0.031976067,2.448574,-0.027214225,-0.053086676,-0.022591753,-0.034068275,1.8215424,-0.047429767,2.8393574,-0.043528557,2.608836,2.734838
WDR43,-0.045005668,-0.03554443,-0.05442259,-0.04464558,-0.03231248,2.4384365,-0.027223237,-0.053518772,-0.022815205,-0.0341376,1.8469629,-0.04745174,2.8389955,-0.044172388,2.6821601,2.701424
GSTA1,-0.044522174,-0.03507105,-0.053916324,-0.044256497,-0.031910457,2.4116707,-0.026864115,-0.052990243,-0.022541134,-0.033852037,1.8326892,-0.04698819,2.8117375,-0.04371703,2.6811695,2.659077
CDK1,-0.044719353,-0.035085455,-0.054079693,-0.044334125,-0.032007113,2.4280982,-0.026935885,-0.053131744,-0.022686364,-0.033960044,1.8252394,-0.047107458,2.8216033,-0.043757908,2.6816435,2.681859
HMGCL,-0.044757295,-0.035282865,-0.05415207,-0.044438127,-0.03210546,2.4255257,-0.027054068,-0.053268656,-0.022699365,-0.033994332,1.8383632,-0.047198515,2.828093,-0.04389417,2.6760604,2.679407
EBNA1BP2,-0.04485686,-0.035376333,-0.054183602,-0.044512495,-0.032130387,2.4252105,-0.02710038,-0.053305607,-0.022770975,-0.03402416,1.8434341,-0.047184184,2.8293204,-0.044017076,2.6759324,2.682666
ERBB4,-0.04447606,-0.035007186,-0.05399309,-0.04373156,-0.031908378,2.4543502,-0.02730018,-0.052843638,-0.022528483,-0.033985294,1.8058289,-0.047423396,2.8338413,-0.043252457,2.5443304,2.7639503
USP7,-0.044889063,-0.03537164,-0.05423068,-0.04448491,-0.032171067,2.4268694,-0.027085202,-0.05335703,-0.022788603,-0.03404562,1.8448322,-0.0472255,2.8291354,-0.04403173,2.6729376,2.6855178
GALK1,-0.04463923,-0.03518008,-0.053964093,-0.04432528,-0.03198046,2.4160607,-0.026947001,-0.053084534,-0.022618432,-0.03389221,1.8320928,-0.047003135,2.8170094,-0.043771423,2.6794815,2.6647933
ZNF232,-0.044820566,-0.03535345,-0.054246943,-0.044500817,-0.032152884,2.4295723,-0.027096564,-0.05335165,-0.022716964,-0.034048557,1.8399945,-0.047277253,2.8307695,-0.04397851,2.6796837,2.6866899
HDAC1,-0.04456463,-0.03509165,-0.05398104,-0.04431493,-0.03192176,2.4122343,-0.026976017,-0.053086717,-0.022583561,-0.033930186,1.8339514,-0.047007076,2.8217607,-0.043637898,2.6722827,2.6680434
KLHL7,-0.04481656,-0.035332836,-0.05417822,-0.044460006,-0.032137714,2.426012,-0.02705628,-0.05329403,-0.022724599,-0.03401031,1.8435152,-0.047192946,2.8264709,-0.04397983,2.6759617,2.6816733
NOTCH3,-0.06587405,-0.06495924,-0.08787568,-0.05732372,-0.061453927,4.547083,-0.05470384,-0.08070321,-0.03964413,-0.048043087,2.2214718,-0.088005096,4.515453,-0.068662144,0.11690337,6.81926
ZNF770,-0.044769038,-0.035280816,-0.05409425,-0.044420827,-0.03210435,2.4230924,-0.027017785,-0.053230803,-0.022715911,-0.03396099,1.8407918,-0.047137726,2.8254657,-0.04391705,2.6745832,2.6749604
NCOA1,-0.044715084,-0.035206318,-0.054022167,-0.04434728,-0.032037266,2.418729,-0.026981441,-0.05315875,-0.022699423,-0.0339385,1.83605,-0.04705449,2.822905,-0.04384285,2.6718698,2.673363
DDX5,-0.044791017,-0.035330243,-0.05412599,-0.04445186,-0.032110102,2.4223971,-0.02706248,-0.053252798,-0.022713529,-0.033988696,1.8425577,-0.047168598,2.8265462,-0.043940492,2.6783302,2.6764596
ANPEP,-0.044628635,-0.0351854,-0.05405837,-0.04435493,-0.03199784,2.418559,-0.026987301,-0.053136274,-0.022588912,-0.033940516,1.8329458,-0.047122143,2.821155,-0.043770246,2.6822066,2.6719112
RFC4,-0.044682,-0.0352244,-0.053984307,-0.044348378,-0.032018844,2.4170442,-0.026948025,-0.053119957,-0.022639837,-0.033901073,1.8386812,-0.047006827,2.8163037,-0.043854684,2.6772041,2.6653488
IMP4,-0.044786263,-0.03530923,-0.054092035,-0.044413675,-0.03210107,2.4236193,-0.027009832,-0.053219404,-0.022693718,-0.033957925,1.8400136,-0.04709311,2.8205771,-0.043950096,2.6770432,2.6760764
GSTA2,-0.04478038,-0.03538657,-0.054234132,-0.04452547,-0.032169785,2.4235725,-0.02708693,-0.053288657,-0.022677407,-0.03401874,1.8490404,-0.047350787,2.8264785,-0.044057623,2.686408,2.68282
TRERF1,-0.044852357,-0.03535945,-0.054277,-0.04455091,-0.03217206,2.431176,-0.02709062,-0.053364232,-0.022748021,-0.034052044,1.8436503,-0.047326256,2.833984,-0.043980774,2.682272,2.683257
YARS,-0.04476907,-0.035308216,-0.05409878,-0.044433136,-0.032093357,2.422533,-0.027037248,-0.05323928,-0.022700723,-0.033973474,1.84047,-0.047139954,2.8256273,-0.04392022,2.676712,2.6751246
SAAL1,-0.044749327,-0.035327066,-0.054156676,-0.044460747,-0.032091483,2.424321,-0.027086312,-0.053258378,-0.022662174,-0.03400242,1.8377072,-0.04721376,2.8269577,-0.04389357,2.682788,2.6785166
AEBP1,-0.06587405,-0.06495924,-0.08787568,-0.05732372,-0.061453927,4.547083,-0.05470384,-0.08070321,-0.03964413,-0.048043087,2.2214718,-0.088005096,4.515453,-0.068662144,0.11690337,6.81926
DERA,-0.04513261,-0.035713714,-0.05449027,-0.04471459,-0.032425277,2.4428236,-0.027308932,-0.053594064,-0.022876693,-0.034154512,1.8493543,-0.047462024,2.8356247,-0.04434446,2.6842666,2.710049
SCN7A,-0.066857554,-0.055640887,-0.087910324,-0.048336625,-0.061358854,4.8034616,-0.04590835,-0.07795671,-0.038561624,-0.04620118,2.2274177,-0.079827935,4.078471,-0.069638915,0.21172374,5.993497
LAMC1,-0.04452526,-0.035095483,-0.0539153,-0.04428543,-0.031889163,2.4116144,-0.02688093,-0.053013075,-0.022542361,-0.03386459,1.832864,-0.046965737,2.8121028,-0.043709688,2.6814015,2.6566079
HIPK2,-0.043387685,-0.03594969,-0.05051399,-0.03948372,-0.031503916,2.226453,-0.026905706,-0.052372422,-0.019180221,-0.03127992,1.6814115,-0.04462782,2.3979855,-0.042505626,2.3353417,2.7628794
DNPEP,-0.044754215,-0.035313047,-0.054143336,-0.044478476,-0.032104284,2.424801,-0.027051544,-0.053255856,-0.022687683,-0.033999756,1.8362343,-0.04718912,2.823852,-0.04390228,2.6814196,2.678768
SULT1A2,-0.04486739,-0.035463654,-0.054284878,-0.044565573,-0.03221309,2.430936,-0.027166482,-0.053377945,-0.022715248,-0.034052692,1.8418357,-0.04734029,2.8301864,-0.044048063,2.6874278,2.6893032
NPRL2,-0.044745006,-0.035295468,-0.053948153,-0.044347897,-0.032055855,2.4204993,-0.02695975,-0.05309736,-0.022673924,-0.03387364,1.8361124,-0.04697403,2.8133774,-0.043911718,2.6769383,2.6652064
RARG,-0.044474583,-0.034964416,-0.053994235,-0.043922942,-0.031850513,2.4452546,-0.027138423,-0.052925147,-0.022515144,-0.033963855,1.8148693,-0.047284935,2.8289886,-0.04332948,2.5895774,2.727318
ZNF227,-0.044495046,-0.035061195,-0.05381983,-0.044225916,-0.03186713,2.4092839,-0.026848678,-0.052921236,-0.02252766,-0.033812094,1.8301872,-0.04689977,2.809032,-0.043665633,2.6814642,2.6512077
IRF1,-0.044776224,-0.035351213,-0.054311175,-0.04448499,-0.032137763,2.4307199,-0.027172664,-0.05337668,-0.022687921,-0.034084376,1.8393631,-0.047314193,2.8301358,-0.04391897,2.6751626,2.6927211
HMGN3,-0.03379316,-0.027617902,-0.0450617,-0.042963076,-0.025456663,2.1786585,-0.029311618,-0.041229554,-0.015279906,-0.025397958,1.6131998,-0.04238338,2.104953,-0.03832688,2.9301016,3.3994994
MTTP,-0.044413634,-0.034916725,-0.053474385,-0.044009853,-0.03178512,2.3987656,-0.026642611,-0.0526993,-0.022538641,-0.033625104,1.8258578,-0.04657225,2.798039,-0.043542575,2.665509,2.6299596
GMPR2,-0.0445446,-0.03509093,-0.053745277,-0.044212636,-0.031898055,2.4085588,-0.026821956,-0.052907933,-0.022570346,-0.03376865,1.830818,-0.046826024,2.8075185,-0.04369813,2.6783364,2.6474392
ZBTB16,-0.06587405,-0.06495924,-0.08787568,-0.05732372,-0.061453927,4.547083,-0.05470384,-0.08070321,-0.03964413,-0.048043087,2.2214718,-0.088005096,4.515453,-0.068662144,0.11690337,6.81926
CIDEB,-0.06587405,-0.06495924,-0.08787568,-0.05732372,-0.061453927,4.547083,-0.05470384,-0.08070321,-0.03964413,-0.048043087,2.2214718,-0.088005096,4.515453,-0.068662144,0.11690337,6.81926
AKR1D1,-0.042253513,-0.030097146,-0.043955434,-0.0380032,-0.028793722,1.880998,-0.02905241,-0.044398215,-0.028261794,-0.02903384,1.8061442,-0.038583685,2.3134584,-0.04175578,2.2308214,2.6794164
ETV4,-0.04479988,-0.035330985,-0.054203343,-0.044493664,-0.032158323,2.4281256,-0.027079022,-0.053319912,-0.022721428,-0.034004975,1.8399074,-0.04726777,2.8304696,-0.04394627,2.6793456,2.6821957
VTN,-0.044541534,-0.035115357,-0.05386949,-0.04429344,-0.031904925,2.410076,-0.026872894,-0.05299143,-0.022553159,-0.033834293,1.833652,-0.046951365,2.8120613,-0.043723177,2.683726,2.6530075
HMGN2,-0.04455582,-0.03514304,-0.053997323,-0.044281013,-0.03194217,2.4179604,-0.0269618,-0.053049624,-0.022552354,-0.033908296,1.8299384,-0.047020633,2.8117042,-0.043745693,2.680091,2.6687405
ZNF300,-0.04482379,-0.03537229,-0.054274186,-0.044527113,-0.032167535,2.4290798,-0.027114544,-0.053367488,-0.022718893,-0.034050208,1.8426927,-0.047304798,2.8310666,-0.043995485,2.6811838,2.6868649
TSFM,-0.044501048,-0.0350551,-0.05385681,-0.04421307,-0.031868476,2.410711,-0.026877167,-0.05296451,-0.022537086,-0.033837058,1.8297036,-0.04688673,2.8092647,-0.043635964,2.6749077,2.6556692
GTF3C2,-0.044549286,-0.035074145,-0.05377405,-0.044223804,-0.031906936,2.4063885,-0.026820928,-0.05293186,-0.022601958,-0.033794045,1.8312742,-0.046859067,2.8122253,-0.043713287,2.6748936,2.652581
ORC4,-0.04471752,-0.035266593,-0.05397497,-0.044383235,-0.03204773,2.4174902,-0.026966812,-0.053131044,-0.022660164,-0.03390123,1.8369604,-0.04704658,2.8194633,-0.043882687,2.6821425,2.6655748
LIN28A,-0.04096283,-0.037966564,-0.056814194,-0.04240413,-0.027774794,2.2947443,-0.030761689,-0.053147472,-0.021297952,-0.038466852,1.4777569,-0.04924104,2.9786682,-0.03908668,1.9571135,2.559433
SUV39H2,-0.044916466,-0.035423204,-0.05433527,-0.044545673,-0.032217823,2.4340482,-0.027163604,-0.053447023,-0.022793608,-0.034102436,1.8442408,-0.04732611,2.8350406,-0.04403529,2.672116,2.6942708
STC1,-0.06587405,-0.06495924,-0.08787568,-0.05732372,-0.061453927,4.547083,-0.05470384,-0.08070321,-0.03964413,-0.048043087,2.2214718,-0.088005096,4.515453,-0.068662144,0.11690337,6.81926
SP4,-0.04335871,-0.039609943,-0.05436259,-0.040753487,-0.037875686,2.5178158,-0.029767234,-0.04923888,-0.019339535,-0.029681478,2.1095893,-0.049312305,2.403533,-0.05009275,2.4602783,3.369889
TNFAIP3,-0.044877138,-0.031975705,-0.05387152,-0.04127743,-0.03188249,2.4949102,-0.023902657,-0.052051876,-0.02213498,-0.033224598,1.8406224,-0.04419118,2.6699252,-0.04405496,2.7067726,2.3806834
KDELR3,-0.06587405,-0.06495924,-0.08787568,-0.05732372,-0.061453927,4.547083,-0.05470384,-0.08070321,-0.03964413,-0.048043087,2.2214718,-0.088005096,4.515453,-0.068662144,0.11690337,6.81926
CTSC,-0.044948123,-0.03546777,-0.054275043,-0.044528134,-0.0322511,2.4333715,-0.02713128,-0.053379606,-0.022786196,-0.034038916,1.8409634,-0.047260046,2.8270874,-0.04411245,2.6784048,2.6944792
ZNF74,-0.04476405,-0.03530379,-0.054213133,-0.044475365,-0.03210929,2.4273186,-0.027070729,-0.053312615,-0.022686929,-0.03402286,1.8389317,-0.047237925,2.8288045,-0.043907624,2.6790144,2.6818783
FOXH1,-0.06587405,-0.06495924,-0.08787568,-0.05732372,-0.061453927,4.547083,-0.05470384,-0.08070321,-0.03964413,-0.048043087,2.2214718,-0.088005096,4.515453,-0.068662144,0.11690337,6.81926
ALDH9A1,-0.045145392,-0.035584826,-0.054467153,-0.044606533,-0.032393973,2.4399128,-0.027244844,-0.05358296,-0.022944221,-0.034115363,1.8435382,-0.047411423,2.8397832,-0.044266686,2.6674235,2.7132952
MIS18BP1,-0.044797838,-0.03533749,-0.054201487,-0.044465322,-0.03212603,2.4275908,-0.027088983,-0.053311143,-0.022704601,-0.034028497,1.8396759,-0.047215518,2.8277473,-0.043942407,2.6769283,2.6838772
PAK1IP1,-0.04453976,-0.035060193,-0.053742446,-0.0441907,-0.031876266,2.4083352,-0.02680472,-0.052898746,-0.02257062,-0.033774287,1.8303001,-0.046804775,2.8076425,-0.04367619,2.6750982,2.6476858
NAA15,-0.04466215,-0.035245664,-0.054132618,-0.04442158,-0.03203964,2.4200091,-0.027043372,-0.05321396,-0.022645801,-0.033978533,1.8392231,-0.04718876,2.8242645,-0.043857515,2.677991,2.6751542
SMARCA4,-0.059614576,-0.052310627,-0.077830635,-0.055500746,-0.04936825,3.7511744,-0.04431727,-0.07278077,-0.03378073,-0.045326505,2.2825031,-0.07123641,3.90135,-0.060597714,1.6037772,5.2935414
APOA2,-0.044683594,-0.035215486,-0.054067995,-0.044420075,-0.032027803,2.4178655,-0.027019758,-0.05318344,-0.02263064,-0.03396854,1.8378348,-0.047118597,2.8263898,-0.043778855,2.678955,2.6738756
KAT7,-0.044835486,-0.03538394,-0.054215986,-0.044494204,-0.032181755,2.4284315,-0.027113527,-0.053328156,-0.022735702,-0.03401806,1.8420401,-0.047254834,2.828619,-0.04400474,2.6775448,2.6862679
CETN3,-0.04483741,-0.035374906,-0.054144517,-0.04447978,-0.032169692,2.425148,-0.027084092,-0.053280286,-0.022750748,-0.033984065,1.841801,-0.04721048,2.8292499,-0.043997124,2.6771414,2.6811807
CAPN12,-0.06587405,-0.06495924,-0.08787568,-0.05732372,-0.061453927,4.547083,-0.05470384,-0.08070321,-0.03964413,-0.048043087,2.2214718,-0.088005096,4.515453,-0.068662144,0.11690337,6.81926
F10,-0.04516389,-0.035690747,-0.05459687,-0.044767097,-0.032450404,2.445167,-0.027355494,-0.05371419,-0.0229385,-0.034244247,1.8540983,-0.047642853,2.852427,-0.044331465,2.676553,2.7178874
CMC1,-0.044827692,-0.03539391,-0.054255128,-0.044516873,-0.03215427,2.427609,-0.02711609,-0.053346522,-0.02272238,-0.034034695,1.8374789,-0.047270928,2.8285494,-0.04396534,2.676168,2.6882615
CEP70,-0.04451813,-0.035087436,-0.05378841,-0.04424519,-0.031892717,2.4084477,-0.026827775,-0.052920885,-0.022541178,-0.033785418,1.8313866,-0.046896882,2.8098717,-0.04369102,2.6840665,2.6469293
ELF1,-0.056400046,-0.054701135,-0.07463569,-0.047489252,-0.05390534,4.0467825,-0.047016654,-0.067824095,-0.034050908,-0.039606553,1.8312535,-0.075767145,3.9210248,-0.056643955,-0.0018453782,5.879041
NEDD1,-0.044882387,-0.03542597,-0.054273214,-0.044541314,-0.032199755,2.4307756,-0.027145293,-0.05337874,-0.022758514,-0.034063634,1.8431386,-0.04729825,2.8320155,-0.044038948,2.6805544,2.6886196
NSD1,-0.06587405,-0.06495924,-0.08787568,-0.05732372,-0.061453927,4.547083,-0.05470384,-0.08070321,-0.03964413,-0.048043087,2.2214718,-0.088005096,4.515453,-0.068662144,0.11690337,6.81926
RFC1,-0.044725012,-0.03528083,-0.05409269,-0.04442217,-0.03205593,2.4211156,-0.027009944,-0.053195484,-0.022644548,-0.03396245,1.8375459,-0.047146868,2.8224487,-0.043897413,2.6833756,2.6743715
POLR1D,-0.044200163,-0.034724284,-0.053512342,-0.043990545,-0.03157002,2.3914816,-0.026612207,-0.05265091,-0.022404918,-0.03366914,1.8213403,-0.04656918,2.7971478,-0.04332071,2.670142,2.6240363
HAT1,-0.044784054,-0.03533696,-0.054226413,-0.0444698,-0.03212428,2.4274216,-0.027103316,-0.05330517,-0.022675008,-0.03403706,1.8383089,-0.04726264,2.8283048,-0.043926366,2.681028,2.6863623
ZNF766,-0.044914626,-0.035446122,-0.054325692,-0.044566292,-0.032221776,2.4331782,-0.027172703,-0.053452067,-0.022794833,-0.03409674,1.844075,-0.04733603,2.8363333,-0.04404758,2.674408,2.692537
MPHOSPH9,-0.041473303,-0.02900009,-0.049007587,-0.040902566,-0.031280573,1.8625278,-0.020225067,-0.048957944,-0.02291993,-0.030830214,2.0639458,-0.041821223,2.718155,-0.04292308,2.8399374,2.0439014
HESX1,-0.060095962,-0.06500496,-0.083894625,-0.05382721,-0.053615797,4.4599996,-0.046948962,-0.078953326,-0.033680763,-0.050199337,2.3345113,-0.084866114,4.366839,-0.07109683,-0.004765226,6.8203096
NUDT15,-0.041615676,-0.029184526,-0.049165,-0.041041527,-0.031437214,1.8684398,-0.020329926,-0.0491062,-0.022983773,-0.030892262,2.0716715,-0.041965432,2.7212477,-0.043132868,2.848175,2.054438
XRCC6,-0.045255892,-0.0357878,-0.054715108,-0.044822056,-0.03253225,2.4508855,-0.027424227,-0.053807773,-0.022965917,-0.03430025,1.8569502,-0.047713183,2.8524365,-0.04443841,2.6773374,2.728958
TF,-0.04449798,-0.035020564,-0.053812306,-0.044189252,-0.031851087,2.408709,-0.026833696,-0.05293842,-0.02254464,-0.033819135,1.830119,-0.046841774,2.8090363,-0.0436233,2.673308,2.652169
CKS2,-0.04469757,-0.035231914,-0.05397892,-0.04435161,-0.032014318,2.4179673,-0.026943028,-0.053108048,-0.02264499,-0.03390205,1.8359511,-0.0470227,2.8171744,-0.043861616,2.678931,2.6665404
ARID2,-0.04514854,-0.035653174,-0.054716982,-0.04471127,-0.0324921,2.4590516,-0.027470909,-0.053737268,-0.022936374,-0.03430092,1.8491566,-0.04773951,2.852633,-0.044267796,2.6583636,2.7444355
HINFP,-0.035971604,-0.031242205,-0.050747603,-0.044052094,-0.02688376,2.236841,-0.020479938,-0.049934525,-0.018215878,-0.029335558,1.0483823,-0.046389,2.1370149,-0.034902867,3.1853354,1.9378093
STX8,-0.044840753,-0.03538249,-0.05427637,-0.044512972,-0.032168653,2.4311385,-0.027121156,-0.053372845,-0.022718545,-0.03405797,1.8410046,-0.047278855,2.8296385,-0.043988414,2.6784759,2.6887696
SOX11,-0.06587405,-0.06495924,-0.08787568,-0.05732372,-0.061453927,4.547083,-0.05470384,-0.08070321,-0.03964413,-0.048043087,2.2214718,-0.088005096,4.515453,-0.068662144,0.11690337,6.81926
DCAF13,-0.044403046,-0.034953725,-0.053705987,-0.0441542,-0.031768475,2.4031477,-0.026754191,-0.05282493,-0.02248465,-0.033753395,1.8263217,-0.046780452,2.8044577,-0.043556675,2.6788044,2.6409996
HCFC1,-0.04426519,-0.034815002,-0.053713582,-0.04401664,-0.031701013,2.404618,-0.026760986,-0.05277195,-0.0224092,-0.03374678,1.8169817,-0.04673736,2.7988067,-0.043371562,2.6667051,2.6486619
EXOSC9,-0.044317152,-0.03483257,-0.053528313,-0.044035625,-0.031677987,2.3953757,-0.02663618,-0.052691266,-0.022460785,-0.033658884,1.8260686,-0.04661589,2.79853,-0.04345322,2.671839,2.627137
RSU1,-0.044779673,-0.03533886,-0.054196462,-0.044468038,-0.0321284,2.4272056,-0.027078962,-0.053290494,-0.022676136,-0.034009874,1.8390411,-0.047220677,2.8248692,-0.043948453,2.6819322,2.6831017
ANP32E,-0.044404626,-0.03202256,-0.04597479,-0.039566964,-0.030619048,1.9883474,-0.030750344,-0.046443433,-0.02959076,-0.030174782,1.8817278,-0.04039205,2.409597,-0.043873638,2.248027,2.8747163
EFNA1,-0.044704817,-0.035281274,-0.054124076,-0.044436328,-0.032066308,2.422581,-0.02704749,-0.053225584,-0.022643765,-0.0339756,1.8378259,-0.047180906,2.8239822,-0.04387105,2.6827667,2.6748664
HTATSF1,-0.044717994,-0.03519729,-0.05419008,-0.044353116,-0.03206783,2.424878,-0.02703203,-0.053271763,-0.022714905,-0.034004096,1.8352257,-0.047119964,2.8225203,-0.04383747,2.662791,2.6864061
NUDT1,-0.044667214,-0.03521936,-0.054085754,-0.044364087,-0.032025285,2.4226668,-0.026992613,-0.05317211,-0.02261586,-0.033952646,1.8349373,-0.04707817,2.8171616,-0.04383558,2.6781614,2.674073
POLR1B,-0.044953045,-0.035461895,-0.05423843,-0.044539046,-0.032239478,2.4296064,-0.027118403,-0.053385165,-0.022799982,-0.03404682,1.8458369,-0.04727667,2.8330407,-0.04410162,2.676512,2.6894858
WDR54,-0.04361358,-0.03621448,-0.05085702,-0.039662715,-0.03172364,2.2442026,-0.02716973,-0.05265665,-0.019277764,-0.03146523,1.6827564,-0.044946976,2.4094348,-0.042742986,2.3385124,2.7974465
POLR3D,-0.041044153,-0.030915674,-0.04864199,-0.042119313,-0.027411154,2.1133451,-0.02694893,-0.049120612,-0.01904039,-0.03422081,2.0481772,-0.044634774,3.0044436,-0.03899472,2.9324832,2.344527
FGB,-0.043802753,-0.03442591,-0.053012677,-0.043706454,-0.031271156,2.3728755,-0.02626694,-0.052177906,-0.022161389,-0.033340003,1.8031235,-0.046245765,2.773644,-0.042979635,2.678528,2.5795805
HIBCH,-0.044925082,-0.035495725,-0.054401435,-0.044628642,-0.032278772,2.4358253,-0.027210092,-0.053506654,-0.02278667,-0.034124747,1.8453807,-0.04745021,2.8390322,-0.044122256,2.6821024,2.6978912
APOC4.APOC2,-0.06587405,-0.06495924,-0.08787568,-0.05732372,-0.061453927,4.547083,-0.05470384,-0.08070321,-0.03964413,-0.048043087,2.2214718,-0.088005096,4.515453,-0.068662144,0.11690337,6.81926
CBX3,-0.045679074,-0.03620104,-0.055356715,-0.04517998,-0.03296753,2.4875746,-0.027845766,-0.05434245,-0.023247024,-0.034628257,1.8709476,-0.04833023,2.882266,-0.044915173,2.6685061,2.791378
SEMA3E,-0.06587405,-0.06495924,-0.08787568,-0.05732372,-0.061453927,4.547083,-0.05470384,-0.08070321,-0.03964413,-0.048043087,2.2214718,-0.088005096,4.515453,-0.068662144,0.11690337,6.81926
SPTLC3,-0.044325594,-0.034873653,-0.053685263,-0.044125404,-0.031688616,2.395908,-0.0267364,-0.052822154,-0.022470212,-0.033763923,1.829416,-0.0467497,2.8063536,-0.043462444,2.6727831,2.6361032
PDGFRA,-0.04455582,-0.03514304,-0.053997323,-0.044281013,-0.03194217,2.4179604,-0.0269618,-0.053049624,-0.022552354,-0.033908296,1.8299384,-0.047020633,2.8117042,-0.043745693,2.680091,2.6687405
MEP1A,-0.04459019,-0.03515172,-0.053947013,-0.04432075,-0.031960934,2.4157395,-0.026904566,-0.05303903,-0.02256528,-0.033867296,1.8317633,-0.04702564,2.8148327,-0.04376412,2.6853294,2.6612966
SULF2,-0.044405214,-0.034985803,-0.053822815,-0.044152122,-0.031815916,2.4104493,-0.026848316,-0.05289291,-0.022475218,-0.033801444,1.8224342,-0.0468505,2.804041,-0.04354821,2.6750898,2.6544855
GRPR,-0.044195283,-0.034687504,-0.053495128,-0.043906927,-0.03160856,2.398682,-0.026593996,-0.052577127,-0.022376494,-0.033616934,1.809068,-0.046565555,2.791882,-0.04327483,2.668889,2.6329262
FAM13A,-0.04850104,-0.035229128,-0.047168206,-0.042362798,-0.029206498,2.7146528,-0.027919285,-0.04617596,-0.022112047,-0.027420701,2.1646683,-0.04354934,2.4364696,-0.03619211,2.355737,1.8788027
JAG1,-0.04453239,-0.03506214,-0.053939477,-0.044252735,-0.03189874,2.4140322,-0.026913023,-0.05304403,-0.022561021,-0.03388843,1.8296056,-0.046975497,2.8161793,-0.04363541,2.6733763,2.6624386
ASGR1,-0.044515744,-0.03505648,-0.05381383,-0.04424386,-0.03186262,2.4076047,-0.02683356,-0.052953247,-0.022549067,-0.033818863,1.831662,-0.046886895,2.8122444,-0.043659657,2.6791084,2.649987
TP53,-0.04442367,-0.03503305,-0.053838532,-0.0442463,-0.031809404,2.4065876,-0.026841355,-0.052928247,-0.022485638,-0.033821505,1.8309416,-0.046908047,2.8078547,-0.043626703,2.6838574,2.647103
EED,-0.044433035,-0.03496811,-0.053721823,-0.04416746,-0.031818915,2.4051583,-0.026794467,-0.05285712,-0.02251311,-0.033756603,1.8295457,-0.046815842,2.8075027,-0.04356048,2.67707,2.6429029
DDAH1,-0.044397194,-0.03479724,-0.053547364,-0.043821424,-0.031694338,2.4133391,-0.026747078,-0.052616905,-0.022443434,-0.033724036,1.8169675,-0.046715815,2.803822,-0.043337718,2.6297035,2.6708145
GTF2F2,-0.044908106,-0.03544035,-0.05433526,-0.04454679,-0.032225046,2.4333258,-0.027161064,-0.053430166,-0.022769913,-0.034082316,1.843198,-0.04730307,2.8303475,-0.04406674,2.6770368,2.6950502
PMS1,-0.04459411,-0.035132382,-0.053932898,-0.044294104,-0.03192511,2.4136918,-0.026906976,-0.053061824,-0.022591356,-0.03388598,1.8331265,-0.04695774,2.8149486,-0.04372828,2.6756446,2.6605828
ZFP42,-0.06587405,-0.06495924,-0.08787568,-0.05732372,-0.061453927,4.547083,-0.05470384,-0.08070321,-0.03964413,-0.048043087,2.2214718,-0.088005096,4.515453,-0.068662144,0.11690337,6.81926
KIAA0101,-0.06587405,-0.06495924,-0.08787568,-0.05732372,-0.061453927,4.547083,-0.05470384,-0.08070321,-0.03964413,-0.048043087,2.2214718,-0.088005096,4.515453,-0.068662144,0.11690337,6.81926
MFAP2,-0.06587405,-0.06495924,-0.08787568,-0.05732372,-0.061453927,4.547083,-0.05470384,-0.08070321,-0.03964413,-0.048043087,2.2214718,-0.088005096,4.515453,-0.068662144,0.11690337,6.81926
THYN1,-0.044774223,-0.035279933,-0.054099493,-0.044446845,-0.03209004,2.4220855,-0.027010603,-0.053228095,-0.022729024,-0.033959027,1.8384032,-0.047127288,2.8260741,-0.043903094,2.6795795,2.6721358
SLC7A7,-0.044622153,-0.03520949,-0.05407485,-0.0443416,-0.032001205,2.420118,-0.027027166,-0.053134818,-0.022577727,-0.03394992,1.8317585,-0.04711937,2.8184915,-0.043772396,2.680639,2.6752288
G2E3,-0.044763137,-0.035463046,-0.053982787,-0.044509366,-0.031882763,2.4358518,-0.02708741,-0.05317814,-0.022759464,-0.033881057,1.8324698,-0.046568647,2.797595,-0.043992467,2.6948934,2.629732
SDAD1,-0.044911224,-0.035453632,-0.05429321,-0.044549815,-0.032229763,2.4321609,-0.027163731,-0.053407863,-0.022766225,-0.034072924,1.8432451,-0.047328014,2.8328214,-0.044065483,2.679394,2.693106
RAD51AP1,-0.043675475,-0.03208325,-0.047208805,-0.04343256,-0.036031023,2.7122302,-0.020595217,-0.04889484,-0.024784433,-0.03047053,1.1886148,-0.047060277,2.8537607,-0.040494967,2.3714721,2.5020783
DR1,-0.044634614,-0.035169072,-0.05401229,-0.044317268,-0.031982422,2.4182196,-0.026963882,-0.05312068,-0.022613563,-0.033924066,1.8328667,-0.047019128,2.8172011,-0.043760493,2.6751702,2.6690347
ICA1,-0.04449561,-0.035004977,-0.05403282,-0.043706696,-0.031916775,2.4553118,-0.027320728,-0.052878752,-0.022529306,-0.033997033,1.8090364,-0.047450643,2.8372264,-0.043264583,2.5410016,2.767191
MATR3,-0.044810828,-0.03536345,-0.054262098,-0.044517867,-0.032152005,2.4300394,-0.02710962,-0.053349018,-0.022712465,-0.034047917,1.8418199,-0.04728054,2.8294039,-0.043977514,2.6812153,2.6847928
CTPS1,-0.044740096,-0.03527566,-0.054225054,-0.04442108,-0.032094635,2.4269376,-0.027091438,-0.053301647,-0.022677697,-0.034028336,1.8373413,-0.04720821,2.8253398,-0.043875277,2.6728632,2.6870599
SMAD3,-0.044550944,-0.03500752,-0.05376586,-0.044176657,-0.031862855,2.4078336,-0.02680559,-0.05293974,-0.022609781,-0.033808157,1.828082,-0.046802133,2.813161,-0.04360908,2.6665766,2.6520672
NR3C1,-0.047508754,-0.038057506,-0.05752671,-0.046490483,-0.034950167,2.645548,-0.029573128,-0.05626333,-0.024475664,-0.035508502,1.9086506,-0.050980885,3.0015202,-0.04660288,2.564006,3.0525703
BSCL2,-0.044724654,-0.03525734,-0.0542167,-0.04440442,-0.032082457,2.4262848,-0.027087256,-0.053288136,-0.022670697,-0.034023557,1.8368329,-0.04719386,2.8243518,-0.043857273,2.6717699,2.6871667
NIF3L1,-0.04472565,-0.035285886,-0.05406082,-0.044425655,-0.032071035,2.42007,-0.027014537,-0.05319654,-0.022669459,-0.033942536,1.8398712,-0.04712882,2.8232508,-0.043895636,2.6810963,2.6704051
NFIB,-0.045514826,-0.03604067,-0.054990225,-0.0450425,-0.032749847,2.4642425,-0.0276098,-0.054089442,-0.023141762,-0.03444032,1.8643169,-0.047985576,2.868379,-0.04468957,2.6765983,2.7508512
C9orf72,-0.04464878,-0.03525138,-0.054124497,-0.044375528,-0.032028593,2.421969,-0.027071504,-0.053179137,-0.022590578,-0.033977415,1.8330994,-0.04716385,2.8200626,-0.04380352,2.6811695,2.679118
PRMT5,-0.04484204,-0.03541269,-0.054252252,-0.044527706,-0.03217995,2.4272256,-0.027112722,-0.053359825,-0.022721129,-0.034055296,1.8433261,-0.047290377,2.829955,-0.044053562,2.6825507,2.6875665
RAB34,-0.044985212,-0.03559418,-0.05453859,-0.044735916,-0.03233216,2.4399178,-0.027342996,-0.053608697,-0.022802917,-0.03420107,1.8484662,-0.047651034,2.8498626,-0.044150423,2.6869082,2.7073295
ID2,-0.044787996,-0.035311155,-0.054020602,-0.04440211,-0.03210148,2.4213438,-0.026998192,-0.053163733,-0.02268919,-0.033918653,1.8409309,-0.047081206,2.8200574,-0.043938108,2.6800153,2.6718
WIPI1,-0.04388878,-0.034381516,-0.052968726,-0.043689337,-0.031274818,2.3684297,-0.026409978,-0.052230876,-0.022323092,-0.03339994,1.8077908,-0.04617985,2.7907681,-0.042826142,2.654527,2.5821903
PYGL,-0.04416612,-0.036766008,-0.051500626,-0.04011842,-0.032234788,2.2725894,-0.027539037,-0.053316697,-0.019543914,-0.03178078,1.7071369,-0.04556759,2.436901,-0.043368075,2.3429756,2.8501043
TBRG4,-0.04461886,-0.03513077,-0.05383269,-0.044257455,-0.031938836,2.4112792,-0.026861763,-0.053001475,-0.022622503,-0.03382898,1.8343718,-0.046870094,2.812614,-0.043747872,2.6726992,2.6549232
USP44,-0.044195283,-0.034687504,-0.053495128,-0.043906927,-0.03160856,2.398682,-0.026593996,-0.052577127,-0.022376494,-0.033616934,1.809068,-0.046565555,2.791882,-0.04327483,2.668889,2.6329262
GLIS3,-0.044421826,-0.0346665,-0.05606694,-0.043403693,-0.03195763,2.410663,-0.027690846,-0.052716866,-0.022457141,-0.034935005,2.066245,-0.045528367,2.6892838,-0.04504239,2.5500107,2.912716
EHMT1,-0.047481854,-0.03441286,-0.046165504,-0.041597128,-0.028441021,2.650862,-0.0272003,-0.0452789,-0.021606393,-0.026921937,2.136538,-0.04245368,2.3852563,-0.035406914,2.3339312,1.7934496
GGCT,-0.044817943,-0.035346072,-0.054244444,-0.04449809,-0.032148242,2.429336,-0.027090572,-0.05334631,-0.022712275,-0.03404204,1.8400624,-0.047269456,2.8305678,-0.04395756,2.678848,2.6859431
CCL2,-0.06587405,-0.06495924,-0.08787568,-0.05732372,-0.061453927,4.547083,-0.05470384,-0.08070321,-0.03964413,-0.048043087,2.2214718,-0.088005096,4.515453,-0.068662144,0.11690337,6.81926
LAMB1,-0.044660315,-0.035246912,-0.054183528,-0.0444757,-0.032072023,2.4245498,-0.027066983,-0.053288527,-0.022651471,-0.03397735,1.8379498,-0.047266077,2.8277097,-0.043816503,2.6805916,2.6751678
PLRG1,-0.04489163,-0.035419673,-0.054321334,-0.044526733,-0.03219088,2.4311419,-0.027178572,-0.053414878,-0.022753302,-0.03405649,1.8388479,-0.0473343,2.834898,-0.044012055,2.6778617,2.6922076
BLM,-0.044739444,-0.035254918,-0.05414486,-0.044390462,-0.032081276,2.426078,-0.027043696,-0.0532341,-0.022662207,-0.03399086,1.8386323,-0.047157474,2.822359,-0.043876722,2.6751585,2.6820233
RNF138,-0.044744212,-0.03526822,-0.05406401,-0.04438913,-0.03206586,2.4214432,-0.027002981,-0.053189028,-0.022675553,-0.033952367,1.8358166,-0.047087163,2.821826,-0.043874886,2.6777186,2.6741846
FAM151A,-0.044985212,-0.03559418,-0.05453859,-0.044735916,-0.03233216,2.4399178,-0.027342996,-0.053608697,-0.022802917,-0.03420107,1.8484662,-0.047651034,2.8498626,-0.044150423,2.6869082,2.7073295
ISG15,-0.044467457,-0.034979608,-0.053673975,-0.044119697,-0.031816684,2.4060593,-0.026745196,-0.052810606,-0.02252626,-0.033727363,1.8282369,-0.046736438,2.8019285,-0.043612845,2.673988,2.6423001
ALG8,-0.04481988,-0.03536357,-0.054244842,-0.04448395,-0.032155596,2.4291508,-0.027101308,-0.053334806,-0.022701086,-0.03404387,1.8409796,-0.04725245,2.82731,-0.043989252,2.679414,2.6880436
TBL1X,-0.0444744,-0.03500145,-0.05377992,-0.044190023,-0.031822987,2.4064329,-0.026797306,-0.052903842,-0.02252889,-0.03379192,1.8302308,-0.04683321,2.807675,-0.04361976,2.675986,2.648024
NR1I3,-0.04447492,-0.035043612,-0.053922266,-0.044253025,-0.03186191,2.411191,-0.026908988,-0.053013824,-0.022536,-0.03388036,1.8310616,-0.046969287,2.814188,-0.043621447,2.676685,2.6570635
BRCA1,-0.047972847,-0.038676117,-0.05880285,-0.047252662,-0.035568934,2.6623075,-0.030105338,-0.057368167,-0.024798367,-0.03624807,1.9592445,-0.051657937,3.0374994,-0.04756999,2.6238742,3.0859447
RREB1,-0.0441652,-0.03468317,-0.05359965,-0.04393002,-0.031610265,2.3989897,-0.026655752,-0.05266878,-0.022364289,-0.033684332,1.8136532,-0.046626654,2.7948184,-0.043252043,2.6635244,2.6389334
KLF5,-0.044955865,-0.03536087,-0.05433384,-0.04440976,-0.03219938,2.4495785,-0.027245365,-0.053372297,-0.022754358,-0.034139995,1.8424468,-0.04751374,2.8454843,-0.04391476,2.6431308,2.7256207
FOXO1,-0.033742905,-0.027488887,-0.045048002,-0.04286022,-0.025382854,2.1767876,-0.029226042,-0.041221917,-0.015281583,-0.025421852,1.6108433,-0.042307667,2.1063347,-0.038204353,2.91769,3.3935816
RBM39,-0.044805262,-0.035320867,-0.054154098,-0.044468597,-0.03217039,2.4299755,-0.027074566,-0.05325739,-0.022757316,-0.033977486,1.8405192,-0.047250558,2.8293862,-0.0439718,2.6721675,2.6851902
PRPS2,-0.044051126,-0.03454425,-0.05324736,-0.043820858,-0.03143673,2.3822298,-0.026494851,-0.052423418,-0.022328848,-0.03353047,1.8105683,-0.04636066,2.790875,-0.043074477,2.6675062,2.6066067
