,0,1,2,3,4,5,6,7,8,9,10,11,12,13,14,15
TRIM47,6.4708047,1.8814478,-0.029602988,-0.08158116,5.9242277,5.882648,-0.075550236,5.242299,8.82313,-0.01105739,4.055728,2.2730088,-0.012623932,-0.07888222,4.179745,4.4225073
B230219D22RIK,7.0518527,2.6874917,-0.029313473,-0.08723732,6.5643535,6.1356354,-0.08032821,5.654707,9.374079,-0.009844305,4.321493,2.3803468,-0.011602251,-0.08399416,4.4173737,4.545909
NOLC1,6.4076953,2.104048,-0.028481947,-0.08750704,5.6895156,6.283276,-0.07295252,5.242667,9.085332,-0.012130697,4.229595,2.174689,-0.011971275,-0.07771586,4.174112,4.7644806
CCL9,6.9268312,2.4964795,-0.028872268,-0.087842055,6.5178866,6.1328506,-0.079027675,5.6252537,9.346988,-0.010780742,4.2927656,2.2033126,-0.010502394,-0.0821413,4.3648405,4.5091276
CFP,6.9548955,2.8192995,-0.02777924,-0.08532982,6.503465,5.946901,-0.07869415,5.578681,9.164203,-0.009022076,4.198605,2.3143091,-0.011219058,-0.081866555,4.324482,4.350709
MCPT8,6.7855954,2.3559859,-0.028488798,-0.086563416,6.3692875,6.034048,-0.07786644,5.5536737,9.237272,-0.010911964,4.2239213,2.1259048,-0.010489912,-0.07994335,4.3020563,4.41018
PLA2G12A,6.9329286,2.4720147,-0.029911425,-0.08826412,6.621662,6.282113,-0.079833135,5.6279707,9.460525,-0.011318911,4.396485,2.3902302,-0.011631627,-0.08374637,4.425137,4.707055
CUL3,7.0038633,2.656098,-0.029331354,-0.08623772,6.4963264,6.0988173,-0.08010948,5.630348,9.330302,-0.009670691,4.289873,2.4149418,-0.012009264,-0.083798915,4.396176,4.5326443
LONP1,7.0353584,2.5130496,-0.030172758,-0.08793205,6.5498943,6.2197056,-0.08044425,5.649458,9.437957,-0.010675334,4.365127,2.391,-0.011587241,-0.0842585,4.4365325,4.642644
HACD3,6.931342,2.3219876,-0.026432663,-0.07889364,6.664829,5.466538,-0.07330888,5.639406,8.734452,-0.007123737,3.9709637,2.3770058,-0.01609301,-0.08350044,4.050999,3.8116095
METTL27,6.527888,1.9495635,-0.029584987,-0.0847089,6.1126714,5.974425,-0.07620195,5.426402,9.02726,-0.011859079,4.1935925,2.1464288,-0.011022125,-0.07866531,4.2546725,4.4543285
RB1,6.994283,2.427535,-0.030274034,-0.0874824,6.5092936,6.207875,-0.07977918,5.6432705,9.3887005,-0.01093125,4.362875,2.387566,-0.01157759,-0.08344962,4.4162264,4.610056
GNS,7.043255,2.6358874,-0.029337687,-0.088341005,6.586139,6.167905,-0.08111037,5.6692123,9.451271,-0.010036789,4.31986,2.311507,-0.011432938,-0.084377155,4.471208,4.578885
CAMK2D,6.9861445,2.5032024,-0.029693829,-0.08770252,6.552474,6.166976,-0.07949736,5.6635494,9.37842,-0.010665672,4.347928,2.3281593,-0.010999007,-0.08289386,4.386937,4.554493
SPO11,5.8176265,1.206759,-0.028057227,-0.08200315,5.8963056,5.636615,-0.07457426,5.1318064,8.445587,-0.012988591,3.7389119,1.1289696,-0.0077710142,-0.073447436,4.1796837,4.0664845
HEXA,6.914743,2.7840748,-0.027809504,-0.08520058,6.4678965,5.9491305,-0.07849128,5.5163374,9.1480055,-0.009262478,4.1900287,2.2819977,-0.011069056,-0.08197431,4.291259,4.3961496
FGGY,6.8356457,2.2271028,-0.030816803,-0.08607677,6.3430023,6.156729,-0.0792737,5.404072,9.222334,-0.010926273,4.272085,2.3460886,-0.011759034,-0.0840641,4.345093,4.7088566
CBFB,6.063303,1.6904579,-0.027312905,-0.081365325,6.0859265,5.687013,-0.07456276,5.1762257,8.51832,-0.012271164,3.8641202,1.5264528,-0.009365927,-0.07421567,4.17532,4.089409
CD93,7.0048094,2.4914327,-0.030331708,-0.086344905,6.4727283,6.1468887,-0.08026086,5.7022486,9.399526,-0.011223543,4.412486,2.5622635,-0.013149523,-0.08469866,4.4804783,4.679681
GALNS,7.027941,2.6984632,-0.029003624,-0.08732378,6.561947,6.128391,-0.080026574,5.6290874,9.368187,-0.010004718,4.3066087,2.3371208,-0.011231031,-0.0838105,4.3905993,4.554002
IL27RA,6.9939847,2.4573045,-0.03020364,-0.0876286,6.498256,6.214504,-0.08045635,5.619253,9.421916,-0.010707975,4.3393497,2.3845417,-0.011866258,-0.08401997,4.4422026,4.6476364
ANKRD44,6.943577,2.5459657,-0.029622966,-0.08583481,6.436079,6.112593,-0.07931855,5.5571404,9.257587,-0.01019503,4.287687,2.4166985,-0.012197009,-0.08282445,4.360184,4.551487
ENPP5,6.7180862,2.0013824,-0.031638417,-0.08460203,6.204967,6.0910745,-0.07846288,5.356127,9.116478,-0.011053411,4.258181,2.359822,-0.011990054,-0.08354995,4.2717032,4.687711
USP37,6.9723606,2.6843343,-0.028603334,-0.08645144,6.547536,6.0569983,-0.07892976,5.6488886,9.280453,-0.010043205,4.2900434,2.3398647,-0.011141014,-0.082015246,4.351518,4.433217
TYROBP,7.0146823,2.4172218,-0.03100912,-0.08740272,6.522784,6.2220783,-0.08047629,5.6043615,9.392305,-0.010757643,4.373595,2.4463086,-0.011914403,-0.08523992,4.42965,4.7084637
ZBTB16,6.7257624,2.019542,-0.031395927,-0.08416139,6.2020025,6.0695934,-0.078253455,5.3847733,9.090797,-0.011015752,4.2550817,2.3744192,-0.012468314,-0.082733534,4.2512097,4.617056
DOK2,5.898381,2.435342,-0.028125845,-0.08109175,5.7385025,5.596062,-0.08267035,4.551841,8.831973,-0.012820717,4.2801714,1.4207798,-0.004052059,-0.07309096,4.4472675,4.8015547
CSF1R,6.672137,1.8814838,-0.031416353,-0.084772155,6.1099677,6.130949,-0.07776642,5.3576584,9.10555,-0.011760445,4.243701,2.3454657,-0.01240761,-0.08184676,4.3042364,4.664154
TNIP3,7.0304885,2.5066428,-0.030227482,-0.08758537,6.575502,6.191801,-0.07972193,5.6563616,9.3738,-0.01068619,4.3762264,2.3931062,-0.011284229,-0.084039286,4.393803,4.611294
WDHD1,7.0025215,2.7381835,-0.02864866,-0.08641131,6.5341296,6.06062,-0.07949074,5.6151733,9.293663,-0.00959234,4.2692313,2.3486094,-0.0113022765,-0.083017446,4.363775,4.474779
PSAT1,7.019304,2.631314,-0.029640058,-0.086559825,6.5100665,6.1323743,-0.07997526,5.587984,9.321703,-0.009972547,4.3138604,2.4116943,-0.0117916735,-0.084209606,4.381057,4.590025
ABCG2,6.1917896,1.528179,-0.028966937,-0.082544126,5.756218,5.8332124,-0.073892966,5.18713,8.761284,-0.012816878,4.0183597,1.945997,-0.010658864,-0.075602606,4.132622,4.3877983
SIRPA,6.8973,2.5297203,-0.029244484,-0.08564943,6.393256,6.048518,-0.07929184,5.455536,9.17124,-0.009696487,4.219096,2.3111346,-0.011728189,-0.083661556,4.340564,4.5483847
EIF4ENIF1,6.499334,2.5092037,-0.024740508,-0.070128605,6.7984247,6.2544036,-0.07247817,5.0182877,7.8475266,-0.008929331,4.6503935,2.2260475,-0.0076308367,-0.073312655,3.2981431,4.059757
E2F4,6.8730507,2.5519094,-0.028097846,-0.08586759,6.4037385,5.9895344,-0.07891888,5.5993996,9.233107,-0.009672955,4.191713,2.221882,-0.0114198625,-0.08119152,4.377928,4.3530283
SRM,6.9363065,2.5520828,-0.028793685,-0.08624862,6.434435,6.0809116,-0.07904262,5.614935,9.293544,-0.010063997,4.256195,2.318915,-0.011563408,-0.081980854,4.3652625,4.4539967
MCM3,7.012713,2.5618055,-0.02991601,-0.086967334,6.501017,6.1696863,-0.08015224,5.5810738,9.351954,-0.0102415765,4.3202496,2.400463,-0.01178314,-0.08427296,4.401581,4.6239166
MS4A3,6.281452,1.6853387,-0.028330984,-0.0846114,5.9662805,5.7129593,-0.07652361,5.1742067,8.859971,-0.011024362,3.898981,1.6347532,-0.009695748,-0.07704925,4.286948,4.263731
CENPO,7.0696,2.5526423,-0.030197117,-0.08840716,6.602051,6.2358246,-0.08066546,5.66628,9.462258,-0.010709407,4.385142,2.389688,-0.011376981,-0.085060336,4.4460926,4.673024
KAT7,6.853157,2.7179446,-0.027114183,-0.085126415,6.438236,5.9181733,-0.07768304,5.5673313,9.147196,-0.009524584,4.178592,2.2131722,-0.01079436,-0.08002163,4.2841773,4.2900324
NMD3,6.8387194,2.3765464,-0.033017658,-0.07933259,5.48212,6.0169964,-0.0828023,5.5212755,8.660235,-0.006726872,3.9594026,2.731635,-0.013584425,-0.08211915,4.2424006,4.027643
DDX20,6.996447,2.77139,-0.028378319,-0.08675716,6.5673566,6.038242,-0.07958862,5.626814,9.290254,-0.009567675,4.2667117,2.3070776,-0.011071699,-0.082856536,4.3718343,4.4496965
ITIH5,6.970037,2.3824162,-0.030538699,-0.08705052,6.485369,6.1939783,-0.0795233,5.641577,9.354374,-0.011003427,4.3674707,2.4118476,-0.011721211,-0.08325445,4.405283,4.605569
TOPORS,6.731198,2.2648983,-0.02904452,-0.084515676,6.2343855,6.015797,-0.07755724,5.485626,9.115445,-0.010736464,4.184966,2.2986977,-0.012098487,-0.079986975,4.3109403,4.423216
DNM1L,6.42281,2.9307241,-0.03209591,-0.075348094,5.939775,5.302206,-0.07143855,5.440216,8.308286,-0.013796111,3.8553321,1.5676152,-0.009308608,-0.07432938,3.7908523,4.4704065
VDR,6.465686,1.7154216,-0.031482976,-0.08187861,5.954775,5.961015,-0.07579227,5.227072,8.830965,-0.011599256,4.1488953,2.3497908,-0.012604813,-0.079561956,4.158281,4.5471153
SGPP1,6.782865,2.1357136,-0.030597683,-0.08601875,6.27673,6.1282825,-0.078544125,5.4081125,9.208383,-0.011126222,4.237392,2.3080187,-0.011395442,-0.08230424,4.334458,4.637951
COLGALT1,6.6785975,2.1854799,-0.029275456,-0.08285994,6.1144094,5.924119,-0.076916195,5.358406,8.980461,-0.009885496,4.1040215,2.3223755,-0.012149274,-0.080750816,4.2375383,4.4233837
PTCD3,6.819309,2.1256456,-0.031358328,-0.085857645,6.3003693,6.167142,-0.079260916,5.409358,9.224477,-0.011090387,4.282253,2.3817239,-0.0120196985,-0.084016435,4.349369,4.721875
PPID,6.940269,2.7907012,-0.027843297,-0.08518541,6.486128,5.9638724,-0.07827775,5.547676,9.152135,-0.009330001,4.209705,2.315498,-0.011070464,-0.08183152,4.2953687,4.3807726
PBX1,6.9874806,2.372763,-0.030952679,-0.08758127,6.4859815,6.2346888,-0.08062574,5.618162,9.421544,-0.0109127825,4.362116,2.4283721,-0.012032119,-0.08463009,4.4521837,4.69886
FBXO5,6.9024043,2.4134536,-0.029978951,-0.086783834,6.457261,6.1251535,-0.079630196,5.654294,9.339065,-0.010843118,4.325063,2.3619516,-0.011820068,-0.082790256,4.4018774,4.556505
CSF3R,5.76156,0.849877,-0.031598028,-0.07582779,5.3077917,5.583183,-0.07089119,4.844075,8.183501,-0.012327482,3.7998815,1.972939,-0.011539397,-0.075096615,3.8890622,4.330238
MYCN,7.0237117,2.405286,-0.030692238,-0.08809243,6.53727,6.2535453,-0.080184765,5.6231966,9.416035,-0.01102663,4.380135,2.3893006,-0.011509231,-0.08450525,4.432535,4.6830654
NFATC2,6.898066,2.490647,-0.029672917,-0.085260324,6.3935347,6.07401,-0.07850802,5.604603,9.212196,-0.010326496,4.298484,2.4340112,-0.012157289,-0.08175206,4.33818,4.4856567
COL4A2,6.4169173,1.6919891,-0.030892758,-0.081745185,5.907508,5.8982553,-0.07611757,5.205164,8.851577,-0.011415125,4.0915465,2.2820606,-0.012717707,-0.079876386,4.1682515,4.5203943
IGHM,5.8176265,1.206759,-0.028057227,-0.08200315,5.8963056,5.636615,-0.07457426,5.1318064,8.445587,-0.012988591,3.7389119,1.1289696,-0.0077710142,-0.073447436,4.1796837,4.0664845
AW112010,5.8176265,1.206759,-0.028057227,-0.08200315,5.8963056,5.636615,-0.07457426,5.1318064,8.445587,-0.012988591,3.7389119,1.1289696,-0.0077710142,-0.073447436,4.1796837,4.0664845
GEMIN5,7.0692415,2.571816,-0.030090436,-0.08868238,6.599003,6.2505984,-0.08111165,5.649808,9.488304,-0.010726982,4.374862,2.3705723,-0.011454842,-0.08548491,4.4677706,4.7052374
ARCN1,6.9750466,2.9220555,-0.027124839,-0.08460996,6.4848094,5.9137435,-0.07840399,5.642888,9.189147,-0.009769102,4.2634225,2.4297597,-0.012194829,-0.08206851,4.349947,4.3964434
MTR,6.999571,2.378164,-0.031006537,-0.08758994,6.4988384,6.236614,-0.080464154,5.5819216,9.397042,-0.010871646,4.361031,2.421934,-0.011848229,-0.084970415,4.434142,4.7172155
TCIRG1,6.8766623,2.65895,-0.02754981,-0.08611192,6.497312,5.9625,-0.07868968,5.5864334,9.200916,-0.009704931,4.1769276,2.2006352,-0.010941405,-0.08093645,4.3731084,4.328187
PCMTD1,7.0102935,2.7387547,-0.028757006,-0.086815335,6.571436,6.068647,-0.07959333,5.628746,9.311045,-0.009798204,4.288061,2.3387148,-0.011072157,-0.083305374,4.3704696,4.4956646
ANXA5,6.936765,2.408771,-0.030556256,-0.086041525,6.453413,6.1441813,-0.07936128,5.6098204,9.2871685,-0.010751221,4.3480444,2.4597938,-0.012238,-0.08321596,4.379495,4.5925703
LGALS1,5.6588244,0.84831095,-0.030594768,-0.07532241,5.2258983,5.5192356,-0.0700332,4.7690544,8.096375,-0.0126431165,3.7294426,1.8917017,-0.011224889,-0.07378573,3.8753378,4.2929745
CD82,6.7661467,2.6217465,-0.026757207,-0.083953634,6.332962,5.82258,-0.07750235,5.4617205,9.031284,-0.009206413,4.059201,2.1617057,-0.011462655,-0.07931307,4.295343,4.205125
RFC4,6.9855256,2.6110964,-0.02929371,-0.08689834,6.5030427,6.1328254,-0.079716705,5.545129,9.308214,-0.010181076,4.2928114,2.3410008,-0.011394707,-0.084017664,4.372467,4.5990963
NAV1,5.323251,0.62005377,-0.029129392,-0.0740306,4.9204154,5.3457975,-0.06794984,4.5749187,7.8345175,-0.0131726675,3.528851,1.5786408,-0.009983892,-0.070350096,3.8005843,4.1726584
OSTM1,7.109553,2.651914,-0.02981311,-0.088462405,6.6608157,6.196683,-0.08077561,5.7343407,9.464607,-0.010386073,4.392189,2.4008393,-0.011717832,-0.08473861,4.4623604,4.5912457
TLR4,6.8121176,2.5474837,-0.028059946,-0.08536571,6.3705955,5.968533,-0.07775724,5.578849,9.176035,-0.010062631,4.2165837,2.2211473,-0.010887756,-0.080170505,4.2856126,4.3545084
ICAM1,6.846866,2.783134,-0.027223187,-0.08429907,6.3914332,5.859945,-0.07825169,5.4543886,9.049108,-0.008650264,4.097897,2.2305608,-0.011233527,-0.0814332,4.28763,4.3168383
PDE4D,5.8176265,1.206759,-0.028057227,-0.08200315,5.8963056,5.636615,-0.07457426,5.1318064,8.445587,-0.012988591,3.7389119,1.1289696,-0.0077710142,-0.073447436,4.1796837,4.0664845
MTFR1,7.0938163,2.5199351,-0.027498886,-0.08487481,6.331819,5.9276247,-0.07761304,5.310032,9.371504,-0.012170683,4.0738263,2.3387558,-0.013391663,-0.08474371,4.2229114,4.623336
SLC44A2,6.989997,2.8149252,-0.028242597,-0.085740335,6.5285416,6.003744,-0.07908286,5.6029654,9.2248125,-0.009382928,4.2505217,2.3509579,-0.011284783,-0.08282463,4.3308,4.432761
GUSB,7.016748,2.7082214,-0.028521454,-0.08748104,6.580472,6.095568,-0.07974593,5.6521626,9.346798,-0.009797732,4.286335,2.2790196,-0.010907571,-0.0830478,4.389027,4.47571
PADI4,6.4817843,1.8721273,-0.029641727,-0.08440107,6.0553875,5.9611344,-0.0759061,5.391176,8.990381,-0.012017094,4.174281,2.1317086,-0.011089241,-0.07832003,4.241355,4.4548435
ATG12,6.951632,2.6216457,-0.028940286,-0.08673839,6.490876,6.096847,-0.0794223,5.5169706,9.276725,-0.010101588,4.2644906,2.2951164,-0.01116459,-0.08360854,4.3535395,4.5698576
PIM2,6.8421774,2.501899,-0.029334515,-0.08394345,6.357864,5.9534492,-0.07802909,5.4624653,9.047326,-0.009766672,4.172685,2.3758523,-0.011778495,-0.08193701,4.2827106,4.426093
PHF11B,6.529857,1.7993861,-0.029845947,-0.084479064,6.026067,5.984287,-0.07700601,5.3040886,9.021969,-0.011641661,4.0927362,2.1314812,-0.011802606,-0.07933603,4.3129144,4.4798727
HDC,6.353067,2.0083244,-0.027520614,-0.08337908,6.0028214,5.783835,-0.0743743,5.3166027,8.846463,-0.01159353,4.0516963,1.9188337,-0.009725409,-0.0757529,4.119279,4.2611604
ELAC2,6.953839,2.40011,-0.030674402,-0.08641105,6.4456654,6.186004,-0.07968981,5.56182,9.306954,-0.010804709,4.3428316,2.4514897,-0.012321376,-0.08372758,4.3926086,4.650179
HSPA1A,5.4095206,2.729843,-0.018789573,-0.089167535,5.923303,4.5317855,-0.062074196,4.4374094,7.759486,-0.001007592,3.5251465,1.7956684,-0.0021193062,-0.06951028,4.011369,3.0663545
WSB1,6.9875937,2.4657834,-0.030565973,-0.08652954,6.48602,6.169143,-0.07983425,5.5885735,9.318301,-0.01060125,4.354215,2.4506688,-0.01216485,-0.08430488,4.3857484,4.640711
MED16,7.021171,2.4498315,-0.030606858,-0.087914996,6.5321507,6.2393904,-0.08051263,5.589156,9.413235,-0.010846649,4.3642783,2.3974812,-0.011658055,-0.08510264,4.43556,4.7136765
MTOR,6.799451,2.5318143,-0.028120028,-0.085666314,6.3621984,5.976359,-0.07836033,5.367058,9.115343,-0.0098438095,4.1473155,2.1527262,-0.010797489,-0.082255,4.2974787,4.491349
RUVBL2,7.022256,2.480494,-0.03047733,-0.08786421,6.5374722,6.2258043,-0.08047859,5.591241,9.41217,-0.010728425,4.359782,2.396062,-0.01159135,-0.08488132,4.42933,4.6989737
TRMT6,7.033278,2.6430547,-0.029243628,-0.08715018,6.551187,6.142514,-0.07970509,5.660919,9.360861,-0.010148657,4.3279157,2.3696322,-0.011358438,-0.083446436,4.3901997,4.531089
CENPK,6.981948,2.7630289,-0.028508801,-0.0857709,6.5068994,6.0173945,-0.079385266,5.5833063,9.228676,-0.009273515,4.2384367,2.3596475,-0.011579177,-0.08283339,4.3565817,4.4406233
GTF2F1,6.010561,2.5131185,-0.029380163,-0.08191007,5.8372493,5.7252545,-0.083887085,4.59523,8.955585,-0.013371592,4.415638,1.5746737,-0.004224693,-0.07549381,4.4794374,5.0131826
IL12A,7.0405254,2.6091313,-0.029729323,-0.08798328,6.5773163,6.1504903,-0.0811217,5.685914,9.428006,-0.010012292,4.337137,2.3520753,-0.011671527,-0.08479156,4.468455,4.5843706
TUBGCP2,5.461274,2.1346207,-0.02455216,-0.08951161,5.7186155,4.7596374,-0.06270213,4.475956,8.091407,-0.004709925,3.7936265,2.0303082,0.063513875,-0.07496637,4.0293355,3.4465997
H1F0,6.8406625,2.3588111,-0.029435562,-0.08309406,6.1852126,6.0978937,-0.076348506,5.2926865,8.993231,-0.009786931,4.180498,2.4825037,-0.012593966,-0.082315445,4.247397,4.575117
DUT,6.8410573,2.2706497,-0.03042525,-0.08466211,6.2914124,6.0832376,-0.07852398,5.4324923,9.131878,-0.010356358,4.234567,2.412366,-0.012313727,-0.08299589,4.3081727,4.5815706
RMND5A,6.987755,2.3662753,-0.030756129,-0.08750872,6.48885,6.236675,-0.07987335,5.6112986,9.377493,-0.011088351,4.371794,2.4050572,-0.011800328,-0.08379473,4.420044,4.6577034
ZFP36,6.715151,1.9857264,-0.031381123,-0.08492025,6.1997423,6.0948443,-0.0779258,5.3380327,9.099828,-0.011281656,4.224592,2.3431604,-0.011539666,-0.08242242,4.2920723,4.6655846
CNN3,6.8450274,2.221491,-0.030880319,-0.08596631,6.320446,6.167791,-0.079263195,5.4411564,9.241284,-0.010951466,4.2761574,2.395219,-0.01220874,-0.083241254,4.367978,4.6807117
EMILIN1,6.1370387,1.6503527,-0.028876347,-0.08506877,5.388452,6.166532,-0.07137804,5.028962,8.845954,-0.012873961,4.095051,2.0728266,-0.012319358,-0.07605977,4.075967,4.7393675
ARHGEF18,6.9839015,2.3685658,-0.031182421,-0.08728048,6.484337,6.2149396,-0.08063599,5.650815,9.409646,-0.010899663,4.3794546,2.4538763,-0.012230562,-0.084739156,4.4483485,4.6845503
IARS,5.547934,2.3097575,-0.020124547,-0.0814235,6.0180435,4.070319,-0.056783542,4.5819407,7.500038,-0.00073479884,3.4785385,2.0616086,-0.0043629515,-0.075469404,3.6762018,2.6188097
PGLYRP2,5.6324697,0.841632,-0.030448304,-0.075278655,5.205553,5.505652,-0.06988002,4.752183,8.077239,-0.012705805,3.7139316,1.8647599,-0.011094171,-0.07347594,3.8732953,4.285842
CCDC50,6.884247,2.576533,-0.027921245,-0.08457209,6.309834,6.06021,-0.07679428,5.4841213,9.131477,-0.009551595,4.1835194,2.3891308,-0.011791585,-0.08094768,4.3310714,4.429147
FOXO1,6.5092554,2.4494932,-0.026751468,-0.080883406,6.2884965,5.7375607,-0.075523935,5.360446,8.69316,-0.00994253,4.0249314,2.1491435,-0.0116265435,-0.07758939,4.193753,4.127474
PLEK,6.3065147,1.4280837,-0.031859286,-0.0853511,5.7104115,5.7337246,-0.07337885,5.4713507,8.745115,-0.012417932,4.1393275,2.2908275,-0.009115634,-0.07358145,3.9048092,4.2668734
GK,7.015738,2.4440913,-0.030500762,-0.08744118,6.5565543,6.2081804,-0.079635076,5.629154,9.351495,-0.010911047,4.378649,2.4001358,-0.0114282165,-0.08454275,4.3958287,4.6502457
TNPO1,6.7333293,2.4486408,-0.027016787,-0.08755099,6.468634,6.0298667,-0.07895287,5.290229,8.919317,-0.0075503513,4.03087,2.1390991,-0.014757293,-0.07892754,4.39842,4.477767
SLC35A4,6.8078933,2.4279292,-0.028865363,-0.085548125,6.3480496,6.023847,-0.07804266,5.5813065,9.197262,-0.010426394,4.2444086,2.285584,-0.011422112,-0.08069897,4.3233438,4.421294
YBX1,5.595027,2.5371873,-0.023169324,-0.090014435,5.845264,4.7553797,-0.063459486,4.523344,8.132233,-0.0036865792,3.8049831,2.0589807,0.026004616,-0.0760785,4.0549035,3.393605
GLIPR2,6.507938,1.7246189,-0.030544868,-0.08384651,5.967796,6.041399,-0.07644043,5.268956,8.975482,-0.012145371,4.13226,2.22391,-0.012221669,-0.07962094,4.256174,4.571001
ZFP945,6.8476634,2.4692385,-0.029404677,-0.08499453,6.3471403,6.0371594,-0.0787824,5.4034414,9.131524,-0.009899739,4.202979,2.3181856,-0.011668637,-0.083246686,4.287416,4.56495
SLC16A1,6.804021,2.4311967,-0.027666895,-0.088732176,6.3184404,5.9055457,-0.08000304,5.637144,9.468329,-0.009848772,4.3169117,2.322606,-0.0110585885,-0.08454627,4.3869705,4.685132
SHISA5,6.9941354,2.5166717,-0.029652249,-0.08802404,6.5207653,6.198822,-0.08049121,5.6251135,9.439327,-0.010550428,4.321854,2.3223891,-0.011503956,-0.08374988,4.4366617,4.616047
TRAP1,5.8176265,1.206759,-0.028057227,-0.08200315,5.8963056,5.636615,-0.07457426,5.1318064,8.445587,-0.012988591,3.7389119,1.1289696,-0.0077710142,-0.073447436,4.1796837,4.0664845
FOXRED1,7.0453725,2.7153373,-0.028915647,-0.08762545,6.582722,6.1270466,-0.08033611,5.6445923,9.383757,-0.009818412,4.302885,2.3240657,-0.011200331,-0.08404372,4.4165792,4.542143
PLPPR3,6.2667036,1.8743542,-0.027536767,-0.081117794,5.872948,5.67445,-0.07393144,5.15658,8.649671,-0.010894568,3.9038248,2.0062692,-0.0110301515,-0.07584307,4.1075945,4.2221203
DDX39,6.516424,2.3631015,-0.02885715,-0.08397508,6.226736,5.604611,-0.07406351,5.2645435,8.900903,-0.008095835,4.032551,2.2799988,-0.010958467,-0.07454153,4.2068954,4.1989956
INO80D,7.0164647,2.749083,-0.028719984,-0.086788855,6.572024,6.0539536,-0.0797303,5.6317644,9.305252,-0.0096451165,4.275412,2.3364737,-0.011209314,-0.08339327,4.3763723,4.476862
RANGAP1,7.063917,2.6321132,-0.02951864,-0.088573664,6.5978627,6.1907043,-0.08124867,5.6710253,9.465559,-0.010121733,4.3352356,2.325312,-0.011426236,-0.08486002,4.4806805,4.6087456
MXD3,7.019997,2.4527857,-0.030416382,-0.087581016,6.525337,6.2193103,-0.079905435,5.6264877,9.390166,-0.010859064,4.3727903,2.4038255,-0.011588816,-0.08398002,4.4147696,4.6393347
PNCK,6.0044436,1.7505789,-0.026578536,-0.06528148,6.24735,6.050607,-0.068327,4.653199,7.4011607,-0.010123148,4.4496317,2.252984,-0.008536551,-0.06875968,3.0904043,4.029212
ETF1,6.434739,2.5809205,-0.031636484,-0.07903327,6.814364,5.568055,-0.07491985,4.9469624,8.90742,-0.0038525634,4.045734,2.0583634,-0.012567531,-0.078905605,4.380593,4.3211823
MNS1,6.8910885,2.4677887,-0.02950884,-0.08566706,6.3635316,6.094725,-0.07953966,5.4713907,9.2367735,-0.0099356035,4.218864,2.35348,-0.012054339,-0.08337482,4.3583155,4.580989
BC005561,6.828255,2.2169147,-0.030870399,-0.08604811,6.343999,6.1532397,-0.07920157,5.401535,9.226362,-0.010958332,4.266165,2.3451722,-0.011751339,-0.084048316,4.339451,4.711958
PLXNA4OS1,5.8176265,1.206759,-0.028057227,-0.08200315,5.8963056,5.636615,-0.07457426,5.1318064,8.445587,-0.012988591,3.7389119,1.1289696,-0.0077710142,-0.073447436,4.1796837,4.0664845
GP9,6.9147525,2.4726214,-0.029344572,-0.08689679,6.512738,6.1051254,-0.07850197,5.542903,9.241297,-0.010824071,4.2936873,2.2690976,-0.010664837,-0.083235584,4.3199077,4.57073
RGS19,7.000608,2.5755122,-0.02947514,-0.08697899,6.5019307,6.1523266,-0.079611704,5.5795345,9.331535,-0.010268362,4.307609,2.3591378,-0.011425858,-0.0835872,4.3810506,4.5806446
RPAP1,7.0354743,2.738404,-0.02889259,-0.08706781,6.570422,6.1077914,-0.07992093,5.6349964,9.346629,-0.009881573,4.306071,2.3507843,-0.011238661,-0.083918855,4.3795834,4.5410185
SNRPB,7.0138245,2.5468905,-0.030141128,-0.08648887,6.4884877,6.1560636,-0.08008838,5.591237,9.326938,-0.010136616,4.324415,2.440275,-0.012060738,-0.084428005,4.394247,4.6146717
PTGR1,6.810811,2.6869602,-0.027920512,-0.08334601,6.374206,5.8386307,-0.07714513,5.42013,8.946753,-0.009243159,4.1133375,2.2851665,-0.011103117,-0.0807439,4.217149,4.3056574
HSPA4,6.951892,2.4789965,-0.029668232,-0.086396426,6.4511595,6.1267033,-0.07920347,5.623801,9.309187,-0.010408139,4.3070626,2.3881736,-0.011753611,-0.08254807,4.3798265,4.521205
ANXA3,6.8643045,2.4992812,-0.0287896,-0.08516318,6.3566437,6.018058,-0.0783811,5.591115,9.208532,-0.009986131,4.232644,2.3363774,-0.011744819,-0.08128908,4.3357105,4.4118214
OTUD6B,7.0389075,2.7221215,-0.028836995,-0.08754284,6.5800815,6.1181474,-0.0802443,5.6375875,9.371808,-0.009803308,4.297781,2.3178031,-0.011169107,-0.08395271,4.4103274,4.5355453
TCP11L2,6.974847,2.833654,-0.028026592,-0.08558169,6.5207405,5.9811487,-0.0789203,5.5943785,9.205771,-0.009289112,4.2361984,2.3335402,-0.011191642,-0.08248712,4.317597,4.4089966
ATP8B4,6.737972,2.4290648,-0.027931225,-0.084253386,6.2511244,5.9304614,-0.07718527,5.512226,9.098735,-0.010067727,4.159189,2.2331305,-0.011534405,-0.07934475,4.269541,4.3178883
TMEM206,6.5445685,1.9067829,-0.029643036,-0.085079275,6.1278534,5.984401,-0.07706218,5.4090405,9.051207,-0.011675472,4.1538754,2.1249285,-0.011494883,-0.079219975,4.324568,4.4563713
SELENOP,6.8947306,2.103487,-0.026436705,-0.0794443,5.936396,5.64735,-0.077510186,5.8132925,9.48697,-0.009801264,3.8060057,1.8803617,-0.00928616,-0.076406844,4.5065517,3.8310425
CHRNB1,6.9527917,2.3506157,-0.03068814,-0.08723914,6.471799,6.2038317,-0.07963767,5.584923,9.349774,-0.01098517,4.348678,2.3902743,-0.011537969,-0.08343206,4.404165,4.642418
ZNRF2,6.873446,2.4875295,-0.02956106,-0.08494589,6.382515,6.0271907,-0.07881711,5.4579754,9.139371,-0.00989588,4.2108364,2.3622205,-0.011776139,-0.08316748,4.315892,4.534438
TACC3,6.9897676,2.743611,-0.028451683,-0.08654861,6.557121,6.0471077,-0.07952276,5.667472,9.315539,-0.009745954,4.279497,2.3425195,-0.01133946,-0.08268054,4.381823,4.446292
NAMPT,6.983634,2.8040864,-0.028110955,-0.08617334,6.53713,6.0088725,-0.079294525,5.599246,9.245853,-0.009302737,4.2387896,2.3097491,-0.011136886,-0.08269781,4.3524528,4.4272146
PPM1F,6.975023,2.822129,-0.028210921,-0.08537184,6.5134697,5.9881244,-0.078921735,5.608741,9.202231,-0.009325111,4.2478204,2.3680031,-0.011494028,-0.08231754,4.3177147,4.4029045
CLN5,6.9453397,2.5794234,-0.029394725,-0.08597677,6.4474654,6.1023197,-0.07935091,5.5613728,9.262177,-0.010074046,4.2789717,2.3907661,-0.012042122,-0.08265701,4.3568826,4.5323124
SLPI,5.323251,0.62005377,-0.029129392,-0.0740306,4.9204154,5.3457975,-0.06794984,4.5749187,7.8345175,-0.0131726675,3.528851,1.5786408,-0.009983892,-0.070350096,3.8005843,4.1726584
IFI203,6.727817,2.7525694,-0.024609406,-0.08664093,6.5561576,5.831755,-0.07805073,5.4425592,8.934863,-0.007541417,3.9750097,1.9864558,-0.013009753,-0.076999255,4.3755174,4.160159
TXNIP,7.034785,2.6636822,-0.029245837,-0.086722784,6.5335126,6.111771,-0.07997284,5.644891,9.324919,-0.009699507,4.30179,2.391626,-0.011775014,-0.08353878,4.4086456,4.5042324
FAR1,6.653475,2.2788656,-0.028245727,-0.08341685,6.5057883,5.944247,-0.074142955,5.073015,8.6389265,-0.0050554387,3.5943367,2.552669,-0.012384933,-0.07993587,3.941687,4.6334515
ADSSL1,6.8819165,2.6010947,-0.024704544,-0.081596345,6.1573834,5.642133,-0.07469752,5.1735773,9.08332,-0.011665798,3.8615518,2.2150788,-0.01341262,-0.07985472,4.09178,4.2865686
POLD1,6.981813,2.64172,-0.029225871,-0.086434305,6.4843473,6.109737,-0.07956359,5.552947,9.283965,-0.010052337,4.2892013,2.3633022,-0.011627978,-0.08345811,4.3577714,4.5623827
COQ8A,6.8891444,1.8702484,-0.024851555,-0.07668308,5.520948,5.678319,-0.07460765,5.883053,9.335718,-0.009368049,3.8392313,1.6173669,-0.010015074,-0.07442593,4.122444,3.5189707
TRPC6,5.323251,0.62005377,-0.029129392,-0.0740306,4.9204154,5.3457975,-0.06794984,4.5749187,7.8345175,-0.0131726675,3.528851,1.5786408,-0.009983892,-0.070350096,3.8005843,4.1726584
FLOT2,6.970843,2.6928327,-0.028900841,-0.08569282,6.515703,6.015486,-0.07878396,5.5929375,9.206626,-0.009870483,4.257065,2.3720305,-0.011273769,-0.08266257,4.32539,4.4437447
CDC45,6.9809318,2.709199,-0.028957566,-0.08555266,6.4950976,6.0360613,-0.0792218,5.5862074,9.214563,-0.009798089,4.266748,2.396537,-0.011773275,-0.083229795,4.347021,4.479333
ARRDC4,6.9979644,2.4218314,-0.030621562,-0.08745556,6.4857464,6.2259564,-0.0802656,5.5762634,9.387748,-0.010845025,4.3529196,2.408878,-0.01186753,-0.08442002,4.425868,4.688407
ANGPT1,7.0043426,2.5058746,-0.030263718,-0.08694318,6.5164323,6.1840878,-0.07989049,5.634241,9.359828,-0.010673172,4.3651633,2.438248,-0.011973532,-0.08376627,4.4048157,4.6143265
MAD2L1,6.7961335,2.558598,-0.027703732,-0.08559661,6.4275227,5.9536943,-0.077631965,5.5660257,9.163185,-0.010198868,4.201701,2.204859,-0.010650542,-0.079793975,4.3056974,4.336776
EDEM1,6.920214,2.7294703,-0.02781007,-0.08530614,6.4297714,5.9765935,-0.07834918,5.609885,9.20434,-0.009356954,4.2230873,2.2951481,-0.011210243,-0.081340216,4.3031187,4.3567543
MSH6,7.0221786,2.6970642,-0.028894246,-0.08710447,6.539629,6.1134844,-0.080098204,5.669278,9.380624,-0.009857552,4.3042893,2.3409703,-0.01142255,-0.08345183,4.399348,4.5114717
GM20559,5.817935,1.2069147,-0.02805695,-0.08200136,5.895942,5.6362486,-0.07457639,5.131995,8.445496,-0.012985655,3.7387125,1.1288444,-0.0077706967,-0.07344727,4.1797366,4.066024
EYA2,7.0137563,2.5846078,-0.029618584,-0.086863056,6.508322,6.153111,-0.07972725,5.601326,9.33518,-0.0101925535,4.3164144,2.387636,-0.011577585,-0.083676234,4.387017,4.573925
HDAC7,6.974431,2.710245,-0.028958213,-0.08573049,6.5054765,6.05028,-0.07920186,5.5843477,9.232597,-0.00975946,4.2724943,2.4010885,-0.01174613,-0.0827683,4.347811,4.4818773
NCLN,6.646174,2.2241156,-0.028639313,-0.0836387,6.4603515,5.969665,-0.07497931,5.0068216,8.662983,-0.0049070683,3.574024,2.5522377,-0.012775747,-0.08062991,3.990229,4.695385
CKAP5,7.060557,2.5445635,-0.030211644,-0.08820873,6.58489,6.2248335,-0.08061787,5.6717243,9.458361,-0.010638842,4.380348,2.397884,-0.011462171,-0.084710635,4.443204,4.6540194
KCTD12,6.942741,2.8170304,-0.027429858,-0.085952014,6.5136247,5.956954,-0.079091266,5.604841,9.230724,-0.009150743,4.1974773,2.2466466,-0.011013742,-0.08184608,4.3464503,4.353997
S100A6,7.0625157,2.6477852,-0.029482475,-0.088322476,6.6200023,6.1668406,-0.080626875,5.682616,9.427839,-0.010226642,4.351368,2.3367712,-0.011186406,-0.08464899,4.438593,4.5926123
TPX2,6.850303,2.7366965,-0.027621184,-0.084192,6.3903832,5.893827,-0.0782559,5.468459,9.078028,-0.008803242,4.119326,2.282651,-0.011471137,-0.08139972,4.2791038,4.343854
OAS3,5.249511,0.4256054,-0.030582234,-0.074735485,4.735427,5.2127495,-0.0659612,4.684469,7.6792707,-0.013353522,3.5603795,1.7445995,-0.008591567,-0.067140155,3.544134,4.0428476
MTCH2,6.942613,2.7908401,-0.028090052,-0.08492924,6.470686,5.9588895,-0.07858747,5.5328245,9.141148,-0.009250728,4.2091537,2.3419304,-0.011375288,-0.08254545,4.299448,4.414093
FEM1B,6.9703574,2.526914,-0.029655946,-0.08766491,6.537765,6.1291327,-0.08039619,5.6913176,9.396547,-0.010368569,4.3303614,2.3287718,-0.01153198,-0.083463565,4.442638,4.543088
EGR1,6.773353,2.7213793,-0.026551548,-0.082885034,6.3598776,5.7954893,-0.07686016,5.457119,8.94164,-0.008727482,4.0602846,2.2496793,-0.011771317,-0.0790467,4.2675314,4.1702814
GRIA3,6.144009,1.1695415,-0.02770853,-0.074558765,5.717147,5.415694,-0.06696195,5.0036182,8.159864,-0.010435777,3.746992,2.1623163,-0.015095797,-0.076795675,3.8525856,3.989811
IDH3A,7.016597,2.5095913,-0.029881665,-0.0879331,6.569327,6.1935196,-0.07979378,5.676343,9.405305,-0.010760811,4.366821,2.3518474,-0.011116531,-0.08351399,4.408254,4.585682
ATP10A,6.82483,2.6911998,-0.02783209,-0.08442988,6.4084067,5.855723,-0.07878346,5.469987,9.051975,-0.008897766,4.097312,2.2400565,-0.011678734,-0.08165945,4.330065,4.3279524
AZIN1,5.8176265,1.206759,-0.028057227,-0.08200315,5.8963056,5.636615,-0.07457426,5.1318064,8.445587,-0.012988591,3.7389119,1.1289696,-0.0077710142,-0.073447436,4.1796837,4.0664845
HDAC11,6.8669295,2.2545424,-0.0310255,-0.08620647,6.3835673,6.1468472,-0.079651676,5.572176,9.311252,-0.010990747,4.319128,2.4251525,-0.012187097,-0.083442114,4.4053082,4.6464195
PPM1G,6.960013,2.6975224,-0.028657276,-0.08627273,6.511554,6.046765,-0.079176165,5.547782,9.247347,-0.009821042,4.251228,2.317908,-0.011150415,-0.08299369,4.3457193,4.501669
H2-OB,6.601739,2.0955791,-0.029367289,-0.085252166,6.2137985,5.9877434,-0.07668865,5.4842224,9.080199,-0.011563271,4.220197,2.1572933,-0.010839615,-0.079181656,4.2663116,4.445176
GIMAP6,6.92072,2.306992,-0.030445358,-0.08695191,6.422975,6.176132,-0.079561196,5.571866,9.328373,-0.0108997775,4.311396,2.3690562,-0.011842162,-0.08290608,4.419888,4.5998297
VAV3,6.8458524,2.748052,-0.027553044,-0.08395612,6.3854547,5.85645,-0.07800318,5.4323254,9.014189,-0.008785929,4.110336,2.2593665,-0.01129271,-0.08168915,4.263138,4.33665
OBSCN,5.323251,0.62005377,-0.029129392,-0.0740306,4.9204154,5.3457975,-0.06794984,4.5749187,7.8345175,-0.0131726675,3.528851,1.5786409,-0.009983892,-0.070350096,3.8005843,4.1726584
ADGRG3,7.03782,2.6595118,-0.029581932,-0.08801923,6.593321,6.1622596,-0.08090534,5.674036,9.447888,-0.010335848,4.3465996,2.3506076,-0.011383237,-0.084871866,4.4320908,4.6290245
MLLT3,6.987958,2.4534907,-0.030535871,-0.086876854,6.4824777,6.1956797,-0.079929814,5.5694904,9.336291,-0.010752989,4.35313,2.431519,-0.012057936,-0.084264025,4.3988566,4.666027
NDN,5.323251,0.62005377,-0.029129392,-0.0740306,4.9204154,5.3457975,-0.06794984,4.5749187,7.8345175,-0.0131726675,3.528851,1.5786408,-0.009983892,-0.070350096,3.8005843,4.1726584
GM20342,5.8176265,1.206759,-0.028057227,-0.08200315,5.8963056,5.636615,-0.07457426,5.1318064,8.445587,-0.012988591,3.7389119,1.1289696,-0.0077710142,-0.073447436,4.1796837,4.0664845
GMNN,6.941617,2.8019524,-0.027968306,-0.08505655,6.4848304,5.954711,-0.078993574,5.5833673,9.189675,-0.008989193,4.199698,2.3571758,-0.01158372,-0.08225969,4.3347483,4.3839207
CREBRF,7.0283756,2.5578854,-0.030005816,-0.08693557,6.5149474,6.1728325,-0.08015385,5.64104,9.374441,-0.010286416,4.34035,2.431127,-0.011926899,-0.084076196,4.4155726,4.597967
SOAT1,5.76132,0.849559,-0.031593986,-0.07582874,5.307398,5.5830736,-0.07088905,4.844077,8.183513,-0.012329758,3.7997289,1.97248,-0.011538825,-0.07509251,3.8890493,4.3300614
NDE1,6.994165,2.6217246,-0.029399518,-0.08647352,6.4981103,6.118426,-0.07965271,5.5532026,9.284101,-0.01005459,4.297252,2.3763149,-0.011598451,-0.08423881,4.3638263,4.5912857
C1RL,6.5832505,1.9433258,-0.031133238,-0.08301865,6.08617,5.9800572,-0.07761668,5.2666836,9.016922,-0.010960929,4.15564,2.3674011,-0.012198889,-0.0817444,4.248768,4.624427
CERS6,7.012399,2.7383697,-0.028342703,-0.087440975,6.5612764,6.0796337,-0.08022538,5.6567698,9.3739,-0.009633046,4.2704554,2.2614443,-0.0110484455,-0.083345085,4.409496,4.474931
RAD21,5.8909283,1.457076,-0.027708493,-0.08114049,5.953194,5.6387563,-0.074057765,5.102482,8.434243,-0.01284251,3.7705052,1.3965695,-0.008595223,-0.07367564,4.1618757,4.104602
RRM1,6.960344,2.717715,-0.02848213,-0.085986935,6.4881663,6.035695,-0.07919376,5.5674114,9.244762,-0.009514991,4.235614,2.328527,-0.011375842,-0.08254727,4.3428016,4.457223
RAB44,6.736109,2.1149557,-0.031006109,-0.08500982,6.257019,6.081601,-0.07853216,5.3491983,9.120952,-0.010850221,4.2414384,2.314004,-0.011665044,-0.083630696,4.274905,4.6783466
GOLPH3,6.8232455,2.6966283,-0.02617068,-0.08746707,6.5498724,6.0163264,-0.078899615,5.379421,8.971521,-0.007179069,4.060172,2.1638398,-0.014301532,-0.079151645,4.3676844,4.4254255
CIP2A,6.9353194,2.7908852,-0.027809083,-0.08514314,6.486552,5.95679,-0.07822409,5.5412636,9.14477,-0.009328901,4.2062163,2.307544,-0.011015392,-0.08182122,4.290939,4.3784885
5430427O19RIK,6.8991523,2.3798897,-0.029495956,-0.08747671,6.4559207,6.1527963,-0.07906999,5.624523,9.343906,-0.011027538,4.30529,2.2598934,-0.011001601,-0.08189339,4.3829417,4.5304213
CST7,7.05135,2.554396,-0.030190699,-0.087859,6.569707,6.1915603,-0.08075412,5.6334457,9.39953,-0.010277262,4.3544464,2.3927126,-0.011706877,-0.08525814,4.4531226,4.647401
PRELID3B,6.849488,2.331719,-0.029955303,-0.08477975,6.3181024,6.0654774,-0.07923895,5.438527,9.178956,-0.010146873,4.2091312,2.3841863,-0.012360842,-0.08359679,4.3305097,4.5753307
IPO9,6.7760158,2.6104724,-0.031020422,-0.0775397,5.4684763,5.8108025,-0.08111676,5.558132,8.486953,-0.0057862136,3.8658671,2.6627758,-0.012981077,-0.07904537,4.142046,3.7297614
GPRASP1,7.0265646,2.6454508,-0.029492166,-0.08649742,6.505014,6.1268125,-0.0803063,5.6400614,9.350885,-0.009823509,4.306041,2.4207358,-0.012062864,-0.08422404,4.4077897,4.556941
MDN1,6.9482875,2.8469324,-0.027666595,-0.08570419,6.490542,5.9676833,-0.07916213,5.6322403,9.221737,-0.009003867,4.216572,2.2909195,-0.01143855,-0.08169028,4.351206,4.354557
CKS2,6.574818,2.412786,-0.027779039,-0.08947026,5.8924446,6.338667,-0.07458353,5.3017597,9.249899,-0.011598875,4.2658134,2.137416,-0.01135539,-0.08008572,4.230132,4.834592
OTULINL,6.9573383,2.4036975,-0.030268377,-0.08797414,6.531629,6.188503,-0.07970098,5.569474,9.378073,-0.01084773,4.333212,2.31877,-0.010745888,-0.083856694,4.397508,4.65543
BDH2,7.037866,2.3271744,-0.028539045,-0.084211655,6.2353444,5.954574,-0.07761957,5.23477,9.328067,-0.012419492,4.0709186,2.3877451,-0.013956871,-0.085143104,4.2293286,4.6932573
UBA2,6.9952464,2.6017914,-0.02946556,-0.08696156,6.508578,6.1431527,-0.07984302,5.552825,9.321576,-0.010188613,4.3017297,2.3562438,-0.011444447,-0.08418195,4.3798437,4.611124
RNF122,6.906848,2.370046,-0.03065989,-0.08555244,6.4062195,6.130853,-0.07920025,5.5539913,9.239388,-0.010668895,4.3217626,2.4655633,-0.012512867,-0.08316018,4.3618627,4.601638
CTLA2B,6.88474,2.2439759,-0.03103358,-0.08643806,6.3599024,6.143004,-0.07993631,5.487731,9.25797,-0.010531932,4.2932153,2.3505652,-0.012086702,-0.0845558,4.3816032,4.6655226
HLF,6.7512317,2.0556989,-0.031193925,-0.08564806,6.2664423,6.1275215,-0.07833775,5.3460217,9.143452,-0.011175582,4.239978,2.3327637,-0.01140749,-0.083194464,4.3151817,4.702711
SALL2,6.945888,2.3590214,-0.03033856,-0.087178685,6.4466686,6.202532,-0.07952918,5.5808554,9.349522,-0.010988867,4.333257,2.3722663,-0.011703824,-0.08308977,4.401231,4.62154
MTMR6,6.943431,2.7790244,-0.028130174,-0.085294865,6.4721174,5.9827766,-0.078744166,5.5372753,9.171896,-0.0093228035,4.2144284,2.3294046,-0.011329631,-0.082337566,4.3082633,4.42397
CDCA7,6.953609,2.4449642,-0.030325932,-0.087005235,6.500119,6.16429,-0.07970601,5.5452366,9.313606,-0.010710427,4.3373995,2.3750544,-0.011450019,-0.08482683,4.383186,4.6781464
AURKA,6.805234,2.7424366,-0.026595166,-0.08435503,6.40135,5.8321347,-0.077695854,5.527198,9.0658045,-0.009050009,4.102214,2.1896152,-0.011132905,-0.07965995,4.3032384,4.2106714
SERPINB6B,6.855522,2.2230392,-0.030229544,-0.0866525,6.3530006,6.1687765,-0.07885013,5.557946,9.290899,-0.011286923,4.2982345,2.332391,-0.011802377,-0.08205313,4.3867555,4.581441
SH2D5,6.9695454,2.435003,-0.030646889,-0.08625604,6.4650855,6.1652365,-0.0797082,5.5846863,9.302185,-0.01064106,4.348446,2.4641213,-0.012346544,-0.0839648,4.38324,4.630785
WDR4,6.9956517,2.6236994,-0.029360821,-0.08695032,6.509885,6.1336617,-0.07984859,5.5574694,9.327017,-0.010133482,4.2892165,2.3520052,-0.011448102,-0.083961934,4.3718376,4.5932446
UAP1,6.994011,2.5264304,-0.029565142,-0.08785657,6.5662746,6.1648684,-0.07952649,5.665721,9.383508,-0.010632571,4.345308,2.3135376,-0.010875091,-0.08300121,4.384807,4.5532246
MAP4K2,6.9052052,2.4317615,-0.029924443,-0.08601287,6.3816,6.126788,-0.079398684,5.46889,9.243892,-0.010265143,4.2556343,2.361869,-0.011895108,-0.083409496,4.3544993,4.6150427
FEM1A,7.0658817,2.5190392,-0.03053317,-0.087850705,6.580441,6.225118,-0.08056103,5.6893215,9.437129,-0.010728956,4.3977823,2.4372046,-0.011802027,-0.08496359,4.4397306,4.656255
MTO1,6.5457287,1.6880568,-0.032289043,-0.08277643,6.015784,6.034002,-0.07661702,5.263376,8.928433,-0.011690613,4.205126,2.3700163,-0.012225991,-0.08120926,4.200353,4.6357613
DCK,6.5818257,2.6707392,-0.028024979,-0.08390985,6.477351,5.705319,-0.07443896,5.2498865,8.920029,-0.007921474,4.0637717,2.3824513,-0.0112846205,-0.07673624,4.206896,4.2974987
EIF2S1,7.053477,2.5167086,-0.030361746,-0.08795415,6.564014,6.230948,-0.08054425,5.6687164,9.443359,-0.010749019,4.3845477,2.416585,-0.01171855,-0.084582426,4.443456,4.6534853
TAF12,6.7855487,2.2614062,-0.024923053,-0.077051505,5.835954,5.4677963,-0.075832635,5.679597,9.255059,-0.008942293,3.6725287,1.8365002,-0.009100747,-0.07462278,4.383647,3.6836488
UPP1,6.917873,2.7335615,-0.028144158,-0.085748054,6.518189,5.9615426,-0.07947849,5.603282,9.217998,-0.009289674,4.2016234,2.3005898,-0.011557198,-0.08213031,4.388552,4.3781853
TNFRSF21,6.92693,2.3889503,-0.03039733,-0.086182944,6.466567,6.1423397,-0.07885913,5.631692,9.271508,-0.010999602,4.3602905,2.420192,-0.01181657,-0.08261168,4.3560834,4.5620346
API5,6.9099784,2.7654164,-0.027871463,-0.085222945,6.468184,5.9528017,-0.07843329,5.5024557,9.142291,-0.009355298,4.1910834,2.28043,-0.011015657,-0.08220325,4.2913656,4.4153852
HELLS,6.912623,2.29071,-0.03098397,-0.08646324,6.3836274,6.145808,-0.08012916,5.5071316,9.278413,-0.010415241,4.2948766,2.3800013,-0.012253153,-0.08440863,4.396451,4.655011
CDK1,6.2996254,2.293277,-0.023697589,-0.07083535,6.531963,6.0764527,-0.072737634,4.9672956,7.948686,-0.008743942,4.6454544,2.2638354,-0.007903351,-0.07416793,3.280788,4.2333164
CD9,6.648406,1.87834,-0.03184667,-0.08399729,6.1238947,6.0623536,-0.078402534,5.3308086,9.107259,-0.01123156,4.232817,2.3636785,-0.012221901,-0.08315209,4.262257,4.6848145
ZDHHC6,6.89504,2.7811549,-0.027658856,-0.08505045,6.45755,5.93057,-0.07827938,5.4985504,9.124808,-0.0092601,4.176913,2.262743,-0.010968459,-0.081788175,4.2790055,4.384877
TRIM59,6.9969325,2.3558786,-0.030949552,-0.08766144,6.502998,6.240721,-0.080001816,5.604087,9.384228,-0.011052491,4.374235,2.4079814,-0.01164392,-0.08428529,4.4230843,4.683263
NOL9,6.577609,2.5671096,-0.026613643,-0.08911782,5.8939247,6.271317,-0.07426379,5.347477,9.235267,-0.011005871,4.2226386,2.0904584,-0.011181671,-0.07887183,4.2079363,4.704232
CENPL,5.8176265,1.206759,-0.028057227,-0.08200315,5.8963056,5.636615,-0.07457426,5.1318064,8.445587,-0.012988591,3.7389119,1.1289696,-0.0077710142,-0.073447436,4.1796837,4.0664845
RRM2,5.8116426,2.2798905,-0.032449935,-0.07332055,4.7499366,5.5462584,-0.08570278,4.498542,8.182795,-0.00971366,4.017292,1.9262877,-0.006176558,-0.07214053,4.2743306,4.338888
CSF2RB,6.9083796,2.827979,-0.02748408,-0.08499358,6.4729714,5.903682,-0.07848897,5.515622,9.112877,-0.008922104,4.16614,2.264501,-0.011042753,-0.08195916,4.294797,4.354931
ME2,6.935341,2.8201003,-0.027762797,-0.085025415,6.4774265,5.958923,-0.078767285,5.5773144,9.174749,-0.00917216,4.2021866,2.3403733,-0.011635105,-0.08181258,4.3217874,4.367917
PPP1CB,6.9800553,2.7265017,-0.028717872,-0.085725315,6.4940476,6.034273,-0.07926957,5.5766354,9.237231,-0.009425146,4.247141,2.3751042,-0.011557599,-0.08300169,4.345318,4.469865
TTLL12,7.042011,2.5279806,-0.029901192,-0.08827776,6.5979714,6.21363,-0.08001038,5.682023,9.426013,-0.010842926,4.3775463,2.349586,-0.011063418,-0.084121436,4.4210925,4.6125784
HDGF,6.900992,2.8407445,-0.027039872,-0.08506009,6.4957747,5.900653,-0.07886195,5.552845,9.14568,-0.008769105,4.1413393,2.2109869,-0.011094852,-0.08138432,4.331055,4.2897635
ZFP422,6.453724,1.7255969,-0.030959941,-0.08222674,5.9370956,5.9517655,-0.07560006,5.211727,8.850906,-0.011801943,4.112794,2.2927823,-0.012088125,-0.07919798,4.18783,4.5416336
ACSS1,5.274897,1.9776778,-0.023046564,-0.08746543,5.4940133,4.669928,-0.06128598,4.4575663,7.9373245,-0.0051534926,3.6779253,1.8857589,-0.00041708344,-0.071216844,3.9603126,3.260708
HIF3A,7.026578,2.6637566,-0.029059216,-0.08813319,6.6055126,6.1274953,-0.08029379,5.652893,9.390114,-0.010162804,4.3191085,2.2858286,-0.010914233,-0.08417211,4.414496,4.5619745
FASTKD3,7.0034165,2.6047237,-0.02946628,-0.08673907,6.485709,6.1486173,-0.08018196,5.617095,9.352702,-0.010044017,4.299199,2.3922255,-0.012011299,-0.08376036,4.4105716,4.568076
SLC31A1,6.9678926,2.421021,-0.030552337,-0.08753845,6.5158486,6.181895,-0.08028071,5.686841,9.415502,-0.010912127,4.3633194,2.3925052,-0.01173819,-0.08393216,4.4262924,4.620411
NAPRT,6.8069267,2.5782428,-0.028545743,-0.083712764,6.3601522,5.878607,-0.07841638,5.4265194,9.036145,-0.00922131,4.108413,2.3089206,-0.011628519,-0.082319364,4.2814164,4.4009295
ADA,5.323251,0.62005377,-0.029129392,-0.0740306,4.9204154,5.3457975,-0.06794984,4.5749187,7.8345175,-0.0131726675,3.528851,1.5786409,-0.009983892,-0.070350096,3.8005843,4.1726584
CDKN1C,6.819381,2.4052167,-0.029764106,-0.08550099,6.3786793,6.049416,-0.07902815,5.5559244,9.225968,-0.010487974,4.2649417,2.3761756,-0.012135128,-0.08205193,4.361422,4.527478
SDC4,6.7588596,1.9890318,-0.031267677,-0.08622689,6.2137957,6.2015014,-0.0787048,5.4028416,9.207441,-0.0117359795,4.26752,2.329242,-0.012197482,-0.08269335,4.3679237,4.7096415
PHF10,6.839223,2.4038038,-0.02982425,-0.08438122,6.3425655,5.988633,-0.078653805,5.446514,9.088851,-0.009921532,4.192821,2.3463814,-0.01189436,-0.08321781,4.2922006,4.505493
GCNT2,6.975379,2.7479403,-0.028224306,-0.086447306,6.5539265,6.0127006,-0.07912319,5.599511,9.241348,-0.009551003,4.241108,2.2899547,-0.0109712165,-0.08233316,4.360779,4.411165
SHISA8,6.505481,1.8364462,-0.031296633,-0.08200652,6.024775,5.9516377,-0.07588589,5.2141647,8.844375,-0.01126665,4.1409006,2.370971,-0.012142672,-0.079741344,4.167155,4.5585403
TOP3B,7.0337434,2.697243,-0.029109849,-0.087067105,6.5670576,6.123735,-0.07982613,5.619293,9.33499,-0.010043626,4.3163214,2.363382,-0.011302771,-0.08427681,4.3805175,4.5706253
STRAP,6.9772515,2.4903464,-0.030378776,-0.08730889,6.517989,6.163972,-0.08058788,5.655799,9.417681,-0.010487693,4.3484073,2.411868,-0.011823089,-0.08421027,4.4338408,4.634492
REXO2,6.867203,2.6816802,-0.028091487,-0.08425598,6.391171,5.9325166,-0.07779603,5.456517,9.059152,-0.009272055,4.162933,2.3169405,-0.011354184,-0.08159733,4.2599,4.387809
BTK,6.772615,2.4585319,-0.028883094,-0.08616216,6.307138,5.9426146,-0.07963919,5.406847,9.139587,-0.009388795,4.135102,2.106286,-0.011233163,-0.082886666,4.3575773,4.5004997
PRIM1,6.990021,2.399539,-0.030847186,-0.087445155,6.49245,6.2206984,-0.08035368,5.5811443,9.390284,-0.0107945185,4.353976,2.4198835,-0.011808876,-0.084544346,4.427011,4.6959066
MUC13,6.350474,2.036463,-0.027214479,-0.083413266,6.009624,5.764157,-0.074219875,5.313019,8.83659,-0.011521013,4.0353775,1.8793428,-0.0094915815,-0.075648494,4.1038885,4.239177
CDCA3,6.9557867,2.8370447,-0.027746331,-0.08522235,6.516027,5.943543,-0.07875881,5.5916452,9.165146,-0.00900752,4.202626,2.320769,-0.011327791,-0.08160902,4.3270817,4.3315973
JCHAIN,5.8176265,1.206759,-0.028057227,-0.08200315,5.8963056,5.636615,-0.07457426,5.1318064,8.445587,-0.012988591,3.7389119,1.1289696,-0.0077710142,-0.073447436,4.1796837,4.0664845
SMPD4,6.964527,2.27249,-0.031404205,-0.0869513,6.4669604,6.222718,-0.07961479,5.609638,9.329046,-0.011158675,4.381277,2.4466097,-0.011972966,-0.08409051,4.408144,4.6707983
GIMAP1OS,5.814863,1.2061957,-0.028052727,-0.081988476,5.8972797,5.635425,-0.07454648,5.1317997,8.44656,-0.012990574,3.7390776,1.1268516,-0.007758084,-0.0734331,4.179934,4.067975
RCOR1,6.8487916,2.174528,-0.025692532,-0.07858656,5.9016795,5.596582,-0.076425076,5.7807856,9.389622,-0.009645207,3.7739952,1.8693962,-0.009166416,-0.07514981,4.4338818,3.7571313
TMEM50B,6.79219,2.6413333,-0.027934058,-0.08335888,6.3488245,5.8301826,-0.0780023,5.4150963,8.979483,-0.00909546,4.0848694,2.2644255,-0.0115291,-0.08180022,4.2468033,4.3387985
CBX5,6.2837644,1.8978813,-0.028928675,-0.08637169,5.5636067,6.214059,-0.07228905,5.07592,8.950759,-0.012201315,4.14128,2.1158676,-0.011563533,-0.077584125,4.1090956,4.791177
BYSL,6.7232184,2.6592004,-0.02680519,-0.08421056,6.401317,5.8280697,-0.07682631,5.506033,9.012437,-0.009712117,4.1249504,2.1867697,-0.010545368,-0.07894143,4.266636,4.237462
ABL1,6.9034758,2.6076577,-0.028622279,-0.08524184,6.399457,5.9874845,-0.07970011,5.48083,9.189789,-0.0091305375,4.1631103,2.3056824,-0.011853721,-0.08330347,4.366433,4.465556
AP3S1,7.0587215,2.6992216,-0.029338589,-0.087176405,6.5763016,6.1437244,-0.08009363,5.648178,9.36695,-0.010028857,4.3363085,2.3957338,-0.011480121,-0.08441962,4.3977275,4.577297
GLRX5,7.0240345,2.406796,-0.030683368,-0.08808814,6.537357,6.253267,-0.08018124,5.623581,9.41583,-0.011024506,4.3801804,2.3893435,-0.011512732,-0.08449725,4.432294,4.682184
AGPS,6.6615896,2.0689073,-0.029444221,-0.08475673,6.524841,6.061017,-0.07472754,5.085189,8.738942,-0.0059382194,3.65805,2.5609033,-0.01234324,-0.08079338,4.002675,4.7579184
IGFBP4,6.581385,1.9862025,-0.030531544,-0.08307077,6.107692,5.954436,-0.07771008,5.289152,9.004079,-0.010869657,4.1394095,2.3218722,-0.012597465,-0.081335165,4.245555,4.5510416
SATB1,6.207412,1.9058449,-0.02702726,-0.08053759,6.0549197,5.605453,-0.07405928,5.153386,8.455475,-0.010351635,3.8900492,1.631264,-0.009907699,-0.07322352,4.1359224,3.9521053
DNAJC9,7.018682,2.5142584,-0.029845396,-0.08803087,6.5746007,6.1938763,-0.07981689,5.676363,9.409672,-0.010750281,4.3656898,2.344625,-0.0110414885,-0.08358387,4.408836,4.587923
TEX10,6.9771233,2.7886422,-0.028348455,-0.08600574,6.5442405,6.0054917,-0.07902827,5.608589,9.228802,-0.00966055,4.2612934,2.33223,-0.0111107025,-0.08275698,4.3295894,4.4432898
IGKC,5.8176265,1.206759,-0.028057227,-0.08200315,5.8963056,5.636615,-0.07457426,5.1318064,8.445587,-0.012988591,3.7389119,1.1289696,-0.0077710142,-0.073447436,4.1796837,4.0664845
ABCB10,5.977545,2.4796944,-0.028420689,-0.072475314,6.4971724,5.473382,-0.07060348,4.684334,8.43943,-0.008892893,4.2028637,2.3567977,-0.00916957,-0.075278364,4.1266246,4.243224
RAD51,6.7625923,2.777491,-0.02732454,-0.081968695,6.34747,5.699887,-0.07681806,5.463004,8.82339,-0.008345289,4.097336,2.1567237,-0.010284728,-0.079359524,4.155821,4.092945
ZDHHC13,6.9489703,2.4805415,-0.029216047,-0.08675443,6.4487805,6.1153345,-0.07961325,5.6125565,9.326437,-0.010163007,4.2635,2.3164642,-0.011752746,-0.08249141,4.4177866,4.4879274
ALDH18A1,7.059042,2.69538,-0.029185528,-0.08764253,6.5823464,6.1463833,-0.080463655,5.6568966,9.396923,-0.009872748,4.3190923,2.3541348,-0.011385378,-0.08425069,4.4265404,4.558017
BIRC5,6.883012,2.7311845,-0.027218955,-0.085708715,6.4773865,5.9370675,-0.078339785,5.586817,9.186156,-0.009399527,4.178642,2.2027214,-0.010826827,-0.0806444,4.32838,4.304779
EIF3B,6.9044304,2.271939,-0.030701892,-0.086740255,6.3975534,6.1973796,-0.07925227,5.550462,9.307876,-0.011151422,4.326375,2.3901427,-0.011909461,-0.0829356,4.391359,4.6357317
SLC2A3,6.970341,2.7411208,-0.027978975,-0.08510818,6.4255033,6.071207,-0.07691695,5.508461,9.149709,-0.009393674,4.2322807,2.423775,-0.0112632355,-0.08188708,4.3141756,4.466033
PKIB,5.517677,0.76030165,-0.02995813,-0.075060464,5.1013126,5.45767,-0.069313124,4.6880417,8.001186,-0.013010359,3.6439354,1.7448721,-0.0106809605,-0.07236123,3.861222,4.2569323
RPA1,6.8389792,2.6878972,-0.028128935,-0.08281847,6.3605256,5.8261046,-0.077629186,5.495413,8.987626,-0.008910737,4.1676917,2.206489,-0.01057968,-0.08111787,4.2042327,4.236727
GFI1B,6.367754,2.0541837,-0.027629979,-0.08229427,6.208512,5.7510047,-0.07537126,5.301735,8.649038,-0.01049058,4.029028,1.839004,-0.010452358,-0.07602763,4.1851993,4.1202564
PRODH,6.5277963,1.772218,-0.030333802,-0.08381677,5.981832,6.006594,-0.07636577,5.2811956,8.969352,-0.011887565,4.1114697,2.207215,-0.01182398,-0.07964132,4.238647,4.5281734
TEC,6.89918,2.4556305,-0.029675962,-0.08647678,6.4512806,6.110433,-0.07932277,5.6193438,9.311134,-0.01066557,4.3095107,2.3676445,-0.0118130725,-0.082365915,4.3876257,4.53732
CENPA,6.863664,2.3562758,-0.029945623,-0.08488653,6.33222,6.065505,-0.07934291,5.440468,9.188107,-0.010058377,4.214554,2.3825333,-0.012245764,-0.08385042,4.331087,4.5818453
ATF7,6.9427047,2.7592394,-0.028182043,-0.08541904,6.4785714,5.98971,-0.078754775,5.530032,9.17717,-0.009424128,4.2171974,2.3212476,-0.011260269,-0.08258436,4.3130026,4.4412947
MCM7,6.9937997,2.6935804,-0.02878449,-0.08604801,6.5193653,6.0567284,-0.079112396,5.640993,9.275686,-0.009743957,4.2813034,2.3849041,-0.011480891,-0.082532145,4.357389,4.446762
NCAPG,6.9764757,2.7807803,-0.028087838,-0.08589908,6.525243,6.0087037,-0.078728266,5.612852,9.230506,-0.009524066,4.25022,2.3283198,-0.01106322,-0.08207492,4.325474,4.4031487
AURKB,6.892015,2.416042,-0.030063812,-0.085639335,6.363836,6.1123915,-0.07931536,5.457242,9.217531,-0.010191113,4.25058,2.3832526,-0.01203589,-0.08344074,4.3441906,4.6139965
VIPR2,6.5896907,1.855639,-0.03160208,-0.08314966,6.0925183,6.0056496,-0.07671234,5.252185,8.946274,-0.011360773,4.178602,2.3476186,-0.011488957,-0.081324555,4.2132435,4.6227655
HID1,6.7829404,2.2065423,-0.033641312,-0.078436494,5.4088235,6.0121837,-0.0819093,5.5227737,8.596961,-0.0071432726,3.9761014,2.7796335,-0.014016349,-0.08094667,4.223388,3.999254
JUN,5.781209,1.4104671,-0.026814424,-0.07994012,5.8302784,5.613285,-0.07313726,5.018343,8.334831,-0.0123704,3.7233865,1.375103,-0.008807675,-0.072216734,4.127658,4.0771437
SPI1,5.977556,1.5278983,-0.02770052,-0.08151586,6.0387154,5.683906,-0.07449728,5.1547413,8.4931755,-0.012647812,3.8193333,1.4379318,-0.008899282,-0.074130125,4.1879964,4.107379
CPA3,6.9872622,2.4292743,-0.030379623,-0.08776703,6.56529,6.188244,-0.0795765,5.5994177,9.358398,-0.010855249,4.357018,2.3507433,-0.01088575,-0.08435554,4.389556,4.6559563
BUB1,7.0342965,2.7137244,-0.028880948,-0.08694824,6.5728407,6.1055923,-0.079504155,5.6719103,9.333946,-0.009971144,4.3169694,2.355655,-0.011191579,-0.08329531,4.36723,4.49765
UBA7,7.0111704,2.5151825,-0.03011583,-0.087685116,6.538906,6.160949,-0.081006944,5.674862,9.419512,-0.01027683,4.3338714,2.3718379,-0.011957415,-0.084456146,4.47429,4.5934744
PRMT7,7.0015583,2.3617013,-0.03105105,-0.08732446,6.5166216,6.224169,-0.07982539,5.639413,9.366507,-0.010999247,4.3879046,2.4367592,-0.011745155,-0.08415888,4.415095,4.655321
GALNT6,7.0375834,2.6238797,-0.029622497,-0.086564146,6.5189824,6.141785,-0.0797131,5.629961,9.3208475,-0.010052704,4.326917,2.419838,-0.011783642,-0.08385897,4.382318,4.5522203
JAM3,6.4898458,1.737894,-0.031525593,-0.082166515,5.970923,5.9507966,-0.07666765,5.230563,8.918351,-0.01135572,4.142715,2.3354926,-0.012309406,-0.08093919,4.1890693,4.5911646
TMX3,6.889738,2.5307195,-0.028558513,-0.0860203,6.415054,6.025132,-0.079137474,5.6066732,9.246916,-0.009792177,4.218232,2.2759948,-0.01166595,-0.08169729,4.3936806,4.4005013
PPP1R15A,6.925643,2.8331919,-0.027762642,-0.08470814,6.4604354,5.9255805,-0.078404404,5.5291624,9.1188965,-0.009022355,4.1887712,2.3236089,-0.011278138,-0.081923194,4.2797184,4.370615
SLCO4A1,6.9599833,2.7284904,-0.02840961,-0.08586186,6.5265026,6.0091176,-0.078562826,5.570203,9.200617,-0.009767491,4.251753,2.3264716,-0.01095838,-0.08237569,4.3214173,4.43573
NARS,6.94006,2.8149312,-0.027405936,-0.08595357,6.5115867,5.9529915,-0.07906352,5.601734,9.228229,-0.009137229,4.194051,2.239417,-0.0109629,-0.081839874,4.3440266,4.352255
RGS18,6.4240456,2.5586727,-0.031694677,-0.07864352,6.815047,5.568386,-0.07409961,4.963379,8.879099,-0.00422504,4.0702324,2.0951695,-0.012351587,-0.07806452,4.3401966,4.295044
THADA,6.991451,2.0892801,-0.028272044,-0.08108924,6.7344913,5.653095,-0.07437662,5.6234407,8.887559,-0.008413334,4.086651,2.3822708,-0.015874209,-0.0860244,4.1044865,4.0677867
HP,6.744659,2.1059353,-0.030001746,-0.08583707,6.2622457,6.100611,-0.07795979,5.5216665,9.202654,-0.0115194665,4.2541313,2.275953,-0.011685399,-0.0807328,4.3479457,4.520397
TSPAN3,6.905417,2.2733142,-0.030711645,-0.08674626,6.3975096,6.196505,-0.07927295,5.5511837,9.307839,-0.011138185,4.327939,2.390622,-0.011897864,-0.08293541,4.3922796,4.636177
RPP40,6.48519,2.3826838,-0.03277027,-0.08013234,6.75069,5.7524786,-0.07596235,5.0083447,9.058317,-0.0049056965,4.12663,2.1522777,-0.013203486,-0.08007017,4.4364724,4.4780636
SLC43A3,6.602609,1.7004302,-0.027854092,-0.08045028,5.686007,5.7483516,-0.07358045,4.843174,8.95051,-0.013977405,3.7943633,2.198179,-0.014667188,-0.080352746,4.0360537,4.601078
NUP85,7.06293,2.523618,-0.030438257,-0.08790125,6.570624,6.226916,-0.080528274,5.6656523,9.439027,-0.010704221,4.3896756,2.4277563,-0.01169981,-0.0848622,4.4406734,4.6631775
DCAF13,6.028087,2.0968547,-0.02139696,-0.08005116,5.6795683,5.74409,-0.07536674,5.393034,8.324032,-0.01651005,3.2306283,2.0296268,-0.01752678,-0.079008915,4.5983295,4.1865253
PRTN3,6.698548,1.9495225,-0.030844174,-0.08488762,6.13148,6.103813,-0.07776209,5.3807116,9.112357,-0.011495171,4.2088366,2.3236558,-0.012078423,-0.08169726,4.3028054,4.615471
FARSB,6.679752,2.3479617,-0.027761018,-0.08607174,6.1285214,5.8089995,-0.07943475,5.4748535,9.272934,-0.009309378,4.179583,2.3709834,-0.012298265,-0.08372865,4.3553414,4.634573
ARID5A,7.005156,2.6698484,-0.029160824,-0.08653221,6.5352535,6.078222,-0.079950094,5.625148,9.306659,-0.009699553,4.2773767,2.373888,-0.011707393,-0.08329153,4.405718,4.4902287
TMEM184C,6.7797413,2.6962326,-0.026307525,-0.08444715,6.375548,5.809845,-0.07735732,5.4920263,9.057664,-0.009162706,4.07813,2.1000533,-0.010736901,-0.07914678,4.2721806,4.191091
SOX18,5.323251,0.62005377,-0.029129392,-0.0740306,4.9204154,5.3457975,-0.06794984,4.5749187,7.8345175,-0.0131726675,3.528851,1.5786408,-0.009983892,-0.070350096,3.8005843,4.1726584
UBR7,6.404275,2.0861533,-0.028018037,-0.07200864,6.488132,6.0988336,-0.06904949,5.281129,7.6552396,-0.009859732,4.773271,2.582167,-0.005072723,-0.067483515,2.8384967,3.8746436
PLXNC1,6.7767673,2.0969718,-0.0312012,-0.08501864,6.2503724,6.145126,-0.07818269,5.3880415,9.1277275,-0.0112996325,4.282712,2.3822339,-0.012227635,-0.08263589,4.296275,4.663948
ITGAL,6.730247,2.769891,-0.025830034,-0.08300112,6.321831,5.743499,-0.076256566,5.4653845,8.952432,-0.008981864,4.0670056,2.160389,-0.010808486,-0.07817702,4.206166,4.1376095
GM19590,5.8176265,1.206759,-0.028057227,-0.08200315,5.8963056,5.636615,-0.07457426,5.1318064,8.445587,-0.012988591,3.7389119,1.1289696,-0.0077710142,-0.073447436,4.1796837,4.0664845
IRF6,6.3982396,1.6249359,-0.030777965,-0.08220776,6.176039,5.9693317,-0.07337495,4.807006,8.506563,-0.0068089967,3.585289,2.5156028,-0.012504096,-0.079889044,3.9241538,4.8110323
CCNB1,6.7832007,2.0536594,-0.031443153,-0.085563526,6.253289,6.160578,-0.07854772,5.386881,9.161619,-0.011304594,4.272257,2.375136,-0.012038772,-0.08315289,4.3293476,4.699092
MICU1,6.8269963,2.6253006,-0.02816428,-0.08365634,6.3522744,5.8997064,-0.07780572,5.406598,9.00705,-0.009333842,4.1332917,2.2987242,-0.011523896,-0.08210732,4.2392073,4.4004745
ENG,6.579059,1.7059982,-0.03237506,-0.08360033,6.060322,6.0658574,-0.07709912,5.277522,8.968696,-0.011669248,4.235161,2.2970352,-0.011851707,-0.08240493,4.204962,4.667701
TM7SF3,6.9431443,2.4482772,-0.03021719,-0.086946994,6.495934,6.1555376,-0.07958523,5.5371046,9.302256,-0.010683578,4.329336,2.3628442,-0.011381779,-0.08470911,4.377011,4.6714115
NUP88,7.038382,2.5030174,-0.030387066,-0.08810797,6.5488124,6.2344737,-0.08097356,5.652688,9.471381,-0.010674945,4.3669343,2.4025378,-0.011757457,-0.08484671,4.463898,4.680663
FSTL1,6.69714,2.098175,-0.03069205,-0.08419142,6.2111135,6.0185905,-0.078751616,5.3587084,9.112073,-0.010716048,4.1975217,2.3320909,-0.01240427,-0.08270369,4.270074,4.5983286
RTEL1,6.937595,2.820597,-0.027777098,-0.08529106,6.4932942,5.939022,-0.07882571,5.546774,9.161802,-0.008981715,4.1887856,2.2922566,-0.011198871,-0.082315,4.3188624,4.382202
NKG7,6.6576,2.07458,-0.030535657,-0.084624,6.202431,6.0294795,-0.07780547,5.2944117,9.046509,-0.010916424,4.201727,2.2266533,-0.011362277,-0.08299589,4.2315536,4.643854
PLXDC2,6.814778,2.2047007,-0.030925812,-0.08511023,6.2947574,6.130475,-0.07887544,5.4210443,9.170051,-0.01086793,4.269178,2.4056196,-0.012467948,-0.08299834,4.3193064,4.6484528
SELENBP1,6.9469457,2.7469652,-0.028540272,-0.08558491,6.5177617,5.989016,-0.079350665,5.6075163,9.230131,-0.0094146235,4.2349234,2.3710494,-0.011560608,-0.08269049,4.3635178,4.4353476
TSPAN14,6.9981556,2.6968787,-0.028515663,-0.087061085,6.5761585,6.0675254,-0.07951803,5.6595707,9.324556,-0.009854955,4.2812815,2.2963867,-0.011054964,-0.08238077,4.385429,4.434286
MGAT5,7.0298524,2.614812,-0.02956748,-0.08693346,6.523214,6.1471314,-0.08020715,5.6746492,9.385763,-0.010044521,4.3287044,2.4093623,-0.011855709,-0.0838726,4.417943,4.555606
MTREX,6.9908366,2.203308,-0.027907673,-0.07988507,6.682527,5.5933576,-0.07421494,5.6358633,8.82657,-0.0077745607,4.06036,2.4364572,-0.016226841,-0.085247286,4.079969,3.9855466
SYK,6.9930415,2.5839224,-0.02974175,-0.08615443,6.48801,6.1097813,-0.07992096,5.599044,9.297648,-0.009835321,4.298552,2.429395,-0.012134266,-0.08370209,4.4007707,4.5507345
MAGED1,4.702739,1.148762,-0.023102606,-0.084413424,5.3701415,4.5311794,-0.061544403,4.310092,7.497128,-0.007806161,3.34509,0.89326394,0.15678781,-0.067062296,3.9199662,3.1034555
GM4951,7.0102744,2.6228724,-0.029212471,-0.08842003,6.5830994,6.1737432,-0.08063333,5.6175747,9.4439745,-0.010460311,4.3160105,2.2766025,-0.010953303,-0.08446746,4.4305177,4.6317596
RAB37,6.953685,2.4396212,-0.030115504,-0.08614928,6.4224424,6.146521,-0.079344,5.579768,9.288403,-0.010417427,4.3054233,2.4214768,-0.012049545,-0.08315831,4.3797812,4.5743666
WDR43,6.926348,2.6975448,-0.028400443,-0.08504521,6.4596577,6.0034733,-0.078847386,5.5705585,9.194163,-0.009555031,4.2233768,2.3905277,-0.011977932,-0.08204202,4.347263,4.418356
CYFIP2,7.013617,2.5980785,-0.029384507,-0.08678998,6.5184903,6.132675,-0.079539485,5.6580877,9.346362,-0.0101581225,4.323887,2.3867934,-0.011542365,-0.08309153,4.384643,4.5186777
NEAT1,5.8176265,1.206759,-0.028057227,-0.08200315,5.8963056,5.636615,-0.07457426,5.1318064,8.445587,-0.012988591,3.7389119,1.1289696,-0.0077710142,-0.073447436,4.1796837,4.0664845
RGS1,6.8094354,2.3367753,-0.029396374,-0.085000396,6.256823,6.0690756,-0.078342624,5.449543,9.145538,-0.010212523,4.1907306,2.3231525,-0.012159486,-0.08170049,4.3215237,4.5084286
CD48,6.954475,2.7567446,-0.028299259,-0.085510224,6.483515,6.002425,-0.078888215,5.5420313,9.192088,-0.009426938,4.2257104,2.3354084,-0.011337788,-0.08270231,4.3213696,4.449089
DNAJC11,6.826001,2.4065182,-0.031181397,-0.0870283,6.1359015,5.731659,-0.0748792,5.8080435,8.893544,-0.009820945,4.3106604,2.6851146,-0.008483009,-0.07605753,3.8020546,4.1666856
LRRC59,6.985152,2.730293,-0.028668404,-0.08595188,6.506676,6.0299835,-0.07954467,5.59437,9.25415,-0.009296787,4.240751,2.3580651,-0.011563124,-0.08292152,4.3697314,4.449765
ABHD17B,6.9808617,2.687172,-0.028742932,-0.086473085,6.5242777,6.067746,-0.07961111,5.6169233,9.3058815,-0.0097257,4.2627006,2.351862,-0.011493529,-0.08290346,4.386797,4.4794817
BUB1B,6.904433,2.5843782,-0.028377017,-0.08594667,6.434344,6.0150313,-0.07916423,5.615445,9.245369,-0.009652249,4.2196,2.285783,-0.011660344,-0.081749715,4.3910413,4.388612
AKAP8L,6.700494,1.963246,-0.031377263,-0.084550686,6.167921,6.0896897,-0.077717215,5.3508863,9.082495,-0.011347095,4.2250257,2.3653946,-0.011900985,-0.08197491,4.289394,4.6430664
RP2,6.583437,1.7120808,-0.032452133,-0.083258025,6.0537763,6.063267,-0.077060685,5.2880507,8.971478,-0.011667103,4.2291193,2.3740249,-0.012191135,-0.08182035,4.218394,4.660261
MAN2A2,6.858471,2.2351048,-0.030909859,-0.085955,6.3381057,6.161964,-0.07937768,5.4338083,9.235705,-0.010904292,4.285724,2.375566,-0.012037401,-0.08396881,4.3500934,4.6921577
PLAA,6.77562,2.402602,-0.028278777,-0.08545376,6.319502,5.993523,-0.07766114,5.54747,9.183803,-0.010477323,4.2029805,2.2032254,-0.011158118,-0.079739474,4.298062,4.368986
TGFBR1,5.567533,0.7974262,-0.0301829,-0.07517699,5.148159,5.4789715,-0.06958432,4.716278,8.035824,-0.012902641,3.6748128,1.7974013,-0.010868558,-0.07286125,3.8680995,4.2719936
PHB2,7.024391,2.7154167,-0.028953273,-0.08686915,6.537361,6.092693,-0.08012071,5.5928783,9.315089,-0.009589474,4.2802777,2.3451316,-0.011455958,-0.08407999,4.395235,4.5355787
GLB1,7.0074716,2.6951056,-0.028859645,-0.086933866,6.514611,6.1149244,-0.08013192,5.6056805,9.352525,-0.00979224,4.278596,2.3372457,-0.011519701,-0.08376055,4.3945556,4.5456133
FGL2,6.8941984,2.8923407,-0.02707851,-0.08420877,6.445114,5.8621926,-0.07815918,5.5281553,9.082772,-0.0086825,4.1471143,2.2973611,-0.011227791,-0.08141579,4.268556,4.3072834
DNAJC10,6.9911942,2.701034,-0.028593173,-0.08684192,6.553695,6.072285,-0.07962368,5.656108,9.336192,-0.009854737,4.28141,2.3308146,-0.011286864,-0.082766786,4.3886175,4.467436
CDKN1A,6.0760903,1.3617569,-0.029559026,-0.08121719,5.665,5.733821,-0.07390336,5.0222397,8.595851,-0.012196857,3.8826082,1.9093857,-0.011285746,-0.07602926,4.1601286,4.371331
EPAS1,6.839895,2.4859731,-0.029215561,-0.084809415,6.334651,6.0232406,-0.07860093,5.398082,9.110352,-0.00987266,4.1952934,2.312333,-0.011698644,-0.08299767,4.2750506,4.545624
NUS1,7.0195785,2.5374987,-0.029676655,-0.08807234,6.5848055,6.1870522,-0.07975192,5.6729994,9.404556,-0.010717385,4.360651,2.3307812,-0.010926275,-0.08359665,4.4023814,4.5832777
ELP2,7.026218,2.696744,-0.029238474,-0.08605645,6.547077,6.1069903,-0.07955412,5.6277733,9.269854,-0.009599261,4.321181,2.426814,-0.0116679715,-0.08351331,4.3661685,4.491452
PATL1,7.019367,2.5713928,-0.030006282,-0.08657234,6.500704,6.153664,-0.080081515,5.5890484,9.3272295,-0.01011332,4.3239064,2.429559,-0.01195998,-0.08451019,4.391589,4.6144524
NAPSA,7.0501394,2.5964417,-0.029771563,-0.088142,6.574203,6.1900005,-0.08072649,5.6213446,9.417458,-0.010244929,4.3382783,2.3524587,-0.011435734,-0.084699646,4.4467454,4.6301794
NCEH1,6.7065196,2.3016117,-0.030896368,-0.08616257,6.011364,5.6339674,-0.07408995,5.675642,8.745058,-0.009510175,4.2086196,2.6079798,-0.00829176,-0.0751771,3.7442415,4.1159678
PSEN1,6.9979634,2.4218295,-0.030621573,-0.08745558,6.485747,6.2259574,-0.08026562,5.5762634,9.387748,-0.010845023,4.35292,2.4088778,-0.01186753,-0.08442003,4.425868,4.688408
LHCGR,5.817935,1.2069147,-0.02805695,-0.08200136,5.895942,5.6362486,-0.07457639,5.131995,8.445496,-0.012985655,3.7387125,1.1288444,-0.0077706967,-0.07344727,4.1797366,4.066024
CDK18,6.228821,1.6418128,-0.029000929,-0.079473995,5.6656933,5.7082314,-0.07325437,5.094491,8.608608,-0.011280343,3.9217236,2.1271043,-0.011931045,-0.07601279,4.0543966,4.298559
TMEM246,6.850782,2.5645814,-0.028941637,-0.08356818,6.382621,5.9350896,-0.07780282,5.4677563,9.015285,-0.009780479,4.1737013,2.3851388,-0.011918421,-0.08160129,4.26487,4.3800516
CIPC,6.9961953,2.5404627,-0.029534452,-0.0876198,6.5540986,6.1477284,-0.079995975,5.6442957,9.370816,-0.010275476,4.320303,2.325169,-0.011388428,-0.082887486,4.422136,4.5237103
RCC1,6.8499947,2.3954976,-0.029577626,-0.0852747,6.327242,6.0869255,-0.07918657,5.4590063,9.202147,-0.0101954,4.2074175,2.3601246,-0.012361818,-0.08272529,4.3530254,4.560665
SUSD3,6.6242423,1.8990192,-0.031273354,-0.083660156,6.093719,6.0460515,-0.076992616,5.31408,9.004981,-0.011443949,4.1979117,2.363886,-0.012127464,-0.080915354,4.2510176,4.6041813
EEF1E1,6.8305798,2.6136608,-0.027934551,-0.08397413,6.343661,5.9195795,-0.07766931,5.477022,9.054907,-0.009193423,4.1292067,2.306558,-0.011638493,-0.08080674,4.28444,4.3318386
MTHFD1,6.94922,2.693969,-0.028496662,-0.08605613,6.5384917,6.019359,-0.07860414,5.6451635,9.239776,-0.009968046,4.281261,2.3421865,-0.01107572,-0.081717044,4.3321123,4.4055767
DHFR,6.9807057,2.4340522,-0.030184818,-0.087608926,6.4824476,6.2152953,-0.08040128,5.612735,9.416674,-0.010760526,4.332456,2.3733933,-0.0118626235,-0.08387725,4.4419937,4.6437826
TRIM30D,6.4168153,1.7540013,-0.02909561,-0.08481961,6.0182137,5.9027205,-0.0764006,5.3457212,9.002652,-0.012081173,4.0736346,1.9609491,-0.010592389,-0.07784293,4.27766,4.3969126
ABL2,6.052799,1.5894097,-0.025349194,-0.081775375,5.6423464,5.962853,-0.07659447,5.3158474,8.481336,-0.017766783,3.3868358,2.1364691,-0.017349007,-0.0819051,4.646878,4.541217
CENPF,6.5448594,1.9719757,-0.03040898,-0.081998095,6.0240703,5.913957,-0.07601715,5.2553396,8.870009,-0.010789332,4.112412,2.3681161,-0.012296764,-0.07971375,4.1880026,4.494834
FRRS1,6.8496013,2.6153286,-0.027868168,-0.08589698,6.470094,5.9786315,-0.078015685,5.5926504,9.196494,-0.010091045,4.224379,2.2390978,-0.01070826,-0.080524355,4.3214097,4.362647
POLR2B,6.1388326,2.0275881,-0.022833236,-0.08188998,5.7503753,5.9214873,-0.077268034,5.41607,8.484642,-0.017316302,3.305142,2.0996335,-0.017999345,-0.082324885,4.6970854,4.4277534
NEIL3,6.1817346,1.1293644,-0.028683376,-0.076343864,5.8790665,5.4036975,-0.06925208,5.177183,8.3108225,-0.01102548,3.8334506,2.0854862,-0.014903061,-0.077489875,3.888399,3.9692714
KIF22,6.929329,2.7901824,-0.027986316,-0.08481843,6.4634767,5.945695,-0.07844857,5.5193787,9.124553,-0.009257155,4.200102,2.327755,-0.011301545,-0.08242316,4.2908835,4.406539
GOLT1B,7.00278,2.6478333,-0.02921136,-0.08673385,6.4986324,6.1244226,-0.08012049,5.6154184,9.350318,-0.009823999,4.288552,2.3750327,-0.011794483,-0.08364328,4.399548,4.549635
GIMAP1,6.918404,2.4617076,-0.028908128,-0.08623557,6.411348,6.063986,-0.07893798,5.612712,9.298622,-0.010331194,4.244919,2.2858691,-0.011556494,-0.081813246,4.3611426,4.4373484
TENT5A,6.985257,2.6153128,-0.029439332,-0.08633305,6.476461,6.1224384,-0.07963709,5.5682774,9.291626,-0.010069166,4.297294,2.3932781,-0.011889206,-0.083397835,4.3669868,4.5641375
FAM171A1,6.6324735,1.8606466,-0.031676102,-0.083293065,6.1065245,6.035004,-0.07753816,5.3359585,9.010856,-0.011235302,4.2262087,2.3647287,-0.012616989,-0.08196251,4.2143683,4.5985756
SDF2L1,6.995554,2.6850965,-0.028763495,-0.086287975,6.52245,6.06994,-0.079190016,5.632571,9.28951,-0.009792674,4.2798314,2.3664415,-0.01138362,-0.08259366,4.361668,4.458994
TARS,6.94956,2.8257554,-0.027580528,-0.085664734,6.50364,5.9646273,-0.07884907,5.6037827,9.220515,-0.009231541,4.2115583,2.2866228,-0.01107928,-0.08192774,4.3251004,4.371846
HNRNPLL,6.9388127,2.6002655,-0.028230399,-0.08680451,6.470983,6.0500813,-0.07949057,5.622016,9.308255,-0.009777061,4.2226443,2.2274542,-0.011306549,-0.08188406,4.3957915,4.4043655
NUDCD1,6.960321,2.7828152,-0.027925832,-0.08573738,6.514546,5.98446,-0.078911,5.590678,9.207,-0.009231996,4.2125754,2.307337,-0.011265159,-0.081832424,4.3404193,4.3700924
RACGAP1,6.931167,2.8001742,-0.027575564,-0.08550863,6.511182,5.9522123,-0.078271866,5.589814,9.179381,-0.00938432,4.2110305,2.2663033,-0.0108159715,-0.08117483,4.290274,4.3416634
IRF7,6.867811,2.294027,-0.030106599,-0.08691592,6.3810453,6.1674542,-0.07955483,5.553787,9.3329525,-0.010973224,4.2829356,2.3244917,-0.011896293,-0.08247198,4.413168,4.594733
TOP2A,6.447489,1.6391677,-0.030889452,-0.08321028,5.9143796,6.0170326,-0.076031595,5.2167225,8.908707,-0.012283948,4.1121163,2.2242665,-0.012185363,-0.07953649,4.2338414,4.589798
DENND2D,7.2515903,2.5186846,-0.02698674,-0.08562723,6.082882,6.1933413,-0.077572085,5.70308,9.386913,-0.0100496365,4.44429,2.153385,-0.012689702,-0.081236705,3.9840252,4.2572517
FAM111A,5.982483,2.3669763,-0.029491745,-0.0831464,5.871576,5.762099,-0.08355057,4.580284,8.971801,-0.013929704,4.4225464,1.4631233,-0.003424075,-0.0747593,4.488017,5.0090055
AI506816,5.8176265,1.206759,-0.028057227,-0.08200315,5.8963056,5.636615,-0.07457426,5.1318064,8.445587,-0.012988591,3.7389119,1.1289696,-0.0077710142,-0.073447436,4.1796837,4.0664845
FUT7,6.7687364,2.8002396,-0.026746131,-0.082445726,6.3311296,5.755452,-0.076311685,5.3819494,8.866471,-0.008586773,4.063291,2.2433083,-0.010932512,-0.079682656,4.159217,4.21712
XAF1,7.020539,2.5806942,-0.029290667,-0.08819373,6.5953565,6.1595426,-0.07998376,5.6856823,9.403125,-0.010350765,4.3395195,2.2977989,-0.010955883,-0.08324774,4.4195547,4.53092
TIFAB,6.690499,2.49774,-0.027133511,-0.08416187,6.30354,5.806234,-0.07744932,5.414917,8.952696,-0.009586147,4.0203924,2.0729864,-0.011158468,-0.07946451,4.3203263,4.225687
SH3BGRL,6.0501313,2.001993,-0.026933102,-0.07466268,5.8615866,5.7112436,-0.07137816,5.012561,8.341492,-0.015763042,4.314934,2.6170137,-0.0076955026,-0.07609573,3.927983,4.3334656
EMCN,6.4411,1.9524478,-0.029653732,-0.08351121,6.0246444,5.8912587,-0.076912954,5.1382875,8.915965,-0.010901395,4.0789886,2.0255442,-0.010800281,-0.081867225,4.1542706,4.611429
SIGLECG,5.6324697,0.841632,-0.030448304,-0.075278655,5.205553,5.505652,-0.06988002,4.752183,8.077238,-0.012705807,3.7139316,1.8647599,-0.01109417,-0.07347594,3.8732953,4.285842
UTP4,6.900175,2.4351916,-0.029824581,-0.08601741,6.3820868,6.1239595,-0.079281256,5.450288,9.229774,-0.010355737,4.2550693,2.3442605,-0.011767436,-0.083550856,4.346835,4.62309
PEAR1,6.3702774,1.7067418,-0.0310331,-0.0808559,5.9047313,5.871031,-0.07479182,5.133954,8.72089,-0.011529048,4.0745726,2.311776,-0.0119967675,-0.078368664,4.1155457,4.5051107
CTSL,6.340298,2.6227012,-0.023170142,-0.067436986,6.6944575,6.0493035,-0.07087939,4.9921865,7.6537905,-0.008382715,4.525747,2.2184188,-0.007982754,-0.069838166,3.21489,3.8167346
TFG,6.772245,2.4171898,-0.030554175,-0.08671462,6.0989475,5.6505933,-0.07493198,5.8060045,8.854033,-0.009205865,4.2344785,2.635928,-0.008551088,-0.07518734,3.816164,4.06919
FAM102B,6.7923427,2.9458385,-0.027360907,-0.08493962,6.543931,5.640282,-0.076843046,5.4884405,9.068912,-0.0069688014,4.0947165,2.3277419,-0.0110056875,-0.0776426,4.3042192,4.1477585
ARL11,5.6503954,1.7114203,-0.032952666,-0.07165974,5.1624913,5.0831437,-0.067108795,4.906049,7.780755,-0.016195524,3.5420675,1.1671185,-0.00929995,-0.069008686,3.629647,4.4596004
HUS1,7.0706015,2.5033536,-0.030668646,-0.088083096,6.5914116,6.2382383,-0.08070725,5.6905985,9.45456,-0.010772143,4.4032507,2.4348752,-0.011706916,-0.08520934,4.450193,4.6756525
H2-DMA,6.944498,2.5881364,-0.029120106,-0.08558569,6.4221244,6.043571,-0.07932566,5.4981775,9.183255,-0.009448643,4.2196093,2.3369749,-0.011791916,-0.08331397,4.3589673,4.4912596
TESPA1,6.9211736,2.8083892,-0.02636078,-0.08884394,6.686977,6.040661,-0.08002919,5.5095224,9.109729,-0.007335239,4.135007,2.1593916,-0.013679819,-0.08076416,4.421832,4.4473066
B3GNT5,5.7631307,0.85209244,-0.03162614,-0.075819336,5.3104696,5.583829,-0.07090485,4.843959,8.183246,-0.012311084,3.800881,1.9761473,-0.01154316,-0.07512416,3.8890653,4.331397
MIS12,6.975351,2.7446816,-0.028389165,-0.0861607,6.510481,6.0234795,-0.07943676,5.5732193,9.2504,-0.009334689,4.229885,2.3111296,-0.011274789,-0.08280605,4.3603344,4.446787
INTS8,7.018081,2.4536936,-0.030636689,-0.087744035,6.5245075,6.227235,-0.080478005,5.5936337,9.410665,-0.010749461,4.3621154,2.4097996,-0.011700799,-0.08483135,4.4316454,4.6992016
JARID2,6.9443398,2.6696908,-0.028666677,-0.086209804,6.481929,6.0534096,-0.07914113,5.5143986,9.231967,-0.009876763,4.249415,2.3000474,-0.011159949,-0.08339425,4.3266096,4.533724
SCARB1,6.4862947,2.340984,-0.02678696,-0.08166357,6.384073,5.727915,-0.07364694,4.9004564,8.436512,-0.004015373,3.4005992,2.3995106,-0.012338307,-0.07826042,3.9220443,4.4649506
RAB31,6.960565,2.5146608,-0.030195957,-0.086283796,6.483089,6.125021,-0.0799069,5.633583,9.325024,-0.010456038,4.3422704,2.4498649,-0.012262896,-0.0837648,4.3974447,4.5925713
FES,6.759271,2.2104201,-0.024506131,-0.07880478,5.9239655,5.4971223,-0.07614391,5.7309275,9.307243,-0.00935012,3.6951163,1.7394676,-0.008972997,-0.07382769,4.43124,3.6426961
CTSO,7.0560803,2.5188677,-0.030051667,-0.08831869,6.5829883,6.2179465,-0.0805988,5.6667204,9.434233,-0.010501295,4.3600235,2.3625839,-0.011491606,-0.084270045,4.4652734,4.60585
SUPV3L1,6.824241,2.677615,-0.027836403,-0.08355992,6.3564196,5.8762784,-0.077645354,5.4065914,8.9946575,-0.009162311,4.1220145,2.290823,-0.011423898,-0.081735894,4.228787,4.3711624
DEF8,6.9555807,2.7884133,-0.028137533,-0.08601135,6.5399184,5.982725,-0.07909529,5.6404285,9.24248,-0.00955321,4.2517,2.3215573,-0.011120687,-0.08239784,4.3427095,4.4117737
PLSCR4,5.744905,0.99612707,-0.028471654,-0.08000897,5.1080356,5.6535325,-0.07230932,5.3427687,8.012045,-0.018057862,3.3986742,2.3951876,-0.016207928,-0.07599449,4.083657,4.2937136
CKAP2,7.04482,2.6052732,-0.029560484,-0.08849413,6.601877,6.192933,-0.0806985,5.7078133,9.478779,-0.010514367,4.3605556,2.332289,-0.01114706,-0.08438444,4.443268,4.6079817
NOP2,6.9439626,2.8453662,-0.02745117,-0.08569191,6.5141892,5.94068,-0.0790558,5.6102962,9.20853,-0.008998836,4.198723,2.2757437,-0.011129217,-0.08195067,4.3442106,4.348819
IIGP1,7.0373225,2.5818274,-0.029828625,-0.088426195,6.5769396,6.204652,-0.08098253,5.6579933,9.480451,-0.010464584,4.341733,2.3464067,-0.01138046,-0.08465375,4.455354,4.6456356
GOLIM4,6.961051,2.7439334,-0.028027812,-0.08662111,6.5613017,6.009891,-0.07899063,5.63249,9.259025,-0.009690686,4.2518373,2.2646203,-0.010789911,-0.081758246,4.3496184,4.387003
FBXW11,7.019001,2.701452,-0.02574156,-0.08320348,6.1932564,5.977506,-0.07616826,5.727008,9.115154,-0.008568448,4.253084,2.036588,-0.011335326,-0.0800894,3.9897642,4.0246763
D1ERTD622E,7.0022836,2.7392917,-0.028822737,-0.08639492,6.559404,6.044647,-0.079647556,5.649784,9.283164,-0.009633158,4.2878375,2.370585,-0.011515911,-0.08302761,4.3781323,4.457512
CSRP3,6.6235847,2.1631649,-0.029167783,-0.08539889,6.2501035,5.982535,-0.07674208,5.5002613,9.08495,-0.011411986,4.22399,2.1517062,-0.01069061,-0.07927229,4.2597136,4.4325953
NDC1,6.9307895,2.7560446,-0.028074352,-0.085858904,6.5252485,5.986399,-0.078998044,5.6455336,9.241025,-0.009671351,4.250542,2.3251276,-0.01135646,-0.08189946,4.351524,4.391721
ATP13A1,6.9817553,2.5443087,-0.029482225,-0.08684655,6.479225,6.144679,-0.079562284,5.58642,9.330134,-0.010242045,4.296464,2.3548517,-0.011516071,-0.08314945,4.3811154,4.558036
CD44,6.8539414,2.5777333,-0.028795308,-0.084755495,6.3917727,5.9754643,-0.07836789,5.434657,9.098231,-0.009697125,4.182842,2.3115067,-0.011446702,-0.08254887,4.284959,4.482975
EPRS,6.9968815,2.596892,-0.02965012,-0.08632176,6.494985,6.1343675,-0.079655334,5.6223946,9.313755,-0.010183883,4.321959,2.4304817,-0.012050218,-0.08329481,4.382682,4.5530863
GIMAP8,6.712885,2.0876632,-0.030312309,-0.08368221,6.1344976,6.033108,-0.077360675,5.427229,9.087661,-0.01194538,4.272586,2.4890835,-0.013344933,-0.081461936,4.3421454,4.638175
GM1966,6.844747,2.4372718,-0.028554095,-0.085699655,6.348655,6.0281305,-0.078322664,5.5647182,9.233319,-0.010253131,4.2111,2.2567856,-0.011506865,-0.08077676,4.329812,4.4048243
DDX60,6.97279,2.4136577,-0.030330006,-0.08714194,6.495642,6.1792955,-0.07988937,5.6144724,9.347086,-0.010652855,4.335951,2.3967364,-0.011871653,-0.083291225,4.4318895,4.587858
STAG2,6.881452,2.4313111,-0.02969146,-0.084668174,6.343866,6.0591736,-0.07849623,5.448681,9.127254,-0.01000144,4.2259126,2.391249,-0.012133995,-0.08280612,4.295372,4.530941
CCNE2,6.991032,2.7067041,-0.028612146,-0.08662282,6.557115,6.051104,-0.07943216,5.6238747,9.276723,-0.009709737,4.2624702,2.3229012,-0.011244528,-0.08255159,4.383715,4.4361315
UBAC1,7.0104017,2.378138,-0.030811701,-0.0879292,6.517456,6.25093,-0.080128685,5.6196175,9.406477,-0.011057864,4.3781333,2.3968425,-0.011611197,-0.08430274,4.4317365,4.6795416
IFI27L2A,6.5650535,2.402107,-0.028416848,-0.08457527,6.2753243,5.621317,-0.07455501,5.3212156,8.973023,-0.0082573155,4.038766,2.213893,-0.010442957,-0.0750197,4.2133803,4.1824265
MRPL37,6.6721845,1.9645096,-0.030507294,-0.08548972,6.180535,6.0886564,-0.07756121,5.4525213,9.152696,-0.011870869,4.229088,2.2649472,-0.011685767,-0.08061734,4.3246617,4.559449
NUP93,7.005255,2.6034613,-0.029539222,-0.08701553,6.5105557,6.152395,-0.079959765,5.5639334,9.3344145,-0.010202614,4.308349,2.3673174,-0.011530107,-0.08420571,4.3876805,4.613368
OSBPL1A,7.0012646,2.7221055,-0.028692061,-0.086828135,6.5589714,6.0747313,-0.07955059,5.631503,9.317313,-0.009809937,4.284868,2.3295462,-0.011144606,-0.08290888,4.370476,4.4794493
DNTT,5.8176265,1.206759,-0.028057227,-0.08200315,5.8963056,5.636615,-0.07457426,5.1318064,8.445587,-0.012988591,3.7389119,1.1289696,-0.0077710142,-0.073447436,4.1796837,4.0664845
LMO4,5.122515,1.4437441,-0.027400171,-0.08886589,5.1300035,4.53687,-0.058174446,4.476984,7.650039,-0.005785349,3.7669404,2.272858,0.15063715,-0.068361826,3.578844,3.2581687
NAA50,6.9411936,2.3797917,-0.030087082,-0.08729383,6.4551797,6.166067,-0.08021274,5.6003904,9.381501,-0.010588587,4.2968516,2.3400338,-0.011845256,-0.08327642,4.4532723,4.5860834
TOMM70A,6.7670236,2.6806118,-0.026558766,-0.0843583,6.3678694,5.836235,-0.076853484,5.5059357,9.059601,-0.009516685,4.1245675,2.1307018,-0.01050335,-0.078756176,4.2318897,4.2195334
TRPS1,6.5674977,2.057912,-0.029084105,-0.08480563,6.1794868,5.9549117,-0.076757446,5.442151,9.043977,-0.011310611,4.1737566,2.1523728,-0.011167477,-0.0788358,4.2950296,4.410678
ODC1,6.975577,2.7282383,-0.028973175,-0.085810974,6.5241117,6.023109,-0.07936633,5.584405,9.237711,-0.009529993,4.2587585,2.384937,-0.011408653,-0.08308847,4.347349,4.481283
SERPINB9,6.9044533,2.5843854,-0.028377103,-0.08594692,6.434358,6.015044,-0.07916444,5.6154604,9.245394,-0.009652226,4.2196093,2.2857842,-0.011660321,-0.08175,4.391051,4.3886223
SSH3,6.629566,1.8268538,-0.03214235,-0.0835072,6.1123652,6.0619183,-0.07725891,5.302888,8.996589,-0.011413806,4.2345467,2.3903239,-0.012044136,-0.08201761,4.22988,4.6550684
TMEM176A,6.59322,1.7096828,-0.032565325,-0.08342712,6.062589,6.073,-0.07724318,5.296694,8.984033,-0.01165899,4.239325,2.3661678,-0.012178587,-0.08209675,4.220842,4.6679583
CBX7,5.7695775,1.7910417,-0.025865989,-0.07713909,5.5175014,5.3643413,-0.07073323,4.9159822,8.145653,-0.013873522,3.7206297,1.6878953,-0.009589639,-0.07196729,3.821049,4.108403
ASF1B,6.971144,2.7414925,-0.028458629,-0.08544261,6.483824,6.013902,-0.07919974,5.594631,9.231118,-0.009302719,4.231976,2.3834622,-0.011755494,-0.08280036,4.3519306,4.4377623
ADK,6.9980216,2.802965,-0.028211612,-0.085959315,6.52982,6.01691,-0.07934298,5.6363983,9.269277,-0.009340245,4.2528586,2.3555443,-0.011415605,-0.08277317,4.357081,4.4282837
TBL3,6.928235,2.5677261,-0.028341748,-0.08678586,6.458468,6.054439,-0.079451844,5.6156588,9.306438,-0.009847932,4.222211,2.2306013,-0.0113410475,-0.081863955,4.3984694,4.412117
F630028O10RIK,5.8176265,1.206759,-0.028057227,-0.08200315,5.8963056,5.636615,-0.07457426,5.1318064,8.445587,-0.012988591,3.7389119,1.1289696,-0.0077710142,-0.073447436,4.1796837,4.0664845
TGM2,6.5956755,1.92175,-0.03050171,-0.08462474,6.144353,6.0218534,-0.07672914,5.458809,9.057078,-0.0119295055,4.2410245,2.2466822,-0.011579232,-0.07991629,4.284078,4.5147715
PROCR,6.513672,2.118293,-0.02853223,-0.08223245,6.073108,5.7981486,-0.075805016,5.2941055,8.826153,-0.010391484,4.0117164,2.1748164,-0.011499128,-0.07865581,4.2104506,4.3134418
RASSF4,6.8448043,2.201833,-0.031077268,-0.08566172,6.318066,6.1529384,-0.079240106,5.4307404,9.221085,-0.010899995,4.2842646,2.3969753,-0.012173202,-0.08376004,4.342318,4.6859818
LSP1,7.0408645,2.7455733,-0.028761182,-0.08738599,6.582554,6.1048822,-0.080238,5.647048,9.360474,-0.009742583,4.297835,2.33302,-0.011191808,-0.08402611,4.4024057,4.5274353
CEP55,6.7901063,2.7580442,-0.026554937,-0.084221,6.397604,5.8362565,-0.077004366,5.530792,9.056085,-0.00929512,4.1376505,2.181996,-0.01056526,-0.0791598,4.2440424,4.2245464
RPS6KA5,6.949433,2.4328637,-0.030349791,-0.0864394,6.464085,6.1626105,-0.07951331,5.6046867,9.316408,-0.01076421,4.343555,2.4386585,-0.012106931,-0.083179556,4.391772,4.600191
XRCC3,5.0241885,1.4969836,-0.024560021,-0.08509255,5.1979747,4.6122518,-0.05951507,4.1763535,7.6717453,-0.0061331885,3.5805588,1.8831381,-0.00065968395,-0.07068901,3.8643966,3.3621078
DENND1C,7.0241914,2.63445,-0.029188838,-0.08722545,6.5365214,6.1335506,-0.07997516,5.6121216,9.34928,-0.009903382,4.2978644,2.3385293,-0.01137739,-0.08362322,4.4057374,4.5390463
SERPINB1A,6.599906,1.8303963,-0.031727765,-0.0833907,6.0701666,6.0290427,-0.07780515,5.3027306,9.04663,-0.011295818,4.201736,2.3586109,-0.012299912,-0.082287386,4.240214,4.648859
SCARF1,6.9648457,2.4491134,-0.029852264,-0.087669134,6.4885654,6.1641583,-0.080048256,5.5168743,9.319874,-0.01038534,4.2805314,2.284081,-0.011337869,-0.08388902,4.4255023,4.6118746
USP11,6.9972644,2.6506805,-0.029280571,-0.08650156,6.50607,6.1093435,-0.07969105,5.5573683,9.289289,-0.009963952,4.293112,2.3698683,-0.011522238,-0.084097154,4.3617473,4.5799074
DHX33,6.9562902,2.8088224,-0.028021613,-0.08533535,6.488977,5.959611,-0.07899358,5.5559063,9.1699,-0.0090438565,4.2049637,2.3253932,-0.011380087,-0.08255938,4.327249,4.3988028
PWP2,7.026726,2.733553,-0.028610056,-0.08734694,6.5614424,6.1092277,-0.080116525,5.65835,9.383736,-0.009865632,4.2942314,2.3087041,-0.0111575145,-0.083665185,4.3986216,4.51805
THSD1,5.707506,0.8577706,-0.031048506,-0.07553873,5.270434,5.550987,-0.07046187,4.8020754,8.135663,-0.012498857,3.7612004,1.9374518,-0.011397107,-0.07443316,3.8865552,4.3129244
MAML3,6.8255596,2.5847547,-0.027898703,-0.08573366,6.446316,5.978654,-0.07784746,5.581002,9.179193,-0.010184517,4.2212143,2.242338,-0.010833461,-0.08022637,4.316798,4.3572235
XRCC6,6.9142103,2.6400628,-0.02867287,-0.08493364,6.4323196,5.9915257,-0.0787892,5.524555,9.152944,-0.009374187,4.1922746,2.3596785,-0.0118641015,-0.0820101,4.3456316,4.407448
MTMR4,6.862738,2.5492325,-0.032103904,-0.07873372,5.50189,5.9505515,-0.08256655,5.5693083,8.629818,-0.0060853665,3.9326496,2.7298076,-0.013562574,-0.08148116,4.221656,3.914222
CCNF,6.9784436,2.6258128,-0.029272586,-0.08600581,6.4746594,6.089418,-0.07988129,5.6178665,9.306808,-0.009797342,4.278143,2.410865,-0.012137582,-0.083404996,4.3910856,4.517211
NFKBIA,6.989445,2.3737226,-0.0309975,-0.08706915,6.47019,6.2209873,-0.08021538,5.582736,9.367276,-0.01086354,4.3604097,2.445958,-0.01214969,-0.08457126,4.4229527,4.692171
SLC35E1,6.3529897,2.3366625,-0.024826698,-0.068405375,6.595039,6.1977067,-0.07123116,4.8434477,7.695341,-0.009101233,4.553015,2.203256,-0.007979067,-0.07225242,3.2111452,4.0658765
NUBP2,7.0749483,2.6237943,-0.029683355,-0.08845541,6.6161594,6.197703,-0.08076348,5.680257,9.451551,-0.010300553,4.361661,2.3550913,-0.011287168,-0.08475229,4.4532423,4.6134644
SHCBP1,6.0241723,1.6508248,-0.024965392,-0.08117248,5.6026363,5.9540205,-0.07690378,5.224145,8.427599,-0.017497394,3.3335464,2.131055,-0.01802799,-0.08230836,4.640277,4.5706835
MCM4,7.023739,2.4517164,-0.030476207,-0.08766445,6.550768,6.197045,-0.0803299,5.664095,9.384824,-0.010571541,4.365572,2.4020822,-0.01183621,-0.084009014,4.4519606,4.5990925
UNC93B1,6.6696053,2.0607018,-0.02942692,-0.085686736,6.2346168,6.0385385,-0.07788713,5.4707613,9.15761,-0.01138815,4.180373,2.1796982,-0.011594617,-0.079884514,4.3607917,4.4576244
ELF1,6.2856297,1.9843994,-0.026533673,-0.08161943,6.1398187,5.6493454,-0.07482634,5.2494373,8.599407,-0.010646692,3.9289753,1.6387403,-0.009842264,-0.07443548,4.1615186,3.9932692
EMB,7.0016675,2.4012506,-0.031055799,-0.08734409,6.5187545,6.2174845,-0.08039884,5.5913687,9.381376,-0.010766269,4.3695335,2.4411597,-0.011833848,-0.085307054,4.4250526,4.716134
EZR,6.802754,2.148129,-0.030016124,-0.08646013,6.314853,6.123035,-0.07877599,5.5289345,9.260892,-0.011251327,4.2482796,2.2696733,-0.011759523,-0.08148721,4.4018655,4.5343637
NPDC1,6.95272,2.261735,-0.031458087,-0.086683884,6.456125,6.209788,-0.07946689,5.59579,9.305836,-0.011130052,4.3765683,2.4539697,-0.011999223,-0.084046885,4.397873,4.6683264
CTSF,6.6999145,2.061037,-0.031189632,-0.084268615,6.198613,6.049258,-0.078788206,5.3362856,9.138263,-0.01076465,4.213843,2.3718586,-0.01211778,-0.08319307,4.2849226,4.6716566
CASP1,6.707257,2.140701,-0.029739847,-0.08430989,6.149184,6.0397987,-0.07765238,5.392514,9.077845,-0.010690328,4.1565576,2.3069046,-0.012315819,-0.080921,4.297625,4.5091925
ITM2A,6.536983,1.8251611,-0.02976481,-0.08431195,6.0207343,5.983837,-0.07648537,5.290102,9.013749,-0.011779715,4.099853,2.1445858,-0.011319395,-0.07930704,4.2348604,4.4948673
RCSD1,6.548493,1.5585082,-0.031216485,-0.08117979,5.659932,5.9421463,-0.07396518,5.0717573,8.612914,-0.012384312,4.167423,2.360957,-0.012457013,-0.07821633,4.2438664,4.5536413
SNX30,7.0331016,2.6929681,-0.029093642,-0.087343656,6.563565,6.138053,-0.080023944,5.62341,9.3658905,-0.010064225,4.313944,2.3475947,-0.011256731,-0.084003374,4.3924375,4.5699396
PBK,6.7895913,2.2275653,-0.025168853,-0.077591,5.869186,5.4868636,-0.07602303,5.6863785,9.290918,-0.009224242,3.6894264,1.8201697,-0.0088508045,-0.07491124,4.401412,3.7176712
PRKCQ,6.9627934,2.7325895,-0.028719416,-0.085794665,6.5103855,6.035189,-0.07913752,5.5818615,9.227574,-0.009701861,4.2598615,2.3746364,-0.01161276,-0.08239437,4.3410754,4.4580927
EFTUD2,7.010074,2.7412894,-0.028776787,-0.08670583,6.565184,6.066688,-0.07957043,5.6305103,9.306021,-0.00978305,4.2894855,2.3469775,-0.011146312,-0.083219066,4.3679028,4.4902973
CYBC1,6.479975,2.4889069,-0.024320483,-0.06910948,6.728628,6.2613645,-0.07225672,5.0960016,7.897778,-0.009888597,4.7087355,2.3551865,-0.008871036,-0.07220024,3.335895,4.077216
ABCB8,6.757605,2.3663583,-0.024020664,-0.077285275,5.863164,5.4147825,-0.07594348,5.6902313,9.230408,-0.008458752,3.6343265,1.7750093,-0.009080059,-0.07391959,4.3921833,3.6021051
IL17RA,6.095594,1.0666866,-0.027171494,-0.074403025,5.1895328,5.4222627,-0.071675085,5.2177725,8.7576685,-0.012087878,3.5343952,1.6691782,-0.009878454,-0.07034599,4.1802263,3.818885
ARHGAP15,7.022663,2.6728776,-0.029125422,-0.08666881,6.543452,6.1047378,-0.07945121,5.676791,9.329678,-0.00997714,4.324243,2.382803,-0.011423252,-0.08302631,4.3670125,4.489357
HDAC2,5.9597178,1.5340334,-0.02769842,-0.08125292,6.0125585,5.650451,-0.07418766,5.137953,8.46076,-0.012567924,3.8081298,1.4468147,-0.008796787,-0.073856555,4.165147,4.0877514
NUPR1,6.4136,2.1080441,-0.028633991,-0.08540325,5.9179277,5.46018,-0.072419226,5.6053505,8.6234455,-0.010166008,4.0589466,2.2727003,-0.007513615,-0.070992686,3.7572825,3.8878195
NFIA,5.5667353,0.7975046,-0.030178303,-0.07518255,5.147576,5.478946,-0.06958542,4.7156544,8.035402,-0.012908145,3.6741111,1.7962868,-0.010866997,-0.072851546,3.8688319,4.2721577
CD63,6.344678,1.6472473,-0.029868929,-0.083203904,5.880676,5.907776,-0.0750264,5.2793427,8.868723,-0.012522148,4.108411,2.1017327,-0.011324276,-0.07743593,4.1985226,4.4590015
PFKFB3,7.033303,2.50379,-0.030541023,-0.08764179,6.5532193,6.2071867,-0.080499224,5.6150913,9.406132,-0.01058436,4.367684,2.420369,-0.0116694905,-0.085067205,4.424442,4.684826
PLEKHO2,7.0569987,2.6496508,-0.02936939,-0.088378005,6.613482,6.172703,-0.08058996,5.6648073,9.431133,-0.010226881,4.3424487,2.3224366,-0.011087944,-0.08446728,4.4386992,4.592531
MPL,6.6450067,1.969513,-0.03114954,-0.08430497,6.198153,6.0545397,-0.07719507,5.2619524,9.010272,-0.011177853,4.208431,2.2947605,-0.011239712,-0.08263694,4.2378736,4.6696463
ST6GALNAC4,6.717972,1.9582019,-0.031557515,-0.08497175,6.184529,6.1290307,-0.0780416,5.3651905,9.113217,-0.01145506,4.24617,2.3748975,-0.012124769,-0.082276925,4.3086715,4.6729746
CERS4,6.732109,1.6732439,-0.030302683,-0.080613256,5.7201138,6.084386,-0.074743405,5.448922,8.893126,-0.010525049,4.279372,2.0992186,-0.012653394,-0.080912165,3.8429992,4.290023
TRIM16,6.9927173,2.663298,-0.029276595,-0.086033955,6.5073743,6.07251,-0.07947811,5.5826473,9.26121,-0.009860972,4.2810864,2.3982427,-0.01164373,-0.08360144,4.3655443,4.526783
TRIM35,7.0101786,2.6768634,-0.02895187,-0.08727908,6.538405,6.1135454,-0.080151126,5.580611,9.337815,-0.009795627,4.277102,2.3105414,-0.011277349,-0.083974816,4.4018064,4.554413
CD68,6.4854198,2.856355,-0.023521746,-0.0800004,6.3430786,5.771436,-0.07476581,5.4285774,8.806662,-0.013551461,4.3472333,2.3952878,-0.00705071,-0.077130124,4.1294403,4.1310186
ELANE,5.323251,0.62005377,-0.029129392,-0.0740306,4.9204154,5.3457975,-0.06794984,4.5749187,7.8345175,-0.0131726675,3.528851,1.5786408,-0.009983892,-0.070350096,3.8005843,4.1726584
CDCA4,7.014803,2.6504297,-0.028739087,-0.085837655,6.3945775,6.192948,-0.07785548,5.464715,9.233265,-0.009616321,4.256353,2.4473374,-0.011753349,-0.08330498,4.362309,4.6019945
MIR17HG,5.412607,1.0602864,-0.030475145,-0.076810054,6.111055,5.3214345,-0.071210854,4.657202,8.2131815,-0.008934288,3.6016,0.93114656,-0.008704514,-0.07044544,4.1977797,3.9861925
RHOF,6.536028,1.8494706,-0.030610425,-0.08306394,6.020224,5.9726,-0.07735254,5.2921677,8.987419,-0.011285392,4.1257086,2.289196,-0.012855027,-0.08079032,4.2527385,4.54465
ITPR1,6.9096518,2.7833555,-0.027796648,-0.08516912,6.4691486,5.9466724,-0.07843719,5.5161066,9.149033,-0.0092648985,4.190065,2.2782052,-0.011047925,-0.08194314,4.291412,4.398218
STT3A,6.8547716,2.0244646,-0.02814634,-0.07885895,6.529768,5.5614896,-0.07361335,5.474639,8.701708,-0.00800569,3.9919896,2.3819757,-0.016097642,-0.0847358,4.025803,4.0192943
ZFP467,6.870915,2.376105,-0.030450648,-0.08564912,6.4012995,6.095755,-0.07939065,5.5793276,9.258936,-0.010656448,4.3063507,2.4429965,-0.01237838,-0.083034515,4.3827047,4.5851097
PIDD1,6.8827486,2.5521185,-0.02813011,-0.08590239,6.394785,6.0108943,-0.07844047,5.5801487,9.2442255,-0.009959036,4.2068787,2.2186017,-0.011150009,-0.080925345,4.3166056,4.3791924
FDFT1,6.9216113,2.3234189,-0.030433377,-0.086865395,6.4332094,6.183329,-0.07926018,5.599555,9.326415,-0.01105794,4.3365054,2.3827732,-0.0117346905,-0.0827121,4.3955607,4.5972643
SHMT1,6.906608,2.7001557,-0.028703783,-0.087298326,6.6825128,6.170358,-0.078810625,5.5617504,9.325726,-0.0106931515,4.3418655,2.3649392,-0.011103854,-0.08326052,4.3466926,4.6297903
VSIR,6.6405635,2.298289,-0.027401468,-0.09001453,5.7042403,6.3659744,-0.07404938,5.223572,9.30768,-0.012400151,4.3233376,2.173666,-0.012386302,-0.0777567,4.174175,4.82619
LY9,6.8902698,2.4415715,-0.029641172,-0.0856518,6.368181,6.103713,-0.07882465,5.4479074,9.185928,-0.010261277,4.242425,2.3395805,-0.011731982,-0.083029434,4.3238497,4.5793295
PLAC8,5.323251,0.62005377,-0.029129392,-0.0740306,4.9204154,5.3457975,-0.06794984,4.5749187,7.8345175,-0.0131726675,3.528851,1.5786408,-0.009983892,-0.070350096,3.8005843,4.1726584
CENPE,6.8421655,2.7139833,-0.027651707,-0.084490046,6.390242,5.8959117,-0.0780692,5.42474,9.048194,-0.00911726,4.128915,2.2388854,-0.011144759,-0.08174176,4.2737713,4.377692
COPB1,6.7900662,2.6849945,-0.027019126,-0.08441681,6.3869576,5.8774896,-0.077218704,5.5469303,9.08677,-0.009554112,4.160699,2.2278264,-0.010923186,-0.07938775,4.2694345,4.2589436
GT(ROSA)26SOR,5.8176265,1.206759,-0.028057227,-0.08200315,5.8963056,5.636615,-0.07457426,5.1318064,8.445587,-0.012988591,3.7389119,1.1289696,-0.0077710142,-0.073447436,4.1796837,4.0664845
DEK,7.033831,2.5347855,-0.029836368,-0.08796994,6.5706387,6.1863055,-0.08032796,5.6569824,9.406686,-0.01038121,4.344398,2.3546455,-0.011444077,-0.08374985,4.4453254,4.574435
GGTA1,6.4647355,2.59922,-0.026259052,-0.07841229,6.2678084,5.881711,-0.07482951,5.351491,8.740487,-0.014536757,4.456732,2.718839,-0.008737618,-0.07895815,4.1307125,4.3610153
PARP8,5.719648,2.503234,-0.027230334,-0.07806579,5.6105943,5.411642,-0.08011184,4.279498,8.491421,-0.012587296,4.1729054,1.3855221,-0.0033911597,-0.071123235,4.2563834,4.7423763
ARID2,6.6041307,1.7271894,-0.032539807,-0.08359716,6.0760374,6.0780826,-0.077354565,5.2991505,8.995281,-0.011631383,4.241864,2.361702,-0.012098244,-0.082268186,4.2274914,4.6744337
ACAA2,6.9815454,2.5558681,-0.02919702,-0.08788869,6.572497,6.1465707,-0.079314746,5.644246,9.361922,-0.0106463,4.3252993,2.268212,-0.010586396,-0.08290859,4.3670273,4.542452
CAD,6.9212003,2.3176963,-0.030610463,-0.08665428,6.4361963,6.1754613,-0.07918144,5.6110287,9.313731,-0.011077214,4.348133,2.4049332,-0.011792419,-0.08277335,4.390792,4.5966864
ATAD2,6.985864,2.6315637,-0.02932604,-0.08642245,6.481409,6.116261,-0.079631016,5.559886,9.29095,-0.010046231,4.293299,2.3755553,-0.011724158,-0.083474874,4.363011,4.564767
MFSD14B,6.6955657,1.7018232,-0.027992198,-0.07753322,5.73293,5.6302533,-0.07571304,5.668107,9.279398,-0.01072383,3.7908297,1.9397519,-0.009793309,-0.07510438,4.418828,3.883981
DNAJC5,6.9164286,2.3236454,-0.03039046,-0.08692967,6.420513,6.189093,-0.07932146,5.562031,9.3228445,-0.01100367,4.3214273,2.3685691,-0.011702645,-0.08280465,4.391049,4.615242
CD52,6.8654647,2.336992,-0.030443592,-0.08666537,6.3753014,6.158489,-0.08007142,5.439167,9.305921,-0.010560879,4.257381,2.345382,-0.011818146,-0.08391913,4.391358,4.703375
GYS1,6.896829,2.524542,-0.029238539,-0.085570976,6.4244223,6.0551443,-0.078683995,5.5081472,9.196409,-0.010046792,4.228355,2.3421316,-0.011532652,-0.08223002,4.336573,4.4973974
BCL2,6.354894,1.5525229,-0.03038048,-0.082685985,5.832165,5.9607096,-0.07530428,5.167531,8.838382,-0.012491791,4.0569167,2.141442,-0.011943371,-0.078257486,4.1934075,4.526828
TM6SF1,6.8576636,2.5725405,-0.029135834,-0.086582385,6.571127,6.160523,-0.07932622,5.5523357,9.315475,-0.010385264,4.3058314,2.4007154,-0.012140193,-0.08299933,4.3943825,4.6127176
TMX4,5.8715677,2.5973737,-0.028175082,-0.07930084,5.716305,5.5267115,-0.08192993,4.426854,8.674159,-0.01265018,4.2848825,1.5257604,-0.004031034,-0.07300465,4.3466334,4.8399706
AHCYL1,6.086125,2.0287778,-0.022952676,-0.080413595,5.7222757,5.834327,-0.07646194,5.4333525,8.38475,-0.017084848,3.305966,2.173543,-0.01846192,-0.08075739,4.653393,4.3194456
CTLA2A,6.96655,2.7061348,-0.028800577,-0.08564799,6.5231853,6.0101805,-0.07873705,5.6084986,9.211962,-0.009753793,4.267457,2.3815866,-0.0112489555,-0.082263075,4.330248,4.427019
GRINA,6.770232,2.0334895,-0.031480335,-0.08550547,6.2384443,6.1556163,-0.07849994,5.3835526,9.154809,-0.0113248,4.2651253,2.3767269,-0.012069022,-0.08297075,4.3295655,4.6957417
JPT2,6.994224,2.650225,-0.028925816,-0.087139234,6.509514,6.1251755,-0.08005173,5.5877123,9.358779,-0.0099594835,4.275843,2.3138926,-0.011380256,-0.083698064,4.3951025,4.5610237
CD63-PS,5.8176246,1.20666,-0.0280591,-0.082003884,5.8962727,5.636611,-0.07457634,5.1317024,8.445515,-0.012989015,3.7388768,1.1289159,-0.0077697723,-0.073447175,4.1795545,4.066494
GBP2,6.514623,2.5431755,-0.024601206,-0.07024693,6.8154182,6.252812,-0.072651826,5.0329475,7.866166,-0.008817271,4.6511307,2.217903,-0.007532844,-0.0731183,3.2979982,4.0415907
ORC6,7.0078096,2.4372451,-0.030892545,-0.08727477,6.514494,6.206654,-0.08042937,5.609391,9.390938,-0.010651125,4.3652797,2.4483125,-0.01191921,-0.08470315,4.4248,4.6824665
PTPN7,7.0369215,2.6883967,-0.029106054,-0.08725088,6.5496445,6.1349697,-0.08024663,5.6732473,9.392435,-0.009928292,4.3176885,2.3641396,-0.011514821,-0.08381197,4.411047,4.5388184
SLBP,6.9478884,2.8841593,-0.027171426,-0.08422685,6.432662,5.910834,-0.07825122,5.607088,9.165633,-0.0097697275,4.247658,2.446856,-0.012510804,-0.081701905,4.3474646,4.4004297
ABCG3,6.6848545,2.153277,-0.029166238,-0.08731512,6.194554,5.888963,-0.079168044,5.4941263,9.331611,-0.010251722,4.279036,2.360783,-0.011047525,-0.08432664,4.346042,4.7468824
HNRNPAB,6.956774,2.7947264,-0.027970135,-0.08580737,6.5196514,5.9893813,-0.07878712,5.565402,9.203268,-0.009469383,4.228149,2.2985303,-0.010986242,-0.082570925,4.3184824,4.428542
GUCY1A1,5.323251,0.62005377,-0.029129392,-0.0740306,4.9204154,5.3457975,-0.06794984,4.5749187,7.8345175,-0.0131726675,3.528851,1.5786408,-0.009983892,-0.070350096,3.8005843,4.1726584
CSAD,5.989613,2.2713647,-0.03067778,-0.08252649,5.8067636,5.8245583,-0.08383701,4.497737,8.965108,-0.01421625,4.44677,1.5963985,-0.004346637,-0.07632535,4.490177,5.161479
LDHB,6.105268,1.3370905,-0.030179778,-0.08080525,5.6655436,5.7491693,-0.07388621,5.036441,8.593698,-0.012098789,3.918216,1.9780278,-0.011524584,-0.07660373,4.132497,4.3962755
CD300A,6.9015403,2.7085562,-0.027425358,-0.08599903,6.452891,5.946804,-0.07902581,5.6030874,9.225338,-0.009188464,4.173178,2.1722445,-0.010934782,-0.081251144,4.3571553,4.312503
RARS,7.002882,2.4800706,-0.030000005,-0.0877587,6.550667,6.193245,-0.07973605,5.6695385,9.396246,-0.010814954,4.3660026,2.3611066,-0.011224129,-0.08335728,4.408663,4.5857496
SF3B3,6.8803444,2.7105663,-0.027977427,-0.08482478,6.4135346,5.933741,-0.0785046,5.4604206,9.096319,-0.009137745,4.153179,2.2727363,-0.011330933,-0.08218298,4.29953,4.4029026
TEK,5.8176265,1.206759,-0.028057227,-0.08200315,5.8963056,5.636615,-0.07457426,5.1318064,8.445587,-0.012988591,3.7389119,1.1289696,-0.0077710142,-0.073447436,4.1796837,4.0664845
UMPS,7.0246186,2.5101194,-0.02982809,-0.08802752,6.5532765,6.1944203,-0.080344215,5.641324,9.415344,-0.010439655,4.3354197,2.3351974,-0.011392867,-0.083704144,4.443687,4.5838776
BATF2,6.8949428,2.2732444,-0.0298811,-0.08760027,6.4057817,6.1612854,-0.08009186,5.528126,9.33537,-0.010823705,4.2392597,2.2320728,-0.011705933,-0.08287992,4.4797845,4.5668726
FAM76B,6.9720325,2.534356,-0.029302707,-0.08766073,6.5524487,6.131802,-0.079631686,5.6664553,9.364939,-0.010390407,4.3221607,2.2958808,-0.011121513,-0.08236318,4.4009724,4.4985485
MCM10,6.9569554,2.7256978,-0.028516782,-0.08604207,6.5166054,6.0208287,-0.07904665,5.547553,9.222844,-0.0097057875,4.2422223,2.3187015,-0.011104602,-0.08298384,4.336548,4.4819765
TGTP1,7.0587306,2.5161693,-0.030656775,-0.08806052,6.5841837,6.234471,-0.08106654,5.6807756,9.464537,-0.010766391,4.399139,2.4341006,-0.011854577,-0.08588753,4.4655037,4.707693
MECOM,6.626408,1.9462118,-0.030008111,-0.08503891,6.139417,6.054425,-0.07713193,5.4390507,9.105879,-0.011825641,4.20378,2.2269228,-0.011713493,-0.079737626,4.3059173,4.5053835
URB2,5.8176265,1.206759,-0.028057227,-0.08200315,5.8963056,5.636615,-0.07457426,5.1318064,8.445587,-0.012988591,3.7389119,1.1289696,-0.0077710142,-0.073447436,4.1796837,4.0664845
ARL8B,6.9679456,2.750931,-0.028073689,-0.085072264,6.429658,6.017217,-0.07912731,5.6522703,9.275255,-0.010264448,4.29831,2.4803593,-0.0130551895,-0.08233357,4.406005,4.487404
CD53,6.814505,2.25796,-0.031836417,-0.087477684,6.1606894,5.7942367,-0.07521182,5.7975893,8.958745,-0.010221248,4.3266015,2.6720834,-0.008493425,-0.07634113,3.8639529,4.2208023
SPC25,7.0499916,2.5969343,-0.029769232,-0.08813406,6.573861,6.189658,-0.08072315,5.6214085,9.416931,-0.010243373,4.3381906,2.3527539,-0.011440461,-0.08468919,4.4465227,4.6295013
PARVG,7.007316,2.6998756,-0.028607663,-0.08715218,6.554008,6.093352,-0.07968855,5.594475,9.308624,-0.009740317,4.270267,2.2932098,-0.011072372,-0.08343485,4.3886714,4.5032873
ELMO2,7.007973,2.569328,-0.029664502,-0.08679064,6.496246,6.153782,-0.07970646,5.603154,9.332073,-0.010214052,4.314856,2.3914897,-0.011669096,-0.08355873,4.388004,4.569764
