,0,1,2,3,4,5,6,7,8,9,10,11,12,13,14,15
IL1B,-0.024839627,-0.022373447,0.017234094,2.8459287,-0.028361073,-0.044267688,1.7931113,1.0641851,-0.038680825,2.2972949,-0.013461191,-0.038950678,-0.022582406,-0.017837139,-0.011020206,-0.029456817
CLEC4E,-0.06047045,-0.054576114,-0.0060834307,6.710726,-0.07502576,-0.11070534,5.0843825,4.189899,-0.10074021,4.9240212,-0.05173995,-0.09992671,-0.058186416,-0.04954609,-0.031225504,-0.08066798
DBI,-0.060439285,-0.05457426,-0.006067459,6.717229,-0.07503265,-0.11076282,5.086643,4.1861434,-0.10078193,4.9190917,-0.051726777,-0.09995662,-0.058194723,-0.04956157,-0.031248733,-0.08064612
RBL2,-0.02652095,-0.023040876,-0.0012841391,2.4569507,-0.026042923,-0.04703327,2.0346527,0.7942923,-0.038958956,2.1890466,-0.01398787,-0.034931786,-0.025206754,-0.018391894,-0.0074867182,-0.02857022
EGR1,-0.025302999,-0.022906221,0.009971239,2.9097934,-0.028963499,-0.045160025,1.8317262,1.1062813,-0.039504085,2.3330073,-0.013931854,-0.039914012,-0.02308477,-0.01828687,-0.0113220215,-0.030087756
CLEC4B1,-0.060439285,-0.05457426,-0.006067459,6.717229,-0.07503265,-0.11076282,5.086643,4.1861434,-0.10078193,4.9190917,-0.051726777,-0.09995662,-0.058194723,-0.04956157,-0.031248733,-0.08064612
SQSTM1,-0.035994586,-0.03379154,-0.0015636876,4.350154,-0.04397003,-0.06673889,2.8079867,2.162571,-0.059460912,3.2279139,-0.025393318,-0.06089915,-0.034157168,-0.028499145,-0.018778315,-0.04637613
3110003A17RIK,-0.05080677,-0.050001767,-0.0067535024,7.016138,-0.06706098,-0.11163372,5.0823565,3.425299,-0.09372133,4.4475274,-0.052760556,-0.085908,-0.050871186,-0.037157487,-0.022453431,-0.08554613
SERTAD2,-0.060439285,-0.05457426,-0.006067459,6.717229,-0.07503265,-0.11076282,5.086643,4.1861434,-0.10078193,4.9190917,-0.051726777,-0.09995662,-0.058194723,-0.04956157,-0.031248733,-0.08064612
GNG5,-0.035422705,-0.033229448,-0.0016738188,4.304648,-0.043474067,-0.06602359,2.7693574,2.135762,-0.058673076,3.1812122,-0.024964103,-0.060130246,-0.03375003,-0.028114298,-0.018497033,-0.045967836
RLIM,-0.024813348,-0.022361478,0.016204588,2.8461325,-0.02834939,-0.044251494,1.7925706,1.0642711,-0.03866726,2.2958226,-0.013460288,-0.03893547,-0.022570873,-0.017833011,-0.011017635,-0.029457198
ARL8B,-0.06041513,-0.054548964,-0.006074763,6.7178917,-0.0750308,-0.110775776,5.085056,4.1869993,-0.100756146,4.917592,-0.051755436,-0.099951655,-0.05817465,-0.04958068,-0.031226773,-0.08064665
SP1,-0.024999416,-0.022558188,0.016397037,2.865305,-0.028549012,-0.04454427,1.8065047,1.0778061,-0.038928524,2.3070412,-0.013606064,-0.03925928,-0.02273851,-0.01798147,-0.0111334575,-0.029636206
LAMP2,-0.05421969,-0.052499473,-0.012893103,6.354176,-0.06792822,-0.09752439,5.312401,4.2591996,-0.086202934,3.7782116,-0.051482454,-0.09268973,-0.06035361,-0.03543628,-0.03118675,-0.07382953
PA2G4,-0.025112223,-0.022706162,0.0155995935,2.8831644,-0.028733239,-0.04481182,1.8164467,1.0919578,-0.03920125,2.3188686,-0.013792357,-0.03953897,-0.022868088,-0.018117385,-0.0112006245,-0.029831666
MED1,-0.025049912,-0.02262227,0.014013059,2.8743594,-0.028632678,-0.044646163,1.8113348,1.08443,-0.039040387,2.3118079,-0.013676546,-0.03937897,-0.022796463,-0.018046876,-0.011172466,-0.029729811
TUBA1B,-0.024709994,-0.022271466,0.015961796,2.8345103,-0.028218845,-0.044078436,1.7859933,1.0559329,-0.03850475,2.2874327,-0.013353443,-0.038768046,-0.022462992,-0.017746663,-0.01097306,-0.029351337
SUPT5H,-0.060439285,-0.05457426,-0.006067459,6.717229,-0.07503265,-0.11076282,5.086643,4.1861434,-0.10078193,4.9190917,-0.051726777,-0.09995662,-0.058194723,-0.04956157,-0.031248733,-0.08064612
SH3BGRL3,-0.060439285,-0.05457426,-0.006067459,6.717229,-0.07503265,-0.11076282,5.086643,4.1861434,-0.10078193,4.9190917,-0.051726777,-0.09995662,-0.058194723,-0.04956157,-0.031248733,-0.08064612
ZEB2,-0.033630874,-0.031550795,-0.0013735121,4.083149,-0.041003145,-0.062491428,2.6030345,1.9756153,-0.05548285,3.043336,-0.023198064,-0.056920104,-0.031841874,-0.026630573,-0.017410662,-0.043268107
HN1,-0.060439285,-0.05457426,-0.006067459,6.717229,-0.07503265,-0.11076282,5.086643,4.1861434,-0.10078193,4.9190917,-0.051726777,-0.09995662,-0.058194723,-0.04956157,-0.031248733,-0.08064612
CD81,-0.062050335,-0.056206893,-0.006917488,6.838541,-0.07723918,-0.11478134,5.3186846,4.3096023,-0.10333941,4.925579,-0.054914683,-0.10255456,-0.05980519,-0.05117258,-0.031153077,-0.08309097
GYG,-0.060439285,-0.05457426,-0.006067459,6.717229,-0.07503265,-0.11076282,5.086643,4.1861434,-0.10078193,4.9190917,-0.051726777,-0.09995662,-0.058194723,-0.04956157,-0.031248733,-0.08064612
OAZ1,-0.060439285,-0.05457426,-0.006067459,6.717229,-0.07503265,-0.11076282,5.086643,4.1861434,-0.10078193,4.9190917,-0.051726777,-0.09995662,-0.058194723,-0.04956157,-0.031248733,-0.08064612
TLR2,-0.03787925,-0.03421997,-0.0037639074,3.749428,-0.040197812,-0.070186436,3.124375,1.7426257,-0.05916406,3.0306346,-0.02576237,-0.05443502,-0.03763358,-0.028963132,-0.013374754,-0.044823036
ARID1B,-0.024911096,-0.02244966,0.016841412,2.8535278,-0.028449647,-0.04438042,1.7982438,1.070117,-0.03878584,2.3025322,-0.013525231,-0.03907874,-0.022649312,-0.017899117,-0.011064559,-0.029538548
TMBIM4,-0.060439285,-0.05457426,-0.006067459,6.717229,-0.07503265,-0.11076282,5.086643,4.1861434,-0.10078193,4.9190917,-0.051726777,-0.09995662,-0.058194723,-0.04956157,-0.031248733,-0.08064612
SNAPC5,-0.024981381,-0.022544218,0.017609082,2.862875,-0.028534798,-0.044528916,1.8048484,1.0765357,-0.038910065,2.3063195,-0.013599994,-0.039234858,-0.022718139,-0.017965574,-0.011106004,-0.029617755
CLEC4D,-0.060439285,-0.05457426,-0.006067459,6.717229,-0.07503265,-0.11076282,5.086643,4.1861434,-0.10078193,4.9190917,-0.051726777,-0.09995662,-0.058194723,-0.04956157,-0.031248733,-0.08064612
USMG5,-0.060439285,-0.05457426,-0.006067459,6.717229,-0.07503265,-0.11076282,5.086643,4.1861434,-0.10078193,4.9190917,-0.051726777,-0.09995662,-0.058194723,-0.04956157,-0.031248733,-0.08064612
TIAL1,-0.02508439,-0.02267442,0.016698554,2.8774724,-0.02867392,-0.044740185,1.8138868,1.0868956,-0.0391057,2.3141646,-0.013713438,-0.039461944,-0.022833373,-0.018069603,-0.011177338,-0.029761093
S100A1,-0.060439285,-0.05457426,-0.006067459,6.717229,-0.07503265,-0.11076282,5.086643,4.1861434,-0.10078193,4.9190917,-0.051726777,-0.09995662,-0.058194723,-0.04956157,-0.031248733,-0.08064612
TSPO,-0.060439285,-0.05457426,-0.006067459,6.717229,-0.07503265,-0.11076282,5.086643,4.1861434,-0.10078193,4.9190917,-0.051726777,-0.09995662,-0.058194723,-0.04956157,-0.031248733,-0.08064612
PPIB,-0.060431063,-0.05457443,-0.0060848477,6.716633,-0.07503918,-0.110754624,5.087854,4.185729,-0.100791976,4.9173512,-0.051720474,-0.09994977,-0.058201954,-0.049544338,-0.031269725,-0.08064373
HDAC1,-0.025123632,-0.02271481,0.012415819,2.8851814,-0.028723909,-0.04477617,1.8181807,1.0920769,-0.03916951,2.3167837,-0.013751892,-0.039531764,-0.022882303,-0.018117938,-0.011255478,-0.029827211
RGS1,-0.060439285,-0.05457426,-0.006067459,6.717229,-0.07503265,-0.11076282,5.086643,4.1861434,-0.10078193,4.9190917,-0.051726777,-0.09995662,-0.058194723,-0.04956157,-0.031248733,-0.08064612
RPL23A,-0.060627464,-0.055307403,-0.004957662,6.349816,-0.0800406,-0.11781679,5.178209,4.3967347,-0.099840954,4.71773,-0.050539713,-0.10190669,-0.06248046,-0.04970542,-0.032417044,-0.08312557
FCER1G,-0.053303428,-0.054772843,-0.001370554,5.9881296,-0.077021115,-0.09910551,5.3498955,4.59878,-0.09660579,4.1803045,-0.04621939,-0.089498095,-0.049628843,-0.040484514,-0.037956662,-0.07542723
ATP5F1,-0.05596441,-0.050435226,-0.005366171,6.295147,-0.0696024,-0.10241659,4.649738,3.844313,-0.09358113,4.6578913,-0.04705912,-0.092113875,-0.053237643,-0.04639558,-0.028843198,-0.074655816
RPL23,-0.026730599,-0.024736421,-9.116903e-05,3.156459,-0.031463247,-0.04854097,1.9856853,1.3033738,-0.04289474,2.4647465,-0.015968012,-0.043372773,-0.024537524,-0.02018559,-0.012417657,-0.03273271
GABARAP,-0.060439285,-0.05457426,-0.006067459,6.717229,-0.07503265,-0.11076282,5.086643,4.1861434,-0.10078193,4.9190917,-0.051726777,-0.09995662,-0.058194723,-0.04956157,-0.031248733,-0.08064612
DNAJC2,-0.036886036,-0.034849763,-0.0017858344,4.5154924,-0.045946535,-0.06888905,2.9041333,2.2952611,-0.061493747,3.3356493,-0.026764264,-0.06290354,-0.03498126,-0.029795341,-0.019653305,-0.048242915
JUP,-0.02912147,-0.036433518,-0.0067834086,4.834394,-0.044398386,-0.06855486,2.4966629,3.2872412,-0.06646328,2.8313975,-0.037311282,-0.0777656,-0.033143375,-0.04239791,-0.01760085,-0.05367707
RBBP7,-0.025056005,-0.022629185,0.014580458,2.8746796,-0.028635453,-0.044656623,1.8116953,1.0846395,-0.039045162,2.3120313,-0.013678105,-0.039388824,-0.022802612,-0.018049866,-0.011179815,-0.029729497
GLIPR1,-0.060439285,-0.05457426,-0.006067459,6.717229,-0.07503265,-0.11076282,5.086643,4.1861434,-0.10078193,4.9190917,-0.051726777,-0.09995662,-0.058194723,-0.04956157,-0.031248733,-0.08064612
CSDE1,-0.06041513,-0.054548964,-0.006074763,6.7178917,-0.0750308,-0.110775776,5.085056,4.1869993,-0.100756146,4.917592,-0.051755436,-0.099951655,-0.05817465,-0.04958068,-0.031226773,-0.08064665
BCAP31,-0.060431063,-0.05457443,-0.0060848477,6.716633,-0.07503918,-0.110754624,5.087854,4.185729,-0.100791976,4.9173512,-0.051720474,-0.09994977,-0.058201954,-0.049544338,-0.031269725,-0.08064373
ZMYM2,-0.060439285,-0.05457426,-0.006067459,6.717229,-0.07503265,-0.11076282,5.086643,4.1861434,-0.10078193,4.9190917,-0.051726777,-0.09995662,-0.058194723,-0.04956157,-0.031248733,-0.08064612
POLR2D,-0.023111736,-0.022200136,-0.00012658678,2.9718332,-0.026550578,-0.044307783,1.5610316,0.96546674,-0.03682697,2.3222444,-0.011446406,-0.03988999,-0.023733499,-0.018044367,-0.011790049,-0.028416442
CYBB,-0.041129015,-0.0358747,-0.0010750873,4.639816,-0.050279368,-0.073307484,3.171147,2.6046855,-0.06697246,3.7309787,-0.031400234,-0.069235116,-0.038637903,-0.03352401,-0.022728872,-0.05427431
RPLP0,-0.02472451,-0.022264428,0.017359927,2.8345237,-0.028236756,-0.0440854,1.7855568,1.0563737,-0.038517337,2.2890782,-0.013364904,-0.038754456,-0.022479415,-0.017745707,-0.010968195,-0.029342968
NDUFA7,-0.060439285,-0.05457426,-0.006067459,6.717229,-0.07503265,-0.11076282,5.086643,4.1861434,-0.10078193,4.9190917,-0.051726777,-0.09995662,-0.058194723,-0.04956157,-0.031248733,-0.08064612
CCL6,-0.060439285,-0.05457426,-0.006067459,6.717229,-0.07503265,-0.11076282,5.086643,4.1861434,-0.10078193,4.9190917,-0.051726777,-0.09995662,-0.058194723,-0.04956157,-0.031248733,-0.08064612
CTSD,-0.04072708,-0.03816174,-0.0025349907,4.8785315,-0.0501499,-0.07543804,3.2202687,2.5207436,-0.067731686,3.6417336,-0.030344905,-0.06896582,-0.038958054,-0.032937903,-0.020938858,-0.053136323
CD302,-0.060410757,-0.05459735,-0.00606591,6.719925,-0.07502453,-0.11078903,5.0892634,4.186193,-0.100756854,4.920697,-0.051746283,-0.099962644,-0.05821358,-0.04956736,-0.031219244,-0.080610394
CCL3,-0.041049886,-0.038591202,-0.0027673047,4.933518,-0.050961174,-0.07646066,3.267712,2.6022992,-0.0687959,3.6569915,-0.030898469,-0.06996787,-0.039532047,-0.033750843,-0.021384971,-0.053941265
POLR2I,-0.021251261,-0.017979804,0.17473546,2.8481019,-0.024079997,-0.043549933,1.4585593,1.1337171,-0.0341582,1.8856095,-0.015537595,-0.036781177,-0.017286293,-0.015214313,-0.013714804,-0.02354944
RPS15,-0.025274776,-0.02295041,0.0148298815,2.913186,-0.029014708,-0.0452229,1.8350796,1.1151601,-0.03960658,2.331601,-0.014017186,-0.03996828,-0.023042254,-0.018324936,-0.011319263,-0.030123524
IRF5,-0.03928784,-0.036927734,-0.0024122747,4.737918,-0.04848206,-0.07297236,3.1051245,2.4257586,-0.065411516,3.514062,-0.028863003,-0.06679246,-0.037584934,-0.03176054,-0.020304883,-0.051293705
H2-DMB1,-0.060439285,-0.05457426,-0.006067459,6.717229,-0.07503265,-0.11076282,5.086643,4.1861434,-0.10078193,4.9190917,-0.051726777,-0.09995662,-0.058194723,-0.04956157,-0.031248733,-0.08064612
SLFN2,-0.05176526,-0.053055253,-0.0073971683,7.2292433,-0.06579664,-0.10990751,3.9438014,3.6665585,-0.09108654,4.999566,-0.041667055,-0.103184134,-0.06301679,-0.049985427,-0.03441756,-0.07500733
TRF,-0.06264756,-0.05601634,-0.006741282,6.7492805,-0.07726437,-0.114911266,5.318401,4.3385625,-0.10402107,4.9556613,-0.055043858,-0.10255231,-0.060547218,-0.051141515,-0.031172965,-0.083218575
NDUFA12,-0.060439285,-0.05457426,-0.006067459,6.717229,-0.07503265,-0.11076282,5.086643,4.1861434,-0.10078193,4.9190917,-0.051726777,-0.09995662,-0.058194723,-0.04956157,-0.031248733,-0.08064612
1500032L24RIK,-0.060439285,-0.05457426,-0.006067459,6.717229,-0.07503265,-0.11076282,5.086643,4.1861434,-0.10078193,4.9190917,-0.051726777,-0.09995662,-0.058194723,-0.04956157,-0.031248733,-0.08064612
APEX1,-0.024829926,-0.02237561,0.016737558,2.8469942,-0.02836626,-0.04426621,1.7931814,1.0655261,-0.038688198,2.2970567,-0.013472221,-0.038958453,-0.0225794,-0.01784379,-0.0110271,-0.02946708
NCOA4,-0.0612087,-0.05486081,-0.0067086928,6.588274,-0.07530252,-0.1131722,5.2063847,4.207927,-0.101876505,4.8013825,-0.05476719,-0.100144215,-0.05897175,-0.05067597,-0.029282978,-0.08120462
HDGF,-0.060439285,-0.05457426,-0.006067459,6.717229,-0.07503265,-0.11076282,5.086643,4.1861434,-0.10078193,4.9190917,-0.051726777,-0.09995662,-0.058194723,-0.04956157,-0.031248733,-0.08064612
SRSF9,-0.024961133,-0.022533666,0.016482003,2.8629367,-0.028522372,-0.04450292,1.8042024,1.0764791,-0.03889772,2.3053336,-0.013596596,-0.0392164,-0.02270709,-0.017959643,-0.011109394,-0.029615637
ANXA3,-0.060439285,-0.05457426,-0.006067459,6.717229,-0.07503265,-0.11076282,5.086643,4.1861434,-0.10078193,4.9190917,-0.051726777,-0.09995662,-0.058194723,-0.04956157,-0.031248733,-0.08064612
APRT,-0.025226302,-0.022724876,0.018703856,2.8780391,-0.028753135,-0.04492844,1.8193343,1.0878205,-0.03920884,2.3192909,-0.013737709,-0.039597362,-0.022950275,-0.018121732,-0.011185252,-0.029807594
RPL7,-0.06262122,-0.05628466,-0.0069498015,6.7295394,-0.07746558,-0.11461704,5.3354063,4.3240886,-0.10375334,4.940179,-0.05517198,-0.102007665,-0.06028127,-0.05089297,-0.030987656,-0.08313247
MMP12,-0.060439285,-0.05457426,-0.006067459,6.717229,-0.07503265,-0.11076282,5.086643,4.1861434,-0.10078193,4.9190917,-0.051726777,-0.09995662,-0.058194723,-0.04956157,-0.031248733,-0.08064612
UBA52,-0.058301482,-0.05296001,-0.00535811,6.419186,-0.071441025,-0.10667927,4.8084373,3.8740003,-0.09564342,4.757994,-0.048306253,-0.0965542,-0.056362662,-0.047228154,-0.02927641,-0.07634272
RPL26,-0.032617267,-0.030395769,-0.0017277309,3.7080054,-0.039229635,-0.055886682,2.2936563,1.8328211,-0.0514802,3.0175042,-0.021387603,-0.051265754,-0.028662993,-0.025966635,-0.013173835,-0.03818287
TNFSF9,-0.060393997,-0.054603253,-0.0060544163,6.7118216,-0.0750427,-0.11070148,5.0877333,4.1874194,-0.10071196,4.908462,-0.051763866,-0.09992654,-0.0581925,-0.049550943,-0.031156464,-0.08069748
COX5A,-0.060439285,-0.05457426,-0.006067459,6.717229,-0.07503265,-0.11076282,5.086643,4.1861434,-0.10078193,4.9190917,-0.051726777,-0.09995662,-0.058194723,-0.04956157,-0.031248733,-0.08064612
SRGN,-0.060411256,-0.054597773,-0.0060949903,6.715351,-0.075020626,-0.110756375,5.0842266,4.1849747,-0.100773446,4.9207883,-0.051721185,-0.09994937,-0.058220692,-0.04956714,-0.031244261,-0.08063158
GNGT2,-0.035422705,-0.03322945,-0.001673819,4.304648,-0.04347407,-0.06602359,2.7693577,2.1357622,-0.058673076,3.1812122,-0.024964103,-0.060130246,-0.03375003,-0.028114298,-0.018497033,-0.045967836
SNRPD1,-0.024900487,-0.022456447,0.015847914,2.8556979,-0.028439166,-0.044383664,1.7996523,1.0707235,-0.038787503,2.3004575,-0.013521857,-0.039088912,-0.022652647,-0.017901188,-0.011089529,-0.029542552
DNMT3A,-0.025217704,-0.022876563,0.010656856,2.9001853,-0.028888807,-0.044974875,1.8296299,1.1053421,-0.03935963,2.3205342,-0.013895261,-0.039769642,-0.023010978,-0.018237388,-0.011322703,-0.030019833
ZFP36L1,-0.02232344,-0.017594472,0.29482973,2.4650252,-0.024373816,-0.0394501,1.540892,0.6442063,-0.03763368,2.426861,-0.011703033,-0.035002302,-0.02097473,-0.016270893,-0.0078386525,-0.024796406
CAPNS1,-0.06234307,-0.055823512,-0.006867497,6.5581684,-0.07745758,-0.10767487,4.9114137,4.374393,-0.10091445,5.1777053,-0.053084448,-0.09773215,-0.056574922,-0.05176349,-0.02727377,-0.07843839
CSTB,-0.060439285,-0.05457426,-0.006067459,6.717229,-0.07503265,-0.11076282,5.086643,4.1861434,-0.10078193,4.9190917,-0.051726777,-0.09995662,-0.058194723,-0.04956157,-0.031248733,-0.08064612
PRDX5,-0.060439285,-0.05457426,-0.006067459,6.717229,-0.07503265,-0.11076282,5.086643,4.1861434,-0.10078193,4.9190917,-0.051726777,-0.09995662,-0.058194723,-0.04956157,-0.031248733,-0.08064612
IL1A,-0.03657136,-0.03432079,-0.0017076968,4.420663,-0.044893064,-0.06786201,2.8675294,2.2283463,-0.06059399,3.276629,-0.026079059,-0.06189711,-0.0346937,-0.029090395,-0.019231271,-0.047364864
HINT1,-0.02536217,-0.02300288,0.011721119,2.9209301,-0.029085325,-0.0453308,1.8396797,1.118518,-0.039705895,2.3392594,-0.014062221,-0.040080722,-0.023143701,-0.018369254,-0.011376,-0.030213512
ACTR2,-0.024736023,-0.022297556,0.017272979,2.8382108,-0.028260605,-0.044134825,1.7882812,1.0582658,-0.038542546,2.2915077,-0.013395418,-0.038799938,-0.022509648,-0.017768377,-0.010968442,-0.029354328
AIP,-0.060439285,-0.05457426,-0.006067459,6.717229,-0.07503265,-0.11076282,5.086643,4.1861434,-0.10078193,4.9190917,-0.051726777,-0.09995662,-0.058194723,-0.04956157,-0.031248733,-0.08064612
UQCRQ,-0.060439285,-0.05457426,-0.006067459,6.717229,-0.07503265,-0.11076282,5.086643,4.1861434,-0.10078193,4.9190917,-0.051726777,-0.09995662,-0.058194723,-0.04956157,-0.031248733,-0.08064612
TNFAIP3,-0.024820253,-0.022363305,0.01682856,2.8452117,-0.028351499,-0.044242863,1.7920717,1.0640285,-0.038665414,2.296512,-0.013459186,-0.038932078,-0.022568721,-0.017830884,-0.011015979,-0.029450366
S100A4,-0.062388357,-0.05579452,-0.00688054,6.5635757,-0.077447526,-0.1077362,4.9103236,4.373117,-0.100984424,5.188335,-0.05304736,-0.09776221,-0.056577142,-0.051774114,-0.027366042,-0.07838704
ETS2,-0.023772025,-0.01979422,-0.003206563,2.934632,-0.02568685,-0.042215135,1.4635389,0.9243733,-0.03740517,2.310023,-0.012956824,-0.038241588,-0.02097842,-0.014228205,-0.012295708,-0.0298712
MYEF2,-0.06059058,-0.05438539,-0.0058910875,6.6985006,-0.075145185,-0.11066795,5.088718,4.1991544,-0.10082654,4.9390774,-0.051942427,-0.10012011,-0.0582397,-0.04966634,-0.03149065,-0.08089624
CDC42,-0.035008438,-0.03283293,-0.0014709407,4.2425203,-0.042733364,-0.06508352,2.725041,2.0873468,-0.057815373,3.1463025,-0.024420077,-0.059304725,-0.03324471,-0.027647318,-0.018242491,-0.045154203
NAA20,-0.060439285,-0.05457426,-0.006067459,6.717229,-0.07503265,-0.11076282,5.086643,4.1861434,-0.10078193,4.9190917,-0.051726777,-0.09995662,-0.058194723,-0.04956157,-0.031248733,-0.08064612
RAB32,-0.060439285,-0.05457426,-0.006067459,6.717229,-0.07503265,-0.11076282,5.086643,4.1861434,-0.10078193,4.9190917,-0.051726777,-0.09995662,-0.058194723,-0.04956157,-0.031248733,-0.08064612
GTF2A1,-0.025039377,-0.022607569,0.0155615285,2.8712106,-0.02860515,-0.04462309,1.8100382,1.0817382,-0.039004702,2.310315,-0.013651854,-0.039344456,-0.022780502,-0.018022522,-0.011155725,-0.029694011
PCBD2,-0.060439285,-0.05457426,-0.006067459,6.717229,-0.07503265,-0.11076282,5.086643,4.1861434,-0.10078193,4.9190917,-0.051726777,-0.09995662,-0.058194723,-0.04956157,-0.031248733,-0.08064612
TAGLN2,-0.060439285,-0.05457426,-0.006067459,6.717229,-0.07503265,-0.11076282,5.086643,4.1861434,-0.10078193,4.9190917,-0.051726777,-0.09995662,-0.058194723,-0.04956157,-0.031248733,-0.08064612
PSMD14,-0.024920464,-0.02247148,0.016165331,2.8564193,-0.028471073,-0.044406164,1.799484,1.0719407,-0.038816586,2.3037186,-0.013550694,-0.03911404,-0.022662545,-0.017915579,-0.011073434,-0.02956269
GM15450,-0.060439285,-0.05457426,-0.006067459,6.717229,-0.07503265,-0.11076282,5.086643,4.1861434,-0.10078193,4.9190917,-0.051726777,-0.09995662,-0.058194723,-0.04956157,-0.031248733,-0.08064612
ELF2,-0.039962225,-0.037510205,-0.0020222708,4.8627725,-0.049844384,-0.074984044,3.2025023,2.5400968,-0.066766635,3.570307,-0.030047404,-0.068143494,-0.03818843,-0.032076858,-0.021752343,-0.05264209
NDUFB7,-0.05419553,-0.052474182,-0.012900407,6.354839,-0.06792637,-0.09753736,5.3108134,4.2600555,-0.08617715,3.776712,-0.05151111,-0.092684776,-0.060333543,-0.035455387,-0.031164788,-0.07383006
ID2,-0.031234035,-0.024948766,0.32183173,3.659838,-0.03674721,-0.057906814,2.342862,1.4081326,-0.057155058,3.435536,-0.022041496,-0.053455386,-0.031084822,-0.02543137,-0.013053022,-0.03805629
BOLA2,-0.05421969,-0.052499473,-0.012893103,6.354176,-0.06792822,-0.09752439,5.312401,4.2591996,-0.086202934,3.7782116,-0.051482454,-0.09268973,-0.06035361,-0.03543628,-0.03118675,-0.07382953
H2AFV,-0.026629286,-0.02090327,0.18688159,2.7044673,-0.029862426,-0.043931246,1.8401797,1.221333,-0.03966639,2.5148222,-0.015893517,-0.041198228,-0.023350818,-0.019166835,-0.013610253,-0.03230654
CCL4,-0.050288405,-0.046691988,-0.0042333826,5.8654947,-0.063047364,-0.093646795,4.1302285,3.3636186,-0.084760875,4.3379264,-0.040767062,-0.085046455,-0.04882553,-0.041990392,-0.026148267,-0.06706656
SDC4,-0.054191165,-0.052522574,-0.012891556,6.3568716,-0.06792009,-0.0975506,5.315021,4.259249,-0.086177856,3.779817,-0.051501956,-0.09269576,-0.06037247,-0.03544207,-0.031157259,-0.07379381
CD9,-0.062050335,-0.056206893,-0.006917488,6.838541,-0.07723918,-0.11478134,5.3186846,4.3096023,-0.10333941,4.925579,-0.054914683,-0.10255456,-0.05980519,-0.05117258,-0.031153077,-0.08309097
SEC11A,-0.027123041,-0.022475995,0.37825888,2.3984058,-0.026538573,-0.040127195,1.7546821,0.62585056,-0.03242065,1.9881341,-0.009536467,-0.035394497,-0.018436786,-0.015776718,-0.0057825465,-0.023699796
ATP6AP2,-0.02472451,-0.022264428,0.017359927,2.8345237,-0.028236756,-0.0440854,1.7855568,1.0563737,-0.038517337,2.2890782,-0.013364904,-0.038754456,-0.022479415,-0.017745707,-0.010968195,-0.029342968
COPS5,-0.025029259,-0.022603666,0.016678348,2.8701422,-0.028604623,-0.04462144,1.8090013,1.0819829,-0.039008137,2.3106737,-0.013661976,-0.039340496,-0.022771789,-0.018019393,-0.011139031,-0.029690403
SSRP1,-0.02505014,-0.022626387,0.015798114,2.8732502,-0.02862672,-0.044654507,1.811084,1.0838114,-0.039039593,2.3117423,-0.013675913,-0.039380588,-0.022797316,-0.018039864,-0.011166488,-0.029717915
LITAF,-0.058446124,-0.053585123,-0.0037126339,6.3100605,-0.07807622,-0.114506334,4.924966,4.28576,-0.09683243,4.693266,-0.046633422,-0.10002066,-0.06079377,-0.048357222,-0.03299857,-0.08082649
GTF2E2,-0.025057398,-0.022627361,0.015695289,2.873158,-0.028628564,-0.04465927,1.8112756,1.0832062,-0.03903567,2.3117683,-0.013670895,-0.039380897,-0.022797797,-0.018038388,-0.011159707,-0.029715484
ANXA1,-0.044367526,-0.04646902,-0.011118859,7.430805,-0.06657584,-0.10361311,5.142997,3.5436623,-0.09177601,3.9337642,-0.049298987,-0.077329405,-0.044128675,-0.042315822,-0.02135688,-0.08478807
TAF6,-0.025044113,-0.02261438,0.015961774,2.8714242,-0.02860834,-0.044631027,1.8102889,1.0819268,-0.03901029,2.3105521,-0.013656427,-0.039352484,-0.022784475,-0.018024065,-0.011157355,-0.029694868
CFP,-0.04073059,-0.038164623,-0.002535504,4.878927,-0.050154075,-0.0754451,3.220579,2.5210152,-0.067737915,3.642012,-0.03034899,-0.06897197,-0.038961615,-0.03294083,-0.020940622,-0.053141568
ARL6IP5,-0.060439285,-0.05457426,-0.006067459,6.717229,-0.07503265,-0.11076282,5.086643,4.1861434,-0.10078193,4.9190917,-0.051726777,-0.09995662,-0.058194723,-0.04956157,-0.031248733,-0.08064612
EMP3,-0.06041513,-0.054548964,-0.006074763,6.7178917,-0.0750308,-0.110775776,5.085056,4.1869993,-0.100756146,4.917592,-0.051755436,-0.099951655,-0.05817465,-0.04958068,-0.031226773,-0.08064665
CREBBP,-0.027699526,-0.02305037,0.38268417,2.4552488,-0.027150393,-0.040956672,1.7969112,0.6610616,-0.033131342,2.0163763,-0.009925937,-0.03632265,-0.018873712,-0.016207088,-0.005994041,-0.024204766
NFKBIZ,-0.037443567,-0.035256155,-0.0019223165,4.5380616,-0.046136737,-0.0696465,2.9517756,2.303205,-0.062275063,3.357175,-0.027056029,-0.06362158,-0.035690065,-0.030076122,-0.019673543,-0.048707947
LILRB4,-0.05080677,-0.050001767,-0.0067535024,7.016138,-0.06706098,-0.11163372,5.0823565,3.425299,-0.09372133,4.4475274,-0.052760556,-0.085908,-0.050871186,-0.037157487,-0.022453431,-0.08554613
RPL12,-0.06262122,-0.05628466,-0.0069498015,6.7295394,-0.07746558,-0.11461704,5.3354063,4.3240886,-0.10375334,4.940179,-0.05517198,-0.102007665,-0.06028127,-0.05089297,-0.030987656,-0.08313247
HSPA8,-0.023757786,-0.019799212,-0.0032074933,2.9350812,-0.025676034,-0.042214908,1.4636581,0.9245182,-0.037400458,2.3082995,-0.012957821,-0.038244527,-0.020970203,-0.014219669,-0.012302048,-0.029869264
SH3BGRL,-0.060410757,-0.05459735,-0.00606591,6.719925,-0.07502453,-0.11078903,5.0892634,4.186193,-0.100756854,4.920697,-0.051746283,-0.099962644,-0.05821358,-0.04956736,-0.031219244,-0.080610394
HSBP1,-0.0449838,-0.041591838,-0.0033243385,5.226877,-0.055576805,-0.08233835,3.607644,2.8728032,-0.07526168,3.9634528,-0.03450172,-0.074811645,-0.0429031,-0.036853645,-0.023029916,-0.059190806
KLF13,-0.060439285,-0.05457426,-0.006067459,6.717229,-0.07503265,-0.11076282,5.086643,4.1861434,-0.10078193,4.9190917,-0.051726777,-0.09995662,-0.058194723,-0.04956157,-0.031248733,-0.08064612
ATPIF1,-0.062269825,-0.056018822,-0.007222025,6.709388,-0.076981306,-0.113986276,5.3083863,4.2819977,-0.1031063,4.911591,-0.05525102,-0.101468705,-0.059871417,-0.050664328,-0.030559689,-0.08263114
FAM96A,-0.060439285,-0.05457426,-0.006067459,6.717229,-0.07503265,-0.11076282,5.086643,4.1861434,-0.10078193,4.9190917,-0.051726777,-0.09995662,-0.058194723,-0.04956157,-0.031248733,-0.08064612
HAX1,-0.062255625,-0.056233753,-0.0063023823,6.6441603,-0.07681079,-0.11362709,5.2827325,4.319505,-0.10218077,4.836415,-0.054558758,-0.10216648,-0.05962191,-0.050418418,-0.030942935,-0.08189077
CXCL16,-0.050288405,-0.046691988,-0.0042333826,5.8654947,-0.063047364,-0.093646795,4.1302285,3.3636186,-0.084760875,4.3379264,-0.040767062,-0.085046455,-0.04882553,-0.041990392,-0.026148267,-0.06706656
HNRNPAB,-0.024698956,-0.022232989,0.019240767,2.835802,-0.028223505,-0.044075847,1.7854327,1.0590973,-0.038512375,2.2877488,-0.013354161,-0.038721487,-0.022452535,-0.017712677,-0.010986141,-0.0293041
FXYD5,-0.060439285,-0.05457426,-0.006067459,6.717229,-0.07503265,-0.11076282,5.086643,4.1861434,-0.10078193,4.9190917,-0.051726777,-0.09995662,-0.058194723,-0.04956157,-0.031248733,-0.08064612
MEF2A,-0.024824746,-0.022359103,0.017366417,2.8441858,-0.028346214,-0.044243224,1.7922668,1.0633154,-0.038657226,2.2960348,-0.013446073,-0.03892356,-0.022569127,-0.017822575,-0.011017358,-0.029442068
TYROBP,-0.060439285,-0.05457426,-0.006067459,6.717229,-0.07503265,-0.11076282,5.086643,4.1861434,-0.10078193,4.9190917,-0.051726777,-0.09995662,-0.058194723,-0.04956157,-0.031248733,-0.08064612
TMEM50A,-0.060436957,-0.054520763,-0.0060577528,6.714259,-0.0750056,-0.11077765,5.0823665,4.1894073,-0.100762755,4.9219413,-0.051736668,-0.099909544,-0.058157314,-0.049530704,-0.03127419,-0.08060007
HPRT,-0.060439285,-0.05457426,-0.006067459,6.717229,-0.07503265,-0.11076282,5.086643,4.1861434,-0.10078193,4.9190917,-0.051726777,-0.09995662,-0.058194723,-0.04956157,-0.031248733,-0.08064612
ZFX,-0.068045236,-0.05521483,0.5387651,5.3445616,-0.06971715,-0.09822588,4.9930186,2.8266146,-0.0815033,3.9621549,-0.03958583,-0.08931874,-0.045421626,-0.043360356,-0.014834922,-0.06279708
POLR2A,-0.025042973,-0.022618026,0.015797593,2.8725607,-0.028615339,-0.044638667,1.8106217,1.0827048,-0.03902103,2.3109791,-0.013663639,-0.03936247,-0.022787396,-0.01802586,-0.011161413,-0.029708313
CNOT2,-0.061168384,-0.05440983,-0.0064083766,6.6378565,-0.075341694,-0.11012558,5.126737,4.181262,-0.10088755,4.941456,-0.051728748,-0.09890767,-0.058276664,-0.049364083,-0.031084064,-0.08078695
SRRT,-0.02490997,-0.02247033,0.017350376,2.8556378,-0.028457029,-0.044412263,1.7997043,1.0714924,-0.038809326,2.3017886,-0.013541474,-0.039110713,-0.022654856,-0.01790822,-0.011070303,-0.02954971
HIST1H2BC,-0.060439285,-0.05457426,-0.006067459,6.717229,-0.07503265,-0.11076282,5.086643,4.1861434,-0.10078193,4.9190917,-0.051726777,-0.09995662,-0.058194723,-0.04956157,-0.031248733,-0.08064612
HMGB1,-0.025028119,-0.022547979,0.015925854,2.8647642,-0.028616352,-0.044559795,1.8023862,1.0797443,-0.03896337,2.3110232,-0.013653924,-0.039361153,-0.022754952,-0.01799434,-0.01110485,-0.029661
FOSB,-0.026027653,-0.023212457,-0.0002648168,2.7923262,-0.029834932,-0.043083716,1.7189661,1.1761386,-0.039113156,2.449041,-0.014320375,-0.038223367,-0.021965543,-0.019146757,-0.00916597,-0.028559323
MLL3,-0.05261818,-0.044986937,-0.0027163103,6.684407,-0.0656803,-0.10876543,4.357557,4.3069777,-0.09080625,4.0352306,-0.055831213,-0.09483062,-0.046762653,-0.04377954,-0.03670356,-0.06786212
EDF1,-0.024750974,-0.023660764,-0.00083532324,2.832275,-0.02917777,-0.041974176,1.8408543,0.88533735,-0.03697929,2.3132706,-0.011257496,-0.038040858,-0.021500446,-0.01797911,-0.011031045,-0.029494034
PDPN,-0.060439285,-0.05457426,-0.006067459,6.717229,-0.07503265,-0.11076282,5.086643,4.1861434,-0.10078193,4.9190917,-0.051726777,-0.09995662,-0.058194723,-0.04956157,-0.031248733,-0.08064612
NFIL3,-0.061219122,-0.054668345,-0.0069211065,6.719969,-0.07554606,-0.11237305,5.1993756,4.22489,-0.10207322,4.9009647,-0.05360009,-0.09999477,-0.058950707,-0.049795564,-0.030660309,-0.08194353
SKIL,-0.025849598,-0.023604497,-9.463288e-05,2.99328,-0.029712448,-0.04613691,1.8869126,1.1683456,-0.04045943,2.3660147,-0.014495728,-0.04107195,-0.02370224,-0.018875357,-0.011941943,-0.030867811
LPL,-0.060439285,-0.05457426,-0.006067459,6.717229,-0.07503265,-0.11076282,5.086643,4.1861434,-0.10078193,4.9190917,-0.051726777,-0.09995662,-0.058194723,-0.04956157,-0.031248733,-0.08064612
STAT6,-0.024959985,-0.022503898,0.016383074,2.8598592,-0.028509645,-0.044470165,1.8017038,1.0739455,-0.038867746,2.3065522,-0.013578464,-0.0391763,-0.022697065,-0.017946241,-0.011085379,-0.029597055
TUBA1A,-0.059917986,-0.054376706,-0.0060439343,6.686282,-0.07509195,-0.11127514,5.101646,4.214149,-0.10002342,4.8016253,-0.0517896,-0.09999674,-0.057940535,-0.048968248,-0.031447213,-0.08084387
POLR2G,-0.024859373,-0.02243624,0.017293878,2.8525875,-0.028411206,-0.044359498,1.7978657,1.0683861,-0.03874323,2.3004215,-0.013514997,-0.039040722,-0.022629797,-0.0178751,-0.01103353,-0.029498015
SMARCB1,-0.035002425,-0.03291766,-0.0015669673,4.260695,-0.043062575,-0.06523175,2.730661,2.106981,-0.058000047,3.1572435,-0.024656398,-0.05949913,-0.033233173,-0.0280204,-0.018289758,-0.045367602
SNX2,-0.060439285,-0.05457426,-0.006067459,6.717229,-0.07503265,-0.11076282,5.086643,4.1861434,-0.10078193,4.9190917,-0.051726777,-0.09995662,-0.058194723,-0.04956157,-0.031248733,-0.08064612
SIRT2,-0.060439285,-0.05457426,-0.006067459,6.717229,-0.07503265,-0.11076282,5.086643,4.1861434,-0.10078193,4.9190917,-0.051726777,-0.09995662,-0.058194723,-0.04956157,-0.031248733,-0.08064612
ERH,-0.026713513,-0.024722537,-9.283431e-05,3.1549978,-0.031446617,-0.04851074,1.9844943,1.3024273,-0.04287248,2.4637012,-0.015956437,-0.043346003,-0.02452172,-0.020176157,-0.012410149,-0.032717295
NCOR1,-0.024209697,-0.022278322,0.12685153,2.693232,-0.030230632,-0.04667333,1.7426844,1.1408985,-0.037344735,2.2126615,-0.011343208,-0.039644256,-0.024166495,-0.0175624,-0.012063222,-0.029963734
TRIM28,-0.024740169,-0.022280721,0.017241456,2.8362858,-0.028255748,-0.044111427,1.7866843,1.057707,-0.038541712,2.2902465,-0.0133797545,-0.038783815,-0.02249477,-0.017760046,-0.0109775895,-0.02936156
NDUFA4,-0.042761307,-0.050155606,-0.011209417,6.386462,-0.063982174,-0.0975362,3.8909802,4.998262,-0.09516762,3.664935,-0.05929491,-0.10841893,-0.048239224,-0.06046248,-0.024941351,-0.07818718
RPL19,-0.030897032,-0.029000001,-0.0011807703,3.6739273,-0.036740568,-0.056074694,2.3306923,1.6187164,-0.049904175,2.8066835,-0.01953179,-0.05093668,-0.029025361,-0.023950644,-0.014803025,-0.03828758
ATP5G3,-0.06374328,-0.052883152,0.15337443,5.4806347,-0.07413932,-0.099662,4.4195805,3.9097054,-0.09282031,5.2636266,-0.05227228,-0.087059334,-0.05211476,-0.049018014,-0.030592272,-0.06730844
TCEB3,-0.026495067,-0.020757193,0.1881984,2.6878958,-0.029692968,-0.043672815,1.829451,1.2094364,-0.039431978,2.50438,-0.015767261,-0.04092982,-0.023200551,-0.019041223,-0.013521802,-0.03213009
RPL17,-0.060439285,-0.05457426,-0.006067459,6.717229,-0.07503265,-0.11076282,5.086643,4.1861434,-0.10078193,4.9190917,-0.051726777,-0.09995662,-0.058194723,-0.04956157,-0.031248733,-0.08064612
BIN1,-0.03177798,-0.030228138,-0.0015508002,3.8525617,-0.03816318,-0.058178518,2.4350157,1.7507222,-0.051913194,2.8923328,-0.021287095,-0.053256612,-0.030063001,-0.025178857,-0.015694974,-0.03996784
RFX7,-0.068045236,-0.05521483,0.5387651,5.3445616,-0.06971715,-0.09822588,4.9930186,2.8266146,-0.0815033,3.9621549,-0.03958583,-0.08931874,-0.045421626,-0.043360356,-0.014834922,-0.06279708
LMO4,-0.05968983,-0.05382461,-0.006424012,6.606419,-0.07426378,-0.10979536,5.0484276,4.1868,-0.09937781,4.747298,-0.050970383,-0.09933282,-0.05772697,-0.049063142,-0.031564895,-0.080134265
SMAD4,-0.024001405,-0.02005773,-0.0033072266,2.9709885,-0.025961421,-0.04263074,1.4816201,0.9463746,-0.03781002,2.3266735,-0.013194665,-0.038735393,-0.021226248,-0.014421751,-0.012526225,-0.030206904
BTG2,-0.025053484,-0.022609588,0.015501238,2.8715744,-0.028626751,-0.044649594,1.8090867,1.0822006,-0.03903168,2.3135586,-0.013672161,-0.03936702,-0.022795528,-0.018038211,-0.011138183,-0.029717457
HHEX,-0.024761006,-0.0222927,0.017742656,2.8370879,-0.0282691,-0.044139236,1.7877139,1.057976,-0.038559727,2.2913465,-0.013384761,-0.03880551,-0.022509383,-0.01776733,-0.010980025,-0.029369604
CIC,-0.060439285,-0.05457426,-0.006067459,6.717229,-0.07503265,-0.11076282,5.086643,4.1861434,-0.10078193,4.9190917,-0.051726777,-0.09995662,-0.058194723,-0.04956157,-0.031248733,-0.08064612
RPL18A,-0.030908015,-0.029012656,-0.0011821485,3.6755548,-0.036756907,-0.056098387,2.331728,1.6199282,-0.049925406,2.8076015,-0.019544916,-0.05096046,-0.029037207,-0.023963036,-0.014812143,-0.038304362
CTCFL,-0.060439285,-0.05457426,-0.006067459,6.717229,-0.07503265,-0.11076282,5.086643,4.1861434,-0.10078193,4.9190917,-0.051726777,-0.09995662,-0.058194723,-0.04956157,-0.031248733,-0.08064612
ELL2,-0.024088737,-0.022133175,0.12777191,2.6766026,-0.030042974,-0.046392355,1.7330655,1.1288813,-0.037110157,2.201665,-0.011216157,-0.039364528,-0.02401578,-0.01744545,-0.012003271,-0.029768374
KDM6B,-0.02531831,-0.022949392,0.008502997,2.9123383,-0.028989295,-0.04516209,1.8366663,1.1096194,-0.03951907,2.330775,-0.013925352,-0.03993659,-0.023112774,-0.018276626,-0.011419357,-0.030110976
RPL36AL,-0.060439285,-0.05457426,-0.006067459,6.717229,-0.07503265,-0.11076282,5.086643,4.1861434,-0.10078193,4.9190917,-0.051726777,-0.09995662,-0.058194723,-0.04956157,-0.031248733,-0.08064612
NFX1,-0.060439285,-0.05457426,-0.006067459,6.717229,-0.07503265,-0.11076282,5.086643,4.1861434,-0.10078193,4.9190917,-0.051726777,-0.09995662,-0.058194723,-0.04956157,-0.031248733,-0.08064612
MBD2,-0.025024364,-0.022601303,0.016436748,2.8705053,-0.028613724,-0.04462547,1.8085847,1.0832046,-0.039028157,2.3119504,-0.013686864,-0.03934268,-0.022766674,-0.018023938,-0.011129445,-0.029706003
RPL13,-0.024942528,-0.02250187,0.014694847,2.8608208,-0.028508803,-0.044477757,1.8022275,1.0743825,-0.038879525,2.3060632,-0.0135675715,-0.03917938,-0.02270884,-0.01795405,-0.011088952,-0.029619696
BATF3,-0.05128299,-0.046583503,-0.004588988,5.820302,-0.063279465,-0.09333307,4.165832,3.4000955,-0.08573674,4.4016814,-0.040967744,-0.08483393,-0.049341813,-0.041922912,-0.026323931,-0.067714594
ATP5B,-0.060439285,-0.05457426,-0.006067459,6.717229,-0.07503265,-0.11076282,5.086643,4.1861434,-0.10078193,4.9190917,-0.051726777,-0.09995662,-0.058194723,-0.04956157,-0.031248733,-0.08064612
LDHA,-0.036063936,-0.031249246,-0.0072221356,4.710476,-0.042233348,-0.06716054,2.460151,2.108104,-0.06057246,3.3847506,-0.026335916,-0.06307634,-0.033567335,-0.024081673,-0.022258248,-0.049953602
CD14,-0.032949574,-0.03537337,0.10560531,3.7750995,-0.038989957,-0.05814428,2.3187902,2.2448308,-0.05149032,2.1232772,-0.027867354,-0.068222485,-0.023782501,-0.036671136,-0.006152752,-0.04005891
RPL27,-0.06249442,-0.05620231,-0.007094308,6.724654,-0.077278666,-0.11438623,5.3260684,4.3060136,-0.10350451,4.929259,-0.055253696,-0.10181758,-0.060124423,-0.050811928,-0.030795481,-0.08294098
MED8,-0.024943361,-0.022500424,0.014686458,2.8608487,-0.028486129,-0.044432454,1.8029475,1.0742828,-0.038841896,2.3030105,-0.013555955,-0.039155833,-0.022688774,-0.017939486,-0.011127896,-0.02958455
AGAP3,-0.053271048,-0.05474772,-0.0013952475,5.9881964,-0.077025786,-0.09911026,5.349519,4.599222,-0.09659005,4.1770644,-0.046241745,-0.08948632,-0.049616005,-0.04048639,-0.037955694,-0.075425364
ATP6V0D2,-0.060439285,-0.05457426,-0.006067459,6.717229,-0.07503265,-0.11076282,5.086643,4.1861434,-0.10078193,4.9190917,-0.051726777,-0.09995662,-0.058194723,-0.04956157,-0.031248733,-0.08064612
ATF4,-0.024921624,-0.022463003,0.016906299,2.855378,-0.028465375,-0.04440732,1.7994213,1.0714521,-0.038810324,2.3032484,-0.013537548,-0.039104205,-0.02266225,-0.017908964,-0.011072715,-0.02955374
CLEC4N,-0.039852932,-0.037467673,-0.0025626554,4.79778,-0.049330216,-0.074107595,3.15365,2.4949474,-0.06659627,3.5624123,-0.029581368,-0.067856066,-0.03825859,-0.032640338,-0.02068847,-0.052164733
DAD1,-0.060439285,-0.05457426,-0.006067459,6.717229,-0.07503265,-0.11076282,5.086643,4.1861434,-0.10078193,4.9190917,-0.051726777,-0.09995662,-0.058194723,-0.04956157,-0.031248733,-0.08064612
BCL2A1A,-0.060439285,-0.05457426,-0.006067459,6.717229,-0.07503265,-0.11076282,5.086643,4.1861434,-0.10078193,4.9190917,-0.051726777,-0.09995662,-0.058194723,-0.04956157,-0.031248733,-0.08064612
M6PR,-0.044871297,-0.051457074,-0.012141522,6.3130875,-0.0653328,-0.10112249,4.0902195,5.162976,-0.09799999,3.5530467,-0.06219754,-0.111294866,-0.051337395,-0.06161813,-0.024781002,-0.08010296
RPL41,-0.030753342,-0.028874623,-0.001171501,3.6565788,-0.03654628,-0.05582166,2.3200607,1.6063336,-0.049663465,2.7940927,-0.019386524,-0.050706863,-0.028870644,-0.023825545,-0.014721709,-0.03811562
RBM3,-0.060439285,-0.05457426,-0.006067459,6.717229,-0.07503265,-0.11076282,5.086643,4.1861434,-0.10078193,4.9190917,-0.051726777,-0.09995662,-0.058194723,-0.04956157,-0.031248733,-0.08064612
UQCR10,-0.06056255,-0.0544089,-0.0059186188,6.696623,-0.07513317,-0.11066152,5.0863013,4.1979856,-0.10081805,4.940774,-0.051936835,-0.10011286,-0.058265667,-0.04967191,-0.031486176,-0.0808817
COPS2,-0.026558744,-0.02311901,-0.0012699855,2.4607222,-0.02609208,-0.04709553,2.0404038,0.79494286,-0.039019316,2.1882772,-0.01401041,-0.035019804,-0.025258603,-0.018435938,-0.0074902866,-0.028616961
PGAM1,-0.060439285,-0.05457426,-0.006067459,6.717229,-0.07503265,-0.11076282,5.086643,4.1861434,-0.10078193,4.9190917,-0.051726777,-0.09995662,-0.058194723,-0.04956157,-0.031248733,-0.08064612
6720456B07RIK,-0.060439285,-0.05457426,-0.006067459,6.717229,-0.07503265,-0.11076282,5.086643,4.1861434,-0.10078193,4.9190917,-0.051726777,-0.09995662,-0.058194723,-0.04956157,-0.031248733,-0.08064612
LY86,-0.039852932,-0.037467673,-0.0025626554,4.79778,-0.049330216,-0.074107595,3.15365,2.4949474,-0.06659627,3.5624123,-0.029581368,-0.067856066,-0.03825859,-0.032640338,-0.02068847,-0.052164733
TRERF1,-0.060430415,-0.054598287,-0.0060924045,6.7124376,-0.07499566,-0.110777415,5.084023,4.1844773,-0.10077819,4.9226017,-0.051748797,-0.09996735,-0.05818498,-0.04954383,-0.03125422,-0.08064502
BTF3,-0.032718122,-0.031198254,-0.0018182861,3.9737942,-0.039334252,-0.06003797,2.528929,1.8407769,-0.05367116,2.949776,-0.022271764,-0.055115715,-0.031194454,-0.026201447,-0.016346347,-0.04131575
FOS,-0.02497874,-0.022529697,0.01597581,2.8631985,-0.028539395,-0.04451449,1.8039311,1.0766609,-0.038913403,2.3079412,-0.013603072,-0.03922388,-0.02272097,-0.017968418,-0.011105066,-0.029632017
ATP5E,-0.060439285,-0.05457426,-0.006067459,6.717229,-0.07503265,-0.11076282,5.086643,4.1861434,-0.10078193,4.9190917,-0.051726777,-0.09995662,-0.058194723,-0.04956157,-0.031248733,-0.08064612
CD53,-0.060439285,-0.05457426,-0.006067459,6.717229,-0.07503265,-0.11076282,5.086643,4.1861434,-0.10078193,4.9190917,-0.051726777,-0.09995662,-0.058194723,-0.04956157,-0.031248733,-0.08064612
RNH1,-0.050367262,-0.05079617,0.024569042,5.013795,-0.058666665,-0.08499927,3.7973557,3.6387331,-0.07588899,2.7079985,-0.04715397,-0.097781055,-0.03546613,-0.054261263,-0.00852754,-0.060338143
TPT1P,-0.060439285,-0.05457426,-0.006067459,6.717229,-0.07503265,-0.11076282,5.086643,4.1861434,-0.10078193,4.9190917,-0.051726777,-0.09995662,-0.058194723,-0.04956157,-0.031248733,-0.08064612
PREB,-0.060187943,-0.052826326,-0.0064178314,6.396975,-0.07341586,-0.111918844,5.1609387,4.241281,-0.100491054,4.6097093,-0.05306917,-0.09882675,-0.059590973,-0.04870124,-0.030503498,-0.08014825
CIITA,-0.02476059,-0.02229134,0.016475476,2.8360846,-0.028267683,-0.044118747,1.788933,1.0570151,-0.038547583,2.291358,-0.013378952,-0.03881406,-0.022492941,-0.017777609,-0.010975898,-0.02935374
TARDBP,-0.02473128,-0.022271346,0.017319761,2.8352654,-0.028245077,-0.044096597,1.78603,1.0569549,-0.038527798,2.289587,-0.013371498,-0.038767125,-0.022485906,-0.017751766,-0.010972165,-0.029350936
RPL9,-0.060439285,-0.05457426,-0.006067459,6.717229,-0.07503265,-0.11076282,5.086643,4.1861434,-0.10078193,4.9190917,-0.051726777,-0.09995662,-0.058194723,-0.04956157,-0.031248733,-0.08064612
HBXIP,-0.06059058,-0.05438539,-0.0058910875,6.6985006,-0.075145185,-0.11066795,5.088718,4.1991544,-0.10082654,4.9390774,-0.051942427,-0.10012011,-0.0582397,-0.04966634,-0.03149065,-0.08089624
BCL2A1B,-0.060439285,-0.05457426,-0.006067459,6.717229,-0.07503265,-0.11076282,5.086643,4.1861434,-0.10078193,4.9190917,-0.051726777,-0.09995662,-0.058194723,-0.04956157,-0.031248733,-0.08064612
S100A11,-0.060439285,-0.05457426,-0.006067459,6.717229,-0.07503265,-0.11076282,5.086643,4.1861434,-0.10078193,4.9190917,-0.051726777,-0.09995662,-0.058194723,-0.04956157,-0.031248733,-0.08064612
SFPQ,-0.024727432,-0.022267431,0.017337605,2.8348503,-0.028240323,-0.044090275,1.7857597,1.0566186,-0.038521886,2.2893019,-0.013367705,-0.03875995,-0.022482283,-0.01774837,-0.010969851,-0.029346434
TCERG1,-0.02507873,-0.022712667,0.016543932,2.8836148,-0.028726539,-0.04480025,1.8161095,1.092754,-0.03919275,2.3162804,-0.013779523,-0.039528947,-0.022837669,-0.018108767,-0.011179384,-0.029821238
CCDC72,-0.060439285,-0.05457426,-0.006067459,6.717229,-0.07503265,-0.11076282,5.086643,4.1861434,-0.10078193,4.9190917,-0.051726777,-0.09995662,-0.058194723,-0.04956157,-0.031248733,-0.08064612
ATP6V0B,-0.060439285,-0.05457426,-0.006067459,6.717229,-0.07503265,-0.11076282,5.086643,4.1861434,-0.10078193,4.9190917,-0.051726777,-0.09995662,-0.058194723,-0.04956157,-0.031248733,-0.08064612
RNF4,-0.02486823,-0.022420926,0.01576709,2.8523626,-0.028412055,-0.04434065,1.796793,1.0684581,-0.038756132,2.2998953,-0.0135065485,-0.03903709,-0.022626402,-0.01787652,-0.011050358,-0.029520141
ATP5G2,-0.060393997,-0.054603253,-0.0060544163,6.7118216,-0.0750427,-0.11070148,5.0877333,4.1874194,-0.10071196,4.908462,-0.051763866,-0.09992654,-0.0581925,-0.049550943,-0.031156464,-0.08069748
SUPT4H1,-0.060438693,-0.054574378,-0.0060679987,6.7172356,-0.075032815,-0.11076305,5.086695,4.1860843,-0.10078193,4.9190884,-0.0517271,-0.099956386,-0.05819459,-0.04956116,-0.03124888,-0.080645844
TGIF1,-0.033917192,-0.03171446,-0.0013678136,4.113652,-0.04118593,-0.06297127,2.6309996,1.9985554,-0.05586611,3.04912,-0.023485787,-0.057276975,-0.032115526,-0.026693568,-0.01762109,-0.043575246
MDH2,-0.060439285,-0.05457426,-0.006067459,6.717229,-0.07503265,-0.11076282,5.086643,4.1861434,-0.10078193,4.9190917,-0.051726777,-0.09995662,-0.058194723,-0.04956157,-0.031248733,-0.08064612
C1QB,-0.06299955,-0.055429377,-0.008482832,6.0292034,-0.07080846,-0.114899024,5.4741745,3.7036922,-0.100790106,4.713652,-0.05230628,-0.092689425,-0.06236245,-0.050257668,-0.025114814,-0.07883818
RPL5,-0.033661723,-0.031645406,-0.001422345,4.1003942,-0.041307252,-0.06269405,2.61113,1.9876506,-0.05566783,3.0521085,-0.023281787,-0.05711031,-0.03193491,-0.02684596,-0.017400673,-0.043495808
BUB3,-0.02496269,-0.02252074,0.014983393,2.8628561,-0.02852472,-0.04449818,1.8032959,1.0755541,-0.03890259,2.3073094,-0.013593785,-0.03920909,-0.022716807,-0.01796468,-0.011094426,-0.029627362
PSMA4,-0.02492491,-0.022476485,0.016149722,2.8575072,-0.028477414,-0.04442091,1.7998235,1.072628,-0.038831636,2.30418,-0.013560607,-0.03913028,-0.022667488,-0.017925806,-0.011074743,-0.029570999
HTATIP2,-0.053303428,-0.054772843,-0.001370554,5.9881296,-0.077021115,-0.09910551,5.3498955,4.59878,-0.09660579,4.1803045,-0.04621939,-0.089498095,-0.049628843,-0.040484514,-0.037956662,-0.07542723
EAR2,-0.047788132,-0.04384661,-0.004056032,5.515649,-0.05914954,-0.08715757,3.8655727,3.158329,-0.07982628,4.1011515,-0.036972485,-0.07970148,-0.045863066,-0.03869873,-0.025261275,-0.06274756
PCBP2,-0.024726037,-0.022265587,0.017373443,2.834596,-0.028238581,-0.044086985,1.7856228,1.0564831,-0.038519252,2.2892225,-0.0133664105,-0.038756397,-0.022480441,-0.01774681,-0.0109683145,-0.029344155
FTL1,-0.031228969,-0.03525135,-0.014526107,5.3904357,-0.04495001,-0.0722602,2.264815,3.543913,-0.07259343,3.0905194,-0.0420223,-0.08493452,-0.034600955,-0.040695585,-0.022395944,-0.06130883
SF1,-0.024955465,-0.022526708,0.016300224,2.8623693,-0.02851256,-0.044487588,1.8038906,1.0758959,-0.03888413,2.3046076,-0.013587503,-0.039202232,-0.022701168,-0.017953789,-0.01111196,-0.029606149
TAX1BP3,-0.060439285,-0.05457426,-0.006067459,6.717229,-0.07503265,-0.11076282,5.086643,4.1861434,-0.10078193,4.9190917,-0.051726777,-0.09995662,-0.058194723,-0.04956157,-0.031248733,-0.08064612
LGALS1,-0.04618126,-0.041507687,-0.0070913737,7.102044,-0.065222226,-0.10072998,4.422474,4.4220767,-0.08888011,3.5186176,-0.05235974,-0.086299084,-0.040057547,-0.04896874,-0.035581555,-0.06715013
FXR1,-0.060439285,-0.05457426,-0.006067459,6.717229,-0.07503265,-0.11076282,5.086643,4.1861434,-0.10078193,4.9190917,-0.051726777,-0.09995662,-0.058194723,-0.04956157,-0.031248733,-0.08064612
HEXA,-0.060410757,-0.05459735,-0.00606591,6.719925,-0.07502453,-0.11078903,5.0892634,4.186193,-0.100756854,4.920697,-0.051746283,-0.099962644,-0.05821358,-0.04956736,-0.031219244,-0.080610394
RPL8,-0.027165012,-0.025206093,-0.00018828824,3.2153618,-0.032026425,-0.04936149,2.021516,1.3366046,-0.043635335,2.5013442,-0.016327461,-0.044199985,-0.025003588,-0.02056149,-0.012692932,-0.033310506
1600029D21RIK,-0.060439285,-0.05457426,-0.006067459,6.717229,-0.07503265,-0.11076282,5.086643,4.1861434,-0.10078193,4.9190917,-0.051726777,-0.09995662,-0.058194723,-0.04956157,-0.031248733,-0.08064612
NPM1,-0.033085275,-0.031064626,-0.0013388309,4.029278,-0.040537372,-0.06159594,2.559172,1.9370182,-0.05465217,3.0042157,-0.02268563,-0.056078665,-0.031348284,-0.026347155,-0.01702527,-0.042690005
GM2A,-0.060439285,-0.05457426,-0.006067459,6.717229,-0.07503265,-0.11076282,5.086643,4.1861434,-0.10078193,4.9190917,-0.051726777,-0.09995662,-0.058194723,-0.04956157,-0.031248733,-0.08064612
SNRPB,-0.024954151,-0.022526145,0.016248636,2.862399,-0.028511748,-0.044486333,1.8038775,1.0759423,-0.038883593,2.3045144,-0.013587701,-0.039201863,-0.022700572,-0.017953325,-0.01111298,-0.02960633
FTH1,-0.061871886,-0.055808075,-0.00692592,6.637129,-0.07665545,-0.11378183,5.3174253,4.284559,-0.10242173,4.8151646,-0.055177305,-0.10076935,-0.059401106,-0.0504418,-0.030182563,-0.08218239
AKR1A4,-0.060430415,-0.054598287,-0.0060924045,6.7124376,-0.07499566,-0.110777415,5.084023,4.1844773,-0.10077819,4.9226017,-0.051748797,-0.09996735,-0.05818498,-0.04954383,-0.03125422,-0.08064502
CD48,-0.060439285,-0.05457426,-0.006067459,6.717229,-0.07503265,-0.11076282,5.086643,4.1861434,-0.10078193,4.9190917,-0.051726777,-0.09995662,-0.058194723,-0.04956157,-0.031248733,-0.08064612
RPL28,-0.060439285,-0.05457426,-0.006067459,6.717229,-0.07503265,-0.11076282,5.086643,4.1861434,-0.10078193,4.9190917,-0.051726777,-0.09995662,-0.058194723,-0.04956157,-0.031248733,-0.08064612
KRTCAP2,-0.060439285,-0.05457426,-0.006067459,6.717229,-0.07503265,-0.11076282,5.086643,4.1861434,-0.10078193,4.9190917,-0.051726777,-0.09995662,-0.058194723,-0.04956157,-0.031248733,-0.08064612
ING1,-0.0331756,-0.031010002,-0.0013136079,4.0262494,-0.040214956,-0.06160658,2.5721347,1.9310247,-0.054523706,2.9809787,-0.022701055,-0.055951923,-0.031419463,-0.02597564,-0.017153312,-0.042598717
JUN,-0.025148384,-0.022723254,0.01329238,2.8860285,-0.028747981,-0.04483874,1.8180991,1.0909446,-0.03920648,2.318326,-0.013769703,-0.039560612,-0.022895653,-0.018111901,-0.011220235,-0.029839214
NFKB1,-0.034014188,-0.03231039,-0.0017068239,4.126119,-0.0412821,-0.06265663,2.6288893,1.9624743,-0.05601465,3.0814047,-0.023584392,-0.057410277,-0.0322428,-0.027318954,-0.01712229,-0.043255027
PSMB2,-0.024932154,-0.022483684,0.016066171,2.8581939,-0.028486194,-0.044433225,1.8002801,1.0731125,-0.038842198,2.3047862,-0.013566499,-0.039142653,-0.022675373,-0.01793221,-0.011077695,-0.029579235
SEPW1,-0.060439285,-0.05457426,-0.006067459,6.717229,-0.07503265,-0.11076282,5.086643,4.1861434,-0.10078193,4.9190917,-0.051726777,-0.09995662,-0.058194723,-0.04956157,-0.031248733,-0.08064612
TSC22D4,-0.060439285,-0.05457426,-0.006067459,6.717229,-0.07503265,-0.11076282,5.086643,4.1861434,-0.10078193,4.9190917,-0.051726777,-0.09995662,-0.058194723,-0.04956157,-0.031248733,-0.08064612
MLL2,-0.060439285,-0.05457426,-0.006067459,6.717229,-0.07503265,-0.11076282,5.086643,4.1861434,-0.10078193,4.9190917,-0.051726777,-0.09995662,-0.058194723,-0.04956157,-0.031248733,-0.08064612
TECR,-0.060439285,-0.05457426,-0.006067459,6.717229,-0.07503265,-0.11076282,5.086643,4.1861434,-0.10078193,4.9190917,-0.051726777,-0.09995662,-0.058194723,-0.04956157,-0.031248733,-0.08064612
PHB2,-0.03326325,-0.03109786,-0.0013328218,4.0374455,-0.040325254,-0.06176678,2.5798457,1.9386582,-0.054672267,2.987491,-0.022783007,-0.056111615,-0.031508174,-0.026054462,-0.017210726,-0.04271797
CRIP1,-0.042429745,-0.039717257,-0.0027250503,5.082598,-0.05292622,-0.07910413,3.42274,2.7172487,-0.07058746,3.7403662,-0.031737864,-0.0719785,-0.04094693,-0.033759408,-0.02296535,-0.056064088
EEF1A1,-0.026550533,-0.020873789,0.19055453,2.6975415,-0.029842427,-0.04384951,1.8373715,1.2215207,-0.039606657,2.508191,-0.015919328,-0.04113109,-0.023283962,-0.019137638,-0.013517301,-0.032307938
NDUFS5,-0.05176526,-0.053055253,-0.0073971683,7.2292433,-0.06579664,-0.10990751,3.9438014,3.6665585,-0.09108654,4.999566,-0.041667055,-0.103184134,-0.06301679,-0.049985427,-0.03441756,-0.07500733
MAFF,-0.060439285,-0.05457426,-0.006067459,6.717229,-0.07503265,-0.11076282,5.086643,4.1861434,-0.10078193,4.9190917,-0.051726777,-0.09995662,-0.058194723,-0.04956157,-0.031248733,-0.08064612
HMGN2,-0.060439285,-0.05457426,-0.006067459,6.717229,-0.07503265,-0.11076282,5.086643,4.1861434,-0.10078193,4.9190917,-0.051726777,-0.09995662,-0.058194723,-0.04956157,-0.031248733,-0.08064612
IFITM2,-0.060439285,-0.05457426,-0.006067459,6.717229,-0.07503265,-0.11076282,5.086643,4.1861434,-0.10078193,4.9190917,-0.051726777,-0.09995662,-0.058194723,-0.04956157,-0.031248733,-0.08064612
IDH1,-0.044237852,-0.040814687,-0.003147574,5.2512913,-0.054957837,-0.08200668,3.55156,2.8466618,-0.07432503,3.9126174,-0.034154728,-0.07445431,-0.042220816,-0.03645446,-0.023180803,-0.058495156
LCP1,-0.060439285,-0.05457426,-0.006067459,6.717229,-0.07503265,-0.11076282,5.086643,4.1861434,-0.10078193,4.9190917,-0.051726777,-0.09995662,-0.058194723,-0.04956157,-0.031248733,-0.08064612
MGL2,-0.060439285,-0.05457426,-0.006067459,6.717229,-0.07503265,-0.11076282,5.086643,4.1861434,-0.10078193,4.9190917,-0.051726777,-0.09995662,-0.058194723,-0.04956157,-0.031248733,-0.08064612
SRSF6,-0.024939004,-0.022530267,0.016031832,2.863197,-0.028502997,-0.044490106,1.8047907,1.0755218,-0.038865637,2.3049748,-0.013588753,-0.039196376,-0.02270806,-0.0179529,-0.011101447,-0.029588243
CTCF,-0.023011398,-0.022069478,-0.00010781243,2.9565537,-0.026422195,-0.044111546,1.5515584,0.9557991,-0.036646433,2.3153932,-0.011339648,-0.0396679,-0.023620913,-0.017942175,-0.01170887,-0.028276913
COX8A,-0.060439285,-0.05457426,-0.006067459,6.717229,-0.07503265,-0.11076282,5.086643,4.1861434,-0.10078193,4.9190917,-0.051726777,-0.09995662,-0.058194723,-0.04956157,-0.031248733,-0.08064612
FOSL2,-0.02479665,-0.022328548,0.017549701,2.8410058,-0.02831044,-0.044197135,1.7901938,1.0608532,-0.038614307,2.293956,-0.013418941,-0.038870614,-0.022542365,-0.017797874,-0.010999607,-0.02940919
IFI27L2A,-0.060439285,-0.05457426,-0.006067459,6.717229,-0.07503265,-0.11076282,5.086643,4.1861434,-0.10078193,4.9190917,-0.051726777,-0.09995662,-0.058194723,-0.04956157,-0.031248733,-0.08064612
MRPL20,-0.060439285,-0.05457426,-0.006067459,6.717229,-0.07503265,-0.11076282,5.086643,4.1861434,-0.10078193,4.9190917,-0.051726777,-0.09995662,-0.058194723,-0.04956157,-0.031248733,-0.08064612
RNF149,-0.060439285,-0.05457426,-0.006067459,6.717229,-0.07503265,-0.11076282,5.086643,4.1861434,-0.10078193,4.9190917,-0.051726777,-0.09995662,-0.058194723,-0.04956157,-0.031248733,-0.08064612
IVNS1ABP,-0.060439285,-0.05457426,-0.006067459,6.717229,-0.07503265,-0.11076282,5.086643,4.1861434,-0.10078193,4.9190917,-0.051726777,-0.09995662,-0.058194723,-0.04956157,-0.031248733,-0.08064612
CTSB,-0.060439285,-0.05457426,-0.006067459,6.717229,-0.07503265,-0.11076282,5.086643,4.1861434,-0.10078193,4.9190917,-0.051726777,-0.09995662,-0.058194723,-0.04956157,-0.031248733,-0.08064612
PSMA7,-0.02485886,-0.022406647,0.016546376,2.850146,-0.028400574,-0.044311445,1.7952238,1.067704,-0.038730413,2.2992227,-0.013498828,-0.03900941,-0.022605866,-0.01786779,-0.011042222,-0.029498197
AP2M1,-0.049932875,-0.045689695,-0.004481903,5.715894,-0.0618154,-0.09115625,4.0628943,3.3392665,-0.083460025,4.234238,-0.039347496,-0.083204925,-0.048033826,-0.040711913,-0.026239727,-0.0656508
DPF2,-0.024841169,-0.022384806,0.016847037,2.8471158,-0.028377768,-0.04427116,1.7937812,1.0660487,-0.03869447,2.2978835,-0.013477263,-0.03896626,-0.022585172,-0.017848713,-0.01103329,-0.029475948
RUNX1,-0.0250327,-0.022590147,0.015372701,2.8692403,-0.028606437,-0.044603135,1.8079602,1.0811203,-0.038994417,2.311992,-0.013655519,-0.03932109,-0.022770856,-0.018015057,-0.011136916,-0.029698333
ZFHX3,-0.060439285,-0.05457426,-0.006067459,6.717229,-0.07503265,-0.11076282,5.086643,4.1861434,-0.10078193,4.9190917,-0.051726777,-0.09995662,-0.058194723,-0.04956157,-0.031248733,-0.08064612
COX7A2,-0.05421969,-0.052499473,-0.012893103,6.354176,-0.06792822,-0.09752439,5.312401,4.2591996,-0.086202934,3.7782116,-0.051482454,-0.09268973,-0.06035361,-0.03543628,-0.03118675,-0.07382953
FCF1,-0.060439285,-0.05457426,-0.006067459,6.717229,-0.07503265,-0.11076282,5.086643,4.1861434,-0.10078193,4.9190917,-0.051726777,-0.09995662,-0.058194723,-0.04956157,-0.031248733,-0.08064612
RPS26,-0.054527182,-0.041329045,0.12670198,5.5328116,-0.06468337,-0.09913881,4.532171,2.9896734,-0.09974656,5.2995706,-0.049758337,-0.08922561,-0.05488764,-0.0457826,-0.02078639,-0.068273954
SEC61B,-0.060439285,-0.05457426,-0.006067459,6.717229,-0.07503265,-0.11076282,5.086643,4.1861434,-0.10078193,4.9190917,-0.051726777,-0.09995662,-0.058194723,-0.04956157,-0.031248733,-0.08064612
PLIN2,-0.06299955,-0.055429377,-0.008482832,6.0292034,-0.07080846,-0.114899024,5.4741745,3.7036922,-0.100790106,4.713652,-0.05230628,-0.092689425,-0.06236245,-0.050257668,-0.025114814,-0.07883818
TNIP3,-0.043785844,-0.04090809,-0.0033368347,5.220908,-0.054166373,-0.08081272,3.4977398,2.7912068,-0.07341848,3.8895254,-0.03348573,-0.07430454,-0.042050585,-0.036045697,-0.022876315,-0.05756823
CALM2,-0.060370725,-0.054491427,-0.006021965,6.719455,-0.0749918,-0.11072769,5.085824,4.1920176,-0.10075857,4.9153476,-0.051693924,-0.09986377,-0.058123223,-0.049475998,-0.031287063,-0.0805444
RPL39,-0.06249442,-0.05620231,-0.007094308,6.724654,-0.077278666,-0.11438623,5.3260684,4.3060136,-0.10350451,4.929259,-0.055253696,-0.10181758,-0.060124423,-0.050811928,-0.030795481,-0.08294098
HMG20B,-0.03326696,-0.031098913,-0.0013299724,4.0384493,-0.04033944,-0.061789405,2.580257,1.9395801,-0.054692857,2.9887471,-0.02279791,-0.05612595,-0.031514797,-0.026071114,-0.017213643,-0.042736672
TMEM49,-0.060439285,-0.05457426,-0.006067459,6.717229,-0.07503265,-0.11076282,5.086643,4.1861434,-0.10078193,4.9190917,-0.051726777,-0.09995662,-0.058194723,-0.04956157,-0.031248733,-0.08064612
SFPI1,-0.060439285,-0.05457426,-0.006067459,6.717229,-0.07503265,-0.11076282,5.086643,4.1861434,-0.10078193,4.9190917,-0.051726777,-0.09995662,-0.058194723,-0.04956157,-0.031248733,-0.08064612
POLR3K,-0.025165528,-0.02277507,0.014976092,2.8897152,-0.028783713,-0.04489739,1.8215743,1.0959206,-0.039261334,2.3201094,-0.013801624,-0.03963931,-0.022928098,-0.018158639,-0.011258598,-0.029879162
POLR2F,-0.024934828,-0.02251121,0.014396824,2.8583636,-0.028473863,-0.044459056,1.8015509,1.0737801,-0.03885421,2.3050923,-0.013574753,-0.039170995,-0.022686223,-0.017932674,-0.011115029,-0.02959158
FUBP3,-0.060439285,-0.05457426,-0.006067459,6.717229,-0.07503265,-0.11076282,5.086643,4.1861434,-0.10078193,4.9190917,-0.051726777,-0.09995662,-0.058194723,-0.04956157,-0.031248733,-0.08064612
TOP2B,-0.05269422,-0.047958057,-0.004171307,5.9036345,-0.06473229,-0.09609512,4.3017,3.486871,-0.08711324,4.409843,-0.042094897,-0.08712624,-0.05060178,-0.042480793,-0.027253112,-0.06882967
DQ539915,-0.042761307,-0.050155606,-0.011209417,6.386462,-0.063982174,-0.0975362,3.8909802,4.998262,-0.09516762,3.664935,-0.05929491,-0.10841893,-0.048239224,-0.06046248,-0.024941351,-0.07818718
ARF4,-0.02472451,-0.022264428,0.017359927,2.8345237,-0.028236756,-0.0440854,1.7855568,1.0563737,-0.038517337,2.2890782,-0.013364904,-0.038754456,-0.022479415,-0.017745707,-0.010968195,-0.029342968
COMMD3,-0.024991864,-0.022568792,0.016999535,2.8665147,-0.028574565,-0.04456911,1.8058861,1.0804648,-0.038979974,2.3097517,-0.013658123,-0.039283123,-0.022733679,-0.017999291,-0.011103867,-0.029664453
RPS12,-0.060439285,-0.05457426,-0.006067459,6.717229,-0.07503265,-0.11076282,5.086643,4.1861434,-0.10078193,4.9190917,-0.051726777,-0.09995662,-0.058194723,-0.04956157,-0.031248733,-0.08064612
MCM6,-0.025179468,-0.02277157,0.0114907175,2.8921068,-0.028806314,-0.044918474,1.8215696,1.0957596,-0.03928896,2.323355,-0.013814511,-0.039659087,-0.022952726,-0.018174026,-0.011230017,-0.029917976
RAP1B,-0.045115605,-0.04163175,-0.0035458202,5.26968,-0.055791955,-0.08251733,3.622727,2.9422715,-0.07530294,3.9150906,-0.03427634,-0.07547738,-0.04322679,-0.036388587,-0.023900136,-0.059049644
MITF,-0.03541281,-0.033216327,-0.0014494711,4.2641373,-0.04305865,-0.06554286,2.7512379,2.1086383,-0.058294572,3.1718795,-0.024691643,-0.059777267,-0.033565287,-0.02780065,-0.018475331,-0.04540317
RUVBL2,-0.016932571,-0.020734156,-0.0022629162,2.7387745,-0.023658967,-0.038780637,1.264451,1.4746509,-0.03669089,1.7387166,-0.01735588,-0.043628648,-0.018308355,-0.023250017,-0.008276691,-0.028774034
NDUFA1,-0.060439285,-0.05457426,-0.006067459,6.717229,-0.07503265,-0.11076282,5.086643,4.1861434,-0.10078193,4.9190917,-0.051726777,-0.09995662,-0.058194723,-0.04956157,-0.031248733,-0.08064612
RPL4,-0.031026274,-0.02905987,-0.0013001632,3.6545043,-0.036659043,-0.056012556,2.3369656,1.6253964,-0.050013017,2.7804818,-0.019528456,-0.051048663,-0.029282097,-0.023939442,-0.014766869,-0.038259003
YWHAE,-0.055718068,-0.050811715,-0.0051923976,6.2701874,-0.068276964,-0.103156276,4.615126,3.7616808,-0.09277306,4.55131,-0.04573182,-0.09348693,-0.05462066,-0.045343354,-0.02878499,-0.07369123
PSMA1,-0.060439285,-0.05457426,-0.006067459,6.717229,-0.07503265,-0.11076282,5.086643,4.1861434,-0.10078193,4.9190917,-0.051726777,-0.09995662,-0.058194723,-0.04956157,-0.031248733,-0.08064612
SEC11C,-0.060439285,-0.05457426,-0.006067459,6.717229,-0.07503265,-0.11076282,5.086643,4.1861434,-0.10078193,4.9190917,-0.051726777,-0.09995662,-0.058194723,-0.04956157,-0.031248733,-0.08064612
HNRNPD,-0.02497768,-0.022533322,0.015609391,2.859645,-0.02851901,-0.044474024,1.8029954,1.0782332,-0.03887725,2.3080044,-0.013603088,-0.03920081,-0.022703925,-0.017952198,-0.011096164,-0.02962683
SUZ12,-0.02516408,-0.022752566,0.013686158,2.8887408,-0.028772073,-0.044874124,1.8207041,1.0937384,-0.03923619,2.320374,-0.013782265,-0.03961128,-0.022922337,-0.01814089,-0.01124085,-0.029877622
SLC25A5,-0.060439285,-0.05457426,-0.006067459,6.717229,-0.07503265,-0.11076282,5.086643,4.1861434,-0.10078193,4.9190917,-0.051726777,-0.09995662,-0.058194723,-0.04956157,-0.031248733,-0.08064612
CAPG,-0.060431063,-0.05457443,-0.0060848477,6.716633,-0.07503918,-0.110754624,5.087854,4.185729,-0.100791976,4.9173512,-0.051720474,-0.09994977,-0.058201954,-0.049544338,-0.031269725,-0.08064373
THRAP3,-0.02373126,-0.019780189,-0.0032248518,2.9300792,-0.025625685,-0.042151146,1.4619145,0.9217073,-0.037341584,2.307122,-0.012926487,-0.038182728,-0.020947356,-0.014200253,-0.012312689,-0.029832017
WHSC1L1,-0.045005925,-0.04348425,-0.0015997234,5.1526165,-0.060933735,-0.090427704,3.750932,3.108393,-0.07378274,3.7525797,-0.031790998,-0.079028286,-0.047486875,-0.035555586,-0.026455907,-0.061454248
RPL14,-0.0308333,-0.02895174,-0.0011827289,3.6629674,-0.036638793,-0.05597016,2.323942,1.6122587,-0.049797796,2.8038876,-0.01948452,-0.050828088,-0.028957248,-0.023881057,-0.014765829,-0.038202398
TXN1,-0.033175465,-0.031149654,-0.0013488755,4.0397277,-0.040659174,-0.061768573,2.5670843,1.9445751,-0.054807644,3.011439,-0.022758568,-0.056237537,-0.03144573,-0.026415186,-0.01708314,-0.042814124
NDUFA6,-0.060430415,-0.054598287,-0.0060924045,6.7124376,-0.07499566,-0.110777415,5.084023,4.1844773,-0.10077819,4.9226017,-0.051748797,-0.09996735,-0.05818498,-0.04954383,-0.03125422,-0.08064502
SKI,-0.02559766,-0.023306362,-4.2895746e-05,2.9574296,-0.029364655,-0.045642138,1.8651096,1.1445066,-0.039982136,2.3451643,-0.014217193,-0.04053842,-0.023428587,-0.018600946,-0.011796325,-0.03050934
SMARCC2,-0.025084317,-0.022653982,0.014200874,2.8769648,-0.028683271,-0.04471946,1.8127362,1.0873661,-0.039106056,2.315918,-0.01371655,-0.039445426,-0.022834422,-0.018075189,-0.0111745065,-0.029780958
TANK,-0.060439285,-0.05457426,-0.006067459,6.717229,-0.07503265,-0.11076282,5.086643,4.1861434,-0.10078193,4.9190917,-0.051726777,-0.09995662,-0.058194723,-0.04956157,-0.031248733,-0.08064612
IL1RN,-0.05025975,-0.046716027,-0.004261532,5.8635745,-0.06303507,-0.09364021,4.127757,3.362424,-0.084752195,4.339661,-0.040761344,-0.08503905,-0.04885208,-0.04199609,-0.02614369,-0.06705169
FABP4,-0.024936242,-0.022497147,0.013918497,2.861171,-0.028475579,-0.044419616,1.8032156,1.0742921,-0.038833216,2.3018389,-0.013550675,-0.039147403,-0.02268491,-0.01793754,-0.011142344,-0.029580943
CLAST2,-0.060439285,-0.05457426,-0.006067459,6.717229,-0.07503265,-0.11076282,5.086643,4.1861434,-0.10078193,4.9190917,-0.051726777,-0.09995662,-0.058194723,-0.04956157,-0.031248733,-0.08064612
AK185681,-0.060439285,-0.05457426,-0.006067459,6.717229,-0.07503265,-0.11076282,5.086643,4.1861434,-0.10078193,4.9190917,-0.051726777,-0.09995662,-0.058194723,-0.04956157,-0.031248733,-0.08064612
TM7SF4,-0.060439285,-0.05457426,-0.006067459,6.717229,-0.07503265,-0.11076282,5.086643,4.1861434,-0.10078193,4.9190917,-0.051726777,-0.09995662,-0.058194723,-0.04956157,-0.031248733,-0.08064612
GRN,-0.04941813,-0.045419645,-0.0044337655,5.6900244,-0.06144838,-0.09028137,4.0312743,3.3075387,-0.0827515,4.205757,-0.038801692,-0.08251763,-0.04757001,-0.0403007,-0.026111042,-0.0653264
ATF6,-0.038470253,-0.03588695,-0.0017079299,4.6338177,-0.047814578,-0.07185043,3.0423763,2.4328067,-0.063849516,3.4233246,-0.028220903,-0.06512825,-0.03663239,-0.030869178,-0.020594887,-0.050270718
JUNB,-0.036084685,-0.031136483,-0.0071424725,4.680709,-0.04242872,-0.06702068,2.448226,2.1224887,-0.060408905,3.3826375,-0.026364962,-0.06273303,-0.033404537,-0.024293093,-0.02211867,-0.049835686
SLAMF7,-0.060439285,-0.05457426,-0.006067459,6.717229,-0.07503265,-0.11076282,5.086643,4.1861434,-0.10078193,4.9190917,-0.051726777,-0.09995662,-0.058194723,-0.04956157,-0.031248733,-0.08064612
LYZ2,-0.06283318,-0.056305718,-0.0067107584,6.765067,-0.07755588,-0.11507526,5.3558106,4.365178,-0.10408841,4.9375076,-0.055013344,-0.1026312,-0.060658768,-0.050748944,-0.031726304,-0.08341914
NFE2L2,-0.024892738,-0.02243363,0.016900323,2.8526947,-0.028431796,-0.044360507,1.7970604,1.0690823,-0.038768318,2.301526,-0.013518424,-0.03905627,-0.022632778,-0.017889649,-0.011051796,-0.02952244
LSP1,-0.060439285,-0.05457426,-0.006067459,6.717229,-0.07503265,-0.11076282,5.086643,4.1861434,-0.10078193,4.9190917,-0.051726777,-0.09995662,-0.058194723,-0.04956157,-0.031248733,-0.08064612
CD63,-0.05261818,-0.044986937,-0.0027163103,6.684407,-0.0656803,-0.10876543,4.357557,4.3069777,-0.09080625,4.0352306,-0.055831213,-0.09483062,-0.046762653,-0.04377954,-0.03670356,-0.06786212
ARHGDIB,-0.060438693,-0.054574378,-0.0060679987,6.7172356,-0.075032815,-0.11076305,5.086695,4.1860843,-0.10078193,4.9190884,-0.0517271,-0.099956386,-0.05819459,-0.04956116,-0.03124888,-0.080645844
POLR2C,-0.024949212,-0.02251026,0.015196584,2.8619306,-0.028500885,-0.044470094,1.8035927,1.0749195,-0.03886994,2.3042898,-0.013569045,-0.039183024,-0.02270314,-0.017945794,-0.0111182155,-0.029605271
RPL32,-0.030853555,-0.028954549,-0.0011706138,3.668083,-0.036682107,-0.055992015,2.3268359,1.6147432,-0.04982717,2.8030345,-0.019487478,-0.050853353,-0.028978871,-0.023908447,-0.014774041,-0.038224384
ATP6V1G1,-0.060439285,-0.05457426,-0.006067459,6.717229,-0.07503265,-0.11076282,5.086643,4.1861434,-0.10078193,4.9190917,-0.051726777,-0.09995662,-0.058194723,-0.04956157,-0.031248733,-0.08064612
SDHB,-0.06059058,-0.05438539,-0.0058910875,6.6985006,-0.075145185,-0.11066795,5.088718,4.1991544,-0.10082654,4.9390774,-0.051942427,-0.10012011,-0.0582397,-0.04966634,-0.03149065,-0.08089624
EHMT2,-0.025091827,-0.02268019,0.013728194,2.8809206,-0.028690567,-0.04473499,1.8151236,1.0890325,-0.0391317,2.3158374,-0.0137351295,-0.03947682,-0.022848487,-0.018091967,-0.01120624,-0.02979302
MYEOV2,-0.024986947,-0.022514062,0.017075725,2.8606029,-0.028578429,-0.044498995,1.7997354,1.0779454,-0.038921416,2.3084478,-0.013625824,-0.039294474,-0.022714105,-0.017966937,-0.011081122,-0.029620634
ID3,-0.060439285,-0.05457426,-0.006067459,6.717229,-0.07503265,-0.11076282,5.086643,4.1861434,-0.10078193,4.9190917,-0.051726777,-0.09995662,-0.058194723,-0.04956157,-0.031248733,-0.08064612
CNOT6L,-0.05947841,-0.05280339,-0.0057548014,6.486639,-0.07349621,-0.10727682,4.9487934,4.07902,-0.098199405,4.866054,-0.049978316,-0.096365385,-0.05659284,-0.048044156,-0.03063592,-0.07859413
TCEB2,-0.025058636,-0.022640452,0.015528582,2.8748105,-0.028640661,-0.044675693,1.8117133,1.0845685,-0.039057292,2.3126533,-0.013685777,-0.039404664,-0.022809573,-0.018050572,-0.011169357,-0.029732939
H2-D1,-0.060439285,-0.05457426,-0.006067459,6.717229,-0.07503265,-0.11076282,5.086643,4.1861434,-0.10078193,4.9190917,-0.051726777,-0.09995662,-0.058194723,-0.04956157,-0.031248733,-0.08064612
SMARCA4,-0.023680467,-0.022869246,-0.00028120002,3.0555847,-0.027296893,-0.04539575,1.6095405,1.0208302,-0.03782971,2.3647614,-0.011998427,-0.041099913,-0.02438437,-0.018633317,-0.012259612,-0.029218215
AF251705,-0.060439285,-0.05457426,-0.006067459,6.717229,-0.07503265,-0.11076282,5.086643,4.1861434,-0.10078193,4.9190917,-0.051726777,-0.09995662,-0.058194723,-0.04956157,-0.031248733,-0.08064612
NDUFB6,-0.060439285,-0.05457426,-0.006067459,6.717229,-0.07503265,-0.11076282,5.086643,4.1861434,-0.10078193,4.9190917,-0.051726777,-0.09995662,-0.058194723,-0.04956157,-0.031248733,-0.08064612
NDUFB8,-0.062198527,-0.05601594,-0.006816179,6.7789288,-0.07701806,-0.114643015,5.3300157,4.369053,-0.103480496,4.871152,-0.055022568,-0.102436416,-0.060071047,-0.050739873,-0.031530175,-0.08312866
RPS16,-0.06249442,-0.05620231,-0.007094308,6.724654,-0.077278666,-0.11438623,5.3260684,4.3060136,-0.10350451,4.929259,-0.055253696,-0.10181758,-0.060124423,-0.050811928,-0.030795481,-0.08294098
SUB1,-0.060439285,-0.05457426,-0.006067459,6.717229,-0.07503265,-0.11076282,5.086643,4.1861434,-0.10078193,4.9190917,-0.051726777,-0.09995662,-0.058194723,-0.04956157,-0.031248733,-0.08064612
CXXC1,-0.05856523,-0.052689135,-0.0052122814,6.4089317,-0.072498664,-0.107812956,4.9274154,4.0486917,-0.09660819,4.7332077,-0.049561962,-0.09627133,-0.05683886,-0.04696,-0.03040028,-0.077948004
CBFA2T3,-0.038847573,-0.03621018,-0.0021919436,4.6664104,-0.04792941,-0.07163216,3.065216,2.4085336,-0.06401967,3.4492683,-0.028002424,-0.06529664,-0.036779378,-0.030512914,-0.020727891,-0.05052368
NR3C1,-0.02501008,-0.02257189,0.013736844,2.8688312,-0.02856219,-0.04453706,1.8082743,1.0800438,-0.03894262,2.3072338,-0.013616092,-0.039275885,-0.022751672,-0.018001555,-0.01117967,-0.029657815
DYNLRB1,-0.06371476,-0.052906245,0.15352923,5.4833302,-0.0741312,-0.09968819,4.4222007,3.909755,-0.09279523,5.2652326,-0.052291784,-0.08706538,-0.052133616,-0.049023803,-0.03056278,-0.067272715
PTGES3,-0.041262794,-0.03859674,-0.0024128086,4.923498,-0.051168256,-0.07674523,3.3107867,2.6286767,-0.068503775,3.6303742,-0.030735537,-0.0696575,-0.03961943,-0.032925066,-0.021996442,-0.054141868
PLEK,-0.034856457,-0.032695796,-0.0015804206,4.24364,-0.042759698,-0.06505502,2.7201188,2.087289,-0.05769604,3.1377974,-0.02442096,-0.059198845,-0.033219732,-0.027611036,-0.018158685,-0.045237087
AFF4,-0.024945263,-0.022507425,0.017706059,2.8590422,-0.028499557,-0.04447859,1.8020934,1.073968,-0.038866535,2.304655,-0.013574121,-0.03917556,-0.022688936,-0.017935976,-0.01107807,-0.029588716
LY6E,-0.060444854,-0.054489758,-0.0060471455,6.7067175,-0.07506107,-0.11066646,5.077144,4.1841226,-0.10070542,4.916723,-0.051708307,-0.10001311,-0.058161303,-0.04949885,-0.0312119,-0.08057495
RPL35A,-0.031000327,-0.02911182,-0.0012016919,3.6883037,-0.036882788,-0.056277797,2.3399456,1.6286094,-0.050090168,2.815279,-0.019641494,-0.051142935,-0.029135223,-0.02405675,-0.014877197,-0.03843783
PSME1,-0.025913524,-0.02309974,-0.00025312556,2.7802556,-0.029706268,-0.04289725,1.7111208,1.1673304,-0.03894112,2.4408412,-0.01423505,-0.038026497,-0.021852203,-0.019048143,-0.00911188,-0.028430916
POLR2J,-0.024976134,-0.022543259,0.015560605,2.864969,-0.028537333,-0.044522088,1.8055342,1.0773911,-0.038917802,2.3064795,-0.013601849,-0.039238,-0.022726495,-0.017970905,-0.01112594,-0.029636512
SND1,-0.02475456,-0.022286326,0.017794438,2.8363,-0.028261619,-0.044127364,1.7872003,1.057481,-0.038549528,2.2908983,-0.01337908,-0.03879379,-0.022503095,-0.01776274,-0.010976779,-0.029361662
MRFAP1,-0.060439285,-0.05457426,-0.006067459,6.717229,-0.07503265,-0.11076282,5.086643,4.1861434,-0.10078193,4.9190917,-0.051726777,-0.09995662,-0.058194723,-0.04956157,-0.031248733,-0.08064612
CXCL1,-0.025024926,-0.022581019,0.015737228,2.8681953,-0.02859142,-0.044592965,1.8067443,1.0793152,-0.038978156,2.3116703,-0.013645411,-0.03930972,-0.022764899,-0.018008737,-0.011121456,-0.029680394
SMARCA5,-0.025172254,-0.022755858,0.015898071,2.8881857,-0.028782891,-0.044913,1.8205293,1.0932304,-0.039255958,2.3221033,-0.013790197,-0.03962937,-0.022932975,-0.018130654,-0.011217999,-0.029887551
PSMB3,-0.024835736,-0.022381412,0.016679533,2.847465,-0.028372655,-0.044273656,1.7935232,1.0658163,-0.038694423,2.2975047,-0.013476117,-0.03896658,-0.02258482,-0.017847355,-0.011029588,-0.029472286
HCFC1,-0.025186082,-0.022745414,0.01432725,2.8855364,-0.028763836,-0.04488792,1.8202639,1.0898027,-0.03922093,2.321539,-0.01375878,-0.039598927,-0.022942051,-0.018123189,-0.011200168,-0.02985633
VPS29,-0.060439285,-0.05457426,-0.006067459,6.717229,-0.07503265,-0.11076282,5.086643,4.1861434,-0.10078193,4.9190917,-0.051726777,-0.09995662,-0.058194723,-0.04956157,-0.031248733,-0.08064612
H2-AA,-0.060439285,-0.05457426,-0.006067459,6.717229,-0.07503265,-0.11076282,5.086643,4.1861434,-0.10078193,4.9190917,-0.051726777,-0.09995662,-0.058194723,-0.04956157,-0.031248733,-0.08064612
ZFML,-0.02472451,-0.022264428,0.017359927,2.8345237,-0.028236756,-0.0440854,1.7855568,1.0563737,-0.038517337,2.2890782,-0.013364904,-0.038754456,-0.022479415,-0.017745707,-0.010968195,-0.029342968
RPL38,-0.030896965,-0.028999938,-0.0011807589,3.6739194,-0.036740493,-0.056074575,2.330687,1.6187123,-0.04990408,2.8066792,-0.01953174,-0.050936565,-0.029025296,-0.02395059,-0.014802985,-0.0382875
ZYX,-0.060406536,-0.054590132,-0.006099003,6.7171993,-0.07499225,-0.11074711,5.0876284,4.1851487,-0.10075353,4.915379,-0.051700916,-0.09998727,-0.058157668,-0.049563725,-0.031259708,-0.08066501
GPNMB,-0.038324736,-0.035672706,-0.002289152,4.513062,-0.046315704,-0.07037036,3.0127864,2.3624208,-0.06314918,3.279454,-0.027226249,-0.064801894,-0.03712211,-0.029859161,-0.020162974,-0.049312543
MYL12B,-0.060439285,-0.05457426,-0.006067459,6.717229,-0.07503265,-0.11076282,5.086643,4.1861434,-0.10078193,4.9190917,-0.051726777,-0.09995662,-0.058194723,-0.04956157,-0.031248733,-0.08064612
CD52,-0.060439285,-0.05457426,-0.006067459,6.717229,-0.07503265,-0.11076282,5.086643,4.1861434,-0.10078193,4.9190917,-0.051726777,-0.09995662,-0.058194723,-0.04956157,-0.031248733,-0.08064612
GTF2F1,-0.024949655,-0.022513734,0.016062088,2.8613195,-0.028505288,-0.04447881,1.8032851,1.0750362,-0.038875364,2.3045866,-0.0135772675,-0.03918731,-0.022698807,-0.01794688,-0.011103739,-0.029603185
BC028528,-0.057746053,-0.048350036,-0.01389331,6.8968134,-0.068555236,-0.105623774,4.305608,3.84257,-0.09746781,4.9325004,-0.050339412,-0.097890325,-0.05426554,-0.040990148,-0.034078237,-0.08134849
BCLAF1,-0.06374328,-0.052883152,0.15337443,5.4806347,-0.07413932,-0.099662,4.4195805,3.9097054,-0.09282031,5.2636266,-0.05227228,-0.087059334,-0.05211476,-0.049018014,-0.030592272,-0.06730844
KLF4,-0.034325697,-0.032178793,-0.0014168596,4.1657586,-0.041981023,-0.06384289,2.664408,2.034613,-0.056690477,3.0985608,-0.023813732,-0.05812412,-0.03257107,-0.027183585,-0.01780157,-0.044282842
MYD88,-0.039048474,-0.036732003,-0.0021921676,4.7248526,-0.048342314,-0.07272564,3.0973508,2.4508986,-0.065194584,3.4824483,-0.028686775,-0.066472895,-0.03735079,-0.0315343,-0.02071312,-0.05112293
STAT1,-0.025089394,-0.022655189,0.014585264,2.8772285,-0.028675377,-0.04472236,1.8122451,1.0854505,-0.0390978,2.3165383,-0.013711233,-0.039446577,-0.022837741,-0.01807197,-0.011164291,-0.029769924
UBC,-0.025032584,-0.022611033,0.01642757,2.871045,-0.028611273,-0.044631734,1.8094399,1.0826094,-0.039014738,2.3107455,-0.013666665,-0.03935451,-0.022777762,-0.018024035,-0.01114666,-0.02969916
RPS27,-0.035299625,-0.029934933,0.3378992,2.9799721,-0.035737064,-0.048782952,2.1856067,1.126462,-0.041509222,2.5380545,-0.014929096,-0.044951156,-0.02246832,-0.022459239,-0.0053753615,-0.029127127
HMGA1,-0.032998092,-0.030968428,-0.0013275131,4.0177507,-0.04041122,-0.061418366,2.5511405,1.9283581,-0.05449013,2.9969127,-0.02258524,-0.055905726,-0.031258862,-0.026256833,-0.016966056,-0.042562027
NACA,-0.062424865,-0.05611189,-0.007132876,6.7050114,-0.077018,-0.11421007,5.3206744,4.288295,-0.10311709,4.898793,-0.05540082,-0.101643816,-0.059934516,-0.050686553,-0.030555015,-0.08258504
HIF1A,-0.024935666,-0.022485757,0.016253091,2.8583534,-0.028487641,-0.04443622,1.8003784,1.0730299,-0.038844466,2.3050432,-0.013568435,-0.039144505,-0.022675611,-0.017932974,-0.011075912,-0.02957866
RPS9,-0.025366498,-0.023047796,0.012521587,2.9254591,-0.029135628,-0.045399897,1.8426857,1.1232102,-0.039772917,2.3391247,-0.014098573,-0.04015265,-0.023147821,-0.018420104,-0.011379914,-0.030257432
SELK,-0.060439285,-0.05457426,-0.006067459,6.717229,-0.07503265,-0.11076282,5.086643,4.1861434,-0.10078193,4.9190917,-0.051726777,-0.09995662,-0.058194723,-0.04956157,-0.031248733,-0.08064612
PCNA,-0.025056763,-0.02264247,0.016727977,2.8741348,-0.028640449,-0.04468438,1.8116126,1.0845416,-0.039057493,2.312248,-0.013687667,-0.039405685,-0.022803513,-0.018045142,-0.011160877,-0.029726975
PRR13,-0.060439285,-0.05457426,-0.006067459,6.717229,-0.07503265,-0.11076282,5.086643,4.1861434,-0.10078193,4.9190917,-0.051726777,-0.09995662,-0.058194723,-0.04956157,-0.031248733,-0.08064612
MCA32,-0.060439285,-0.05457426,-0.006067459,6.717229,-0.07503265,-0.11076282,5.086643,4.1861434,-0.10078193,4.9190917,-0.051726777,-0.09995662,-0.058194723,-0.04956157,-0.031248733,-0.08064612
IRF4,-0.025414025,-0.023010168,0.010090955,2.9217904,-0.029078212,-0.04536713,1.8412948,1.1102134,-0.039634332,2.3407016,-0.013961413,-0.040095553,-0.023216695,-0.018290015,-0.0113823535,-0.030239506
KDM5C,-0.058286794,-0.05213097,-0.005319959,6.3400927,-0.0709753,-0.105465755,4.81271,3.9103107,-0.095750175,4.711509,-0.04823488,-0.095085174,-0.055758253,-0.046792082,-0.029131446,-0.07576454
PKM2,-0.060439285,-0.05457426,-0.006067459,6.717229,-0.07503265,-0.11076282,5.086643,4.1861434,-0.10078193,4.9190917,-0.051726777,-0.09995662,-0.058194723,-0.04956157,-0.031248733,-0.08064612
ZBTB7A,-0.060439285,-0.05457426,-0.006067459,6.717229,-0.07503265,-0.11076282,5.086643,4.1861434,-0.10078193,4.9190917,-0.051726777,-0.09995662,-0.058194723,-0.04956157,-0.031248733,-0.08064612
ABCG1,-0.060439285,-0.05457426,-0.006067459,6.717229,-0.07503265,-0.11076282,5.086643,4.1861434,-0.10078193,4.9190917,-0.051726777,-0.09995662,-0.058194723,-0.04956157,-0.031248733,-0.08064612
SSR3,-0.060439285,-0.05457426,-0.006067459,6.717229,-0.07503265,-0.11076282,5.086643,4.1861434,-0.10078193,4.9190917,-0.051726777,-0.09995662,-0.058194723,-0.04956157,-0.031248733,-0.08064612
PSME2,-0.024944989,-0.022498105,0.016006269,2.8596764,-0.028501734,-0.044453595,1.8012838,1.074166,-0.0388616,2.3056722,-0.013578481,-0.039165776,-0.022686433,-0.017942509,-0.011085348,-0.029593565
CHCHD2,-0.060439285,-0.05457426,-0.006067459,6.717229,-0.07503265,-0.11076282,5.086643,4.1861434,-0.10078193,4.9190917,-0.051726777,-0.09995662,-0.058194723,-0.04956157,-0.031248733,-0.08064612
CD200R4,-0.06294856,-0.055391483,-0.008488503,6.01951,-0.07081673,-0.11482244,5.4648786,3.7005532,-0.100680016,4.7145853,-0.05230172,-0.09274472,-0.06237385,-0.050206307,-0.02504402,-0.07871673
ZMYND11,-0.025766792,-0.023446811,-9.619519e-06,2.9733684,-0.029548308,-0.0459908,1.8770703,1.1488844,-0.040225677,2.3608415,-0.014301152,-0.040819835,-0.023609791,-0.018638534,-0.011784527,-0.030740589
GTF2B,-0.024923675,-0.022475848,0.015834399,2.857769,-0.028466618,-0.04442387,1.8011438,1.0721363,-0.038823918,2.3024654,-0.013540742,-0.039124794,-0.022673097,-0.017918123,-0.011091049,-0.029566709
NDUFB11,-0.054002363,-0.051095,-0.010442521,7.1348658,-0.074574575,-0.102727376,5.1515603,4.3012424,-0.0988558,4.4024787,-0.04825531,-0.09142508,-0.051489625,-0.054750767,-0.030126726,-0.07993413
S100A6,-0.060439285,-0.05457426,-0.006067459,6.717229,-0.07503265,-0.11076282,5.086643,4.1861434,-0.10078193,4.9190917,-0.051726777,-0.09995662,-0.058194723,-0.04956157,-0.031248733,-0.08064612
DNMT1,-0.025245251,-0.022864956,0.010245778,2.9030254,-0.028890781,-0.045023296,1.828897,1.1039746,-0.039403357,2.326812,-0.0138815325,-0.03979485,-0.023020942,-0.01824393,-0.011341991,-0.030004054
TMSB4X,-0.06194902,-0.05596967,-0.006637676,6.747626,-0.07727807,-0.11411754,5.3019385,4.305534,-0.10295444,4.9077325,-0.05433698,-0.10144186,-0.059541713,-0.050320733,-0.031229004,-0.082884476
FIS1,-0.06052202,-0.054302562,-0.0058455938,6.7007265,-0.07510433,-0.110632814,5.0878987,4.2050285,-0.100803174,4.9353333,-0.051909573,-0.100027286,-0.0581682,-0.049580768,-0.031528983,-0.080794506
LIPA,-0.060439285,-0.05457426,-0.006067459,6.717229,-0.07503265,-0.11076282,5.086643,4.1861434,-0.10078193,4.9190917,-0.051726777,-0.09995662,-0.058194723,-0.04956157,-0.031248733,-0.08064612
CCL9,-0.060439285,-0.05457426,-0.006067459,6.717229,-0.07503265,-0.11076282,5.086643,4.1861434,-0.10078193,4.9190917,-0.051726777,-0.09995662,-0.058194723,-0.04956157,-0.031248733,-0.08064612
SLIRP,-0.060439285,-0.05457426,-0.006067459,6.717229,-0.07503265,-0.11076282,5.086643,4.1861434,-0.10078193,4.9190917,-0.051726777,-0.09995662,-0.058194723,-0.04956157,-0.031248733,-0.08064612
KPNA2,-0.024729861,-0.022269934,0.017335467,2.8351033,-0.028243322,-0.044094376,1.7859346,1.0568275,-0.038525432,2.2894726,-0.013369949,-0.038764462,-0.022484677,-0.01775055,-0.010971354,-0.029349227
LASS2,-0.060439285,-0.05457426,-0.006067459,6.717229,-0.07503265,-0.11076282,5.086643,4.1861434,-0.10078193,4.9190917,-0.051726777,-0.09995662,-0.058194723,-0.04956157,-0.031248733,-0.08064612
RASSF4,-0.06059058,-0.05438539,-0.0058910875,6.6985006,-0.075145185,-0.11066795,5.088718,4.1991544,-0.10082654,4.9390774,-0.051942427,-0.10012011,-0.0582397,-0.04966634,-0.03149065,-0.08089624
1810027O10RIK,-0.06299955,-0.055429377,-0.008482832,6.0292034,-0.07080846,-0.114899024,5.4741745,3.7036922,-0.100790106,4.713652,-0.05230628,-0.092689425,-0.06236245,-0.050257668,-0.025114814,-0.07883818
SMAD2,-0.025098583,-0.022682251,0.012802936,2.8815212,-0.028690701,-0.04472978,1.8153021,1.088613,-0.039117727,2.3155332,-0.013723623,-0.039478958,-0.022854475,-0.01809095,-0.011223201,-0.02979299
NME2,-0.025141826,-0.022741118,0.017703123,2.8842444,-0.028758043,-0.044879936,1.8185891,1.0929933,-0.03922443,2.3188248,-0.0137796635,-0.039597776,-0.022897834,-0.01812767,-0.0111998385,-0.029843215
ATP6V1F,-0.060439285,-0.05457426,-0.006067459,6.717229,-0.07503265,-0.11076282,5.086643,4.1861434,-0.10078193,4.9190917,-0.051726777,-0.09995662,-0.058194723,-0.04956157,-0.031248733,-0.08064612
ATP5G1,-0.060439285,-0.05457426,-0.006067459,6.717229,-0.07503265,-0.11076282,5.086643,4.1861434,-0.10078193,4.9190917,-0.051726777,-0.09995662,-0.058194723,-0.04956157,-0.031248733,-0.08064612
PCNP,-0.060439285,-0.05457426,-0.006067459,6.717229,-0.07503265,-0.11076282,5.086643,4.1861434,-0.10078193,4.9190917,-0.051726777,-0.09995662,-0.058194723,-0.04956157,-0.031248733,-0.08064612
B2M,-0.040727086,-0.03816174,-0.0025349893,4.8785315,-0.050149903,-0.07543804,3.220269,2.5207436,-0.06773169,3.6417336,-0.030344907,-0.06896582,-0.038958054,-0.032937903,-0.020938858,-0.053136323
SLAMF9,-0.060439285,-0.05457426,-0.006067459,6.717229,-0.07503265,-0.11076282,5.086643,4.1861434,-0.10078193,4.9190917,-0.051726777,-0.09995662,-0.058194723,-0.04956157,-0.031248733,-0.08064612
CYB5,-0.042761307,-0.050155606,-0.011209417,6.386462,-0.063982174,-0.0975362,3.8909802,4.998262,-0.09516762,3.664935,-0.05929491,-0.10841893,-0.048239224,-0.06046248,-0.024941351,-0.07818718
RPS13,-0.024776248,-0.022307988,0.017646573,2.83871,-0.028287064,-0.04416405,1.7887487,1.0591875,-0.038582657,2.2924938,-0.013398797,-0.038833432,-0.022524258,-0.017780757,-0.010988346,-0.029387036
FOXJ3,-0.060439285,-0.05457426,-0.006067459,6.717229,-0.07503265,-0.11076282,5.086643,4.1861434,-0.10078193,4.9190917,-0.051726777,-0.09995662,-0.058194723,-0.04956157,-0.031248733,-0.08064612
NAPSA,-0.060439285,-0.05457426,-0.006067459,6.717229,-0.07503265,-0.11076282,5.086643,4.1861434,-0.10078193,4.9190917,-0.051726777,-0.09995662,-0.058194723,-0.04956157,-0.031248733,-0.08064612
SDHD,-0.05261818,-0.044986937,-0.0027163103,6.684407,-0.0656803,-0.10876543,4.357557,4.3069777,-0.09080625,4.0352306,-0.055831213,-0.09483062,-0.046762653,-0.04377954,-0.03670356,-0.06786212
IL1R2,-0.060439285,-0.05457426,-0.006067459,6.717229,-0.07503265,-0.11076282,5.086643,4.1861434,-0.10078193,4.9190917,-0.051726777,-0.09995662,-0.058194723,-0.04956157,-0.031248733,-0.08064612
NDUFV3,-0.060393997,-0.054603253,-0.0060544163,6.7118216,-0.0750427,-0.11070148,5.0877333,4.1874194,-0.10071196,4.908462,-0.051763866,-0.09992654,-0.0581925,-0.049550943,-0.031156464,-0.08069748
RFC1,-0.022450523,-0.01772571,0.298577,2.4789646,-0.024512472,-0.039683394,1.5510058,0.65242696,-0.037875522,2.438073,-0.01182956,-0.03526479,-0.021106975,-0.016389092,-0.007893175,-0.02491432
VPS28,-0.062050335,-0.056206893,-0.006917488,6.838541,-0.07723918,-0.11478134,5.3186846,4.3096023,-0.10333941,4.925579,-0.054914683,-0.10255456,-0.05980519,-0.05117258,-0.031153077,-0.08309097
COX5B,-0.060439285,-0.05457426,-0.006067459,6.717229,-0.07503265,-0.11076282,5.086643,4.1861434,-0.10078193,4.9190917,-0.051726777,-0.09995662,-0.058194723,-0.04956157,-0.031248733,-0.08064612
TLR4,-0.03351804,-0.03177775,-0.001635206,4.0607104,-0.040563546,-0.061668415,2.5862582,1.9170188,-0.055066586,3.034824,-0.022984592,-0.056418695,-0.03176975,-0.026680406,-0.016853217,-0.042558245
HCLS1,-0.061317742,-0.055533476,-0.0059121875,6.6709485,-0.076379314,-0.11399879,5.260798,4.3113346,-0.10193308,4.7700553,-0.053786244,-0.1020571,-0.059481006,-0.0499052,-0.031205546,-0.0819702
AA467197,-0.060439285,-0.05457426,-0.006067459,6.717229,-0.07503265,-0.11076282,5.086643,4.1861434,-0.10078193,4.9190917,-0.051726777,-0.09995662,-0.058194723,-0.04956157,-0.031248733,-0.08064612
TCOF1,-0.060439285,-0.05457426,-0.006067459,6.717229,-0.07503265,-0.11076282,5.086643,4.1861434,-0.10078193,4.9190917,-0.051726777,-0.09995662,-0.058194723,-0.04956157,-0.031248733,-0.08064612
DPEP2,-0.060439285,-0.05457426,-0.006067459,6.717229,-0.07503265,-0.11076282,5.086643,4.1861434,-0.10078193,4.9190917,-0.051726777,-0.09995662,-0.058194723,-0.04956157,-0.031248733,-0.08064612
RPL34,-0.06373575,-0.04199943,-0.0044414084,5.391355,-0.06720523,-0.09986925,4.845237,3.8062098,-0.09864133,5.619827,-0.0396245,-0.08629583,-0.063113056,-0.04393453,-0.03410746,-0.08076059
TAF7,-0.024989689,-0.022560056,0.01725065,2.8648508,-0.028551444,-0.0445463,1.805736,1.0781306,-0.03893303,2.3071551,-0.013619182,-0.039259892,-0.022726007,-0.017980546,-0.01111405,-0.029634053
KLF10,-0.060439285,-0.05457426,-0.006067459,6.717229,-0.07503265,-0.11076282,5.086643,4.1861434,-0.10078193,4.9190917,-0.051726777,-0.09995662,-0.058194723,-0.04956157,-0.031248733,-0.08064612
2310016C08RIK,-0.060439285,-0.05457426,-0.006067459,6.717229,-0.07503265,-0.11076282,5.086643,4.1861434,-0.10078193,4.9190917,-0.051726777,-0.09995662,-0.058194723,-0.04956157,-0.031248733,-0.08064612
POLDIP3,-0.0249386,-0.022504525,0.01343257,2.8623679,-0.028483626,-0.044434264,1.8037792,1.0749826,-0.03884758,2.3023062,-0.013556774,-0.039163325,-0.022694863,-0.01794688,-0.011147774,-0.029595098
TFDP1,-0.025348254,-0.023004908,0.006981455,2.9195158,-0.029040381,-0.045219064,1.8404075,1.1181593,-0.039601278,2.3324232,-0.014000242,-0.040026326,-0.023140367,-0.01836187,-0.011488567,-0.030162321
SSR2,-0.060439285,-0.05457426,-0.006067459,6.717229,-0.07503265,-0.11076282,5.086643,4.1861434,-0.10078193,4.9190917,-0.051726777,-0.09995662,-0.058194723,-0.04956157,-0.031248733,-0.08064612
FCGR2B,-0.050288405,-0.046691988,-0.0042333826,5.8654947,-0.063047364,-0.093646795,4.1302285,3.3636186,-0.084760875,4.3379264,-0.040767062,-0.085046455,-0.04882553,-0.041990392,-0.026148267,-0.06706656
GM10653,-0.060439285,-0.05457426,-0.006067459,6.717229,-0.07503265,-0.11076282,5.086643,4.1861434,-0.10078193,4.9190917,-0.051726777,-0.09995662,-0.058194723,-0.04956157,-0.031248733,-0.08064612
EWSR1,-0.024724385,-0.022264304,0.017360933,2.834508,-0.028236605,-0.044085152,1.785547,1.0563636,-0.038517125,2.2890687,-0.013364789,-0.038754214,-0.022479286,-0.017745595,-0.010968123,-0.02934281
CHMP2A,-0.060439285,-0.05457426,-0.006067459,6.717229,-0.07503265,-0.11076282,5.086643,4.1861434,-0.10078193,4.9190917,-0.051726777,-0.09995662,-0.058194723,-0.04956157,-0.031248733,-0.08064612
ATP5J,-0.060439285,-0.05457426,-0.006067459,6.717229,-0.07503265,-0.11076282,5.086643,4.1861434,-0.10078193,4.9190917,-0.051726777,-0.09995662,-0.058194723,-0.04956157,-0.031248733,-0.08064612
ZNRD1,-0.024917262,-0.02246982,0.016943805,2.8561535,-0.028458837,-0.044414163,1.8002535,1.0716789,-0.038810473,2.3018477,-0.01353776,-0.039113782,-0.022662176,-0.017909396,-0.011082464,-0.029552571
SDCBP,-0.04778813,-0.043846607,-0.0040560323,5.5156484,-0.05914953,-0.08715757,3.8655725,3.1583292,-0.07982628,4.101151,-0.03697249,-0.07970148,-0.045863066,-0.038698733,-0.025261275,-0.06274756
PBRM1,-0.026763637,-0.024465742,-0.00011865422,3.1079767,-0.03087548,-0.04806802,1.9630848,1.2337421,-0.042027798,2.4451666,-0.015253107,-0.042823996,-0.024680419,-0.019408328,-0.012351168,-0.03223264
TUBB5,-0.024739468,-0.02227911,0.01727134,2.8361356,-0.028253831,-0.044109553,1.7865748,1.0575391,-0.03854,2.290186,-0.013379006,-0.03878147,-0.02249332,-0.017758248,-0.010976184,-0.02935948
ATF2,-0.025337974,-0.022924079,0.011699609,2.9103723,-0.028977808,-0.045204982,1.8341827,1.1045082,-0.039504703,2.334564,-0.013906145,-0.03993237,-0.023118924,-0.018242475,-0.011328409,-0.030112684
ETV3,-0.02923066,-0.027293805,-0.00050813326,3.5298667,-0.035171047,-0.0539072,2.2223406,1.5822504,-0.047855992,2.6895697,-0.018903282,-0.04862172,-0.027207937,-0.022626499,-0.014426323,-0.03687579
FOXN2,-0.060439285,-0.05457426,-0.006067459,6.717229,-0.07503265,-0.11076282,5.086643,4.1861434,-0.10078193,4.9190917,-0.051726777,-0.09995662,-0.058194723,-0.04956157,-0.031248733,-0.08064612
IL2RG,-0.036117364,-0.033883594,-0.0017137062,4.3896737,-0.044412907,-0.06746012,2.831397,2.198219,-0.059898734,3.2387252,-0.025681313,-0.061431326,-0.0344602,-0.02872859,-0.018964853,-0.04697786
CD74,-0.04618705,-0.043690905,-0.0038861197,5.549959,-0.057795428,-0.08664867,3.8399885,3.04478,-0.07738381,3.9599051,-0.03704067,-0.07837471,-0.04449358,-0.037082013,-0.024695013,-0.061124314
FLI1,-0.034954846,-0.034803636,-0.005425701,5.187659,-0.049488038,-0.06873314,3.2530022,2.6296341,-0.065268256,3.1684256,-0.027346896,-0.061506685,-0.03297243,-0.03611362,-0.020879515,-0.052088212
ARID1A,-0.025082776,-0.022653136,0.014058679,2.8774312,-0.02867531,-0.044709705,1.812273,1.0862288,-0.039098382,2.316206,-0.013714077,-0.039441172,-0.022830598,-0.018074017,-0.011169916,-0.02977487
VDAC3,-0.060439285,-0.05457426,-0.006067459,6.717229,-0.07503265,-0.11076282,5.086643,4.1861434,-0.10078193,4.9190917,-0.051726777,-0.09995662,-0.058194723,-0.04956157,-0.031248733,-0.08064612
NOTCH2,-0.061839312,-0.05513742,-0.0070428234,6.6381626,-0.07582041,-0.111465186,5.222659,4.286342,-0.10186715,4.864787,-0.053892095,-0.099377945,-0.058415297,-0.049767375,-0.030566175,-0.081614874
SRSF1,-0.058446124,-0.053585123,-0.0037126339,6.3100605,-0.07807622,-0.114506334,4.924966,4.28576,-0.09683243,4.693266,-0.046633422,-0.10002066,-0.06079377,-0.048357222,-0.03299857,-0.08082649
RPSA,-0.024756571,-0.022288151,0.01765228,2.8370676,-0.028267728,-0.044139743,1.7874073,1.0580064,-0.038554344,2.2910662,-0.013388111,-0.03880307,-0.022505688,-0.017769331,-0.010976096,-0.029368507
CKS1B,-0.055519268,-0.04981929,-0.0051601157,6.2098093,-0.06789258,-0.10275175,4.6680727,3.7406194,-0.09268938,4.4959307,-0.04613311,-0.09281357,-0.054146357,-0.045321997,-0.029149732,-0.07398467
UBE2L6,-0.023856279,-0.021867182,0.12655598,2.6519048,-0.029725092,-0.045926183,1.7146993,1.1077594,-0.036772422,2.1883962,-0.011052771,-0.03889641,-0.023745365,-0.01723715,-0.0118172,-0.029496256
SUPT6H,-0.060439285,-0.05457426,-0.006067459,6.717229,-0.07503265,-0.11076282,5.086643,4.1861434,-0.10078193,4.9190917,-0.051726777,-0.09995662,-0.058194723,-0.04956157,-0.031248733,-0.08064612
CRIPT,-0.060406536,-0.054590132,-0.006099003,6.7171993,-0.07499225,-0.11074711,5.0876284,4.1851487,-0.10075353,4.915379,-0.051700916,-0.09998727,-0.058157668,-0.049563725,-0.031259708,-0.08066501
COX7A2L,-0.060439285,-0.05457426,-0.006067459,6.717229,-0.07503265,-0.11076282,5.086643,4.1861434,-0.10078193,4.9190917,-0.051726777,-0.09995662,-0.058194723,-0.04956157,-0.031248733,-0.08064612
CALR,-0.05973253,-0.053532615,-0.0049550147,6.6002464,-0.0751506,-0.11020372,4.9879246,4.197947,-0.09930828,4.903131,-0.051394556,-0.098914936,-0.057123408,-0.049715485,-0.030819204,-0.07964434
TBCA,-0.060439285,-0.05457426,-0.006067459,6.717229,-0.07503265,-0.11076282,5.086643,4.1861434,-0.10078193,4.9190917,-0.051726777,-0.09995662,-0.058194723,-0.04956157,-0.031248733,-0.08064612
TRP53,-0.025092866,-0.022666693,0.014225729,2.878166,-0.02867457,-0.044715546,1.8141131,1.0863296,-0.039096545,2.3152447,-0.01370723,-0.03944948,-0.02284383,-0.018072125,-0.0111928005,-0.029769655
VAMP8,-0.05176526,-0.053055253,-0.0073971683,7.2292433,-0.06579664,-0.10990751,3.9438014,3.6665585,-0.09108654,4.999566,-0.041667055,-0.103184134,-0.06301679,-0.049985427,-0.03441756,-0.07500733
CBX3,-0.024784185,-0.022326183,0.01696349,2.8414083,-0.028309807,-0.044186614,1.7898265,1.0614624,-0.038610853,2.293547,-0.013422523,-0.038867693,-0.022537053,-0.017799133,-0.011003228,-0.029414076
1810006K21RIK,-0.060439285,-0.05457426,-0.006067459,6.717229,-0.07503265,-0.11076282,5.086643,4.1861434,-0.10078193,4.9190917,-0.051726777,-0.09995662,-0.058194723,-0.04956157,-0.031248733,-0.08064612
OSTC,-0.060431063,-0.05457443,-0.0060848477,6.716633,-0.07503918,-0.110754624,5.087854,4.185729,-0.100791976,4.9173512,-0.051720474,-0.09994977,-0.058201954,-0.049544338,-0.031269725,-0.08064373
NFKBIB,-0.02654514,-0.022246242,0.29992458,2.4342244,-0.02858651,-0.04086287,1.5747441,0.9969977,-0.036418706,2.4639268,-0.014123516,-0.03493482,-0.020741343,-0.018058058,-0.011036661,-0.024951011
RPS3A,-0.060439285,-0.05457426,-0.006067459,6.717229,-0.07503265,-0.11076282,5.086643,4.1861434,-0.10078193,4.9190917,-0.051726777,-0.09995662,-0.058194723,-0.04956157,-0.031248733,-0.08064612
PPIA,-0.060439285,-0.05457426,-0.006067459,6.717229,-0.07503265,-0.11076282,5.086643,4.1861434,-0.10078193,4.9190917,-0.051726777,-0.09995662,-0.058194723,-0.04956157,-0.031248733,-0.08064612
TCF7L2,-0.024861448,-0.022405492,0.016687505,2.8499875,-0.028400652,-0.044315178,1.7955139,1.0677172,-0.038730312,2.2991328,-0.013496465,-0.039006993,-0.02260748,-0.017864108,-0.011043842,-0.029498702
RDBP,-0.060439285,-0.05457426,-0.006067459,6.717229,-0.07503265,-0.11076282,5.086643,4.1861434,-0.10078193,4.9190917,-0.051726777,-0.09995662,-0.058194723,-0.04956157,-0.031248733,-0.08064612
DYNC1LI1,-0.024771601,-0.022312969,0.017134927,2.839713,-0.028293822,-0.04416297,1.7889239,1.0603201,-0.038589075,2.2925518,-0.013410281,-0.038841248,-0.022523863,-0.017786099,-0.010995941,-0.029397223
RPL24,-0.06252469,-0.056204114,-0.00710982,6.7183375,-0.07727197,-0.114330426,5.3238726,4.3096614,-0.10346398,4.934047,-0.05526649,-0.101788536,-0.060116358,-0.050796892,-0.03077292,-0.08296221
PSMA3,-0.024972865,-0.022527918,0.015687674,2.8623774,-0.028532678,-0.044494532,1.8031857,1.0758553,-0.03889638,2.3076637,-0.013599813,-0.03921075,-0.022712655,-0.017962618,-0.011099149,-0.029622667
H2-T23,-0.060439285,-0.05457426,-0.006067459,6.717229,-0.07503265,-0.11076282,5.086643,4.1861434,-0.10078193,4.9190917,-0.051726777,-0.09995662,-0.058194723,-0.04956157,-0.031248733,-0.08064612
NR4A1,-0.03361185,-0.031686824,-0.0016370853,4.0789666,-0.040543538,-0.06187157,2.589279,1.9238913,-0.05522209,3.0425992,-0.022938961,-0.05658782,-0.031869285,-0.02654623,-0.01712048,-0.042781077
POLR1D,-0.02505806,-0.022634944,0.017361574,2.8726852,-0.028634919,-0.04467981,1.8111796,1.0837768,-0.03904758,2.3120914,-0.013681001,-0.039396532,-0.022801155,-0.018039715,-0.011154584,-0.029716646
RPL36A,-0.060406536,-0.054590132,-0.006099003,6.7171993,-0.07499225,-0.11074711,5.0876284,4.1851487,-0.10075353,4.915379,-0.051700916,-0.09998727,-0.058157668,-0.049563725,-0.031259708,-0.08066501
ITGB2,-0.060439285,-0.05457426,-0.006067459,6.717229,-0.07503265,-0.11076282,5.086643,4.1861434,-0.10078193,4.9190917,-0.051726777,-0.09995662,-0.058194723,-0.04956157,-0.031248733,-0.08064612
PRELID1,-0.060439285,-0.05457426,-0.006067459,6.717229,-0.07503265,-0.11076282,5.086643,4.1861434,-0.10078193,4.9190917,-0.051726777,-0.09995662,-0.058194723,-0.04956157,-0.031248733,-0.08064612
GPX1,-0.060430415,-0.054598287,-0.0060924045,6.7124376,-0.07499566,-0.110777415,5.084023,4.1844773,-0.10077819,4.9226017,-0.051748797,-0.09996735,-0.05818498,-0.04954383,-0.03125422,-0.08064502
ACTB,-0.025090978,-0.02267121,0.014902838,2.8757281,-0.028685834,-0.044715784,1.8120955,1.0905952,-0.039113797,2.3184118,-0.01374983,-0.039455958,-0.022824349,-0.018078603,-0.011156572,-0.02979552
D8ERTD738E,-0.058446124,-0.053585123,-0.0037126339,6.3100605,-0.07807622,-0.114506334,4.924966,4.28576,-0.09683243,4.693266,-0.046633422,-0.10002066,-0.06079377,-0.048357222,-0.03299857,-0.08082649
SPP1,-0.032998092,-0.030968428,-0.0013275131,4.0177507,-0.04041122,-0.061418366,2.5511405,1.9283581,-0.05449013,2.9969127,-0.02258524,-0.055905726,-0.031258862,-0.026256833,-0.016966056,-0.042562027
CD200R1,-0.060986113,-0.054792576,-0.0066131535,6.619892,-0.07458013,-0.11036592,5.1108623,4.211428,-0.10118703,4.79369,-0.051650666,-0.10036446,-0.059327073,-0.04945248,-0.031039394,-0.08043638
FAU,-0.06266807,-0.056300968,-0.0069550923,6.774116,-0.07754657,-0.11500095,5.3289914,4.3164444,-0.103679165,4.954047,-0.05496499,-0.10244061,-0.06048062,-0.05103984,-0.03116161,-0.08324333
MTA2,-0.025069403,-0.022642357,0.014366902,2.8763497,-0.02866594,-0.04470251,1.8116808,1.0863955,-0.03908951,2.314997,-0.013713455,-0.039428875,-0.022820268,-0.018067552,-0.011163939,-0.02976526
EIF3I,-0.02472451,-0.022264428,0.017359927,2.8345237,-0.028236756,-0.0440854,1.7855568,1.0563737,-0.038517337,2.2890782,-0.013364904,-0.038754456,-0.022479415,-0.017745707,-0.010968195,-0.029342968
NSD1,-0.060439285,-0.05457426,-0.006067459,6.717229,-0.07503265,-0.11076282,5.086643,4.1861434,-0.10078193,4.9190917,-0.051726777,-0.09995662,-0.058194723,-0.04956157,-0.031248733,-0.08064612
LDB1,-0.04079623,-0.035473574,-0.0006808836,4.614236,-0.049883284,-0.072710894,3.1519434,2.5857742,-0.06585706,3.6796227,-0.030687716,-0.0681911,-0.038040567,-0.03215152,-0.0231507,-0.0536948
GM11428,-0.060439285,-0.05457426,-0.006067459,6.717229,-0.07503265,-0.11076282,5.086643,4.1861434,-0.10078193,4.9190917,-0.051726777,-0.09995662,-0.058194723,-0.04956157,-0.031248733,-0.08064612
TWF1,-0.02472451,-0.022264428,0.017359927,2.8345237,-0.028236756,-0.0440854,1.7855568,1.0563737,-0.038517337,2.2890782,-0.013364904,-0.038754456,-0.022479415,-0.017745707,-0.010968195,-0.029342968
MATR3,-0.024733735,-0.022273883,0.017293833,2.835548,-0.028247995,-0.044100698,1.7861962,1.0571487,-0.038531568,2.2897768,-0.013373678,-0.038771734,-0.022488382,-0.017753974,-0.010973518,-0.029353801
SHFM1,-0.029950578,-0.028118657,-0.00083261984,3.6672769,-0.03640952,-0.05544679,2.2943525,1.6557342,-0.049534455,2.7844498,-0.019664748,-0.05008868,-0.028007153,-0.023604387,-0.014928759,-0.038365804
SSR4,-0.053303428,-0.054772843,-0.001370554,5.9881296,-0.077021115,-0.09910551,5.3498955,4.59878,-0.09660579,4.1803045,-0.04621939,-0.089498095,-0.049628843,-0.040484514,-0.037956662,-0.07542723
STAT3,-0.025551679,-0.023208765,0.0033210441,2.945038,-0.029281558,-0.045593925,1.8555913,1.1323341,-0.039923064,2.3481598,-0.014170555,-0.040411696,-0.023357844,-0.018525267,-0.011586727,-0.03041815
H1F0,-0.02944702,-0.03029616,-0.0061662057,3.8552487,-0.036502443,-0.053668045,2.7753685,2.0468876,-0.045721006,2.2654183,-0.023221161,-0.052224673,-0.03351489,-0.017144496,-0.017395549,-0.038868167
PGK1,-0.060439285,-0.05457426,-0.006067459,6.717229,-0.07503265,-0.11076282,5.086643,4.1861434,-0.10078193,4.9190917,-0.051726777,-0.09995662,-0.058194723,-0.04956157,-0.031248733,-0.08064612
RPS3,-0.0252742,-0.02288837,0.009762779,2.9068165,-0.028944911,-0.045123484,1.8308365,1.1064506,-0.039481364,2.329951,-0.01391855,-0.039875034,-0.023048434,-0.018284168,-0.011299935,-0.030067531
CHMP5,-0.062050335,-0.056206893,-0.006917488,6.838541,-0.07723918,-0.11478134,5.3186846,4.3096023,-0.10333941,4.925579,-0.054914683,-0.10255456,-0.05980519,-0.05117258,-0.031153077,-0.08309097
PSMB1,-0.02477963,-0.02234412,0.017017223,2.843266,-0.028314114,-0.044208407,1.7914132,1.0618395,-0.038610365,2.2948515,-0.013437967,-0.038882747,-0.022551412,-0.017807232,-0.010992555,-0.02940508
HNRNPK,-0.024970561,-0.022544907,0.016300417,2.8643484,-0.028533991,-0.044516496,1.8051318,1.0776027,-0.038914055,2.305901,-0.013608017,-0.03923452,-0.022715826,-0.01796959,-0.011120485,-0.029626762
CNOT6,-0.05965853,-0.053049807,-0.0058779507,6.541864,-0.0740281,-0.10801647,4.9933014,4.1070757,-0.09887055,4.882291,-0.050056342,-0.09707645,-0.057119973,-0.048366874,-0.031146297,-0.07935908
HSP90AB1,-0.02512292,-0.022721581,0.012085192,2.8826191,-0.028721217,-0.044816516,1.8153182,1.0901517,-0.039186724,2.3213124,-0.01377824,-0.039552562,-0.022879928,-0.018112376,-0.011205096,-0.029841963
