,0,1,2,3,4,5,6,7,8,9,10,11,12,13,14,15
IL1B,5.3766165,3.400903,-0.021963239,-0.04652032,5.61333,6.932238,-0.053155806,-0.033818204,8.844777,-0.056348566,3.046654,6.5731354,-0.022110088,1.8185415,4.3118725,5.669152
CLEC4E,8.626296,5.50281,-0.03484434,-0.072810546,9.353286,11.832577,-0.08527899,-0.055058718,14.679495,-0.099196546,4.903645,10.815441,-0.035790905,3.1559234,7.381932,9.145433
DBI,7.33747,3.6838129,-0.0247303,-0.0600853,8.150834,11.390384,-0.06652528,-0.05275574,11.896996,-0.08557306,4.7377076,9.71944,-0.028347353,2.226919,5.36626,8.869255
RBL2,5.4039664,3.419576,-0.02207821,-0.04671334,5.6448326,6.9707503,-0.053413555,-0.033978418,8.89282,-0.056673687,3.0618033,6.607467,-0.022230923,1.8268473,4.335637,5.699659
EGR1,5.457347,3.4580085,-0.02230694,-0.04710689,5.705619,7.0499997,-0.053905677,-0.03428527,8.989055,-0.05731673,3.0881126,6.67778,-0.0224935,1.8466675,4.382878,5.760656
CLEC4B1,8.626012,5.5039487,-0.034842856,-0.07280717,9.35372,11.833572,-0.08526676,-0.05505821,14.678625,-0.09918658,4.903224,10.81621,-0.035788417,3.1554086,7.382049,9.145373
SQSTM1,6.999173,4.446765,-0.028760744,-0.058721922,7.445704,9.288265,-0.06833347,-0.043174796,11.79361,-0.07713076,3.8690803,8.711855,-0.029429292,2.4609869,5.7977076,7.5111904
3110003A17RIK,8.626012,5.5039487,-0.034842856,-0.07280717,9.35372,11.833572,-0.08526676,-0.05505821,14.678625,-0.09918658,4.903224,10.81621,-0.035788417,3.1554086,7.382049,9.145373
SERTAD2,7.975583,4.818888,-0.034355782,-0.06368188,9.010346,12.090865,-0.076803,-0.04607284,15.007797,-0.09789951,5.356116,9.950319,-0.035739537,2.5353715,7.7260823,8.943805
GNG5,6.9364505,4.392876,-0.028414613,-0.057911526,7.360707,9.193798,-0.067751944,-0.042699568,11.670859,-0.07629893,3.843375,8.606186,-0.029075421,2.4329636,5.7320776,7.4442496
RLIM,5.3737698,3.3986723,-0.021955349,-0.046504956,5.610749,6.929158,-0.0531256,-0.033801064,8.841597,-0.056324396,3.0458732,6.5706506,-0.022095231,1.8170471,4.310042,5.666712
ARL8B,8.626012,5.5039487,-0.034842856,-0.07280717,9.35372,11.833572,-0.08526676,-0.05505821,14.678625,-0.09918658,4.903224,10.81621,-0.035788417,3.1554086,7.382049,9.145373
SP1,5.403128,3.4202344,-0.022061488,-0.04671748,5.643929,6.970371,-0.05339768,-0.03396741,8.892119,-0.05666858,3.060405,6.6072984,-0.022236751,1.8282406,4.334641,5.699648
LAMP2,7.7490807,4.9993877,-0.03213521,-0.06451731,8.150162,10.853681,-0.07264818,-0.04119511,15.422693,-0.1028364,3.7819033,10.056543,-0.031673808,3.8109243,7.0899386,9.073757
PA2G4,5.4264107,3.438249,-0.022180876,-0.046909455,5.671734,7.003733,-0.053646777,-0.034118686,8.934962,-0.05695458,3.0708652,6.6401935,-0.022335973,1.8367081,4.3550544,5.7258105
MED1,5.4128175,3.426409,-0.022099676,-0.046790227,5.655092,6.983548,-0.0534846,-0.034034025,8.907711,-0.056773193,3.066947,6.618809,-0.022272805,1.8300723,4.3416643,5.710423
TUBA1B,5.3589005,3.388954,-0.021893322,-0.046405893,5.594024,6.9089437,-0.05298719,-0.03371792,8.816246,-0.056149796,3.0380342,6.552708,-0.022033446,1.8123809,4.296945,5.6507306
SUPT5H,8.626012,5.5039487,-0.034842856,-0.07280717,9.35372,11.833572,-0.08526676,-0.05505821,14.678625,-0.09918658,4.903224,10.81621,-0.035788417,3.1554086,7.382049,9.145373
SH3BGRL3,8.626012,5.5039487,-0.034842856,-0.07280717,9.35372,11.833572,-0.08526676,-0.05505821,14.678625,-0.09918658,4.903224,10.81621,-0.035788417,3.1554086,7.382049,9.145373
ZEB2,6.7371583,4.2762537,-0.027469492,-0.056439847,7.144406,8.894838,-0.06561334,-0.0415932,11.301052,-0.073418796,3.7584894,8.31629,-0.0282861,2.3296225,5.518696,7.2321496
HN1,7.780422,4.452273,-0.02295194,-0.0589949,9.047934,9.955496,-0.08404944,-0.050704334,13.805225,-0.09106488,4.284262,10.235628,-0.023395156,2.1662743,5.7133865,7.346885
CD81,8.190175,5.265244,-0.03226993,-0.06980272,8.896368,11.247394,-0.08213551,-0.053537663,13.834059,-0.09436153,4.7513604,10.239846,-0.03341676,3.0206518,6.9827657,8.59632
GYG,8.626012,5.5039487,-0.034842856,-0.07280717,9.35372,11.833572,-0.08526676,-0.05505821,14.678625,-0.09918658,4.903224,10.81621,-0.035788417,3.1554086,7.382049,9.145373
OAZ1,8.626012,5.5039487,-0.034842856,-0.07280717,9.35372,11.833572,-0.08526676,-0.05505821,14.678625,-0.09918658,4.903224,10.81621,-0.035788417,3.1554086,7.382049,9.145373
TLR2,6.9635167,4.410637,-0.028523803,-0.058107633,7.395986,9.230493,-0.06800951,-0.0428259,11.719528,-0.076664865,3.8582113,8.642481,-0.029149294,2.4428518,5.755425,7.4755325
ARID1B,5.388245,3.4089143,-0.022012603,-0.046591353,5.6265182,6.947828,-0.05326563,-0.033886064,8.863506,-0.056470897,3.0530393,6.586268,-0.0221583,1.8216128,4.3213544,5.6812053
TMBIM4,8.626012,5.5039487,-0.034842856,-0.07280717,9.35372,11.833572,-0.08526676,-0.05505821,14.678625,-0.09918658,4.903224,10.81621,-0.035788417,3.1554086,7.382049,9.145373
SNAPC5,5.2592916,3.2286289,-0.022635033,-0.048234932,5.5147557,6.873926,-0.05128655,-0.03262734,8.966547,-0.055218074,2.975593,6.683721,-0.020122657,2.0626025,4.302924,5.620747
CLEC4D,8.626012,5.5039487,-0.034842856,-0.07280717,9.35372,11.833572,-0.08526676,-0.05505821,14.678625,-0.09918658,4.903224,10.81621,-0.035788417,3.1554086,7.382049,9.145373
USMG5,7.7819557,4.451579,-0.02293929,-0.058974504,9.049072,9.954162,-0.08401861,-0.050679974,13.803247,-0.09106324,4.286563,10.23431,-0.02342182,2.1685977,5.71595,7.348536
TIAL1,5.4216237,3.434592,-0.02214006,-0.046889354,5.6654463,6.9975,-0.053582456,-0.034087166,8.926378,-0.056904417,3.0692613,6.6339,-0.022332551,1.8360155,4.351104,5.721921
S100A1,7.9239826,5.390559,-0.03584023,-0.056769412,8.478822,11.130815,-0.08091535,-0.03957905,13.577349,-0.0867124,4.0811434,9.820619,-0.043443408,3.810237,6.3934007,8.934469
TSPO,8.626012,5.5039487,-0.034842856,-0.07280717,9.35372,11.833572,-0.08526676,-0.05505821,14.678625,-0.09918658,4.903224,10.81621,-0.035788417,3.1554086,7.382049,9.145373
PPIB,8.626012,5.5039487,-0.034842856,-0.07280717,9.35372,11.833572,-0.08526676,-0.05505821,14.678625,-0.09918658,4.903224,10.81621,-0.035788417,3.1554086,7.382049,9.145373
HDAC1,5.4249797,3.4376743,-0.022148434,-0.04689231,5.6699104,7.0018506,-0.053596396,-0.034109917,8.928988,-0.056914244,3.0733886,6.6364703,-0.022331858,1.834238,4.351934,5.7240148
RGS1,8.626012,5.5039487,-0.034842856,-0.07280717,9.35372,11.833572,-0.08526676,-0.05505821,14.678625,-0.09918658,4.903224,10.81621,-0.035788417,3.1554086,7.382049,9.145373
RPL23A,8.023008,5.1433954,-0.031351447,-0.068622276,8.70792,10.955783,-0.08061855,-0.052425664,13.379774,-0.09154832,4.6554885,10.022985,-0.032365233,2.958646,6.8431296,8.286092
FCER1G,8.626012,5.5039487,-0.034842856,-0.07280717,9.35372,11.833572,-0.08526676,-0.05505821,14.678625,-0.09918658,4.903224,10.81621,-0.035788417,3.1554086,7.382049,9.145373
ATP5F1,8.544562,5.414342,-0.03402959,-0.07247638,9.213778,11.528841,-0.08347342,-0.054317534,14.3698,-0.09660525,4.835321,10.611336,-0.03522613,3.0368223,7.1193776,9.07008
RPL23,5.7395277,3.6610522,-0.02343784,-0.04957044,6.0361333,7.4650393,-0.056489877,-0.03604059,9.523997,-0.06098845,3.22669,7.0806932,-0.02384421,1.9564822,4.6381803,6.11669
GABARAP,8.626012,5.5039487,-0.034842856,-0.07280717,9.35372,11.833572,-0.08526676,-0.05505821,14.678625,-0.09918658,4.903224,10.81621,-0.035788417,3.1554086,7.382049,9.145373
DNAJC2,7.113628,4.50929,-0.02957018,-0.05965741,7.576117,9.493036,-0.06950634,-0.044062793,12.0603695,-0.07866728,3.944665,8.861301,-0.029910874,2.4883056,5.8983493,7.6676536
JUP,7.5915313,4.804203,-0.03164327,-0.06286429,8.140812,10.205569,-0.07398847,-0.046363495,12.968733,-0.085351005,4.1913953,9.509325,-0.03175564,2.7242181,6.430968,8.1890955
RBBP7,5.4137444,3.4278045,-0.022103595,-0.04680266,5.656247,6.985126,-0.05349577,-0.03403763,8.909951,-0.056789964,3.0668676,6.6208735,-0.022280505,1.8311188,4.343059,5.7116156
GLIPR1,8.626012,5.5039487,-0.034842856,-0.07280717,9.35372,11.833572,-0.08526676,-0.05505821,14.678625,-0.09918658,4.903224,10.81621,-0.035788417,3.1554086,7.382049,9.145373
CSDE1,8.626012,5.5039487,-0.034842856,-0.07280717,9.35372,11.833572,-0.08526676,-0.05505821,14.678625,-0.09918658,4.903224,10.81621,-0.035788417,3.1554086,7.382049,9.145373
BCAP31,8.626012,5.5039487,-0.034842856,-0.07280717,9.35372,11.833572,-0.08526676,-0.05505821,14.678625,-0.09918658,4.903224,10.81621,-0.035788417,3.1554086,7.382049,9.145373
ZMYM2,8.626012,5.5039487,-0.034842856,-0.07280717,9.35372,11.833572,-0.08526676,-0.05505821,14.678625,-0.09918658,4.903224,10.81621,-0.035788417,3.1554086,7.382049,9.145373
POLR2D,5.459423,3.6125398,-0.013416397,-0.03446082,5.508012,5.6359687,-0.039988182,-0.01928219,8.458927,-0.05050854,2.4559016,5.208267,-0.018222896,2.2473774,3.9434686,5.288258
CYBB,7.2096663,3.8034782,-0.036727056,-0.04868418,6.7292223,10.182508,-0.070169516,-0.043482106,12.472316,-0.08007441,3.532737,8.192799,-0.03665853,2.1575463,6.995407,7.0966134
RPLP0,5.3589005,3.388954,-0.021893322,-0.046405893,5.594024,6.9089437,-0.05298719,-0.03371792,8.816246,-0.056149796,3.0380342,6.552708,-0.022033446,1.8123809,4.296945,5.6507306
NDUFA7,8.626012,5.5039487,-0.034842856,-0.07280717,9.35372,11.833572,-0.08526676,-0.05505821,14.678625,-0.09918658,4.903224,10.81621,-0.035788417,3.1554086,7.382049,9.145373
CCL6,8.626012,5.5039487,-0.034842856,-0.07280717,9.35372,11.833572,-0.08526676,-0.05505821,14.678625,-0.09918658,4.903224,10.81621,-0.035788417,3.1554086,7.382049,9.145373
CTSD,7.453488,4.71894,-0.03044918,-0.06200156,7.960191,9.909215,-0.07252974,-0.045688502,12.561168,-0.082752205,4.1135707,9.263703,-0.031049712,2.629213,6.220413,7.956556
CD302,6.6780524,4.7824054,-0.02794179,-0.06280689,7.126789,11.226705,-0.07603103,-0.055026565,11.783936,-0.088425875,4.7123237,8.230457,-0.032670207,3.8482387,5.70268,6.9943414
CCL3,6.9713836,4.636981,-0.031727113,-0.05011547,7.3376403,9.517863,-0.06980824,-0.034326117,11.912218,-0.07451361,3.5244896,8.590418,-0.036964238,3.1697547,5.5840216,7.8684783
POLR2I,5.397649,3.4165964,-0.022046713,-0.046684723,5.6383276,6.9633756,-0.053350832,-0.033938747,8.883956,-0.056612797,3.0579927,6.601954,-0.022209877,1.8260716,4.330345,5.6942
RPS15,5.4671965,3.4699566,-0.022333706,-0.04730813,5.719153,7.06517,-0.054026935,-0.034379017,9.0146675,-0.057498887,3.090453,6.701552,-0.022566047,1.8555391,4.391854,5.7800984
IRF5,7.2925706,4.6008077,-0.029908039,-0.06081113,7.7762485,9.710445,-0.07101968,-0.044694796,12.324124,-0.081035,4.021104,9.091764,-0.030314252,2.5922828,6.0840096,7.805004
H2-DMB1,8.392514,6.0574183,-0.026921328,-0.07929156,7.794147,10.214489,-0.08199027,-0.060817055,13.328812,-0.0869624,4.79229,10.438543,-0.049484115,3.258443,8.055496,8.786636
SLFN2,8.626012,5.5039487,-0.034842856,-0.07280717,9.35372,11.833572,-0.08526676,-0.05505821,14.678625,-0.09918658,4.903224,10.81621,-0.035788417,3.1554086,7.382049,9.145373
TRF,8.288997,5.29851,-0.03291832,-0.0705621,8.971779,11.388366,-0.08316099,-0.054032195,13.978619,-0.095283344,4.764127,10.377198,-0.034049768,3.0650961,7.1208057,8.635874
NDUFA12,8.626012,5.5039487,-0.034842856,-0.07280717,9.35372,11.833572,-0.08526676,-0.05505821,14.678625,-0.09918658,4.903224,10.81621,-0.035788417,3.1554086,7.382049,9.145373
1500032L24RIK,8.192119,5.363853,-0.03652394,-0.07644166,8.914454,11.511181,-0.08341193,-0.05416967,14.360939,-0.09707735,4.258616,10.903496,-0.03721272,3.203068,7.3346896,8.663848
APEX1,5.376704,3.4014194,-0.021968042,-0.04652923,5.613798,6.932385,-0.05316025,-0.033826157,8.845136,-0.056347426,3.0472078,6.5737414,-0.022108827,1.8179871,4.311802,5.669542
NCOA4,6.816419,4.7307296,-0.02036296,-0.05891554,7.596162,10.756974,-0.07187093,-0.04698512,11.552578,-0.08234308,4.7768955,8.160513,-0.033456773,3.6311102,6.0668144,6.606996
HDGF,8.626012,5.5039487,-0.034842856,-0.07280717,9.35372,11.833572,-0.08526676,-0.05505821,14.678625,-0.09918658,4.903224,10.81621,-0.035788417,3.1554086,7.382049,9.145373
SRSF9,5.398879,3.4177434,-0.022052102,-0.046700068,5.6396823,6.96461,-0.053369395,-0.033950593,8.8857765,-0.05662428,3.0583322,6.6034527,-0.022218145,1.8266779,4.330967,5.695649
ANXA3,8.626012,5.5039487,-0.034842856,-0.07280717,9.35372,11.833572,-0.08526676,-0.05505821,14.678625,-0.09918658,4.903224,10.81621,-0.035788417,3.1554086,7.382049,9.145373
APRT,5.437773,3.4393938,-0.022179784,-0.046938185,5.6771097,7.020505,-0.05368298,-0.03411908,8.953524,-0.057104774,3.072675,6.6454144,-0.022423549,1.8468759,4.3688593,5.7352376
RPL7,8.098029,5.1922626,-0.03169162,-0.06931323,8.787436,11.064818,-0.0812616,-0.052864455,13.530786,-0.09255049,4.6873074,10.128095,-0.0328121,2.9828894,6.9140887,8.388349
MMP12,8.626012,5.5039487,-0.034842856,-0.07280717,9.35372,11.833572,-0.08526676,-0.05505821,14.678625,-0.09918658,4.903224,10.81621,-0.035788417,3.1554086,7.382049,9.145373
UBA52,8.441167,5.384859,-0.03414538,-0.07051348,9.061348,11.520116,-0.08361129,-0.053422507,14.391187,-0.09708801,4.7286296,10.503511,-0.03529453,3.1113408,7.246468,8.949118
RPL26,6.3935447,4.073993,-0.026156336,-0.05389665,6.7452374,8.410535,-0.06244643,-0.039534822,10.6872015,-0.0692146,3.556337,7.891669,-0.026802626,2.2310023,5.256781,6.8245807
TNFSF9,8.626012,5.5039487,-0.034842856,-0.07280717,9.35372,11.833572,-0.08526676,-0.05505821,14.678625,-0.09918658,4.903224,10.81621,-0.035788417,3.1554086,7.382049,9.145373
COX5A,8.626012,5.5039487,-0.034842856,-0.07280717,9.35372,11.833572,-0.08526676,-0.05505821,14.678625,-0.09918658,4.903224,10.81621,-0.035788417,3.1554086,7.382049,9.145373
SRGN,8.5699,5.527158,-0.033647675,-0.07704818,9.110727,11.644546,-0.088168345,-0.050901685,13.848145,-0.102190845,4.3219914,11.179722,-0.030816736,3.611826,7.4049287,8.263582
GNGT2,6.941896,4.391225,-0.028429786,-0.057824705,7.360275,9.187915,-0.06768904,-0.04272249,11.670426,-0.07628853,3.841995,8.604483,-0.02909985,2.4322135,5.733428,7.4375978
SNRPD1,5.386525,3.4085233,-0.021999395,-0.046600875,5.625702,6.947885,-0.053240247,-0.03387144,8.864375,-0.056479163,3.052341,6.587692,-0.02215735,1.8220036,4.3207,5.6816745
DNMT3A,4.957933,3.174026,-0.02072204,-0.04246985,5.0244575,6.487386,-0.04676107,-0.026522918,9.381979,-0.05920471,2.4599414,6.2437873,-0.020144772,2.2073858,4.206812,5.7088842
ZFP36L1,5.3816633,3.4049742,-0.021992464,-0.04655978,5.619239,6.9392257,-0.053212352,-0.033856545,8.853676,-0.056403063,3.0498238,6.579622,-0.022133673,1.8195019,4.3160133,5.674714
CAPNS1,8.626012,5.5039487,-0.034842856,-0.07280717,9.35372,11.833572,-0.08526676,-0.05505821,14.678625,-0.09918658,4.903224,10.81621,-0.035788417,3.1554086,7.382049,9.145373
CSTB,8.626012,5.5039487,-0.034842856,-0.07280717,9.35372,11.833572,-0.08526676,-0.05505821,14.678625,-0.09918658,4.903224,10.81621,-0.035788417,3.1554086,7.382049,9.145373
PRDX5,8.626012,5.5039487,-0.034842856,-0.07280717,9.35372,11.833572,-0.08526676,-0.05505821,14.678625,-0.09918658,4.903224,10.81621,-0.035788417,3.1554086,7.382049,9.145373
IL1A,6.8768835,4.904384,-0.023036627,-0.06411278,6.329176,8.161762,-0.06650449,-0.047854125,10.901296,-0.068793744,3.8119109,8.514626,-0.040052414,2.5762556,6.369496,7.311873
HINT1,5.475476,3.4747825,-0.022380592,-0.04732118,5.7279024,7.076374,-0.05408846,-0.034405656,9.027119,-0.057578467,3.095067,6.708734,-0.022587294,1.8574269,4.3994474,5.786406
ACTR2,5.3626323,3.3915033,-0.021908822,-0.046429116,5.5981894,6.913719,-0.05302355,-0.03373938,8.822133,-0.056190293,3.0399566,6.5569615,-0.02204793,1.8135283,4.299983,5.6545706
AIP,8.626012,5.5039487,-0.034842856,-0.07280717,9.35372,11.833572,-0.08526676,-0.05505821,14.678625,-0.09918658,4.903224,10.81621,-0.035788417,3.1554086,7.382049,9.145373
UQCRQ,8.627515,5.50422,-0.03482687,-0.07279669,9.353176,11.833028,-0.08525271,-0.0550569,14.678503,-0.09919522,4.902426,10.816052,-0.035786305,3.1566586,7.3820033,9.144596
TNFAIP3,5.374381,3.3997386,-0.021959253,-0.04650627,5.611147,6.929018,-0.05314076,-0.033810027,8.840914,-0.056318793,3.0459313,6.570543,-0.022097956,1.8172963,4.3097115,5.6666007
S100A4,8.626012,5.5039487,-0.034842856,-0.07280717,9.35372,11.833572,-0.08526676,-0.05505821,14.678625,-0.09918658,4.903224,10.81621,-0.035788417,3.1554086,7.382049,9.145373
ETS2,5.393858,3.413219,-0.022020007,-0.04662809,5.630853,6.9535,-0.053303983,-0.03390666,8.872995,-0.056539364,3.056422,6.592463,-0.022195736,1.8226259,4.325157,5.6857824
MYEF2,8.624248,5.501699,-0.034826525,-0.072818644,9.354628,11.833687,-0.08526308,-0.055064086,14.677193,-0.0991614,4.901834,10.816259,-0.035801988,3.156992,7.3843527,9.145466
CDC42,6.897461,4.3800206,-0.028251208,-0.05780736,7.322824,9.132717,-0.067357905,-0.042537373,11.594349,-0.07573769,3.8190184,8.560028,-0.028995542,2.4114518,5.692638,7.400907
NAA20,8.626296,5.50281,-0.03484434,-0.072810546,9.353286,11.832577,-0.08527899,-0.055058718,14.679495,-0.099196546,4.903645,10.815441,-0.035790905,3.1559234,7.381932,9.145433
RAB32,8.626012,5.5039487,-0.034842856,-0.07280717,9.35372,11.833572,-0.08526676,-0.05505821,14.678625,-0.09918658,4.903224,10.81621,-0.035788417,3.1554086,7.382049,9.145373
GTF2A1,5.410113,3.4247477,-0.022090206,-0.046774283,5.6518574,6.980493,-0.053463496,-0.034011222,8.905033,-0.05675684,3.064346,6.6165257,-0.02226919,1.8307316,4.340732,5.707872
PCBD2,8.626012,5.5039487,-0.034842856,-0.07280717,9.35372,11.833572,-0.08526676,-0.05505821,14.678625,-0.09918658,4.903224,10.81621,-0.035788417,3.1554086,7.382049,9.145373
TAGLN2,8.488465,4.474051,-0.031031393,-0.07050896,9.415972,11.629784,-0.07048966,-0.054683413,13.252035,-0.08938859,5.3713994,10.931713,-0.02947907,2.087678,6.378062,8.88986
PSMD14,5.390712,3.4112303,-0.022027377,-0.04661276,5.6294465,6.9512405,-0.05329682,-0.033904716,8.868222,-0.05650097,3.054542,6.589901,-0.022172613,1.8226582,4.3234677,5.6842103
GM15450,8.626012,5.5039487,-0.034842856,-0.07280717,9.35372,11.833572,-0.08526676,-0.05505821,14.678625,-0.09918658,4.903224,10.81621,-0.035788417,3.1554086,7.382049,9.145373
ELF2,7.450296,4.7185745,-0.031178636,-0.062410444,7.9858103,10.00794,-0.07279336,-0.04598141,12.69018,-0.08308936,4.1196666,9.315086,-0.031466115,2.6021848,6.2414575,8.027494
NDUFB7,8.627515,5.50422,-0.03482687,-0.07279669,9.353176,11.833028,-0.08525271,-0.0550569,14.678503,-0.09919522,4.902426,10.816052,-0.035786305,3.1566586,7.3820033,9.144596
ID2,6.9748087,4.408744,-0.028640535,-0.058223493,7.405547,9.25006,-0.06810391,-0.042897467,11.742193,-0.07678035,3.8609107,8.660655,-0.029181037,2.4448345,5.7655244,7.4868445
BOLA2,8.626012,5.5039487,-0.034842856,-0.07280717,9.35372,11.833572,-0.08526676,-0.05505821,14.678625,-0.09918658,4.903224,10.81621,-0.035788417,3.1554086,7.382049,9.145373
H2AFV,5.4321685,3.4427633,-0.022181608,-0.046972435,5.678018,7.0128617,-0.05367462,-0.03415305,8.944495,-0.057026614,3.0755932,6.6480246,-0.022375714,1.8390652,4.3597913,5.7338324
CCL4,8.215288,5.225769,-0.033700977,-0.068447,8.836276,11.098767,-0.08030741,-0.051145926,13.980476,-0.09305804,4.5755944,10.241413,-0.034470968,2.9316475,6.984726,8.758424
SDC4,8.626012,5.5039487,-0.034842856,-0.07280717,9.35372,11.833572,-0.08526676,-0.05505821,14.678625,-0.09918658,4.903224,10.81621,-0.035788417,3.1554086,7.382049,9.145373
CD9,7.4090796,4.289492,-0.021269783,-0.05697905,8.612776,9.503645,-0.08095432,-0.04948286,13.025696,-0.08685715,4.180012,9.699481,-0.021992909,2.1060896,5.439558,6.9302325
SEC11A,5.3586674,3.3887775,-0.02189239,-0.046404127,5.5937457,6.9086156,-0.052985024,-0.033716675,8.815824,-0.056146972,3.037906,6.5524087,-0.022032285,1.8122915,4.296741,5.650454
ATP6AP2,4.9345937,3.5762677,-0.018985445,-0.052295502,4.482075,5.848161,-0.04999837,-0.036065534,7.8976254,-0.048368327,2.529356,6.4190717,-0.030094089,1.898897,4.6110845,5.1284757
COPS5,4.9273105,3.1847703,-0.026103957,-0.047342055,4.8989277,6.587142,-0.053647064,-0.038680855,8.232887,-0.055499654,2.8232868,6.181618,-0.018830862,1.6494253,3.6665022,5.4971704
SSRP1,5.413208,3.427996,-0.022108035,-0.04680675,5.65581,6.9845643,-0.053501938,-0.034034494,8.91042,-0.056795243,3.0656996,6.621587,-0.022282382,1.8319304,4.343595,5.711533
LITAF,8.626012,5.5039487,-0.034842856,-0.07280717,9.35372,11.833572,-0.08526676,-0.05505821,14.678625,-0.09918658,4.903224,10.81621,-0.035788417,3.1554086,7.382049,9.145373
GTF2E2,5.4135594,3.4270513,-0.022105101,-0.046800192,5.6556153,6.9852905,-0.053497847,-0.034031596,8.911159,-0.056799207,3.0658925,6.620813,-0.022286154,1.832176,4.3438654,5.711759
ANXA1,8.624248,5.501699,-0.034826525,-0.072818644,9.354628,11.833687,-0.08526308,-0.055064086,14.677193,-0.0991614,4.901834,10.816259,-0.035801988,3.156992,7.3843527,9.145466
TAF6,5.410979,3.4257944,-0.022095079,-0.046782367,5.6528845,6.9819016,-0.053475507,-0.03401587,8.906721,-0.056768913,3.0644886,6.6180243,-0.02227606,1.8314081,4.341725,5.7088056
CFP,7.4538136,4.71913,-0.030450745,-0.062004082,7.9605837,9.909729,-0.072533,-0.04569056,12.561788,-0.08275649,4.113773,9.264111,-0.03105102,2.6293232,6.220718,7.9569063
ARL6IP5,8.626012,5.5039487,-0.034842856,-0.07280717,9.35372,11.833572,-0.08526676,-0.05505821,14.678625,-0.09918658,4.903224,10.81621,-0.035788417,3.1554086,7.382049,9.145373
EMP3,8.626012,5.5039487,-0.034842856,-0.07280717,9.35372,11.833572,-0.08526676,-0.05505821,14.678625,-0.09918658,4.903224,10.81621,-0.035788417,3.1554086,7.382049,9.145373
CREBBP,4.6249576,3.4875655,-0.022711614,-0.049388602,5.4042854,6.225453,-0.04968541,-0.032590114,8.392941,-0.056374304,2.4053235,7.03237,-0.020294663,1.640171,4.5504603,5.570811
NFKBIZ,7.14986,4.537748,-0.029496372,-0.059800755,7.614949,9.530703,-0.06989526,-0.04398559,12.10816,-0.07933194,3.944788,8.920635,-0.030036794,2.540252,5.9615207,7.6844234
LILRB4,7.4750166,4.7137117,-0.028541755,-0.062383514,8.088582,11.594173,-0.08130238,-0.053130545,13.3235855,-0.09537105,4.2695327,9.603939,-0.0346567,3.2946494,6.370247,9.124768
RPL12,8.098029,5.1922626,-0.03169162,-0.06931323,8.787436,11.064818,-0.0812616,-0.052864455,13.530786,-0.09255049,4.6873074,10.128095,-0.0328121,2.9828894,6.9140887,8.388349
HSPA8,5.392348,3.4128976,-0.022026407,-0.04665182,5.6321006,6.955402,-0.053307146,-0.033911407,8.874425,-0.056547232,3.054737,6.5950646,-0.022188565,1.8244853,4.325592,5.6882286
SH3BGRL,8.626012,5.5039487,-0.034842856,-0.07280717,9.35372,11.833572,-0.08526676,-0.05505821,14.678625,-0.09918658,4.903224,10.81621,-0.035788417,3.1554086,7.382049,9.145373
HSBP1,7.1068854,4.015325,-0.021067312,-0.053140786,8.179813,8.839367,-0.07524922,-0.04419721,12.540161,-0.08081856,3.796663,9.306239,-0.021681327,1.924274,5.098061,6.785353
KLF13,8.626012,5.5039487,-0.034842856,-0.07280717,9.35372,11.833572,-0.08526676,-0.05505821,14.678625,-0.09918658,4.903224,10.81621,-0.035788417,3.1554086,7.382049,9.145373
ATPIF1,7.935079,5.086608,-0.030993057,-0.06783422,8.619562,10.832053,-0.07987579,-0.05193098,13.214798,-0.09040385,4.621298,9.904812,-0.03185777,2.9273565,6.7605014,8.173286
FAM96A,7.950824,5.1701493,-0.04051076,-0.07355748,8.291942,11.280305,-0.08550591,-0.06159452,13.736288,-0.097470865,4.568389,10.20263,-0.030918675,2.8959475,6.427674,8.848047
HAX1,8.054402,5.15992,-0.031856466,-0.06893774,8.77851,11.097844,-0.08145375,-0.05309711,13.592009,-0.09267856,4.742445,10.136846,-0.032409154,2.9528518,6.913527,8.366833
CXCL16,8.215288,5.225769,-0.033700977,-0.068447,8.836276,11.098767,-0.08030741,-0.051145926,13.980476,-0.09305804,4.5755944,10.241413,-0.034470968,2.9316475,6.984726,8.758424
HNRNPAB,5.359409,3.389308,-0.021895463,-0.046409186,5.594588,6.909596,-0.052992206,-0.03372093,8.817047,-0.05615527,3.0382955,6.553293,-0.022035446,1.8125404,4.2973614,5.6512465
FXYD5,8.626012,5.5039487,-0.034842856,-0.07280717,9.35372,11.833572,-0.08526676,-0.05505821,14.678625,-0.09918658,4.903224,10.81621,-0.035788417,3.1554086,7.382049,9.145373
MEF2A,5.374501,3.399409,-0.021955097,-0.04650535,5.610945,6.9293814,-0.053133804,-0.033805188,8.84136,-0.05632265,3.045552,6.570548,-0.022100646,1.8177887,4.310112,5.6668777
TYROBP,8.626012,5.5039487,-0.034842856,-0.07280717,9.35372,11.833572,-0.08526676,-0.05505821,14.678625,-0.09918658,4.903224,10.81621,-0.035788417,3.1554086,7.382049,9.145373
TMEM50A,8.624248,5.501699,-0.034826525,-0.072818644,9.354628,11.833687,-0.08526308,-0.055064086,14.677193,-0.0991614,4.901834,10.816259,-0.035801988,3.156992,7.3843527,9.145466
HPRT,8.627755,5.502991,-0.034867942,-0.07279186,9.356119,11.832783,-0.08524251,-0.05507698,14.677809,-0.0991627,4.9056673,10.81634,-0.035780504,3.1569023,7.3840027,9.144064
ZFX,8.626012,5.5039487,-0.034842856,-0.07280717,9.35372,11.833572,-0.08526676,-0.05505821,14.678625,-0.09918658,4.903224,10.81621,-0.035788417,3.1554086,7.382049,9.145373
POLR2A,5.4114547,3.4264185,-0.022102075,-0.046789203,5.6538744,6.9824424,-0.05348448,-0.03402104,8.907914,-0.056777846,3.0648127,6.6194925,-0.022275452,1.8311186,4.3422055,5.7097588
CNOT2,8.585124,5.4250846,-0.03465615,-0.07283915,9.330188,11.783041,-0.084394254,-0.055056445,14.5469885,-0.098407425,4.8895974,10.73897,-0.035232678,3.0739472,7.3030663,9.093374
SRRT,5.39033,3.411203,-0.022017827,-0.046633944,5.6296015,6.9524236,-0.053286113,-0.033897806,8.870738,-0.0565221,3.0535913,6.592071,-0.022179151,1.8238322,4.3239765,5.6857915
HIST1H2BC,8.626012,5.5039487,-0.034842856,-0.07280717,9.35372,11.833572,-0.08526676,-0.05505821,14.678625,-0.09918658,4.903224,10.81621,-0.035788417,3.1554086,7.382049,9.145373
HMGB1,5.408755,3.4238842,-0.022098958,-0.046745867,5.650194,6.9776025,-0.053465944,-0.03401051,8.899799,-0.056717746,3.06402,6.612684,-0.022258105,1.8289349,4.3385735,5.7049384
FOSB,5.2870994,2.796886,-0.026773568,-0.037490137,4.815818,7.2204165,-0.052211113,-0.032817762,8.875987,-0.055159032,2.6672285,5.882708,-0.026667975,1.471841,4.9366097,5.1095986
MLL3,8.627515,5.50422,-0.03482687,-0.07279669,9.353176,11.833028,-0.08525271,-0.0550569,14.678503,-0.09919522,4.902426,10.816052,-0.035786305,3.1566586,7.3820033,9.144596
EDF1,5.35955,3.3894026,-0.021896029,-0.046409417,5.594739,6.9097333,-0.052993655,-0.033721816,8.817193,-0.05615625,3.0383747,6.553387,-0.02203572,1.8125405,4.297444,5.6513557
PDPN,8.625734,5.5039735,-0.034834206,-0.07281508,9.353074,11.832537,-0.0852778,-0.055056497,14.677156,-0.09918912,4.902473,10.815428,-0.035775665,3.1545916,7.382117,9.144692
NFIL3,7.9656734,3.2679112,-0.037237458,-0.0536786,7.740355,11.609933,-0.066710144,-0.051680956,12.567188,-0.08343282,4.5861406,9.370332,-0.034768045,1.3984174,7.0898676,7.4713106
SKIL,5.5468106,3.528816,-0.022592166,-0.047806524,5.807601,7.1801963,-0.054655246,-0.034830563,9.138646,-0.058299303,3.1400962,6.793476,-0.022922592,1.8751347,4.4523196,5.855901
LPL,7.780422,4.452273,-0.02295194,-0.0589949,9.047934,9.955496,-0.08404944,-0.050704334,13.805225,-0.09106488,4.284262,10.235628,-0.023395156,2.1662743,5.7133865,7.346885
STAT6,5.3963456,3.4146903,-0.022048855,-0.046644796,5.6354556,6.9590454,-0.053347304,-0.033934414,8.877563,-0.056566197,3.0573516,6.595992,-0.022199107,1.824476,4.3283815,5.6902823
TUBA1A,8.498936,5.359165,-0.033719685,-0.072005376,9.255052,11.686128,-0.084437534,-0.054868042,14.394451,-0.09756624,4.916821,10.655246,-0.0343371,3.0604305,7.2007704,8.947674
POLR2G,5.383664,3.406073,-0.021996193,-0.0465828,5.621938,6.9431453,-0.05322422,-0.03385838,8.859377,-0.056446414,3.0502496,6.5837255,-0.022146193,1.8213825,4.318875,5.6782155
SMARCB1,7.6100874,4.9842124,-0.019019142,-0.047811925,8.016551,8.125625,-0.058973465,-0.033484083,10.533518,-0.065152854,3.8562036,7.283401,-0.02675885,2.4830413,5.38917,6.9360404
SNX2,8.626012,5.5039487,-0.034842856,-0.07280717,9.35372,11.833572,-0.08526676,-0.05505821,14.678625,-0.09918658,4.903224,10.81621,-0.035788417,3.1554086,7.382049,9.145373
SIRT2,8.626012,5.5039487,-0.034842856,-0.07280717,9.35372,11.833572,-0.08526676,-0.05505821,14.678625,-0.09918658,4.903224,10.81621,-0.035788417,3.1554086,7.382049,9.145373
ERH,5.7371817,3.6593664,-0.023428963,-0.049553927,6.0336304,7.4613557,-0.056469567,-0.036027856,9.519564,-0.060957234,3.2257206,7.077678,-0.02383067,1.9552996,4.6356845,6.1139197
NCOR1,5.433293,3.441011,-0.022191562,-0.046952877,5.6785617,7.014289,-0.05368148,-0.034147944,8.946638,-0.057043802,3.0761423,6.6474547,-0.022377694,1.8389246,4.3614883,5.734897
TRIM28,5.361976,3.390854,-0.02189838,-0.046419125,5.5967474,6.9121213,-0.053007286,-0.033732727,8.820324,-0.05618087,3.0391562,6.55565,-0.022043094,1.8135531,4.2990594,5.6531596
NDUFA4,8.626012,5.5039487,-0.034842856,-0.07280717,9.35372,11.833572,-0.08526676,-0.05505821,14.678625,-0.09918658,4.903224,10.81621,-0.035788417,3.1554086,7.382049,9.145373
RPL19,6.2465234,3.9813044,-0.025653604,-0.052593086,6.586571,8.204859,-0.061072383,-0.03851116,10.422234,-0.06741268,3.4846575,7.708299,-0.026063757,2.1703866,5.1472764,6.653157
ATP5G3,8.626325,5.504034,-0.03484219,-0.072805956,9.353368,11.833503,-0.085269764,-0.05505445,14.677954,-0.09918628,4.903005,10.815657,-0.03579295,3.1549728,7.3824506,9.146022
TCEB3,5.0713954,3.3707259,-0.022549434,-0.039128132,5.231977,6.6442456,-0.051390737,-0.026625687,8.37492,-0.050760277,2.669642,6.138887,-0.02593525,2.143848,3.86743,5.604769
RPL17,8.6231165,5.502285,-0.034819026,-0.07281858,9.3517065,11.835585,-0.08527917,-0.05507236,14.676014,-0.099159464,4.9011145,10.812441,-0.035802644,3.1566243,7.3843884,9.142631
BIN1,6.429165,4.086724,-0.026348501,-0.054034032,6.7897387,8.47487,-0.062724695,-0.03971459,10.765305,-0.06964159,3.587667,7.92123,-0.02684802,2.2257025,5.293239,6.842758
RFX7,8.626012,5.5039487,-0.034842856,-0.07280717,9.35372,11.833572,-0.08526676,-0.05505821,14.678625,-0.09918658,4.903224,10.81621,-0.035788417,3.1554086,7.382049,9.145373
LMO4,8.525267,5.3591366,-0.034053143,-0.07200503,9.23844,11.698648,-0.084263645,-0.054446526,14.433731,-0.09758108,4.864778,10.686371,-0.034994654,3.0931299,7.245209,8.97134
SMAD4,5.4340143,3.4440978,-0.022182742,-0.04695118,5.680228,7.015144,-0.053675156,-0.03416161,8.943822,-0.057014532,3.078429,6.647577,-0.022376461,1.8367528,4.3592973,5.733764
BTG2,4.887938,2.7735183,-0.014732651,-0.0381992,5.46479,5.81765,-0.052742027,-0.03132868,8.364544,-0.051726513,2.6815546,6.257346,-0.014582866,1.2163608,3.3068979,4.5931363
HHEX,5.363956,3.3920648,-0.02191078,-0.04643733,5.5992804,6.9158463,-0.05303112,-0.033743594,8.824566,-0.056209233,3.0401776,6.5584493,-0.022057686,1.8144563,4.3014793,5.6560597
CIC,8.626012,5.5039487,-0.034842856,-0.07280717,9.35372,11.833572,-0.08526676,-0.05505821,14.678625,-0.09918658,4.903224,10.81621,-0.035788417,3.1554086,7.382049,9.145373
RPL18A,5.7951856,4.327083,-0.03158698,-0.054924488,6.466561,7.5027194,-0.06628607,-0.044121657,9.83632,-0.057653375,3.6232653,7.3763366,-0.020546656,1.4328225,4.3603425,6.2473955
CTCFL,8.626012,5.5039487,-0.034842856,-0.07280717,9.35372,11.833572,-0.08526676,-0.05505821,14.678625,-0.09918658,4.903224,10.81621,-0.035788417,3.1554086,7.382049,9.145373
ELL2,5.4092226,3.4249043,-0.022081004,-0.046768997,5.6511006,6.9794474,-0.05344959,-0.034004193,8.903237,-0.05674243,3.0639963,6.615582,-0.022266384,1.830368,4.3394713,5.7068357
KDM6B,4.9294376,2.8026087,-0.014844784,-0.038509753,5.5169306,5.875409,-0.05314528,-0.03157031,8.444914,-0.05225961,2.7024128,6.3199477,-0.014734423,1.2278688,3.3381803,4.636158
RPL36AL,8.626012,5.5039487,-0.034842856,-0.07280717,9.35372,11.833572,-0.08526676,-0.05505821,14.678625,-0.09918658,4.903224,10.81621,-0.035788417,3.1554086,7.382049,9.145373
NFX1,8.626012,5.5039487,-0.034842856,-0.07280717,9.35372,11.833572,-0.08526676,-0.05505821,14.678625,-0.09918658,4.903224,10.81621,-0.035788417,3.1554086,7.382049,9.145373
MBD2,4.7572184,2.3598,-0.01642809,-0.04523841,4.982359,6.288098,-0.044947304,-0.03395984,7.2287107,-0.04956971,2.8712473,5.3036847,-0.01536371,1.082074,2.8858879,5.6533847
RPL13,5.392949,3.4116833,-0.022036254,-0.046632275,5.633059,6.956123,-0.053305488,-0.03390635,8.8754015,-0.056558482,3.0566313,6.594568,-0.022178646,1.823612,4.3274894,5.6888328
BATF3,8.286912,5.2109675,-0.034016225,-0.06863812,8.932638,11.230013,-0.08008401,-0.05022068,14.087755,-0.09404805,4.550792,10.36433,-0.034320377,3.050615,7.1098003,8.805989
ATP5B,8.626012,5.5039487,-0.034842856,-0.07280717,9.35372,11.833572,-0.08526676,-0.05505821,14.678625,-0.09918658,4.903224,10.81621,-0.035788417,3.1554086,7.382049,9.145373
LDHA,7.1914954,4.5594106,-0.029723577,-0.05999411,7.6777487,9.583109,-0.070271194,-0.044063073,12.189656,-0.07993934,3.9649498,8.991242,-0.03004708,2.5506198,5.9966617,7.743811
CD14,7.233402,5.1375413,-0.024029132,-0.06710888,6.651011,8.585743,-0.06964135,-0.050206643,11.46367,-0.07277226,4.0020432,8.948284,-0.04209072,2.7273438,6.7640266,7.6520057
RPL27,8.023008,5.1433954,-0.031351447,-0.068622276,8.70792,10.955783,-0.08061855,-0.052425664,13.379774,-0.09154832,4.6554885,10.022985,-0.032365233,2.958646,6.8431296,8.286092
MED8,5.392146,3.4128766,-0.022016887,-0.046631813,5.63199,6.955163,-0.05328913,-0.03390609,8.8721485,-0.056530673,3.0559971,6.5935445,-0.022178734,1.8230708,4.3243876,5.687115
AGAP3,8.626012,5.5039487,-0.034842856,-0.07280717,9.35372,11.833572,-0.08526676,-0.05505821,14.678625,-0.09918658,4.903224,10.81621,-0.035788417,3.1554086,7.382049,9.145373
ATP6V0D2,8.626012,5.5039487,-0.034842856,-0.07280717,9.35372,11.833572,-0.08526676,-0.05505821,14.678625,-0.09918658,4.903224,10.81621,-0.035788417,3.1554086,7.382049,9.145373
ATF4,5.390699,3.4107985,-0.022022711,-0.04661814,5.6292,6.9515147,-0.053289317,-0.033901922,8.868373,-0.056507744,3.0539916,6.590364,-0.02217219,1.8229941,4.3240385,5.6843276
CLEC4N,7.3725524,4.641392,-0.030470824,-0.061071727,7.8468266,9.857276,-0.07183912,-0.045066003,12.505821,-0.08217932,4.0642633,9.171366,-0.030741882,2.635316,6.1972594,7.8938756
DAD1,7.950824,5.1701493,-0.04051076,-0.07355748,8.291942,11.280305,-0.08550591,-0.06159452,13.736288,-0.097470865,4.568389,10.20263,-0.030918675,2.8959475,6.427674,8.848047
BCL2A1A,8.626012,5.5039487,-0.034842856,-0.07280717,9.35372,11.833572,-0.08526676,-0.05505821,14.678625,-0.09918658,4.903224,10.81621,-0.035788417,3.1554086,7.382049,9.145373
M6PR,7.664477,4.638237,-0.03257896,-0.061639983,8.637111,11.637333,-0.07510211,-0.045153864,14.302259,-0.09397215,5.198311,9.543886,-0.034065865,2.4674842,7.45824,8.44851
RPL41,6.2289248,3.972573,-0.025597142,-0.0525264,6.5709634,8.181077,-0.060895965,-0.03845388,10.395928,-0.06717762,3.4717655,7.691113,-0.026011564,2.1668942,5.1313124,6.6311164
RBM3,8.626012,5.5039487,-0.034842856,-0.07280717,9.35372,11.833572,-0.08526676,-0.05505821,14.678625,-0.09918658,4.903224,10.81621,-0.035788417,3.1554086,7.382049,9.145373
UQCR10,8.626012,5.5039487,-0.034842856,-0.07280717,9.35372,11.833572,-0.08526676,-0.05505821,14.678625,-0.09918658,4.903224,10.81621,-0.035788417,3.1554086,7.382049,9.145373
COPS2,5.411429,3.4269855,-0.022103706,-0.046800155,5.654037,6.982165,-0.05349075,-0.0340263,8.908102,-0.056777198,3.064439,6.619908,-0.022277057,1.8317955,4.3421426,5.7098126
PGAM1,7.3230124,5.5612407,-0.035595108,-0.07650433,8.894835,10.552135,-0.07875223,-0.052459817,13.765398,-0.097896576,3.8273485,11.399565,-0.03238827,2.8335152,7.6660447,8.862567
6720456B07RIK,8.626012,5.5039487,-0.034842856,-0.07280717,9.35372,11.833572,-0.08526676,-0.05505821,14.678625,-0.09918658,4.903224,10.81621,-0.035788417,3.1554086,7.382049,9.145373
LY86,7.3725524,4.641392,-0.030470824,-0.061071727,7.8468266,9.857276,-0.07183912,-0.045066003,12.505821,-0.08217932,4.0642633,9.171366,-0.030741882,2.635316,6.1972594,7.8938756
TRERF1,7.950824,5.1701493,-0.04051076,-0.07355748,8.291942,11.280305,-0.08550591,-0.06159452,13.736288,-0.097470865,4.568389,10.20263,-0.030918675,2.8959475,6.427674,8.848047
BTF3,6.492933,4.126478,-0.026438573,-0.05037695,7.0523767,8.131353,-0.06368752,-0.037674915,10.348024,-0.06879234,3.9434476,7.878795,-0.023165867,2.3305187,5.6391377,7.0604286
FOS,5.400375,3.4174378,-0.022065004,-0.04668495,5.640527,6.965266,-0.05338198,-0.033958953,8.885469,-0.056621756,3.0596051,6.602342,-0.02221583,1.8258282,4.332369,5.6953826
ATP5E,8.627755,5.502991,-0.034867942,-0.07279186,9.356119,11.832783,-0.08524251,-0.05507698,14.677809,-0.0991627,4.9056673,10.81634,-0.035780504,3.1569023,7.3840027,9.144064
CD53,8.626012,5.5039487,-0.034842856,-0.07280717,9.35372,11.833572,-0.08526676,-0.05505821,14.678625,-0.09918658,4.903224,10.81621,-0.035788417,3.1554086,7.382049,9.145373
RNH1,8.6355915,5.5008154,-0.03485263,-0.07265849,9.35422,11.8235445,-0.085142985,-0.055067718,14.676004,-0.09916957,4.9034853,10.812376,-0.035851173,3.1566236,7.3866086,9.137196
TPT1P,8.626012,5.5039487,-0.034842856,-0.07280717,9.35372,11.833572,-0.08526676,-0.05505821,14.678625,-0.09918658,4.903224,10.81621,-0.035788417,3.1554086,7.382049,9.145373
PREB,8.055864,5.1700983,-0.03142312,-0.0690084,8.7698,11.022342,-0.08087316,-0.052531585,13.528242,-0.092337415,4.6498237,10.084952,-0.03337437,2.9100788,6.898267,8.366251
CIITA,5.3639693,3.3920507,-0.021910783,-0.046436872,5.599244,6.9156213,-0.053032022,-0.033744086,8.824256,-0.056207206,3.0401776,6.558296,-0.022056298,1.8144047,4.3013215,5.6558795
TARDBP,4.6172857,2.8798037,-0.017831912,-0.03968666,4.7788754,6.755846,-0.05043991,-0.03248058,7.943583,-0.05369938,2.6296973,5.7716904,-0.021307422,1.9025602,3.6449363,5.6385407
RPL9,8.626012,5.5039487,-0.034842856,-0.07280717,9.35372,11.833572,-0.08526676,-0.05505821,14.678625,-0.09918658,4.903224,10.81621,-0.035788417,3.1554086,7.382049,9.145373
HBXIP,7.3230124,5.5612407,-0.035595108,-0.07650433,8.894835,10.552135,-0.07875223,-0.052459817,13.765398,-0.097896576,3.8273485,11.399565,-0.03238827,2.8335152,7.6660447,8.862567
BCL2A1B,8.626012,5.5039487,-0.034842856,-0.07280717,9.35372,11.833572,-0.08526676,-0.05505821,14.678625,-0.09918658,4.903224,10.81621,-0.035788417,3.1554086,7.382049,9.145373
S100A11,8.626012,5.5039487,-0.034842856,-0.07280717,9.35372,11.833572,-0.08526676,-0.05505821,14.678625,-0.09918658,4.903224,10.81621,-0.035788417,3.1554086,7.382049,9.145373
SFPQ,5.3593726,3.3892882,-0.021895275,-0.04640883,5.594551,6.909549,-0.052991822,-0.0337207,8.816988,-0.056154847,3.0382845,6.5532403,-0.022035325,1.8125257,4.297328,5.6512146
TCERG1,5.428389,3.4409907,-0.02217498,-0.04697997,5.6741943,7.0073233,-0.05366586,-0.03414501,8.94064,-0.056995902,3.0724287,6.6461473,-0.022371762,1.8390877,4.3563137,5.7319074
CCDC72,8.626012,5.5039487,-0.034842856,-0.07280717,9.35372,11.833572,-0.08526676,-0.05505821,14.678625,-0.09918658,4.903224,10.81621,-0.035788417,3.1554086,7.382049,9.145373
ATP6V0B,8.626012,5.5039487,-0.034842856,-0.07280717,9.35372,11.833572,-0.08526676,-0.05505821,14.678625,-0.09918658,4.903224,10.81621,-0.035788417,3.1554086,7.382049,9.145373
RNF4,5.3820324,3.4041321,-0.021989882,-0.046560124,5.6200643,6.9403434,-0.05320294,-0.033847798,8.855549,-0.056420512,3.0502286,6.5806,-0.022129321,1.8196018,4.317257,5.6755466
ATP5G2,8.626012,5.5039487,-0.034842856,-0.07280717,9.35372,11.833572,-0.08526676,-0.05505821,14.678625,-0.09918658,4.903224,10.81621,-0.035788417,3.1554086,7.382049,9.145373
SUPT4H1,8.626012,5.5039487,-0.034842856,-0.07280717,9.35372,11.833572,-0.08526676,-0.05505821,14.678625,-0.09918658,4.903224,10.81621,-0.035788417,3.1554086,7.382049,9.145373
TGIF1,6.7826014,4.30001,-0.027644204,-0.05671737,7.2082973,8.95835,-0.06600744,-0.041802645,11.386402,-0.074044794,3.7920086,8.369855,-0.028444687,2.3226788,5.567076,7.2862463
MDH2,8.626012,5.5039487,-0.034842856,-0.07280717,9.35372,11.833572,-0.08526676,-0.05505821,14.678625,-0.09918658,4.903224,10.81621,-0.035788417,3.1554086,7.382049,9.145373
C1QB,8.634058,5.501509,-0.03486528,-0.07267889,9.353082,11.824879,-0.085173815,-0.05509208,14.677982,-0.09917121,4.901185,10.813694,-0.035824507,3.1543002,7.384045,9.135545
RPL5,6.1472816,3.9253478,-0.025658034,-0.050691146,6.313,8.233866,-0.05701582,-0.032159667,11.817316,-0.07598091,2.9877977,7.8017764,-0.02552961,2.7954934,5.3257627,7.17738
BUB3,5.3966923,3.4143116,-0.022050794,-0.04665642,5.6366744,6.960363,-0.053345535,-0.033932302,8.880276,-0.05658976,3.0581641,6.5980926,-0.02219494,1.8245674,4.329745,5.691605
PSMA4,5.359943,3.3816123,-0.021788951,-0.04290016,5.7387013,6.5343823,-0.053158015,-0.031698514,8.359915,-0.054624192,3.2886336,6.437706,-0.018755008,1.8834825,4.5233703,5.763471
HTATIP2,8.626012,5.5039487,-0.034842856,-0.07280717,9.35372,11.833572,-0.08526676,-0.05505821,14.678625,-0.09918658,4.903224,10.81621,-0.035788417,3.1554086,7.382049,9.145373
EAR2,7.984971,5.0170956,-0.033121396,-0.06649947,8.565418,10.807624,-0.077588715,-0.048745107,13.649042,-0.090696715,4.3648243,10.050758,-0.033183265,2.9483807,6.83397,8.540893
PCBP2,5.359126,3.3891013,-0.02189442,-0.04640664,5.5942445,6.909165,-0.05298981,-0.033719514,8.816467,-0.05615141,3.0381398,6.5528793,-0.022034196,1.8124152,4.2971168,5.650874
FTL1,7.984733,5.018052,-0.03312015,-0.06649665,8.5657835,10.80846,-0.07757844,-0.048744682,13.64831,-0.09068835,4.3644705,10.051404,-0.033181172,2.9479477,6.8340683,8.540842
SF1,5.3974247,3.4168866,-0.022044303,-0.046688557,5.638107,6.9627867,-0.05335287,-0.03394141,8.883238,-0.05660633,3.057721,6.6016507,-0.02221185,1.8261064,4.3295774,5.694057
TAX1BP3,8.626012,5.5039487,-0.034842856,-0.07280717,9.35372,11.833572,-0.08526676,-0.05505821,14.678625,-0.09918658,4.903224,10.81621,-0.035788417,3.1554086,7.382049,9.145373
LGALS1,8.627515,5.50422,-0.03482687,-0.07279669,9.353176,11.833028,-0.08525271,-0.0550569,14.678503,-0.09919522,4.902426,10.816052,-0.035786305,3.1566586,7.3820033,9.144596
FXR1,8.402223,5.2045736,-0.035743374,-0.07518662,9.153366,11.68505,-0.0819586,-0.052961234,14.797461,-0.096925065,4.772198,10.937479,-0.03247367,3.5228117,7.3334556,9.023135
HEXA,8.626012,5.5039487,-0.034842856,-0.07280717,9.35372,11.833572,-0.08526676,-0.05505821,14.678625,-0.09918658,4.903224,10.81621,-0.035788417,3.1554086,7.382049,9.145373
RPL8,5.7990165,3.700126,-0.02370746,-0.049941577,6.101198,7.5517726,-0.05702241,-0.036338273,9.632343,-0.061740153,3.255027,7.157554,-0.024108622,1.9814165,4.697951,6.1811547
1600029D21RIK,8.626012,5.5039487,-0.034842856,-0.07280717,9.35372,11.833572,-0.08526676,-0.05505821,14.678625,-0.09918658,4.903224,10.81621,-0.035788417,3.1554086,7.382049,9.145373
NPM1,6.6681633,4.2227345,-0.02717592,-0.055934876,7.0504775,8.801842,-0.064988285,-0.04123274,11.173851,-0.07252451,3.719311,8.225298,-0.028002502,2.3149774,5.452209,7.1499968
GM2A,8.626012,5.5039487,-0.034842856,-0.07280717,9.35372,11.833572,-0.08526676,-0.05505821,14.678625,-0.09918658,4.903224,10.81621,-0.035788417,3.1554086,7.382049,9.145373
SNRPB,4.650403,2.9040067,-0.017955234,-0.039924417,4.8170342,6.8073134,-0.050779726,-0.032690197,8.00378,-0.054129407,2.6464484,5.8149514,-0.021476677,1.9164097,3.672904,5.680583
FTH1,7.6987624,4.9678316,-0.02993096,-0.06691596,8.410544,10.530442,-0.07819816,-0.05128497,12.787339,-0.08797625,4.5364065,9.671312,-0.0305893,2.801909,6.5293684,7.9183393
AKR1A4,8.626012,5.5039487,-0.034842856,-0.07280717,9.35372,11.833572,-0.08526676,-0.05505821,14.678625,-0.09918658,4.903224,10.81621,-0.035788417,3.1554086,7.382049,9.145373
CD48,8.626012,5.5039487,-0.034842856,-0.07280717,9.35372,11.833572,-0.08526676,-0.05505821,14.678625,-0.09918658,4.903224,10.81621,-0.035788417,3.1554086,7.382049,9.145373
RPL28,8.626012,5.5039487,-0.034842856,-0.07280717,9.35372,11.833572,-0.08526676,-0.05505821,14.678625,-0.09918658,4.903224,10.81621,-0.035788417,3.1554086,7.382049,9.145373
KRTCAP2,8.624502,5.4992537,-0.03482775,-0.072734304,9.346426,11.830923,-0.08526553,-0.054996286,14.670864,-0.09920054,4.906912,10.809742,-0.035746012,3.1510108,7.38306,9.147964
ING1,6.686777,4.2362537,-0.02720665,-0.056014743,7.097785,8.81806,-0.06513521,-0.041290093,11.212233,-0.07284375,3.7465625,8.247601,-0.028025558,2.279726,5.480925,7.1785536
JUN,5.428687,3.4375799,-0.022172308,-0.046909045,5.6732545,7.00741,-0.05363489,-0.03411929,8.938072,-0.056983087,3.074305,6.6407943,-0.022352213,1.8366148,4.3574033,5.72901
NFKB1,6.736384,4.2791405,-0.027650518,-0.05640826,7.1360264,8.915155,-0.06571309,-0.041475553,11.327571,-0.07368629,3.7367172,8.332586,-0.028195238,2.3591392,5.5742283,7.1984496
PSMB2,4.550108,3.1557684,-0.013712071,-0.039510336,4.860485,6.918968,-0.047041286,-0.029568288,7.5791936,-0.050538182,3.1512568,5.2864413,-0.023341605,2.4538343,3.845253,4.4593225
SEPW1,8.627545,5.503255,-0.034830213,-0.07278678,9.354858,11.832238,-0.08523594,-0.055033848,14.676647,-0.09918494,4.9055243,10.814892,-0.035815082,3.1577318,7.3846126,9.147024
TSC22D4,7.9239826,5.390559,-0.03584023,-0.056769412,8.478822,11.130815,-0.08091535,-0.03957905,13.577349,-0.0867124,4.0811434,9.820619,-0.043443408,3.810237,6.3934007,8.934469
MLL2,8.626012,5.5039487,-0.034842856,-0.07280717,9.35372,11.833572,-0.08526676,-0.05505821,14.678625,-0.09918658,4.903224,10.81621,-0.035788417,3.1554086,7.382049,9.145373
TECR,8.626012,5.5039487,-0.034842856,-0.07280717,9.35372,11.833572,-0.08526676,-0.05505821,14.678625,-0.09918658,4.903224,10.81621,-0.035788417,3.1554086,7.382049,9.145373
PHB2,6.6983423,4.242719,-0.02725596,-0.056082685,7.110445,8.832775,-0.06523106,-0.04135128,11.233336,-0.072995745,3.7528186,8.261136,-0.028081145,2.2831354,5.490646,7.190086
CRIP1,7.653759,4.8417397,-0.031818084,-0.0635206,8.21738,10.293219,-0.07451867,-0.046804685,13.034002,-0.08589377,4.230238,9.572046,-0.03217696,2.7114313,6.465891,8.245984
EEF1A1,5.4292336,3.4415178,-0.022177944,-0.046986613,5.6751266,7.0086093,-0.053672988,-0.034149926,8.942186,-0.057007086,3.0728335,6.647222,-0.022375943,1.8394325,4.357154,5.732923
NDUFS5,8.626012,5.5039487,-0.034842856,-0.07280717,9.35372,11.833572,-0.08526676,-0.05505821,14.678625,-0.09918658,4.903224,10.81621,-0.035788417,3.1554086,7.382049,9.145373
MAFF,8.628392,5.5049076,-0.034816846,-0.07279094,9.352534,11.832174,-0.08524692,-0.05504814,14.679344,-0.09920156,4.903471,10.815717,-0.035796817,3.1557393,7.381494,9.143648
HMGN2,8.626012,5.5039487,-0.034842856,-0.07280717,9.35372,11.833572,-0.08526676,-0.05505821,14.678625,-0.09918658,4.903224,10.81621,-0.035788417,3.1554086,7.382049,9.145373
IFITM2,8.626012,5.5039487,-0.034842856,-0.07280717,9.35372,11.833572,-0.08526676,-0.05505821,14.678625,-0.09918658,4.903224,10.81621,-0.035788417,3.1554086,7.382049,9.145373
IDH1,7.8468413,4.908798,-0.032205027,-0.06557272,8.424171,10.545047,-0.07577119,-0.04796975,13.32295,-0.08767793,4.352221,9.771087,-0.03273517,2.783702,6.5954776,8.389958
LCP1,8.626012,5.5039487,-0.034842856,-0.07280717,9.35372,11.833572,-0.08526676,-0.05505821,14.678625,-0.09918658,4.903224,10.81621,-0.035788417,3.1554086,7.382049,9.145373
MGL2,8.626012,5.5039487,-0.034842856,-0.07280717,9.35372,11.833572,-0.08526676,-0.05505821,14.678625,-0.09918658,4.903224,10.81621,-0.035788417,3.1554086,7.382049,9.145373
SRSF6,4.5827913,3.4515939,-0.02250926,-0.048985336,5.350316,6.161263,-0.049272113,-0.03231041,8.311138,-0.055787735,2.3856156,6.9643006,-0.020081934,1.6246065,4.506026,5.516129
CTCF,5.3800287,3.4034145,-0.021977393,-0.046547912,5.617205,6.9367437,-0.053186554,-0.033840656,8.850267,-0.05638426,3.048314,6.5772767,-0.022123083,1.8193439,4.314725,5.672615
COX8A,8.626012,5.5039487,-0.034842856,-0.07280717,9.35372,11.833572,-0.08526676,-0.05505821,14.678625,-0.09918658,4.903224,10.81621,-0.035788417,3.1554086,7.382049,9.145373
FOSL2,5.369696,3.3960598,-0.021934723,-0.046475045,5.60569,6.9232574,-0.053087335,-0.033777356,8.83372,-0.056272324,3.0430949,6.5651655,-0.02208058,1.8162768,4.306224,5.662004
IFI27L2A,8.627755,5.502991,-0.034867942,-0.07279186,9.356119,11.832783,-0.08524251,-0.05507698,14.677809,-0.0991627,4.9056673,10.81634,-0.035780504,3.1569023,7.3840027,9.144064
MRPL20,8.626012,5.5039487,-0.034842856,-0.07280717,9.35372,11.833572,-0.08526676,-0.05505821,14.678625,-0.09918658,4.903224,10.81621,-0.035788417,3.1554086,7.382049,9.145373
RNF149,7.3215017,5.5565457,-0.03558,-0.07643146,8.887541,10.549486,-0.078751,-0.052397884,13.757639,-0.09791054,3.8310363,11.393097,-0.03234586,2.8291175,7.6670556,8.865157
IVNS1ABP,8.626012,5.5039487,-0.034842856,-0.07280717,9.35372,11.833572,-0.08526676,-0.05505821,14.678625,-0.09918658,4.903224,10.81621,-0.035788417,3.1554086,7.382049,9.145373
CTSB,8.626012,5.5039487,-0.034842856,-0.07280717,9.35372,11.833572,-0.08526676,-0.05505821,14.678625,-0.09918658,4.903224,10.81621,-0.035788417,3.1554086,7.382049,9.145373
PSMA7,5.3812723,3.4046628,-0.021987535,-0.046557836,5.6188607,6.938482,-0.05320533,-0.03385256,8.852644,-0.05639771,3.0495722,6.5790615,-0.022129726,1.8195202,4.3156133,5.674304
AP2M1,8.138647,5.1270876,-0.033600625,-0.06785585,8.736524,11.028136,-0.07921714,-0.049960032,13.903792,-0.09260935,4.46493,10.240304,-0.03393481,3.0136845,6.9770184,8.696534
DPF2,5.3778186,3.4020698,-0.02197523,-0.046530273,5.615213,6.933719,-0.053170614,-0.033831194,8.846794,-0.056355502,3.0478117,6.5746818,-0.022110302,1.8178504,4.3126807,5.6703773
RUNX1,4.5934076,3.4595912,-0.022571974,-0.049060907,5.3634796,6.175901,-0.049385376,-0.032383643,8.32903,-0.055914946,2.3906317,6.978659,-0.02012853,1.6270252,4.517244,5.528219
ZFHX3,8.626012,5.5039487,-0.034842856,-0.07280717,9.35372,11.833572,-0.08526676,-0.05505821,14.678625,-0.09918658,4.903224,10.81621,-0.035788417,3.1554086,7.382049,9.145373
COX7A2,7.3230124,5.5612407,-0.035595108,-0.07650433,8.894835,10.552135,-0.07875223,-0.052459817,13.765398,-0.097896576,3.8273485,11.399565,-0.03238827,2.8335152,7.6660447,8.862567
FCF1,8.627755,5.502991,-0.034867942,-0.07279186,9.356119,11.832783,-0.08524251,-0.05507698,14.677809,-0.0991627,4.9056673,10.81634,-0.035780504,3.1569023,7.3840027,9.144064
RPS26,7.935079,5.086608,-0.030993057,-0.06783422,8.619562,10.832053,-0.07987579,-0.05193098,13.214798,-0.09040385,4.621298,9.904812,-0.03185777,2.9273565,6.7605014,8.173286
SEC61B,8.626012,5.5039487,-0.034842856,-0.07280717,9.35372,11.833572,-0.08526676,-0.05505821,14.678625,-0.09918658,4.903224,10.81621,-0.035788417,3.1554086,7.382049,9.145373
PLIN2,8.626012,5.5039487,-0.034842856,-0.07280717,9.35372,11.833572,-0.08526676,-0.05505821,14.678625,-0.09918658,4.903224,10.81621,-0.035788417,3.1554086,7.382049,9.145373
TNIP3,7.658548,4.852892,-0.03198202,-0.06327717,8.209069,10.328162,-0.07466907,-0.046526007,13.120015,-0.08657438,4.1973042,9.590443,-0.03207153,2.7999265,6.5569634,8.224559
CALM2,8.626012,5.5039487,-0.034842856,-0.07280717,9.35372,11.833572,-0.08526676,-0.05505821,14.678625,-0.09918658,4.903224,10.81621,-0.035788417,3.1554086,7.382049,9.145373
RPL39,8.023008,5.1433954,-0.031351447,-0.068622276,8.70792,10.955783,-0.08061855,-0.052425664,13.379774,-0.09154832,4.6554885,10.022985,-0.032365233,2.958646,6.8431296,8.286092
HMG20B,6.152229,3.6678016,-0.02684567,-0.048422888,6.8232074,9.052467,-0.058131646,-0.033801556,11.511012,-0.071913764,4.1348963,7.5340486,-0.028040053,1.7625817,5.781084,7.0229993
TMEM49,8.626012,5.5039487,-0.034842856,-0.07280717,9.35372,11.833572,-0.08526676,-0.05505821,14.678625,-0.09918658,4.903224,10.81621,-0.035788417,3.1554086,7.382049,9.145373
SFPI1,8.626012,5.5039487,-0.034842856,-0.07280717,9.35372,11.833572,-0.08526676,-0.05505821,14.678625,-0.09918658,4.903224,10.81621,-0.035788417,3.1554086,7.382049,9.145373
POLR3K,5.436061,3.4460163,-0.022194995,-0.04701747,5.682433,7.0185513,-0.053711776,-0.034178045,8.9521055,-0.057078864,3.0771616,6.654104,-0.02239797,1.8412038,4.3633018,5.7386208
POLR2F,5.393445,3.4133415,-0.022027463,-0.046652213,5.6334662,6.9569855,-0.05330681,-0.03391499,8.875787,-0.0565567,3.056097,6.5959764,-0.022186385,1.8241191,4.3264112,5.6891026
FUBP3,8.626012,5.5039487,-0.034842856,-0.07280717,9.35372,11.833572,-0.08526676,-0.05505821,14.678625,-0.09918658,4.903224,10.81621,-0.035788417,3.1554086,7.382049,9.145373
TOP2B,8.364425,5.2897286,-0.03449558,-0.070511505,8.988467,11.389436,-0.08176269,-0.052495115,14.274298,-0.09506073,4.6509347,10.451433,-0.035138134,3.0022511,7.092763,8.929311
DQ539915,8.626012,5.5039487,-0.034842856,-0.07280717,9.35372,11.833572,-0.08526676,-0.05505821,14.678625,-0.09918658,4.903224,10.81621,-0.035788417,3.1554086,7.382049,9.145373
ARF4,5.3589005,3.388954,-0.021893322,-0.046405893,5.594024,6.9089437,-0.05298719,-0.03371792,8.816246,-0.056149796,3.0380342,6.552708,-0.022033446,1.8123809,4.296945,5.6507306
COMMD3,5.4063244,3.4235103,-0.022091214,-0.046764392,5.6481676,6.9738154,-0.05345428,-0.034003098,8.898002,-0.05671144,3.0614858,6.613108,-0.022246482,1.8296242,4.336966,5.7041287
RPS12,8.626012,5.5039487,-0.034842856,-0.07280717,9.35372,11.833572,-0.08526676,-0.05505821,14.678625,-0.09918658,4.903224,10.81621,-0.035788417,3.1554086,7.382049,9.145373
MCM6,5.4353337,3.4414546,-0.022201743,-0.046940412,5.6804814,7.016773,-0.05369657,-0.034155454,8.949194,-0.05705343,3.0781631,6.647094,-0.022378322,1.8386564,4.362879,5.735521
RAP1B,7.7742176,4.871756,-0.032400575,-0.06477907,8.3187685,10.508105,-0.07559038,-0.047389526,13.29528,-0.088108175,4.250926,9.78997,-0.032235235,2.8500931,6.638481,8.337462
MITF,6.939308,4.414944,-0.028442046,-0.05828243,7.3740244,9.197296,-0.06777698,-0.042839967,11.671732,-0.07630226,3.8363903,8.627655,-0.029258423,2.4306352,5.737078,7.446525
RUVBL2,5.437556,3.4434824,-0.022221923,-0.047009334,5.6833854,7.0228357,-0.053736933,-0.034171462,8.958924,-0.057133853,3.077387,6.656775,-0.02240981,1.8436786,4.3683453,5.74108
NDUFA1,8.626012,5.5039487,-0.034842856,-0.07280717,9.35372,11.833572,-0.08526676,-0.05505821,14.678625,-0.09918658,4.903224,10.81621,-0.035788417,3.1554086,7.382049,9.145373
RPL4,6.365958,3.3028913,-0.023713818,-0.059108414,6.780777,7.5456634,-0.053716466,-0.040027753,9.447181,-0.061599538,3.7533534,7.0643144,-0.018482044,1.137718,4.163085,6.600517
YWHAE,8.491404,5.408343,-0.03442455,-0.07096861,9.156982,11.5418825,-0.08343732,-0.0533459,14.370065,-0.09669517,4.746356,10.579303,-0.035608377,3.0550096,7.212367,9.014384
PSMA1,8.626012,5.5039487,-0.034842856,-0.07280717,9.35372,11.833572,-0.08526676,-0.05505821,14.678625,-0.09918658,4.903224,10.81621,-0.035788417,3.1554086,7.382049,9.145373
SEC11C,7.9239826,5.390559,-0.03584023,-0.056769412,8.478822,11.130815,-0.08091535,-0.03957905,13.577349,-0.0867124,4.0811434,9.820619,-0.043443408,3.810237,6.3934007,8.934469
HNRNPD,5.0354357,3.6901789,-0.026782727,-0.048506282,5.5374866,6.3991365,-0.057522,-0.038390633,8.409462,-0.048807044,3.1705906,6.331841,-0.017772049,1.2334555,3.700987,5.370735
SUZ12,5.4326854,3.440962,-0.02218348,-0.046951994,5.677726,7.0128202,-0.05366699,-0.034144007,8.94534,-0.057035487,3.07629,6.6471934,-0.02237113,1.8383946,4.360881,5.734446
SLC25A5,8.626012,5.5039487,-0.034842856,-0.07280717,9.35372,11.833572,-0.08526676,-0.05505821,14.678625,-0.09918658,4.903224,10.81621,-0.035788417,3.1554086,7.382049,9.145373
CAPG,7.7490807,4.9993877,-0.03213521,-0.06451731,8.150162,10.853681,-0.07264818,-0.04119511,15.422693,-0.1028364,3.7819033,10.056543,-0.031673808,3.8109243,7.0899386,9.073757
THRAP3,5.3845716,3.4074297,-0.021989098,-0.04658084,5.623426,6.9446893,-0.053220447,-0.033862814,8.859524,-0.056445282,3.0517998,6.584461,-0.02214484,1.8206388,4.318167,5.6788836
WHSC1L1,7.935726,5.0957375,-0.032711647,-0.065733254,8.529933,10.800301,-0.07822176,-0.049212907,13.566788,-0.09043762,4.402869,9.95929,-0.033923004,2.8938897,6.799952,8.559602
RPL14,6.2389565,3.9791677,-0.025633706,-0.052592114,6.5822124,8.194922,-0.060991444,-0.03850965,10.413223,-0.06729852,3.4771788,7.702966,-0.026057124,2.1705673,5.139505,6.641937
TXN1,6.6791697,4.229182,-0.02722503,-0.056018427,7.0625772,8.817637,-0.06509331,-0.041292574,11.193524,-0.07266893,3.724389,8.240268,-0.028046006,2.3200161,5.463404,7.1611924
NDUFA6,8.626012,5.5039487,-0.034842856,-0.07280717,9.35372,11.833572,-0.08526676,-0.05505821,14.678625,-0.09918658,4.903224,10.81621,-0.035788417,3.1554086,7.382049,9.145373
SKI,5.5029826,3.499386,-0.022401538,-0.047488928,5.7594557,7.116142,-0.054245397,-0.03457685,9.058633,-0.057759598,3.1186774,6.7375894,-0.022711257,1.8586648,4.41224,5.807361
SMARCC2,5.4201756,3.4316206,-0.022135563,-0.04682848,5.6633773,6.994134,-0.053556357,-0.03407062,8.91931,-0.056847133,3.0698206,6.6270437,-0.022305824,1.8328267,4.3478994,5.7174945
TANK,8.626012,5.5039487,-0.034842856,-0.07280717,9.35372,11.833572,-0.08526676,-0.05505821,14.678625,-0.09918658,4.903224,10.81621,-0.035788417,3.1554086,7.382049,9.145373
IL1RN,8.215288,5.225769,-0.033700977,-0.068447,8.836276,11.098767,-0.08030741,-0.051145926,13.980476,-0.09305804,4.5755944,10.241413,-0.034470968,2.9316475,6.984726,8.758424
FABP4,5.3902073,3.4119265,-0.022005355,-0.046622325,5.6304126,6.953178,-0.053265214,-0.033894625,8.869854,-0.056511424,3.055544,6.5919595,-0.02217046,1.8221928,4.3223453,5.6856937
CLAST2,8.626012,5.5039487,-0.034842856,-0.07280717,9.35372,11.833572,-0.08526676,-0.05505821,14.678625,-0.09918658,4.903224,10.81621,-0.035788417,3.1554086,7.382049,9.145373
AK185681,8.626012,5.5039487,-0.034842856,-0.07280717,9.35372,11.833572,-0.08526676,-0.05505821,14.678625,-0.09918658,4.903224,10.81621,-0.035788417,3.1554086,7.382049,9.145373
TM7SF4,8.626012,5.5039487,-0.034842856,-0.07280717,9.35372,11.833572,-0.08526676,-0.05505821,14.678625,-0.09918658,4.903224,10.81621,-0.035788417,3.1554086,7.382049,9.145373
GRN,8.122914,5.110997,-0.033510935,-0.067742735,8.723691,11.004603,-0.0789104,-0.04974407,13.863589,-0.09233362,4.4499035,10.221779,-0.033829678,3.0016,6.953189,8.674563
ATF6,7.300791,4.604323,-0.029957663,-0.060838874,7.782218,9.743275,-0.071051985,-0.044773683,12.358702,-0.08109229,4.0422606,9.070092,-0.03058964,2.5533187,6.082408,7.8476524
JUNB,7.2224984,4.5484505,-0.02966831,-0.060180232,7.6878633,9.626046,-0.07033957,-0.04425962,12.207537,-0.080083705,3.9935925,8.985555,-0.030181706,2.5401852,6.0077505,7.757284
SLAMF7,8.626889,5.5046363,-0.034832835,-0.072801426,9.353078,11.832719,-0.08526097,-0.055049453,14.679466,-0.099192925,4.904269,10.815874,-0.03579893,3.1544893,7.38154,9.144425
LYZ2,8.260736,5.302178,-0.032584555,-0.07052395,8.971595,11.33835,-0.08282251,-0.05389388,13.900782,-0.094932705,4.770216,10.356461,-0.033889078,3.027683,7.0746274,8.622686
NFE2L2,5.2646637,3.6948962,-0.017893428,-0.04995099,4.813958,6.1043453,-0.051547375,-0.036867063,8.159616,-0.050105084,2.994065,6.3881025,-0.029263295,1.8747153,4.669341,5.492807
LSP1,8.626012,5.5039487,-0.034842856,-0.07280717,9.35372,11.833572,-0.08526676,-0.05505821,14.678625,-0.09918658,4.903224,10.81621,-0.035788417,3.1554086,7.382049,9.145373
CD63,8.626012,5.5039487,-0.034842856,-0.07280717,9.35372,11.833572,-0.08526676,-0.05505821,14.678625,-0.09918658,4.903224,10.81621,-0.035788417,3.1554086,7.382049,9.145373
ARHGDIB,7.9013987,6.0477977,-0.04427747,-0.0764168,9.150355,10.706495,-0.09355116,-0.06391544,13.729626,-0.08360154,5.127124,10.275454,-0.026924977,1.9726493,6.1257195,8.498111
POLR2C,5.3945227,3.4137895,-0.022033114,-0.046658177,5.634678,6.958985,-0.053315494,-0.033918254,8.878273,-0.05657552,3.056654,6.5976853,-0.0221921,1.8246742,4.327814,5.6905136
RPL32,6.2414446,3.980779,-0.025641948,-0.05260832,6.5850167,8.198228,-0.061014827,-0.038523152,10.417407,-0.06732766,3.4785218,7.7058377,-0.026067188,2.1714509,5.141448,6.6444993
ATP6V1G1,8.626012,5.5039487,-0.034842856,-0.07280717,9.35372,11.833572,-0.08526676,-0.05505821,14.678625,-0.09918658,4.903224,10.81621,-0.035788417,3.1554086,7.382049,9.145373
SDHB,8.625734,5.5039735,-0.034834206,-0.07281508,9.353074,11.832537,-0.0852778,-0.055056497,14.677156,-0.09918912,4.902473,10.815428,-0.035775665,3.1545916,7.382117,9.144692
EHMT2,5.4204564,3.4335566,-0.022140794,-0.04686041,5.664629,6.9952683,-0.053567976,-0.03408204,8.922884,-0.05687705,3.070316,6.63114,-0.022311807,1.8334689,4.3493295,5.719721
MYEOV2,5.404765,3.4216685,-0.022084508,-0.046737347,5.6463747,6.9716363,-0.05343025,-0.03398429,8.8940935,-0.05668431,3.061068,6.60986,-0.022234043,1.8286211,4.3353634,5.7019296
ID3,8.626012,5.5039487,-0.034842856,-0.07280717,9.35372,11.833572,-0.08526676,-0.05505821,14.678625,-0.09918658,4.903224,10.81621,-0.035788417,3.1554086,7.382049,9.145373
CNOT6L,8.6046,5.413075,-0.035166603,-0.072953135,9.334268,11.78573,-0.08425089,-0.05478827,14.643519,-0.098330766,4.890689,10.782419,-0.03537281,3.0879216,7.317472,9.166463
TCEB2,4.598929,3.4652379,-0.022587942,-0.04913673,5.3706384,6.184747,-0.04944008,-0.032418072,8.34158,-0.056009397,2.3928518,6.989495,-0.020161832,1.6308508,4.523104,5.536474
H2-D1,7.975583,4.818888,-0.034355782,-0.06368188,9.010346,12.090865,-0.076803,-0.04607284,15.007797,-0.09789951,5.356116,9.950319,-0.035739537,2.5353715,7.7260823,8.943805
SMARCA4,5.498289,3.4870455,-0.022415683,-0.047435444,5.753167,7.1082387,-0.054211047,-0.034542456,9.055702,-0.057750747,3.1150076,6.7277317,-0.022663618,1.8565174,4.4103045,5.8057904
AF251705,8.626012,5.5039487,-0.034842856,-0.07280717,9.35372,11.833572,-0.08526676,-0.05505821,14.678625,-0.09918658,4.903224,10.81621,-0.035788417,3.1554086,7.382049,9.145373
NDUFB6,8.626012,5.5039487,-0.034842856,-0.07280717,9.35372,11.833572,-0.08526676,-0.05505821,14.678625,-0.09918658,4.903224,10.81621,-0.035788417,3.1554086,7.382049,9.145373
NDUFB8,8.235482,5.2943654,-0.032387603,-0.07052398,8.949714,11.319838,-0.08247849,-0.0537655,13.837933,-0.09464107,4.775673,10.326345,-0.03377416,3.0346746,7.0495605,8.600272
RPS16,8.023008,5.1433954,-0.031351447,-0.068622276,8.70792,10.955783,-0.08061855,-0.052425664,13.379774,-0.09154832,4.6554885,10.022985,-0.032365233,2.958646,6.8431296,8.286092
SUB1,8.626012,5.5039487,-0.034842856,-0.07280717,9.35372,11.833572,-0.08526676,-0.05505821,14.678625,-0.09918658,4.903224,10.81621,-0.035788417,3.1554086,7.382049,9.145373
CXXC1,8.472405,5.4384694,-0.03330189,-0.07541938,8.937406,11.52035,-0.086822934,-0.05005644,13.699369,-0.100776404,4.2661915,10.922171,-0.03058815,3.550794,7.2632217,8.215979
CBFA2T3,7.31257,4.5862494,-0.030312328,-0.06100873,7.791354,9.765574,-0.07125818,-0.044804595,12.374363,-0.0812287,4.0177474,9.137689,-0.030483656,2.585272,6.0919137,7.8527393
NR3C1,4.937478,2.930776,-0.021704491,-0.040183373,5.398283,7.152915,-0.04733168,-0.027545916,9.124385,-0.055723842,3.3854725,5.9870725,-0.022188025,1.3830044,4.578163,5.5542307
DYNLRB1,8.625591,5.5037227,-0.034844693,-0.072806284,9.354147,11.833433,-0.08526475,-0.05505704,14.679087,-0.09918469,4.9036736,10.816393,-0.035784263,3.1551728,7.3817105,9.145188
PTGES3,7.550286,4.7982764,-0.031247497,-0.06266948,8.096833,10.15807,-0.073626585,-0.046358217,12.846858,-0.08453727,4.1865153,9.408512,-0.032008514,2.6532032,6.363213,8.141515
PLEK,6.4673495,4.220987,-0.029697154,-0.060772564,6.878457,8.799088,-0.06539487,-0.041502483,11.2553005,-0.07345199,3.2153249,8.597283,-0.030132424,2.4452746,5.622258,6.9263005
AFF4,5.3965893,3.4152718,-0.022045115,-0.04667909,5.636456,6.9609637,-0.05334863,-0.03393341,8.88177,-0.05659949,3.0564702,6.5998325,-0.022208774,1.8263683,4.3298,5.6927357
LY6E,8.626325,5.504034,-0.03484219,-0.072805956,9.353368,11.833503,-0.085269764,-0.05505445,14.677954,-0.09918628,4.903005,10.815657,-0.03579295,3.1549728,7.3824506,9.146022
RPL35A,6.263243,3.995046,-0.025720468,-0.052748926,6.609549,8.228242,-0.061221857,-0.03864336,10.454755,-0.067589276,3.4903135,7.731442,-0.026164617,2.1793249,5.159092,6.6678834
PSME1,5.3925834,3.4124413,-0.022034837,-0.04662903,5.631647,6.9540305,-0.053313307,-0.033917535,8.871542,-0.056524396,3.0556889,6.592253,-0.022180868,1.8230821,4.3251066,5.6865926
POLR2J,5.3999367,3.4177654,-0.022056531,-0.046701126,5.6407266,6.966232,-0.05337229,-0.033952866,8.887587,-0.056638837,3.0591938,6.604487,-0.022218425,1.8267446,4.332357,5.6965322
SND1,5.3629713,3.3913977,-0.021906568,-0.046430677,5.598132,6.9143443,-0.05302212,-0.033738256,8.822704,-0.056196135,3.0396762,6.5571237,-0.0220529,1.8140963,4.300508,5.6548595
MRFAP1,7.055809,4.996122,-0.032386556,-0.06260453,8.844569,8.828419,-0.09233384,-0.059561566,12.856226,-0.07547984,4.508162,9.694872,-0.014531716,0.9835151,4.4570575,6.6996226
CXCL1,5.407266,3.4228468,-0.02209672,-0.046729572,5.648112,6.9755373,-0.05345391,-0.033999868,8.897747,-0.056703128,3.0627427,6.610871,-0.022255098,1.8287965,4.3381524,5.703132
SMARCA5,5.4351125,3.442335,-0.022214,-0.0469723,5.680412,7.0175314,-0.053710174,-0.034150448,8.95288,-0.057090946,3.0749657,6.651915,-0.022391243,1.841581,4.365822,5.7375
PSMB3,5.3774443,3.4019048,-0.021971226,-0.046531506,5.6145973,6.9333014,-0.053167675,-0.033829186,8.846269,-0.05635466,3.0475855,6.5744376,-0.022111937,1.8182533,4.3123636,5.6701937
HCFC1,5.4309874,3.4358582,-0.02218678,-0.046898626,5.673248,7.0122805,-0.053653292,-0.03410597,8.94458,-0.05704003,3.0733137,6.641791,-0.022373363,1.8410726,4.36377,5.7300363
VPS29,8.625591,5.5037227,-0.034844693,-0.072806284,9.354147,11.833433,-0.08526475,-0.05505704,14.679087,-0.09918469,4.9036736,10.816393,-0.035784263,3.1551728,7.3817105,9.145188
H2-AA,8.626012,5.5039487,-0.034842856,-0.07280717,9.35372,11.833572,-0.08526676,-0.05505821,14.678625,-0.09918658,4.903224,10.81621,-0.035788417,3.1554086,7.382049,9.145373
ZFML,5.3589005,3.388954,-0.021893322,-0.046405893,5.594024,6.9089437,-0.05298719,-0.03371792,8.816246,-0.056149796,3.0380342,6.552708,-0.022033446,1.8123809,4.296945,5.6507306
RPL38,6.245448,3.9835274,-0.02564678,-0.052655764,6.590456,8.208334,-0.061082594,-0.03856779,10.426008,-0.06738173,3.4803216,7.7102437,-0.026105957,2.174567,5.148288,6.6491537
ZYX,8.626012,5.5039487,-0.034842856,-0.07280717,9.35372,11.833572,-0.08526676,-0.05505821,14.678625,-0.09918658,4.903224,10.81621,-0.035788417,3.1554086,7.382049,9.145373
GPNMB,7.192497,4.5595913,-0.029712925,-0.059987124,7.6773863,9.582746,-0.070261836,-0.044062193,12.189575,-0.0799451,3.9644182,8.991137,-0.030045673,2.5514526,5.996631,7.7432933
MYL12B,8.626012,5.5039487,-0.034842856,-0.07280717,9.35372,11.833572,-0.08526676,-0.05505821,14.678625,-0.09918658,4.903224,10.81621,-0.035788417,3.1554086,7.382049,9.145373
CD52,8.626012,5.5039487,-0.034842856,-0.07280717,9.35372,11.833572,-0.08526676,-0.05505821,14.678625,-0.09918658,4.903224,10.81621,-0.035788417,3.1554086,7.382049,9.145373
GTF2F1,5.392932,3.410883,-0.02201084,-0.046693563,5.637719,6.9608397,-0.053328294,-0.033940423,8.878164,-0.056547217,3.0546486,6.599381,-0.022225274,1.8282354,4.332865,5.6922874
BC028528,8.626012,5.5039487,-0.034842856,-0.07280717,9.35372,11.833572,-0.08526676,-0.05505821,14.678625,-0.09918658,4.903224,10.81621,-0.035788417,3.1554086,7.382049,9.145373
BCLAF1,8.626012,5.5039487,-0.034842856,-0.07280717,9.35372,11.833572,-0.08526676,-0.05505821,14.678625,-0.09918658,4.903224,10.81621,-0.035788417,3.1554086,7.382049,9.145373
KLF4,6.8196006,4.324629,-0.027869577,-0.05712961,7.2296267,9.016405,-0.06652898,-0.042069085,11.448789,-0.07459878,3.7864168,8.441759,-0.028633824,2.37826,5.6058083,7.3161573
MYD88,7.314636,4.6366315,-0.030265888,-0.060982764,7.8057814,9.784811,-0.071486644,-0.044925455,12.429139,-0.08158667,4.0367355,9.141037,-0.030717233,2.608271,6.132168,7.870109
STAT1,5.4192853,3.4313946,-0.022141907,-0.046818685,5.6619005,6.9930596,-0.053559713,-0.03406803,8.918434,-0.05684461,3.0687761,6.6264224,-0.022310546,1.8329833,4.348254,5.716638
UBC,5.4117675,3.4270756,-0.0221033,-0.046794917,5.6540627,6.9821296,-0.05349258,-0.034028232,8.90712,-0.056771193,3.064735,6.6192336,-0.022277594,1.8312564,4.34198,5.7095995
RPS27,6.2419114,3.9810398,-0.025643833,-0.052609857,6.5856023,8.198896,-0.06101875,-0.038525037,10.418115,-0.067332886,3.4787972,7.7063346,-0.026068926,2.1715338,5.1417847,6.6450243
HMGA1,6.656049,4.2143927,-0.02712571,-0.055844467,7.036795,8.784493,-0.06486439,-0.04116203,11.1512785,-0.07236369,3.7134535,8.20921,-0.027948234,2.3095772,5.441133,7.136559
NACA,7.9018173,5.0732765,-0.03085857,-0.067761675,8.591769,10.791839,-0.07976398,-0.05201249,13.156393,-0.09009419,4.614036,9.872546,-0.031689838,2.9036481,6.7255344,8.131175
HIF1A,5.393325,3.412905,-0.022038078,-0.04663499,5.632344,6.9550834,-0.053321652,-0.03392213,8.872873,-0.05653457,3.0559192,6.5932384,-0.022185469,1.823446,4.3258467,5.6872497
RPS9,5.485156,3.47758,-0.022404203,-0.04733621,5.7349377,7.08118,-0.054101214,-0.034466308,9.040316,-0.057669666,3.0967908,6.718635,-0.022643918,1.8602908,4.406252,5.791633
SELK,8.626012,5.5039487,-0.034842856,-0.07280717,9.35372,11.833572,-0.08526676,-0.05505821,14.678625,-0.09918658,4.903224,10.81621,-0.035788417,3.1554086,7.382049,9.145373
PCNA,4.891079,2.777307,-0.014732435,-0.03826222,5.4695745,5.822863,-0.052779745,-0.031351425,8.3742075,-0.05179281,2.6821966,6.266049,-0.014605387,1.2192067,3.3097165,4.5983076
PRR13,8.626012,5.5039487,-0.034842856,-0.07280717,9.35372,11.833572,-0.08526676,-0.05505821,14.678625,-0.09918658,4.903224,10.81621,-0.035788417,3.1554086,7.382049,9.145373
MCA32,8.626012,5.5039487,-0.034842856,-0.07280717,9.35372,11.833572,-0.08526676,-0.05505821,14.678625,-0.09918658,4.903224,10.81621,-0.035788417,3.1554086,7.382049,9.145373
IRF4,5.4705596,3.4627135,-0.022384714,-0.047186304,5.719685,7.0711083,-0.054020647,-0.034315493,9.019454,-0.05755649,3.0930054,6.69867,-0.022556586,1.853534,4.401925,5.7767386
KDM5C,8.572943,5.415411,-0.034752347,-0.07224762,9.240926,11.754568,-0.08441905,-0.05464954,14.54955,-0.09829559,4.8445125,10.683755,-0.035668194,3.0806973,7.316147,9.092383
PKM2,8.627545,5.503255,-0.034830213,-0.07278678,9.354858,11.832238,-0.08523594,-0.055033848,14.676647,-0.09918494,4.9055243,10.814892,-0.035815082,3.1577318,7.3846126,9.147024
ZBTB7A,8.626012,5.5039487,-0.034842856,-0.07280717,9.35372,11.833572,-0.08526676,-0.05505821,14.678625,-0.09918658,4.903224,10.81621,-0.035788417,3.1554086,7.382049,9.145373
ABCG1,8.422683,4.4579887,-0.042652458,-0.05734391,7.958625,12.239557,-0.08318262,-0.053081054,14.6368,-0.09655905,4.2397246,9.594673,-0.043174114,2.5590134,8.37837,8.150159
SSR3,8.626012,5.5039487,-0.034842856,-0.07280717,9.35372,11.833572,-0.08526676,-0.05505821,14.678625,-0.09918658,4.903224,10.81621,-0.035788417,3.1554086,7.382049,9.145373
PSME2,5.3951383,3.41418,-0.022045292,-0.046645265,5.6345086,6.9575114,-0.053337242,-0.03393153,8.875838,-0.056552827,3.0570207,6.595251,-0.022192635,1.8239558,4.3272376,5.6893396
CHCHD2,8.422683,4.4579887,-0.042652458,-0.05734391,7.958625,12.239557,-0.08318262,-0.053081054,14.6368,-0.09655905,4.2397246,9.594673,-0.043174114,2.5590134,8.37837,8.150159
CD200R4,8.626012,5.5039487,-0.034842856,-0.07280717,9.35372,11.833572,-0.08526676,-0.05505821,14.678625,-0.09918658,4.903224,10.81621,-0.035788417,3.1554086,7.382049,9.145373
ZMYND11,5.5286365,3.5074852,-0.022572348,-0.047633074,5.7855973,7.1552024,-0.05450831,-0.034651186,9.117212,-0.05821084,3.1250708,6.774772,-0.022836242,1.8725034,4.448486,5.838428
GTF2B,5.3545,3.3811555,-0.02175895,-0.042962473,5.7378845,6.5381074,-0.053171486,-0.03165961,8.359814,-0.054637738,3.2890046,6.439173,-0.018728873,1.8847778,4.5224104,5.7682905
NDUFB11,8.626012,5.5039487,-0.034842856,-0.07280717,9.35372,11.833572,-0.08526676,-0.05505821,14.678625,-0.09918658,4.903224,10.81621,-0.035788417,3.1554086,7.382049,9.145373
S100A6,8.626012,5.5039487,-0.034842856,-0.07280717,9.35372,11.833572,-0.08526676,-0.05505821,14.678625,-0.09918658,4.903224,10.81621,-0.035788417,3.1554086,7.382049,9.145373
DNMT1,5.4474497,3.4545333,-0.022240724,-0.047081105,5.695652,7.0348196,-0.053804316,-0.03424753,8.969533,-0.057187818,3.085026,6.6671605,-0.02244199,1.8426142,4.3712087,5.7498126
TMSB4X,8.216415,5.2678094,-0.03218251,-0.070669055,8.947873,11.228733,-0.082244165,-0.053647935,13.782362,-0.09390485,4.754904,10.324129,-0.033227652,3.0078256,6.9491777,8.572061
FIS1,8.625734,5.5039735,-0.034834206,-0.07281508,9.353074,11.832537,-0.0852778,-0.055056497,14.677156,-0.09918912,4.902473,10.815428,-0.035775665,3.1545916,7.382117,9.144692
LIPA,8.626012,5.5039487,-0.034842856,-0.07280717,9.35372,11.833572,-0.08526676,-0.05505821,14.678625,-0.09918658,4.903224,10.81621,-0.035788417,3.1554086,7.382049,9.145373
CCL9,8.626012,5.5039487,-0.034842856,-0.07280717,9.35372,11.833572,-0.08526676,-0.05505821,14.678625,-0.09918658,4.903224,10.81621,-0.035788417,3.1554086,7.382049,9.145373
SLIRP,8.626012,5.5039487,-0.034842856,-0.07280717,9.35372,11.833572,-0.08526676,-0.05505821,14.678625,-0.09918658,4.903224,10.81621,-0.035788417,3.1554086,7.382049,9.145373
KPNA2,5.3597593,3.389553,-0.021896934,-0.046411302,5.594997,6.910085,-0.05299553,-0.033722963,8.817651,-0.056159247,3.038495,6.5536933,-0.022036966,1.812628,4.297661,5.6516376
LASS2,8.626012,5.5039487,-0.034842856,-0.07280717,9.35372,11.833572,-0.08526676,-0.05505821,14.678625,-0.09918658,4.903224,10.81621,-0.035788417,3.1554086,7.382049,9.145373
RASSF4,8.625591,5.5037227,-0.034844693,-0.072806284,9.354147,11.833433,-0.08526475,-0.05505704,14.679087,-0.09918469,4.9036736,10.816393,-0.035784263,3.1551728,7.3817105,9.145188
1810027O10RIK,8.626012,5.5039487,-0.034842856,-0.07280717,9.35372,11.833572,-0.08526676,-0.05505821,14.678625,-0.09918658,4.903224,10.81621,-0.035788417,3.1554086,7.382049,9.145373
SMAD2,5.4202323,3.4335968,-0.022136599,-0.046843484,5.6640325,6.9952884,-0.053558256,-0.03408009,8.920615,-0.05685705,3.0707698,6.6294885,-0.022314029,1.8324258,4.3484445,5.7183046
NME2,5.4348006,3.4436424,-0.022196753,-0.047002845,5.679628,7.016293,-0.053707745,-0.034160018,8.951427,-0.05707599,3.0739086,6.651896,-0.022401443,1.8429794,4.3640623,5.7372937
ATP6V1F,8.626012,5.5039487,-0.034842856,-0.07280717,9.35372,11.833572,-0.08526676,-0.05505821,14.678625,-0.09918658,4.903224,10.81621,-0.035788417,3.1554086,7.382049,9.145373
ATP5G1,8.626012,5.5039487,-0.034842856,-0.07280717,9.35372,11.833572,-0.08526676,-0.05505821,14.678625,-0.09918658,4.903224,10.81621,-0.035788417,3.1554086,7.382049,9.145373
PCNP,8.626012,5.5039487,-0.034842856,-0.07280717,9.35372,11.833572,-0.08526676,-0.05505821,14.678625,-0.09918658,4.903224,10.81621,-0.035788417,3.1554086,7.382049,9.145373
B2M,7.453488,4.71894,-0.03044918,-0.06200156,7.960191,9.909215,-0.07252974,-0.045688502,12.561169,-0.082752205,4.1135707,9.263703,-0.031049713,2.629213,6.220413,7.9565563
SLAMF9,8.626889,5.5046363,-0.034832835,-0.072801426,9.353078,11.832719,-0.08526097,-0.055049453,14.679466,-0.099192925,4.904269,10.815874,-0.03579893,3.1544893,7.38154,9.144425
CYB5,8.626012,5.5039487,-0.034842856,-0.07280717,9.35372,11.833572,-0.08526676,-0.05505821,14.678625,-0.09918658,4.903224,10.81621,-0.035788417,3.1554086,7.382049,9.145373
RPS13,5.366383,3.393772,-0.021920716,-0.046451963,5.6020026,6.9189196,-0.053054802,-0.033757582,8.828321,-0.05623493,3.041469,6.561138,-0.02206704,1.8151698,4.3034267,5.6585317
FOXJ3,8.626012,5.5039487,-0.034842856,-0.07280717,9.35372,11.833572,-0.08526676,-0.05505821,14.678625,-0.09918658,4.903224,10.81621,-0.035788417,3.1554086,7.382049,9.145373
NAPSA,8.626012,5.5039487,-0.034842856,-0.07280717,9.35372,11.833572,-0.08526676,-0.05505821,14.678625,-0.09918658,4.903224,10.81621,-0.035788417,3.1554086,7.382049,9.145373
SDHD,8.626012,5.5039487,-0.034842856,-0.07280717,9.35372,11.833572,-0.08526676,-0.05505821,14.678625,-0.09918658,4.903224,10.81621,-0.035788417,3.1554086,7.382049,9.145373
IL1R2,8.626012,5.5039487,-0.034842856,-0.07280717,9.35372,11.833572,-0.08526676,-0.05505821,14.678625,-0.09918658,4.903224,10.81621,-0.035788417,3.1554086,7.382049,9.145373
NDUFV3,7.35324,5.116205,-0.022273889,-0.06205658,8.188567,11.779972,-0.07579189,-0.048490252,12.726271,-0.09014159,5.0471587,8.844037,-0.037539944,4.1077003,6.6570554,7.2916684
RFC1,4.661386,2.911929,-0.017997622,-0.040010266,4.8292246,6.824005,-0.050895724,-0.03276211,8.0236435,-0.054272685,2.6514046,5.829271,-0.021536602,1.9215636,3.682561,5.6943145
VPS28,8.190175,5.265244,-0.03226993,-0.06980272,8.896368,11.247394,-0.08213551,-0.053537663,13.834059,-0.09436153,4.7513604,10.239846,-0.03341676,3.0206518,6.9827657,8.59632
COX5B,8.626012,5.5039487,-0.034842856,-0.07280717,9.35372,11.833572,-0.08526676,-0.05505821,14.678625,-0.09918658,4.903224,10.81621,-0.035788417,3.1554086,7.382049,9.145373
TLR4,6.6767726,4.246356,-0.02740793,-0.055986594,7.0670996,8.829465,-0.06518241,-0.041156493,11.216464,-0.072921015,3.7049189,8.260363,-0.028013416,2.338054,5.520775,7.1346793
HCLS1,8.122813,5.234843,-0.03210744,-0.07047183,8.894219,11.266728,-0.082283504,-0.053975813,13.797316,-0.093753695,4.78038,10.307708,-0.033603504,2.980328,6.944786,8.507722
AA467197,8.42356,4.4586763,-0.042642437,-0.057338163,7.957983,12.238704,-0.08317683,-0.053072292,14.637642,-0.09656538,4.24077,9.594337,-0.043184627,2.558094,8.377861,8.149211
TCOF1,8.626012,5.5039487,-0.034842856,-0.07280717,9.35372,11.833572,-0.08526676,-0.05505821,14.678625,-0.09918658,4.903224,10.81621,-0.035788417,3.1554086,7.382049,9.145373
DPEP2,8.6231165,5.502285,-0.034819026,-0.07281858,9.3517065,11.835585,-0.08527917,-0.05507236,14.676014,-0.099159464,4.9011145,10.812441,-0.035802644,3.1566243,7.3843884,9.142631
RPL34,7.843615,4.874601,-0.03228763,-0.07092181,8.548016,10.849405,-0.07766867,-0.050523546,13.548705,-0.08973423,4.5437922,10.154438,-0.029376678,3.3180814,6.8197,8.208299
TAF7,5.403933,3.421303,-0.022069672,-0.046736374,5.6449575,6.9711246,-0.05341834,-0.03398094,8.893829,-0.056679163,3.0604565,6.609052,-0.022243792,1.8287456,4.3350325,5.7009263
KLF10,8.625591,5.5037227,-0.034844693,-0.072806284,9.354147,11.833433,-0.08526475,-0.05505704,14.679087,-0.09918469,4.9036736,10.816393,-0.035784263,3.1551728,7.3817105,9.145188
2310016C08RIK,8.626012,5.5039487,-0.034842856,-0.07280717,9.35372,11.833572,-0.08526676,-0.05505821,14.678625,-0.09918658,4.903224,10.81621,-0.035788417,3.1554086,7.382049,9.145373
POLDIP3,5.3946333,3.4109733,-0.022020163,-0.04656511,5.6309333,6.9498715,-0.05322303,-0.03391349,8.871219,-0.056515135,3.0550358,6.591918,-0.022189958,1.8218188,4.324069,5.6818056
TFDP1,5.4712315,3.4706223,-0.022308555,-0.047198217,5.7186894,7.0583143,-0.05392419,-0.034390137,9.001606,-0.057393234,3.0947998,6.6935744,-0.022554645,1.8487539,4.3866096,5.76639
SSR2,8.626012,5.5039487,-0.034842856,-0.07280717,9.35372,11.833572,-0.08526676,-0.05505821,14.678625,-0.09918658,4.903224,10.81621,-0.035788417,3.1554086,7.382049,9.145373
FCGR2B,8.215288,5.225769,-0.033700977,-0.068447,8.836276,11.098767,-0.08030741,-0.051145926,13.980476,-0.09305804,4.5755944,10.241413,-0.034470968,2.9316475,6.984726,8.758424
GM10653,8.626012,5.5039487,-0.034842856,-0.07280717,9.35372,11.833572,-0.08526676,-0.05505821,14.678625,-0.09918658,4.903224,10.81621,-0.035788417,3.1554086,7.382049,9.145373
EWSR1,4.882966,3.1536582,-0.025888318,-0.046934593,4.8455935,6.5189385,-0.053155567,-0.038324986,8.151993,-0.054940194,2.8020108,6.120192,-0.018600872,1.62949,3.6242251,5.4411325
CHMP2A,8.626325,5.504034,-0.03484219,-0.072805956,9.353368,11.833503,-0.085269764,-0.05505445,14.677954,-0.09918628,4.903005,10.815657,-0.03579295,3.1549728,7.3824506,9.146022
ATP5J,8.626012,5.5039487,-0.034842856,-0.07280717,9.35372,11.833572,-0.08526676,-0.05505821,14.678625,-0.09918658,4.903224,10.81621,-0.035788417,3.1554086,7.382049,9.145373
ZNRD1,5.3903646,3.411045,-0.02201503,-0.046628103,5.62948,6.9525003,-0.0532795,-0.03389469,8.870259,-0.056520097,3.053643,6.5916753,-0.02217643,1.8236772,4.324052,5.6854186
SDCBP,7.9844413,5.018078,-0.03311107,-0.06650495,8.565105,10.807373,-0.07759002,-0.04874289,13.646769,-0.090691,4.3636827,10.050584,-0.033167794,2.9470904,6.83414,8.540128
PBRM1,5.695645,3.6111376,-0.023304652,-0.04875086,5.9711156,7.4009237,-0.055987842,-0.0354577,9.427217,-0.060398288,3.198084,6.995255,-0.02360985,1.9429338,4.615686,6.030151
TUBB5,5.361259,3.3905437,-0.02190319,-0.046420734,5.59665,6.911967,-0.053010087,-0.033731397,8.819976,-0.056175493,3.0392315,6.5554123,-0.022042602,1.8131157,4.2988706,5.653152
ATF2,5.4604783,3.455918,-0.02233705,-0.04709346,5.708782,7.0528474,-0.05389318,-0.03427442,8.995025,-0.057372436,3.0898771,6.681822,-0.022504102,1.8501892,4.390599,5.763169
ETV3,6.162377,3.9383447,-0.025127625,-0.05255684,6.505196,8.064631,-0.06030695,-0.03838024,10.279606,-0.06623256,3.445004,7.6134,-0.025770616,2.1136956,5.017332,6.5971656
FOXN2,8.626012,5.5039487,-0.034842856,-0.07280717,9.35372,11.833572,-0.08526676,-0.05505821,14.678625,-0.09918658,4.903224,10.81621,-0.035788417,3.1554086,7.382049,9.145373
IL2RG,7.014257,4.4426255,-0.028755428,-0.0585048,7.4583306,9.302925,-0.068501845,-0.043134745,11.814726,-0.07733682,3.8852274,8.711256,-0.029326716,2.458693,5.80201,7.5350823
CD74,7.89076,5.027603,-0.032866422,-0.06524836,8.483352,10.748029,-0.07771651,-0.048940014,13.540528,-0.089942634,4.4019876,9.887756,-0.033445276,2.8393683,6.7453713,8.5381975
FLI1,7.450296,4.7185745,-0.031178636,-0.062410444,7.9858103,10.00794,-0.07279336,-0.04598141,12.69018,-0.08308936,4.1196666,9.315086,-0.031466115,2.6021848,6.2414575,8.027494
ARID1A,5.4190526,3.4310057,-0.02213946,-0.046819482,5.6621494,6.9926925,-0.053552102,-0.034068312,8.917455,-0.05683428,3.0692437,6.626024,-0.022303065,1.8318897,4.3472514,5.7163086
VDAC3,8.626012,5.5039487,-0.034842856,-0.07280717,9.35372,11.833572,-0.08526676,-0.05505821,14.678625,-0.09918658,4.903224,10.81621,-0.035788417,3.1554086,7.382049,9.145373
NOTCH2,8.418743,5.3591833,-0.033620715,-0.07205353,9.117024,11.565646,-0.08382271,-0.05511135,14.090803,-0.09605493,4.8650002,10.460087,-0.034420267,3.0124457,7.0692225,8.8338175
SRSF1,8.626012,5.5039487,-0.034842856,-0.07280717,9.35372,11.833572,-0.08526676,-0.05505821,14.678625,-0.09918658,4.903224,10.81621,-0.035788417,3.1554086,7.382049,9.145373
RPSA,5.362033,3.3905947,-0.021900486,-0.046439543,5.597463,6.9159575,-0.053032625,-0.033751987,8.823294,-0.056194738,3.038587,6.555605,-0.022070384,1.8147895,4.3024263,5.653453
CKS1B,8.340371,5.2738295,-0.033434726,-0.070291445,8.983682,11.386852,-0.08183072,-0.0530613,14.15983,-0.09524874,4.700641,10.3693695,-0.03511393,2.9430437,7.0309258,8.84807
UBE2L6,5.227208,3.2066443,-0.022504501,-0.0479765,5.478238,6.827919,-0.050991826,-0.032450862,8.907321,-0.054828625,2.9601278,6.641068,-0.019979417,2.0478637,4.274437,5.5837293
SUPT6H,8.5699,5.527158,-0.033647675,-0.07704818,9.110727,11.644546,-0.088168345,-0.050901685,13.848145,-0.102190845,4.3219914,11.179722,-0.030816736,3.611826,7.4049287,8.263582
CRIPT,8.626012,5.5039487,-0.034842856,-0.07280717,9.35372,11.833572,-0.08526676,-0.05505821,14.678625,-0.09918658,4.903224,10.81621,-0.035788417,3.1554086,7.382049,9.145373
COX7A2L,8.626012,5.5039487,-0.034842856,-0.07280717,9.35372,11.833572,-0.08526676,-0.05505821,14.678625,-0.09918658,4.903224,10.81621,-0.035788417,3.1554086,7.382049,9.145373
CALR,8.542572,5.4186935,-0.03390262,-0.071844146,9.196705,11.542962,-0.083749585,-0.054319248,14.4391365,-0.097517155,4.821867,10.6122055,-0.035046954,3.085612,7.238408,9.026943
TBCA,8.625591,5.5037227,-0.034844693,-0.072806284,9.354147,11.833433,-0.08526475,-0.05505704,14.679087,-0.09918469,4.9036736,10.816393,-0.035784263,3.1551728,7.3817105,9.145188
TRP53,5.418165,3.4306567,-0.02213144,-0.046820134,5.6611547,6.9918656,-0.053542912,-0.03405651,8.918362,-0.056847446,3.0687141,6.626388,-0.022302227,1.8330581,4.348223,5.715999
VAMP8,8.626012,5.5039487,-0.034842856,-0.07280717,9.35372,11.833572,-0.08526676,-0.05505821,14.678625,-0.09918658,4.903224,10.81621,-0.035788417,3.1554086,7.382049,9.145373
CBX3,5.368602,3.395798,-0.021933949,-0.046471357,5.60488,6.9218626,-0.053082116,-0.03377653,8.832067,-0.05625838,3.0431204,6.564275,-0.02207412,1.8154502,4.305125,5.660953
1810006K21RIK,8.626012,5.5039487,-0.034842856,-0.07280717,9.35372,11.833572,-0.08526676,-0.05505821,14.678625,-0.09918658,4.903224,10.81621,-0.035788417,3.1554086,7.382049,9.145373
OSTC,8.5699,5.527158,-0.033647675,-0.07704818,9.110727,11.644546,-0.088168345,-0.050901685,13.848145,-0.102190845,4.3219914,11.179722,-0.030816736,3.611826,7.4049287,8.263582
NFKBIB,5.4518037,3.4539096,-0.022278322,-0.04705649,5.699239,7.0411134,-0.053856734,-0.034246728,8.978499,-0.057251386,3.0854743,6.669543,-0.022462925,1.8450198,4.377498,5.753141
RPS3A,8.626012,5.5039487,-0.034842856,-0.07280717,9.35372,11.833572,-0.08526676,-0.05505821,14.678625,-0.09918658,4.903224,10.81621,-0.035788417,3.1554086,7.382049,9.145373
PPIA,8.626012,5.5039487,-0.034842856,-0.07280717,9.35372,11.833572,-0.08526676,-0.05505821,14.678625,-0.09918658,4.903224,10.81621,-0.035788417,3.1554086,7.382049,9.145373
TCF7L2,5.381631,3.4047544,-0.021985888,-0.046559546,5.6193194,6.939136,-0.05320466,-0.033851698,8.853359,-0.05640396,3.049629,6.57962,-0.022131575,1.8196464,4.3159957,5.6747627
RDBP,8.626012,5.5039487,-0.034842856,-0.07280717,9.35372,11.833572,-0.08526676,-0.05505821,14.678625,-0.09918658,4.903224,10.81621,-0.035788417,3.1554086,7.382049,9.145373
DYNC1LI1,5.3665566,3.3943093,-0.021926014,-0.046454586,5.602621,6.919004,-0.053061564,-0.03376316,8.828607,-0.056232527,3.0420375,6.5615196,-0.022065096,1.8146241,4.3032565,5.6586585
RPL24,8.023846,5.1440525,-0.03134188,-0.06861679,8.707306,10.954968,-0.08061303,-0.0524173,13.380578,-0.09155438,4.656486,10.022667,-0.03237527,2.9577684,6.842644,8.285187
PSMA3,5.398976,3.4169886,-0.022060959,-0.046663307,5.638867,6.962869,-0.05337594,-0.033950273,8.882313,-0.056595486,3.0588837,6.5996737,-0.022211138,1.8254197,4.3301945,5.6934023
H2-T23,8.626012,5.5039487,-0.034842856,-0.07280717,9.35372,11.833572,-0.08526676,-0.05505821,14.678625,-0.09918658,4.903224,10.81621,-0.035788417,3.1554086,7.382049,9.145373
NR4A1,6.706928,4.259898,-0.027526917,-0.05621554,7.1030426,8.855703,-0.06544682,-0.041251566,11.244818,-0.073212005,3.714343,8.298715,-0.028078888,2.3424413,5.535255,7.16772
POLR1D,5.4161024,3.4300435,-0.022120502,-0.04683498,5.6585155,6.988999,-0.05353181,-0.034049697,8.916176,-0.056835108,3.0658987,6.6254945,-0.022304172,1.8341963,4.346776,5.714758
RPL36A,7.3230124,5.5612407,-0.035595108,-0.07650433,8.894835,10.552135,-0.07875223,-0.052459817,13.765398,-0.097896576,3.8273485,11.399565,-0.03238827,2.8335152,7.6660447,8.862567
ITGB2,8.626296,5.50281,-0.03484434,-0.072810546,9.353286,11.832577,-0.08527899,-0.055058718,14.679495,-0.099196546,4.903645,10.815441,-0.035790905,3.1559234,7.381932,9.145433
PRELID1,8.626012,5.5039487,-0.034842856,-0.07280717,9.35372,11.833572,-0.08526676,-0.05505821,14.678625,-0.09918658,4.903224,10.81621,-0.035788417,3.1554086,7.382049,9.145373
GPX1,8.626012,5.5039487,-0.034842856,-0.07280717,9.35372,11.833572,-0.08526676,-0.05505821,14.678625,-0.09918658,4.903224,10.81621,-0.035788417,3.1554086,7.382049,9.145373
ACTB,5.4221287,3.434715,-0.022154488,-0.046888303,5.6663857,6.9976206,-0.05359637,-0.034094527,8.926846,-0.05690216,3.0694113,6.6343083,-0.022324864,1.8355207,4.3508554,5.722366
D8ERTD738E,8.626012,5.5039487,-0.034842856,-0.07280717,9.35372,11.833572,-0.08526676,-0.05505821,14.678625,-0.09918658,4.903224,10.81621,-0.035788417,3.1554086,7.382049,9.145373
SPP1,6.656049,4.2143927,-0.02712571,-0.055844467,7.036795,8.784493,-0.06486439,-0.04116203,11.1512785,-0.07236369,3.7134535,8.20921,-0.027948234,2.3095772,5.441133,7.136559
CD200R1,8.626012,5.5039487,-0.034842856,-0.07280717,9.35372,11.833572,-0.08526676,-0.05505821,14.678625,-0.09918658,4.903224,10.81621,-0.035788417,3.1554086,7.382049,9.145373
FAU,8.168667,5.2220583,-0.031924494,-0.06942106,8.847894,11.137182,-0.0816305,-0.053027086,13.651458,-0.09323919,4.7154984,10.164352,-0.03308588,3.0022576,6.9572034,8.467201
MTA2,5.418035,3.430517,-0.022130866,-0.046821173,5.661101,6.9913383,-0.05354372,-0.03406346,8.916547,-0.056830987,3.068752,6.625259,-0.022300756,1.832185,4.346551,5.715922
EIF3I,5.3589005,3.388954,-0.021893322,-0.046405893,5.594024,6.9089437,-0.05298719,-0.03371792,8.816246,-0.056149796,3.0380342,6.552708,-0.022033446,1.8123809,4.296945,5.6507306
NSD1,8.625734,5.5039735,-0.034834206,-0.07281508,9.353074,11.832537,-0.0852778,-0.055056497,14.677156,-0.09918912,4.902473,10.815428,-0.035775665,3.1545916,7.382117,9.144692
LDB1,7.3952017,4.667037,-0.030717915,-0.06163826,7.9038835,9.896047,-0.07210377,-0.045325898,12.559921,-0.08238913,4.076948,9.239386,-0.031003876,2.6103218,6.1867504,7.961843
GM11428,8.626012,5.5039487,-0.034842856,-0.07280717,9.35372,11.833572,-0.08526676,-0.05505821,14.678625,-0.09918658,4.903224,10.81621,-0.035788417,3.1554086,7.382049,9.145373
TWF1,5.3589005,3.388954,-0.021893322,-0.046405893,5.594024,6.9089437,-0.05298719,-0.03371792,8.816246,-0.056149796,3.0380342,6.552708,-0.022033446,1.8123809,4.296945,5.6507306
MATR3,5.0564513,3.2918665,-0.023077203,-0.048961487,5.287979,6.685031,-0.05170262,-0.033104394,8.596064,-0.054688387,2.5872562,6.615565,-0.023037171,1.8462279,4.2649927,5.3149457
SHFM1,6.2810173,4.0117235,-0.025790326,-0.053343475,6.646761,8.249779,-0.061426643,-0.038910456,10.504712,-0.067841366,3.498872,7.7825937,-0.02626694,2.1743262,5.1412897,6.747298
SSR4,8.626012,5.5039487,-0.034842856,-0.07280717,9.35372,11.833572,-0.08526676,-0.05505821,14.678625,-0.09918658,4.903224,10.81621,-0.035788417,3.1554086,7.382049,9.145373
STAT3,5.5001526,3.49294,-0.022438815,-0.047447544,5.7554035,7.111516,-0.05426208,-0.034543395,9.059139,-0.05778095,3.1118753,6.733717,-0.022695612,1.8603747,4.414825,5.8068767
H1F0,6.5982366,3.4906118,-0.03339814,-0.044971704,6.098821,9.227254,-0.064237475,-0.040228587,11.296844,-0.071656354,3.2621334,7.4209166,-0.03387365,1.9025388,6.2794895,6.4931226
PGK1,8.626012,5.5039487,-0.034842856,-0.07280717,9.35372,11.833572,-0.08526676,-0.05505821,14.678625,-0.09918658,4.903224,10.81621,-0.035788417,3.1554086,7.382049,9.145373
RPS3,5.455054,3.4547677,-0.022268789,-0.047129374,5.703543,7.045341,-0.0538643,-0.03428522,8.985337,-0.057297304,3.0892699,6.6746693,-0.022470841,1.8455796,4.3777575,5.760899
CHMP5,8.198322,5.262773,-0.032292627,-0.06967281,8.895721,11.238591,-0.08204138,-0.053571966,13.83341,-0.09434595,4.7492957,10.237299,-0.033453304,3.0195296,6.9847865,8.586367
PSMB1,5.370343,3.396631,-0.021934474,-0.046472996,5.605975,6.9230504,-0.05308926,-0.033781398,8.833893,-0.05627273,3.0433576,6.5653253,-0.02207862,1.8162637,4.305978,5.661834
HNRNPK,5.400397,3.4191296,-0.022057561,-0.046713118,5.641482,6.9666905,-0.053384032,-0.033960905,8.888328,-0.05664145,3.0591586,6.605533,-0.022224642,1.8271941,4.3321013,5.6973586
CNOT6,8.616497,5.428565,-0.034901634,-0.073015995,9.3374405,11.772556,-0.08409262,-0.054683898,14.604999,-0.09819907,4.8751826,10.764683,-0.035540912,3.0962408,7.298988,9.150992
HSP90AB1,5.427441,3.4376037,-0.022178106,-0.046889372,5.6716385,7.0054536,-0.053637307,-0.03412068,8.933859,-0.056945875,3.073038,6.6383233,-0.022350725,1.8358028,4.3551927,5.726587
PAPOLA,5.3930397,3.4140213,-0.022027628,-0.04665902,5.6333623,6.9566193,-0.053313307,-0.03391868,8.8755,-0.056552757,3.0557015,6.5963626,-0.022190599,1.8242697,4.3255005,5.6892333
BLVRB,8.626012,5.5039487,-0.034842856,-0.07280717,9.35372,11.833572,-0.08526676,-0.05505821,14.678625,-0.09918658,4.903224,10.81621,-0.035788417,3.1554086,7.382049,9.145373
TRAPPC2L,8.626012,5.5039487,-0.034842856,-0.07280717,9.35372,11.833572,-0.08526676,-0.05505821,14.678625,-0.09918658,4.903224,10.81621,-0.035788417,3.1554086,7.382049,9.145373
DDB1,5.4090624,3.4251633,-0.022092694,-0.046778567,5.6508937,6.978437,-0.05346863,-0.03401279,8.902757,-0.05674245,3.0631166,6.616055,-0.022266688,1.8306231,4.3397264,5.7067633
MYST2,8.626012,5.5039487,-0.034842856,-0.07280717,9.35372,11.833572,-0.08526676,-0.05505821,14.678625,-0.09918658,4.903224,10.81621,-0.035788417,3.1554086,7.382049,9.145373
TMEM14C,8.626012,5.5039487,-0.034842856,-0.07280717,9.35372,11.833572,-0.08526676,-0.05505821,14.678625,-0.09918658,4.903224,10.81621,-0.035788417,3.1554086,7.382049,9.145373
DNAJC15,8.626012,5.5039487,-0.034842856,-0.07280717,9.35372,11.833572,-0.08526676,-0.05505821,14.678625,-0.09918658,4.903224,10.81621,-0.035788417,3.1554086,7.382049,9.145373
RPS10,8.626012,5.5039487,-0.034842856,-0.07280717,9.35372,11.833572,-0.08526676,-0.05505821,14.678625,-0.09918658,4.903224,10.81621,-0.035788417,3.1554086,7.382049,9.145373
CREM,5.398084,3.4157329,-0.022052974,-0.04666738,5.6375933,6.9618587,-0.053356428,-0.03394379,8.88083,-0.056589592,3.058047,6.598943,-0.02220487,1.8250914,4.3302455,5.6922216
CTSC,7.905376,5.1037235,-0.031086022,-0.06835646,8.591086,10.835138,-0.080148265,-0.05253491,13.222015,-0.090618424,4.6168017,9.908009,-0.031937297,2.89446,6.7354918,8.182871
RPL7A,8.626012,5.5039487,-0.034842856,-0.07280717,9.35372,11.833572,-0.08526676,-0.05505821,14.678625,-0.09918658,4.903224,10.81621,-0.035788417,3.1554086,7.382049,9.145373
EEF1G,5.385334,3.4085472,-0.021985395,-0.046591826,5.625051,6.946731,-0.05321844,-0.033866055,8.862011,-0.056458063,3.0529487,6.586444,-0.022149181,1.8206723,4.3182955,5.680575
UPF1,5.398958,3.4159029,-0.022059374,-0.046662007,5.639797,6.963316,-0.053363755,-0.03394125,8.883758,-0.056611605,3.0599167,6.600368,-0.022200722,1.8246124,4.3316493,5.6942687
MED21,5.431437,3.440706,-0.022174576,-0.046957426,5.676532,7.0112143,-0.053663053,-0.03414653,8.942658,-0.057013854,3.0752354,6.6452646,-0.022371484,1.8385055,4.3587227,5.7329264
HSP90B1,5.3881397,3.4091265,-0.022011764,-0.046593126,5.6257534,6.9471965,-0.053264823,-0.033890016,8.86356,-0.056472663,3.0527804,6.586448,-0.022159707,1.8218273,4.320972,5.6808257
ZFP148,7.9013987,6.0477977,-0.04427747,-0.0764168,9.150355,10.706495,-0.09355116,-0.06391544,13.729626,-0.08360154,5.127124,10.275454,-0.026924977,1.9726493,6.1257195,8.498111
SRP14,8.192119,5.363853,-0.03652394,-0.07644166,8.914454,11.511181,-0.08341193,-0.05416967,14.360939,-0.09707735,4.258616,10.903496,-0.03721272,3.203068,7.3346896,8.663848
ASH1L,5.366162,3.3935292,-0.021919051,-0.04644904,5.601636,6.9183726,-0.053052697,-0.033756685,8.827602,-0.056229405,3.0413983,6.560554,-0.022065196,1.814986,4.3030376,5.65806
KDM5A,6.041171,3.8683863,-0.024713391,-0.051791873,6.3748765,7.898898,-0.05926505,-0.037763808,10.070805,-0.06478303,3.3761017,7.4780164,-0.025226874,2.073725,4.9209046,6.4671407
S100A10,8.626012,5.5039487,-0.034842856,-0.07280717,9.35372,11.833572,-0.08526676,-0.05505821,14.678625,-0.09918658,4.903224,10.81621,-0.035788417,3.1554086,7.382049,9.145373
CAPZA2,7.4831967,4.756652,-0.030953607,-0.062149394,8.018973,10.053963,-0.07296785,-0.045955695,12.719807,-0.08361297,4.1497283,9.317524,-0.031729043,2.6251695,6.2951984,8.068357
ATP6V1E1,8.626012,5.5039487,-0.034842856,-0.07280717,9.35372,11.833572,-0.08526676,-0.05505821,14.678625,-0.09918658,4.903224,10.81621,-0.035788417,3.1554086,7.382049,9.145373
CTSL,7.9013987,6.0477977,-0.04427747,-0.0764168,9.150355,10.706495,-0.09355116,-0.06391544,13.729626,-0.08360154,5.127124,10.275454,-0.026924977,1.9726493,6.1257195,8.498111
CISH,5.428369,3.438504,-0.022182943,-0.046906374,5.6734166,7.006409,-0.053643517,-0.03411683,8.936469,-0.05696631,3.072787,6.6408963,-0.02234657,1.8370523,4.3558903,5.728697
MKL2,8.626012,5.5039487,-0.034842856,-0.07280717,9.35372,11.833572,-0.08526676,-0.05505821,14.678625,-0.09918658,4.903224,10.81621,-0.035788417,3.1554086,7.382049,9.145373
RPS18,5.4496026,3.4547017,-0.022266094,-0.0471226,5.6986117,7.038944,-0.05385095,-0.034252472,8.980693,-0.057274528,3.083233,6.674291,-0.022465613,1.8475935,4.3772197,5.7573705
NDUFB10,8.626012,5.5039487,-0.034842856,-0.07280717,9.35372,11.833572,-0.08526676,-0.05505821,14.678625,-0.09918658,4.903224,10.81621,-0.035788417,3.1554086,7.382049,9.145373
SP100,8.626012,5.5039487,-0.034842856,-0.07280717,9.35372,11.833572,-0.08526676,-0.05505821,14.678625,-0.09918658,4.903224,10.81621,-0.035788417,3.1554086,7.382049,9.145373
CEBPA,5.3721514,3.3974197,-0.02195158,-0.046487607,5.6080036,6.9257555,-0.053106733,-0.033793576,8.83842,-0.0563027,3.0441437,6.567742,-0.022096395,1.8165418,4.3079224,5.663791
TAF9,5.40558,3.4225717,-0.022075934,-0.04674554,5.6473594,6.974319,-0.05343034,-0.033990007,8.897295,-0.056702506,3.0622637,6.6117344,-0.022249341,1.8288716,4.336483,5.7031083
RBPJ,7.409114,4.856116,-0.018306784,-0.046631802,7.795294,7.8658423,-0.057354238,-0.032617595,10.199122,-0.06293024,3.771458,7.0577006,-0.025980959,2.389447,5.2159095,6.743479
SEPT2,8.471709,5.391842,-0.034115586,-0.06560033,9.343108,10.970165,-0.08382768,-0.0502429,13.691665,-0.094579406,5.122181,10.38286,-0.03048732,3.1930907,7.571564,9.175931
MAP1LC3B,6.7291055,4.2595353,-0.027490564,-0.056357443,7.1222486,8.886716,-0.0655952,-0.041578166,11.282808,-0.073333114,3.7487738,8.311529,-0.028230876,2.3395228,5.515791,7.2136455
REL,5.4111304,3.4260788,-0.022109648,-0.04675683,5.6530266,6.981151,-0.053491216,-0.034021154,8.903816,-0.056744408,3.0648384,6.615971,-0.022270722,1.8300699,4.340584,5.707027
ETFB,8.626012,5.5039487,-0.034842856,-0.07280717,9.35372,11.833572,-0.08526676,-0.05505821,14.678625,-0.09918658,4.903224,10.81621,-0.035788417,3.1554086,7.382049,9.145373
POLR2E,4.5496383,3.1555662,-0.0137014445,-0.03952367,4.860673,6.9206424,-0.04702415,-0.029557973,7.5816255,-0.05056103,3.1508608,5.288777,-0.023343448,2.4548526,3.8460476,4.4603744
NONO,5.3594565,3.3893478,-0.021895604,-0.046409376,5.5946407,6.9096713,-0.05299269,-0.033721197,8.817124,-0.05615584,3.0383248,6.5533433,-0.02203577,1.8125572,4.2973976,5.651305
P2RY14,8.626889,5.5046363,-0.034832835,-0.072801426,9.353078,11.832719,-0.08526097,-0.055049453,14.679466,-0.099192925,4.904269,10.815874,-0.03579893,3.1544893,7.38154,9.144425
DUSP1,5.4013686,3.41838,-0.02206842,-0.04668887,5.641474,6.966565,-0.053392794,-0.033963844,8.886845,-0.05663244,3.0596437,6.6035113,-0.02222219,1.8265464,4.3332453,5.696279
LAPTM5,8.626012,5.5039487,-0.034842856,-0.07280717,9.35372,11.833572,-0.08526676,-0.05505821,14.678625,-0.09918658,4.903224,10.81621,-0.035788417,3.1554086,7.382049,9.145373
ATP5L,8.5699,5.527158,-0.033647675,-0.07704818,9.110727,11.644546,-0.088168345,-0.050901685,13.848145,-0.102190845,4.3219914,11.179722,-0.030816736,3.611826,7.4049287,8.263582
CSDA,8.626012,5.5039487,-0.034842856,-0.07280717,9.35372,11.833572,-0.08526676,-0.05505821,14.678625,-0.09918658,4.903224,10.81621,-0.035788417,3.1554086,7.382049,9.145373
MT1,8.626012,5.5039487,-0.034842856,-0.07280717,9.35372,11.833572,-0.08526676,-0.05505821,14.678625,-0.09918658,4.903224,10.81621,-0.035788417,3.1554086,7.382049,9.145373
HMGB2,5.3949237,3.4139938,-0.022027206,-0.04663649,5.632407,6.9549227,-0.053316746,-0.0339167,8.8748,-0.056548104,3.0577173,6.5935626,-0.022198277,1.8223689,4.3256516,5.687125
NEDD8,5.3983817,3.417104,-0.02206311,-0.046694826,5.6383424,6.961407,-0.053369116,-0.03395423,8.884171,-0.056616306,3.0572662,6.6018114,-0.022213561,1.8262,4.3301706,5.6938024
CD68,8.626012,5.5039487,-0.034842856,-0.07280717,9.35372,11.833572,-0.08526676,-0.05505821,14.678625,-0.09918658,4.903224,10.81621,-0.035788417,3.1554086,7.382049,9.145373
CHD4,5.4782214,3.4797366,-0.022344071,-0.0473477,5.7311835,7.0795517,-0.05407019,-0.034437086,9.022561,-0.05753576,3.1010427,6.7095513,-0.02259304,1.8540595,4.395558,5.7840476
AES,8.626012,5.5039487,-0.034842856,-0.07280717,9.35372,11.833572,-0.08526676,-0.05505821,14.678625,-0.09918658,4.903224,10.81621,-0.035788417,3.1554086,7.382049,9.145373
COX6A1,8.626012,5.5039487,-0.034842856,-0.07280717,9.35372,11.833572,-0.08526676,-0.05505821,14.678625,-0.09918658,4.903224,10.81621,-0.035788417,3.1554086,7.382049,9.145373
MAPK14,5.432364,3.4388976,-0.022205224,-0.04690748,5.676976,7.013156,-0.05367705,-0.034127112,8.944836,-0.057034645,3.075122,6.6451917,-0.022370001,1.8379282,4.362383,5.732472
1100001G20RIK,8.626012,5.5039487,-0.034842856,-0.07280717,9.35372,11.833572,-0.08526676,-0.05505821,14.678625,-0.09918658,4.903224,10.81621,-0.035788417,3.1554086,7.382049,9.145373
VDR,8.626012,5.5039487,-0.034842856,-0.07280717,9.35372,11.833572,-0.08526676,-0.05505821,14.678625,-0.09918658,4.903224,10.81621,-0.035788417,3.1554086,7.382049,9.145373
BTG1,8.521461,5.378189,-0.034639217,-0.07270813,9.268577,11.713726,-0.08380134,-0.054815616,14.467209,-0.09788782,4.861921,10.687804,-0.034814842,3.0337498,7.264134,9.050564
SUPT16H,8.626012,5.5039487,-0.034842856,-0.07280717,9.35372,11.833572,-0.08526676,-0.05505821,14.678625,-0.09918658,4.903224,10.81621,-0.035788417,3.1554086,7.382049,9.145373
MAPK1,6.9336877,4.39362,-0.028363094,-0.057981364,7.361421,9.182906,-0.06765367,-0.042709418,11.657721,-0.07615108,3.8439615,8.597698,-0.029058697,2.4240434,5.7176514,7.440885
MCM3,5.383989,3.4064395,-0.02199405,-0.0465785,5.6220493,6.942407,-0.053224828,-0.033865955,8.857569,-0.05642989,3.051065,6.582408,-0.022140222,1.820562,4.3179145,5.6774006
RPLP1,6.2289248,3.972573,-0.025597142,-0.0525264,6.5709634,8.181077,-0.060895965,-0.03845388,10.395928,-0.06717762,3.4717655,7.691113,-0.026011564,2.1668942,5.1313124,6.6311164
CHI3L3,8.626012,5.5039487,-0.034842856,-0.07280717,9.35372,11.833572,-0.08526676,-0.05505821,14.678625,-0.09918658,4.903224,10.81621,-0.035788417,3.1554086,7.382049,9.145373
RPS19,7.394661,4.487323,-0.030800037,-0.059798226,8.367305,11.168421,-0.072508074,-0.043894004,13.657267,-0.09010597,5.0774975,9.172496,-0.03219086,2.3660429,7.143848,8.0719595
