,0,1,2,3,4,5,6,7,8,9,10,11,12,13,14,15
BMPR1A,-0.06296169,-0.073109746,-0.09401892,-0.066235974,-0.05694617,2.9819179,-0.05350803,-0.06980344,-0.006148995,1.586167,-0.012792038,-0.07630274,3.9579031,-0.062687084,5.645828,6.92978
P4HA2,-0.072605334,-0.08416681,-0.106787115,-0.07527821,-0.065216474,3.3703709,-0.06130773,-0.08004158,-0.007586206,1.7740762,-0.014608896,-0.086993776,4.505316,-0.072653376,6.3580513,7.9673624
HNRNPUL1,-0.067586794,-0.07790584,-0.0996069,-0.07059395,-0.060643695,3.1956224,-0.056672215,-0.07434492,-0.006636015,1.7088108,-0.013396123,-0.081049785,4.2101517,-0.066880375,6.000696,7.386672
BBS9,-0.060772054,-0.07061217,-0.09110069,-0.06431319,-0.055217724,2.9027414,-0.051588733,-0.067516856,-0.0059756385,1.5511785,-0.012489699,-0.07412867,3.8152785,-0.060488876,5.502985,6.667274
BIRC5,-0.061682377,-0.07160513,-0.092157096,-0.06517205,-0.05593653,2.9467244,-0.052270878,-0.068355374,-0.0059529818,1.5809654,-0.012535851,-0.075075455,3.8646708,-0.061377645,5.5736194,6.771861
ESYT1,-0.064493224,-0.07455599,-0.095613256,-0.0676531,-0.058125317,3.060965,-0.05428872,-0.0711451,-0.006325161,1.6441152,-0.012969909,-0.07774423,4.0202937,-0.06391099,5.763399,7.059547
ZNF101,-0.07130024,-0.07864723,-0.09505494,-0.07444557,-0.07167438,3.9385815,-0.05016997,-0.07339928,-0.013556694,1.8699763,-0.022542149,-0.08676977,4.6053905,-0.067282125,5.7148137,7.7463894
ACOX2,-0.057252366,-0.06042076,-0.08402891,-0.060808584,-0.055703554,2.008649,-0.040006004,-0.06236607,-0.008502824,1.7883272,-0.004961227,-0.06628528,3.7456446,-0.06114146,5.815524,5.680781
B4GALT3,-0.064648576,-0.07482961,-0.096014656,-0.06792436,-0.05828977,3.0680668,-0.054575752,-0.07139406,-0.006237439,1.6469921,-0.013017677,-0.0780892,4.0427046,-0.064047225,5.791361,7.0819573
BRCA2,-0.06264044,-0.072625235,-0.093321025,-0.065979,-0.05671294,2.9817033,-0.053015154,-0.069283,-0.0061135474,1.6024568,-0.012672635,-0.07598957,3.915641,-0.062280286,5.637275,6.8686585
GPN3,-0.072605334,-0.08416681,-0.106787115,-0.07527821,-0.065216474,3.3703709,-0.06130773,-0.08004158,-0.007586206,1.7740762,-0.014608896,-0.086993776,4.505316,-0.072653376,6.3580513,7.9673624
SLC39A10,-0.06714837,-0.077559136,-0.098833814,-0.070046954,-0.060318854,3.1767566,-0.05652781,-0.073696494,-0.0065701753,1.7029271,-0.013239227,-0.08062193,4.17427,-0.066577755,5.952123,7.3445845
NREP,-0.06014555,-0.07000651,-0.090238795,-0.06356971,-0.054658566,2.8728216,-0.05117083,-0.06682011,-0.005947335,1.5348623,-0.012352391,-0.07337042,3.7663517,-0.059998613,5.4305506,6.60566
EIF3J,-0.053801507,-0.066426724,-0.085554875,-0.064792715,-0.050567344,2.8124864,-0.05420614,-0.060227435,-0.001791875,1.953575,-0.011894024,-0.07138973,3.3396852,-0.05842776,5.6737237,7.3796077
CPSF6,-0.05948815,-0.072477885,-0.08892162,-0.062393706,-0.057000697,2.8443341,-0.051935486,-0.0649255,-0.0045728823,1.8041921,-0.013249658,-0.074589215,3.5845566,-0.062496223,5.4692664,6.851179
RUVBL1,-0.06323567,-0.07339542,-0.094217524,-0.066636115,-0.057250552,3.0027473,-0.053554866,-0.07004046,-0.0062612826,1.607005,-0.012856801,-0.07676133,3.9611323,-0.062977575,5.6786346,6.9496875
DDX39A,-0.06368642,-0.0737004,-0.09466207,-0.06695654,-0.057445068,3.0227916,-0.05369197,-0.07044577,-0.00634858,1.6149192,-0.0128527,-0.07699382,3.980744,-0.06330551,5.711033,6.9703317
LGALS2,-0.065026075,-0.07532952,-0.0960511,-0.067950025,-0.05865889,3.0850022,-0.054909356,-0.07146699,-0.0063132867,1.6534398,-0.013041858,-0.07834475,4.050258,-0.06455134,5.7796154,7.1299543
ANPEP,-0.072605334,-0.08416681,-0.106787115,-0.07527821,-0.065216474,3.3703709,-0.06130773,-0.08004158,-0.007586206,1.7740762,-0.014608896,-0.086993776,4.505316,-0.072653376,6.3580513,7.9673624
PHF11,-0.06089141,-0.07876374,-0.102764316,-0.07653308,-0.058404285,3.2550116,-0.05208058,-0.07668073,-0.0031221053,2.0194337,-0.022291316,-0.08697143,3.6433308,-0.060419314,6.9741683,6.9761057
DDB2,-0.06349251,-0.073545985,-0.09449992,-0.06682317,-0.057357926,3.0179987,-0.053682037,-0.070224196,-0.0061315047,1.6146946,-0.012790664,-0.07689373,3.9793608,-0.06301471,5.7035756,6.960194
GPATCH4,-0.072605334,-0.08416681,-0.106787115,-0.07527821,-0.065216474,3.3703709,-0.06130773,-0.08004158,-0.007586206,1.7740762,-0.014608896,-0.086993776,4.505316,-0.072653376,6.3580513,7.9673624
MEST,-0.06590313,-0.0761938,-0.09729362,-0.06888659,-0.05928258,3.1218848,-0.05549785,-0.07247856,-0.006427985,1.677917,-0.01311405,-0.07926583,4.096465,-0.065318875,5.8594112,7.2096686
FLAD1,-0.05579643,-0.06764877,-0.08711554,-0.06449262,-0.055995047,3.1489694,-0.051917646,-0.06483717,-0.010027468,1.4943871,-0.00966491,-0.080073595,3.190901,-0.06703037,5.5568347,6.1356983
WFDC2,-0.061271798,-0.07124806,-0.09201678,-0.06506605,-0.055580314,2.9218822,-0.052155394,-0.06821625,-0.0058739814,1.5767694,-0.012519505,-0.0749247,3.845861,-0.060846213,5.579202,6.715732
CAPG,-0.059823368,-0.06966061,-0.089838475,-0.06329682,-0.05441654,2.861625,-0.050987855,-0.06648317,-0.0059313225,1.5282209,-0.012294642,-0.07312923,3.7493765,-0.059721496,5.4035764,6.5776167
KDM4C,-0.062055796,-0.07201814,-0.092699945,-0.06546131,-0.05617748,2.95566,-0.05257113,-0.06878517,-0.006067524,1.579824,-0.012613977,-0.075376,3.8892446,-0.0617011,5.588775,6.8062162
DDAH1,-0.0630683,-0.07306295,-0.09381154,-0.066382706,-0.05705635,3.002594,-0.05319161,-0.06971132,-0.006148677,1.6166291,-0.012765599,-0.076396465,3.9336865,-0.062665835,5.6711516,6.9093747
LAMA1,-0.07260255,-0.08416421,-0.1067833,-0.07528536,-0.06521226,3.369102,-0.061312035,-0.08003773,-0.0075798715,1.7736105,-0.014603236,-0.08699453,4.5062385,-0.072643474,6.3587093,7.967641
FASTKD2,-0.072605334,-0.08416681,-0.106787115,-0.07527821,-0.065216474,3.3703709,-0.06130773,-0.08004158,-0.007586206,1.7740762,-0.014608896,-0.086993776,4.505316,-0.072653376,6.3580513,7.9673624
PLA2G16,-0.07260531,-0.08417404,-0.10678828,-0.07524459,-0.06518588,3.3666215,-0.06128482,-0.08005004,-0.0075822435,1.7716856,-0.014584542,-0.08699454,4.5013227,-0.07268372,6.3565893,7.964567
BCOR,-0.06379781,-0.07389283,-0.09479898,-0.06702144,-0.057611976,3.0330663,-0.05386631,-0.07045747,-0.0062597194,1.6271216,-0.012874433,-0.0771353,3.9804099,-0.06335065,5.7118816,6.9900074
LRRC1,-0.072605334,-0.08416681,-0.106787115,-0.07527821,-0.065216474,3.3703709,-0.06130773,-0.08004158,-0.007586206,1.7740762,-0.014608896,-0.086993776,4.505316,-0.072653376,6.3580513,7.9673624
CETN3,-0.059201058,-0.06879595,-0.08877049,-0.06255456,-0.05418955,2.8466408,-0.05004304,-0.0656773,-0.0061178715,1.5139825,-0.012264286,-0.07238534,3.690882,-0.059533533,5.3685365,6.494332
ISY1,-0.072605334,-0.08416681,-0.106787115,-0.07527821,-0.065216474,3.3703709,-0.06130773,-0.08004158,-0.007586206,1.7740762,-0.014608896,-0.086993776,4.505316,-0.072653376,6.3580513,7.9673624
PNPT1,-0.072605334,-0.08416681,-0.106787115,-0.07527821,-0.065216474,3.3703709,-0.06130773,-0.08004158,-0.007586206,1.7740762,-0.014608896,-0.086993776,4.505316,-0.072653376,6.3580513,7.9673624
POLR2D,-0.06927481,-0.07978872,-0.102004305,-0.07220526,-0.06201024,3.2586446,-0.057947505,-0.07629556,-0.006819323,1.7384338,-0.013718802,-0.082802854,4.313188,-0.06857005,6.1238484,7.576698
TBCB,-0.060134724,-0.069976196,-0.09026955,-0.06357417,-0.054754056,2.8695798,-0.051201485,-0.06684492,-0.00600462,1.5375473,-0.012401664,-0.07342196,3.7644756,-0.060035013,5.4390187,6.605962
ACTL6A,-0.06280548,-0.07296483,-0.09364479,-0.06612777,-0.056788057,2.9803498,-0.053287975,-0.06955336,-0.0061110966,1.5995421,-0.012660316,-0.076188184,3.9303896,-0.062547944,5.636813,6.9015093
TATDN3,-0.072605334,-0.08416681,-0.106787115,-0.07527821,-0.065216474,3.3703709,-0.06130773,-0.08004158,-0.007586206,1.7740762,-0.014608896,-0.086993776,4.505316,-0.072653376,6.3580513,7.9673624
SERTAD3,-0.064132944,-0.07428271,-0.0952396,-0.0672285,-0.05789038,3.041964,-0.054131906,-0.07081279,-0.006364682,1.6251948,-0.012980757,-0.07742228,3.9982872,-0.0637135,5.7213917,7.0206666
POLD3,-0.065382965,-0.07551314,-0.09671413,-0.06840364,-0.058834538,3.1000679,-0.05493199,-0.07202575,-0.006475849,1.6606485,-0.013093188,-0.07861881,4.0662017,-0.06482243,5.820123,7.1505265
CTSV,-0.072605334,-0.08416681,-0.106787115,-0.07527821,-0.065216474,3.3703709,-0.06130773,-0.08004158,-0.007586206,1.7740762,-0.014608896,-0.086993776,4.505316,-0.072653376,6.3580513,7.9673624
NCOA6,-0.06118145,-0.071203046,-0.091463506,-0.06457185,-0.0556508,2.9135664,-0.052064184,-0.067776114,-0.006147707,1.5664154,-0.012523984,-0.07457785,3.8198507,-0.061194096,5.520391,6.7274475
ZNHIT3,-0.064427555,-0.07456605,-0.0956276,-0.06758911,-0.058110125,3.0596921,-0.054403458,-0.071120195,-0.0062018693,1.6398613,-0.012945146,-0.0777995,4.023077,-0.0638617,5.765356,7.054332
MUSTN1,-0.061774977,-0.07170714,-0.092093244,-0.065105736,-0.0559259,2.945821,-0.05224572,-0.068348065,-0.0059437654,1.5862732,-0.01251475,-0.074997306,3.855559,-0.06136762,5.563257,6.7668986
CFAP20,-0.072605334,-0.08416681,-0.106787115,-0.07527821,-0.065216474,3.3703709,-0.06130773,-0.08004158,-0.007586206,1.7740762,-0.014608896,-0.086993776,4.505316,-0.072653376,6.3580513,7.9673624
RUVBL2,-0.056440055,-0.059677355,-0.083368555,-0.06024254,-0.05494259,1.9759554,-0.039614294,-0.061803665,-0.008431903,1.7620049,-0.0049525374,-0.065606,3.7034276,-0.06035195,5.7618446,5.6087356
IRF1,-0.06039622,-0.07031619,-0.09050301,-0.06381392,-0.05504072,2.8846052,-0.05136896,-0.06703333,-0.006133863,1.5410994,-0.012456427,-0.07377224,3.772094,-0.060500834,5.4586844,6.6370034
UGP2,-0.0612784,-0.07116164,-0.09163704,-0.06465066,-0.05556228,2.9228268,-0.05184837,-0.06799543,-0.0059304857,1.5586598,-0.012470046,-0.074548185,3.8341978,-0.061073456,5.5293684,6.719983
ACAA1,-0.070751615,-0.086076096,-0.10377991,-0.07263231,-0.06724725,3.2820787,-0.06153691,-0.07660986,-0.006065191,2.0606425,-0.015583469,-0.087248266,4.218986,-0.07489156,6.289213,8.159605
MYL6B,-0.064821355,-0.075000115,-0.09596342,-0.06789089,-0.05838625,3.0743322,-0.05461125,-0.0714285,-0.0063113593,1.6555595,-0.012994333,-0.078106,4.0299087,-0.064231165,5.780655,7.0913224
GTF2I,-0.06277368,-0.07277291,-0.093367785,-0.066061646,-0.056772854,2.9885368,-0.053092036,-0.069344535,-0.0060772095,1.6116056,-0.012636364,-0.07605812,3.918954,-0.062352728,5.63852,6.8828664
SRSF2,-0.06259496,-0.07262062,-0.09325141,-0.06587413,-0.056674056,2.9797633,-0.052955136,-0.06925603,-0.0063224137,1.5834513,-0.012750859,-0.075838685,3.915095,-0.062287696,5.6286693,6.863948
BZW2,-0.06304051,-0.073078275,-0.09374993,-0.06634594,-0.05695042,2.9998302,-0.053214025,-0.06966231,-0.0060500274,1.615428,-0.012711027,-0.07634798,3.9348273,-0.06253459,5.6650276,6.901777
SYTL2,-0.06253649,-0.07256613,-0.09331557,-0.065835185,-0.05654841,2.974143,-0.052938648,-0.069270596,-0.0060456446,1.5948606,-0.012690704,-0.075816944,3.9094288,-0.062109236,5.6187615,6.8543477
A1CF,-0.072605334,-0.08416681,-0.106787115,-0.07527821,-0.065216474,3.3703709,-0.06130773,-0.08004158,-0.007586206,1.7740762,-0.014608896,-0.086993776,4.505316,-0.072653376,6.3580513,7.9673624
NCOA1,-0.061273918,-0.071285166,-0.09154107,-0.06462845,-0.05566987,2.921227,-0.05204203,-0.06786845,-0.0060549923,1.5671774,-0.012515743,-0.07462294,3.8279512,-0.061188255,5.5230584,6.7323465
TMEM97,-0.064010866,-0.074104354,-0.09499223,-0.06721403,-0.057763137,3.041021,-0.054080606,-0.07061174,-0.0062189866,1.6337358,-0.01285098,-0.07733595,3.997165,-0.06347671,5.7276707,7.013442
ACAD11,-0.060795516,-0.070783935,-0.091157414,-0.064237446,-0.055163402,2.8985267,-0.051689308,-0.06755178,-0.005932321,1.5510993,-0.0124161225,-0.07406521,3.8077304,-0.06062139,5.483726,6.676525
PTMA,-0.055142697,-0.07618862,-0.09648535,-0.063596874,-0.0470921,2.5096946,-0.057364576,-0.0692842,-0.0044313073,0.5830515,-0.018211646,-0.07666133,4.0245748,-0.053194545,4.7526245,6.1962957
POU5F1,-0.060153913,-0.07421108,-0.08572018,-0.05608002,-0.05523917,2.649636,-0.053246483,-0.06862794,-0.00045850954,1.696523,-0.014850738,-0.07069853,2.9243147,-0.060210783,4.693792,7.042554
HMMR,-0.06714837,-0.077559136,-0.098833814,-0.070046954,-0.060318854,3.1767566,-0.05652781,-0.073696494,-0.0065701753,1.7029271,-0.013239227,-0.08062193,4.17427,-0.066577755,5.952123,7.3445845
PROSER1,-0.06251581,-0.072537675,-0.09321906,-0.065826654,-0.056637987,2.9775152,-0.052894965,-0.069223754,-0.006152875,1.5958853,-0.012706874,-0.075866975,3.9011483,-0.062284417,5.619251,6.8599625
ATIC,-0.067144476,-0.07755551,-0.098828495,-0.07005693,-0.060312975,3.1749868,-0.056533813,-0.073691115,-0.006561341,1.7022777,-0.013231332,-0.08062298,4.175557,-0.06656394,5.9530406,7.3449726
MED21,-0.06265832,-0.07261367,-0.09347088,-0.066024594,-0.056651816,2.9862008,-0.053025592,-0.06939743,-0.006071182,1.5992513,-0.012756818,-0.07601011,3.9290817,-0.06215781,5.6370873,6.8686547
EMC2,-0.065699235,-0.06714904,-0.08334733,-0.05634008,-0.058862668,3.395224,-0.045122284,-0.060454443,-0.0046600304,1.4978509,-0.013908785,-0.06397824,4.125549,-0.056775115,5.0357537,6.45274
MPC1,-0.06464397,-0.07829596,-0.099485464,-0.073482916,-0.06428329,3.552228,-0.06001724,-0.0748115,-0.012111695,1.6481925,-0.011193756,-0.09153686,3.6771939,-0.07794158,6.264231,7.1152725
SORBS2,-0.06656871,-0.06802161,-0.0843257,-0.056967214,-0.059559524,3.4318743,-0.045642536,-0.06126334,-0.004767019,1.5120437,-0.014062322,-0.064712346,4.1711726,-0.05755169,5.090343,6.529151
TRIAP1,-0.072605334,-0.08416681,-0.106787115,-0.07527821,-0.065216474,3.3703709,-0.06130773,-0.08004158,-0.007586206,1.7740762,-0.014608896,-0.086993776,4.505316,-0.072653376,6.3580513,7.9673624
VTN,-0.062769964,-0.07280714,-0.09349814,-0.06603951,-0.05680344,2.9886956,-0.053176574,-0.06941356,-0.0061275517,1.6039441,-0.012698863,-0.076108016,3.9199624,-0.06240089,5.6338305,6.8834033
MRPL2,-0.072605334,-0.08416681,-0.106787115,-0.07527821,-0.065216474,3.3703709,-0.06130773,-0.08004158,-0.007586206,1.7740762,-0.014608896,-0.086993776,4.505316,-0.072653376,6.3580513,7.9673624
TRERF1,-0.063125715,-0.07313525,-0.09395317,-0.06642244,-0.057087023,3.0037863,-0.053298347,-0.0698,-0.0061941794,1.6114917,-0.012775427,-0.07645096,3.9418674,-0.062746994,5.669606,6.918411
CHTF18,-0.06414625,-0.07433938,-0.095326565,-0.067471065,-0.057931155,3.0488477,-0.05431433,-0.07081819,-0.006167821,1.6377423,-0.01285151,-0.07768711,4.014167,-0.06368821,5.7567897,7.0329056
TERF1,-0.06128123,-0.07115098,-0.09158905,-0.06472928,-0.05571436,2.9218419,-0.051888604,-0.0679636,-0.006190566,1.5690789,-0.012541324,-0.07463931,3.8257942,-0.06122428,5.538798,6.7257338
ZHX1,-0.06256727,-0.07259917,-0.093242764,-0.065811746,-0.056716703,2.9707654,-0.052942567,-0.069228716,-0.0062604686,1.5914958,-0.012693794,-0.075904004,3.9088125,-0.062464446,5.6184974,6.871089
C2orf47,-0.055776738,-0.071429685,-0.11385932,-0.06873951,-0.053426042,1.9333037,-0.054065935,-0.08652549,-0.008981885,1.0182853,-0.01645826,-0.07480733,5.102067,-0.055947747,4.821167,6.9843073
ZDHHC13,-0.072605334,-0.08416681,-0.106787115,-0.07527821,-0.065216474,3.3703709,-0.06130773,-0.08004158,-0.007586206,1.7740762,-0.014608896,-0.086993776,4.505316,-0.072653376,6.3580513,7.9673624
GGPS1,-0.06592993,-0.076054156,-0.09744724,-0.06900801,-0.05928444,3.1232243,-0.055277593,-0.0726471,-0.0065335575,1.6726222,-0.013190108,-0.07921744,4.105265,-0.06530736,5.8730903,7.208599
DNA2,-0.06714837,-0.077559136,-0.098833814,-0.070046954,-0.060318854,3.1767566,-0.05652781,-0.073696494,-0.0065701753,1.7029271,-0.013239227,-0.08062193,4.17427,-0.066577755,5.952123,7.3445845
TGIF1,-0.061252575,-0.07119444,-0.091662884,-0.064672805,-0.05563021,2.9201775,-0.05204381,-0.06794224,-0.006041993,1.5641881,-0.012525313,-0.07460328,3.8351626,-0.061070178,5.52878,6.726617
GTF2F2,-0.061603785,-0.07151493,-0.092086725,-0.06503256,-0.055851664,2.9390814,-0.052206762,-0.06828579,-0.0060243444,1.5740746,-0.012538561,-0.074918985,3.8577814,-0.061322726,5.556872,6.7597833
TMEM147,-0.06402827,-0.074162364,-0.09518522,-0.06733108,-0.057797417,3.0417058,-0.054103214,-0.070735924,-0.0061805337,1.6339422,-0.012916778,-0.077444695,4.004172,-0.06348087,5.7443156,7.0161567
WDR54,-0.072605334,-0.08416681,-0.106787115,-0.07527821,-0.065216474,3.3703709,-0.06130773,-0.08004158,-0.007586206,1.7740762,-0.014608896,-0.086993776,4.505316,-0.072653376,6.3580513,7.9673624
PRIM2,-0.06619686,-0.07639978,-0.09786456,-0.06926196,-0.059418906,3.1318197,-0.055550013,-0.07297559,-0.006482198,1.673966,-0.013215118,-0.07947509,4.1281295,-0.06548956,5.8869123,7.2408504
KEAP1,-0.068428926,-0.07894229,-0.10055562,-0.07130775,-0.061374053,3.2334735,-0.05753683,-0.07506537,-0.0066980696,1.728806,-0.013446681,-0.08202512,4.255787,-0.06778967,6.0541606,7.4813333
PIAS2,-0.066217504,-0.07649858,-0.097728044,-0.06914399,-0.059543643,3.1365843,-0.05572154,-0.07281033,-0.006512162,1.6802933,-0.013161996,-0.07957009,4.1150317,-0.06565087,5.878441,7.239728
USP11,-0.07636598,-0.087587036,-0.111624554,-0.079133876,-0.06795466,3.5597622,-0.063869335,-0.084004454,-0.007711907,1.8626901,-0.014841573,-0.0907958,4.7691684,-0.07543154,6.6775923,8.321725
SMARCE1,-0.062301386,-0.072360836,-0.093115,-0.065739,-0.05645061,2.9564354,-0.053003896,-0.06910372,-0.00616764,1.5915844,-0.012686765,-0.075744,3.9019244,-0.061954923,5.610054,6.842167
CHD8,-0.06242484,-0.07244552,-0.092993096,-0.06572244,-0.05649778,2.9721584,-0.05288465,-0.069043554,-0.0061302623,1.5947727,-0.012642883,-0.07573256,3.8987057,-0.062078595,5.605359,6.8456078
LGALS4,-0.06314752,-0.07323323,-0.094123445,-0.06650892,-0.057097767,3.0033019,-0.05338783,-0.069913805,-0.0060807536,1.6149977,-0.012800046,-0.0764999,3.9488993,-0.06266422,5.676887,6.9199886
ZNF227,-0.072605334,-0.08416681,-0.106787115,-0.07527821,-0.065216474,3.3703709,-0.06130773,-0.08004158,-0.007586206,1.7740762,-0.014608896,-0.086993776,4.505316,-0.072653376,6.3580513,7.9673624
TARBP2,-0.06476143,-0.07489392,-0.09588549,-0.06782132,-0.05835099,3.0747004,-0.054519657,-0.071376406,-0.0063232025,1.6536986,-0.012990185,-0.07803032,4.0252395,-0.06417826,5.775313,7.0822062
SRSF3,-0.081728436,-0.09336417,-0.11888642,-0.08356074,-0.072719604,3.7397509,-0.06736803,-0.09014199,-0.009004787,1.9468397,-0.016302427,-0.09593002,5.0312853,-0.08119249,7.0122094,8.889281
MRPL15,-0.072605334,-0.08416681,-0.106787115,-0.07527821,-0.065216474,3.3703709,-0.06130773,-0.08004158,-0.007586206,1.7740762,-0.014608896,-0.086993776,4.505316,-0.072653376,6.3580513,7.9673624
NPRL2,-0.06443873,-0.07459989,-0.09555279,-0.06761641,-0.05811217,3.059997,-0.05441628,-0.07105299,-0.0062402817,1.6435881,-0.012898579,-0.07781813,4.0217257,-0.06391787,5.7622504,7.0581775
S100A16,-0.07260415,-0.084165215,-0.10678977,-0.07527457,-0.065216355,3.370432,-0.061307643,-0.08004389,-0.0075844014,1.7740185,-0.014611014,-0.086995445,4.5052285,-0.07265102,6.3578744,7.967617
NANOG,-0.060208738,-0.07010938,-0.090345696,-0.06369961,-0.054737397,2.8781056,-0.051257312,-0.066928364,-0.0059604645,1.5378163,-0.012366177,-0.07353276,3.7709038,-0.06011011,5.4399056,6.6184163
RFX5,-0.06291744,-0.07295078,-0.09364092,-0.066228375,-0.0569138,2.9920964,-0.05325349,-0.069541216,-0.0061201663,1.6154411,-0.012699512,-0.07625644,3.9264588,-0.062499803,5.6553206,6.8982573
IGF1R,-0.063043974,-0.07305757,-0.0938314,-0.06634527,-0.05702097,2.9991384,-0.05327772,-0.069708206,-0.0061777667,1.6105124,-0.012746833,-0.07636912,3.9388962,-0.06266127,5.661989,6.912545
SERPINB1,-0.07636598,-0.087587036,-0.111624554,-0.079133876,-0.06795466,3.5597622,-0.063869335,-0.084004454,-0.007711907,1.8626901,-0.014841573,-0.0907958,4.7691684,-0.07543154,6.6775923,8.321725
NR1I3,-0.06027666,-0.07013764,-0.09031058,-0.063648276,-0.054839168,2.8792853,-0.051290225,-0.066885106,-0.0059801233,1.5431142,-0.012398971,-0.07349745,3.7725947,-0.060134675,5.4365144,6.6220765
EHMT1,-0.0649295,-0.07517712,-0.09599379,-0.0679155,-0.05853609,3.0801072,-0.054767866,-0.07143645,-0.006312568,1.6542709,-0.013017669,-0.07823159,4.0410204,-0.06440898,5.779468,7.1124
KDELR3,-0.07636598,-0.087587036,-0.111624554,-0.079133876,-0.06795466,3.5597622,-0.063869335,-0.084004454,-0.007711907,1.8626901,-0.014841573,-0.0907958,4.7691684,-0.07543154,6.6775923,8.321725
TMEM120A,-0.070751615,-0.086076096,-0.10377991,-0.07263231,-0.06724725,3.2820787,-0.06153691,-0.07660986,-0.006065191,2.0606425,-0.015583469,-0.087248266,4.218986,-0.07489156,6.289213,8.159605
HSD17B14,-0.060815915,-0.070777565,-0.09118269,-0.0643616,-0.05537495,2.910111,-0.05167526,-0.06754669,-0.005995774,1.5559458,-0.0124764545,-0.074306384,3.8054998,-0.060921315,5.508662,6.6952806
USP28,-0.07636598,-0.087587036,-0.111624554,-0.079133876,-0.06795466,3.5597622,-0.063869335,-0.084004454,-0.007711907,1.8626901,-0.014841573,-0.0907958,4.7691684,-0.07543154,6.6775923,8.321725
RFC2,-0.058373097,-0.076216236,-0.092212886,-0.06527142,-0.047329467,3.1325197,-0.04448019,-0.07181781,0.10427461,0.9273034,-0.007718197,-0.07509734,3.9469826,-0.06992982,4.874426,7.310414
AAAS,-0.07500275,-0.069662094,-0.107835926,-0.0642249,-0.065851636,3.8962293,-0.048317015,-0.077721216,-0.008904095,1.3966179,-0.011023753,-0.07563758,3.9878585,-0.07498525,6.3160577,6.780637
ACTN1,-0.056257512,-0.07386882,-0.089390114,-0.06330256,-0.045803998,3.0385566,-0.043029655,-0.06947186,0.12558684,0.90295833,-0.007463903,-0.07299725,3.8123877,-0.06771447,4.741683,7.06579
FOXO1,-0.06119168,-0.07109576,-0.09146856,-0.064557135,-0.055587072,2.918908,-0.051895168,-0.06784095,-0.006058017,1.5615911,-0.012485224,-0.074494295,3.8274486,-0.061066672,5.5189548,6.7172966
SPDL1,-0.06331543,-0.08714313,-0.109118916,-0.07169491,-0.053774294,2.8062713,-0.065456256,-0.07909264,-0.0056330655,0.61011195,-0.020642895,-0.08680681,4.571572,-0.061717533,5.2978597,7.1153336
DAB2,-0.061859045,-0.07179581,-0.09218311,-0.06507254,-0.05611433,2.9483135,-0.05231385,-0.06842562,-0.006110047,1.5812125,-0.012567516,-0.07509732,3.8537118,-0.06167864,5.5613003,6.779017
NFATC2,-0.062104873,-0.07222401,-0.09263165,-0.06543622,-0.05639018,2.9540424,-0.052782126,-0.06868378,-0.006213314,1.5828327,-0.0126819145,-0.075511985,3.8837914,-0.062038884,5.5847063,6.8313894
DNASE1,-0.072605334,-0.08416681,-0.106787115,-0.07527821,-0.065216474,3.3703709,-0.06130773,-0.08004158,-0.007586206,1.7740762,-0.014608896,-0.086993776,4.505316,-0.072653376,6.3580513,7.9673624
THOC1,-0.06268262,-0.072691545,-0.09336182,-0.06589258,-0.056719124,2.9789433,-0.053013194,-0.06936533,-0.0062100757,1.5997162,-0.012763273,-0.07591425,3.9071405,-0.06230512,5.617102,6.8673167
EXOC5,-0.07258541,-0.08414283,-0.106791444,-0.07528572,-0.0651892,3.3693342,-0.06130187,-0.08005183,-0.007564678,1.7760286,-0.014605771,-0.08696849,4.506777,-0.07263679,6.355243,7.9696264
PSEN1,-0.06753441,-0.07786429,-0.09954083,-0.07053611,-0.06058575,3.1927242,-0.05669085,-0.07428372,-0.0065698544,1.7052844,-0.013357862,-0.08100502,4.214193,-0.066783324,5.9951587,7.382072
ELOVL6,-0.072605334,-0.08416681,-0.106787115,-0.07527821,-0.065216474,3.3703709,-0.06130773,-0.08004158,-0.007586206,1.7740762,-0.014608896,-0.086993776,4.505316,-0.072653376,6.3580513,7.9673624
UCK2,-0.062726475,-0.07279509,-0.09335712,-0.065934055,-0.056740765,2.9841518,-0.05312844,-0.06923838,-0.0060722386,1.6119909,-0.012640911,-0.07598347,3.9094958,-0.062406346,5.6210446,6.88843
HLA.DRB5,-0.072605334,-0.08416681,-0.106787115,-0.07527821,-0.065216474,3.3703709,-0.06130773,-0.08004158,-0.007586206,1.7740762,-0.014608896,-0.086993776,4.505316,-0.072653376,6.3580513,7.9673624
HIF1AN,-0.061312646,-0.07121797,-0.091639124,-0.064761326,-0.05565998,2.923308,-0.05204324,-0.06795511,-0.005936757,1.5787282,-0.012500869,-0.07462944,3.8367455,-0.061000403,5.5416646,6.735311
SGOL1,-0.062446754,-0.07251731,-0.09326703,-0.065949194,-0.056558255,2.964255,-0.053052973,-0.06919953,-0.006083114,1.603706,-0.012667479,-0.07591023,3.9067268,-0.062120922,5.639364,6.8605337
DBF4,-0.06303104,-0.07288521,-0.09390563,-0.06644319,-0.05708003,3.006517,-0.05294819,-0.06980955,-0.006292616,1.6020204,-0.012863105,-0.07637932,3.9463587,-0.06269129,5.678407,6.9039993
DCTPP1,-0.066536546,-0.07672627,-0.09829212,-0.06959991,-0.05975971,3.148929,-0.055779517,-0.073320255,-0.006562582,1.6831579,-0.013301757,-0.07986538,4.1467633,-0.065827675,5.9177866,7.2743545
MCM6,-0.061117064,-0.070971854,-0.09140997,-0.06458759,-0.055587873,2.9205656,-0.051795084,-0.06776646,-0.0061248755,1.56159,-0.012511681,-0.07448448,3.8261955,-0.06105488,5.5238814,6.7131543
MELK,-0.05778551,-0.075533316,-0.09133238,-0.064667575,-0.046956457,3.108801,-0.044039696,-0.07108878,0.10275713,0.9239249,-0.0076555084,-0.07449053,3.9000916,-0.06938328,4.8339243,7.2405944
UBL7,-0.072605334,-0.08416681,-0.106787115,-0.07527821,-0.065216474,3.3703709,-0.06130773,-0.08004158,-0.007586206,1.7740762,-0.014608896,-0.086993776,4.505316,-0.072653376,6.3580513,7.9673624
SMARCD2,-0.066201106,-0.07652179,-0.09778056,-0.06926496,-0.059503958,3.1340415,-0.05568305,-0.07287988,-0.006422967,1.6870905,-0.013223901,-0.079571754,4.1213384,-0.065528266,5.8844156,7.2430835
GATA4,-0.061668348,-0.07164604,-0.092011265,-0.06495247,-0.05593635,2.940883,-0.052273314,-0.06825718,-0.006115609,1.5723224,-0.012557839,-0.07494795,3.8505304,-0.06150408,5.543735,6.7670336
HAVCR1,-0.072605334,-0.08416681,-0.106787115,-0.07527821,-0.065216474,3.3703709,-0.06130773,-0.08004158,-0.007586206,1.7740762,-0.014608896,-0.086993776,4.505316,-0.072653376,6.3580513,7.9673624
TMEM216,-0.077024035,-0.07883748,-0.09642866,-0.065035194,-0.06846768,3.88098,-0.05289136,-0.07080099,-0.006037364,1.6746682,-0.016134081,-0.074167706,4.796163,-0.06726859,5.74561,7.579408
ZFP36,-0.061369456,-0.07130778,-0.09173613,-0.064678706,-0.055631492,2.9274292,-0.05205,-0.06800504,-0.0060291383,1.564475,-0.012524779,-0.07459387,3.8353293,-0.061109107,5.5214868,6.730258
APOA1,-0.06133461,-0.0712796,-0.09175927,-0.06469103,-0.055584863,2.9233317,-0.05205013,-0.068039276,-0.006000666,1.5639019,-0.012505384,-0.074570484,3.8375838,-0.061070036,5.520547,6.732798
CRBN,-0.05752346,-0.069563374,-0.08926325,-0.0661704,-0.0575429,3.2412624,-0.053320725,-0.06657967,-0.010376685,1.541841,-0.009842232,-0.082133174,3.2713394,-0.068957664,5.687099,6.311647
ZSWIM7,-0.06206849,-0.072066315,-0.09265494,-0.065364674,-0.05615497,2.9556255,-0.052567195,-0.06874273,-0.0060023833,1.5857509,-0.01260207,-0.07530234,3.8775785,-0.061679993,5.578545,6.803936
GLMN,-0.072605334,-0.08416681,-0.106787115,-0.07527821,-0.065216474,3.3703709,-0.06130773,-0.08004158,-0.007586206,1.7740762,-0.014608896,-0.086993776,4.505316,-0.072653376,6.3580513,7.9673624
TM4SF5,-0.065026075,-0.07532952,-0.0960511,-0.067950025,-0.05865889,3.0850022,-0.054909356,-0.07146699,-0.0063132867,1.6534398,-0.013041858,-0.07834475,4.050258,-0.06455134,5.7796154,7.1299543
UCHL5,-0.062919065,-0.07295343,-0.093714036,-0.06622663,-0.05688567,2.9949603,-0.05330226,-0.06952264,-0.0061417827,1.6048676,-0.012703773,-0.07625586,3.9365122,-0.062517606,5.6456294,6.901539
PMS1,-0.06631314,-0.07663783,-0.097830616,-0.06927787,-0.05962716,3.1399832,-0.05580327,-0.072908215,-0.0064667664,1.6871068,-0.013184694,-0.07970512,4.1208572,-0.06571705,5.8913007,7.253871
E2F5,-0.060981978,-0.070926145,-0.09137978,-0.064560674,-0.05546431,2.9131315,-0.051821902,-0.06773033,-0.006055685,1.5567963,-0.012505327,-0.07448169,3.8230476,-0.060935814,5.523353,6.7038484
RABGGTB,-0.072605334,-0.08416681,-0.106787115,-0.07527821,-0.065216474,3.3703709,-0.06130773,-0.08004158,-0.007586206,1.7740762,-0.014608896,-0.086993776,4.505316,-0.072653376,6.3580513,7.9673624
SOX4,-0.0636809,-0.07369541,-0.094660394,-0.06685861,-0.057452355,3.0228024,-0.053647835,-0.07038155,-0.0062777707,1.6190358,-0.012856748,-0.07689202,3.9710698,-0.06319914,5.701114,6.9670715
KIZ,-0.072605334,-0.08416681,-0.106787115,-0.07527821,-0.065216474,3.3703709,-0.06130773,-0.08004158,-0.007586206,1.7740762,-0.014608896,-0.086993776,4.505316,-0.072653376,6.3580513,7.9673624
ZNF260,-0.072605334,-0.08416681,-0.106787115,-0.07527821,-0.065216474,3.3703709,-0.06130773,-0.08004158,-0.007586206,1.7740762,-0.014608896,-0.086993776,4.505316,-0.072653376,6.3580513,7.9673624
TIPIN,-0.07261724,-0.08415104,-0.10677883,-0.075262435,-0.06519484,3.3694649,-0.06130653,-0.080055416,-0.00760559,1.776433,-0.014632338,-0.08698365,4.507907,-0.0726327,6.355291,7.963482
MEIS3,-0.072575994,-0.08419637,-0.10678636,-0.075265765,-0.065209165,3.3674407,-0.061325576,-0.0800474,-0.007555599,1.7742639,-0.014585359,-0.08697951,4.5038857,-0.07265417,6.3558846,7.964244
SUV39H2,-0.061425705,-0.07131783,-0.091861404,-0.06489471,-0.05566687,2.9336724,-0.052076172,-0.06810766,-0.005906844,1.574404,-0.012516277,-0.07473113,3.8478925,-0.061021402,5.5461555,6.739915
ANLN,-0.05692619,-0.07464359,-0.09023691,-0.06384486,-0.046303645,3.0682862,-0.043565378,-0.07015717,0.1169068,0.91116744,-0.007521028,-0.07364051,3.8504713,-0.06847983,4.7726736,7.147799
YEATS4,-0.055094853,-0.06272188,-0.08089684,-0.06417615,-0.046241384,2.2842422,-0.055768754,-0.060536113,0.25632632,0.9782066,-0.002870497,-0.07244551,4.689386,-0.050729435,6.380284,6.2005444
UHRF1,-0.06507176,-0.07527218,-0.09624233,-0.06813001,-0.05866171,3.0880678,-0.054796483,-0.07164621,-0.006398304,1.6558082,-0.0130557995,-0.07841284,4.0509725,-0.06458521,5.8008614,7.125142
GTF2H3,-0.072605334,-0.08416681,-0.106787115,-0.07527821,-0.065216474,3.3703709,-0.06130773,-0.08004158,-0.007586206,1.7740762,-0.014608896,-0.086993776,4.505316,-0.072653376,6.3580513,7.9673624
ATG5,-0.061160993,-0.074382044,-0.09093241,-0.06384503,-0.058522467,2.9143293,-0.053304467,-0.06648419,-0.004843513,1.8439298,-0.013530155,-0.07634128,3.6799943,-0.06434455,5.5828247,7.0487986
CRYZL1,-0.06293954,-0.07298333,-0.09365438,-0.06622351,-0.05698171,2.9957533,-0.05323886,-0.06955883,-0.006171648,1.6084174,-0.012755409,-0.07630195,3.9300106,-0.06260274,5.6537642,6.902693
PTPRZ1,-0.061968487,-0.07198257,-0.09255716,-0.06540618,-0.05618615,2.9520423,-0.05259078,-0.068694524,-0.006063483,1.5795143,-0.012581406,-0.07538758,3.8831437,-0.06176345,5.5860467,6.808195
ABCE1,-0.06186778,-0.07176494,-0.09232018,-0.0652224,-0.056041673,2.951655,-0.052419245,-0.068458565,-0.0059966943,1.5835898,-0.012582224,-0.075093366,3.874314,-0.061432738,5.5670366,6.7891645
RIOK1,-0.06713771,-0.07751855,-0.09883952,-0.07007244,-0.060269598,3.1714427,-0.056530476,-0.07371269,-0.006612124,1.7004871,-0.013249129,-0.08059078,4.1755023,-0.06660235,5.9515853,7.345359
QTRTD1,-0.072605334,-0.08416681,-0.106787115,-0.07527821,-0.065216474,3.3703709,-0.06130773,-0.08004158,-0.007586206,1.7740762,-0.014608896,-0.086993776,4.505316,-0.072653376,6.3580513,7.9673624
RUNX1T1,-0.061459817,-0.071391195,-0.09185473,-0.0648359,-0.055782676,2.9313383,-0.05211901,-0.0681391,-0.0060611414,1.5689545,-0.012555608,-0.074767105,3.8451805,-0.061248973,5.538035,6.748114
TK1,-0.06322562,-0.0732613,-0.09408017,-0.06651585,-0.057153944,3.008845,-0.053364523,-0.0699249,-0.0061845356,1.6107824,-0.012784112,-0.07656308,3.948369,-0.06287085,5.6756105,6.9315014
PYGL,-0.07148307,-0.061241765,-0.0845742,-0.05327319,-0.053828757,3.8782656,-0.044465344,-0.05820318,-0.0075332066,1.9191235,-0.003916941,-0.061027657,2.9823196,-0.05366155,5.0418835,4.7731385
GNPNAT1,-0.060687568,-0.064784594,-0.07829315,-0.057618737,-0.05185395,2.2828503,-0.057276018,-0.058008492,-0.018206254,1.7371813,-0.009140308,-0.06305336,3.0800102,-0.060706075,4.7242074,6.89581
CDCA2,-0.065341555,-0.07550211,-0.09666386,-0.068378106,-0.058786314,3.0994353,-0.054905623,-0.07199835,-0.006398215,1.6610789,-0.013083307,-0.07859212,4.065076,-0.0647457,5.8172297,7.14725
THRAP3,-0.06326384,-0.07327709,-0.09415029,-0.066593796,-0.057161286,3.0111046,-0.053487606,-0.0699134,-0.006116434,1.6152594,-0.012789324,-0.07658258,3.9618206,-0.06272179,5.6789603,6.9374704
HPR,-0.072605334,-0.08416681,-0.106787115,-0.07527821,-0.065216474,3.3703709,-0.06130773,-0.08004158,-0.007586206,1.7740762,-0.014608896,-0.086993776,4.505316,-0.072653376,6.3580513,7.9673624
NOL10,-0.072605334,-0.08416681,-0.106787115,-0.07527821,-0.065216474,3.3703709,-0.06130773,-0.08004158,-0.007586206,1.7740762,-0.014608896,-0.086993776,4.505316,-0.072653376,6.3580513,7.9673624
ZMYM6NB,-0.072605334,-0.08416681,-0.106787115,-0.07527821,-0.065216474,3.3703709,-0.06130773,-0.08004158,-0.007586206,1.7740762,-0.014608896,-0.086993776,4.505316,-0.072653376,6.3580513,7.9673624
ZNF644,-0.06443481,-0.074526235,-0.09552811,-0.06761748,-0.05808224,3.059064,-0.05426697,-0.07107572,-0.0062810425,1.6435385,-0.012935973,-0.07772974,4.018238,-0.06387133,5.762399,7.053348
HSPE1.MOB4,-0.07500275,-0.069662094,-0.107835926,-0.0642249,-0.065851636,3.8962293,-0.048317015,-0.077721216,-0.008904095,1.3966179,-0.011023753,-0.07563758,3.9878585,-0.07498525,6.3160577,6.780637
PDPN,-0.072605334,-0.08416681,-0.106787115,-0.07527821,-0.065216474,3.3703709,-0.06130773,-0.08004158,-0.007586206,1.7740762,-0.014608896,-0.086993776,4.505316,-0.072653376,6.3580513,7.9673624
CENPH,-0.072605334,-0.08416681,-0.106787115,-0.07527821,-0.065216474,3.3703709,-0.06130773,-0.08004158,-0.007586206,1.7740762,-0.014608896,-0.086993776,4.505316,-0.072653376,6.3580513,7.9673624
HMGB3,-0.06283681,-0.07277832,-0.09360164,-0.06618661,-0.056843683,2.9893231,-0.053072248,-0.06954709,-0.006209332,1.6076568,-0.012768172,-0.07617195,3.9280155,-0.06245588,5.653371,6.884021
SMLR1,-0.07261724,-0.08415104,-0.10677883,-0.075262435,-0.06519484,3.3694649,-0.06130653,-0.080055416,-0.00760559,1.776433,-0.014632338,-0.08698365,4.507907,-0.0726327,6.355291,7.963482
CFAP97,-0.072605334,-0.08416681,-0.106787115,-0.07527821,-0.065216474,3.3703709,-0.06130773,-0.08004158,-0.007586206,1.7740762,-0.014608896,-0.086993776,4.505316,-0.072653376,6.3580513,7.9673624
TADA3,-0.06230976,-0.072278276,-0.09292434,-0.06564869,-0.056486752,2.964904,-0.052726496,-0.06899269,-0.0062783365,1.5830405,-0.012665784,-0.075667806,3.8948257,-0.062167775,5.607515,6.8335733
DOT1L,-0.07636598,-0.087587036,-0.111624554,-0.079133876,-0.06795466,3.5597622,-0.063869335,-0.084004454,-0.007711907,1.8626901,-0.014841573,-0.0907958,4.7691684,-0.07543154,6.6775923,8.321725
MYBBP1A,-0.06302968,-0.073090486,-0.093766704,-0.06631571,-0.05701442,2.9982924,-0.053356364,-0.06964325,-0.006166607,1.6165638,-0.012734681,-0.07638276,3.930441,-0.062633194,5.6596217,6.9100604
SF3B3,-0.05978871,-0.069625944,-0.08968399,-0.06318991,-0.054453168,2.8594089,-0.05098535,-0.066394664,-0.006034815,1.5283223,-0.012307666,-0.073046975,3.7394776,-0.0597422,5.3949103,6.5699673
IFT52,-0.072601974,-0.084186874,-0.10677327,-0.07529421,-0.06521082,3.3679266,-0.061304722,-0.080032595,-0.0075919735,1.7753186,-0.014630076,-0.08699487,4.5054092,-0.07264256,6.3580303,7.965188
AKR1C3,-0.054189347,-0.06579193,-0.08497338,-0.06285531,-0.054664433,3.06017,-0.050514903,-0.063129686,-0.009936671,1.4573414,-0.009554321,-0.07809084,3.1014311,-0.06532917,5.430416,5.9696383
ILF3,-0.06396121,-0.07405414,-0.09500023,-0.06724557,-0.057851087,3.038226,-0.054043178,-0.07061148,-0.006304512,1.6287159,-0.0128609715,-0.07745375,3.9960895,-0.06362291,5.744438,7.005345
PCNA,-0.06196144,-0.071930185,-0.0925451,-0.065377675,-0.056163803,2.9524848,-0.052496284,-0.068672016,-0.006023308,1.5813287,-0.012602002,-0.07532103,3.8816917,-0.061684936,5.588431,6.8024235
RANGRF,-0.060134724,-0.069976196,-0.09026955,-0.06357417,-0.054754056,2.8695798,-0.051201485,-0.06684492,-0.00600462,1.5375473,-0.012401664,-0.07342196,3.7644756,-0.060035013,5.4390187,6.605962
ITGB3BP,-0.064995594,-0.06903806,-0.08274894,-0.06116926,-0.055130858,2.4310863,-0.060859617,-0.061613668,-0.019322677,1.8586487,-0.0094954185,-0.06675188,3.2820358,-0.0647064,4.995132,7.3652616
POLR2I,-0.072605334,-0.08416681,-0.106787115,-0.07527821,-0.065216474,3.3703709,-0.06130773,-0.08004158,-0.007586206,1.7740762,-0.014608896,-0.086993776,4.505316,-0.072653376,6.3580513,7.9673624
NUDT1,-0.072605334,-0.08416681,-0.106787115,-0.07527821,-0.065216474,3.3703709,-0.06130773,-0.08004158,-0.007586206,1.7740762,-0.014608896,-0.086993776,4.505316,-0.072653376,6.3580513,7.9673624
SS18,-0.061596565,-0.07157314,-0.091826014,-0.06478535,-0.055784855,2.932016,-0.052116796,-0.06817337,-0.0058816825,1.5762036,-0.012421987,-0.074700564,3.8502173,-0.06136253,5.52848,6.767821
RNF4,-0.061957244,-0.0719348,-0.09254955,-0.06536393,-0.056125496,2.950518,-0.052609652,-0.0686379,-0.0060889027,1.5824745,-0.012584726,-0.075312,3.8778412,-0.06163133,5.581489,6.797491
EXOSC9,-0.06382725,-0.07394915,-0.094652444,-0.06696317,-0.05759936,3.0329938,-0.053851314,-0.070377916,-0.006175983,1.6290553,-0.012848627,-0.07708567,3.9798882,-0.063318275,5.706198,6.9921274
HINFP,-0.06089141,-0.07876374,-0.102764316,-0.07653308,-0.058404285,3.2550116,-0.05208058,-0.07668073,-0.0031221053,2.0194337,-0.022291316,-0.08697143,3.6433308,-0.060419314,6.9741683,6.9761057
TTLL4,-0.06619686,-0.07639978,-0.09786456,-0.06926196,-0.059418906,3.1318197,-0.055550013,-0.07297559,-0.006482198,1.673966,-0.013215118,-0.07947509,4.1281295,-0.06548956,5.8869123,7.2408504
CENPF,-0.060440283,-0.07022047,-0.09055808,-0.06395881,-0.05504746,2.8930378,-0.051271517,-0.06706471,-0.005986961,1.5553877,-0.012412714,-0.07377693,3.7803364,-0.060391452,5.47936,6.640005
NIFK,-0.06464857,-0.07832785,-0.09953288,-0.0734997,-0.06433236,3.5531836,-0.060044713,-0.07477842,-0.012064045,1.6526854,-0.011144845,-0.09157158,3.674606,-0.07794514,6.265349,7.121128
CRABP2,-0.06308938,-0.07318006,-0.09384303,-0.06633029,-0.057005532,3.0013993,-0.053364854,-0.06970392,-0.0060791373,1.6147548,-0.012736872,-0.07638105,3.9379807,-0.06262772,5.65534,6.917509
RBBP7,-0.0625548,-0.07256969,-0.09327687,-0.06587932,-0.056599062,2.9774325,-0.052939627,-0.06924109,-0.006073316,1.5981866,-0.012692328,-0.07586019,3.9107378,-0.062160447,5.6238747,6.8599625
NAA50,-0.066758364,-0.077020176,-0.09847636,-0.06975671,-0.05994036,3.1619768,-0.056060426,-0.07345412,-0.0065935305,1.6917748,-0.013315774,-0.080175854,4.159748,-0.066086344,5.9277344,7.2975764
SLC25A4,-0.06188018,-0.07180683,-0.0924551,-0.06522921,-0.056066073,2.9469533,-0.05243525,-0.06861989,-0.006151347,1.5769994,-0.012674635,-0.07518081,3.8763173,-0.061578248,5.5682983,6.7891684
CSDE1,-0.05617812,-0.059290566,-0.082791716,-0.059952643,-0.054814022,1.9826926,-0.03918461,-0.061348956,-0.008616955,1.7506633,-0.005055453,-0.06525216,3.6704855,-0.06023114,5.7383018,5.5714717
CIDEB,-0.064296566,-0.0744049,-0.09531678,-0.067315266,-0.05798803,3.050782,-0.05420438,-0.07089352,-0.006384813,1.6357342,-0.012941938,-0.07751979,3.9960704,-0.0638277,5.72943,7.0283575
PRKCI,-0.06622451,-0.07651191,-0.09780516,-0.06924848,-0.059525058,3.13654,-0.05570158,-0.0728848,-0.006446616,1.6850567,-0.013213854,-0.07960123,4.1190357,-0.0655423,5.888887,7.2426047
SMARCC1,-0.0623773,-0.0723887,-0.09302253,-0.065669976,-0.05648568,2.9680495,-0.052847847,-0.06902748,-0.006129089,1.5949733,-0.012670255,-0.075661324,3.8950531,-0.06206261,5.603474,6.8445354
TMEM126B,-0.06590193,-0.07619837,-0.09726286,-0.06889121,-0.05928103,3.1217341,-0.055487394,-0.07247794,-0.0064282087,1.6795027,-0.013134529,-0.079278655,4.0974865,-0.065301344,5.8604755,7.2065506
TAF6,-0.05931614,-0.069061294,-0.08917567,-0.06285354,-0.05414907,2.8402786,-0.050464686,-0.06599664,-0.006057061,1.5150347,-0.0122659765,-0.07267368,3.7077434,-0.059477113,5.3875213,6.5125694
CYP3A5,-0.072605334,-0.08416681,-0.106787115,-0.07527821,-0.065216474,3.3703709,-0.06130773,-0.08004158,-0.007586206,1.7740762,-0.014608896,-0.086993776,4.505316,-0.072653376,6.3580513,7.9673624
RFC1,-0.061687935,-0.07163664,-0.09216097,-0.065082036,-0.055950694,2.9397056,-0.05234503,-0.068371326,-0.006023733,1.5806761,-0.012577089,-0.07501186,3.8584957,-0.061377857,5.5607796,6.7730665
CEBPA,-0.06057973,-0.07062258,-0.09065026,-0.06393487,-0.055206485,2.8873749,-0.0517415,-0.067117244,-0.006182481,1.5504199,-0.012440935,-0.073996924,3.7780585,-0.06071329,5.46263,6.6639767
MLST8,-0.070739895,-0.08603148,-0.10378619,-0.07266033,-0.06719311,3.276238,-0.061539844,-0.07662767,-0.0061113,2.0579607,-0.015594351,-0.08721403,4.2203407,-0.0749186,6.2886214,8.160457
GCHFR,-0.06464018,-0.078308664,-0.09951868,-0.07348979,-0.06430358,3.5554402,-0.06004383,-0.07477695,-0.012089538,1.6538606,-0.011180626,-0.09160022,3.6771998,-0.07792301,6.2629766,7.117631
PRIM1,-0.06648063,-0.07672732,-0.0981042,-0.06947853,-0.05971703,3.1467528,-0.055890933,-0.073138066,-0.0064696334,1.6816194,-0.013174315,-0.07985079,4.1485386,-0.065795965,5.9077783,7.2702713
TFE3,-0.06345089,-0.07349648,-0.09435191,-0.06669886,-0.057320952,3.016325,-0.05360165,-0.07011704,-0.006161878,1.6205984,-0.012790128,-0.07675989,3.9626558,-0.06298084,5.689718,6.952857
ALB,-0.06322873,-0.07327098,-0.093892515,-0.06630212,-0.057198405,3.0074954,-0.053432807,-0.06977675,-0.0062721763,1.6097349,-0.0128154475,-0.07646818,3.9365106,-0.062850095,5.6505165,6.924193
IL32,-0.061017912,-0.070848584,-0.09113974,-0.0643939,-0.055375017,2.9154215,-0.051651187,-0.06757104,-0.0059355586,1.5681762,-0.01242135,-0.074234016,3.8088424,-0.060751513,5.511028,6.688533
TTF2,-0.06373611,-0.07388343,-0.094763346,-0.06710993,-0.05765493,3.032308,-0.053786993,-0.07046417,-0.00621754,1.624821,-0.0128621375,-0.077272125,3.9816692,-0.06348818,5.732413,6.9924173
ERAL1,-0.07513173,-0.08608596,-0.11002959,-0.077943765,-0.066848926,3.5034707,-0.062611766,-0.08276531,-0.0075718914,1.8443286,-0.014749405,-0.08923981,4.6879945,-0.07396596,6.5846934,8.174357
DHRS3,-0.06414356,-0.07422224,-0.09513436,-0.06729961,-0.05786903,3.0466607,-0.054083638,-0.07074799,-0.0062445,1.6359035,-0.01289986,-0.07741404,4.0028114,-0.06360102,5.7352433,7.0255876
TBC1D1,-0.061419554,-0.07132313,-0.0917597,-0.064745784,-0.055688005,2.9279623,-0.05206589,-0.06805067,-0.0060579083,1.5715619,-0.012496813,-0.07463232,3.835595,-0.061183464,5.5279408,6.7395754
KIAA0586,-0.067129515,-0.07753644,-0.098837905,-0.070054054,-0.060293045,3.1757758,-0.056522265,-0.073706195,-0.006549808,1.7047743,-0.013236271,-0.080598,4.1756525,-0.06656206,5.949466,7.3467255
ZNF561,-0.072601974,-0.084186874,-0.10677327,-0.07529421,-0.06521082,3.3679266,-0.061304722,-0.080032595,-0.0075919735,1.7753186,-0.014630076,-0.08699487,4.5054092,-0.07264256,6.3580303,7.965188
ITM2A,-0.064057924,-0.083966285,-0.10061271,-0.07091858,-0.052008852,3.3711352,-0.049214013,-0.07877671,0.06347499,0.9583519,-0.008603545,-0.082211114,4.3074136,-0.077504344,5.251916,8.043361
FAM151A,-0.07130024,-0.07864723,-0.09505494,-0.07444557,-0.07167438,3.9385815,-0.05016997,-0.07339928,-0.013556694,1.8699763,-0.022542149,-0.08676977,4.6053905,-0.067282125,5.7148137,7.7463894
BLM,-0.06260524,-0.06893687,-0.0842911,-0.066270486,-0.063303694,3.5301008,-0.043941397,-0.06450137,-0.0114854,1.7201357,-0.019839622,-0.07688311,4.0624385,-0.05856416,5.153338,6.7918353
ELP6,-0.072605334,-0.08416681,-0.106787115,-0.07527821,-0.065216474,3.3703709,-0.06130773,-0.08004158,-0.007586206,1.7740762,-0.014608896,-0.086993776,4.505316,-0.072653376,6.3580513,7.9673624
ETV5,-0.048402574,-0.05591124,-0.08665541,-0.053768978,-0.0433825,1.1204017,-0.052834842,-0.065448254,-0.020001525,1.1523899,-0.01093202,-0.0543835,3.693682,-0.048257146,3.537792,6.280837
ANP32E,-0.06714837,-0.077559136,-0.098833814,-0.070046954,-0.060318854,3.1767566,-0.05652781,-0.073696494,-0.0065701753,1.7029271,-0.013239227,-0.08062193,4.17427,-0.066577755,5.952123,7.3445845
PLAGL2,-0.06281715,-0.07276758,-0.093361296,-0.06601081,-0.056947514,2.9964447,-0.05294617,-0.069351844,-0.006303794,1.6037426,-0.012733949,-0.07608715,3.9136956,-0.06270629,5.6336083,6.8880796
NOP16,-0.066818304,-0.0771513,-0.09843313,-0.06976646,-0.060021147,3.1624234,-0.056201987,-0.07340889,-0.0065268944,1.6938592,-0.013231482,-0.080248,4.1625943,-0.066175394,5.930219,7.3053217
MATR3,-0.064617366,-0.07479505,-0.09570902,-0.06775605,-0.05824367,3.0671134,-0.054456662,-0.071215,-0.0062621483,1.65081,-0.012949013,-0.07795398,4.0232077,-0.06407629,5.7735524,7.0726295
METTL21A,-0.072605334,-0.08416681,-0.106787115,-0.07527821,-0.065216474,3.3703709,-0.06130773,-0.08004158,-0.007586206,1.7740762,-0.014608896,-0.086993776,4.505316,-0.072653376,6.3580513,7.9673624
SLN,-0.072605334,-0.08416681,-0.106787115,-0.07527821,-0.065216474,3.3703709,-0.06130773,-0.08004158,-0.007586206,1.7740762,-0.014608896,-0.086993776,4.505316,-0.072653376,6.3580513,7.9673624
PPP2R1B,-0.064183794,-0.07435761,-0.09526882,-0.067352764,-0.057882063,3.0468802,-0.054199647,-0.07084119,-0.0062122024,1.637522,-0.012887124,-0.077515915,4.0018353,-0.063689746,5.7375455,7.032258
LAMC1,-0.06181511,-0.071778685,-0.09228097,-0.06518624,-0.05609378,2.948814,-0.052381452,-0.06845639,-0.006082309,1.583463,-0.012573903,-0.07516468,3.8613923,-0.0616363,5.56987,6.7866883
CUBN,-0.072605334,-0.08416681,-0.106787115,-0.07527821,-0.065216474,3.3703709,-0.06130773,-0.08004158,-0.007586206,1.7740762,-0.014608896,-0.086993776,4.505316,-0.072653376,6.3580513,7.9673624
DNAH14,-0.062351227,-0.07232695,-0.0930936,-0.065738715,-0.0564567,2.9676497,-0.05279182,-0.069119126,-0.0061246455,1.5883669,-0.012706746,-0.075691655,3.9039252,-0.061972033,5.6119924,6.8378353
HPN,-0.06482254,-0.0749593,-0.09598485,-0.067874305,-0.058414824,3.0781517,-0.054533705,-0.0714587,-0.006344779,1.6521126,-0.012996797,-0.07810262,4.0294123,-0.06429925,5.779616,7.0892572
RNPS1,-0.060525026,-0.070358865,-0.09063765,-0.06391312,-0.055166543,2.8891315,-0.05136204,-0.067204826,-0.0060341964,1.5417562,-0.012455278,-0.07389819,3.7844317,-0.060515244,5.479729,6.6379013
ID3,-0.062259473,-0.07219558,-0.09284547,-0.06560242,-0.056328367,2.9615042,-0.052695766,-0.068920694,-0.006146057,1.5896829,-0.01263496,-0.07550512,3.8906977,-0.06197046,5.5965223,6.830495
LCMT1,-0.068428926,-0.07894229,-0.10055562,-0.07130775,-0.061374053,3.2334735,-0.05753683,-0.07506537,-0.0066980696,1.728806,-0.013446681,-0.08202512,4.255787,-0.06778967,6.0541606,7.4813333
ARL6IP6,-0.06221177,-0.06851542,-0.08395326,-0.06592921,-0.06290611,3.5106902,-0.043710053,-0.06420893,-0.011476526,1.6975774,-0.019773748,-0.07645684,4.049949,-0.05818238,5.1174607,6.7513227
PDCD11,-0.07636598,-0.087587036,-0.111624554,-0.079133876,-0.06795466,3.5597622,-0.063869335,-0.084004454,-0.007711907,1.8626901,-0.014841573,-0.0907958,4.7691684,-0.07543154,6.6775923,8.321725
NPM1,-0.0625814,-0.07255775,-0.093231216,-0.06594511,-0.05668566,2.9782193,-0.05294512,-0.06922639,-0.006134908,1.6021221,-0.012666717,-0.07594777,3.9115014,-0.062261604,5.6369295,6.8629436
ZNF239,-0.072605334,-0.08416681,-0.106787115,-0.07527821,-0.065216474,3.3703709,-0.06130773,-0.08004158,-0.007586206,1.7740762,-0.014608896,-0.086993776,4.505316,-0.072653376,6.3580513,7.9673624
THAP1,-0.08227318,-0.086375915,-0.097462334,-0.07341838,-0.06213717,3.9933987,-0.065046996,-0.071077906,-0.0077907103,2.588621,-0.007883721,-0.08225436,4.0642943,-0.060550183,5.875323,6.8095474
STAT2,-0.06084831,-0.070842996,-0.09096017,-0.064164385,-0.055344023,2.9049473,-0.05170801,-0.067400396,-0.0060355533,1.5560343,-0.01243585,-0.07417181,3.7986119,-0.0608616,5.4833827,6.6858325
RFC4,-0.05394602,-0.0694363,-0.09147143,-0.06816449,-0.051881775,2.9330735,-0.046163615,-0.06770768,-0.0023470584,1.837084,-0.01934548,-0.07725182,3.259298,-0.053016208,6.24793,6.1613917
GTF3C5,-0.08146267,-0.09345334,-0.11980418,-0.084056765,-0.07210975,3.683187,-0.0686663,-0.09078952,-0.008833697,1.9163542,-0.016004156,-0.096138865,5.103892,-0.08075252,7.0059695,8.955312
APOA4,-0.065026075,-0.07532952,-0.0960511,-0.067950025,-0.05865889,3.0850022,-0.054909356,-0.07146699,-0.0063132867,1.6534398,-0.013041858,-0.07834475,4.050258,-0.06455134,5.7796154,7.1299543
DUT,-0.072605334,-0.08416681,-0.106787115,-0.07527821,-0.065216474,3.3703709,-0.06130773,-0.08004158,-0.007586206,1.7740762,-0.014608896,-0.086993776,4.505316,-0.072653376,6.3580513,7.9673624
MTX2,-0.062111195,-0.07197378,-0.092655644,-0.06556979,-0.056435127,2.9656544,-0.05239002,-0.06879097,-0.006151972,1.5959914,-0.012680501,-0.07551618,3.8779783,-0.061952066,5.6166825,6.8152356
ACN9,-0.072605334,-0.08416681,-0.106787115,-0.07527821,-0.065216474,3.3703709,-0.06130773,-0.08004158,-0.007586206,1.7740762,-0.014608896,-0.086993776,4.505316,-0.072653376,6.3580513,7.9673624
USP45,-0.06268573,-0.072672985,-0.09337461,-0.06587779,-0.056724355,2.981204,-0.053015973,-0.06937364,-0.0062047434,1.598567,-0.012743688,-0.07591323,3.9070537,-0.062315132,5.6171217,6.869327
MYOF,-0.06593228,-0.07618468,-0.09743706,-0.06897218,-0.059283957,3.123407,-0.05544563,-0.072597206,-0.006420633,1.6794333,-0.013181471,-0.07927617,4.0999465,-0.06525476,5.8672495,7.2102976
PEX19,-0.060775068,-0.07052278,-0.09067687,-0.06409109,-0.055212654,2.902961,-0.05148667,-0.06718885,-0.0060118255,1.5707724,-0.012300397,-0.07389152,3.787035,-0.060605563,5.483268,6.667609
ANXA4,-0.065619074,-0.07590346,-0.09685422,-0.06854938,-0.05908723,3.110156,-0.05530315,-0.072119355,-0.0063751936,1.6654263,-0.01309162,-0.0789377,4.088756,-0.0650632,5.8292184,7.1874676
ORC6,-0.06345733,-0.07344003,-0.09448208,-0.06681931,-0.057372086,3.018203,-0.053475335,-0.07022621,-0.0062740813,1.6142848,-0.012886027,-0.07681244,3.9726927,-0.06303358,5.702347,6.9552283
NAA25,-0.06481306,-0.07498114,-0.095949374,-0.06788109,-0.058357786,3.0765646,-0.054610375,-0.07142704,-0.0063365805,1.6567221,-0.013029733,-0.07813433,4.032475,-0.064209275,5.778308,7.0878625
MAPK1,-0.061557226,-0.071506605,-0.09199255,-0.064941525,-0.05581035,2.9366667,-0.05224161,-0.06820515,-0.0059894007,1.5724714,-0.0125178015,-0.074875504,3.8553252,-0.061284397,5.543813,6.759739
SHKBP1,-0.06186778,-0.07176494,-0.09232018,-0.0652224,-0.056041673,2.951655,-0.052419245,-0.068458565,-0.0059966943,1.5835898,-0.012582224,-0.075093366,3.874314,-0.061432738,5.5670366,6.7891645
POU2F1,-0.061410483,-0.07141331,-0.09186688,-0.0648508,-0.055795286,2.923934,-0.052198242,-0.068106495,-0.006115594,1.5657754,-0.012579702,-0.07480859,3.8461535,-0.061302304,5.540262,6.752053
USP10,-0.06363672,-0.07370266,-0.09452333,-0.066775255,-0.057466187,3.0229254,-0.05371909,-0.07028505,-0.0062527973,1.6239798,-0.01285504,-0.07688884,3.9619257,-0.06316487,5.6905537,6.9674745
TCEB1,-0.06330689,-0.07684336,-0.09393649,-0.065727316,-0.060253862,2.989733,-0.05517578,-0.06882198,-0.0049348003,1.8716054,-0.013815137,-0.07863552,3.8297281,-0.06636275,5.7354846,7.2733507
QPCT,-0.072605334,-0.08416681,-0.106787115,-0.07527821,-0.065216474,3.3703709,-0.06130773,-0.08004158,-0.007586206,1.7740762,-0.014608896,-0.086993776,4.505316,-0.072653376,6.3580513,7.9673624
SUGCT,-0.06648063,-0.07672732,-0.0981042,-0.06947853,-0.05971703,3.1467528,-0.055890933,-0.073138066,-0.0064696334,1.6816194,-0.013174315,-0.07985079,4.1485386,-0.065795965,5.9077783,7.2702713
GLUD1,-0.06698969,-0.07728701,-0.09873536,-0.069963075,-0.0601866,3.1703606,-0.056260467,-0.07364108,-0.006602579,1.6969931,-0.013306047,-0.08041235,4.168524,-0.06634864,5.9468074,7.3246765
SRSF10,-0.072605334,-0.08416681,-0.106787115,-0.07527821,-0.065216474,3.3703709,-0.06130773,-0.08004158,-0.007586206,1.7740762,-0.014608896,-0.086993776,4.505316,-0.072653376,6.3580513,7.9673624
RNF19A,-0.06416725,-0.074397,-0.09537886,-0.06743601,-0.05791659,3.0391512,-0.05441307,-0.070876114,-0.0062360666,1.6340163,-0.012901107,-0.07761624,4.015657,-0.06369659,5.7468395,7.043314
VIL1,-0.06289141,-0.07297594,-0.093710355,-0.066263326,-0.05690713,2.996377,-0.05337571,-0.06952978,-0.006045811,1.6115016,-0.012656651,-0.07634902,3.9375904,-0.062527165,5.654272,6.9024343
RBP2,-0.06897394,-0.07056735,-0.086733304,-0.05871405,-0.06158047,3.5425339,-0.047351096,-0.063161924,-0.0048934817,1.5646079,-0.01439479,-0.06678841,4.309641,-0.059715893,5.225698,6.777378
SAMHD1,-0.0649295,-0.07517712,-0.09599379,-0.0679155,-0.05853609,3.0801072,-0.054767866,-0.07143645,-0.006312568,1.6542709,-0.013017669,-0.07823159,4.0410204,-0.06440898,5.779468,7.1124
FOSL2,-0.062264144,-0.07223327,-0.09288449,-0.06559915,-0.05635046,2.965714,-0.052692708,-0.06893901,-0.0060346345,1.5912216,-0.012643722,-0.07555159,3.8926845,-0.06183909,5.6028337,6.822515
ESRG,-0.06482254,-0.0749593,-0.09598485,-0.067874305,-0.058414824,3.0781517,-0.054533705,-0.0714587,-0.006344779,1.6521126,-0.012996797,-0.07810262,4.0294123,-0.06429925,5.779616,7.0892572
CAPN2,-0.062779784,-0.07275813,-0.093501136,-0.06601047,-0.05673521,2.986548,-0.053050674,-0.06943018,-0.0061051184,1.6005518,-0.012694107,-0.07599905,3.9218395,-0.06231251,5.632684,6.8735275
BTG2,-0.06255858,-0.072620206,-0.09325484,-0.06591858,-0.05665584,2.9759336,-0.053076886,-0.06918389,-0.006114918,1.6013577,-0.012683715,-0.075941384,3.9126318,-0.062222753,5.6271853,6.8684635
CER1,-0.07260415,-0.084165215,-0.10678977,-0.07527457,-0.065216355,3.370432,-0.061307643,-0.08004389,-0.0075844014,1.7740185,-0.014611014,-0.086995445,4.5052285,-0.07265102,6.3578744,7.967617
SLC35D2,-0.06428945,-0.07451356,-0.095310904,-0.06729539,-0.05808618,3.052983,-0.054341625,-0.07085563,-0.006350558,1.6253321,-0.012988244,-0.077619076,4.0117817,-0.06395243,5.7246284,7.051265
PITX1,-0.062407758,-0.072375484,-0.093038954,-0.06566649,-0.056473903,2.9705462,-0.052806146,-0.06908241,-0.006085194,1.5964894,-0.012671045,-0.07563654,3.8951254,-0.061987128,5.6031103,6.84042
RFC5,-0.059132967,-0.068825185,-0.08881421,-0.062605925,-0.054007314,2.8296108,-0.05029065,-0.06570778,-0.0060023335,1.5179446,-0.012168948,-0.07237081,3.69668,-0.059300903,5.368856,6.4976044
FMO5,-0.072605334,-0.08416681,-0.106787115,-0.07527821,-0.065216474,3.3703709,-0.06130773,-0.08004158,-0.007586206,1.7740762,-0.014608896,-0.086993776,4.505316,-0.072653376,6.3580513,7.9673624
C17orf75,-0.072605334,-0.08416681,-0.106787115,-0.07527821,-0.065216474,3.3703709,-0.06130773,-0.08004158,-0.007586206,1.7740762,-0.014608896,-0.086993776,4.505316,-0.072653376,6.3580513,7.9673624
NEDD1,-0.062041137,-0.07199233,-0.092705354,-0.06546504,-0.05617763,2.957567,-0.052543554,-0.0687521,-0.0059536314,1.589575,-0.012640147,-0.07534352,3.8868005,-0.061571702,5.5945783,6.8044996
STX8,-0.06714837,-0.077559136,-0.098833814,-0.070046954,-0.060318854,3.1767566,-0.05652781,-0.073696494,-0.0065701753,1.7029271,-0.013239227,-0.08062193,4.17427,-0.066577755,5.952123,7.3445845
CYFIP2,-0.06648063,-0.07672732,-0.0981042,-0.06947853,-0.05971703,3.1467528,-0.055890933,-0.073138066,-0.0064696334,1.6816194,-0.013174315,-0.07985079,4.1485386,-0.065795965,5.9077783,7.2702713
GSTM3,-0.072605334,-0.08416681,-0.106787115,-0.07527821,-0.065216474,3.3703709,-0.06130773,-0.08004158,-0.007586206,1.7740762,-0.014608896,-0.086993776,4.505316,-0.072653376,6.3580513,7.9673624
PYCR1,-0.07888236,-0.0723626,-0.11272541,-0.06753211,-0.06862132,4.111713,-0.05023403,-0.081568964,-0.009095188,1.4665024,-0.011078537,-0.07887612,4.2260346,-0.07787912,6.633515,7.076113
HNRNPD,-0.05615471,-0.07752675,-0.09806519,-0.06460455,-0.04786104,2.55104,-0.058178134,-0.07052658,-0.0045316983,0.57982916,-0.018560274,-0.077850945,4.098637,-0.054192618,4.817755,6.306418
ATP1B3,-0.06714837,-0.077559136,-0.098833814,-0.070046954,-0.060318854,3.1767566,-0.05652781,-0.073696494,-0.0065701753,1.7029271,-0.013239227,-0.08062193,4.17427,-0.066577755,5.952123,7.3445845
SIRT1,-0.061417844,-0.071339615,-0.09176554,-0.06482548,-0.055842727,2.9315572,-0.052052837,-0.068052836,-0.0061314367,1.5704633,-0.0125671085,-0.074790314,3.8388894,-0.061358828,5.544494,6.7469006
TEAD4,-0.065974206,-0.076242566,-0.09742772,-0.06897574,-0.059312277,3.1244373,-0.055508874,-0.072594315,-0.006441785,1.6769336,-0.013137872,-0.079311445,4.104152,-0.06535847,5.865578,7.2173967
CTSC,-0.068428926,-0.07894229,-0.10055562,-0.07130775,-0.061374053,3.2334735,-0.05753683,-0.07506537,-0.0066980696,1.728806,-0.013446681,-0.08202512,4.255787,-0.06778967,6.0541606,7.4813333
BCS1L,-0.06357844,-0.07366211,-0.09447174,-0.06679611,-0.057426527,3.0241437,-0.053677596,-0.07023613,-0.0061694197,1.6172198,-0.012790101,-0.07692086,3.9697132,-0.063184656,5.697122,6.9650936
ITIH4,-0.063601874,-0.07366134,-0.09450226,-0.06676475,-0.057414286,3.0223253,-0.053695567,-0.070241235,-0.00619215,1.6253805,-0.012823153,-0.07685423,3.962651,-0.06308707,5.6915584,6.963001
SDAD1,-0.064821355,-0.075000115,-0.09596342,-0.06789089,-0.05838625,3.0743322,-0.05461125,-0.0714285,-0.0063113593,1.6555595,-0.012994333,-0.078106,4.0299087,-0.064231165,5.780655,7.0913224
MTMR2,-0.064821355,-0.075000115,-0.09596342,-0.06789089,-0.05838625,3.0743322,-0.05461125,-0.0714285,-0.0063113593,1.6555595,-0.012994333,-0.078106,4.0299087,-0.064231165,5.780655,7.0913224
NEK2,-0.06520606,-0.07544683,-0.09638859,-0.06820014,-0.05872454,3.0913248,-0.05493559,-0.071759574,-0.0063463696,1.6590943,-0.013057833,-0.07849181,4.0591817,-0.06464537,5.801905,7.1407056
SEC61A2,-0.072605334,-0.08416681,-0.106787115,-0.07527821,-0.065216474,3.3703709,-0.06130773,-0.08004158,-0.007586206,1.7740762,-0.014608896,-0.086993776,4.505316,-0.072653376,6.3580513,7.9673624
KLF5,-0.062244233,-0.07224347,-0.09289232,-0.06560078,-0.05635798,2.9634516,-0.05273263,-0.068919584,-0.0060728225,1.5932897,-0.012654591,-0.07556126,3.8889253,-0.061871246,5.6017456,6.8253965
CA2,-0.06443527,-0.07451711,-0.095617265,-0.06762853,-0.058068983,3.0580182,-0.05424965,-0.07114612,-0.006266441,1.6423423,-0.012968329,-0.077707216,4.0208864,-0.0638333,5.7625966,7.05418
DEK,-0.06617285,-0.076377116,-0.09766158,-0.069194645,-0.0595274,3.1344655,-0.055566397,-0.072801664,-0.0065538585,1.6807239,-0.013179128,-0.07953086,4.1160035,-0.06561324,5.8879833,7.2364044
TDP2,-0.072575994,-0.08419637,-0.10678636,-0.075265765,-0.065209165,3.3674407,-0.061325576,-0.0800474,-0.007555599,1.7742639,-0.014585359,-0.08697951,4.5038857,-0.07265417,6.3558846,7.964244
PFKM,-0.06284016,-0.072894216,-0.09345941,-0.06605787,-0.056915488,2.9941843,-0.053230517,-0.06940568,-0.0060939672,1.6061916,-0.012725512,-0.076160744,3.9297633,-0.062476236,5.6331377,6.901975
SULF2,-0.06500289,-0.075331315,-0.095987916,-0.06798365,-0.058645412,3.0832522,-0.054877114,-0.07142097,-0.00632573,1.6522682,-0.01308045,-0.07830041,4.045135,-0.064536825,5.783515,7.1252165
HNRNPH2,-0.06273213,-0.07278307,-0.09351973,-0.06602953,-0.056734223,2.9837196,-0.053146906,-0.06937113,-0.006150135,1.6011122,-0.012693909,-0.076035626,3.920207,-0.062378865,5.632216,6.8791556
HSPA14,-0.061958693,-0.071909435,-0.09252172,-0.06531622,-0.05621365,2.9518676,-0.052411113,-0.068721734,-0.0061361776,1.5753384,-0.012612287,-0.07533003,3.8727243,-0.06182659,5.5834556,6.7946815
ANAPC7,-0.06056919,-0.07034066,-0.09053473,-0.06395285,-0.055100445,2.903296,-0.05121694,-0.06708673,-0.005947194,1.555218,-0.01234346,-0.0738031,3.7834063,-0.060530853,5.4769797,6.6480007
JMJD1C,-0.062207114,-0.07216763,-0.09294188,-0.06559259,-0.05631069,2.9623847,-0.052689876,-0.06897859,-0.006071162,1.5848727,-0.012673894,-0.075521745,3.8955395,-0.061807897,5.600702,6.821677
EFNA5,-0.06270306,-0.072683275,-0.093474165,-0.066070594,-0.05674702,2.9841218,-0.053034432,-0.069417216,-0.0061589503,1.6000074,-0.012729647,-0.07605341,3.9219832,-0.062315196,5.6420197,6.874061
NUP37,-0.06714837,-0.077559136,-0.098833814,-0.070046954,-0.060318854,3.1767566,-0.05652781,-0.073696494,-0.0065701753,1.7029271,-0.013239227,-0.08062193,4.17427,-0.066577755,5.952123,7.3445845
THY1,-0.06462373,-0.07469165,-0.09569125,-0.06767474,-0.05824151,3.0692694,-0.05439869,-0.07122932,-0.0063041984,1.6532102,-0.012978796,-0.07788412,4.0162106,-0.06398131,5.7648416,7.065734
FAM64A,-0.06629104,-0.07648753,-0.097912684,-0.069351465,-0.05955685,3.1383815,-0.055629086,-0.073004976,-0.0065037385,1.6800418,-0.013193115,-0.079629324,4.1319714,-0.06563895,5.900045,7.2494135
LDB2,-0.06262401,-0.07259738,-0.093372524,-0.06598561,-0.05666777,2.9811833,-0.052964557,-0.0693477,-0.0061181867,1.5993445,-0.012729745,-0.075959556,3.91619,-0.06217102,5.634749,6.8614492
ZNF208,-0.072605334,-0.08416681,-0.106787115,-0.07527821,-0.065216474,3.3703709,-0.06130773,-0.08004158,-0.007586206,1.7740762,-0.014608896,-0.086993776,4.505316,-0.072653376,6.3580513,7.9673624
CCL2,-0.061715495,-0.07165616,-0.09218941,-0.06509258,-0.055966023,2.9408245,-0.052348107,-0.068375796,-0.006068081,1.5804806,-0.012546848,-0.07503149,3.856777,-0.061465394,5.5623536,6.7723265
SPAG9,-0.062532715,-0.072537936,-0.09313135,-0.06582578,-0.056663245,2.9783206,-0.052917723,-0.06914624,-0.0061685764,1.6001408,-0.012693105,-0.07586996,3.9028018,-0.062250245,5.620334,6.8590274
GSTK1,-0.072605334,-0.08416681,-0.106787115,-0.07527821,-0.065216474,3.3703709,-0.06130773,-0.08004158,-0.007586206,1.7740762,-0.014608896,-0.086993776,4.505316,-0.072653376,6.3580513,7.9673624
KLF6,-0.061909482,-0.071836054,-0.09233813,-0.06525751,-0.056152772,2.9553492,-0.05236121,-0.06850629,-0.0060716937,1.5835541,-0.012590171,-0.07521273,3.8701475,-0.061683085,5.5772076,6.7934356
CPSF3,-0.060080774,-0.06964761,-0.08976736,-0.06308605,-0.055011824,2.8773746,-0.051178798,-0.06650659,-0.0066102073,1.5284641,-0.012387438,-0.073368534,3.7248983,-0.060274877,5.3966546,6.5679264
FBXO6,-0.072575994,-0.08419637,-0.10678636,-0.075265765,-0.065209165,3.3674407,-0.061325576,-0.0800474,-0.007555599,1.7742639,-0.014585359,-0.08697951,4.5038857,-0.07265417,6.3558846,7.964244
SMOX,-0.07445937,-0.085277006,-0.109155335,-0.077304035,-0.06636832,3.4796014,-0.06199531,-0.08204019,-0.007531489,1.8327775,-0.01467112,-0.08851171,4.6460705,-0.07336703,6.5396647,8.101813
ARL15,-0.070234716,-0.07454989,-0.084525295,-0.0634946,-0.053879894,3.463209,-0.05625104,-0.060857985,-0.006388297,2.2715461,-0.007035556,-0.07156263,3.4727862,-0.052234635,5.136869,5.867868
ORC2,-0.06291104,-0.072901435,-0.093694665,-0.06626766,-0.056971423,2.9951599,-0.053139105,-0.069589324,-0.006237331,1.6017535,-0.012776562,-0.076274306,3.9383929,-0.062624335,5.6562366,6.9042
AXL,-0.06299376,-0.07300702,-0.09380521,-0.06634785,-0.056956958,2.9973679,-0.05330822,-0.069685,-0.006046436,1.6058552,-0.012705032,-0.076369934,3.9517813,-0.062498827,5.666532,6.907256
CNOT7,-0.06129153,-0.071196124,-0.09164091,-0.06468713,-0.05571783,2.920395,-0.052016478,-0.0679805,-0.0060476274,1.5671916,-0.012543058,-0.07464426,3.8347063,-0.061115365,5.536163,6.728995
VPS72,-0.061022356,-0.07089768,-0.0914105,-0.06458356,-0.055319946,2.9174082,-0.0517458,-0.06776571,-0.0058317343,1.5670183,-0.012443063,-0.07437859,3.8215344,-0.06064381,5.5262394,6.692072
SLC25A11,-0.064374305,-0.07453035,-0.09545096,-0.06747681,-0.0580692,3.0553691,-0.054337397,-0.07098389,-0.0062959525,1.6426135,-0.012922519,-0.077675834,4.0085177,-0.063903004,5.7456503,7.052586
SLC25A20,-0.06425238,-0.07430225,-0.09531287,-0.06745551,-0.057976894,3.0503855,-0.054083213,-0.070933565,-0.006274552,1.6384536,-0.012924312,-0.077549845,4.010401,-0.06373872,5.7533593,7.036718
SIL1,-0.052881364,-0.060376655,-0.07836399,-0.062049434,-0.044557832,2.197787,-0.05383148,-0.05848068,0.25096223,0.9414202,-0.002837337,-0.07007136,4.5204673,-0.04877534,6.186164,5.9588356
M6PR,-0.06417126,-0.07427825,-0.09520536,-0.067356296,-0.05787711,3.0461948,-0.05416686,-0.07082324,-0.006265189,1.639513,-0.012938846,-0.07753131,4.0042663,-0.06360383,5.7421207,7.020202
DPH5,-0.06714837,-0.077559136,-0.098833814,-0.070046954,-0.060318854,3.1767566,-0.05652781,-0.073696494,-0.0065701753,1.7029271,-0.013239227,-0.08062193,4.17427,-0.066577755,5.952123,7.3445845
ALPL,-0.07636598,-0.087587036,-0.111624554,-0.079133876,-0.06795466,3.5597622,-0.063869335,-0.084004454,-0.007711907,1.8626901,-0.014841573,-0.0907958,4.7691684,-0.07543154,6.6775923,8.321725
CREB3L4,-0.064792946,-0.075021945,-0.09593327,-0.067869045,-0.058399186,3.0726378,-0.054710157,-0.07133949,-0.006293238,1.6563168,-0.012925742,-0.078122474,4.0325794,-0.06432259,5.7772765,7.1007824
SLC7A3,-0.05197837,-0.059388712,-0.07744767,-0.061283562,-0.043895032,2.1678667,-0.05298874,-0.057676747,0.25929028,0.9324876,-0.0028671867,-0.06913599,4.4610944,-0.047866423,6.1214814,5.86085
IMP4,-0.06416564,-0.074303485,-0.09520545,-0.067340456,-0.057884134,3.0468485,-0.054181483,-0.070790395,-0.0062023364,1.639017,-0.012870287,-0.077499144,4.002831,-0.06363589,5.73972,7.027738
UBLCP1,-0.072605334,-0.08416681,-0.106787115,-0.07527821,-0.065216474,3.3703709,-0.06130773,-0.08004158,-0.007586206,1.7740762,-0.014608896,-0.086993776,4.505316,-0.072653376,6.3580513,7.9673624
TUBA1B,-0.061631467,-0.07158719,-0.092017666,-0.065011665,-0.055952564,2.9390957,-0.05226676,-0.068287864,-0.005889435,1.5810862,-0.01249764,-0.074957654,3.8624208,-0.061309356,5.560105,6.7634106
RFXANK,-0.07636598,-0.087587036,-0.111624554,-0.079133876,-0.06795466,3.5597622,-0.063869335,-0.084004454,-0.007711907,1.8626901,-0.014841573,-0.0907958,4.7691684,-0.07543154,6.6775923,8.321725
CDC6,-0.0631251,-0.07312126,-0.09386732,-0.06640582,-0.05713175,3.0069027,-0.053261332,-0.069734484,-0.006233171,1.6111544,-0.012777218,-0.07645073,3.9427307,-0.06280876,5.6669664,6.9218535
CCDC88A,-0.063290566,-0.07340414,-0.094407216,-0.06643128,-0.057289336,3.005391,-0.053620953,-0.07006884,-0.006397735,1.5845842,-0.012863813,-0.07667274,3.9615808,-0.063180014,5.654645,6.9418063
L1TD1,-0.06462937,-0.07470609,-0.09569758,-0.067690045,-0.05824221,3.0710042,-0.054407053,-0.07123422,-0.0063125407,1.6532931,-0.012975537,-0.07787057,4.0157905,-0.063990995,5.765263,7.064639
WDR43,-0.06014555,-0.07000651,-0.090238795,-0.06356971,-0.054658566,2.8728216,-0.05117083,-0.06682011,-0.005947335,1.5348623,-0.012352391,-0.07337042,3.7663517,-0.059998613,5.4305506,6.60566
TADA1,-0.064821355,-0.075000115,-0.09596342,-0.06789089,-0.05838625,3.0743322,-0.05461125,-0.0714285,-0.0063113593,1.6555595,-0.012994333,-0.078106,4.0299087,-0.064231165,5.780655,7.0913224
THAP11,-0.060979955,-0.07079347,-0.091494456,-0.064674675,-0.055487275,2.9194992,-0.05177217,-0.06781714,-0.0060523604,1.5524318,-0.012585902,-0.07453289,3.8398187,-0.060729697,5.5380898,6.694066
NARS2,-0.06714837,-0.077559136,-0.098833814,-0.070046954,-0.060318854,3.1767566,-0.05652781,-0.073696494,-0.0065701753,1.7029271,-0.013239227,-0.08062193,4.17427,-0.066577755,5.952123,7.3445845
HNF4A,-0.06029518,-0.07029075,-0.09018207,-0.06357578,-0.054972246,2.8780117,-0.051453862,-0.0667705,-0.0061435797,1.5420263,-0.0123426085,-0.07363624,3.7601786,-0.06047627,5.427814,6.6320376
ESCO2,-0.07168727,-0.075929455,-0.08600925,-0.06454371,-0.054871082,3.530001,-0.05722369,-0.062021054,-0.0066658966,2.3067946,-0.0071600582,-0.072727524,3.5303738,-0.053312495,5.208644,5.9763837
PAPSS1,-0.054881953,-0.058115352,-0.08133723,-0.058691952,-0.053644173,1.934276,-0.038530298,-0.060186096,-0.008327827,1.7139037,-0.0049152286,-0.06405711,3.5973055,-0.058946714,5.6220284,5.4545555
NR2F2,-0.061678857,-0.07182552,-0.092174016,-0.065065295,-0.0560053,2.934109,-0.05249683,-0.0683503,-0.006104515,1.5747313,-0.012572068,-0.07514335,3.8547237,-0.061655052,5.555954,6.784289
DSN1,-0.062220372,-0.072164364,-0.09292199,-0.06571441,-0.05641921,2.9634018,-0.05271321,-0.06896964,-0.00613579,1.5926155,-0.012673305,-0.07567222,3.8954573,-0.06187882,5.620568,6.8220053
AFP,-0.061988037,-0.071976796,-0.09246149,-0.06521091,-0.05616252,2.9519532,-0.05253264,-0.068605036,-0.0061205104,1.5782428,-0.0126317395,-0.075208545,3.8714983,-0.061714336,5.561611,6.8010187
SEC14L2,-0.06268573,-0.072672985,-0.09337461,-0.06587779,-0.056724355,2.981204,-0.053015973,-0.06937364,-0.0062047434,1.598567,-0.012743688,-0.07591323,3.9070537,-0.062315132,5.6171217,6.869327
SVIL,-0.062463902,-0.07247689,-0.09305268,-0.06573508,-0.056554493,2.9746313,-0.052865572,-0.06908647,-0.0061626164,1.5947223,-0.012669257,-0.07575654,3.8989868,-0.062174745,5.607154,6.8511953
NHEJ1,-0.06316006,-0.07314656,-0.093935676,-0.06640371,-0.057077724,3.0060775,-0.05334259,-0.069783464,-0.0061541675,1.6140497,-0.012764975,-0.07640879,3.9436755,-0.062669665,5.662544,6.9207745
LTV1,-0.065026075,-0.07532952,-0.0960511,-0.067950025,-0.05865889,3.0850022,-0.054909356,-0.07146699,-0.0063132867,1.6534398,-0.013041858,-0.07834475,4.050258,-0.06455134,5.7796154,7.1299543
CCND1,-0.06173771,-0.071671665,-0.09223802,-0.06512594,-0.05598573,2.9438696,-0.05237457,-0.06843903,-0.006002669,1.5775414,-0.012578421,-0.075058535,3.8690252,-0.06140059,5.563232,6.779106
ELOVL5,-0.062381096,-0.07236178,-0.09312676,-0.065843634,-0.05652551,2.9724822,-0.05283988,-0.069093734,-0.006090627,1.5957109,-0.01269172,-0.07580719,3.9068453,-0.06203226,5.6298327,6.8438244
SMC2,-0.072605334,-0.08416681,-0.106787115,-0.07527821,-0.065216474,3.3703709,-0.06130773,-0.08004158,-0.007586206,1.7740762,-0.014608896,-0.086993776,4.505316,-0.072653376,6.3580513,7.9673624
DDIT4,-0.061081085,-0.0711053,-0.09154171,-0.064588614,-0.055516645,2.9107473,-0.05208193,-0.0678458,-0.006033668,1.5598395,-0.012494944,-0.074556805,3.8305953,-0.060977366,5.5179853,6.7203264
UNC93A,-0.072605334,-0.08416681,-0.106787115,-0.07527821,-0.065216474,3.3703709,-0.06130773,-0.08004158,-0.007586206,1.7740762,-0.014608896,-0.086993776,4.505316,-0.072653376,6.3580513,7.9673624
BIN1,-0.06128886,-0.071115434,-0.09142301,-0.06451654,-0.055574212,2.9223018,-0.051898673,-0.06783573,-0.005948559,1.5627278,-0.012415846,-0.07440579,3.837021,-0.060972564,5.512724,6.7198243
ADSL,-0.062498484,-0.07254856,-0.093183085,-0.06582147,-0.056556165,2.9756255,-0.053012073,-0.06916298,-0.0061569223,1.5927188,-0.0126441615,-0.07585601,3.9078395,-0.062195983,5.6111145,6.8572435
SSBP3,-0.06343663,-0.073482014,-0.094412535,-0.06672915,-0.057287455,3.0153801,-0.05356729,-0.07015809,-0.00621506,1.6165944,-0.012831236,-0.07675007,3.9633949,-0.062973954,5.6898193,6.9514675
CUEDC2,-0.06254836,-0.07259702,-0.093187615,-0.065819874,-0.0565861,2.979536,-0.052941564,-0.06922336,-0.006151826,1.5884259,-0.012734993,-0.07578996,3.9095662,-0.062076334,5.62532,6.854224
APOC1,-0.06416564,-0.074303485,-0.09520545,-0.067340456,-0.057884134,3.0468485,-0.054181483,-0.070790395,-0.0062023364,1.639017,-0.012870287,-0.077499144,4.002831,-0.06363589,5.73972,7.027738
MTFP1,-0.066039965,-0.08084318,-0.092503205,-0.060873043,-0.060034573,2.889987,-0.057872217,-0.07446101,-0.0006030216,1.8477963,-0.01574694,-0.07653601,3.2005188,-0.06577077,5.068117,7.6895065
RBBP8,-0.061562184,-0.07147654,-0.09199977,-0.064962186,-0.055859372,2.9392724,-0.052162,-0.068206735,-0.0059750997,1.5741383,-0.012574185,-0.07485766,3.8574,-0.06126471,5.5519986,6.7598667
P2RX4,-0.06648063,-0.07672732,-0.0981042,-0.06947853,-0.05971703,3.1467528,-0.055890933,-0.073138066,-0.0064696334,1.6816194,-0.013174315,-0.07985079,4.1485386,-0.065795965,5.9077783,7.2702713
MDK,-0.065026075,-0.07532952,-0.0960511,-0.067950025,-0.05865889,3.0850022,-0.054909356,-0.07146699,-0.0063132867,1.6534398,-0.013041858,-0.07834475,4.050258,-0.06455134,5.7796154,7.1299543
RNASEH2A,-0.072605334,-0.08416681,-0.106787115,-0.07527821,-0.065216474,3.3703709,-0.06130773,-0.08004158,-0.007586206,1.7740762,-0.014608896,-0.086993776,4.505316,-0.072653376,6.3580513,7.9673624
OGFOD1,-0.06714837,-0.077559136,-0.098833814,-0.070046954,-0.060318854,3.1767566,-0.05652781,-0.073696494,-0.0065701753,1.7029271,-0.013239227,-0.08062193,4.17427,-0.066577755,5.952123,7.3445845
NMRK2,-0.072605334,-0.08416681,-0.106787115,-0.07527821,-0.065216474,3.3703709,-0.06130773,-0.08004158,-0.007586206,1.7740762,-0.014608896,-0.086993776,4.505316,-0.072653376,6.3580513,7.9673624
NUP54,-0.06089141,-0.07876374,-0.102764316,-0.07653308,-0.058404285,3.2550116,-0.05208058,-0.07668073,-0.0031221053,2.0194337,-0.022291316,-0.08697143,3.6433308,-0.060419314,6.9741683,6.9761057
TM4SF4,-0.072605334,-0.08416681,-0.106787115,-0.07527821,-0.065216474,3.3703709,-0.06130773,-0.08004158,-0.007586206,1.7740762,-0.014608896,-0.086993776,4.505316,-0.072653376,6.3580513,7.9673624
HMGA2,-0.061942253,-0.071875915,-0.09244397,-0.06534398,-0.056207046,2.9529314,-0.05251511,-0.06856969,-0.006100681,1.588124,-0.012579203,-0.07531721,3.8710368,-0.0617215,5.588101,6.7985587
CENPU,-0.072605334,-0.08416681,-0.106787115,-0.07527821,-0.065216474,3.3703709,-0.06130773,-0.08004158,-0.007586206,1.7740762,-0.014608896,-0.086993776,4.505316,-0.072653376,6.3580513,7.9673624
BLVRA,-0.072593614,-0.084122196,-0.10679339,-0.07530623,-0.06516234,3.36453,-0.061310656,-0.08005939,-0.007632315,1.7713945,-0.014619779,-0.08695953,4.5066705,-0.072680406,6.3574595,7.968214
ECI2,-0.066195264,-0.07658684,-0.0975475,-0.0690625,-0.059574477,3.1361809,-0.055790484,-0.07272474,-0.006462138,1.6736598,-0.0132647045,-0.07956291,4.126097,-0.0656601,5.867373,7.2511516
CAT,-0.06161168,-0.0715691,-0.092210084,-0.0651461,-0.05598114,2.9363818,-0.05230977,-0.068358414,-0.006084964,1.5730928,-0.012617007,-0.075093865,3.8643503,-0.061438892,5.5758653,6.768723
SRF,-0.06005946,-0.06999999,-0.09006344,-0.063545,-0.05476864,2.8679805,-0.051190246,-0.06670028,-0.006086176,1.5350814,-0.012365392,-0.073485896,3.7552311,-0.06020536,5.43654,6.6054244
ASPH,-0.06304874,-0.07311501,-0.09384312,-0.06630852,-0.056998678,2.9938304,-0.053298637,-0.06973792,-0.006226792,1.608493,-0.01272302,-0.076398015,3.9290626,-0.06275776,5.65754,6.909895
EMP2,-0.072591715,-0.08413781,-0.10677466,-0.075298466,-0.06517468,3.365613,-0.061298054,-0.080052316,-0.007620817,1.7701392,-0.014610014,-0.08695086,4.507726,-0.07269544,6.355179,7.9688406
FN1,-0.061959073,-0.07184362,-0.092328615,-0.06522547,-0.056205347,2.9584723,-0.052307986,-0.06854329,-0.0061095636,1.584574,-0.012589375,-0.0752068,3.8657901,-0.061735652,5.572956,6.790277
CENPW,-0.072605334,-0.08416681,-0.106787115,-0.07527821,-0.065216474,3.3703709,-0.06130773,-0.08004158,-0.007586206,1.7740762,-0.014608896,-0.086993776,4.505316,-0.072653376,6.3580513,7.9673624
LAMB2,-0.06590851,-0.076263905,-0.09719028,-0.06880827,-0.059352085,3.1228826,-0.05557917,-0.072381124,-0.0064204973,1.6740165,-0.013129059,-0.07928181,4.1012053,-0.065399095,5.8495255,7.2201047
GXYLT2,-0.06381114,-0.07397028,-0.09463395,-0.06689055,-0.057652563,3.029643,-0.05391554,-0.07036025,-0.0062596225,1.6266079,-0.012904566,-0.07708468,3.9761755,-0.063380666,5.6954503,6.9925094
APEX1,-0.053993654,-0.06944572,-0.091550596,-0.06823822,-0.051946204,2.9372602,-0.04617721,-0.06773841,-0.0023943952,1.8414425,-0.019389832,-0.0772545,3.2642915,-0.053038534,6.252596,6.169571
BRMS1,-0.05437625,-0.07517423,-0.09524138,-0.06271109,-0.046600245,2.4807143,-0.05654106,-0.06836879,-0.004348327,0.5736918,-0.017978815,-0.07572873,3.9709387,-0.05262998,4.69721,6.112769
ZSWIM8,-0.072605334,-0.08416681,-0.106787115,-0.07527821,-0.065216474,3.3703709,-0.06130773,-0.08004158,-0.007586206,1.7740762,-0.014608896,-0.086993776,4.505316,-0.072653376,6.3580513,7.9673624
ECHDC1,-0.072605334,-0.08416681,-0.106787115,-0.07527821,-0.065216474,3.3703709,-0.06130773,-0.08004158,-0.007586206,1.7740762,-0.014608896,-0.086993776,4.505316,-0.072653376,6.3580513,7.9673624
WARS,-0.06065601,-0.07054025,-0.09091831,-0.06406661,-0.05513937,2.8918128,-0.051545233,-0.067365505,-0.0060036825,1.5477647,-0.012429251,-0.073932305,3.7982318,-0.06056852,5.4796376,6.6650987
FOSL1,-0.06037013,-0.0702745,-0.090465456,-0.063813046,-0.054886863,2.8870595,-0.05124729,-0.06702167,-0.0059841727,1.5384929,-0.012366627,-0.07369318,3.775757,-0.060379542,5.4574547,6.6287756
ZNF287,-0.072605334,-0.08416681,-0.106787115,-0.07527821,-0.065216474,3.3703709,-0.06130773,-0.08004158,-0.007586206,1.7740762,-0.014608896,-0.086993776,4.505316,-0.072653376,6.3580513,7.9673624
CKS1B,-0.07513173,-0.08608596,-0.11002959,-0.077943765,-0.066848926,3.5034707,-0.062611766,-0.08276531,-0.0075718914,1.8443286,-0.014749405,-0.08923981,4.6879945,-0.07396596,6.5846934,8.174357
SALL3,-0.06356975,-0.07359757,-0.09452915,-0.066848055,-0.057404988,3.022804,-0.053695604,-0.07026471,-0.006221603,1.6199937,-0.012836492,-0.07690787,3.9713821,-0.06305403,5.701971,6.9608107
UFSP2,-0.051589154,-0.06667617,-0.08823972,-0.065525055,-0.049946964,2.8221335,-0.044481013,-0.06496828,-0.0024163604,1.7597504,-0.018701348,-0.07439405,3.1262069,-0.051046308,6.011246,5.9056954
SRM,-0.06365286,-0.07001241,-0.08546996,-0.06712805,-0.064202674,3.5874066,-0.044551563,-0.06550559,-0.01169579,1.7380625,-0.020106923,-0.07790185,4.119104,-0.0594853,5.203119,6.8912115
HMCES,-0.072605334,-0.08416681,-0.106787115,-0.07527821,-0.065216474,3.3703709,-0.06130773,-0.08004158,-0.007586206,1.7740762,-0.014608896,-0.086993776,4.505316,-0.072653376,6.3580513,7.9673624
FANCL,-0.060910147,-0.069518596,-0.08905428,-0.0704184,-0.050941356,2.452563,-0.06182514,-0.06716954,0.23467733,1.0103941,-0.0032505374,-0.079779245,5.172774,-0.05672479,6.9704304,6.870631
NTPCR,-0.06714837,-0.077559136,-0.098833814,-0.070046954,-0.060318854,3.1767566,-0.05652781,-0.073696494,-0.0065701753,1.7029271,-0.013239227,-0.08062193,4.17427,-0.066577755,5.952123,7.3445845
RBMX,-0.07788227,-0.08925868,-0.11358074,-0.0803891,-0.06932834,3.6116796,-0.06494183,-0.085646376,-0.008047342,1.888902,-0.0152132325,-0.09229626,4.8458533,-0.07708784,6.77419,8.487355
CTPS1,-0.072605334,-0.08416681,-0.106787115,-0.07527821,-0.065216474,3.3703709,-0.06130773,-0.08004158,-0.007586206,1.7740762,-0.014608896,-0.086993776,4.505316,-0.072653376,6.3580513,7.9673624
MCM2,-0.06250783,-0.0725381,-0.09327171,-0.06595777,-0.056612886,2.978983,-0.05293215,-0.06922611,-0.0061199656,1.5934417,-0.012688161,-0.07594049,3.9179409,-0.062229045,5.6293254,6.864535
SLC7A8,-0.062111985,-0.07210058,-0.0927412,-0.06552376,-0.05628971,2.9588938,-0.05266097,-0.06880609,-0.0061214524,1.585942,-0.012626484,-0.07549956,3.885691,-0.0618529,5.597464,6.8156843
ANKRD32,-0.072605334,-0.08416681,-0.106787115,-0.07527821,-0.065216474,3.3703709,-0.06130773,-0.08004158,-0.007586206,1.7740762,-0.014608896,-0.086993776,4.505316,-0.072653376,6.3580513,7.9673624
DDX55,-0.072605334,-0.08416681,-0.106787115,-0.07527821,-0.065216474,3.3703709,-0.06130773,-0.08004158,-0.007586206,1.7740762,-0.014608896,-0.086993776,4.505316,-0.072653376,6.3580513,7.9673624
CENPN,-0.07636598,-0.087587036,-0.111624554,-0.079133876,-0.06795466,3.5597622,-0.063869335,-0.084004454,-0.007711907,1.8626901,-0.014841573,-0.0907958,4.7691684,-0.07543154,6.6775923,8.321725
FGB,-0.052035484,-0.059494097,-0.07733442,-0.061223745,-0.043983083,2.169361,-0.05307173,-0.05761251,0.24899945,0.9269885,-0.0028261857,-0.0691966,4.4582314,-0.048130136,6.1129127,5.872142
PCIF1,-0.06380998,-0.07394832,-0.09483226,-0.06706507,-0.057589754,3.032574,-0.053971145,-0.07046145,-0.006193209,1.6267701,-0.012822588,-0.077212684,3.9853704,-0.06335312,5.714144,6.9941797
RHOBTB3,-0.06312022,-0.07317367,-0.09387242,-0.0663393,-0.057049394,3.0018005,-0.053367812,-0.069737874,-0.0061282692,1.6115292,-0.012760721,-0.07640471,3.9405534,-0.062654935,5.6586857,6.9160876
ALDH9A1,-0.072605334,-0.08416681,-0.106787115,-0.07527821,-0.065216474,3.3703709,-0.06130773,-0.08004158,-0.007586206,1.7740762,-0.014608896,-0.086993776,4.505316,-0.072653376,6.3580513,7.9673624
DPH6,-0.072605334,-0.08416681,-0.106787115,-0.07527821,-0.065216474,3.3703709,-0.06130773,-0.08004158,-0.007586206,1.7740762,-0.014608896,-0.086993776,4.505316,-0.072653376,6.3580513,7.9673624
ZNF232,-0.06331543,-0.08714313,-0.109118916,-0.07169491,-0.053774294,2.8062713,-0.065456256,-0.07909264,-0.0056330655,0.61011195,-0.020642895,-0.08680681,4.571572,-0.061717533,5.2978597,7.1153336
STC1,-0.055317163,-0.07636811,-0.09661158,-0.06356624,-0.04721914,2.5177464,-0.057434306,-0.06943524,-0.0045036646,0.5815925,-0.018258784,-0.07672141,4.0212607,-0.05337128,4.7411,6.2044396
EGFR,-0.06275484,-0.07278239,-0.09346875,-0.06602063,-0.056780145,2.9896326,-0.05309656,-0.06941401,-0.0061201076,1.6031562,-0.01276852,-0.076097846,3.925863,-0.062365368,5.63252,6.881815
THAP4,-0.06453542,-0.07465439,-0.09570558,-0.06771653,-0.05816687,3.0628874,-0.05435918,-0.07120684,-0.0062724967,1.6484494,-0.01296543,-0.07784375,4.0224876,-0.06395751,5.7711983,7.0647535
CAMK2D,-0.061883707,-0.0718556,-0.09234872,-0.06520106,-0.056112465,2.9501066,-0.052454293,-0.068491116,-0.006114798,1.5811802,-0.012597171,-0.07517002,3.8671696,-0.06165369,5.56488,6.7928267
PLA2G12B,-0.072542,-0.08415781,-0.10661505,-0.075253226,-0.06516411,3.3684902,-0.061245587,-0.079945326,-0.0076900627,1.7628009,-0.014680794,-0.08683724,4.499142,-0.07254872,6.364754,7.956277
CKS2,-0.055944365,-0.07723799,-0.09758369,-0.06427821,-0.04769884,2.54389,-0.058027506,-0.07015344,-0.0045045773,0.58328575,-0.018431235,-0.07753561,4.0752745,-0.05398951,4.7922063,6.2802825
MCM7,-0.06183735,-0.07178841,-0.09241653,-0.06529569,-0.05610617,2.9494634,-0.05240207,-0.06856249,-0.006096922,1.5770054,-0.012612897,-0.07522963,3.8764064,-0.061626866,5.5771217,6.793022
S100A14,-0.072605334,-0.08416681,-0.106787115,-0.07527821,-0.065216474,3.3703709,-0.06130773,-0.08004158,-0.007586206,1.7740762,-0.014608896,-0.086993776,4.505316,-0.072653376,6.3580513,7.9673624
TFDP2,-0.06381965,-0.073917896,-0.094783835,-0.06701776,-0.057597946,3.0305312,-0.05388014,-0.07046437,-0.0063096425,1.6244454,-0.012873865,-0.07711644,3.981192,-0.063379064,5.706876,6.9885187
DEF8,-0.072605334,-0.08416681,-0.106787115,-0.07527821,-0.065216474,3.3703709,-0.06130773,-0.08004158,-0.007586206,1.7740762,-0.014608896,-0.086993776,4.505316,-0.072653376,6.3580513,7.9673624
ZFAND2A,-0.072605334,-0.08416681,-0.106787115,-0.07527821,-0.065216474,3.3703709,-0.06130773,-0.08004158,-0.007586206,1.7740762,-0.014608896,-0.086993776,4.505316,-0.072653376,6.3580513,7.9673624
FOSB,-0.06032066,-0.07023942,-0.09040251,-0.06375914,-0.054893322,2.8851938,-0.05124583,-0.06695034,-0.0060060867,1.5377622,-0.012381501,-0.0736704,3.7719529,-0.06037769,5.453938,6.6258593
SLC35B4,-0.072605334,-0.08416681,-0.106787115,-0.07527821,-0.065216474,3.3703709,-0.06130773,-0.08004158,-0.007586206,1.7740762,-0.014608896,-0.086993776,4.505316,-0.072653376,6.3580513,7.9673624
EIF5B,-0.072605334,-0.08416681,-0.106787115,-0.07527821,-0.065216474,3.3703709,-0.06130773,-0.08004158,-0.007586206,1.7740762,-0.014608896,-0.086993776,4.505316,-0.072653376,6.3580513,7.9673624
FANCI,-0.07636598,-0.087587036,-0.111624554,-0.079133876,-0.06795466,3.5597622,-0.063869335,-0.084004454,-0.007711907,1.8626901,-0.014841573,-0.0907958,4.7691684,-0.07543154,6.6775923,8.321725
FOXP1,-0.061360795,-0.07137503,-0.09172341,-0.06475258,-0.055747975,2.925603,-0.05214923,-0.067990296,-0.0060922834,1.5679996,-0.012515349,-0.07475249,3.8351831,-0.061314397,5.532598,6.743753
PIK3R4,-0.072605334,-0.08416681,-0.106787115,-0.07527821,-0.065216474,3.3703709,-0.06130773,-0.08004158,-0.007586206,1.7740762,-0.014608896,-0.086993776,4.505316,-0.072653376,6.3580513,7.9673624
RFX6,-0.072605334,-0.08416681,-0.106787115,-0.07527821,-0.065216474,3.3703709,-0.06130773,-0.08004158,-0.007586206,1.7740762,-0.014608896,-0.086993776,4.505316,-0.072653376,6.3580513,7.9673624
JUN,-0.060142506,-0.07010465,-0.09019314,-0.06359209,-0.054826554,2.871953,-0.05125465,-0.06676223,-0.0060695643,1.5362749,-0.012395161,-0.073549025,3.758844,-0.060278818,5.4411635,6.6139746
DNAJC2,-0.06905752,-0.079642065,-0.101455905,-0.07193819,-0.061907217,3.25912,-0.058044422,-0.075786546,-0.0067608855,1.7397823,-0.013568504,-0.0827299,4.2978044,-0.06840905,6.104871,7.5514326
CASC5,-0.065026075,-0.07532952,-0.0960511,-0.067950025,-0.05865889,3.0850022,-0.054909356,-0.07146699,-0.0063132867,1.6534398,-0.013041858,-0.07834475,4.050258,-0.06455134,5.7796154,7.1299543
TTI2,-0.07260415,-0.084165215,-0.10678977,-0.07527457,-0.065216355,3.370432,-0.061307643,-0.08004389,-0.0075844014,1.7740185,-0.014611014,-0.086995445,4.5052285,-0.07265102,6.3578744,7.967617
SEC11C,-0.064010866,-0.074104354,-0.09499223,-0.06721403,-0.057763137,3.041021,-0.054080606,-0.07061174,-0.0062189866,1.6337358,-0.01285098,-0.07733595,3.997165,-0.06347671,5.7276707,7.013442
PPAT,-0.072605334,-0.08416681,-0.106787115,-0.07527821,-0.065216474,3.3703709,-0.06130773,-0.08004158,-0.007586206,1.7740762,-0.014608896,-0.086993776,4.505316,-0.072653376,6.3580513,7.9673624
WDR74,-0.072605334,-0.08416681,-0.106787115,-0.07527821,-0.065216474,3.3703709,-0.06130773,-0.08004158,-0.007586206,1.7740762,-0.014608896,-0.086993776,4.505316,-0.072653376,6.3580513,7.9673624
FXR1,-0.06581025,-0.06954679,-0.09556552,-0.0689222,-0.06348388,2.239402,-0.046037085,-0.071620785,-0.010299504,1.9690914,-0.0057803923,-0.07536038,4.270724,-0.07073564,6.526084,6.5442486
METTL18,-0.072605334,-0.08416681,-0.106787115,-0.07527821,-0.065216474,3.3703709,-0.06130773,-0.08004158,-0.007586206,1.7740762,-0.014608896,-0.086993776,4.505316,-0.072653376,6.3580513,7.9673624
RGN,-0.072605334,-0.08416681,-0.106787115,-0.07527821,-0.065216474,3.3703709,-0.06130773,-0.08004158,-0.007586206,1.7740762,-0.014608896,-0.086993776,4.505316,-0.072653376,6.3580513,7.9673624
AAR2,-0.072605334,-0.08416681,-0.106787115,-0.07527821,-0.065216474,3.3703709,-0.06130773,-0.08004158,-0.007586206,1.7740762,-0.014608896,-0.086993776,4.505316,-0.072653376,6.3580513,7.9673624
NDUFAF4,-0.06714837,-0.077559136,-0.098833814,-0.070046954,-0.060318854,3.1767566,-0.05652781,-0.073696494,-0.0065701753,1.7029271,-0.013239227,-0.08062193,4.17427,-0.066577755,5.952123,7.3445845
ECT2,-0.061418913,-0.07137165,-0.091907546,-0.06478632,-0.055627618,2.9254212,-0.052119672,-0.06813157,-0.005952178,1.5661871,-0.012508827,-0.074646614,3.8466876,-0.061095726,5.530987,6.7409625
CDH2,-0.06382566,-0.07383857,-0.09490655,-0.067136206,-0.057610996,3.030786,-0.053782582,-0.070586875,-0.0062924973,1.6237922,-0.012904185,-0.0771475,3.9900167,-0.06332373,5.726916,6.989793
ERCC8,-0.0664831,-0.07688,-0.0980722,-0.06939725,-0.05981816,3.1464825,-0.056040864,-0.07310366,-0.0065984163,1.6803293,-0.013159972,-0.079999685,4.133414,-0.06605658,5.895072,7.2700644
COQ3,-0.06308018,-0.073015444,-0.09376846,-0.06632786,-0.05705763,3.0037007,-0.053157024,-0.06975358,-0.006251975,1.6126387,-0.012819869,-0.076353714,3.9313915,-0.06272459,5.6657352,6.9045386
RAD54L,-0.06674413,-0.077068895,-0.09841609,-0.069711,-0.059935402,3.1578002,-0.056116205,-0.07338373,-0.0065348744,1.6905956,-0.0132305175,-0.08013182,4.1547666,-0.06611417,5.923517,7.301113
ING1,-0.062440854,-0.07249166,-0.09313868,-0.06583348,-0.05654114,2.9715464,-0.05294686,-0.06914226,-0.0061210506,1.5955331,-0.012670062,-0.07584568,3.904997,-0.062133294,5.619881,6.853725
ZNF638,-0.061684676,-0.071645476,-0.092249684,-0.065110855,-0.055938642,2.9416173,-0.052407548,-0.06838685,-0.0059747617,1.5831302,-0.012535608,-0.075075604,3.8599536,-0.061337005,5.5681176,6.765236
CREB3L3,-0.065026075,-0.07532952,-0.0960511,-0.067950025,-0.05865889,3.0850022,-0.054909356,-0.07146699,-0.0063132867,1.6534398,-0.013041858,-0.07834475,4.050258,-0.06455134,5.7796154,7.1299543
BPTF,-0.06132651,-0.07134703,-0.09165489,-0.064664625,-0.055765618,2.918766,-0.052117143,-0.0679573,-0.006129399,1.562829,-0.012532643,-0.074700154,3.8341455,-0.061339878,5.5274453,6.7410007
E2F7,-0.06060867,-0.07052258,-0.090893716,-0.06420042,-0.05514906,2.8970706,-0.051528666,-0.067350715,-0.0060137045,1.5491555,-0.012433537,-0.074080616,3.7990355,-0.06058918,5.4935384,6.6640067
ZSCAN21,-0.06464857,-0.07832785,-0.09953288,-0.0734997,-0.06433236,3.5531836,-0.060044713,-0.07477842,-0.012064045,1.6526854,-0.011144845,-0.09157158,3.674606,-0.07794514,6.265349,7.121128
MECR,-0.06297102,-0.07300636,-0.093693,-0.06618731,-0.05697578,2.9974966,-0.053283922,-0.06959193,-0.0060533085,1.6077105,-0.012753173,-0.0762727,3.9376814,-0.06250415,5.6505966,6.905017
DPPA4,-0.07258541,-0.08414283,-0.106791444,-0.07528572,-0.0651892,3.3693342,-0.06130187,-0.08005183,-0.007564678,1.7760286,-0.014605771,-0.08696849,4.506777,-0.07263679,6.355243,7.9696264
C3orf14,-0.06306362,-0.07306916,-0.09384688,-0.06626224,-0.05698215,2.9994533,-0.053291876,-0.06970901,-0.0061463937,1.6120007,-0.012745491,-0.07629074,3.9322307,-0.06258207,5.6508074,6.90562
MED14,-0.061471347,-0.07561653,-0.087150745,-0.057086024,-0.05633366,2.7052557,-0.05422206,-0.06984969,-0.0005097344,1.7314259,-0.015065868,-0.07191911,2.98577,-0.061391372,4.773106,7.1825957
TBX3,-0.060237035,-0.06994809,-0.09010534,-0.0636513,-0.054890197,2.8901098,-0.05098064,-0.06677722,-0.0059930203,1.5500567,-0.012342088,-0.07347926,3.7615955,-0.060201712,5.449949,6.613103
LGALS1,-0.06674413,-0.077068895,-0.09841609,-0.069711,-0.059935402,3.1578002,-0.056116205,-0.07338373,-0.0065348744,1.6905956,-0.0132305175,-0.08013182,4.1547666,-0.06611417,5.923517,7.301113
EMG1,-0.072593614,-0.084122196,-0.10679339,-0.07530623,-0.06516234,3.36453,-0.061310656,-0.08005939,-0.007632315,1.7713945,-0.014619779,-0.08695953,4.5066705,-0.072680406,6.3574595,7.968214
UGT2B11,-0.061397016,-0.07137334,-0.09184788,-0.06481808,-0.05561489,2.9237685,-0.05208923,-0.06808811,-0.0059639285,1.5650806,-0.012545271,-0.07460475,3.8418496,-0.061082024,5.5346694,6.736488
HMGN4,-0.06810346,-0.07856984,-0.10014546,-0.07100013,-0.06110186,3.219163,-0.057241254,-0.07474278,-0.006669277,1.7226713,-0.013415703,-0.08165286,4.2350526,-0.067455105,6.029798,7.445183
TRIT1,-0.06464857,-0.07832785,-0.09953288,-0.0734997,-0.06433236,3.5531836,-0.060044713,-0.07477842,-0.012064045,1.6526854,-0.011144845,-0.09157158,3.674606,-0.07794514,6.265349,7.121128
ZWINT,-0.072605334,-0.08416681,-0.106787115,-0.07527821,-0.065216474,3.3703709,-0.06130773,-0.08004158,-0.007586206,1.7740762,-0.014608896,-0.086993776,4.505316,-0.072653376,6.3580513,7.9673624
AASS,-0.072605334,-0.08416681,-0.106787115,-0.07527821,-0.065216474,3.3703709,-0.06130773,-0.08004158,-0.007586206,1.7740762,-0.014608896,-0.086993776,4.505316,-0.072653376,6.3580513,7.9673624
ACSL5,-0.064013325,-0.07410199,-0.095078,-0.06715358,-0.05779235,3.0405765,-0.05402135,-0.07071657,-0.0063144467,1.6286635,-0.012943387,-0.07731038,3.9892542,-0.06353744,5.720088,7.0101767
USP39,-0.05670161,-0.07823187,-0.09882735,-0.06513661,-0.048217915,2.574459,-0.058881328,-0.07107444,-0.0045277406,0.587176,-0.01862823,-0.07850864,4.136724,-0.05455417,4.847744,6.362402
COPS7B,-0.07636598,-0.087587036,-0.111624554,-0.079133876,-0.06795466,3.5597622,-0.063869335,-0.084004454,-0.007711907,1.8626901,-0.014841573,-0.0907958,4.7691684,-0.07543154,6.6775923,8.321725
PFN2,-0.047021598,-0.06049388,-0.09749529,-0.05903703,-0.04582548,1.7051893,-0.045940775,-0.07333185,-0.007396634,0.93066144,-0.014154269,-0.06435262,4.32064,-0.04714719,4.217996,5.8941936
KNTC1,-0.07539004,-0.08629259,-0.11067797,-0.07817318,-0.066942535,3.5139663,-0.062798,-0.08321354,-0.0075059757,1.8361785,-0.01477497,-0.08943019,4.71438,-0.07411374,6.6035986,8.194127
CEBPD,-0.061258163,-0.071324185,-0.0915534,-0.06466325,-0.055757593,2.9165056,-0.05218437,-0.06787959,-0.0062007587,1.5652649,-0.012579933,-0.07472998,3.824811,-0.061312664,5.5265985,6.7406836
RRM1,-0.06252706,-0.07251095,-0.09331588,-0.065869026,-0.056588348,2.9736543,-0.05292779,-0.06927691,-0.0061127404,1.5921835,-0.012700529,-0.07585127,3.9142027,-0.062137835,5.625475,6.8539333
DGAT1,-0.061953563,-0.0719351,-0.09252068,-0.0653224,-0.056114133,2.953708,-0.052562326,-0.06860446,-0.0060277507,1.5822786,-0.012579065,-0.07526793,3.8787398,-0.061617613,5.5750813,6.799319
TIPARP,-0.068181425,-0.078682475,-0.10024769,-0.07112346,-0.061151966,3.2207634,-0.05730205,-0.07482237,-0.0066793603,1.7219887,-0.013466673,-0.081702374,4.2371073,-0.06751938,6.0402412,7.450462
CDCA7L,-0.065978296,-0.07623944,-0.09748912,-0.069011465,-0.059315767,3.1250787,-0.05548832,-0.072640814,-0.0064207944,1.6804214,-0.01318425,-0.07932197,4.10265,-0.06529368,5.8699336,7.215287
PLK1,-0.06361679,-0.07360063,-0.09451206,-0.06687515,-0.057518695,3.0270684,-0.05357905,-0.070256405,-0.006288814,1.6215482,-0.012856723,-0.07693299,3.9728887,-0.06322976,5.7079835,6.969029
KPNA2,-0.061565217,-0.0714502,-0.091985084,-0.06499665,-0.05593232,2.939354,-0.052104052,-0.06821862,-0.006064368,1.5751636,-0.0125793265,-0.07492324,3.8527532,-0.06138977,5.563191,6.7572427
ZNF581,-0.06762533,-0.07796169,-0.09968928,-0.07060858,-0.060640465,3.1956048,-0.056772307,-0.07439636,-0.006566912,1.7053349,-0.0133674275,-0.0810828,4.221046,-0.066851735,5.9999375,7.391126
RAD51C,-0.062546335,-0.07254876,-0.093352064,-0.06600797,-0.05664521,2.9776406,-0.052918695,-0.069267474,-0.0060387137,1.6065462,-0.012740372,-0.07593509,3.9133143,-0.06212916,5.645989,6.863451
VPS33A,-0.072605334,-0.08416681,-0.106787115,-0.07527821,-0.065216474,3.3703709,-0.06130773,-0.08004158,-0.007586206,1.7740762,-0.014608896,-0.086993776,4.505316,-0.072653376,6.3580513,7.9673624
FBXO22,-0.06299036,-0.073015496,-0.09379225,-0.06630241,-0.05695858,2.9960537,-0.053256344,-0.06968001,-0.0061308853,1.6102328,-0.012785482,-0.07633175,3.9341328,-0.062492013,5.6608872,6.899242
POLR2K,-0.06293982,-0.072984986,-0.09379322,-0.06628381,-0.0569088,2.993685,-0.053274408,-0.0696606,-0.0060847667,1.6069113,-0.012734254,-0.07630966,3.9367988,-0.062497746,5.658485,6.9010353
HGD,-0.072605334,-0.08416681,-0.106787115,-0.07527821,-0.065216474,3.3703709,-0.06130773,-0.08004158,-0.007586206,1.7740762,-0.014608896,-0.086993776,4.505316,-0.072653376,6.3580513,7.9673624
SLC39A1,-0.06186778,-0.07176494,-0.09232018,-0.0652224,-0.056041673,2.951655,-0.052419245,-0.068458565,-0.0059966943,1.5835898,-0.012582224,-0.075093366,3.874314,-0.061432738,5.5670366,6.7891645
TMEM60,-0.065180674,-0.07526467,-0.096426055,-0.068206005,-0.05870465,3.0924673,-0.054753587,-0.07180085,-0.006489871,1.6569786,-0.013074893,-0.07841148,4.051942,-0.0646447,5.80626,7.1264606
TFPI,-0.06082472,-0.07075451,-0.09115817,-0.064249836,-0.055170678,2.901444,-0.051671542,-0.06754598,-0.005962792,1.5509123,-0.012439555,-0.07407942,3.8091543,-0.0606206,5.4858828,6.6796303
DROSHA,-0.06014555,-0.07000651,-0.090238795,-0.06356971,-0.054658566,2.8728216,-0.05117083,-0.06682011,-0.005947335,1.5348623,-0.012352391,-0.07337042,3.7663517,-0.059998613,5.4305506,6.60566
CHEK1,-0.06444232,-0.07454961,-0.095558316,-0.067632414,-0.058115885,3.0579586,-0.054334562,-0.07108054,-0.0062694405,1.6448572,-0.012931417,-0.07776601,4.020997,-0.06390195,5.7655888,7.0592513
MTHFD1,-0.06619686,-0.07639978,-0.09786456,-0.06926196,-0.059418906,3.1318197,-0.055550013,-0.07297559,-0.006482198,1.673966,-0.013215118,-0.07947509,4.1281295,-0.06548956,5.8869123,7.2408504
IFNGR1,-0.06477473,-0.074938275,-0.09596702,-0.067918144,-0.05836867,3.0734453,-0.054641023,-0.07139936,-0.0062937723,1.651926,-0.012976542,-0.078115664,4.039057,-0.064185984,5.783633,7.0927577
APOA2,-0.061134547,-0.07107298,-0.091435306,-0.06450067,-0.055443473,2.9153807,-0.05193537,-0.067779556,-0.00594935,1.5623171,-0.012438284,-0.07439277,3.8261938,-0.060878746,5.5081453,6.710896
BUB1,-0.061693583,-0.07161296,-0.092173435,-0.06511467,-0.055922017,2.9406395,-0.052324057,-0.06838987,-0.0058769276,1.5804241,-0.012565371,-0.07499144,3.8711655,-0.061241277,5.567781,6.775166
ARL2,-0.072605334,-0.08416681,-0.106787115,-0.07527821,-0.065216474,3.3703709,-0.06130773,-0.08004158,-0.007586206,1.7740762,-0.014608896,-0.086993776,4.505316,-0.072653376,6.3580513,7.9673624
TF,-0.061254863,-0.071214564,-0.09164832,-0.06467722,-0.055651918,2.923019,-0.05201735,-0.06796121,-0.006012198,1.5636134,-0.012530651,-0.074610405,3.8369687,-0.061143935,5.5259924,6.738599
RARG,-0.06183976,-0.07178004,-0.09229549,-0.06514657,-0.0560644,2.9507608,-0.052384596,-0.068447426,-0.006090889,1.5784196,-0.012582713,-0.07510744,3.8652396,-0.06159209,5.561773,6.7839756
TBRG4,-0.072605334,-0.08416681,-0.106787115,-0.07527821,-0.065216474,3.3703709,-0.06130773,-0.08004158,-0.007586206,1.7740762,-0.014608896,-0.086993776,4.505316,-0.072653376,6.3580513,7.9673624
XRCC5,-0.060999375,-0.070903994,-0.09130759,-0.06451516,-0.055451624,2.9098685,-0.051868208,-0.06764656,-0.0060380534,1.5682374,-0.012442559,-0.07439636,3.817706,-0.060859617,5.519357,6.703299
ZRANB2,-0.06036739,-0.07029485,-0.09064872,-0.06393373,-0.05487142,2.884625,-0.05141701,-0.06711387,-0.0058869952,1.5421058,-0.012359005,-0.073772624,3.7901566,-0.060246654,5.467169,6.6367407
THRB,-0.061527688,-0.071562774,-0.09193475,-0.06488682,-0.055882353,2.9282415,-0.05233084,-0.06817512,-0.0061319373,1.573899,-0.012551542,-0.0749121,3.8421683,-0.06143313,5.541459,6.7614493
PEG3,-0.06264918,-0.07260067,-0.09342669,-0.06606107,-0.056718014,2.9827895,-0.052930593,-0.06936516,-0.006127133,1.6022521,-0.012735132,-0.07599497,3.9201086,-0.062257834,5.6465526,6.8695135
AURKA,-0.06597278,-0.07615207,-0.09741964,-0.069055915,-0.059332512,3.124659,-0.05538988,-0.07261507,-0.0065021627,1.6707644,-0.013195312,-0.0792601,4.1086283,-0.06533088,5.876487,7.2105227
ATP1B1,-0.0618494,-0.07182059,-0.09234116,-0.06511759,-0.055991177,2.947384,-0.052386597,-0.06848036,-0.006031874,1.577955,-0.012577228,-0.0750471,3.8635209,-0.06151918,5.556083,6.780701
CDK5RAP1,-0.072605334,-0.08416681,-0.106787115,-0.07527821,-0.065216474,3.3703709,-0.06130773,-0.08004158,-0.007586206,1.7740762,-0.014608896,-0.086993776,4.505316,-0.072653376,6.3580513,7.9673624
CDK5RAP2,-0.05545535,-0.06831581,-0.08762966,-0.06643901,-0.051965967,2.8903575,-0.05569002,-0.0618232,-0.0018468364,2.008534,-0.01219219,-0.073173635,3.4314954,-0.06007849,5.804798,7.5993357
MYCN,-0.062110107,-0.07208013,-0.09274095,-0.06559303,-0.056372304,2.9595423,-0.05254002,-0.06882633,-0.006173114,1.587105,-0.012696824,-0.07554421,3.8882086,-0.06193314,5.610215,6.820562
MMS19,-0.07258541,-0.08414283,-0.106791444,-0.07528572,-0.0651892,3.3693342,-0.06130187,-0.08005183,-0.007564678,1.7760286,-0.014605771,-0.08696849,4.506777,-0.07263679,6.355243,7.9696264
HELLS,-0.072605334,-0.08416681,-0.106787115,-0.07527821,-0.065216474,3.3703709,-0.06130773,-0.08004158,-0.007586206,1.7740762,-0.014608896,-0.086993776,4.505316,-0.072653376,6.3580513,7.9673624
TGIF2,-0.0691183,-0.073403865,-0.083428435,-0.0626663,-0.05309728,3.4143615,-0.055464216,-0.059972648,-0.006247157,2.23928,-0.0069746803,-0.070616685,3.4280849,-0.05134352,5.0788436,5.7746596
PMAIP1,-0.062930994,-0.06701691,-0.080652,-0.05953973,-0.053551897,2.3582559,-0.059279077,-0.059928205,-0.018812222,1.7956393,-0.0092774015,-0.06506054,3.1968648,-0.06280012,4.8675103,7.1467085
PRAP1,-0.072605334,-0.08416681,-0.106787115,-0.07527821,-0.065216474,3.3703709,-0.06130773,-0.08004158,-0.007586206,1.7740762,-0.014608896,-0.086993776,4.505316,-0.072653376,6.3580513,7.9673624
UQCC1,-0.072605334,-0.08416681,-0.106787115,-0.07527821,-0.065216474,3.3703709,-0.06130773,-0.08004158,-0.007586206,1.7740762,-0.014608896,-0.086993776,4.505316,-0.072653376,6.3580513,7.9673624
MRPL10,-0.06429979,-0.07438562,-0.09533008,-0.06729989,-0.057993453,3.0531309,-0.05420726,-0.07090214,-0.006379271,1.6345403,-0.012921587,-0.07751873,3.9959803,-0.063838094,5.72945,7.030447
C6orf203,-0.06622451,-0.07651191,-0.09780516,-0.06924848,-0.059525058,3.13654,-0.05570158,-0.0728848,-0.006446616,1.6850567,-0.013213854,-0.07960123,4.1190357,-0.0655423,5.888887,7.2426047
FANCA,-0.062465925,-0.07249285,-0.09308745,-0.06578784,-0.056612886,2.9746206,-0.052852724,-0.069119506,-0.0060888384,1.5943456,-0.012659597,-0.07583623,3.906875,-0.062233247,5.6214576,6.856289
VPS26A,-0.06259644,-0.072680146,-0.09348877,-0.06599748,-0.056675564,2.979681,-0.05312614,-0.069273554,-0.0061524105,1.5934874,-0.0126820095,-0.07601811,3.9235108,-0.062356748,5.6327405,6.8720965
SURF2,-0.062811494,-0.072837554,-0.09374037,-0.066225946,-0.056847986,2.9871898,-0.053240478,-0.06958448,-0.0061563062,1.6001639,-0.012769843,-0.07623619,3.9364526,-0.06239215,5.6552,6.88896
SALL2,-0.061745927,-0.0717104,-0.092246585,-0.06518097,-0.055912834,2.9465847,-0.052351885,-0.06838369,-0.0059306473,1.5863454,-0.012529532,-0.07507449,3.8594282,-0.061382316,5.565663,6.7767158
UTP18,-0.065899685,-0.07618575,-0.097293824,-0.068895444,-0.05926879,3.1224504,-0.055502214,-0.07246948,-0.006419262,1.677486,-0.013112251,-0.07927898,4.0970836,-0.06530451,5.8577213,7.210379
PIAS3,-0.06175455,-0.07168331,-0.092143044,-0.06507179,-0.056018937,2.9444005,-0.052303202,-0.06835621,-0.006071819,1.5812917,-0.012543155,-0.075029016,3.8573139,-0.06153685,5.5598836,6.776276
GATA6,-0.060935676,-0.07082962,-0.091030195,-0.06423494,-0.05546637,2.9120476,-0.051646933,-0.06747695,-0.0061756996,1.5566269,-0.012490405,-0.074221216,3.7984521,-0.06100413,5.4907584,6.6906576
SCGB3A2,-0.06331207,-0.087163195,-0.10910508,-0.071710914,-0.05376864,2.8038268,-0.065453246,-0.07908366,-0.0056388318,0.6113545,-0.020664077,-0.08680791,4.5716653,-0.061706707,5.2978387,7.113158
METTL10,-0.072605334,-0.08416681,-0.106787115,-0.07527821,-0.065216474,3.3703709,-0.06130773,-0.08004158,-0.007586206,1.7740762,-0.014608896,-0.086993776,4.505316,-0.072653376,6.3580513,7.9673624
SALL4,-0.072605334,-0.08416681,-0.106787115,-0.07527821,-0.065216474,3.3703709,-0.06130773,-0.08004158,-0.007586206,1.7740762,-0.014608896,-0.086993776,4.505316,-0.072653376,6.3580513,7.9673624
