,0,1,2,3,4,5,6,7,8,9,10,11,12,13,14,15
STAT1,4.33086,1.8325876,-0.03167714,-0.03632336,3.6790426,4.6232166,-0.036107954,3.0810394,6.2681937,-0.048527826,-0.031728964,4.7787857,-0.016845468,-0.027356029,3.0251648,3.4721246
CYBA,8.887237,3.3815367,-0.06154365,-0.0680206,7.983886,9.998556,-0.06604693,6.768427,13.14211,-0.10222484,-0.06443171,10.036173,-0.025591265,-0.04387462,6.9826813,7.3999543
ATP5L,8.043404,3.2144225,-0.05373242,-0.061049603,7.352309,8.908014,-0.06525687,6.0594854,11.641911,-0.08962176,-0.058022883,8.654716,-0.026222344,-0.047949553,5.759109,6.7397723
RLIM,9.261451,3.8017037,-0.060749386,-0.06456708,8.310492,10.216902,-0.070530966,6.865223,12.9768915,-0.105712794,-0.06632418,9.861528,-0.030388426,-0.052630514,7.0718784,7.579992
MYD88,7.5664067,2.5658958,-0.041929383,-0.051786106,7.24011,7.6938224,-0.06452269,5.7513585,11.237796,-0.08509774,-0.05688099,8.413288,-0.017244097,-0.049811285,4.626569,5.539991
GPR171,9.8537035,4.4067926,-0.05024648,-0.05541666,8.89839,9.290201,-0.063421994,7.1154943,11.988173,-0.09577525,-0.061009843,8.706844,-0.02841387,-0.04732155,6.762039,7.1381783
LYZ1,9.261451,3.8017037,-0.060749386,-0.06456708,8.310492,10.216902,-0.070530966,6.865223,12.9768915,-0.105712794,-0.06632418,9.861528,-0.030388426,-0.052630514,7.0718784,7.579992
CD274,8.257914,3.337814,-0.055304993,-0.06281768,7.5649853,9.214287,-0.06651478,6.2332745,12.019631,-0.0923285,-0.059749074,8.943417,-0.027084643,-0.04920239,5.9398265,6.952531
NHP2,8.569228,4.3970985,-0.06604989,-0.06781784,8.115363,9.145809,-0.078554526,5.1926966,12.066115,-0.09078156,-0.05635292,9.33251,-0.022469252,-0.056921046,5.850198,6.9623256
SNX10,8.10872,3.2760727,-0.05425419,-0.06181091,7.4269714,9.017923,-0.06573857,6.101547,11.76703,-0.090267636,-0.058513984,8.745132,-0.026621679,-0.04844734,5.8019404,6.803965
LASS2,9.261451,3.8017037,-0.060749386,-0.06456708,8.310492,10.216902,-0.070530966,6.865223,12.9768915,-0.105712794,-0.06632418,9.861528,-0.030388426,-0.052630514,7.0718784,7.579992
GAS5,9.261451,3.8017037,-0.060749386,-0.06456708,8.310492,10.216902,-0.070530966,6.865223,12.9768915,-0.105712794,-0.06632418,9.861528,-0.030388426,-0.052630514,7.0718784,7.579992
EVI2A,9.261451,3.8017037,-0.060749386,-0.06456708,8.310492,10.216902,-0.070530966,6.865223,12.9768915,-0.105712794,-0.06632418,9.861528,-0.030388426,-0.052630514,7.0718784,7.579992
TCOF1,9.261451,3.8017037,-0.060749386,-0.06456708,8.310492,10.216902,-0.070530966,6.865223,12.9768915,-0.105712794,-0.06632418,9.861528,-0.030388426,-0.052630514,7.0718784,7.579992
CALM2,9.261451,3.8017037,-0.060749386,-0.06456708,8.310492,10.216902,-0.070530966,6.865223,12.9768915,-0.105712794,-0.06632418,9.861528,-0.030388426,-0.052630514,7.0718784,7.579992
MT2,6.791384,3.3637636,-0.051981285,-0.06480046,6.9238343,7.7373652,-0.059734825,5.621138,10.824835,-0.08779597,-0.06189951,9.23237,-0.023365144,-0.04546311,5.983347,6.480487
H2-EB1,9.261451,3.8017037,-0.060749386,-0.06456708,8.310492,10.216902,-0.070530966,6.865223,12.9768915,-0.105712794,-0.06632418,9.861528,-0.030388426,-0.052630514,7.0718784,7.579992
CORO1A,9.205956,3.6559918,-0.043149598,-0.07773279,7.150652,7.816545,-0.057645876,4.828341,10.502898,-0.086180866,-0.05110108,8.618698,-0.032586265,-0.05287277,6.4973536,7.1444054
SDF2,9.261451,3.8017037,-0.060749386,-0.06456708,8.310492,10.216902,-0.070530966,6.865223,12.9768915,-0.105712794,-0.06632418,9.861528,-0.030388426,-0.052630514,7.0718784,7.579992
IAH1,9.261451,3.8017037,-0.060749386,-0.06456708,8.310492,10.216902,-0.070530966,6.865223,12.9768915,-0.105712794,-0.06632418,9.861528,-0.030388426,-0.052630514,7.0718784,7.579992
LGALS9,7.9771304,3.214547,-0.053958807,-0.061239652,7.3227587,8.8846035,-0.064876355,6.0403504,11.655952,-0.08940721,-0.058055077,8.6789055,-0.02599999,-0.047783747,5.7521753,6.7435193
ALAS1,7.9771304,3.214547,-0.053958807,-0.061239652,7.3227587,8.8846035,-0.064876355,6.0403504,11.655952,-0.08940721,-0.058055077,8.6789055,-0.02599999,-0.047783747,5.7521753,6.7435193
KDM5A,7.9771304,3.214547,-0.053958807,-0.061239652,7.3227587,8.8846035,-0.064876355,6.0403504,11.655952,-0.08940721,-0.058055077,8.6789055,-0.02599999,-0.047783747,5.7521753,6.7435193
SELK,9.402586,2.966307,-0.055468485,-0.0726061,8.561889,9.331207,-0.060376372,6.1705265,11.7161455,-0.098307185,-0.057108693,9.027807,-0.020662524,-0.060833372,5.832489,7.491453
EIF4A1,8.304698,3.330258,-0.055561665,-0.062765494,7.602572,9.255777,-0.06693996,6.2723365,12.058627,-0.09286374,-0.059987687,8.9716425,-0.027193643,-0.049409255,5.9866314,6.9773917
CKS1B,9.261451,3.8017037,-0.060749386,-0.06456708,8.310492,10.216902,-0.070530966,6.865223,12.9768915,-0.105712794,-0.06632418,9.861528,-0.030388426,-0.052630514,7.0718784,7.579992
HCLS1,8.278823,3.3583555,-0.05511299,-0.06281101,7.574386,9.228197,-0.06687811,6.205492,11.982169,-0.09187573,-0.059508566,8.889489,-0.027398009,-0.0493887,5.9005594,6.922501
TNFAIP3,8.410337,3.4039571,-0.056447703,-0.06391361,7.7016177,9.379877,-0.06710596,6.355674,12.254491,-0.09431239,-0.061113585,9.186367,-0.027422287,-0.04980154,6.080702,7.091322
SNRNP25,9.261451,3.8017037,-0.060749386,-0.06456708,8.310492,10.216902,-0.070530966,6.865223,12.9768915,-0.105712794,-0.06632418,9.861528,-0.030388426,-0.052630514,7.0718784,7.579992
TIMM23,9.261451,3.8017037,-0.060749386,-0.06456708,8.310492,10.216902,-0.070530966,6.865223,12.9768915,-0.105712794,-0.06632418,9.861528,-0.030388426,-0.052630514,7.0718784,7.579992
NDUFB7,9.257687,3.7974403,-0.0607152,-0.06458553,8.311719,10.216875,-0.0705235,6.8618355,12.973987,-0.10566408,-0.0663262,9.861377,-0.03041345,-0.05257992,7.0759583,7.579948
PMP22,8.043404,3.2144225,-0.05373242,-0.061049603,7.352309,8.908014,-0.06525687,6.0594854,11.641911,-0.08962176,-0.058022883,8.654716,-0.026222344,-0.047949553,5.759109,6.7397723
ENO1,5.066049,2.079317,-0.037046023,-0.042233407,4.367893,5.4529057,-0.043100495,3.7033312,7.4905744,-0.05766392,-0.037547685,5.6136727,-0.019004073,-0.032112326,3.6114926,4.1634655
ELF2,9.261451,3.8017037,-0.060749386,-0.06456708,8.310492,10.216902,-0.070530966,6.865223,12.9768915,-0.105712794,-0.06632418,9.861528,-0.030388426,-0.052630514,7.0718784,7.579992
RPS14,7.853074,3.5131586,-0.043296985,-0.053064246,7.049709,10.150719,-0.06132477,6.5284753,10.8964205,-0.095659696,-0.055831622,7.7838955,-0.032657187,-0.03482634,6.2277555,5.63613
GTF2F1,8.019046,3.2198005,-0.053912025,-0.061276436,7.347662,8.907751,-0.06518587,6.0575747,11.663008,-0.08964715,-0.058139972,8.681666,-0.026123451,-0.04790194,5.7668295,6.7477064
MGST3,9.261451,3.8017037,-0.060749386,-0.06456708,8.310492,10.216902,-0.070530966,6.865223,12.9768915,-0.105712794,-0.06632418,9.861528,-0.030388426,-0.052630514,7.0718784,7.579992
ATP5J,9.261451,3.8017037,-0.060749386,-0.06456708,8.310492,10.216902,-0.070530966,6.865223,12.9768915,-0.105712794,-0.06632418,9.861528,-0.030388426,-0.052630514,7.0718784,7.579992
PTP4A1,8.651135,3.4476352,-0.058256067,-0.0655921,7.907707,9.690739,-0.06926563,6.529925,12.634312,-0.09701099,-0.06266039,9.357094,-0.02829846,-0.051597722,6.230657,7.2732935
COX5A,9.261451,3.8017037,-0.060749386,-0.06456708,8.310492,10.216902,-0.070530966,6.865223,12.9768915,-0.105712794,-0.06632418,9.861528,-0.030388426,-0.052630514,7.0718784,7.579992
AK202494,9.261451,3.8017037,-0.060749386,-0.06456708,8.310492,10.216902,-0.070530966,6.865223,12.9768915,-0.105712794,-0.06632418,9.861528,-0.030388426,-0.052630514,7.0718784,7.579992
CTBP1,8.741097,3.7596548,-0.059202574,-0.052673288,7.6589646,9.684153,-0.06767539,7.42752,12.182758,-0.09628975,-0.06679443,9.1147,-0.03598022,-0.042897124,6.3490906,7.404718
IL1R2,9.261451,3.8017037,-0.060749386,-0.06456708,8.310492,10.216902,-0.070530966,6.865223,12.9768915,-0.105712794,-0.06632418,9.861528,-0.030388426,-0.052630514,7.0718784,7.579992
GBP6,8.110331,3.266729,-0.05438286,-0.06185171,7.4325147,9.024622,-0.06574287,6.114565,11.785033,-0.090485536,-0.0586168,8.76295,-0.026546951,-0.048494354,5.8175364,6.816385
FCGR2B,9.261451,3.8017037,-0.060749386,-0.06456708,8.310492,10.216902,-0.070530966,6.865223,12.9768915,-0.105712794,-0.06632418,9.861528,-0.030388426,-0.052630514,7.0718784,7.579992
IQGAP1,8.114914,3.2960532,-0.053957436,-0.06180849,7.4277625,9.027166,-0.06569947,6.0716944,11.732384,-0.08986282,-0.058183976,8.703089,-0.026820261,-0.04852178,5.7682333,6.785777
TXN1,8.156272,3.4502866,-0.06789461,-0.066269204,8.244973,10.1213875,-0.074215114,6.4438276,12.722787,-0.09864781,-0.060440786,9.539062,-0.031799328,-0.057309307,6.910573,7.543496
RPL38,9.261451,3.8017037,-0.060749386,-0.06456708,8.310492,10.216902,-0.070530966,6.865223,12.9768915,-0.105712794,-0.06632418,9.861528,-0.030388426,-0.052630514,7.0718784,7.579992
ECE2,9.080201,3.738414,-0.061316565,-0.0661151,8.097055,10.075912,-0.06975625,6.81214,12.840914,-0.10481842,-0.06824818,9.891958,-0.031029182,-0.051630232,7.0592127,7.36058
TECR,8.043404,3.2144225,-0.05373242,-0.061049603,7.352309,8.908014,-0.06525687,6.0594854,11.641911,-0.08962176,-0.058022883,8.654716,-0.026222344,-0.047949553,5.759109,6.7397723
CDKN1A,8.17995,3.3105423,-0.05435992,-0.062307138,7.460051,9.098431,-0.0651571,6.1485167,11.872423,-0.09137436,-0.059072778,8.867126,-0.02676018,-0.048553213,5.87149,6.889509
RPL11,9.261451,3.8017037,-0.060749386,-0.06456708,8.310492,10.216902,-0.070530966,6.865223,12.9768915,-0.105712794,-0.06632418,9.861528,-0.030388426,-0.052630514,7.0718784,7.579992
SHISA5,7.9771304,3.214547,-0.053958807,-0.061239652,7.3227587,8.8846035,-0.064876355,6.0403504,11.655952,-0.08940721,-0.058055077,8.6789055,-0.02599999,-0.047783747,5.7521753,6.7435193
SBDS,9.261451,3.8017037,-0.060749386,-0.06456708,8.310492,10.216902,-0.070530966,6.865223,12.9768915,-0.105712794,-0.06632418,9.861528,-0.030388426,-0.052630514,7.0718784,7.579992
SLC35B1,8.651135,3.4476352,-0.058256067,-0.0655921,7.907707,9.690739,-0.06926563,6.529925,12.634312,-0.09701099,-0.06266039,9.357094,-0.02829846,-0.051597722,6.230657,7.2732935
REL,8.626139,3.4721859,-0.05779185,-0.0648849,7.903913,9.681997,-0.06890511,6.5184035,12.562645,-0.096824385,-0.062399194,9.369285,-0.028305728,-0.051178563,6.2561946,7.266843
MRC1,9.261451,3.8017037,-0.060749386,-0.06456708,8.310492,10.216902,-0.070530966,6.865223,12.9768915,-0.105712794,-0.06632418,9.861528,-0.030388426,-0.052630514,7.0718784,7.579992
PSMA2,9.261451,3.8017037,-0.060749386,-0.06456708,8.310492,10.216902,-0.070530966,6.865223,12.9768915,-0.105712794,-0.06632418,9.861528,-0.030388426,-0.052630514,7.0718784,7.579992
CACYBP,8.300392,3.3528876,-0.05544806,-0.06314026,7.597086,9.265808,-0.06696581,6.236294,12.052965,-0.09233305,-0.059782065,8.934227,-0.027385393,-0.049564555,5.9291663,6.955082
SNAP23,8.156317,3.1265743,-0.053339437,-0.054846857,7.1014915,9.984846,-0.06735161,6.441178,11.727693,-0.10168312,-0.06635962,8.728601,-0.029363036,-0.045996822,6.116103,7.541988
NINJ1,9.261451,3.8017037,-0.060749386,-0.06456708,8.310492,10.216902,-0.070530966,6.865223,12.9768915,-0.105712794,-0.06632418,9.861528,-0.030388426,-0.052630514,7.0718784,7.579992
GM15450,9.065268,4.4915047,-0.04842958,-0.06969273,6.898787,8.70223,-0.06780427,5.5235996,11.762706,-0.09358598,-0.060319293,9.451702,-0.042318583,-0.044675812,7.7373037,7.2339206
TGIF1,8.309974,3.3464906,-0.055483095,-0.0628853,7.604731,9.260675,-0.067017496,6.2607927,12.053303,-0.092675366,-0.059936464,8.956066,-0.027329229,-0.04946189,5.965042,6.9703336
EAR2,9.261451,3.8017037,-0.060749386,-0.06456708,8.310492,10.216902,-0.070530966,6.865223,12.9768915,-0.105712794,-0.06632418,9.861528,-0.030388426,-0.052630514,7.0718784,7.579992
NAA20,8.651135,3.4476352,-0.058256067,-0.0655921,7.907707,9.690739,-0.06926563,6.529925,12.634312,-0.09701099,-0.06266039,9.357094,-0.02829846,-0.051597722,6.230657,7.2732935
MCM6,9.261451,3.8017037,-0.060749386,-0.06456708,8.310492,10.216902,-0.070530966,6.865223,12.9768915,-0.105712794,-0.06632418,9.861528,-0.030388426,-0.052630514,7.0718784,7.579992
PSMB3,8.043404,3.2144225,-0.05373242,-0.061049603,7.352309,8.908014,-0.06525687,6.0594854,11.641911,-0.08962176,-0.058022883,8.654716,-0.026222344,-0.047949553,5.759109,6.7397723
TYROBP,8.043404,3.2144225,-0.05373242,-0.061049603,7.352309,8.908014,-0.06525687,6.0594854,11.641911,-0.08962176,-0.058022883,8.654716,-0.026222344,-0.047949553,5.759109,6.7397723
SPP1,9.261451,3.8017037,-0.060749386,-0.06456708,8.310492,10.216902,-0.070530966,6.865223,12.9768915,-0.105712794,-0.06632418,9.861528,-0.030388426,-0.052630514,7.0718784,7.579992
SF3B5,9.261451,3.8017037,-0.060749386,-0.06456708,8.310492,10.216902,-0.070530966,6.865223,12.9768915,-0.105712794,-0.06632418,9.861528,-0.030388426,-0.052630514,7.0718784,7.579992
SSR4,9.261451,3.8017037,-0.060749386,-0.06456708,8.310492,10.216902,-0.070530966,6.865223,12.9768915,-0.105712794,-0.06632418,9.861528,-0.030388426,-0.052630514,7.0718784,7.579992
RPL23,9.261451,3.8017037,-0.060749386,-0.06456708,8.310492,10.216902,-0.070530966,6.865223,12.9768915,-0.105712794,-0.06632418,9.861528,-0.030388426,-0.052630514,7.0718784,7.579992
ATP6AP2,9.268448,3.799948,-0.060757797,-0.06445519,8.309641,10.209135,-0.07045143,6.8573904,12.976559,-0.1056979,-0.066294335,9.859205,-0.03041984,-0.052595876,7.0736485,7.571196
MRPS16,8.651135,3.4476352,-0.058256067,-0.0655921,7.907707,9.690739,-0.06926563,6.529925,12.634312,-0.09701099,-0.06266039,9.357094,-0.02829846,-0.051597722,6.230657,7.2732935
CD164,8.651135,3.4476352,-0.058256067,-0.0655921,7.907707,9.690739,-0.06926563,6.529925,12.634312,-0.09701099,-0.06266039,9.357094,-0.02829846,-0.051597722,6.230657,7.2732935
H1F0,9.064821,4.4913883,-0.0484305,-0.06969377,6.8992543,8.70224,-0.06780047,5.5230374,11.763644,-0.093586475,-0.060316574,9.452419,-0.042312164,-0.04466992,7.736743,7.232944
LDB1,9.261451,3.8017037,-0.060749386,-0.06456708,8.310492,10.216902,-0.070530966,6.865223,12.9768915,-0.105712794,-0.06632418,9.861528,-0.030388426,-0.052630514,7.0718784,7.579992
BC028528,9.261451,3.8017037,-0.060749386,-0.06456708,8.310492,10.216902,-0.070530966,6.865223,12.9768915,-0.105712794,-0.06632418,9.861528,-0.030388426,-0.052630514,7.0718784,7.579992
NPM1,9.261451,3.8017037,-0.060749386,-0.06456708,8.310492,10.216902,-0.070530966,6.865223,12.9768915,-0.105712794,-0.06632418,9.861528,-0.030388426,-0.052630514,7.0718784,7.579992
CHD7,8.651135,3.4476352,-0.058256067,-0.0655921,7.907707,9.690739,-0.06926563,6.529925,12.634312,-0.09701099,-0.06266039,9.357094,-0.02829846,-0.051597722,6.230657,7.2732935
LGMN,9.14221,2.9585235,-0.05570765,-0.06227712,8.342821,10.022804,-0.05771145,6.248924,11.728096,-0.09698036,-0.0562703,9.940149,-0.024773035,-0.056694567,6.2131233,7.3370757
MYEF2,9.261451,3.8017037,-0.060749386,-0.06456708,8.310492,10.216902,-0.070530966,6.865223,12.9768915,-0.105712794,-0.06632418,9.861528,-0.030388426,-0.052630514,7.0718784,7.579992
MYL6,8.651135,3.4476352,-0.058256067,-0.0655921,7.907707,9.690739,-0.06926563,6.529925,12.634312,-0.09701099,-0.06266039,9.357094,-0.02829846,-0.051597722,6.230657,7.2732935
LY86,8.837564,3.4127195,-0.05979235,-0.05865866,8.082599,10.433899,-0.06529486,7.169995,13.164035,-0.1046881,-0.06053159,9.293789,-0.030040521,-0.05415729,7.3357954,7.4833837
SEC11C,9.261451,3.8017037,-0.060749386,-0.06456708,8.310492,10.216902,-0.070530966,6.865223,12.9768915,-0.105712794,-0.06632418,9.861528,-0.030388426,-0.052630514,7.0718784,7.579992
MCM4,8.200852,3.311643,-0.05480828,-0.062378295,7.514314,9.144213,-0.06630543,6.1657233,11.898616,-0.09126409,-0.059053626,8.835306,-0.026985483,-0.049069256,5.8663077,6.881247
SNAPC5,7.2169027,2.8759468,-0.058351725,-0.061722953,6.1149693,8.244976,-0.06539981,4.6744127,10.618654,-0.08674908,-0.05568175,7.9646773,-0.020581033,-0.045034844,4.6641026,6.389096
MDH2,9.261451,3.8017037,-0.060749386,-0.06456708,8.310492,10.216902,-0.070530966,6.865223,12.9768915,-0.105712794,-0.06632418,9.861528,-0.030388426,-0.052630514,7.0718784,7.579992
CNIH,9.108846,3.0586727,-0.06555621,-0.053159054,7.245097,10.493452,-0.06919628,6.5164347,12.970645,-0.10357311,-0.06645798,8.9475,-0.035886977,-0.05255811,7.8164463,6.810244
ANXA4,8.598727,3.481085,-0.05796443,-0.0581694,7.3617625,9.459518,-0.061211076,7.4179263,13.556426,-0.108587384,-0.07027232,9.269884,-0.027275272,-0.043358874,6.862589,7.5080914
PTGES3,9.261451,3.8017037,-0.060749386,-0.06456708,8.310492,10.216902,-0.070530966,6.865223,12.9768915,-0.105712794,-0.06632418,9.861528,-0.030388426,-0.052630514,7.0718784,7.579992
RPS26,8.651135,3.4476352,-0.058256067,-0.0655921,7.907707,9.690739,-0.06926563,6.529925,12.634312,-0.09701099,-0.06266039,9.357094,-0.02829846,-0.051597722,6.230657,7.2732935
CCL17,8.215681,3.3148563,-0.05485691,-0.06249078,7.525589,9.156214,-0.06637696,6.1739883,11.914916,-0.091445245,-0.05911948,8.844669,-0.027020216,-0.04914283,5.8733354,6.8909774
MRPL23,9.261451,3.8017037,-0.060749386,-0.06456708,8.310492,10.216902,-0.070530966,6.865223,12.9768915,-0.105712794,-0.06632418,9.861528,-0.030388426,-0.052630514,7.0718784,7.579992
AK2,9.261451,3.8017037,-0.060749386,-0.06456708,8.310492,10.216902,-0.070530966,6.865223,12.9768915,-0.105712794,-0.06632418,9.861528,-0.030388426,-0.052630514,7.0718784,7.579992
RPS21,9.261451,3.8017037,-0.060749386,-0.06456708,8.310492,10.216902,-0.070530966,6.865223,12.9768915,-0.105712794,-0.06632418,9.861528,-0.030388426,-0.052630514,7.0718784,7.579992
INSL6,9.261451,3.8017037,-0.060749386,-0.06456708,8.310492,10.216902,-0.070530966,6.865223,12.9768915,-0.105712794,-0.06632418,9.861528,-0.030388426,-0.052630514,7.0718784,7.579992
GOLT1B,9.261451,3.8017037,-0.060749386,-0.06456708,8.310492,10.216902,-0.070530966,6.865223,12.9768915,-0.105712794,-0.06632418,9.861528,-0.030388426,-0.052630514,7.0718784,7.579992
RPS20,8.221369,3.3078244,-0.05542444,-0.062852964,7.5363255,9.1765,-0.06644879,6.2234874,12.017073,-0.09219201,-0.05976476,8.926194,-0.026854869,-0.04910394,5.922163,6.9339895
GABARAP,9.261451,3.8017037,-0.060749386,-0.06456708,8.310492,10.216902,-0.070530966,6.865223,12.9768915,-0.105712794,-0.06632418,9.861528,-0.030388426,-0.052630514,7.0718784,7.579992
ARHGDIB,8.176578,3.2924693,-0.054518905,-0.062057298,7.4781137,9.082634,-0.0661633,6.1471667,11.837925,-0.090944685,-0.058893163,8.790015,-0.026867297,-0.048755087,5.843072,6.8453994
PSMD8,8.651135,3.4476352,-0.058256067,-0.0655921,7.907707,9.690739,-0.06926563,6.529925,12.634312,-0.09701099,-0.06266039,9.357094,-0.02829846,-0.051597722,6.230657,7.2732935
CTSZ,8.114914,3.2960532,-0.053957436,-0.06180849,7.4277625,9.027166,-0.06569947,6.0716944,11.732384,-0.08986282,-0.058183976,8.703089,-0.026820261,-0.04852178,5.7682333,6.785777
ZFHX3,9.262866,3.801121,-0.06073879,-0.06455457,8.311814,10.216114,-0.070505396,6.8671265,12.975528,-0.10571144,-0.06630037,9.860849,-0.030410897,-0.0526077,7.074067,7.5815635
POLR2J,8.144471,2.9688482,-0.057425864,-0.05848272,7.605489,9.8732815,-0.06284839,6.8416586,12.881392,-0.09605099,-0.05577298,8.676037,-0.028261645,-0.0533013,6.49847,7.1006393
MTCH2,8.822226,3.3866446,-0.060029693,-0.058403987,8.048498,10.375147,-0.064967886,7.1354637,13.191085,-0.10488058,-0.060353506,9.271122,-0.030356506,-0.054107346,7.3040447,7.4303184
COX17,6.8804812,3.038866,-0.038810693,-0.05161643,6.3189,8.940933,-0.057563927,5.7565956,9.904576,-0.080851,-0.048955426,6.893819,-0.028731849,-0.033020567,5.0299525,5.082492
GM2A,9.261788,3.8019812,-0.060743723,-0.064567894,8.310403,10.216576,-0.07052619,6.8655515,12.976217,-0.105711326,-0.06632086,9.86218,-0.03038587,-0.05263395,7.072138,7.580831
CLAST2,9.261158,3.8010318,-0.060754247,-0.06454241,8.310641,10.216562,-0.070503384,6.8643756,12.97949,-0.105697595,-0.06630986,9.859245,-0.030408282,-0.05265463,7.071579,7.582228
DOK2,9.261451,3.8017037,-0.060749386,-0.06456708,8.310492,10.216902,-0.070530966,6.865223,12.9768915,-0.105712794,-0.06632418,9.861528,-0.030388426,-0.052630514,7.0718784,7.579992
COX5B,9.261451,3.8017037,-0.060749386,-0.06456708,8.310492,10.216902,-0.070530966,6.865223,12.9768915,-0.105712794,-0.06632418,9.861528,-0.030388426,-0.052630514,7.0718784,7.579992
RPL36AL,9.261451,3.8017037,-0.060749386,-0.06456708,8.310492,10.216902,-0.070530966,6.865223,12.9768915,-0.105712794,-0.06632418,9.861528,-0.030388426,-0.052630514,7.0718784,7.579992
NDUFA9,7.707716,3.2582898,-0.052725267,-0.052886598,6.9285045,8.61253,-0.063470356,6.4665465,11.116194,-0.082610585,-0.058377422,8.139312,-0.030859781,-0.04125514,5.225636,6.6377115
PRDX2,9.261451,3.8017037,-0.060749386,-0.06456708,8.310492,10.216902,-0.070530966,6.865223,12.9768915,-0.105712794,-0.06632418,9.861528,-0.030388426,-0.052630514,7.0718784,7.579992
RPL39,9.261451,3.8017037,-0.060749386,-0.06456708,8.310492,10.216902,-0.070530966,6.865223,12.9768915,-0.105712794,-0.06632418,9.861528,-0.030388426,-0.052630514,7.0718784,7.579992
ID3,9.261451,3.8017037,-0.060749386,-0.06456708,8.310492,10.216902,-0.070530966,6.865223,12.9768915,-0.105712794,-0.06632418,9.861528,-0.030388426,-0.052630514,7.0718784,7.579992
PRDX5,8.250725,2.5613763,-0.051782846,-0.061265435,7.722685,9.225845,-0.054858133,5.7549005,11.085019,-0.085591555,-0.050855976,9.169137,-0.021985509,-0.05399573,5.242931,6.825302
SMARCA5,9.261451,3.8017037,-0.060749386,-0.06456708,8.310492,10.216902,-0.070530966,6.865223,12.9768915,-0.105712794,-0.06632418,9.861528,-0.030388426,-0.052630514,7.0718784,7.579992
CFL1,9.261451,3.8017037,-0.060749386,-0.06456708,8.310492,10.216902,-0.070530966,6.865223,12.9768915,-0.105712794,-0.06632418,9.861528,-0.030388426,-0.052630514,7.0718784,7.579992
PCBD2,8.651135,3.4476352,-0.058256067,-0.0655921,7.907707,9.690739,-0.06926563,6.529925,12.634312,-0.09701099,-0.06266039,9.357094,-0.02829846,-0.051597722,6.230657,7.2732935
TFG,9.261451,3.8017037,-0.060749386,-0.06456708,8.310492,10.216902,-0.070530966,6.865223,12.9768915,-0.105712794,-0.06632418,9.861528,-0.030388426,-0.052630514,7.0718784,7.579992
RASGEF1B,9.261451,3.8017037,-0.060749386,-0.06456708,8.310492,10.216902,-0.070530966,6.865223,12.9768915,-0.105712794,-0.06632418,9.861528,-0.030388426,-0.052630514,7.0718784,7.579992
GGH,9.261451,3.8017037,-0.060749386,-0.06456708,8.310492,10.216902,-0.070530966,6.865223,12.9768915,-0.105712794,-0.06632418,9.861528,-0.030388426,-0.052630514,7.0718784,7.579992
CSF2RB,7.9771304,3.214547,-0.053958807,-0.061239652,7.3227587,8.8846035,-0.064876355,6.0403504,11.655952,-0.08940721,-0.058055077,8.6789055,-0.02599999,-0.047783747,5.7521753,6.7435193
ISCA2,9.064821,4.4913883,-0.0484305,-0.06969377,6.8992543,8.70224,-0.06780047,5.5230374,11.763644,-0.093586475,-0.060316574,9.452419,-0.042312164,-0.04466992,7.736743,7.232944
UCP2,9.8537035,4.4067926,-0.05024648,-0.05541666,8.89839,9.290201,-0.063421994,7.1154943,11.988173,-0.09577525,-0.061009843,8.706844,-0.02841387,-0.04732155,6.762039,7.1381783
SLC15A3,8.178763,3.3032684,-0.054550447,-0.062173598,7.487205,9.101904,-0.06616564,6.1437464,11.848854,-0.09091042,-0.058849998,8.795354,-0.026925933,-0.048855465,5.840334,6.851757
RNF13,9.261451,3.8017037,-0.060749386,-0.06456708,8.310492,10.216902,-0.070530966,6.865223,12.9768915,-0.105712794,-0.06632418,9.861528,-0.030388426,-0.052630514,7.0718784,7.579992
NDUFV2,8.651135,3.4476352,-0.058256067,-0.0655921,7.907707,9.690739,-0.06926563,6.529925,12.634312,-0.09701099,-0.06266039,9.357094,-0.02829846,-0.051597722,6.230657,7.2732935
YBX1,9.112699,4.1200657,-0.059840553,-0.06293811,8.375071,10.464443,-0.06642052,6.695901,12.6605015,-0.102327496,-0.065893225,10.033678,-0.029639551,-0.05282499,7.089059,7.5048223
BCAP31,7.6042237,3.048899,-0.051816825,-0.05688036,6.697119,8.44408,-0.058524955,6.497134,12.179261,-0.09207797,-0.061227392,8.246902,-0.024424473,-0.041378096,5.606838,6.7297525
DUSP1,8.223971,3.413117,-0.05698627,-0.055828333,7.372862,9.253399,-0.06692145,6.991522,11.982397,-0.089275494,-0.063046426,8.744014,-0.032888833,-0.043607455,5.637311,7.129409
GLTP,7.9885616,3.897282,-0.058788106,-0.06763587,7.8363094,8.997629,-0.06481343,6.416694,12.10297,-0.10356672,-0.06984589,10.373102,-0.027234726,-0.049794286,7.268531,7.287296
MTHFS,7.866101,2.425184,-0.049248602,-0.059092224,7.3537927,8.70281,-0.05287227,5.46283,10.487013,-0.081227265,-0.048637904,8.75259,-0.020742292,-0.0515821,4.9491396,6.5158653
TIAL1,9.113037,4.120343,-0.05983489,-0.06293892,8.374982,10.464117,-0.066415735,6.6962295,12.659827,-0.10232602,-0.0658899,10.034328,-0.029636998,-0.05282843,7.0893173,7.5056615
BUB3,9.261451,3.8017037,-0.060749386,-0.06456708,8.310492,10.216902,-0.070530966,6.865223,12.9768915,-0.105712794,-0.06632418,9.861528,-0.030388426,-0.052630514,7.0718784,7.579992
USMG5,8.598389,3.4808075,-0.05797009,-0.058168598,7.361851,9.459845,-0.06121585,7.4175973,13.557099,-0.10858885,-0.07027564,9.269234,-0.027277827,-0.04335543,6.8623295,7.507252
5033414D02RIK,9.261451,3.8017037,-0.060749386,-0.06456708,8.310492,10.216902,-0.070530966,6.865223,12.9768915,-0.105712794,-0.06632418,9.861528,-0.030388426,-0.052630514,7.0718784,7.579992
H2-K1,8.072744,3.2731345,-0.05399366,-0.061642375,7.3979445,8.983383,-0.0654515,6.065452,11.717028,-0.08973018,-0.0581803,8.702577,-0.02656827,-0.048305307,5.765764,6.776774
VPS29,9.108846,3.0586727,-0.06555621,-0.053159054,7.245097,10.493452,-0.06919628,6.5164347,12.970645,-0.10357311,-0.06645798,8.9475,-0.035886977,-0.05255811,7.8164463,6.810244
PRDX6,8.043404,3.2144225,-0.05373242,-0.061049603,7.352309,8.908014,-0.06525687,6.0594854,11.641911,-0.08962176,-0.058022883,8.654716,-0.026222344,-0.047949553,5.759109,6.7397723
SSRP1,9.261451,3.8017037,-0.060749386,-0.06456708,8.310492,10.216902,-0.070530966,6.865223,12.9768915,-0.105712794,-0.06632418,9.861528,-0.030388426,-0.052630514,7.0718784,7.579992
NAAA,10.079003,4.07205,-0.063328385,-0.071103744,9.090117,11.072866,-0.07648949,7.433836,13.898724,-0.112757325,-0.07065786,10.580656,-0.033210956,-0.056878407,7.561351,8.15439
TMSB10,9.155527,3.7753327,-0.05931889,-0.059296172,8.426718,9.6283,-0.07048008,6.790992,12.239733,-0.102540016,-0.05965603,9.632033,-0.025680449,-0.048773427,7.2884274,7.6782403
CTSB,9.261451,3.8017037,-0.060749386,-0.06456708,8.310492,10.216902,-0.070530966,6.865223,12.9768915,-0.105712794,-0.06632418,9.861528,-0.030388426,-0.052630514,7.0718784,7.579992
VDAC3,9.261657,3.8018448,-0.06074724,-0.064565845,8.310364,10.2167225,-0.07052963,6.865437,12.977085,-0.105714224,-0.0663218,9.86146,-0.030390697,-0.05263249,7.0717745,7.5797944
LGALS3BP,7.9771304,3.214547,-0.053958807,-0.061239652,7.3227587,8.8846035,-0.064876355,6.0403504,11.655952,-0.08940721,-0.058055077,8.6789055,-0.02599999,-0.047783747,5.7521753,6.7435193
CCT5,9.261451,3.8017037,-0.060749386,-0.06456708,8.310492,10.216902,-0.070530966,6.865223,12.9768915,-0.105712794,-0.06632418,9.861528,-0.030388426,-0.052630514,7.0718784,7.579992
CFDP1,8.626139,3.4721859,-0.05779185,-0.0648849,7.903913,9.681997,-0.06890511,6.5184035,12.562645,-0.096824385,-0.062399194,9.369285,-0.028305728,-0.051178563,6.2561946,7.266843
PSMB7,9.261451,3.8017037,-0.060749386,-0.06456708,8.310492,10.216902,-0.070530966,6.865223,12.9768915,-0.105712794,-0.06632418,9.861528,-0.030388426,-0.052630514,7.0718784,7.579992
PCNA,9.261451,3.8017037,-0.060749386,-0.06456708,8.310492,10.216902,-0.070530966,6.865223,12.9768915,-0.105712794,-0.06632418,9.861528,-0.030388426,-0.052630514,7.0718784,7.579992
DDX5,8.225007,3.3284864,-0.055094548,-0.06259126,7.5458107,9.195831,-0.06637712,6.189547,11.96832,-0.09160257,-0.059191987,8.873104,-0.027075542,-0.04923356,5.8879995,6.903591
EIF3M,9.261451,3.8017037,-0.060749386,-0.06456708,8.310492,10.216902,-0.070530966,6.865223,12.9768915,-0.105712794,-0.06632418,9.861528,-0.030388426,-0.052630514,7.0718784,7.579992
DAB2,8.651135,3.4476352,-0.058256067,-0.0655921,7.907707,9.690739,-0.06926563,6.529925,12.634312,-0.09701099,-0.06266039,9.357094,-0.02829846,-0.051597722,6.230657,7.2732935
SEPT11,8.313215,3.3317618,-0.055810113,-0.06315916,7.6207957,9.28443,-0.06702345,6.2740493,12.099463,-0.09311066,-0.060111985,9.001807,-0.027150044,-0.049797643,5.988407,6.996144
PER1,8.043404,3.2144225,-0.05373242,-0.061049603,7.352309,8.908014,-0.06525687,6.0594854,11.641911,-0.08962176,-0.058022883,8.654716,-0.026222344,-0.047949553,5.759109,6.7397723
VTA1,8.4092045,3.3896947,-0.05637788,-0.06378293,7.706343,9.418148,-0.06759933,6.3425064,12.252845,-0.0939732,-0.06070103,9.087569,-0.027669916,-0.050166555,6.043849,7.0673766
TSPAN31,9.261451,3.8017037,-0.060749386,-0.06456708,8.310492,10.216902,-0.070530966,6.865223,12.9768915,-0.105712794,-0.06632418,9.861528,-0.030388426,-0.052630514,7.0718784,7.579992
RPS27,7.9771304,3.214547,-0.053958807,-0.061239652,7.3227587,8.8846035,-0.064876355,6.0403504,11.655952,-0.08940721,-0.058055077,8.6789055,-0.02599999,-0.047783747,5.7521753,6.7435193
COX7B,9.261451,3.8017037,-0.060749386,-0.06456708,8.310492,10.216902,-0.070530966,6.865223,12.9768915,-0.105712794,-0.06632418,9.861528,-0.030388426,-0.052630514,7.0718784,7.579992
CHCHD2,8.626139,3.4721859,-0.05779185,-0.0648849,7.903913,9.681997,-0.06890511,6.5184035,12.562645,-0.096824385,-0.062399194,9.369285,-0.028305728,-0.051178563,6.2561946,7.266843
MRPL27,8.090176,3.2891958,-0.053862173,-0.06162853,7.407376,9.004099,-0.06556921,6.053259,11.699881,-0.089536525,-0.058031786,8.68823,-0.026749818,-0.048409183,5.756885,6.7665377
PHB2,9.261451,3.8017037,-0.060749386,-0.06456708,8.310492,10.216902,-0.070530966,6.865223,12.9768915,-0.105712794,-0.06632418,9.861528,-0.030388426,-0.052630514,7.0718784,7.579992
RPL32,9.261451,3.8017037,-0.060749386,-0.06456708,8.310492,10.216902,-0.070530966,6.865223,12.9768915,-0.105712794,-0.06632418,9.861528,-0.030388426,-0.052630514,7.0718784,7.579992
LGALS3,8.278823,3.3583555,-0.05511299,-0.06281101,7.574386,9.228197,-0.06687811,6.205492,11.982169,-0.09187573,-0.059508566,8.889489,-0.027398009,-0.0493887,5.9005594,6.922501
HIF1A,8.656671,3.4823148,-0.058178928,-0.06500353,7.9187255,9.703682,-0.069298856,6.5281396,12.589975,-0.0970909,-0.06257645,9.365647,-0.028478298,-0.051618908,6.257799,7.279857
SKIL,9.261451,3.8017037,-0.060749386,-0.06456708,8.310492,10.216902,-0.070530966,6.865223,12.9768915,-0.105712794,-0.06632418,9.861528,-0.030388426,-0.052630514,7.0718784,7.579992
TM2D2,9.261451,3.8017037,-0.060749386,-0.06456708,8.310492,10.216902,-0.070530966,6.865223,12.9768915,-0.105712794,-0.06632418,9.861528,-0.030388426,-0.052630514,7.0718784,7.579992
AURKAIP1,8.651135,3.4476352,-0.058256067,-0.0655921,7.907707,9.690739,-0.06926563,6.529925,12.634312,-0.09701099,-0.06266039,9.357094,-0.02829846,-0.051597722,6.230657,7.2732935
MATR3,8.626139,3.4721859,-0.05779185,-0.0648849,7.903913,9.681997,-0.06890511,6.5184035,12.562645,-0.096824385,-0.062399194,9.369285,-0.028305728,-0.051178563,6.2561946,7.266843
AKT1,9.262866,3.801121,-0.06073879,-0.06455457,8.311814,10.216114,-0.070505396,6.8671265,12.975528,-0.10571144,-0.06630037,9.860849,-0.030410897,-0.0526077,7.074067,7.5815635
LITAF,6.9050717,3.014687,-0.03890423,-0.051732052,6.333573,8.973366,-0.05743696,5.8369684,9.976537,-0.08202198,-0.049471404,6.961642,-0.0285387,-0.032821164,5.0998306,5.130317
S100A10,9.261451,3.8017037,-0.060749386,-0.06456708,8.310492,10.216902,-0.070530966,6.865223,12.9768915,-0.105712794,-0.06632418,9.861528,-0.030388426,-0.052630514,7.0718784,7.579992
2410015M20RIK,9.261451,3.8017037,-0.060749386,-0.06456708,8.310492,10.216902,-0.070530966,6.865223,12.9768915,-0.105712794,-0.06632418,9.861528,-0.030388426,-0.052630514,7.0718784,7.579992
CREG1,9.112699,4.1200657,-0.059840553,-0.06293811,8.375071,10.464443,-0.06642052,6.695901,12.6605015,-0.102327496,-0.065893225,10.033678,-0.029639551,-0.05282499,7.089059,7.5048223
KLF10,8.626139,3.4721859,-0.05779185,-0.0648849,7.903913,9.681997,-0.06890511,6.5184035,12.562645,-0.096824385,-0.062399194,9.369285,-0.028305728,-0.051178563,6.2561946,7.266843
TSPO,9.261451,3.8017037,-0.060749386,-0.06456708,8.310492,10.216902,-0.070530966,6.865223,12.9768915,-0.105712794,-0.06632418,9.861528,-0.030388426,-0.052630514,7.0718784,7.579992
LXN,9.261451,3.8017037,-0.060749386,-0.06456708,8.310492,10.216902,-0.070530966,6.865223,12.9768915,-0.105712794,-0.06632418,9.861528,-0.030388426,-0.052630514,7.0718784,7.579992
SRGN,9.261341,3.8016388,-0.06074989,-0.06456681,8.310604,10.216864,-0.07053035,6.8653016,12.977003,-0.10571232,-0.06632346,9.861572,-0.030387355,-0.05263148,7.0717897,7.5799413
MRPL55,9.261451,3.8017037,-0.060749386,-0.06456708,8.310492,10.216902,-0.070530966,6.865223,12.9768915,-0.105712794,-0.06632418,9.861528,-0.030388426,-0.052630514,7.0718784,7.579992
AK204443,9.261451,3.8017037,-0.060749386,-0.06456708,8.310492,10.216902,-0.070530966,6.865223,12.9768915,-0.105712794,-0.06632418,9.861528,-0.030388426,-0.052630514,7.0718784,7.579992
PLEK,8.313215,3.3317618,-0.055810113,-0.06315916,7.6207957,9.28443,-0.06702345,6.2740493,12.099463,-0.09311066,-0.060111985,9.001807,-0.027150044,-0.049797643,5.988407,6.996144
SAMHD1,7.9771304,3.214547,-0.053958807,-0.061239652,7.3227587,8.8846035,-0.064876355,6.0403504,11.655952,-0.08940721,-0.058055077,8.6789055,-0.02599999,-0.047783747,5.7521753,6.7435193
SSNA1,8.043404,3.2144225,-0.05373242,-0.061049603,7.352309,8.908014,-0.06525687,6.0594854,11.641911,-0.08962176,-0.058022883,8.654716,-0.026222344,-0.047949553,5.759109,6.7397723
LASS5,9.261451,3.8017037,-0.060749386,-0.06456708,8.310492,10.216902,-0.070530966,6.865223,12.9768915,-0.105712794,-0.06632418,9.861528,-0.030388426,-0.052630514,7.0718784,7.579992
COPS5,9.261451,3.8017037,-0.060749386,-0.06456708,8.310492,10.216902,-0.070530966,6.865223,12.9768915,-0.105712794,-0.06632418,9.861528,-0.030388426,-0.052630514,7.0718784,7.579992
A130040M12RIK,9.064821,4.4913883,-0.0484305,-0.06969377,6.8992543,8.70224,-0.06780047,5.5230374,11.763644,-0.093586475,-0.060316574,9.452419,-0.042312164,-0.04466992,7.736743,7.232944
APOA1BP,9.261451,3.8017037,-0.060749386,-0.06456708,8.310492,10.216902,-0.070530966,6.865223,12.9768915,-0.105712794,-0.06632418,9.861528,-0.030388426,-0.052630514,7.0718784,7.579992
EIF1,9.261451,3.8017037,-0.060749386,-0.06456708,8.310492,10.216902,-0.070530966,6.865223,12.9768915,-0.105712794,-0.06632418,9.861528,-0.030388426,-0.052630514,7.0718784,7.579992
RNASEK,8.090176,3.2891958,-0.053862173,-0.06162853,7.407376,9.004099,-0.06556921,6.053259,11.699881,-0.089536525,-0.058031786,8.68823,-0.026749818,-0.048409183,5.756885,6.7665377
BST2,7.310169,3.0128803,-0.058771763,-0.06264716,7.3339543,8.885584,-0.06786632,5.7817416,11.520318,-0.084982984,-0.054226726,8.481716,-0.027302325,-0.051276192,5.660589,6.7370725
CTSH,8.221872,3.3075793,-0.055431698,-0.06284905,7.537023,9.176367,-0.06644256,6.222809,12.016843,-0.0921851,-0.05975736,8.926291,-0.026852591,-0.04909948,5.9227257,6.9337025
SRSF5,7.9771304,3.214547,-0.053958807,-0.061239652,7.3227587,8.8846035,-0.064876355,6.0403504,11.655952,-0.08940721,-0.058055077,8.6789055,-0.02599999,-0.047783747,5.7521753,6.7435193
RPL28,9.261451,3.8017037,-0.060749386,-0.06456708,8.310492,10.216902,-0.070530966,6.865223,12.9768915,-0.105712794,-0.06632418,9.861528,-0.030388426,-0.052630514,7.0718784,7.579992
SUPT4H1,9.080201,3.738414,-0.061316565,-0.0661151,8.097055,10.075912,-0.06975625,6.81214,12.840914,-0.10481842,-0.06824818,9.891958,-0.031029182,-0.051630232,7.0592127,7.36058
RBBP4,8.626139,3.4721859,-0.05779185,-0.0648849,7.903913,9.681997,-0.06890511,6.5184035,12.562645,-0.096824385,-0.062399194,9.369285,-0.028305728,-0.051178563,6.2561946,7.266843
NR3C1,8.309863,3.3464384,-0.05548237,-0.06288478,7.604632,9.260513,-0.067016765,6.260708,12.053135,-0.0926742,-0.059935812,8.955966,-0.027328746,-0.04946127,5.9649587,6.970239
LMO4,8.043404,3.2144225,-0.05373242,-0.061049603,7.352309,8.908014,-0.06525687,6.0594854,11.641911,-0.08962176,-0.058022883,8.654716,-0.026222344,-0.047949553,5.759109,6.7397723
RPL4,9.261451,3.8017037,-0.060749386,-0.06456708,8.310492,10.216902,-0.070530966,6.865223,12.9768915,-0.105712794,-0.06632418,9.861528,-0.030388426,-0.052630514,7.0718784,7.579992
CREB3,9.261451,3.8017037,-0.060749386,-0.06456708,8.310492,10.216902,-0.070530966,6.865223,12.9768915,-0.105712794,-0.06632418,9.861528,-0.030388426,-0.052630514,7.0718784,7.579992
ERP29,8.190421,3.3248417,-0.054497022,-0.062274527,7.4955626,9.12076,-0.06624819,6.133564,11.848865,-0.09079747,-0.058796305,8.789634,-0.027087132,-0.048925985,5.8293295,6.849429
0610009D07RIK,9.261451,3.8017037,-0.060749386,-0.06456708,8.310492,10.216902,-0.070530966,6.865223,12.9768915,-0.105712794,-0.06632418,9.861528,-0.030388426,-0.052630514,7.0718784,7.579992
ATP1B3,7.9771304,3.214547,-0.053958807,-0.061239652,7.3227587,8.8846035,-0.064876355,6.0403504,11.655952,-0.08940721,-0.058055077,8.6789055,-0.02599999,-0.047783747,5.7521753,6.7435193
PTPRC,7.1656175,2.726,-0.046751074,-0.04761919,6.6450977,8.289694,-0.06399178,5.736404,9.955233,-0.08434917,-0.051243156,7.5976386,-0.020630071,-0.038696006,5.3212633,7.01107
CD24A,9.261451,3.8017037,-0.060749386,-0.06456708,8.310492,10.216902,-0.070530966,6.865223,12.9768915,-0.105712794,-0.06632418,9.861528,-0.030388426,-0.052630514,7.0718784,7.579992
RPL18A,8.651135,3.4476352,-0.058256067,-0.0655921,7.907707,9.690739,-0.06926563,6.529925,12.634312,-0.09701099,-0.06266039,9.357094,-0.02829846,-0.051597722,6.230657,7.2732935
SEC13,9.261451,3.8017037,-0.060749386,-0.06456708,8.310492,10.216902,-0.070530966,6.865223,12.9768915,-0.105712794,-0.06632418,9.861528,-0.030388426,-0.052630514,7.0718784,7.579992
2700060E02RIK,9.27679,3.8277786,-0.060512047,-0.064821765,8.344591,10.275654,-0.07085794,6.899754,12.9498415,-0.105520315,-0.066502266,9.884195,-0.030072441,-0.05268046,7.103629,7.633057
SLC7A11,8.27934,3.3224633,-0.0554501,-0.06281769,7.5828433,9.226641,-0.066836834,6.2423444,12.024154,-0.09245639,-0.05978116,8.935882,-0.027106328,-0.04945504,5.9437814,6.95048
TRAM1,8.651135,3.4476352,-0.058256067,-0.0655921,7.907707,9.690739,-0.06926563,6.529925,12.634312,-0.09701099,-0.06266039,9.357094,-0.02829846,-0.051597722,6.230657,7.2732935
SPCS3,9.261451,3.8017037,-0.060749386,-0.06456708,8.310492,10.216902,-0.070530966,6.865223,12.9768915,-0.105712794,-0.06632418,9.861528,-0.030388426,-0.052630514,7.0718784,7.579992
RPS24,9.8537035,4.4067926,-0.05024648,-0.05541666,8.89839,9.290201,-0.063421994,7.1154943,11.988173,-0.09577525,-0.061009843,8.706844,-0.02841387,-0.04732155,6.762039,7.1381783
FTL2,9.261451,3.8017037,-0.060749386,-0.06456708,8.310492,10.216902,-0.070530966,6.865223,12.9768915,-0.105712794,-0.06632418,9.861528,-0.030388426,-0.052630514,7.0718784,7.579992
ATF3,8.752763,3.88655,-0.058636144,-0.06433626,8.206215,10.210926,-0.0660704,6.591498,12.605953,-0.09694853,-0.064338475,9.851337,-0.02818311,-0.05291038,6.5091205,7.420683
ATP6V0D1,8.651135,3.4476352,-0.058256067,-0.0655921,7.907707,9.690739,-0.06926563,6.529925,12.634312,-0.09701099,-0.06266039,9.357094,-0.02829846,-0.051597722,6.230657,7.2732935
MSR1,9.261451,3.8017037,-0.060749386,-0.06456708,8.310492,10.216902,-0.070530966,6.865223,12.9768915,-0.105712794,-0.06632418,9.861528,-0.030388426,-0.052630514,7.0718784,7.579992
MAP1LC3B,8.220812,3.3147287,-0.05543496,-0.062652364,7.5435557,9.189894,-0.06644611,6.2277064,12.003428,-0.092256546,-0.059748977,8.94333,-0.02688122,-0.049050078,5.947231,6.9414234
CTNNB1,9.261003,3.7992618,-0.060741138,-0.064533286,8.306685,10.215521,-0.070530035,6.8673806,12.973413,-0.10572042,-0.06629131,9.858328,-0.030365855,-0.052643485,7.0725117,7.581366
DNAJC15,9.261451,3.8017037,-0.060749386,-0.06456708,8.310492,10.216902,-0.070530966,6.865223,12.9768915,-0.105712794,-0.06632418,9.861528,-0.030388426,-0.052630514,7.0718784,7.579992
MALAT1,9.261451,3.8017037,-0.060749386,-0.06456708,8.310492,10.216902,-0.070530966,6.865223,12.9768915,-0.105712794,-0.06632418,9.861528,-0.030388426,-0.052630514,7.0718784,7.579992
RBL2,9.261451,3.8017037,-0.060749386,-0.06456708,8.310492,10.216902,-0.070530966,6.865223,12.9768915,-0.105712794,-0.06632418,9.861528,-0.030388426,-0.052630514,7.0718784,7.579992
COX6A1,8.651135,3.4476352,-0.058256067,-0.0655921,7.907707,9.690739,-0.06926563,6.529925,12.634312,-0.09701099,-0.06266039,9.357094,-0.02829846,-0.051597722,6.230657,7.2732935
1810013D10RIK,9.261451,3.8017037,-0.060749386,-0.06456708,8.310492,10.216902,-0.070530966,6.865223,12.9768915,-0.105712794,-0.06632418,9.861528,-0.030388426,-0.052630514,7.0718784,7.579992
LAMP2,8.887237,3.3815367,-0.06154365,-0.0680206,7.983886,9.998556,-0.06604693,6.768427,13.14211,-0.10222484,-0.06443171,10.036173,-0.025591265,-0.04387462,6.9826813,7.3999543
HSP90AB1,7.9771304,3.214547,-0.053958807,-0.061239652,7.3227587,8.8846035,-0.064876355,6.0403504,11.655952,-0.08940721,-0.058055077,8.6789055,-0.02599999,-0.047783747,5.7521753,6.7435193
SC4MOL,9.261657,3.8018448,-0.06074724,-0.064565845,8.310364,10.2167225,-0.07052963,6.865437,12.977085,-0.105714224,-0.0663218,9.86146,-0.030390697,-0.05263249,7.0717745,7.5797944
HIST1H1C,7.9771304,3.214547,-0.053958807,-0.061239652,7.3227587,8.8846035,-0.064876355,6.0403504,11.655952,-0.08940721,-0.058055077,8.6789055,-0.02599999,-0.047783747,5.7521753,6.7435193
PPP2R5C,8.043404,3.2144225,-0.05373242,-0.061049603,7.352309,8.908014,-0.06525687,6.0594854,11.641911,-0.08962176,-0.058022883,8.654716,-0.026222344,-0.047949553,5.759109,6.7397723
UBL3,9.261451,3.8017037,-0.060749386,-0.06456708,8.310492,10.216902,-0.070530966,6.865223,12.9768915,-0.105712794,-0.06632418,9.861528,-0.030388426,-0.052630514,7.0718784,7.579992
NDUFA12,9.27679,3.8277786,-0.060512047,-0.064821765,8.344591,10.275654,-0.07085794,6.899754,12.9498415,-0.105520315,-0.066502266,9.884195,-0.030072441,-0.05268046,7.103629,7.633057
NDUFA10,9.261451,3.8017037,-0.060749386,-0.06456708,8.310492,10.216902,-0.070530966,6.865223,12.9768915,-0.105712794,-0.06632418,9.861528,-0.030388426,-0.052630514,7.0718784,7.579992
HSD17B10,9.261451,3.8017037,-0.060749386,-0.06456708,8.310492,10.216902,-0.070530966,6.865223,12.9768915,-0.105712794,-0.06632418,9.861528,-0.030388426,-0.052630514,7.0718784,7.579992
MRFAP1,8.363947,3.3620007,-0.056570128,-0.06343982,7.691987,9.410145,-0.067030646,6.340095,12.270787,-0.09388326,-0.06040243,9.094484,-0.027317487,-0.05013679,6.0583444,7.0559587
LILRB3,9.261451,3.8017037,-0.060749386,-0.06456708,8.310492,10.216902,-0.070530966,6.865223,12.9768915,-0.105712794,-0.06632418,9.861528,-0.030388426,-0.052630514,7.0718784,7.579992
SLC25A4,8.569228,4.3970985,-0.06604989,-0.06781784,8.115363,9.145809,-0.078554526,5.1926966,12.066115,-0.09078156,-0.05635292,9.33251,-0.022469252,-0.056921046,5.850198,6.9623256
DNMT1,8.303412,3.3537107,-0.055468634,-0.063160025,7.5996294,9.268942,-0.06698316,6.238595,12.057343,-0.09236953,-0.059804123,8.9376,-0.027393272,-0.049580045,5.9315667,6.9574714
MRPL18,6.74794,2.8380291,-0.035887036,-0.043344013,5.840709,9.918663,-0.05814541,6.10443,9.647222,-0.09163002,-0.055867057,6.6509686,-0.031631798,-0.028192641,5.2719803,5.598126
GM6635,9.261451,3.8017037,-0.060749386,-0.06456708,8.310492,10.216902,-0.070530966,6.865223,12.9768915,-0.105712794,-0.06632418,9.861528,-0.030388426,-0.052630514,7.0718784,7.579992
TBCA,9.261451,3.8017037,-0.060749386,-0.06456708,8.310492,10.216902,-0.070530966,6.865223,12.9768915,-0.105712794,-0.06632418,9.861528,-0.030388426,-0.052630514,7.0718784,7.579992
MRPL30,7.9771304,3.214547,-0.053958807,-0.061239652,7.3227587,8.8846035,-0.064876355,6.0403504,11.655952,-0.08940721,-0.058055077,8.6789055,-0.02599999,-0.047783747,5.7521753,6.7435193
RPL22L1,9.261451,3.8017037,-0.060749386,-0.06456708,8.310492,10.216902,-0.070530966,6.865223,12.9768915,-0.105712794,-0.06632418,9.861528,-0.030388426,-0.052630514,7.0718784,7.579992
TPM4,9.261451,3.8017037,-0.060749386,-0.06456708,8.310492,10.216902,-0.070530966,6.865223,12.9768915,-0.105712794,-0.06632418,9.861528,-0.030388426,-0.052630514,7.0718784,7.579992
RNASET2A,9.261451,3.8017037,-0.060749386,-0.06456708,8.310492,10.216902,-0.070530966,6.865223,12.9768915,-0.105712794,-0.06632418,9.861528,-0.030388426,-0.052630514,7.0718784,7.579992
GNB1,9.261451,3.8017037,-0.060749386,-0.06456708,8.310492,10.216902,-0.070530966,6.865223,12.9768915,-0.105712794,-0.06632418,9.861528,-0.030388426,-0.052630514,7.0718784,7.579992
YWHAZ,9.261451,3.8017037,-0.060749386,-0.06456708,8.310492,10.216902,-0.070530966,6.865223,12.9768915,-0.105712794,-0.06632418,9.861528,-0.030388426,-0.052630514,7.0718784,7.579992
RASSF4,9.261451,3.8017037,-0.060749386,-0.06456708,8.310492,10.216902,-0.070530966,6.865223,12.9768915,-0.105712794,-0.06632418,9.861528,-0.030388426,-0.052630514,7.0718784,7.579992
RBM39,8.0438385,3.2142434,-0.053729165,-0.06104576,7.352716,8.907772,-0.06524901,6.0600705,11.641492,-0.08962134,-0.05801556,8.654507,-0.026229255,-0.04794254,5.759782,6.740256
NCOR1,9.064821,4.4913883,-0.0484305,-0.06969377,6.8992543,8.70224,-0.06780047,5.5230374,11.763644,-0.093586475,-0.060316574,9.452419,-0.042312164,-0.04466992,7.736743,7.232944
PSMC4,8.649455,3.4469285,-0.05824364,-0.0655986,7.9067698,9.691746,-0.06927224,6.528595,12.632931,-0.09699729,-0.06266406,9.355183,-0.028305985,-0.051586416,6.2319164,7.271917
PREB,8.278823,3.3583555,-0.05511299,-0.06281101,7.574386,9.228197,-0.06687811,6.205492,11.982169,-0.09187573,-0.059508566,8.889489,-0.027398009,-0.0493887,5.9005594,6.922501
CETN3,8.220812,3.3147287,-0.05543496,-0.06265237,7.5435557,9.189894,-0.06644611,6.2277064,12.003428,-0.092256546,-0.059748977,8.94333,-0.02688122,-0.049050078,5.947231,6.9414234
GOLGA7,9.261451,3.8017037,-0.060749386,-0.06456708,8.310492,10.216902,-0.070530966,6.865223,12.9768915,-0.105712794,-0.06632418,9.861528,-0.030388426,-0.052630514,7.0718784,7.579992
RPS9,9.261451,3.8017037,-0.060749386,-0.06456708,8.310492,10.216902,-0.070530966,6.865223,12.9768915,-0.105712794,-0.06632418,9.861528,-0.030388426,-0.052630514,7.0718784,7.579992
BCL2A1B,7.9205956,3.1910303,-0.054899663,-0.0636984,7.180611,8.860456,-0.0645724,6.0679665,11.6364565,-0.08975517,-0.061007537,8.820854,-0.02732571,-0.04722448,5.824861,6.569247
SDHD,8.043404,3.2144225,-0.05373242,-0.061049603,7.352309,8.908014,-0.06525687,6.0594854,11.641911,-0.08962176,-0.058022883,8.654716,-0.026222344,-0.047949553,5.759109,6.7397723
KDM6B,9.261451,3.8017037,-0.060749386,-0.06456708,8.310492,10.216902,-0.070530966,6.865223,12.9768915,-0.105712794,-0.06632418,9.861528,-0.030388426,-0.052630514,7.0718784,7.579992
RAN,8.598389,3.4808075,-0.05797009,-0.058168598,7.361851,9.459845,-0.06121585,7.4175973,13.557099,-0.10858885,-0.07027564,9.269234,-0.027277827,-0.04335543,6.8623295,7.507252
BOLA2,9.402586,2.966307,-0.055468485,-0.0726061,8.561889,9.331207,-0.060376372,6.1705265,11.7161455,-0.098307185,-0.057108693,9.027807,-0.020662524,-0.060833372,5.832489,7.491453
MAPKSP1,9.261451,3.8017037,-0.060749386,-0.06456708,8.310492,10.216902,-0.070530966,6.865223,12.9768915,-0.105712794,-0.06632418,9.861528,-0.030388426,-0.052630514,7.0718784,7.579992
SHFM1,9.261451,3.8017037,-0.060749386,-0.06456708,8.310492,10.216902,-0.070530966,6.865223,12.9768915,-0.105712794,-0.06632418,9.861528,-0.030388426,-0.052630514,7.0718784,7.579992
RAB8B,9.261451,3.8017037,-0.060749386,-0.06456708,8.310492,10.216902,-0.070530966,6.865223,12.9768915,-0.105712794,-0.06632418,9.861528,-0.030388426,-0.052630514,7.0718784,7.579992
SARNP,8.043404,3.2144225,-0.05373242,-0.061049603,7.352309,8.908014,-0.06525687,6.0594854,11.641911,-0.08962176,-0.058022883,8.654716,-0.026222344,-0.047949553,5.759109,6.7397723
ATP6V1F,8.194134,3.2852962,-0.055024702,-0.062214702,7.5124784,9.135675,-0.066152416,6.1945148,11.936562,-0.09164301,-0.059187707,8.862152,-0.026751453,-0.04894518,5.8983755,6.8876348
TCF12,8.10242,3.2928877,-0.053908005,-0.061720993,7.417702,9.015074,-0.065634966,6.0622983,11.716031,-0.08969796,-0.05810682,8.695959,-0.026781943,-0.0484649,5.762424,6.7761
FOS,8.042147,3.2575872,-0.05397065,-0.061503034,7.3750973,8.95186,-0.065264754,6.053828,11.696145,-0.0895588,-0.05810677,8.69373,-0.026413785,-0.048168838,5.75909,6.765139
ETFA,9.261451,3.8017037,-0.060749386,-0.06456708,8.310492,10.216902,-0.070530966,6.865223,12.9768915,-0.105712794,-0.06632418,9.861528,-0.030388426,-0.052630514,7.0718784,7.579992
DOT1L,9.261451,3.8017037,-0.060749386,-0.06456708,8.310492,10.216902,-0.070530966,6.865223,12.9768915,-0.105712794,-0.06632418,9.861528,-0.030388426,-0.052630514,7.0718784,7.579992
CSTB,9.261451,3.8017037,-0.060749386,-0.06456708,8.310492,10.216902,-0.070530966,6.865223,12.9768915,-0.105712794,-0.06632418,9.861528,-0.030388426,-0.052630514,7.0718784,7.579992
HDAC1,8.043404,3.2144225,-0.05373242,-0.061049603,7.352309,8.908014,-0.06525687,6.0594854,11.641911,-0.08962176,-0.058022883,8.654716,-0.026222344,-0.047949553,5.759109,6.7397723
NDUFB8,9.261451,3.8017037,-0.060749386,-0.06456708,8.310492,10.216902,-0.070530966,6.865223,12.9768915,-0.105712794,-0.06632418,9.861528,-0.030388426,-0.052630514,7.0718784,7.579992
SRSF1,9.261451,3.8017037,-0.060749386,-0.06456708,8.310492,10.216902,-0.070530966,6.865223,12.9768915,-0.105712794,-0.06632418,9.861528,-0.030388426,-0.052630514,7.0718784,7.579992
USF2,8.651135,3.4476352,-0.058256067,-0.0655921,7.907707,9.690739,-0.06926563,6.529925,12.634312,-0.09701099,-0.06266039,9.357094,-0.02829846,-0.051597722,6.230657,7.2732935
PRDX4,8.738485,3.699899,-0.06063481,-0.066391625,8.048466,10.246098,-0.061936487,6.599105,12.82572,-0.09883955,-0.06400075,10.208323,-0.02484239,-0.044069104,6.9998617,7.3247848
RPLP0,8.377803,3.140737,-0.058836207,-0.068114616,7.6691484,9.531256,-0.0659904,6.459223,12.75499,-0.094463326,-0.061278094,9.484658,-0.024794523,-0.045202248,6.165506,7.141791
HTATIP2,9.261451,3.8017037,-0.060749386,-0.06456708,8.310492,10.216902,-0.070530966,6.865223,12.9768915,-0.105712794,-0.06632418,9.861528,-0.030388426,-0.052630514,7.0718784,7.579992
S100A13,9.261158,3.8010318,-0.060754247,-0.06454241,8.310641,10.216562,-0.070503384,6.8643756,12.97949,-0.105697595,-0.06630986,9.859245,-0.030408282,-0.05265463,7.071579,7.582228
CD47,8.30571,3.330859,-0.05555702,-0.06276796,7.601527,9.256128,-0.06694566,6.271606,12.057591,-0.09286826,-0.0599944,8.971236,-0.027203571,-0.04940029,5.9874487,6.9778595
RPL26,8.624406,3.4714568,-0.05777904,-0.0648916,7.902946,9.683035,-0.06891193,6.517031,12.56122,-0.09681025,-0.06240297,9.367314,-0.028313491,-0.051166907,6.257493,7.265423
IRF1,4.972288,2.1021276,-0.03550974,-0.039574794,4.2249594,5.276409,-0.040333413,3.5952196,7.1858554,-0.05606568,-0.036376975,5.4251623,-0.019298358,-0.03050485,3.534303,3.9562483
NDUFS6,9.261451,3.8017037,-0.060749386,-0.06456708,8.310492,10.216902,-0.070530966,6.865223,12.9768915,-0.105712794,-0.06632418,9.861528,-0.030388426,-0.052630514,7.0718784,7.579992
KLK1B11,8.128219,3.293895,-0.0543742,-0.062011994,7.447253,9.050516,-0.06586415,6.113189,11.801135,-0.09046136,-0.05864641,8.765694,-0.026737181,-0.048570264,5.809917,6.822653
FKBP2,8.521841,3.4108331,-0.05752921,-0.064585656,7.8132596,9.570065,-0.06825546,6.458285,12.480321,-0.09568008,-0.06172654,9.237911,-0.027891237,-0.050895456,6.1572876,7.1834016
SLC3A2,8.46197,3.371387,-0.056811064,-0.06395471,7.7384977,9.439732,-0.068035886,6.401681,12.318335,-0.0948929,-0.061322622,9.147435,-0.027595079,-0.05038137,6.098878,7.1099596
RAC2,8.043404,3.2144225,-0.05373242,-0.061049603,7.352309,8.908014,-0.06525687,6.0594854,11.641911,-0.08962176,-0.058022883,8.654716,-0.026222344,-0.047949553,5.759109,6.7397723
LAMP1,8.626139,3.4721859,-0.05779185,-0.0648849,7.903913,9.681997,-0.06890511,6.5184035,12.562645,-0.096824385,-0.062399194,9.369285,-0.028305728,-0.051178563,6.2561946,7.266843
CAPZA1,9.261451,3.8017037,-0.060749386,-0.06456708,8.310492,10.216902,-0.070530966,6.865223,12.9768915,-0.105712794,-0.06632418,9.861528,-0.030388426,-0.052630514,7.0718784,7.579992
RPL37A,7.9771304,3.214547,-0.053958807,-0.061239652,7.3227587,8.8846035,-0.064876355,6.0403504,11.655952,-0.08940721,-0.058055077,8.6789055,-0.02599999,-0.047783747,5.7521753,6.7435193
TRIM28,8.626139,3.4721859,-0.05779185,-0.0648849,7.903913,9.681997,-0.06890511,6.5184035,12.562645,-0.096824385,-0.062399194,9.369285,-0.028305728,-0.051178563,6.2561946,7.266843
AKR1A4,9.261451,3.8017037,-0.060749386,-0.06456708,8.310492,10.216902,-0.070530966,6.865223,12.9768915,-0.105712794,-0.06632418,9.861528,-0.030388426,-0.052630514,7.0718784,7.579992
SRSF9,9.261451,3.8017037,-0.060749386,-0.06456708,8.310492,10.216902,-0.070530966,6.865223,12.9768915,-0.105712794,-0.06632418,9.861528,-0.030388426,-0.052630514,7.0718784,7.579992
ITGB2,8.278823,3.3583555,-0.05511299,-0.06281101,7.574386,9.228197,-0.06687811,6.205492,11.982169,-0.09187573,-0.059508566,8.889489,-0.027398009,-0.0493887,5.9005594,6.922501
AFF4,9.261451,3.8017037,-0.060749386,-0.06456708,8.310492,10.216902,-0.070530966,6.865223,12.9768915,-0.105712794,-0.06632418,9.861528,-0.030388426,-0.052630514,7.0718784,7.579992
FAU,9.261451,3.8017037,-0.060749386,-0.06456708,8.310492,10.216902,-0.070530966,6.865223,12.9768915,-0.105712794,-0.06632418,9.861528,-0.030388426,-0.052630514,7.0718784,7.579992
OAZ1,9.261451,3.8017037,-0.060749386,-0.06456708,8.310492,10.216902,-0.070530966,6.865223,12.9768915,-0.105712794,-0.06632418,9.861528,-0.030388426,-0.052630514,7.0718784,7.579992
SNRPG,9.261451,3.8017037,-0.060749386,-0.06456708,8.310492,10.216902,-0.070530966,6.865223,12.9768915,-0.105712794,-0.06632418,9.861528,-0.030388426,-0.052630514,7.0718784,7.579992
DYNLRB1,9.402586,2.966307,-0.055468485,-0.0726061,8.561889,9.331207,-0.060376372,6.1705265,11.7161455,-0.098307185,-0.057108693,9.027807,-0.020662524,-0.060833372,5.832489,7.491453
TBPL1,8.278823,3.3583555,-0.05511299,-0.06281101,7.574386,9.228197,-0.06687811,6.205492,11.982169,-0.09187573,-0.059508566,8.889489,-0.027398009,-0.0493887,5.9005594,6.922501
RPL35A,8.598389,3.4808075,-0.05797009,-0.058168598,7.361851,9.459845,-0.06121585,7.4175973,13.557099,-0.10858885,-0.07027564,9.269234,-0.027277827,-0.04335543,6.8623295,7.507252
ZMYND11,9.261451,3.8017037,-0.060749386,-0.06456708,8.310492,10.216902,-0.070530966,6.865223,12.9768915,-0.105712794,-0.06632418,9.861528,-0.030388426,-0.052630514,7.0718784,7.579992
TNFAIP2,8.313215,3.3317618,-0.055810113,-0.06315916,7.6207957,9.28443,-0.06702345,6.2740493,12.099463,-0.09311066,-0.060111985,9.001807,-0.027150044,-0.049797643,5.988407,6.996144
CHURC1,9.261451,3.8017037,-0.060749386,-0.06456708,8.310492,10.216902,-0.070530966,6.865223,12.9768915,-0.105712794,-0.06632418,9.861528,-0.030388426,-0.052630514,7.0718784,7.579992
SQRDL,9.261451,3.8017037,-0.060749386,-0.06456708,8.310492,10.216902,-0.070530966,6.865223,12.9768915,-0.105712794,-0.06632418,9.861528,-0.030388426,-0.052630514,7.0718784,7.579992
IFITM3,7.9297533,2.462826,-0.04921843,-0.059344567,7.405571,8.768909,-0.053181384,5.4729195,10.519061,-0.08132782,-0.048630223,8.767836,-0.021120856,-0.05199951,4.949648,6.5361724
RPL37,8.651135,3.4476352,-0.058256067,-0.0655921,7.907707,9.690739,-0.06926563,6.529925,12.634312,-0.09701099,-0.06266039,9.357094,-0.02829846,-0.051597722,6.230657,7.2732935
RPL30,9.261451,3.8017037,-0.060749386,-0.06456708,8.310492,10.216902,-0.070530966,6.865223,12.9768915,-0.105712794,-0.06632418,9.861528,-0.030388426,-0.052630514,7.0718784,7.579992
PRDX1,9.261451,3.8017037,-0.060749386,-0.06456708,8.310492,10.216902,-0.070530966,6.865223,12.9768915,-0.105712794,-0.06632418,9.861528,-0.030388426,-0.052630514,7.0718784,7.579992
NDUFB5,9.261451,3.8017037,-0.060749386,-0.06456708,8.310492,10.216902,-0.070530966,6.865223,12.9768915,-0.105712794,-0.06632418,9.861528,-0.030388426,-0.052630514,7.0718784,7.579992
ATP5A1,9.261451,3.8017037,-0.060749386,-0.06456708,8.310492,10.216902,-0.070530966,6.865223,12.9768915,-0.105712794,-0.06632418,9.861528,-0.030388426,-0.052630514,7.0718784,7.579992
1500032L24RIK,9.261451,3.8017037,-0.060749386,-0.06456708,8.310492,10.216902,-0.070530966,6.865223,12.9768915,-0.105712794,-0.06632418,9.861528,-0.030388426,-0.052630514,7.0718784,7.579992
PSMB6,9.261451,3.8017037,-0.060749386,-0.06456708,8.310492,10.216902,-0.070530966,6.865223,12.9768915,-0.105712794,-0.06632418,9.861528,-0.030388426,-0.052630514,7.0718784,7.579992
SUPT16H,9.261451,3.8017037,-0.060749386,-0.06456708,8.310492,10.216902,-0.070530966,6.865223,12.9768915,-0.105712794,-0.06632418,9.861528,-0.030388426,-0.052630514,7.0718784,7.579992
AEBP2,8.519968,3.4275227,-0.05738244,-0.06433793,7.821303,9.578468,-0.068164386,6.457557,12.462939,-0.0957038,-0.06166882,9.261377,-0.027916942,-0.050744776,6.177707,7.1876864
MED8,9.261451,3.8017037,-0.060749386,-0.06456708,8.310492,10.216902,-0.070530966,6.865223,12.9768915,-0.105712794,-0.06632418,9.861528,-0.030388426,-0.052630514,7.0718784,7.579992
ZFML,9.260578,3.7992723,-0.060728095,-0.06454525,8.305774,10.214022,-0.070544645,6.8677707,12.971159,-0.1057243,-0.06630313,9.857132,-0.030346312,-0.052657485,7.0726204,7.5802045
BHLHE40,8.653789,3.4685614,-0.05805849,-0.06537125,7.919293,9.704327,-0.069199555,6.5338383,12.61936,-0.09707529,-0.06265066,9.378594,-0.028371481,-0.051445387,6.2518415,7.2815285
CCT3,7.9538474,2.5144615,-0.060766686,-0.07335043,8.161843,9.010033,-0.063293174,5.7431135,11.552292,-0.08665384,-0.05093287,8.569766,-0.021149294,-0.06233824,5.228473,7.291281
RPL35,8.651135,3.4476352,-0.058256067,-0.0655921,7.907707,9.690739,-0.06926563,6.529925,12.634312,-0.09701099,-0.06266039,9.357094,-0.02829846,-0.051597722,6.230657,7.2732935
SEPT2,8.651135,3.4476352,-0.058256067,-0.0655921,7.907707,9.690739,-0.06926563,6.529925,12.634312,-0.09701099,-0.06266039,9.357094,-0.02829846,-0.051597722,6.230657,7.2732935
2900010M23RIK,9.261451,3.8017037,-0.060749386,-0.06456708,8.310492,10.216902,-0.070530966,6.865223,12.9768915,-0.105712794,-0.06632418,9.861528,-0.030388426,-0.052630514,7.0718784,7.579992
PIN4,9.261451,3.8017037,-0.060749386,-0.06456708,8.310492,10.216902,-0.070530966,6.865223,12.9768915,-0.105712794,-0.06632418,9.861528,-0.030388426,-0.052630514,7.0718784,7.579992
RPS29,8.451958,3.4141016,-0.056614194,-0.06420441,7.7382226,9.434206,-0.06770234,6.373444,12.302921,-0.09452995,-0.061203107,9.172995,-0.0277016,-0.05021819,6.0797467,7.108134
FAM195B,9.261451,3.8017037,-0.060749386,-0.06456708,8.310492,10.216902,-0.070530966,6.865223,12.9768915,-0.105712794,-0.06632418,9.861528,-0.030388426,-0.052630514,7.0718784,7.579992
PDIA3,9.261451,3.8017037,-0.060749386,-0.06456708,8.310492,10.216902,-0.070530966,6.865223,12.9768915,-0.105712794,-0.06632418,9.861528,-0.030388426,-0.052630514,7.0718784,7.579992
DPEP2,9.261451,3.8017037,-0.060749386,-0.06456708,8.310492,10.216902,-0.070530966,6.865223,12.9768915,-0.105712794,-0.06632418,9.861528,-0.030388426,-0.052630514,7.0718784,7.579992
ODC1,9.261788,3.8019812,-0.060743723,-0.064567894,8.310403,10.216576,-0.07052619,6.8655515,12.976217,-0.105711326,-0.06632086,9.86218,-0.03038587,-0.05263395,7.072138,7.580831
PTMA,8.555395,3.4568982,-0.058007192,-0.065404646,7.8424773,9.549675,-0.0684455,6.480467,12.52604,-0.096144386,-0.0626379,9.38288,-0.027833994,-0.050715804,6.181674,7.211042
CNN2,9.261451,3.8017037,-0.060749386,-0.06456708,8.310492,10.216902,-0.070530966,6.865223,12.9768915,-0.105712794,-0.06632418,9.861528,-0.030388426,-0.052630514,7.0718784,7.579992
HPRT,7.9942093,2.6777618,-0.03801609,-0.061103266,7.3011065,9.265024,-0.051170178,5.833779,9.635674,-0.08825409,-0.04661613,6.950174,-0.022931287,-0.043029193,4.988366,5.547591
POLR2F,9.261451,3.8017037,-0.060749386,-0.06456708,8.310492,10.216902,-0.070530966,6.865223,12.9768915,-0.105712794,-0.06632418,9.861528,-0.030388426,-0.052630514,7.0718784,7.579992
FIS1,8.472063,4.075736,-0.047037177,-0.070261,6.622485,8.311327,-0.06677895,5.3075886,11.529398,-0.08596747,-0.057189226,8.984516,-0.039157487,-0.044347953,6.8361535,6.957235
CKLF,9.261451,3.8017037,-0.060749386,-0.06456708,8.310492,10.216902,-0.070530966,6.865223,12.9768915,-0.105712794,-0.06632418,9.861528,-0.030388426,-0.052630514,7.0718784,7.579992
GTF2A1,9.261451,3.8017037,-0.060749386,-0.06456708,8.310492,10.216902,-0.070530966,6.865223,12.9768915,-0.105712794,-0.06632418,9.861528,-0.030388426,-0.052630514,7.0718784,7.579992
ATF4,4.726718,1.9682217,-0.033932608,-0.037395276,3.9143577,4.9631543,-0.038343072,3.3996437,6.8717256,-0.053532183,-0.034483727,5.1043754,-0.019128254,-0.02954202,3.339634,3.668861
TCEB1,9.261451,3.8017037,-0.060749386,-0.06456708,8.310492,10.216902,-0.070530966,6.865223,12.9768915,-0.105712794,-0.06632418,9.861528,-0.030388426,-0.052630514,7.0718784,7.579992
JUP,8.651135,3.4476352,-0.058256067,-0.0655921,7.907707,9.690739,-0.06926563,6.529925,12.634312,-0.09701099,-0.06266039,9.357094,-0.02829846,-0.051597722,6.230657,7.2732935
H2-AB1,8.651135,3.4476352,-0.058256067,-0.0655921,7.907707,9.690739,-0.06926563,6.529925,12.634312,-0.09701099,-0.06266039,9.357094,-0.02829846,-0.051597722,6.230657,7.2732935
CLEC4B1,8.278823,3.3583555,-0.05511299,-0.06281101,7.574386,9.228197,-0.06687811,6.205492,11.982169,-0.09187573,-0.059508566,8.889489,-0.027398009,-0.0493887,5.9005594,6.922501
TNF,8.271595,3.3172574,-0.05546754,-0.0626977,7.582411,9.202921,-0.066705406,6.264454,12.03211,-0.092688635,-0.05993498,8.958322,-0.026918326,-0.049291022,5.9667063,6.963583
GPR137B-PS,9.261451,3.8017037,-0.060749386,-0.06456708,8.310492,10.216902,-0.070530966,6.865223,12.9768915,-0.105712794,-0.06632418,9.861528,-0.030388426,-0.052630514,7.0718784,7.579992
RHOG,8.466555,3.3893957,-0.056879133,-0.064270094,7.752519,9.471714,-0.068038106,6.392314,12.344808,-0.09488753,-0.061293364,9.166356,-0.027704967,-0.050587494,6.0971875,7.1215754
SOD2,8.090176,3.2891958,-0.053862173,-0.06162853,7.407376,9.004099,-0.06556921,6.053259,11.699881,-0.089536525,-0.058031786,8.68823,-0.026749818,-0.048409183,5.756885,6.7665377
PCNP,8.662245,3.8468132,-0.042751644,-0.051490057,7.966449,7.9390416,-0.057831712,6.3211684,10.607886,-0.079237066,-0.052472446,7.447568,-0.024152655,-0.042405404,5.4353247,6.277666
CNOT2,9.032309,3.5750518,-0.0613818,-0.06734388,8.277118,10.135223,-0.071788915,6.8812613,13.167152,-0.102146864,-0.06596575,9.823965,-0.029231211,-0.05387301,6.6029296,7.6002584
RFX7,8.001748,2.4958236,-0.04917252,-0.05963517,7.458445,8.842957,-0.053532965,5.486789,10.547202,-0.08157521,-0.04864223,8.777705,-0.021490913,-0.05237881,4.9532223,6.555234
ALDOC,9.261451,3.8017037,-0.060749386,-0.06456708,8.310492,10.216902,-0.070530966,6.865223,12.9768915,-0.105712794,-0.06632418,9.861528,-0.030388426,-0.052630514,7.0718784,7.579992
NHP2L1,9.261451,3.8017037,-0.060749386,-0.06456708,8.310492,10.216902,-0.070530966,6.865223,12.9768915,-0.105712794,-0.06632418,9.861528,-0.030388426,-0.052630514,7.0718784,7.579992
CBFB,8.477275,3.7907894,-0.056882333,-0.0632547,7.9685416,9.929726,-0.064791545,6.3489532,12.246016,-0.093436524,-0.061967906,9.541565,-0.027556287,-0.05137319,6.273388,7.191616
PTTG1IP,9.402586,2.966307,-0.055468485,-0.0726061,8.561889,9.331207,-0.060376372,6.1705265,11.7161455,-0.098307185,-0.057108693,9.027807,-0.020662524,-0.060833372,5.832489,7.491453
ATP5J2,9.261451,3.8017037,-0.060749386,-0.06456708,8.310492,10.216902,-0.070530966,6.865223,12.9768915,-0.105712794,-0.06632418,9.861528,-0.030388426,-0.052630514,7.0718784,7.579992
EIF1AX,8.626139,3.4721859,-0.05779185,-0.0648849,7.903913,9.681997,-0.06890511,6.5184035,12.562645,-0.096824385,-0.062399194,9.369285,-0.028305728,-0.051178563,6.2561946,7.266843
RPL17,9.261451,3.8017037,-0.060749386,-0.06456708,8.310492,10.216902,-0.070530966,6.865223,12.9768915,-0.105712794,-0.06632418,9.861528,-0.030388426,-0.052630514,7.0718784,7.579992
RPL13A-PS1,9.261451,3.8017037,-0.060749386,-0.06456708,8.310492,10.216902,-0.070530966,6.865223,12.9768915,-0.105712794,-0.06632418,9.861528,-0.030388426,-0.052630514,7.0718784,7.579992
TMED2,8.043404,3.2144225,-0.05373242,-0.061049603,7.352309,8.908014,-0.06525687,6.0594854,11.641911,-0.08962176,-0.058022883,8.654716,-0.026222344,-0.047949553,5.759109,6.7397723
TMED3,9.261451,3.8017037,-0.060749386,-0.06456708,8.310492,10.216902,-0.070530966,6.865223,12.9768915,-0.105712794,-0.06632418,9.861528,-0.030388426,-0.052630514,7.0718784,7.579992
CD9,8.007086,2.8691018,-0.04437338,-0.040169433,7.3984156,8.012342,-0.06691284,6.9514275,11.42451,-0.0887705,-0.06418774,8.574385,-0.024679057,-0.044343904,4.8714457,5.7984576
CAPZA2,9.261451,3.8017037,-0.060749386,-0.06456708,8.310492,10.216902,-0.070530966,6.865223,12.9768915,-0.105712794,-0.06632418,9.861528,-0.030388426,-0.052630514,7.0718784,7.579992
CNBP,9.261451,3.8017037,-0.060749386,-0.06456708,8.310492,10.216902,-0.070530966,6.865223,12.9768915,-0.105712794,-0.06632418,9.861528,-0.030388426,-0.052630514,7.0718784,7.579992
GTF2E2,8.531202,2.9154136,-0.04595438,-0.052044794,8.048714,8.545116,-0.06977588,6.3925185,12.221548,-0.09824226,-0.06371547,9.321363,-0.019062238,-0.054127887,5.5901546,5.9737754
HN1,9.261451,3.8017037,-0.060749386,-0.06456708,8.310492,10.216902,-0.070530966,6.865223,12.9768915,-0.105712794,-0.06632418,9.861528,-0.030388426,-0.052630514,7.0718784,7.579992
MALT1,8.236225,3.324678,-0.054908574,-0.06263778,7.538755,9.17458,-0.066272974,6.194337,11.95316,-0.091793,-0.05930429,8.882056,-0.027028734,-0.049161553,5.895481,6.9164543
AXL,9.261451,3.8017037,-0.060749386,-0.06456708,8.310492,10.216902,-0.070530966,6.865223,12.9768915,-0.105712794,-0.06632418,9.861528,-0.030388426,-0.052630514,7.0718784,7.579992
RPS28,8.626139,3.4721859,-0.05779185,-0.0648849,7.903913,9.681997,-0.06890511,6.5184035,12.562645,-0.096824385,-0.062399194,9.369285,-0.028305728,-0.051178563,6.2561946,7.266843
FCF1,8.090176,3.2891958,-0.053862173,-0.06162853,7.407376,9.004099,-0.06556921,6.053259,11.699881,-0.089536525,-0.058031786,8.68823,-0.026749818,-0.048409183,5.756885,6.7665377
DHRS3,9.261451,3.8017037,-0.060749386,-0.06456708,8.310492,10.216902,-0.070530966,6.865223,12.9768915,-0.105712794,-0.06632418,9.861528,-0.030388426,-0.052630514,7.0718784,7.579992
DNAJC19,8.626139,3.4721859,-0.05779185,-0.0648849,7.903913,9.681997,-0.06890511,6.5184035,12.562645,-0.096824385,-0.062399194,9.369285,-0.028305728,-0.051178563,6.2561946,7.266843
PPIA,8.169371,3.2861109,-0.05456073,-0.06210985,7.4789653,9.085085,-0.066084854,6.1462874,11.843505,-0.09098568,-0.058852307,8.795314,-0.026794106,-0.04881342,5.8454514,6.8504443
COX6C,9.261451,3.8017037,-0.060749386,-0.06456708,8.310492,10.216902,-0.070530966,6.865223,12.9768915,-0.105712794,-0.06632418,9.861528,-0.030388426,-0.052630514,7.0718784,7.579992
ZWINT,9.261451,3.8017037,-0.060749386,-0.06456708,8.310492,10.216902,-0.070530966,6.865223,12.9768915,-0.105712794,-0.06632418,9.861528,-0.030388426,-0.052630514,7.0718784,7.579992
PSMB8,9.261788,3.8019812,-0.060743723,-0.064567894,8.310403,10.216576,-0.07052619,6.8655515,12.976217,-0.105711326,-0.06632086,9.86218,-0.03038587,-0.05263395,7.072138,7.580831
BIN1,8.086005,3.260814,-0.05394098,-0.061538123,7.399043,8.977604,-0.065538846,6.070241,11.703113,-0.08979658,-0.058174342,8.695847,-0.026561653,-0.048316155,5.7722435,6.76925
FAM120A,9.257687,3.7974403,-0.0607152,-0.06458553,8.311719,10.216875,-0.0705235,6.8618355,12.973987,-0.10566408,-0.0663262,9.861377,-0.03041345,-0.05257992,7.0759583,7.579948
EIF3K,8.17995,3.3105423,-0.05435992,-0.062307138,7.460051,9.098431,-0.0651571,6.1485167,11.872423,-0.09137436,-0.059072778,8.867126,-0.02676018,-0.048553213,5.87149,6.889509
SOD1,9.261451,3.8017037,-0.060749386,-0.06456708,8.310492,10.216902,-0.070530966,6.865223,12.9768915,-0.105712794,-0.06632418,9.861528,-0.030388426,-0.052630514,7.0718784,7.579992
FCGR3,9.261451,3.8017037,-0.060749386,-0.06456708,8.310492,10.216902,-0.070530966,6.865223,12.9768915,-0.105712794,-0.06632418,9.861528,-0.030388426,-0.052630514,7.0718784,7.579992
DYNLT1B,8.156317,3.1265743,-0.053339437,-0.054846857,7.1014915,9.984846,-0.06735161,6.441178,11.727693,-0.10168312,-0.06635962,8.728601,-0.029363036,-0.045996822,6.116103,7.541988
SRSF6,9.261451,3.8017037,-0.060749386,-0.06456708,8.310492,10.216902,-0.070530966,6.865223,12.9768915,-0.105712794,-0.06632418,9.861528,-0.030388426,-0.052630514,7.0718784,7.579992
RDBP,9.261451,3.8017037,-0.060749386,-0.06456708,8.310492,10.216902,-0.070530966,6.865223,12.9768915,-0.105712794,-0.06632418,9.861528,-0.030388426,-0.052630514,7.0718784,7.579992
NDUFB3,8.200852,3.311643,-0.05480828,-0.062378295,7.514314,9.144213,-0.06630543,6.1657233,11.898616,-0.09126409,-0.059053626,8.835306,-0.026985483,-0.049069256,5.8663077,6.881247
QDPR,8.609468,3.5113156,-0.06451681,-0.06498158,7.274673,9.668346,-0.070979886,5.6937747,12.087291,-0.10343315,-0.06428879,9.248995,-0.025741052,-0.05027302,6.138731,7.276034
CHD4,9.261451,3.8017037,-0.060749386,-0.06456708,8.310492,10.216902,-0.070530966,6.865223,12.9768915,-0.105712794,-0.06632418,9.861528,-0.030388426,-0.052630514,7.0718784,7.579992
MFGE8,9.261451,3.8017037,-0.060749386,-0.06456708,8.310492,10.216902,-0.070530966,6.865223,12.9768915,-0.105712794,-0.06632418,9.861528,-0.030388426,-0.052630514,7.0718784,7.579992
SAT1,8.65112,3.4475994,-0.058256324,-0.065590784,7.907716,9.69072,-0.06926415,6.5298796,12.634451,-0.09701018,-0.06265962,9.356972,-0.028299524,-0.05159901,6.2306414,7.273413
ZBTB8OS,8.626139,3.4721859,-0.05779185,-0.0648849,7.903913,9.681997,-0.06890511,6.5184035,12.562645,-0.096824385,-0.062399194,9.369285,-0.028305728,-0.051178563,6.2561946,7.266843
TSC22D4,9.261451,3.8017037,-0.060749386,-0.06456708,8.310492,10.216902,-0.070530966,6.865223,12.9768915,-0.105712794,-0.06632418,9.861528,-0.030388426,-0.052630514,7.0718784,7.579992
YWHAH,9.261451,3.8017037,-0.060749386,-0.06456708,8.310492,10.216902,-0.070530966,6.865223,12.9768915,-0.105712794,-0.06632418,9.861528,-0.030388426,-0.052630514,7.0718784,7.579992
SH3BGRL,7.853074,3.5131586,-0.043296985,-0.053064246,7.049709,10.150719,-0.06132477,6.5284753,10.8964205,-0.095659696,-0.055831622,7.7838955,-0.032657187,-0.03482634,6.2277555,5.63613
GUK1,9.261451,3.8017037,-0.060749386,-0.06456708,8.310492,10.216902,-0.070530966,6.865223,12.9768915,-0.105712794,-0.06632418,9.861528,-0.030388426,-0.052630514,7.0718784,7.579992
RPS17,8.655494,3.469278,-0.05807109,-0.06536467,7.9202437,9.703306,-0.06919284,6.5351877,12.620761,-0.097089194,-0.06264693,9.380534,-0.028363852,-0.05145685,6.250564,7.2829256
NPC2,9.261451,3.8017037,-0.060749386,-0.06456708,8.310492,10.216902,-0.070530966,6.865223,12.9768915,-0.105712794,-0.06632418,9.861528,-0.030388426,-0.052630514,7.0718784,7.579992
MAPK1,8.1273775,3.2768972,-0.05501547,-0.06219632,7.471609,9.089136,-0.06575762,6.1616116,11.90716,-0.091212526,-0.05905372,8.854188,-0.026489973,-0.048699915,5.871655,6.8678703
FDPS,9.257687,3.7974403,-0.0607152,-0.06458553,8.311719,10.216875,-0.0705235,6.8618355,12.973987,-0.10566408,-0.0663262,9.861377,-0.03041345,-0.05257992,7.0759583,7.579948
MARCKS,9.261451,3.8017037,-0.060749386,-0.06456708,8.310492,10.216902,-0.070530966,6.865223,12.9768915,-0.105712794,-0.06632418,9.861528,-0.030388426,-0.052630514,7.0718784,7.579992
RPS5,9.261451,3.8017037,-0.060749386,-0.06456708,8.310492,10.216902,-0.070530966,6.865223,12.9768915,-0.105712794,-0.06632418,9.861528,-0.030388426,-0.052630514,7.0718784,7.579992
MIF,9.261451,3.8017037,-0.060749386,-0.06456708,8.310492,10.216902,-0.070530966,6.865223,12.9768915,-0.105712794,-0.06632418,9.861528,-0.030388426,-0.052630514,7.0718784,7.579992
CLDND1,9.261451,3.8017037,-0.060749386,-0.06456708,8.310492,10.216902,-0.070530966,6.865223,12.9768915,-0.105712794,-0.06632418,9.861528,-0.030388426,-0.052630514,7.0718784,7.579992
RBBP7,8.184763,3.3184335,-0.054445628,-0.06230224,7.4974084,9.120722,-0.066236965,6.1284723,11.844499,-0.09072423,-0.05879934,8.789407,-0.02712475,-0.04884994,5.835462,6.8493624
RNF4,7.853074,3.5131586,-0.043296985,-0.053064246,7.049709,10.150719,-0.06132477,6.5284753,10.8964205,-0.095659696,-0.055831622,7.7838955,-0.032657187,-0.03482634,6.2277555,5.63613
FOSL2,8.626139,3.4721859,-0.05779185,-0.0648849,7.903913,9.681997,-0.06890511,6.5184035,12.562645,-0.096824385,-0.062399194,9.369285,-0.028305728,-0.051178563,6.2561946,7.266843
HBP1,7.078983,2.6229045,-0.04726027,-0.052534647,6.2936525,8.704111,-0.06248272,5.6919575,10.548546,-0.086115204,-0.058018155,7.6630683,-0.025303502,-0.042177476,4.926135,6.708114
ARPC4,8.090176,3.2891958,-0.053862173,-0.06162853,7.407376,9.004099,-0.06556921,6.053259,11.699881,-0.089536525,-0.058031786,8.68823,-0.026749818,-0.048409183,5.756885,6.7665377
SON,8.531202,2.9154136,-0.04595438,-0.052044794,8.048714,8.545116,-0.06977588,6.3925185,12.221548,-0.09824226,-0.06371547,9.321363,-0.019062238,-0.054127887,5.5901546,5.9737754
MED15,9.261451,3.8017037,-0.060749386,-0.06456708,8.310492,10.216902,-0.070530966,6.865223,12.9768915,-0.105712794,-0.06632418,9.861528,-0.030388426,-0.052630514,7.0718784,7.579992
RPS3,9.261451,3.8017037,-0.060749386,-0.06456708,8.310492,10.216902,-0.070530966,6.865223,12.9768915,-0.105712794,-0.06632418,9.861528,-0.030388426,-0.052630514,7.0718784,7.579992
GNB2L1,9.261158,3.8010318,-0.060754247,-0.06454241,8.310641,10.216562,-0.070503384,6.8643756,12.97949,-0.105697595,-0.06630986,9.859245,-0.030408282,-0.05265463,7.071579,7.582228
COPE1,9.261451,3.8017037,-0.060749386,-0.06456708,8.310492,10.216902,-0.070530966,6.865223,12.9768915,-0.105712794,-0.06632418,9.861528,-0.030388426,-0.052630514,7.0718784,7.579992
GATAD2A,9.261451,3.8017037,-0.060749386,-0.06456708,8.310492,10.216902,-0.070530966,6.865223,12.9768915,-0.105712794,-0.06632418,9.861528,-0.030388426,-0.052630514,7.0718784,7.579992
ARF4,8.057766,3.262161,-0.054030694,-0.061617736,7.3876295,8.96693,-0.06535679,6.0666723,11.716048,-0.089767225,-0.058215063,8.704594,-0.026452065,-0.04822163,5.766953,6.7764025
MYST2,9.261451,3.8017037,-0.060749386,-0.06456708,8.310492,10.216902,-0.070530966,6.865223,12.9768915,-0.105712794,-0.06632418,9.861528,-0.030388426,-0.052630514,7.0718784,7.579992
SPCS1,8.090055,3.2889917,-0.053864036,-0.06162654,7.407109,9.003639,-0.06556664,6.0529885,11.700092,-0.08953803,-0.058030393,8.688052,-0.026752288,-0.048408795,5.756637,6.766123
MTA2,9.261451,3.8017037,-0.060749386,-0.06456708,8.310492,10.216902,-0.070530966,6.865223,12.9768915,-0.105712794,-0.06632418,9.861528,-0.030388426,-0.052630514,7.0718784,7.579992
AF251705,9.261451,3.8017037,-0.060749386,-0.06456708,8.310492,10.216902,-0.070530966,6.865223,12.9768915,-0.105712794,-0.06632418,9.861528,-0.030388426,-0.052630514,7.0718784,7.579992
HINT1,7.9885616,3.897282,-0.058788106,-0.06763587,7.8363094,8.997629,-0.06481343,6.416694,12.10297,-0.10356672,-0.06984589,10.373102,-0.027234726,-0.049794286,7.268531,7.287296
NDUFB4,9.261451,3.8017037,-0.060749386,-0.06456708,8.310492,10.216902,-0.070530966,6.865223,12.9768915,-0.105712794,-0.06632418,9.861528,-0.030388426,-0.052630514,7.0718784,7.579992
COX7A2,9.261451,3.8017037,-0.060749386,-0.06456708,8.310492,10.216902,-0.070530966,6.865223,12.9768915,-0.105712794,-0.06632418,9.861528,-0.030388426,-0.052630514,7.0718784,7.579992
TXNDC17,9.261451,3.8017037,-0.060749386,-0.06456708,8.310492,10.216902,-0.070530966,6.865223,12.9768915,-0.105712794,-0.06632418,9.861528,-0.030388426,-0.052630514,7.0718784,7.579992
1810022K09RIK,8.655494,3.469278,-0.05807109,-0.06536467,7.9202437,9.703306,-0.06919284,6.5351877,12.620761,-0.097089194,-0.06264693,9.380534,-0.028363852,-0.05145685,6.250564,7.2829256
CBFA2T3,8.651135,3.4476352,-0.058256067,-0.0655921,7.907707,9.690739,-0.06926563,6.529925,12.634312,-0.09701099,-0.06266039,9.357094,-0.02829846,-0.051597722,6.230657,7.2732935
SMARCB1,7.921429,3.1840985,-0.052082878,-0.054973993,7.4861574,8.229563,-0.06519892,5.973827,10.792041,-0.08596497,-0.050337166,8.3901205,-0.02079657,-0.043502267,6.008833,6.8530846
SUPT5H,9.261451,3.8017037,-0.060749386,-0.06456708,8.310492,10.216902,-0.070530966,6.865223,12.9768915,-0.105712794,-0.06632418,9.861528,-0.030388426,-0.052630514,7.0718784,7.579992
RPS12,7.9771304,3.214547,-0.053958807,-0.061239652,7.3227587,8.8846035,-0.064876355,6.0403504,11.655952,-0.08940721,-0.058055077,8.6789055,-0.02599999,-0.047783747,5.7521753,6.7435193
GM11428,9.261003,3.7992618,-0.060741138,-0.064533286,8.306685,10.215521,-0.070530035,6.8673806,12.973413,-0.10572042,-0.06629131,9.858328,-0.030365855,-0.052643485,7.0725117,7.581366
STARD3NL,9.261451,3.8017037,-0.060749386,-0.06456708,8.310492,10.216902,-0.070530966,6.865223,12.9768915,-0.105712794,-0.06632418,9.861528,-0.030388426,-0.052630514,7.0718784,7.579992
VAMP8,9.261451,3.8017037,-0.060749386,-0.06456708,8.310492,10.216902,-0.070530966,6.865223,12.9768915,-0.105712794,-0.06632418,9.861528,-0.030388426,-0.052630514,7.0718784,7.579992
ATP6V1C1,8.626139,3.4721859,-0.05779185,-0.0648849,7.903913,9.681997,-0.06890511,6.5184035,12.562645,-0.096824385,-0.062399194,9.369285,-0.028305728,-0.051178563,6.2561946,7.266843
MMP12,8.279239,3.358697,-0.055106018,-0.062812,7.574277,9.227797,-0.06687223,6.2058964,11.981339,-0.09187392,-0.059504475,8.890291,-0.027394867,-0.049392927,5.900878,6.9235334
TPI1,9.14221,2.9585235,-0.05570765,-0.06227712,8.342821,10.022804,-0.05771145,6.248924,11.728096,-0.09698036,-0.0562703,9.940149,-0.024773035,-0.056694567,6.2131233,7.3370757
PARP1,9.261451,3.8017037,-0.060749386,-0.06456708,8.310492,10.216902,-0.070530966,6.865223,12.9768915,-0.105712794,-0.06632418,9.861528,-0.030388426,-0.052630514,7.0718784,7.579992
ARL6IP1,7.014948,2.6267467,-0.047507346,-0.052776754,6.2701464,8.682566,-0.06210825,5.671156,10.56834,-0.08589878,-0.058085926,7.6925254,-0.025107235,-0.042008135,4.9200315,6.7104306
HNRNPA2B1,9.261451,3.8017037,-0.060749386,-0.06456708,8.310492,10.216902,-0.070530966,6.865223,12.9768915,-0.105712794,-0.06632418,9.861528,-0.030388426,-0.052630514,7.0718784,7.579992
POLR2E,9.261451,3.8017037,-0.060749386,-0.06456708,8.310492,10.216902,-0.070530966,6.865223,12.9768915,-0.105712794,-0.06632418,9.861528,-0.030388426,-0.052630514,7.0718784,7.579992
CCDC109B,9.261451,3.8017037,-0.060749386,-0.06456708,8.310492,10.216902,-0.070530966,6.865223,12.9768915,-0.105712794,-0.06632418,9.861528,-0.030388426,-0.052630514,7.0718784,7.579992
DBI,9.261451,3.8017037,-0.060749386,-0.06456708,8.310492,10.216902,-0.070530966,6.865223,12.9768915,-0.105712794,-0.06632418,9.861528,-0.030388426,-0.052630514,7.0718784,7.579992
MRPL42,8.278823,3.3583555,-0.05511299,-0.06281101,7.574386,9.228197,-0.06687811,6.205492,11.982169,-0.09187573,-0.059508566,8.889489,-0.027398009,-0.0493887,5.9005594,6.922501
TCP1,9.261451,3.8017037,-0.060749386,-0.06456708,8.310492,10.216902,-0.070530966,6.865223,12.9768915,-0.105712794,-0.06632418,9.861528,-0.030388426,-0.052630514,7.0718784,7.579992
CRIP1,9.261451,3.8017037,-0.060749386,-0.06456708,8.310492,10.216902,-0.070530966,6.865223,12.9768915,-0.105712794,-0.06632418,9.861528,-0.030388426,-0.052630514,7.0718784,7.579992
ATP5G3,9.261897,3.80182,-0.060748465,-0.064566046,8.310024,10.216892,-0.07053476,6.8657846,12.975954,-0.10571232,-0.0663269,9.860811,-0.03039484,-0.052636407,7.072439,7.5809684
SNRPD1,8.741097,3.7596548,-0.059202574,-0.052673288,7.6589646,9.684153,-0.06767539,7.42752,12.182758,-0.09628975,-0.06679443,9.1147,-0.03598022,-0.042897124,6.3490906,7.404718
RPL5,8.655494,3.469278,-0.05807109,-0.06536467,7.9202437,9.703306,-0.06919284,6.5351877,12.620761,-0.097089194,-0.06264693,9.380534,-0.028363852,-0.05145685,6.250564,7.2829256
ZNRD1,8.535871,3.457653,-0.057581652,-0.06481891,7.8361926,9.527506,-0.06813776,6.460619,12.451085,-0.09585939,-0.06223306,9.363365,-0.027749343,-0.05050876,6.1857166,7.192284
ZBTB7A,8.569228,4.3970985,-0.06604989,-0.06781784,8.115363,9.145809,-0.078554526,5.1926966,12.066115,-0.09078156,-0.05635292,9.33251,-0.022469252,-0.056921046,5.850198,6.9623256
HSD17B12,9.261451,3.8017037,-0.060749386,-0.06456708,8.310492,10.216902,-0.070530966,6.865223,12.9768915,-0.105712794,-0.06632418,9.861528,-0.030388426,-0.052630514,7.0718784,7.579992
CHI3L3,9.261451,3.8017037,-0.060749386,-0.06456708,8.310492,10.216902,-0.070530966,6.865223,12.9768915,-0.105712794,-0.06632418,9.861528,-0.030388426,-0.052630514,7.0718784,7.579992
P4HB,8.164191,2.5477614,-0.0502661,-0.06060955,7.6054664,9.041603,-0.05455402,5.6130114,10.781635,-0.083480775,-0.04984324,8.965072,-0.021999637,-0.053295687,5.074992,6.6889725
ACTG1,9.261451,3.8017037,-0.060749386,-0.06456708,8.310492,10.216902,-0.070530966,6.865223,12.9768915,-0.105712794,-0.06632418,9.861528,-0.030388426,-0.052630514,7.0718784,7.579992
SGK1,8.180331,3.3050869,-0.05488901,-0.0624446,7.4972143,9.122414,-0.06618104,6.16761,11.9122,-0.091271885,-0.05917284,8.842556,-0.026868073,-0.04889109,5.863302,6.8798904
TUBB5,9.262393,3.8012452,-0.060762975,-0.064559765,8.311796,10.216652,-0.070519306,6.8639526,12.97646,-0.10569988,-0.06631033,9.861709,-0.030384159,-0.052622158,7.0729327,7.579454
NAMPT,7.2759247,2.9163172,-0.058398202,-0.061990146,6.157784,8.307188,-0.06579234,4.6771197,10.650668,-0.0868797,-0.055714734,7.97387,-0.020952102,-0.04539826,4.662437,6.4079213
TXN2,9.268448,3.799948,-0.060757797,-0.06445519,8.309641,10.209135,-0.07045143,6.8573904,12.976559,-0.1056979,-0.066294335,9.859205,-0.03041984,-0.052595876,7.0736485,7.571196
KLF13,9.261451,3.8017037,-0.060749386,-0.06456708,8.310492,10.216902,-0.070530966,6.865223,12.9768915,-0.105712794,-0.06632418,9.861528,-0.030388426,-0.052630514,7.0718784,7.579992
YEATS4,8.190421,3.3248417,-0.054497022,-0.062274527,7.4955626,9.12076,-0.06624819,6.133564,11.848865,-0.09079747,-0.058796305,8.789634,-0.027087132,-0.048925985,5.8293295,6.849429
CD52,9.261451,3.8017037,-0.060749386,-0.06456708,8.310492,10.216902,-0.070530966,6.865223,12.9768915,-0.105712794,-0.06632418,9.861528,-0.030388426,-0.052630514,7.0718784,7.579992
SLC2A6,8.237801,3.330525,-0.05496,-0.06260505,7.543418,9.183418,-0.06656458,6.1873136,11.941475,-0.091618024,-0.05927692,8.861489,-0.027153179,-0.049229153,5.8834887,6.9037213
ACOT7,8.302188,3.3182418,-0.055511534,-0.06294749,7.587492,9.23427,-0.06694656,6.2648196,12.060804,-0.09274548,-0.05999006,8.944331,-0.027154122,-0.04942476,5.9565067,6.964324
UBC,9.032547,3.5750458,-0.061389133,-0.067337155,8.27763,10.136066,-0.0717807,6.881042,13.168421,-0.10214469,-0.065959096,9.824636,-0.029242205,-0.053865142,6.6028676,7.6009116
UQCRH,7.5802655,3.0425584,-0.051716197,-0.056704957,6.677153,8.421038,-0.058394045,6.478791,12.145613,-0.09174827,-0.061068945,8.233168,-0.024352647,-0.041274868,5.5959234,6.7115774
TUBA1C,8.020825,3.2205486,-0.05392518,-0.06126956,7.3486547,8.906687,-0.06517886,6.0589833,11.664469,-0.08966164,-0.05813609,8.68369,-0.026115488,-0.047913913,5.7654963,6.7491646
GLRX,9.261451,3.8017037,-0.060749386,-0.06456708,8.310492,10.216902,-0.070530966,6.865223,12.9768915,-0.105712794,-0.06632418,9.861528,-0.030388426,-0.052630514,7.0718784,7.579992
RPS16,9.402586,2.966307,-0.055468485,-0.0726061,8.561889,9.331207,-0.060376372,6.1705265,11.7161455,-0.098307185,-0.057108693,9.027807,-0.020662524,-0.060833372,5.832489,7.491453
GLT25D1,9.262393,3.8012452,-0.060762975,-0.064559765,8.311796,10.216652,-0.070519306,6.8639526,12.97646,-0.10569988,-0.06631033,9.861709,-0.030384159,-0.052622158,7.0729327,7.579454
RPL12,8.156655,3.1268518,-0.053333774,-0.054847665,7.1014023,9.98452,-0.067346826,6.441506,11.727018,-0.10168165,-0.066356294,8.729253,-0.029360479,-0.046000257,6.1163616,7.542827
UPF1,9.261451,3.8017037,-0.060749386,-0.06456708,8.310492,10.216902,-0.070530966,6.865223,12.9768915,-0.105712794,-0.06632418,9.861528,-0.030388426,-0.052630514,7.0718784,7.579992
UQCR10,8.043404,3.2144225,-0.05373242,-0.061049603,7.352309,8.908014,-0.06525687,6.0594854,11.641911,-0.08962176,-0.058022883,8.654716,-0.026222344,-0.047949553,5.759109,6.7397723
RGS1,8.278006,3.3575203,-0.05511931,-0.062809356,7.5757494,9.227196,-0.06687203,6.2058563,11.982307,-0.091866665,-0.05949951,8.889587,-0.027378837,-0.04939948,5.9001813,6.921368
GTF2A2,7.6876597,3.0722935,-0.052296437,-0.05755658,6.755735,8.536354,-0.058241103,6.558627,12.303199,-0.09350968,-0.06200654,8.427378,-0.02445072,-0.04166694,5.715911,6.8355026
TMSB4X,9.261451,3.8017037,-0.060749386,-0.06456708,8.310492,10.216902,-0.070530966,6.865223,12.9768915,-0.105712794,-0.06632418,9.861528,-0.030388426,-0.052630514,7.0718784,7.579992
HCFC1,9.261451,3.8017037,-0.060749386,-0.06456708,8.310492,10.216902,-0.070530966,6.865223,12.9768915,-0.105712794,-0.06632418,9.861528,-0.030388426,-0.052630514,7.0718784,7.579992
NXF1,9.261451,3.8017037,-0.060749386,-0.06456708,8.310492,10.216902,-0.070530966,6.865223,12.9768915,-0.105712794,-0.06632418,9.861528,-0.030388426,-0.052630514,7.0718784,7.579992
TMEM49,9.261451,3.8017037,-0.060749386,-0.06456708,8.310492,10.216902,-0.070530966,6.865223,12.9768915,-0.105712794,-0.06632418,9.861528,-0.030388426,-0.052630514,7.0718784,7.579992
RPL10,9.261451,3.8017037,-0.060749386,-0.06456708,8.310492,10.216902,-0.070530966,6.865223,12.9768915,-0.105712794,-0.06632418,9.861528,-0.030388426,-0.052630514,7.0718784,7.579992
STAT3,4.752996,1.5390611,-0.036772553,-0.045512237,3.853192,4.6966286,-0.037705448,2.6689417,6.344933,-0.052862115,-0.0322262,4.8739614,-0.012184052,-0.034123268,2.4891465,3.8668826
EGR1,8.914201,3.6104019,-0.06133788,-0.066539764,8.21979,10.008015,-0.07048095,6.836898,13.088238,-0.10190504,-0.065768376,9.832721,-0.029460995,-0.053163692,6.6139812,7.5092244
ZFAND6,9.261451,3.8017037,-0.060749386,-0.06456708,8.310492,10.216902,-0.070530966,6.865223,12.9768915,-0.105712794,-0.06632418,9.861528,-0.030388426,-0.052630514,7.0718784,7.579992
BIRC6,9.261451,3.8017037,-0.060749386,-0.06456708,8.310492,10.216902,-0.070530966,6.865223,12.9768915,-0.105712794,-0.06632418,9.861528,-0.030388426,-0.052630514,7.0718784,7.579992
SAR1B,7.9830017,2.6916215,-0.044761736,-0.05385639,7.673363,8.209638,-0.0682401,6.1020885,11.897407,-0.090245016,-0.06010168,8.893556,-0.018330643,-0.05249732,4.9512253,5.852232
CCDC12,9.261451,3.8017037,-0.060749386,-0.06456708,8.310492,10.216902,-0.070530966,6.865223,12.9768915,-0.105712794,-0.06632418,9.861528,-0.030388426,-0.052630514,7.0718784,7.579992
6720456B07RIK,9.257394,3.7967684,-0.060720056,-0.064560845,8.311869,10.216537,-0.07049591,6.8609877,12.976585,-0.10564887,-0.06631189,9.859095,-0.030433306,-0.05260404,7.075659,7.5821834
SLAMF9,9.261451,3.8017037,-0.060749386,-0.06456708,8.310492,10.216902,-0.070530966,6.865223,12.9768915,-0.105712794,-0.06632418,9.861528,-0.030388426,-0.052630514,7.0718784,7.579992
PDHB,9.261657,3.8018448,-0.06074724,-0.064565845,8.310364,10.2167225,-0.07052963,6.865437,12.977085,-0.105714224,-0.0663218,9.86146,-0.030390697,-0.05263249,7.0717745,7.5797944
RPL27,8.338826,3.3561354,-0.05613421,-0.063460656,7.6435275,9.325092,-0.06719497,6.312523,12.178926,-0.09355665,-0.060558017,9.055627,-0.027286675,-0.04970426,6.0205092,7.03181
GLIPR1,9.261451,3.8017037,-0.060749386,-0.06456708,8.310492,10.216902,-0.070530966,6.865223,12.9768915,-0.105712794,-0.06632418,9.861528,-0.030388426,-0.052630514,7.0718784,7.579992
CCRL2,8.04397,3.2148104,-0.05372652,-0.06104619,7.351959,8.907522,-0.06525322,6.0600753,11.642443,-0.089625694,-0.058016323,8.654526,-0.026228586,-0.047954977,5.758822,6.739228
HMG20A,8.651135,3.4476352,-0.058256067,-0.0655921,7.907707,9.690739,-0.06926563,6.529925,12.634312,-0.09701099,-0.06266039,9.357094,-0.02829846,-0.051597722,6.230657,7.2732935
2310016M24RIK,9.261897,3.80182,-0.060748465,-0.064566046,8.310024,10.216892,-0.07053476,6.8657846,12.975954,-0.10571232,-0.0663269,9.860811,-0.03039484,-0.052636407,7.072439,7.5809684
ATF6,7.1199703,2.6700652,-0.047855537,-0.053293195,6.377905,8.809687,-0.06281948,5.7207727,10.709685,-0.08690951,-0.058567666,7.783793,-0.025429914,-0.042382702,4.953932,6.7446814
TCF25,8.121896,2.6223037,-0.050143417,-0.067026466,7.5286856,8.272423,-0.057906944,5.561497,10.761622,-0.08435833,-0.051536687,8.086646,-0.01915057,-0.053788144,4.8779435,6.68576
RILPL2,8.626139,3.4721859,-0.05779185,-0.0648849,7.903913,9.681997,-0.06890511,6.5184035,12.562645,-0.096824385,-0.062399194,9.369285,-0.028305728,-0.051178563,6.2561946,7.266843
BLOC1S1,9.261451,3.8017037,-0.060749386,-0.06456708,8.310492,10.216902,-0.070530966,6.865223,12.9768915,-0.105712794,-0.06632418,9.861528,-0.030388426,-0.052630514,7.0718784,7.579992
TIMM10,9.261451,3.8017037,-0.060749386,-0.06456708,8.310492,10.216902,-0.070530966,6.865223,12.9768915,-0.105712794,-0.06632418,9.861528,-0.030388426,-0.052630514,7.0718784,7.579992
HSP90AA1,9.261451,3.8017037,-0.060749386,-0.06456708,8.310492,10.216902,-0.070530966,6.865223,12.9768915,-0.105712794,-0.06632418,9.861528,-0.030388426,-0.052630514,7.0718784,7.579992
EIF4E,9.261451,3.8017037,-0.060749386,-0.06456708,8.310492,10.216902,-0.070530966,6.865223,12.9768915,-0.105712794,-0.06632418,9.861528,-0.030388426,-0.052630514,7.0718784,7.579992
HMG20B,8.651135,3.4476352,-0.058256067,-0.0655921,7.907707,9.690739,-0.06926563,6.529925,12.634312,-0.09701099,-0.06266039,9.357094,-0.02829846,-0.051597722,6.230657,7.2732935
RPL27A,9.261451,3.8017037,-0.060749386,-0.06456708,8.310492,10.216902,-0.070530966,6.865223,12.9768915,-0.105712794,-0.06632418,9.861528,-0.030388426,-0.052630514,7.0718784,7.579992
RPS13,9.261451,3.8017037,-0.060749386,-0.06456708,8.310492,10.216902,-0.070530966,6.865223,12.9768915,-0.105712794,-0.06632418,9.861528,-0.030388426,-0.052630514,7.0718784,7.579992
ATP5D,8.521841,3.4108331,-0.05752921,-0.064585656,7.8132596,9.570065,-0.06825546,6.458285,12.480321,-0.09568008,-0.06172654,9.237911,-0.027891237,-0.050895456,6.1572876,7.1834016
2400001E08RIK,9.261451,3.8017037,-0.060749386,-0.06456708,8.310492,10.216902,-0.070530966,6.865223,12.9768915,-0.105712794,-0.06632418,9.861528,-0.030388426,-0.052630514,7.0718784,7.579992
SNRPE,8.651135,3.4476352,-0.058256067,-0.0655921,7.907707,9.690739,-0.06926563,6.529925,12.634312,-0.09701099,-0.06266039,9.357094,-0.02829846,-0.051597722,6.230657,7.2732935
PRELID1,8.651135,3.4476352,-0.058256067,-0.0655921,7.907707,9.690739,-0.06926563,6.529925,12.634312,-0.09701099,-0.06266039,9.357094,-0.02829846,-0.051597722,6.230657,7.2732935
NDUFS3,9.261451,3.8017037,-0.060749386,-0.06456708,8.310492,10.216902,-0.070530966,6.865223,12.9768915,-0.105712794,-0.06632418,9.861528,-0.030388426,-0.052630514,7.0718784,7.579992
SUMO1,8.066975,3.2427113,-0.05643455,-0.06171641,7.345627,9.093666,-0.064410694,6.1632175,11.93546,-0.09295939,-0.060934253,9.033814,-0.027182337,-0.048295874,5.986564,6.816713
CHMP2A,9.261451,3.8017037,-0.060749386,-0.06456708,8.310492,10.216902,-0.070530966,6.865223,12.9768915,-0.105712794,-0.06632418,9.861528,-0.030388426,-0.052630514,7.0718784,7.579992
GNG10,9.261451,3.8017037,-0.060749386,-0.06456708,8.310492,10.216902,-0.070530966,6.865223,12.9768915,-0.105712794,-0.06632418,9.861528,-0.030388426,-0.052630514,7.0718784,7.579992
TCF7L2,8.131384,3.9455578,-0.044861592,-0.067545645,6.384313,7.9641476,-0.064619176,5.0828614,11.010311,-0.08191188,-0.05461918,8.582622,-0.03763196,-0.042723443,6.5004897,6.65682
NDUFB11,9.261451,3.8017037,-0.060749386,-0.06456708,8.310492,10.216902,-0.070530966,6.865223,12.9768915,-0.105712794,-0.06632418,9.861528,-0.030388426,-0.052630514,7.0718784,7.579992
AP2M1,8.278823,3.3583555,-0.05511299,-0.06281101,7.574386,9.228197,-0.06687811,6.205492,11.982169,-0.09187573,-0.059508566,8.889489,-0.027398009,-0.0493887,5.9005594,6.922501
IL2RG,8.313215,3.3317618,-0.055810113,-0.06315916,7.6207957,9.28443,-0.06702345,6.2740493,12.099463,-0.09311066,-0.060111985,9.001807,-0.027150044,-0.049797643,5.988407,6.996144
IRF2,8.070545,3.2659466,-0.05399154,-0.061592054,7.3726482,8.947311,-0.06541385,6.062833,11.697714,-0.089940645,-0.0583435,8.71986,-0.026490003,-0.04810335,5.7782416,6.7764654
ERH,8.741097,3.7596548,-0.059202574,-0.052673288,7.6589646,9.684153,-0.06767539,7.42752,12.182758,-0.09628975,-0.06679443,9.1147,-0.03598022,-0.042897124,6.3490906,7.404718
1810027O10RIK,9.262393,3.8012452,-0.060762975,-0.064559765,8.311796,10.216652,-0.070519306,6.8639526,12.97646,-0.10569988,-0.06631033,9.861709,-0.030384159,-0.052622158,7.0729327,7.579454
NFKBIZ,8.364325,3.3618455,-0.0565673,-0.063436486,7.69234,9.409935,-0.06702383,6.340603,12.270424,-0.0938829,-0.06039608,9.094303,-0.027323479,-0.05013071,6.058928,7.0563774
UQCRFS1,8.043404,3.2144225,-0.05373242,-0.061049603,7.352309,8.908014,-0.06525687,6.0594854,11.641911,-0.08962176,-0.058022883,8.654716,-0.026222344,-0.047949553,5.759109,6.7397723
H3F3A,8.626139,3.4721859,-0.05779185,-0.0648849,7.903913,9.681997,-0.06890511,6.5184035,12.562645,-0.096824385,-0.062399194,9.369285,-0.028305728,-0.051178563,6.2561946,7.266843
ATP6V0D2,9.261451,3.8017037,-0.060749386,-0.06456708,8.310492,10.216902,-0.070530966,6.865223,12.9768915,-0.105712794,-0.06632418,9.861528,-0.030388426,-0.052630514,7.0718784,7.579992
SSB,9.261451,3.8017037,-0.060749386,-0.06456708,8.310492,10.216902,-0.070530966,6.865223,12.9768915,-0.105712794,-0.06632418,9.861528,-0.030388426,-0.052630514,7.0718784,7.579992
PGAP2,8.626139,3.4721859,-0.05779185,-0.0648849,7.903913,9.681997,-0.06890511,6.5184035,12.562645,-0.096824385,-0.062399194,9.369285,-0.028305728,-0.051178563,6.2561946,7.266843
PFDN5,9.155637,3.7753975,-0.05931839,-0.05929644,8.426605,9.628338,-0.0704807,6.790913,12.239621,-0.1025405,-0.059656758,9.6319895,-0.025681518,-0.04877246,7.288516,7.678291
RPL24,9.261451,3.8017037,-0.060749386,-0.06456708,8.310492,10.216902,-0.070530966,6.865223,12.9768915,-0.105712794,-0.06632418,9.861528,-0.030388426,-0.052630514,7.0718784,7.579992
ASAH1,7.5797033,2.5971043,-0.042351406,-0.05194363,7.270413,7.7412643,-0.06555547,5.7370853,11.212975,-0.08450736,-0.056576364,8.339544,-0.017792296,-0.0500811,4.6122255,5.526226
KRTCAP2,8.651135,3.4476352,-0.058256067,-0.0655921,7.907707,9.690739,-0.06926563,6.529925,12.634312,-0.09701099,-0.06266039,9.357094,-0.02829846,-0.051597722,6.230657,7.2732935
CST3,9.261451,3.8017037,-0.060749386,-0.06456708,8.310492,10.216902,-0.070530966,6.865223,12.9768915,-0.105712794,-0.06632418,9.861528,-0.030388426,-0.052630514,7.0718784,7.579992
RPS19,8.651135,3.4476352,-0.058256067,-0.0655921,7.907707,9.690739,-0.06926563,6.529925,12.634312,-0.09701099,-0.06266039,9.357094,-0.02829846,-0.051597722,6.230657,7.2732935
NDUFS8,8.651135,3.4476352,-0.058256067,-0.0655921,7.907707,9.690739,-0.06926563,6.529925,12.634312,-0.09701099,-0.06266039,9.357094,-0.02829846,-0.051597722,6.230657,7.2732935
DYNLL1,8.651135,3.4476352,-0.058256067,-0.0655921,7.907707,9.690739,-0.06926563,6.529925,12.634312,-0.09701099,-0.06266039,9.357094,-0.02829846,-0.051597722,6.230657,7.2732935
TMEM208,8.131627,2.5995626,-0.059948668,-0.05177411,6.532014,9.480734,-0.06524707,5.9071846,12.028112,-0.0904761,-0.059949435,8.052835,-0.03241499,-0.049192805,6.6693125,6.20936
ATP6V1E1,9.261451,3.8017037,-0.060749386,-0.06456708,8.310492,10.216902,-0.070530966,6.865223,12.9768915,-0.105712794,-0.06632418,9.861528,-0.030388426,-0.052630514,7.0718784,7.579992
RAB1,9.261897,3.80182,-0.060748465,-0.064566046,8.310024,10.216892,-0.07053476,6.8657846,12.975954,-0.10571232,-0.0663269,9.860811,-0.03039484,-0.052636407,7.072439,7.5809684
MT1,8.17995,3.3105423,-0.05435992,-0.062307138,7.460051,9.098431,-0.0651571,6.1485167,11.872423,-0.09137436,-0.059072778,8.867126,-0.02676018,-0.048553213,5.87149,6.889509
PTPN2,8.190901,3.3078256,-0.054927878,-0.06253807,7.505163,9.131517,-0.06624937,6.1736813,11.923903,-0.09140948,-0.059233326,8.8505945,-0.026881842,-0.04894187,5.8681326,6.886064
EHMT2,9.261451,3.8017037,-0.060749386,-0.06456708,8.310492,10.216902,-0.070530966,6.865223,12.9768915,-0.105712794,-0.06632418,9.861528,-0.030388426,-0.052630514,7.0718784,7.579992
TOX4,8.651135,3.4476352,-0.058256067,-0.0655921,7.907707,9.690739,-0.06926563,6.529925,12.634312,-0.09701099,-0.06266039,9.357094,-0.02829846,-0.051597722,6.230657,7.2732935
CD200R4,9.261451,3.8017037,-0.060749386,-0.06456708,8.310492,10.216902,-0.070530966,6.865223,12.9768915,-0.105712794,-0.06632418,9.861528,-0.030388426,-0.052630514,7.0718784,7.579992
ARID1A,9.261451,3.8017037,-0.060749386,-0.06456708,8.310492,10.216902,-0.070530966,6.865223,12.9768915,-0.105712794,-0.06632418,9.861528,-0.030388426,-0.052630514,7.0718784,7.579992
MCM7,8.609468,3.5113156,-0.06451681,-0.06498158,7.274673,9.668346,-0.070979886,5.6937747,12.087291,-0.10343315,-0.06428879,9.248995,-0.025741052,-0.05027302,6.138731,7.276034
BCLAF1,9.261451,3.8017037,-0.060749386,-0.06456708,8.310492,10.216902,-0.070530966,6.865223,12.9768915,-0.105712794,-0.06632418,9.861528,-0.030388426,-0.052630514,7.0718784,7.579992
SF1,9.259563,3.8009098,-0.060735434,-0.064574376,8.309438,10.218031,-0.070538394,6.863729,12.975341,-0.1056974,-0.0663283,9.859383,-0.030396871,-0.05261782,7.073292,7.578446
CRIPT,9.261451,3.8017037,-0.060749386,-0.06456708,8.310492,10.216902,-0.070530966,6.865223,12.9768915,-0.105712794,-0.06632418,9.861528,-0.030388426,-0.052630514,7.0718784,7.579992
SH3BGRL3,8.279141,2.6853757,-0.050681204,-0.067899354,7.6608076,8.43899,-0.058783825,5.642322,10.921724,-0.08556293,-0.052196145,8.184138,-0.019799355,-0.054716203,4.9423914,6.7810574
NAP1L1,9.8537035,4.4067926,-0.05024648,-0.05541666,8.89839,9.290201,-0.063421994,7.1154943,11.988173,-0.09577525,-0.061009843,8.706844,-0.02841387,-0.04732155,6.762039,7.1381783
CCR2,9.261451,3.8017037,-0.060749386,-0.06456708,8.310492,10.216902,-0.070530966,6.865223,12.9768915,-0.105712794,-0.06632418,9.861528,-0.030388426,-0.052630514,7.0718784,7.579992
TMBIM4,8.317353,3.368532,-0.0555343,-0.06302435,7.619046,9.294447,-0.06702997,6.254328,12.069363,-0.0925945,-0.059890527,8.97028,-0.027468141,-0.049574737,5.9658613,6.978319
CD81,9.261451,3.8017037,-0.060749386,-0.06456708,8.310492,10.216902,-0.070530966,6.865223,12.9768915,-0.105712794,-0.06632418,9.861528,-0.030388426,-0.052630514,7.0718784,7.579992
ACTN1,8.363947,3.3620007,-0.056570128,-0.06343982,7.691987,9.410145,-0.067030646,6.340095,12.270787,-0.09388326,-0.06040243,9.094484,-0.027317487,-0.05013679,6.0583444,7.0559587
CDC5L,9.261451,3.8017037,-0.060749386,-0.06456708,8.310492,10.216902,-0.070530966,6.865223,12.9768915,-0.105712794,-0.06632418,9.861528,-0.030388426,-0.052630514,7.0718784,7.579992
NONO,8.042147,3.2575872,-0.05397065,-0.061503034,7.3750973,8.95186,-0.065264754,6.053828,11.696145,-0.0895588,-0.05810677,8.69373,-0.026413785,-0.048168838,5.75909,6.765139
HIGD2A,8.609915,3.511432,-0.064515896,-0.06498054,7.2742057,9.668339,-0.070983686,5.6943364,12.086352,-0.10343266,-0.06429151,9.248279,-0.025747469,-0.050278917,6.139292,7.2770095
TOMM22,8.651135,3.4476352,-0.058256067,-0.0655921,7.907707,9.690739,-0.06926563,6.529925,12.634312,-0.09701099,-0.06266039,9.357094,-0.02829846,-0.051597722,6.230657,7.2732935
P2RY14,8.057766,3.262161,-0.054030694,-0.061617736,7.3876295,8.96693,-0.06535679,6.0666723,11.716048,-0.089767225,-0.058215063,8.704594,-0.026452065,-0.04822163,5.766953,6.7764025
ETFB,9.261451,3.8017037,-0.060749386,-0.06456708,8.310492,10.216902,-0.070530966,6.865223,12.9768915,-0.105712794,-0.06632418,9.861528,-0.030388426,-0.052630514,7.0718784,7.579992
BTF3,9.261451,3.8017037,-0.060749386,-0.06456708,8.310492,10.216902,-0.070530966,6.865223,12.9768915,-0.105712794,-0.06632418,9.861528,-0.030388426,-0.052630514,7.0718784,7.579992
MRPS21,9.064821,4.4913883,-0.0484305,-0.06969377,6.8992543,8.70224,-0.06780047,5.5230374,11.763644,-0.093586475,-0.060316574,9.452419,-0.042312164,-0.04466992,7.736743,7.232944
GSTO1,8.194146,3.2853003,-0.055024795,-0.062214766,7.512489,9.135693,-0.06615249,6.194523,11.93658,-0.09164314,-0.059187762,8.862163,-0.026751501,-0.048945278,5.898385,6.8876452
LIPA,8.377803,3.140737,-0.058836207,-0.068114616,7.6691484,9.531256,-0.0659904,6.459223,12.75499,-0.094463326,-0.061278094,9.484658,-0.024794523,-0.045202248,6.165506,7.141791
CDC42,8.114914,3.2960532,-0.053957436,-0.06180849,7.4277625,9.027166,-0.06569947,6.0716944,11.732384,-0.08986282,-0.058183976,8.703089,-0.026820261,-0.04852178,5.7682333,6.785777
S100A1,9.080201,3.738414,-0.061316565,-0.0661151,8.097055,10.075912,-0.06975625,6.81214,12.840914,-0.10481842,-0.06824818,9.891958,-0.031029182,-0.051630232,7.0592127,7.36058
HDGF,7.7504826,3.1874886,-0.052890692,-0.0594249,7.115497,8.606115,-0.061636336,5.9138365,11.317129,-0.087009616,-0.057180114,8.568576,-0.025427505,-0.045536406,5.6322865,6.5064707
CD74,8.114914,3.2960532,-0.053957436,-0.06180849,7.4277625,9.027166,-0.06569947,6.0716944,11.732384,-0.08986282,-0.058183976,8.703089,-0.026820261,-0.04852178,5.7682333,6.785777
CHMP5,9.061057,4.4871254,-0.048396308,-0.069712214,6.900482,8.702215,-0.067793004,5.5196495,11.760739,-0.09353775,-0.060318597,9.452269,-0.042337187,-0.044619326,7.740823,7.2329
