,0,1,2,3,4,5,6,7,8,9,10,11,12,13,14,15
ANKMY2,-0.071235225,8.83811,-0.01634682,-0.06537835,-0.0827009,-0.051613756,-0.042928718,5.5958843,-0.057796974,-0.06809144,-0.034796976,6.490045,7.7487836,-0.010753274,6.5214815,-0.052104704
ERCC-00004,-0.08866155,10.87055,-0.02017228,-0.07939204,-0.10168018,-0.059856515,-0.049604822,6.6546135,-0.06864518,-0.08459776,-0.043135107,7.807863,9.397663,-0.011789919,8.332783,-0.061894484
PKIG,-0.07033924,8.74721,-0.016033554,-0.064664975,-0.081929155,-0.05100501,-0.042249456,5.541664,-0.0572118,-0.067517325,-0.03440946,6.4237075,7.6552424,-0.010927351,6.439963,-0.05150915
RBMS3,-0.073232606,9.075224,-0.015165549,-0.064244196,-0.08866958,-0.050640516,-0.040868983,5.4642296,-0.057304457,-0.07040053,-0.03604854,6.8084803,7.6810403,-0.014142526,6.7064123,-0.052693453
RND3,-0.072903186,9.031318,-0.016628508,-0.067248315,-0.08504261,-0.05297253,-0.043539885,5.6778507,-0.05918873,-0.070372835,-0.035397585,6.644695,7.9286585,-0.011201059,6.69582,-0.053056605
TNFRSF21,-0.08866155,10.87055,-0.02017228,-0.07939204,-0.10168018,-0.059856515,-0.049604822,6.6546135,-0.06864518,-0.08459776,-0.043135107,7.807863,9.397663,-0.011789919,8.332783,-0.061894484
CTNNB1,-0.060985897,7.626982,-0.013761227,-0.05586267,-0.07111602,-0.04431692,-0.03671749,4.866046,-0.049600963,-0.058354482,-0.029970853,5.611413,6.669046,-0.009455763,5.503103,-0.0455425
GYPB,-0.074466854,9.23564,-0.017171409,-0.06851681,-0.086499795,-0.053895663,-0.044818863,5.78442,-0.06029765,-0.071524985,-0.03632527,6.781494,8.088495,-0.011157072,6.846153,-0.053970464
CITED2,-0.07067434,8.780056,-0.01626787,-0.064946525,-0.08207871,-0.05134493,-0.042720854,5.5642996,-0.05744129,-0.067581534,-0.03457204,6.4473777,7.702783,-0.010649336,6.468025,-0.051768925
MCM4,-0.07388443,9.198417,-0.01699168,-0.06793326,-0.08573282,-0.053044226,-0.044539455,5.7498903,-0.05976457,-0.07097752,-0.03607132,6.7225924,8.047304,-0.0110289175,6.8080416,-0.053622946
SCD5,-0.07323969,9.066911,-0.01677058,-0.06723326,-0.085209586,-0.05290762,-0.04398339,5.7367306,-0.05950027,-0.07019758,-0.035585478,6.661813,7.9490666,-0.011130337,6.72009,-0.05342705
ACBD6,-0.070239544,8.719768,-0.016101545,-0.06442646,-0.08154481,-0.050855294,-0.042409945,5.5339193,-0.057049412,-0.067061566,-0.034314234,6.400317,7.646172,-0.010650754,6.423284,-0.051518098
RAD50,-0.07013908,8.704429,-0.016055735,-0.064285144,-0.081350185,-0.050816935,-0.042265013,5.523407,-0.056876823,-0.06692944,-0.034269962,6.38524,7.6263404,-0.010587243,6.4058585,-0.051437095
MXRA5,-0.094394386,9.816144,-0.018100036,-0.0731837,-0.09092082,-0.057945978,-0.052068964,5.9686737,-0.065617785,-0.076176375,-0.038376372,7.136332,8.344978,-0.0023136528,7.8789644,-0.07037484
SEMA6A,-0.07374351,9.121904,-0.016772155,-0.06785216,-0.08574194,-0.053409133,-0.044085693,5.7530365,-0.059814934,-0.070862316,-0.035876855,6.708856,8.00984,-0.011275394,6.766002,-0.05370233
ANKRD26,-0.08866155,10.87055,-0.02017228,-0.07939204,-0.10168018,-0.059856515,-0.049604822,6.6546135,-0.06864518,-0.08459776,-0.043135107,7.807863,9.397663,-0.011789919,8.332783,-0.061894484
HDAC9,-0.07142901,8.868668,-0.016387733,-0.06559869,-0.082953855,-0.05178192,-0.043146208,5.6175375,-0.058119517,-0.06831753,-0.034889653,6.5178685,7.7792525,-0.010794056,6.5460587,-0.052255332
ZCCHC11,-0.07586769,9.4015,-0.017322255,-0.06997401,-0.08834584,-0.054817546,-0.045305904,5.8980885,-0.061490048,-0.07318702,-0.036854863,6.894096,8.261228,-0.011521365,7.0077376,-0.054918032
IL13RA1,-0.07012754,8.7031145,-0.01603257,-0.06432287,-0.08137353,-0.050767813,-0.042314157,5.522299,-0.056894217,-0.06696279,-0.034224834,6.382429,7.633347,-0.010637783,6.408268,-0.051484883
SEMA6D,-0.07016396,8.719452,-0.016120536,-0.064450756,-0.08147284,-0.05090762,-0.042413216,5.5313005,-0.057024587,-0.06706483,-0.03430539,6.3982787,7.6475797,-0.010623363,6.4191246,-0.05146778
CD9,-0.07647395,8.598067,-0.017589455,-0.06347966,-0.08829295,-0.049468476,-0.041961897,6.1227274,-0.062666245,-0.06691505,-0.0399137,6.8733916,7.54264,-0.00944572,6.3253083,-0.05775338
LPIN1,-0.08866155,10.87055,-0.02017228,-0.07939204,-0.10168018,-0.059856515,-0.049604822,6.6546135,-0.06864518,-0.08459776,-0.043135107,7.807863,9.397663,-0.011789919,8.332783,-0.061894484
NAT10,-0.068623245,9.899012,-0.01394424,-0.058105502,-0.085262805,-0.049860656,-0.049350858,5.7770348,-0.06361326,-0.06589954,-0.039896242,6.490633,7.959257,-0.00859053,6.11388,-0.04606448
ARRB1,-0.07405131,9.1619425,-0.017021975,-0.068077095,-0.08613368,-0.053611387,-0.044434205,5.7773924,-0.060159758,-0.071054175,-0.036025267,6.750723,8.046903,-0.011159094,6.810581,-0.053842492
FOXD3,-0.06346771,7.9370594,-0.014444187,-0.05806808,-0.07370055,-0.045902967,-0.038350992,5.0517073,-0.051470235,-0.060471304,-0.031261466,5.8130136,6.934962,-0.00976417,5.762896,-0.0471024
XRCC5,-0.069935724,8.703344,-0.016097568,-0.06424965,-0.081238605,-0.05076331,-0.042374715,5.5378513,-0.056950912,-0.066782705,-0.034256417,6.378646,7.638164,-0.010576019,6.4026904,-0.051353242
TMLHE,-0.08866155,10.87055,-0.02017228,-0.07939204,-0.10168018,-0.059856515,-0.049604822,6.6546135,-0.06864518,-0.08459776,-0.043135107,7.807863,9.397663,-0.011789919,8.332783,-0.061894484
UCHL3,-0.06942354,8.647328,-0.016035229,-0.063995406,-0.08076346,-0.050698,-0.04207565,5.4979315,-0.056624863,-0.066489026,-0.034045,6.353416,7.597457,-0.010551947,6.358973,-0.050956395
COMMD3,-0.074493386,9.23267,-0.017179115,-0.06850087,-0.086473756,-0.053877205,-0.044840444,5.785901,-0.060318716,-0.07153358,-0.03633891,6.780029,8.088416,-0.011160089,6.8466935,-0.053974003
SGCE,-0.08866155,10.87055,-0.02017228,-0.07939204,-0.10168018,-0.059856515,-0.049604822,6.6546135,-0.06864518,-0.08459776,-0.043135107,7.807863,9.397663,-0.011789919,8.332783,-0.061894484
GULP1,-0.05881472,8.800602,-0.008713313,-0.05707251,-0.07546658,-0.03835637,-0.032686267,5.826625,-0.05251498,-0.06094912,-0.030125055,5.1048126,8.377192,-0.015961276,6.9527707,-0.046370134
ERBB4,-0.07014727,8.724247,-0.016202934,-0.064578086,-0.081554495,-0.051094215,-0.042498812,5.543044,-0.057175238,-0.067114495,-0.034329332,6.4115963,7.6661086,-0.01060142,6.4293375,-0.051426895
CAPN2,-0.07168187,8.888513,-0.016498221,-0.06582895,-0.08322257,-0.051998455,-0.04327435,5.6331663,-0.058256455,-0.06849454,-0.034981955,6.53248,7.8086185,-0.0107291015,6.5709596,-0.05241131
RAX2,-0.07114783,8.829082,-0.016183203,-0.065216474,-0.08265868,-0.051262397,-0.042576246,5.57053,-0.057576973,-0.06822332,-0.034639344,6.4751377,7.717461,-0.01087988,6.517587,-0.052113418
MPHOSPH6,-0.07339483,9.118518,-0.016810318,-0.06744972,-0.08512023,-0.052891005,-0.044069603,5.6962585,-0.059256405,-0.07053675,-0.035829876,6.678221,7.971767,-0.010998507,6.7373986,-0.05329905
BHLHE40,-0.07020223,8.671239,-0.015304567,-0.061161544,-0.086849265,-0.0532242,-0.04030369,5.9898148,-0.055235133,-0.06775412,-0.031041028,5.80536,7.746665,-0.005159148,5.7858424,-0.05722669
NAV2,-0.07352381,9.104861,-0.016804934,-0.067707345,-0.08564937,-0.05328838,-0.044034652,5.7416754,-0.059767254,-0.0707368,-0.035748743,6.6995387,7.998787,-0.011252582,6.7620544,-0.0535129
ZNF142,-0.07293225,9.052681,-0.016580246,-0.06715585,-0.0850656,-0.052828815,-0.043664888,5.7307863,-0.059351705,-0.07014014,-0.035546098,6.6471133,7.954051,-0.011253244,6.703127,-0.053249266
MITF,-0.059368037,7.138644,-0.011653335,-0.054851566,-0.06691667,-0.04124143,-0.03689587,4.602874,-0.051659927,-0.0589451,-0.026339259,5.3916883,6.8163147,-0.009642903,5.571417,-0.04717423
VPS13C,-0.0716782,8.4679985,-0.013512928,-0.063148804,-0.07331216,-0.045733538,-0.038099144,5.8002195,-0.04717092,-0.06138562,-0.036225617,5.8126264,7.9753733,-0.008384352,6.8982015,-0.04750194
LIPG,-0.07418318,9.191112,-0.017040681,-0.068165705,-0.086201735,-0.05364187,-0.0444925,5.8031225,-0.06024311,-0.071182944,-0.036072284,6.745047,8.073004,-0.011091796,6.8320413,-0.054010633
ETV4,-0.07080284,8.7949,-0.016242627,-0.065058306,-0.082263604,-0.051300272,-0.042727478,5.574725,-0.05753398,-0.067731224,-0.034610678,6.454854,7.7162776,-0.0107574435,6.484133,-0.05185325
ARFGAP3,-0.080777526,8.579411,-0.015760452,-0.06520289,-0.079942346,-0.05351134,-0.047466703,5.3604345,-0.059213083,-0.066589676,-0.033202503,6.3788176,7.4450827,-0.0038748013,6.6739097,-0.061820347
FAM120AOS,-0.08866155,10.87055,-0.02017228,-0.07939204,-0.10168018,-0.059856515,-0.049604822,6.6546135,-0.06864518,-0.08459776,-0.043135107,7.807863,9.397663,-0.011789919,8.332783,-0.061894484
GRHL1,-0.069814935,8.671192,-0.015941214,-0.064097725,-0.08108682,-0.05054212,-0.042113,5.506653,-0.056698605,-0.06674707,-0.03408296,6.3646493,7.6060576,-0.010681221,6.384006,-0.051334884
TGFBR1,-0.070465766,8.755879,-0.016245255,-0.06482661,-0.0819132,-0.05124958,-0.042589247,5.5578375,-0.05734794,-0.06742786,-0.034480114,6.437123,7.689185,-0.010651483,6.4527855,-0.0516247
AGPAT5,-0.08866155,10.87055,-0.02017228,-0.07939204,-0.10168018,-0.059856515,-0.049604822,6.6546135,-0.06864518,-0.08459776,-0.043135107,7.807863,9.397663,-0.011789919,8.332783,-0.061894484
KIAA1324L,-0.075170584,9.312598,-0.01723132,-0.069343634,-0.087569185,-0.054444145,-0.045010693,5.85221,-0.061044786,-0.07244617,-0.036544,6.844861,8.186893,-0.011401002,6.936884,-0.05445432
ZNF219,-0.070941485,8.803092,-0.016306434,-0.065128736,-0.08239194,-0.051469274,-0.04280764,5.5810184,-0.057642657,-0.06780102,-0.0346732,6.4685917,7.720562,-0.010714475,6.4930263,-0.05191247
CLGN,-0.08866155,10.87055,-0.02017228,-0.07939204,-0.10168018,-0.059856515,-0.049604822,6.6546135,-0.06864518,-0.08459776,-0.043135107,7.807863,9.397663,-0.011789919,8.332783,-0.061894484
CDC6,-0.070589945,8.77,-0.016198516,-0.064781696,-0.08190613,-0.051094923,-0.042668886,5.558419,-0.057302978,-0.06742148,-0.03449476,6.4258556,7.6881,-0.010658019,6.456394,-0.05174724
CHL1,-0.06904348,8.603965,-0.015906094,-0.06360458,-0.08028226,-0.050354343,-0.041807037,5.4738846,-0.056267653,-0.06611071,-0.03385289,6.3117995,7.554635,-0.010491317,6.319221,-0.05076608
LGR5,-0.08866155,10.87055,-0.02017228,-0.07939204,-0.10168018,-0.059856515,-0.049604822,6.6546135,-0.06864518,-0.08459776,-0.043135107,7.807863,9.397663,-0.011789919,8.332783,-0.061894484
DLGAP5,-0.07432625,9.197694,-0.017098429,-0.06832611,-0.08645284,-0.053756893,-0.04450296,5.7956505,-0.060278658,-0.07132012,-0.03618241,6.768239,8.071741,-0.011158747,6.8344936,-0.05396001
SPRY2,-0.07184739,8.904526,-0.016534388,-0.06599874,-0.08348456,-0.052079797,-0.043345485,5.6325054,-0.058413133,-0.06872923,-0.035066467,6.5521865,7.8147783,-0.010845524,6.584366,-0.052426808
C2orf69,-0.07345452,8.709122,-0.020208921,-0.07345379,-0.08374434,-0.058303077,-0.03845843,5.2618475,-0.057725925,-0.076221816,-0.033507925,7.1810346,7.9451165,-0.008324565,7.338945,-0.047474492
ALDH18A1,-0.074417606,9.215864,-0.017056262,-0.06863125,-0.086683854,-0.05397938,-0.044589337,5.800682,-0.060462553,-0.07167393,-0.036186244,6.7782264,8.103244,-0.011307946,6.8540497,-0.054010015
NPFFR2,-0.08868788,10.867603,-0.020179924,-0.07937622,-0.101654336,-0.059838198,-0.04962624,6.656084,-0.068666086,-0.08460628,-0.04314864,7.8064094,9.397585,-0.011792911,8.333319,-0.061897993
ZNF512,-0.08866155,10.87055,-0.02017228,-0.07939204,-0.10168018,-0.059856515,-0.049604822,6.6546135,-0.06864518,-0.08459776,-0.043135107,7.807863,9.397663,-0.011789919,8.332783,-0.061894484
PDPN,-0.08866155,10.87055,-0.02017228,-0.07939204,-0.10168018,-0.059856515,-0.049604822,6.6546135,-0.06864518,-0.08459776,-0.043135107,7.807863,9.397663,-0.011789919,8.332783,-0.061894484
NECAP2,-0.08866155,10.87055,-0.02017228,-0.07939204,-0.10168018,-0.059856515,-0.049604822,6.6546135,-0.06864518,-0.08459776,-0.043135107,7.807863,9.397663,-0.011789919,8.332783,-0.061894484
EWSR1,-0.051790815,7.860462,-0.007570871,-0.049900293,-0.066479646,-0.033474855,-0.029020479,5.246812,-0.046265505,-0.05316508,-0.02687278,4.5224943,7.4355493,-0.014152991,6.09356,-0.041697755
UPF1,-0.07169974,8.561062,-0.014198902,-0.066384725,-0.080532245,-0.04924121,-0.04408891,5.431917,-0.06179787,-0.07136174,-0.031695172,6.431525,8.166525,-0.011527062,6.839552,-0.055557188
ERCC-00062,-0.08866155,10.87055,-0.02017228,-0.07939204,-0.10168018,-0.059856515,-0.049604822,6.6546135,-0.06864518,-0.08459776,-0.043135107,7.807863,9.397663,-0.011789919,8.332783,-0.061894484
PGR,-0.071142726,8.850402,-0.016430821,-0.06546412,-0.082833625,-0.05167095,-0.04314576,5.6110535,-0.05804141,-0.068090096,-0.034796767,6.506473,7.771975,-0.010799358,6.5335517,-0.0520332
LBH,-0.08866155,10.87055,-0.02017228,-0.07939204,-0.10168018,-0.059856515,-0.049604822,6.6546135,-0.06864518,-0.08459776,-0.043135107,7.807863,9.397663,-0.011789919,8.332783,-0.061894484
COMMD10,-0.08866155,10.87055,-0.02017228,-0.07939204,-0.10168018,-0.059856515,-0.049604822,6.6546135,-0.06864518,-0.08459776,-0.043135107,7.807863,9.397663,-0.011789919,8.332783,-0.061894484
XRN1,-0.088650845,10.868592,-0.020154374,-0.079406366,-0.10166428,-0.059884775,-0.04961115,6.6516676,-0.06863319,-0.08457323,-0.04315034,7.8056912,9.394676,-0.011809136,8.332259,-0.06189614
NIN,-0.07310968,9.59432,-0.031672716,-0.07964871,-0.08588134,-0.06851958,-0.051814474,4.9379807,-0.06614176,-0.07960154,-0.034911778,6.637685,8.555939,-0.0037743791,7.005448,-0.04657393
SAP18,-0.0799169,8.504083,-0.015592717,-0.064608194,-0.079288796,-0.052997395,-0.046972137,5.307002,-0.058658864,-0.066048734,-0.032851417,6.3271995,7.3693943,-0.003921826,6.595762,-0.061287403
GRHL2,-0.07295939,9.046714,-0.016632337,-0.067208014,-0.085063696,-0.05291523,-0.043691397,5.7156744,-0.05931293,-0.07019845,-0.035541143,6.6482587,7.9481406,-0.011208113,6.69899,-0.053226423
APLNR,-0.073347144,9.10667,-0.016806005,-0.06748887,-0.08545616,-0.053143643,-0.043871105,5.7478685,-0.05964808,-0.070551015,-0.035804316,6.6937957,7.9792767,-0.0112849055,6.754819,-0.05347206
ERCC-00165,-0.08866155,10.87055,-0.02017228,-0.07939204,-0.10168018,-0.059856515,-0.049604822,6.6546135,-0.06864518,-0.08459776,-0.043135107,7.807863,9.397663,-0.011789919,8.332783,-0.061894484
YAF2,-0.074792005,9.267208,-0.017109927,-0.06878646,-0.08684664,-0.053968906,-0.044808764,5.824107,-0.060526833,-0.0718261,-0.036429934,6.798464,8.12824,-0.0113603175,6.8922606,-0.05430176
AEBP1,-0.06963976,8.649272,-0.015900446,-0.06383642,-0.08072278,-0.050369285,-0.042018946,5.494544,-0.05643555,-0.06643177,-0.034014624,6.3301826,7.582131,-0.010550549,6.3590655,-0.051207002
SRC,-0.06385459,9.213947,-0.013122663,-0.053933047,-0.07901661,-0.046656627,-0.046365805,5.461668,-0.059333634,-0.060686402,-0.0372507,6.056002,7.419573,-0.007996487,5.638878,-0.043608718
PSMD9,-0.08866155,10.87055,-0.02017228,-0.07939204,-0.10168018,-0.059856515,-0.049604822,6.6546135,-0.06864518,-0.08459776,-0.043135107,7.807863,9.397663,-0.011789919,8.332783,-0.061894484
RBM47,-0.07071171,8.776736,-0.016210241,-0.06489428,-0.08206842,-0.051217545,-0.04264846,5.563718,-0.05737302,-0.06756065,-0.034546472,6.4395237,7.695748,-0.010696059,6.46843,-0.051806994
CALCOCO2,-0.074175686,9.205857,-0.017133294,-0.06834648,-0.08644247,-0.053824194,-0.044542804,5.7998877,-0.0603391,-0.071331166,-0.036200214,6.7761345,8.075375,-0.011223101,6.8367767,-0.05381481
CRHBP,-0.06809046,8.499466,-0.01570091,-0.06276234,-0.07920994,-0.04977549,-0.041255973,5.4181414,-0.055516865,-0.06517773,-0.03347694,6.232875,7.460138,-0.010406154,6.228777,-0.050121322
FOXJ2,-0.07298916,7.8558035,-0.014315976,-0.058934487,-0.07278456,-0.048593353,-0.043316808,4.981452,-0.05405832,-0.06009084,-0.030561654,5.8367276,6.7816253,-0.004112646,5.993436,-0.056556776
SLC39A14,-0.075467914,8.0820675,-0.01491637,-0.060959373,-0.07507299,-0.05031455,-0.04475569,5.1046047,-0.05573021,-0.06208689,-0.031395014,6.0198445,6.993619,-0.003895277,6.2027555,-0.05826521
GAD1,-0.06960822,8.644962,-0.015931632,-0.06383233,-0.08078849,-0.050378315,-0.042054296,5.494546,-0.05656325,-0.06643296,-0.033988982,6.341054,7.5817513,-0.010585807,6.361825,-0.05117902
MBTD1,-0.07170922,8.898012,-0.016500153,-0.06581909,-0.08322455,-0.051960867,-0.04325702,5.617855,-0.058136225,-0.06856049,-0.03504522,6.53534,7.7954855,-0.010773676,6.5667596,-0.05235552
MAN2A1,-0.07127159,8.845297,-0.016401233,-0.06553425,-0.08282333,-0.051725943,-0.04306409,5.608697,-0.05799944,-0.0681758,-0.034792174,6.5022006,7.7724504,-0.01076196,6.5377417,-0.052135143
SHOX2,-0.07523423,9.319389,-0.017155042,-0.0693854,-0.08762237,-0.054429233,-0.044907738,5.8457603,-0.060978644,-0.072579816,-0.036514048,6.841523,8.188858,-0.011426568,6.9371634,-0.05452393
GABRB3,-0.073945336,9.165798,-0.016958106,-0.06807274,-0.085975066,-0.053621948,-0.044387445,5.7512264,-0.05990162,-0.07111721,-0.036023285,6.7321053,8.034397,-0.011159127,6.7878165,-0.05373097
NDC80,-0.07417469,9.18807,-0.017116033,-0.06797414,-0.08611684,-0.053380515,-0.044571508,5.796056,-0.06024908,-0.07094184,-0.036185887,6.7536855,8.055094,-0.011124568,6.8451257,-0.05376159
SNUPN,-0.08866155,10.87055,-0.02017228,-0.07939204,-0.10168018,-0.059856515,-0.049604822,6.6546135,-0.06864518,-0.08459776,-0.043135107,7.807863,9.397663,-0.011789919,8.332783,-0.061894484
KLF5,-0.07226503,8.962637,-0.016584774,-0.06641963,-0.083977185,-0.052363064,-0.043559093,5.6692495,-0.058689598,-0.06918843,-0.03525805,6.5850854,7.868008,-0.010922659,6.6278286,-0.05275327
POLQ,-0.0889193,10.41764,-0.01683861,-0.07656467,-0.09045762,-0.052865,-0.043918777,6.881089,-0.056119766,-0.07652753,-0.044701375,6.998138,9.640343,-0.008961137,8.746416,-0.05640741
SP110,-0.070784196,8.789816,-0.016235692,-0.06496521,-0.08209438,-0.05120901,-0.04274224,5.571973,-0.05740594,-0.06759384,-0.03458459,6.4415436,7.708872,-0.010684479,6.479578,-0.05185773
RIN2,-0.07271257,8.9814005,-0.016501207,-0.066750504,-0.084662445,-0.05249211,-0.043234535,5.655403,-0.058799874,-0.069909245,-0.03518301,6.603106,7.8805075,-0.011214675,6.663962,-0.053061426
ESPL1,-0.08866155,10.87055,-0.02017228,-0.07939204,-0.10168018,-0.059856515,-0.049604822,6.6546135,-0.06864518,-0.08459776,-0.043135107,7.807863,9.397663,-0.011789919,8.332783,-0.061894484
VIM,-0.05977185,7.770075,-0.015387712,-0.06862092,-0.08199174,-0.05732097,-0.03466109,6.1595173,-0.05723116,-0.06515385,-0.033415787,6.5485144,7.1162243,-0.01725931,5.6318555,-0.042120505
RFC5,-0.06763195,8.413244,-0.015246448,-0.062368017,-0.079125114,-0.049515773,-0.040498264,5.304906,-0.05493539,-0.0653321,-0.03297349,6.1945186,7.358454,-0.010654012,6.134384,-0.04991263
PROM1,-0.070247546,8.718981,-0.016044889,-0.06444425,-0.08157452,-0.050865825,-0.04234137,5.534919,-0.057041246,-0.06712586,-0.034294467,6.3973584,7.64818,-0.010702865,6.42294,-0.0515821
COL11A1,-0.08866155,10.87055,-0.02017228,-0.07939204,-0.10168018,-0.059856515,-0.049604822,6.6546135,-0.06864518,-0.08459776,-0.043135107,7.807863,9.397663,-0.011789919,8.332783,-0.061894484
APOBEC3C,-0.08866155,10.87055,-0.02017228,-0.07939204,-0.10168018,-0.059856515,-0.049604822,6.6546135,-0.06864518,-0.08459776,-0.043135107,7.807863,9.397663,-0.011789919,8.332783,-0.061894484
BCLAF1,-0.088650845,10.868592,-0.020154374,-0.079406366,-0.10166428,-0.059884775,-0.04961115,6.6516676,-0.06863319,-0.08457323,-0.04315034,7.8056912,9.394676,-0.011809136,8.332259,-0.06189614
LPGAT1,-0.08866155,10.87055,-0.02017228,-0.07939204,-0.10168018,-0.059856515,-0.049604822,6.6546135,-0.06864518,-0.08459776,-0.043135107,7.807863,9.397663,-0.011789919,8.332783,-0.061894484
WDR3,-0.074466854,9.23564,-0.017171409,-0.06851681,-0.086499795,-0.053895663,-0.044818863,5.78442,-0.06029765,-0.071524985,-0.03632527,6.781494,8.088495,-0.011157072,6.846153,-0.053970464
BLM,-0.073178105,9.108677,-0.016577587,-0.06708441,-0.08482174,-0.05229519,-0.04396582,5.710682,-0.059172444,-0.0702282,-0.03566805,6.6389527,7.9508476,-0.011040923,6.713429,-0.05337636
SMG6,-0.07220281,8.96143,-0.016572176,-0.06634921,-0.083903454,-0.052286953,-0.043462727,5.6565056,-0.0585906,-0.06918506,-0.035257515,6.582025,7.8527007,-0.010936124,6.620622,-0.052691214
FRMD4B,-0.07398072,9.161181,-0.017048856,-0.06804251,-0.0860237,-0.05355519,-0.044501442,5.7799807,-0.06013098,-0.07091771,-0.0360282,6.743042,8.045929,-0.011145191,6.8099575,-0.053722437
MKI67IP,-0.088655,10.872669,-0.020139901,-0.07939271,-0.10164623,-0.05986681,-0.04958668,6.6546803,-0.06865768,-0.08457727,-0.043102816,7.8077474,9.3946495,-0.011819478,8.329258,-0.061890192
STAT2,-0.07108905,8.816039,-0.016217355,-0.06507543,-0.08259942,-0.051258776,-0.04257969,5.5705547,-0.05748833,-0.06793725,-0.034779463,6.4732866,7.704201,-0.01086722,6.497114,-0.051945142
HNRNPK,-0.07256671,8.992622,-0.016433245,-0.06692941,-0.08458515,-0.052591465,-0.043440633,5.6557665,-0.058814786,-0.07007804,-0.03516473,6.604568,7.903853,-0.011106991,6.6492834,-0.053093288
SECISBP2L,-0.08866155,10.87055,-0.02017228,-0.07939204,-0.10168018,-0.059856515,-0.049604822,6.6546135,-0.06864518,-0.08459776,-0.043135107,7.807863,9.397663,-0.011789919,8.332783,-0.061894484
RARG,-0.07015766,8.718064,-0.01609838,-0.06436496,-0.08150339,-0.050843794,-0.042360473,5.5339775,-0.056997903,-0.06700484,-0.03434889,6.395391,7.636388,-0.010645633,6.4097943,-0.051448658
AFF4,-0.07586769,9.4015,-0.017322255,-0.06997401,-0.08834584,-0.054817546,-0.045305904,5.8980885,-0.061490048,-0.07318702,-0.036854863,6.894096,8.261228,-0.011521365,7.0077376,-0.054918032
SOS2,-0.06913804,8.589161,-0.01581086,-0.06331084,-0.08032184,-0.050028894,-0.04167061,5.4681644,-0.056137327,-0.065922886,-0.033858776,6.302295,7.5155373,-0.0105652865,6.303514,-0.05087712
DPYSL3,-0.07000213,8.710587,-0.016145084,-0.064450525,-0.081368856,-0.051009063,-0.042368956,5.522743,-0.056982245,-0.06704637,-0.03428083,6.3960543,7.643027,-0.010579911,6.406266,-0.051329978
LGALSL,-0.08866155,10.87055,-0.02017228,-0.07939204,-0.10168018,-0.059856515,-0.049604822,6.6546135,-0.06864518,-0.08459776,-0.043135107,7.807863,9.397663,-0.011789919,8.332783,-0.061894484
STX12,-0.073111966,9.063627,-0.016796768,-0.067244105,-0.08494253,-0.05308634,-0.043965124,5.686198,-0.0591954,-0.07022808,-0.03566017,6.6603575,7.935928,-0.010995867,6.6940837,-0.05320444
HAND1,-0.06390027,7.9268956,-0.01783573,-0.059741057,-0.072297394,-0.055584326,-0.04578642,5.3506184,-0.056269784,-0.057611518,-0.03946495,6.423132,7.166397,-0.013371567,5.825523,-0.04249093
ESRRG,-0.07308479,9.071344,-0.01681548,-0.067350745,-0.08512994,-0.053066548,-0.04391531,5.719591,-0.05943509,-0.07029487,-0.035634372,6.6755247,7.9601254,-0.01111167,6.7216945,-0.053224675
MANEA,-0.08866155,10.87055,-0.02017228,-0.07939204,-0.10168018,-0.059856515,-0.049604822,6.6546135,-0.06864518,-0.08459776,-0.043135107,7.807863,9.397663,-0.011789919,8.332783,-0.061894484
NIP7,-0.08866155,10.87055,-0.02017228,-0.07939204,-0.10168018,-0.059856515,-0.049604822,6.6546135,-0.06864518,-0.08459776,-0.043135107,7.807863,9.397663,-0.011789919,8.332783,-0.061894484
INSIG2,-0.08866155,10.87055,-0.02017228,-0.07939204,-0.10168018,-0.059856515,-0.049604822,6.6546135,-0.06864518,-0.08459776,-0.043135107,7.807863,9.397663,-0.011789919,8.332783,-0.061894484
FN1,-0.069259726,8.61021,-0.015878178,-0.06359807,-0.080416985,-0.05029942,-0.041882113,5.4765635,-0.0563165,-0.06615631,-0.033894017,6.3159604,7.555315,-0.010492985,6.3247876,-0.050950553
ERCC-00136,-0.088676825,10.868162,-0.020166513,-0.07939141,-0.1016689,-0.059871323,-0.04958598,6.6536627,-0.068659134,-0.08459038,-0.04310932,7.809318,9.397345,-0.011771487,8.333532,-0.061878126
COL4A6,-0.0748487,9.262743,-0.017063996,-0.06906828,-0.08713598,-0.054242253,-0.044687007,5.8184395,-0.06067047,-0.07209846,-0.036306612,6.799314,8.141514,-0.01143391,6.8871775,-0.05424881
CDH2,-0.06934533,8.622691,-0.015927581,-0.06374897,-0.08058512,-0.05038763,-0.04197397,5.485735,-0.05648325,-0.06628271,-0.03394484,6.3300853,7.5683627,-0.010593724,6.340272,-0.050936535
RGS5,-0.09022597,10.034576,-0.020628612,-0.07257785,-0.10257574,-0.054104075,-0.045988534,6.9711304,-0.0705257,-0.07816784,-0.04716337,7.848228,8.643612,-0.009449211,7.6127887,-0.06575537
S100A10,-0.08244928,9.858719,-0.014108015,-0.0815386,-0.094625406,-0.06467805,-0.0551396,6.4175777,-0.068201706,-0.08540501,-0.037920278,7.324264,9.828455,-0.016190574,7.7456937,-0.060899295
MECOM,-0.07203608,8.935286,-0.016584093,-0.06622643,-0.08369791,-0.052274916,-0.043455813,5.6472883,-0.05853068,-0.06898845,-0.035157483,6.569973,7.841945,-0.010863294,6.606899,-0.052576676
AIP,-0.07388195,9.140802,-0.01697393,-0.06793351,-0.08592967,-0.053461015,-0.04454445,5.788142,-0.06020244,-0.07081027,-0.035917237,6.73508,8.0466,-0.011188193,6.807123,-0.053771503
NR0B1,-0.064464174,8.041675,-0.014708472,-0.059083533,-0.074908234,-0.046807367,-0.03895953,5.127819,-0.05237549,-0.06149597,-0.031620525,5.894066,7.041071,-0.009834751,5.8474784,-0.047779508
PRDM1,-0.07006382,8.709039,-0.01610564,-0.064397484,-0.081412755,-0.050870325,-0.04236372,5.529229,-0.057008166,-0.06700483,-0.034233857,6.3940897,7.6447,-0.010618491,6.416328,-0.051413298
GRPR,-0.07343696,9.099562,-0.01680157,-0.06759504,-0.08546817,-0.053241495,-0.044053197,5.742728,-0.059623938,-0.07053814,-0.035794698,6.690239,7.9894137,-0.0111974,6.747341,-0.053424634
ANKZF1,-0.07892403,9.694053,-0.017999848,-0.07252517,-0.0911473,-0.05669438,-0.046614785,6.0838833,-0.063338876,-0.07572508,-0.03818089,7.108355,8.533165,-0.011856818,7.2931,-0.056829114
SLFN5,-0.08868788,10.867603,-0.020179924,-0.07937622,-0.101654336,-0.059838198,-0.04962624,6.656084,-0.068666086,-0.08460628,-0.04314864,7.8064094,9.397585,-0.011792911,8.333319,-0.061897993
FRYL,-0.07132291,8.85918,-0.016345738,-0.06560616,-0.083136536,-0.051728427,-0.042859755,5.607703,-0.05805888,-0.06849291,-0.03479629,6.5149693,7.7705903,-0.011018601,6.5464993,-0.052113265
SERTAD2,-0.071853235,8.916119,-0.016564084,-0.06599109,-0.08343445,-0.05204353,-0.043419845,5.64839,-0.058411125,-0.06868252,-0.035049807,6.5487967,7.829267,-0.010759854,6.595088,-0.052520588
NIPSNAP3A,-0.06944818,8.633372,-0.01569921,-0.06377365,-0.08084578,-0.050272983,-0.041496176,5.466769,-0.056150462,-0.06657762,-0.03398503,6.330173,7.5465345,-0.010861067,6.324024,-0.05110412
SH2B3,-0.07067235,8.789537,-0.016306875,-0.06508326,-0.08211732,-0.0514744,-0.042833183,5.564356,-0.057574198,-0.06766957,-0.03457147,6.4647913,7.715767,-0.0106658805,6.478381,-0.051730394
GALM,-0.07012943,8.705937,-0.016059376,-0.06428554,-0.08135731,-0.050807577,-0.042276915,5.524008,-0.056868013,-0.06693409,-0.034286253,6.3843207,7.626541,-0.010598887,6.405385,-0.05144743
MCCC1,-0.07170922,8.898012,-0.016500153,-0.06581909,-0.08322455,-0.051960867,-0.04325702,5.617855,-0.058136225,-0.06856049,-0.03504522,6.53534,7.7954855,-0.010773676,6.5667596,-0.05235552
CCKBR,-0.07586769,9.4015,-0.017322255,-0.06997401,-0.08834584,-0.054817546,-0.045305904,5.8980885,-0.061490048,-0.07318702,-0.036854863,6.894096,8.261228,-0.011521365,7.0077376,-0.054918032
GPM6B,-0.07397313,9.167908,-0.016918369,-0.068165064,-0.08614633,-0.05361896,-0.04426636,5.7627745,-0.060056806,-0.071284965,-0.03595615,6.7341857,8.046007,-0.011292336,6.811883,-0.053746995
LEF1,-0.06280196,7.8561583,-0.014342957,-0.05754664,-0.07313396,-0.045626152,-0.03791262,4.9998903,-0.051049657,-0.059996486,-0.03089944,5.7790728,6.8716774,-0.009539584,5.6986775,-0.04659333
GLMN,-0.08866155,10.87055,-0.02017228,-0.07939204,-0.10168018,-0.059856515,-0.049604822,6.6546135,-0.06864518,-0.08459776,-0.043135107,7.807863,9.397663,-0.011789919,8.332783,-0.061894484
GPSM2,-0.074466854,9.23564,-0.017171409,-0.06851681,-0.086499795,-0.053895663,-0.044818863,5.78442,-0.06029765,-0.071524985,-0.03632527,6.781494,8.088495,-0.011157072,6.846153,-0.053970464
FRZB,-0.08866155,10.87055,-0.02017228,-0.07939204,-0.10168018,-0.059856515,-0.049604822,6.6546135,-0.06864518,-0.08459776,-0.043135107,7.807863,9.397663,-0.011789919,8.332783,-0.061894484
SPRED2,-0.07090555,8.798882,-0.01624678,-0.06510731,-0.0823923,-0.05138726,-0.042735755,5.575981,-0.057602417,-0.06782719,-0.034631763,6.463815,7.7154503,-0.010795078,6.489542,-0.051902063
EGLN1,-0.07042897,8.770104,-0.016160961,-0.064692594,-0.08171645,-0.050975516,-0.04255198,5.5734024,-0.057230573,-0.06726108,-0.034515228,6.4182434,7.693745,-0.010695791,6.4688296,-0.051602554
RNF24,-0.088650845,10.868592,-0.020154374,-0.079406366,-0.10166428,-0.059884775,-0.04961115,6.6516676,-0.06863319,-0.08457323,-0.04315034,7.8056912,9.394676,-0.011809136,8.332259,-0.06189614
TMEM87B,-0.08866155,10.87055,-0.02017228,-0.07939204,-0.10168018,-0.059856515,-0.049604822,6.6546135,-0.06864518,-0.08459776,-0.043135107,7.807863,9.397663,-0.011789919,8.332783,-0.061894484
SOX3,-0.0696568,8.663302,-0.016019408,-0.06404304,-0.0809594,-0.050634492,-0.042135127,5.4965887,-0.056670904,-0.06663684,-0.034089025,6.36261,7.5982275,-0.010587245,6.3711557,-0.05113371
BCAR3,-0.07209905,8.935088,-0.016507635,-0.06625744,-0.08389374,-0.052252308,-0.043269064,5.646332,-0.058556702,-0.06913824,-0.035148714,6.5801554,7.8373513,-0.01098354,6.609534,-0.052645538
TEX10,-0.08289641,8.425173,-0.02038748,-0.061139327,-0.09328217,-0.04862299,-0.049213815,5.1942177,-0.062205315,-0.0671418,-0.027730262,7.5244555,7.3670545,0.6900517,6.767091,-0.06932202
BEND3,-0.07184046,8.907902,-0.016486067,-0.0660409,-0.08352219,-0.05211492,-0.043218613,5.625125,-0.05829111,-0.06884391,-0.035075758,6.553065,7.80931,-0.010915224,6.578456,-0.05243124
FOXK1,-0.07242135,8.960352,-0.016585035,-0.06649014,-0.08405982,-0.052484453,-0.0434286,5.661865,-0.05867517,-0.06921864,-0.035224408,6.588095,7.8599677,-0.010889438,6.6227717,-0.052848116
IFT80,-0.06963976,8.649272,-0.015900446,-0.06383642,-0.08072278,-0.050369285,-0.042018946,5.494544,-0.05643555,-0.06643177,-0.034014624,6.3301826,7.582131,-0.010550549,6.3590655,-0.051207002
IMPAD1,-0.07586769,9.4015,-0.017322255,-0.06997401,-0.08834584,-0.054817546,-0.045305904,5.8980885,-0.061490048,-0.07318702,-0.036854863,6.894096,8.261228,-0.011521365,7.0077376,-0.054918032
GEMIN4,-0.078601815,9.7423115,-0.017658459,-0.071596,-0.0901344,-0.054751676,-0.046296563,6.025835,-0.06255982,-0.07532905,-0.038081992,7.0402794,8.49535,-0.011295349,7.303668,-0.056550264
VPS54,-0.0889193,10.41764,-0.01683861,-0.07656467,-0.09045762,-0.052865,-0.043918777,6.881089,-0.056119766,-0.07652753,-0.044701375,6.998138,9.640343,-0.008961137,8.746416,-0.05640741
DDX54,-0.074413486,9.228836,-0.017114399,-0.068545856,-0.086539514,-0.05395071,-0.044768304,5.802842,-0.0604253,-0.071555264,-0.036282133,6.7819767,8.102119,-0.011243558,6.857151,-0.053976525
SH3BP4,-0.08866155,10.87055,-0.02017228,-0.07939204,-0.10168018,-0.059856515,-0.049604822,6.6546135,-0.06864518,-0.08459776,-0.043135107,7.807863,9.397663,-0.011789919,8.332783,-0.061894484
NUAK1,-0.07017645,8.705762,-0.016054833,-0.06421716,-0.081340685,-0.05078442,-0.042216394,5.524948,-0.05683222,-0.066844866,-0.03425088,6.377025,7.616914,-0.010663676,6.4019284,-0.051433306
CCDC141,-0.074212104,9.188265,-0.016924078,-0.06840403,-0.08651776,-0.0536881,-0.04426143,5.791483,-0.060192235,-0.071494594,-0.036084525,6.7582927,8.071577,-0.011418513,6.8349843,-0.05388363
PLSCR4,-0.07127922,8.835215,-0.016411781,-0.06539959,-0.082777336,-0.051710043,-0.04296489,5.599286,-0.057888754,-0.068098895,-0.034821887,6.5014176,7.7508936,-0.010692848,6.524022,-0.052111797
HOPX,-0.08245999,9.860676,-0.014125918,-0.08152427,-0.09464131,-0.0646498,-0.05513327,6.4205236,-0.068213694,-0.085429534,-0.037905037,7.3264365,9.83144,-0.016171357,7.7462173,-0.060897626
RPL17-C18ORF32,-0.08866155,10.87055,-0.02017228,-0.07939204,-0.10168018,-0.059856515,-0.049604822,6.6546135,-0.06864518,-0.08459776,-0.043135107,7.807863,9.397663,-0.011789919,8.332783,-0.061894484
FAM64A,-0.07065507,8.770676,-0.016253116,-0.064849466,-0.082024194,-0.0511844,-0.042727146,5.565732,-0.057436883,-0.06746376,-0.034487534,6.4404273,7.6985927,-0.010641844,6.470671,-0.051785305
CAP2,-0.08866155,10.87055,-0.02017228,-0.07939204,-0.10168018,-0.059856515,-0.049604822,6.6546135,-0.06864518,-0.08459776,-0.043135107,7.807863,9.397663,-0.011789919,8.332783,-0.061894484
TRPC4,-0.08866155,10.87055,-0.02017228,-0.07939204,-0.10168018,-0.059856515,-0.049604822,6.6546135,-0.06864518,-0.08459776,-0.043135107,7.807863,9.397663,-0.011789919,8.332783,-0.061894484
KIF16B,-0.08866155,10.87055,-0.02017228,-0.07939204,-0.10168018,-0.059856515,-0.049604822,6.6546135,-0.06864518,-0.08459776,-0.043135107,7.807863,9.397663,-0.011789919,8.332783,-0.061894484
PJA2,-0.071771316,8.902125,-0.016480425,-0.06590176,-0.08335291,-0.052000377,-0.04323682,5.631467,-0.058253538,-0.06865584,-0.035041112,6.541098,7.8077064,-0.010838618,6.578908,-0.052431893
UCK2,-0.06570256,8.1066675,-0.018223766,-0.061143078,-0.07425772,-0.05681668,-0.046674687,5.4457645,-0.05755011,-0.05921639,-0.040351562,6.5788355,7.3123403,-0.01359974,5.975118,-0.043578357
TP53,-0.059596565,7.4450264,-0.013419818,-0.05462661,-0.06942589,-0.043428883,-0.03595404,4.767956,-0.048619457,-0.05706532,-0.029256675,5.480668,6.5200787,-0.009265203,5.3609514,-0.04466404
DTL,-0.06933181,8.608981,-0.015872551,-0.06362654,-0.08060046,-0.0502465,-0.04182233,5.473854,-0.056365456,-0.06624753,-0.03386423,6.32966,7.550125,-0.010579272,6.331273,-0.0510049
ZNF238,-0.06480717,8.119722,-0.014685866,-0.059384,-0.07538359,-0.046894606,-0.039125614,5.1740694,-0.05257924,-0.06190612,-0.03197401,5.9208407,7.0905614,-0.009999479,5.8870697,-0.04805562
BTBD10,-0.07319382,9.058937,-0.016853955,-0.06722918,-0.08516319,-0.05298874,-0.043908264,5.720585,-0.05945458,-0.070150584,-0.035655547,6.67529,7.94656,-0.01102981,6.7180343,-0.05326464
TIMP3,-0.06992783,8.684913,-0.016009128,-0.06415241,-0.08113713,-0.05066077,-0.04224117,5.519738,-0.05679094,-0.06675549,-0.034131967,6.365619,7.621786,-0.010574942,6.394554,-0.051405635
RBM12,-0.08662963,10.189448,-0.023327017,-0.08365116,-0.09729314,-0.06396759,-0.042520344,6.0211353,-0.06505064,-0.088283405,-0.039749406,8.14611,9.117657,-0.00851302,8.738228,-0.054262187
POLR2I,-0.06565198,8.225133,-0.015051918,-0.05998184,-0.07649124,-0.047086954,-0.039561246,5.205591,-0.053202756,-0.0626384,-0.032256007,6.0267158,7.162121,-0.009934162,5.9874926,-0.048593715
TMEM177,-0.08854204,10.862791,-0.018102957,-0.075022355,-0.10578406,-0.056493763,-0.045655113,6.3158817,-0.06567382,-0.08434044,-0.043600664,7.962292,9.008554,-0.015508939,8.291275,-0.061062295
CEBPZ,-0.069407664,8.637222,-0.015921243,-0.063712664,-0.080604225,-0.05029272,-0.041960273,5.4915485,-0.05645418,-0.06631813,-0.03393597,6.327457,7.5713954,-0.010528166,6.350793,-0.05103563
KAT7,-0.071159035,8.835439,-0.01630721,-0.06525738,-0.0825229,-0.051456183,-0.042934995,5.5943747,-0.057696946,-0.06795054,-0.03477431,6.473829,7.744823,-0.010687388,6.511667,-0.052068736
ARL4A,-0.07748387,7.7281885,-0.012135281,-0.056172423,-0.07684836,-0.044586595,-0.03842253,4.9336004,-0.05556369,-0.06413224,-0.029716045,5.972352,6.517363,-0.0136504965,6.713023,-0.0585371
ERCC-00095,-0.08866155,10.87055,-0.02017228,-0.07939204,-0.10168018,-0.059856515,-0.049604822,6.6546135,-0.06864518,-0.08459776,-0.043135107,7.807863,9.397663,-0.011789919,8.332783,-0.061894484
NFYB,-0.06158155,7.7080183,-0.013952739,-0.05644632,-0.07186767,-0.04474915,-0.03712326,4.9044027,-0.05008543,-0.058981344,-0.030215915,5.6727204,6.738951,-0.009461757,5.570497,-0.045955062
LTA4H,-0.074212104,9.188265,-0.016924078,-0.06840403,-0.08651776,-0.0536881,-0.04426143,5.791483,-0.060192235,-0.071494594,-0.036084525,6.7582927,8.071577,-0.011418513,6.8349843,-0.05388363
NOC3L,-0.06642568,9.305707,-0.014892619,-0.062071845,-0.07192942,-0.043244213,-0.040553458,4.346201,-0.04469758,-0.07061283,-0.03805795,5.349891,6.5881553,-0.009591866,6.032791,-0.04195187
AKAP1,-0.07293696,9.015232,-0.01589524,-0.06375575,-0.090320446,-0.055285737,-0.041748174,6.1737194,-0.057301015,-0.07081036,-0.032139197,6.0242167,8.043856,-0.0053534815,6.0346575,-0.05910263
GDAP1,-0.08866155,10.87055,-0.02017228,-0.07939204,-0.10168018,-0.059856515,-0.049604822,6.6546135,-0.06864518,-0.08459776,-0.043135107,7.807863,9.397663,-0.011789919,8.332783,-0.061894484
SATB1,-0.069882765,8.693018,-0.014540158,-0.061049417,-0.08434479,-0.048335828,-0.03934354,5.2675047,-0.054648913,-0.066700116,-0.034601837,6.5003147,7.3422003,-0.013387229,6.371954,-0.050680816
PA2G4,-0.069016226,8.580874,-0.015754465,-0.06326785,-0.0800777,-0.049968462,-0.04165745,5.457446,-0.056008104,-0.065862246,-0.033764303,6.280618,7.515331,-0.010506864,6.2949038,-0.05082238
FBXO28,-0.068776816,8.357683,-0.012570109,-0.06873462,-0.08002206,-0.05643704,-0.04782974,5.522559,-0.058893774,-0.07080952,-0.032004137,6.32382,8.239157,-0.014058677,6.28405,-0.052507598
ERCC-00003,-0.08866155,10.87055,-0.02017228,-0.07939204,-0.10168018,-0.059856515,-0.049604822,6.6546135,-0.06864518,-0.08459776,-0.043135107,7.807863,9.397663,-0.011789919,8.332783,-0.061894484
NAGA,-0.06784206,8.4468775,-0.015425267,-0.062171515,-0.078752734,-0.049070105,-0.040990647,5.373596,-0.05508154,-0.06475637,-0.03320247,6.1784196,7.392285,-0.010428584,6.1796856,-0.05013109
ETV7,-0.08866155,10.87055,-0.02017228,-0.07939204,-0.10168018,-0.059856515,-0.049604822,6.6546135,-0.06864518,-0.08459776,-0.043135107,7.807863,9.397663,-0.011789919,8.332783,-0.061894484
MYBL2,-0.07149452,8.88341,-0.016539766,-0.065754585,-0.08307566,-0.051902074,-0.043370526,5.631975,-0.05830149,-0.06836144,-0.034935087,6.5320983,7.811647,-0.0106966,6.5715766,-0.052276984
SNAPC3,-0.07012943,8.705937,-0.016059376,-0.06428554,-0.08135731,-0.050807577,-0.042276915,5.524008,-0.056868013,-0.06693409,-0.034286253,6.3843207,7.626541,-0.010598887,6.405385,-0.05144743
STX6,-0.07328159,9.076051,-0.016671877,-0.06747028,-0.08536172,-0.053080067,-0.043699354,5.722022,-0.059497714,-0.070567705,-0.035563357,6.6813188,7.9757276,-0.011214101,6.7429347,-0.053535897
TCOF1,-0.06138991,7.675047,-0.014012914,-0.056329902,-0.07149944,-0.04484,-0.0370843,4.9078436,-0.05007146,-0.058742393,-0.030210387,5.6482663,6.719881,-0.009342467,5.5511723,-0.04566825
PLOD2,-0.08866155,10.87055,-0.02017228,-0.07939204,-0.10168018,-0.059856515,-0.049604822,6.6546135,-0.06864518,-0.08459776,-0.043135107,7.807863,9.397663,-0.011789919,8.332783,-0.061894484
HAND2,-0.06089978,7.602957,-0.013839952,-0.055956032,-0.07100082,-0.044337817,-0.03672471,4.8643494,-0.049651388,-0.058340877,-0.029887797,5.614489,6.6777606,-0.009375475,5.5136046,-0.045394056
MAFF,-0.075412944,9.346659,-0.017248217,-0.06948614,-0.08776195,-0.054511823,-0.045115203,5.8698473,-0.061175864,-0.07265555,-0.036657713,6.8551583,8.208188,-0.011443849,6.9634004,-0.054654498
CSRP2,-0.056317046,8.482328,-0.008369794,-0.054474168,-0.07223786,-0.036574006,-0.031654526,5.6542454,-0.050482757,-0.05793669,-0.029023204,4.9012103,8.059832,-0.015346968,6.6642427,-0.044805974
POLR2M,-0.070358194,8.73019,-0.016173905,-0.064529434,-0.08168741,-0.050933644,-0.04252288,5.5406647,-0.057188213,-0.06714755,-0.034350142,6.414846,7.6577573,-0.010632359,6.436291,-0.05157919
PDCD11,-0.07586769,9.4015,-0.017322255,-0.06997401,-0.08834584,-0.054817546,-0.045305904,5.8980885,-0.061490048,-0.07318702,-0.036854863,6.894096,8.261228,-0.011521365,7.0077376,-0.054918032
CCDC82,-0.075062945,9.294619,-0.017117862,-0.06920319,-0.087435186,-0.05426533,-0.044781268,5.8452406,-0.060859993,-0.07233687,-0.036487747,6.8258443,8.169017,-0.011458625,6.923786,-0.05439844
PAK1,-0.07545588,9.338921,-0.01720929,-0.069524296,-0.087719746,-0.054562796,-0.0450583,5.866254,-0.061162308,-0.072577186,-0.036589704,6.849164,8.204003,-0.011469341,6.9579444,-0.054627657
ZNF124,-0.08866155,10.87055,-0.02017228,-0.07939204,-0.10168018,-0.059856515,-0.049604822,6.6546135,-0.06864518,-0.08459776,-0.043135107,7.807863,9.397663,-0.011789919,8.332783,-0.061894484
PARN,-0.07422234,8.287953,-0.015569157,-0.059551224,-0.082488805,-0.044896424,-0.040521212,4.852291,-0.050570372,-0.059459005,-0.037129454,6.7618036,7.229545,-0.006644683,5.8128996,-0.055283766
TIPARP,-0.08866155,10.87055,-0.02017228,-0.07939204,-0.10168018,-0.059856515,-0.049604822,6.6546135,-0.06864518,-0.08459776,-0.043135107,7.807863,9.397663,-0.011789919,8.332783,-0.061894484
NT5DC3,-0.07586769,9.4015,-0.017322255,-0.06997401,-0.08834584,-0.054817546,-0.045305904,5.8980885,-0.061490048,-0.07318702,-0.036854863,6.894096,8.261228,-0.011521365,7.0077376,-0.054918032
NEK7,-0.07167516,8.888302,-0.016373299,-0.0659967,-0.083444,-0.05204461,-0.043007024,5.621052,-0.058286283,-0.06876267,-0.034928296,6.54047,7.7972064,-0.011065463,6.5678325,-0.052301053
EHD3,-0.07698572,9.520155,-0.01762086,-0.07087305,-0.089383274,-0.05543423,-0.046052184,5.957555,-0.062307607,-0.074146725,-0.037390303,6.9712853,8.37508,-0.01153381,7.136517,-0.05537587
PLK1,-0.06341229,8.541726,-0.017190838,-0.06411523,-0.07773205,-0.047651414,-0.042363886,5.411207,-0.05363684,-0.062054362,-0.030842891,6.798181,7.5716276,-0.013331309,6.7098627,-0.049697977
CER1,-0.08866155,10.87055,-0.02017228,-0.07939204,-0.10168018,-0.059856515,-0.049604822,6.6546135,-0.06864518,-0.08459776,-0.043135107,7.807863,9.397663,-0.011789919,8.332783,-0.061894484
LTBP1,-0.07161527,8.87778,-0.016419215,-0.06580634,-0.083241,-0.051932935,-0.043120865,5.6138067,-0.05815477,-0.068589605,-0.03493425,6.529367,7.7890306,-0.010878001,6.556867,-0.052342515
AMIGO2,-0.07012943,8.705937,-0.016059376,-0.06428554,-0.08135731,-0.050807577,-0.042276915,5.524008,-0.056868013,-0.06693409,-0.034286253,6.3843207,7.626541,-0.010598887,6.405385,-0.05144743
FBXO36,-0.07010305,8.706414,-0.016041024,-0.06427107,-0.08128076,-0.050727237,-0.042293616,5.5247087,-0.056817424,-0.066892706,-0.03426171,6.3769093,7.629692,-0.010589707,6.4057393,-0.05145944
SEC11C,-0.08866155,10.87055,-0.02017228,-0.07939204,-0.10168018,-0.059856515,-0.049604822,6.6546135,-0.06864518,-0.08459776,-0.043135107,7.807863,9.397663,-0.011789919,8.332783,-0.061894484
WEE1,-0.06930222,8.614332,-0.015820893,-0.06353882,-0.08037499,-0.050196704,-0.04182724,5.485469,-0.05622826,-0.06610021,-0.033909835,6.300139,7.550662,-0.010518936,6.3217525,-0.051022466
MAP3K2,-0.08866155,10.87055,-0.02017228,-0.07939204,-0.10168018,-0.059856515,-0.049604822,6.6546135,-0.06864518,-0.08459776,-0.043135107,7.807863,9.397663,-0.011789919,8.332783,-0.061894484
HIF3A,-0.07228141,8.96282,-0.01653524,-0.06650943,-0.084209755,-0.052458238,-0.043349016,5.6668844,-0.058778867,-0.069428764,-0.035268113,6.597488,7.8658776,-0.011069034,6.629229,-0.05274722
ACSS3,-0.060357645,7.5595393,-0.024151504,-0.05633374,-0.08685956,-0.037612323,-0.046131294,5.2284145,-0.05685997,-0.053975366,-0.022750981,7.549854,6.687793,-0.0062727067,6.4217234,-0.048812557
GOLGB1,-0.069853164,8.658739,-0.015890153,-0.06406583,-0.081264295,-0.050495487,-0.04174609,5.4813776,-0.056571484,-0.066906996,-0.03408265,6.380356,7.585618,-0.010739905,6.381238,-0.05127783
ASS1,-0.071969405,8.891457,-0.016496193,-0.065883584,-0.083559796,-0.05216941,-0.04312144,5.6288204,-0.05829115,-0.068676375,-0.035034884,6.554741,7.7976646,-0.010829946,6.571341,-0.052521795
FOXH1,-0.07437144,8.866828,-0.014899715,-0.06906863,-0.08357254,-0.051298194,-0.046006322,5.5965767,-0.06432686,-0.07421362,-0.03269837,6.674838,8.4874115,-0.01174471,7.134252,-0.05722682
SALL3,-0.06994407,8.694656,-0.016092945,-0.06432073,-0.081309155,-0.050891485,-0.04226046,5.5170116,-0.05689335,-0.06693378,-0.03422833,6.388405,7.625353,-0.010660852,6.4029336,-0.051349
SRGAP1,-0.05633269,8.48641,-0.00832346,-0.05442523,-0.07212954,-0.036592864,-0.03158629,5.658969,-0.050350588,-0.057891924,-0.029082334,4.88841,8.055167,-0.015305747,6.6576924,-0.044832297
PCDH10,-0.06809046,8.499466,-0.01570091,-0.06276234,-0.07920994,-0.04977549,-0.041255973,5.4181414,-0.055516865,-0.06517773,-0.03347694,6.232875,7.460138,-0.010406154,6.228777,-0.050121322
ZNF107,-0.08866155,10.87055,-0.02017228,-0.07939204,-0.10168018,-0.059856515,-0.049604822,6.6546135,-0.06864518,-0.08459776,-0.043135107,7.807863,9.397663,-0.011789919,8.332783,-0.061894484
PPT2,-0.07416509,9.183028,-0.016950075,-0.06832589,-0.086355716,-0.053725928,-0.044327248,5.7758884,-0.060151476,-0.0714076,-0.036044873,6.753957,8.068341,-0.011272075,6.825827,-0.05391099
AR,-0.063609265,7.9609675,-0.0144973425,-0.058229942,-0.07386151,-0.04603632,-0.03842908,5.0521517,-0.051524285,-0.060677942,-0.03134014,5.8265347,6.9438,-0.009750546,5.7699785,-0.047122028
ILF2,-0.07413553,9.17901,-0.016765682,-0.06847439,-0.086728916,-0.053697243,-0.043989763,5.739296,-0.059940714,-0.07185774,-0.0356951,6.7590504,8.105358,-0.0110973315,6.8368635,-0.054009523
LGR4,-0.06957335,8.649201,-0.015971065,-0.06393009,-0.080819234,-0.050557226,-0.042034592,5.4921436,-0.056555696,-0.06653043,-0.0340441,6.347693,7.583747,-0.010563405,6.3563724,-0.05110279
ODZ4,-0.073111966,9.063627,-0.016796768,-0.067244105,-0.08494253,-0.05308634,-0.043965124,5.686198,-0.0591954,-0.07022808,-0.03566017,6.6603575,7.935928,-0.010995867,6.6940837,-0.05320444
ARHGAP29,-0.08866155,10.87055,-0.02017228,-0.07939204,-0.10168018,-0.059856515,-0.049604822,6.6546135,-0.06864518,-0.08459776,-0.043135107,7.807863,9.397663,-0.011789919,8.332783,-0.061894484
ITM2A,-0.070712596,8.777611,-0.016082285,-0.06532,-0.082825765,-0.05147313,-0.04234304,5.5611706,-0.057575192,-0.068156786,-0.034510814,6.476081,7.7104177,-0.011284062,6.471467,-0.051687703
SH3PXD2A,-0.07262225,8.983426,-0.016675482,-0.06682897,-0.08450855,-0.052789696,-0.04352883,5.6651297,-0.058941476,-0.069753885,-0.035349634,6.622924,7.894729,-0.010980876,6.658976,-0.05291871
F3,-0.07142871,8.858653,-0.016415259,-0.06557157,-0.08293633,-0.051792648,-0.043052282,5.6108837,-0.057979573,-0.06828217,-0.034886334,6.5094934,7.771325,-0.010738251,6.5385866,-0.052236743
SYNE2,-0.07094021,8.811237,-0.01634066,-0.06524787,-0.08243845,-0.051573556,-0.04285528,5.577276,-0.05768638,-0.067925096,-0.034674242,6.476625,7.73227,-0.010701807,6.497818,-0.051913027
DCAF5,-0.06939372,8.644355,-0.016021533,-0.06396359,-0.08073175,-0.05066763,-0.04204837,5.4953766,-0.05660221,-0.06646623,-0.03402103,6.3522067,7.594602,-0.010549837,6.357843,-0.050953683
SNRPB,-0.078461304,9.740228,-0.018096216,-0.071861275,-0.08999669,-0.05514333,-0.0469852,6.0527287,-0.06287162,-0.07511453,-0.03820765,7.032544,8.503098,-0.011224979,7.2885547,-0.05604103
TRPA1,-0.08866155,10.87055,-0.02017228,-0.07939204,-0.10168018,-0.059856515,-0.049604822,6.6546135,-0.06864518,-0.08459776,-0.043135107,7.807863,9.397663,-0.011789919,8.332783,-0.061894484
METTL1,-0.08866155,10.87055,-0.02017228,-0.07939204,-0.10168018,-0.059856515,-0.049604822,6.6546135,-0.06864518,-0.08459776,-0.043135107,7.807863,9.397663,-0.011789919,8.332783,-0.061894484
PHC1,-0.06956636,8.643156,-0.015917342,-0.06383575,-0.08073394,-0.05028546,-0.042028535,5.4689198,-0.05645643,-0.066510074,-0.03394638,6.3448358,7.5783463,-0.010531234,6.3602705,-0.051078834
PAIP2B,-0.08866155,10.87055,-0.02017228,-0.07939204,-0.10168018,-0.059856515,-0.049604822,6.6546135,-0.06864518,-0.08459776,-0.043135107,7.807863,9.397663,-0.011789919,8.332783,-0.061894484
SNX16,-0.07489419,9.281106,-0.017127274,-0.06890802,-0.08704071,-0.0541508,-0.044904787,5.8311567,-0.060822435,-0.07203686,-0.0364003,6.811872,8.141255,-0.011345936,6.9077415,-0.054365147
SH3BGRL,-0.08866155,10.87055,-0.02017228,-0.07939204,-0.10168018,-0.059856515,-0.049604822,6.6546135,-0.06864518,-0.08459776,-0.043135107,7.807863,9.397663,-0.011789919,8.332783,-0.061894484
HOXB2,-0.07294977,9.030865,-0.016653933,-0.06724909,-0.08501662,-0.05299546,-0.043614533,5.682811,-0.05920226,-0.07030848,-0.035438813,6.646135,7.933313,-0.011154728,6.694362,-0.05311912
AIRE,-0.07334163,9.121235,-0.01715463,-0.067507125,-0.085394874,-0.053294644,-0.044142596,5.764721,-0.059829447,-0.070346974,-0.03596368,6.724839,7.986529,-0.010975765,6.766994,-0.053249896
ABLIM1,-0.07681046,7.6683273,-0.011917375,-0.055643585,-0.07632769,-0.04412779,-0.03788068,4.906513,-0.055130906,-0.06360671,-0.029424235,5.918559,6.450432,-0.01383939,6.648479,-0.05804836
NR3C1,-0.05044214,6.76052,-0.021766253,-0.05621412,-0.0604149,-0.050494354,-0.038399924,3.7021189,-0.04810076,-0.05503876,-0.024339255,4.821535,6.1138735,-0.003895161,4.6098385,-0.035161015
NBPF10,-0.08866155,10.87055,-0.02017228,-0.07939204,-0.10168018,-0.059856515,-0.049604822,6.6546135,-0.06864518,-0.08459776,-0.043135107,7.807863,9.397663,-0.011789919,8.332783,-0.061894484
SNX18,-0.07586769,9.4015,-0.017322255,-0.06997401,-0.08834584,-0.054817546,-0.045305904,5.8980885,-0.061490048,-0.07318702,-0.036854863,6.894096,8.261228,-0.011521365,7.0077376,-0.054918032
SULF2,-0.08866155,10.87055,-0.02017228,-0.07939204,-0.10168018,-0.059856515,-0.049604822,6.6546135,-0.06864518,-0.08459776,-0.043135107,7.807863,9.397663,-0.011789919,8.332783,-0.061894484
ZFP36L2,-0.074595265,9.250923,-0.017175196,-0.06864669,-0.08668351,-0.053982344,-0.04485897,5.8007593,-0.060463082,-0.07168076,-0.03636528,6.791584,8.106667,-0.011218941,6.865453,-0.054081745
C3orf14,-0.07168449,8.276691,-0.018914513,-0.06150011,-0.08075362,-0.045590542,-0.04487053,5.6420135,-0.058218233,-0.061255373,-0.033448495,6.1437697,6.99735,-0.010792942,6.395538,-0.048235193
C5orf42,-0.07012943,8.705937,-0.016059376,-0.06428554,-0.08135731,-0.050807577,-0.042276915,5.524008,-0.056868013,-0.06693409,-0.034286253,6.3843207,7.626541,-0.010598887,6.405385,-0.05144743
RABEPK,-0.074466854,9.23564,-0.017171409,-0.06851681,-0.086499795,-0.053895663,-0.044818863,5.78442,-0.06029765,-0.071524985,-0.03632527,6.781494,8.088495,-0.011157072,6.846153,-0.053970464
PHLPP1,-0.07138254,8.856261,-0.016276896,-0.06564869,-0.08313826,-0.05174121,-0.042788733,5.6008215,-0.058015473,-0.068555236,-0.03482634,6.516238,7.762212,-0.011048624,6.5418777,-0.052172557
TMEM39A,-0.08866155,10.87055,-0.02017228,-0.07939204,-0.10168018,-0.059856515,-0.049604822,6.6546135,-0.06864518,-0.08459776,-0.043135107,7.807863,9.397663,-0.011789919,8.332783,-0.061894484
NIF3L1,-0.068469875,8.519118,-0.015601614,-0.06265363,-0.07946171,-0.04936661,-0.041357413,5.407197,-0.055546775,-0.06529366,-0.033480484,6.2348075,7.4502563,-0.010458121,6.245413,-0.050472293
ERCC-00074,-0.08866155,10.87055,-0.02017228,-0.07939204,-0.10168018,-0.059856515,-0.049604822,6.6546135,-0.06864518,-0.08459776,-0.043135107,7.807863,9.397663,-0.011789919,8.332783,-0.061894484
NBPF15,-0.08866155,10.87055,-0.02017228,-0.07939204,-0.10168018,-0.059856515,-0.049604822,6.6546135,-0.06864518,-0.08459776,-0.043135107,7.807863,9.397663,-0.011789919,8.332783,-0.061894484
ANGPT2,-0.072585694,9.003037,-0.016665393,-0.06684914,-0.08467482,-0.052678473,-0.04362481,5.6828346,-0.05917505,-0.06980028,-0.035364456,6.6348047,7.900939,-0.011133117,6.670506,-0.052888565
TGFB1,-0.070809975,8.791315,-0.016264504,-0.064992584,-0.08218478,-0.051323686,-0.04278578,5.579877,-0.05752344,-0.06761564,-0.034597605,6.450657,7.715696,-0.010669309,6.4830894,-0.051893864
MPP6,-0.080273636,11.56646,-0.016090997,-0.0652235,-0.09852862,-0.054086756,-0.05497739,6.564378,-0.07182156,-0.07614198,-0.047205865,7.351216,9.095987,-0.008278299,7.288962,-0.05132776
ERCC-00076,-0.08866402,10.870904,-0.020174142,-0.07939557,-0.101678245,-0.05985451,-0.049607128,6.6548176,-0.06864538,-0.08459602,-0.043134164,7.8076015,9.397913,-0.011788229,8.332352,-0.06189516
HOXB6,-0.06990353,8.67511,-0.015969144,-0.06407893,-0.0811352,-0.050546825,-0.042058352,5.5078144,-0.056661528,-0.06674451,-0.03417032,6.3673034,7.6009045,-0.010638799,6.3851323,-0.051330283
WDR5,-0.08866155,10.87055,-0.02017228,-0.07939204,-0.10168018,-0.059856515,-0.049604822,6.6546135,-0.06864518,-0.08459776,-0.043135107,7.807863,9.397663,-0.011789919,8.332783,-0.061894484
GTF2H2D,-0.08866155,10.87055,-0.02017228,-0.07939204,-0.10168018,-0.059856515,-0.049604822,6.6546135,-0.06864518,-0.08459776,-0.043135107,7.807863,9.397663,-0.011789919,8.332783,-0.061894484
SYNC,-0.05897746,7.6611185,-0.015083907,-0.06756099,-0.08082631,-0.056505807,-0.034081254,6.073366,-0.056277703,-0.064199105,-0.03294408,6.4473214,6.993838,-0.017069327,5.525797,-0.04175413
RRAS2,-0.0718872,8.918086,-0.01562518,-0.06238696,-0.0887223,-0.05346622,-0.040813312,6.043146,-0.055878356,-0.06977667,-0.031518348,5.908232,7.928062,-0.004567241,5.951829,-0.058390982
SLC7A5,-0.08001896,7.9830885,-0.012580027,-0.058195986,-0.079454556,-0.046024054,-0.039621282,5.0487566,-0.05729666,-0.06655085,-0.03067102,6.1672473,6.726274,-0.014073776,6.9545703,-0.06007451
AFF1,-0.073627874,9.106373,-0.016803393,-0.06779292,-0.085696794,-0.05333097,-0.043980908,5.7291737,-0.05965948,-0.0708603,-0.03575525,6.6961794,7.997335,-0.011243634,6.762048,-0.0535424
CNTRL,-0.08854204,10.862791,-0.018102957,-0.075022355,-0.10578406,-0.056493763,-0.045655113,6.3158817,-0.06567382,-0.08434044,-0.043600664,7.962292,9.008554,-0.015508939,8.291275,-0.061062295
REL,-0.069919236,8.691967,-0.015958797,-0.064035766,-0.081103235,-0.05042506,-0.04209892,5.523325,-0.056660384,-0.06672477,-0.03412158,6.35281,7.6101727,-0.010588988,6.39677,-0.05140849
RUVBL2,-0.062405296,7.804847,-0.01411009,-0.05707754,-0.072500706,-0.04497978,-0.037678313,4.961481,-0.05061255,-0.059515785,-0.03068284,5.7266846,6.8215137,-0.00961821,5.6608815,-0.046308473
ELMO1,-0.07013542,8.7085495,-0.016056182,-0.064371996,-0.0814407,-0.050805297,-0.04233971,5.5257254,-0.056963876,-0.067021586,-0.034261487,6.3901596,7.636461,-0.010666984,6.4112816,-0.051470503
CIITA,-0.069227286,8.617624,-0.015853481,-0.06354239,-0.08043181,-0.050124627,-0.041808914,5.4830246,-0.05635107,-0.066187255,-0.03385354,6.3131986,7.549007,-0.010576301,6.336679,-0.050931063
TMOD1,-0.07012943,8.705937,-0.016059376,-0.06428554,-0.08135731,-0.050807577,-0.042276915,5.524008,-0.056868013,-0.06693409,-0.034286253,6.3843207,7.626541,-0.010598887,6.405385,-0.05144743
MCM5,-0.07380758,9.15685,-0.016970284,-0.06788328,-0.085768946,-0.05328484,-0.04439073,5.756727,-0.05985523,-0.07085178,-0.035969213,6.724684,8.028959,-0.01111371,6.7893295,-0.05365118
DOCK1,-0.08866155,10.87055,-0.02017228,-0.07939204,-0.10168018,-0.059856515,-0.049604822,6.6546135,-0.06864518,-0.08459776,-0.043135107,7.807863,9.397663,-0.011789919,8.332783,-0.061894484
COMMD3-BMI1,-0.074466854,9.23564,-0.017171409,-0.06851681,-0.086499795,-0.053895663,-0.044818863,5.78442,-0.06029765,-0.071524985,-0.03632527,6.781494,8.088495,-0.011157072,6.846153,-0.053970464
COL3A1,-0.06737237,8.388102,-0.015280554,-0.06182545,-0.07826897,-0.048851445,-0.040617656,5.349663,-0.05471066,-0.06438135,-0.032978702,6.141203,7.348788,-0.010429461,6.1328983,-0.049854092
PCDH17,-0.07359807,9.122526,-0.01679047,-0.06773945,-0.08560003,-0.05333542,-0.044087972,5.7530403,-0.059636477,-0.07070007,-0.03588973,6.6971245,8.007538,-0.011203728,6.757704,-0.053560514
EIF5A2,-0.07371877,9.143737,-0.01692668,-0.067863956,-0.08572883,-0.053394906,-0.044305485,5.7348013,-0.05968827,-0.07088734,-0.035934832,6.712899,8.009994,-0.011136787,6.7680197,-0.053545803
ETS1,-0.060213502,7.523414,-0.013590561,-0.05515671,-0.07020756,-0.043840457,-0.03632295,4.8195257,-0.04909928,-0.057581224,-0.029566018,5.5393705,6.5897465,-0.00934481,5.4274325,-0.04511073
YTHDF3,-0.06903396,8.600325,-0.015934616,-0.063682966,-0.080351815,-0.0504855,-0.04190885,5.4835043,-0.05637208,-0.066095784,-0.033885367,6.318371,7.5638175,-0.010517622,6.316844,-0.050706968
NHLH2,-0.06939406,8.638038,-0.014454996,-0.06062935,-0.08378255,-0.048014157,-0.039102443,5.2425528,-0.054347046,-0.06623033,-0.03435686,6.460533,7.296987,-0.013299573,6.32892,-0.050416656
RNF170,-0.071102194,8.820919,-0.016320055,-0.0652529,-0.08254752,-0.051527753,-0.042855013,5.5842257,-0.05768424,-0.06796041,-0.034727897,6.4791994,7.733194,-0.010725562,6.507117,-0.052019015
VEZT,-0.094394386,9.816144,-0.018100036,-0.0731837,-0.09092082,-0.057945978,-0.052068964,5.9686737,-0.065617785,-0.076176375,-0.038376372,7.136332,8.344978,-0.0023136528,7.8789644,-0.07037484
SLC46A3,-0.08866155,10.87055,-0.02017228,-0.07939204,-0.10168018,-0.059856515,-0.049604822,6.6546135,-0.06864518,-0.08459776,-0.043135107,7.807863,9.397663,-0.011789919,8.332783,-0.061894484
BNIP3,-0.07376331,9.139266,-0.016994098,-0.06783974,-0.085717306,-0.05347203,-0.044387322,5.750409,-0.059819493,-0.07075276,-0.03600445,6.724692,8.016674,-0.011063465,6.7746725,-0.05355219
SPPL2A,-0.08866155,10.87055,-0.02017228,-0.07939204,-0.10168018,-0.059856515,-0.049604822,6.6546135,-0.06864518,-0.08459776,-0.043135107,7.807863,9.397663,-0.011789919,8.332783,-0.061894484
MCC,-0.0709868,8.81206,-0.016282799,-0.06517461,-0.08243108,-0.051408004,-0.04286133,5.585204,-0.057704844,-0.067873605,-0.034639094,6.469178,7.734565,-0.010728483,6.5044003,-0.052005276
TRPS1,-0.07239893,8.980364,-0.016547846,-0.06663728,-0.08431268,-0.052479334,-0.043396898,5.6679516,-0.05880121,-0.06957277,-0.035300203,6.605237,7.8755465,-0.011120622,6.643693,-0.052819975
DMXL2,-0.07021103,8.7272625,-0.016139885,-0.064476825,-0.08147592,-0.050921123,-0.042503327,5.548889,-0.057089906,-0.06704003,-0.034275625,6.3952594,7.6656466,-0.01054483,6.431692,-0.05157844
GTF2H2,-0.08866155,10.87055,-0.02017228,-0.07939204,-0.10168018,-0.059856515,-0.049604822,6.6546135,-0.06864518,-0.08459776,-0.043135107,7.807863,9.397663,-0.011789919,8.332783,-0.061894484
PNRC1,-0.06705463,8.315395,-0.014532311,-0.05824748,-0.08291221,-0.050683163,-0.038590934,5.773058,-0.052778624,-0.064522915,-0.029776162,5.5453653,7.4039454,-0.0050974847,5.5012813,-0.055077434
TAF1L,-0.08866155,10.87055,-0.02017228,-0.07939204,-0.10168018,-0.059856515,-0.049604822,6.6546135,-0.06864518,-0.08459776,-0.043135107,7.807863,9.397663,-0.011789919,8.332783,-0.061894484
METTL13,-0.086892605,10.613937,-0.018808236,-0.073817536,-0.106003694,-0.061410792,-0.046175074,7.097822,-0.06511678,-0.083652645,-0.038383357,6.9351068,9.340414,-0.004978293,7.397137,-0.06775372
PARP1,-0.06301185,7.8701944,-0.014397414,-0.057786908,-0.0733869,-0.045716226,-0.037968747,5.0099573,-0.051153578,-0.060225762,-0.030951371,5.799121,6.894871,-0.009574834,5.7197075,-0.04678525
MRPS9,-0.08249378,9.854298,-0.014088848,-0.08156559,-0.09460512,-0.06469255,-0.05508738,6.4174356,-0.06818807,-0.08535152,-0.037852798,7.3188615,9.827215,-0.016213328,7.739781,-0.06088194
KDELR3,-0.07586769,9.4015,-0.017322255,-0.06997401,-0.08834584,-0.054817546,-0.045305904,5.8980885,-0.061490048,-0.07318702,-0.036854863,6.894096,8.261228,-0.011521365,7.0077376,-0.054918032
FBN1,-0.06312813,7.847132,-0.017641895,-0.059010066,-0.07143877,-0.05493106,-0.045325458,5.313754,-0.05568363,-0.056851465,-0.039064113,6.348761,7.094381,-0.013198624,5.7559524,-0.04206232
ZWILCH,-0.08866155,10.87055,-0.02017228,-0.07939204,-0.10168018,-0.059856515,-0.049604822,6.6546135,-0.06864518,-0.08459776,-0.043135107,7.807863,9.397663,-0.011789919,8.332783,-0.061894484
JMJD1C,-0.070808254,8.786046,-0.016260022,-0.06501773,-0.082241714,-0.051366966,-0.042781014,5.5797977,-0.057584003,-0.06764259,-0.034611147,6.453385,7.713018,-0.010718117,6.478631,-0.051868584
BAMBI,-0.0748856,9.282164,-0.01716181,-0.068921715,-0.08708298,-0.054144666,-0.04487574,5.835907,-0.06079958,-0.072041884,-0.03642195,6.8093634,8.146568,-0.011349727,6.9124913,-0.054343276
RGPD2,-0.08866155,10.87055,-0.02017228,-0.07939204,-0.10168018,-0.059856515,-0.049604822,6.6546135,-0.06864518,-0.08459776,-0.043135107,7.807863,9.397663,-0.011789919,8.332783,-0.061894484
ZNF516,-0.07320463,9.05286,-0.016932607,-0.06715876,-0.08512038,-0.05299339,-0.04390761,5.7197943,-0.059414856,-0.070034824,-0.035678897,6.6786127,7.9397492,-0.010892502,6.713953,-0.05326798
NFIC,-0.060762584,7.6003594,-0.013754713,-0.055705726,-0.07083819,-0.04431487,-0.036664806,4.860464,-0.04954861,-0.058163855,-0.029893707,5.590286,6.649335,-0.009394331,5.4817343,-0.04537322
TRIP13,-0.07451523,9.249521,-0.01717042,-0.06843919,-0.08651404,-0.05368758,-0.044791836,5.797556,-0.060290318,-0.0714896,-0.0363579,6.7797933,8.096793,-0.011075539,6.858727,-0.054013982
DKK4,-0.08866155,10.87055,-0.02017228,-0.07939204,-0.10168018,-0.059856515,-0.049604822,6.6546135,-0.06864518,-0.08459776,-0.043135107,7.807863,9.397663,-0.011789919,8.332783,-0.061894484
NCAPG,-0.08866155,10.87055,-0.02017228,-0.07939204,-0.10168018,-0.059856515,-0.049604822,6.6546135,-0.06864518,-0.08459776,-0.043135107,7.807863,9.397663,-0.011789919,8.332783,-0.061894484
IPO4,-0.07384486,9.147013,-0.017007913,-0.067900635,-0.08584003,-0.053495485,-0.04435832,5.7541,-0.059890736,-0.070864454,-0.0359981,6.728423,8.020775,-0.011098548,6.7840924,-0.05363589
PCDH7,-0.07381395,9.145281,-0.01691024,-0.06792657,-0.08595242,-0.05343937,-0.044222746,5.767538,-0.05995718,-0.070935436,-0.03594242,6.7237625,8.027933,-0.011226586,6.787555,-0.05368231
DNAAF2,-0.08866155,10.87055,-0.02017228,-0.07939204,-0.10168018,-0.059856515,-0.049604822,6.6546135,-0.06864518,-0.08459776,-0.043135107,7.807863,9.397663,-0.011789919,8.332783,-0.061894484
STK17B,-0.08866155,10.87055,-0.02017228,-0.07939204,-0.10168018,-0.059856515,-0.049604822,6.6546135,-0.06864518,-0.08459776,-0.043135107,7.807863,9.397663,-0.011789919,8.332783,-0.061894484
ELAVL2,-0.075380966,9.338353,-0.017232321,-0.06952038,-0.087801844,-0.05450906,-0.045022447,5.8497343,-0.061054204,-0.07271192,-0.036616635,6.8585305,8.202302,-0.011419664,6.9548335,-0.054577544
CIRH1A,-0.07111618,8.8228855,-0.016354717,-0.0652811,-0.08257597,-0.051529203,-0.042945154,5.583578,-0.057750355,-0.06796657,-0.03472922,6.484569,7.7371645,-0.010732835,6.510282,-0.0520131
NRIP1,-0.06822401,8.161156,-0.0135590965,-0.06303174,-0.07656153,-0.04693791,-0.042472232,5.2276354,-0.05922502,-0.067580156,-0.03012498,6.1365933,7.8002977,-0.010964491,6.495005,-0.053356912
KIF22,-0.07586769,9.4015,-0.017322255,-0.06997401,-0.08834584,-0.054817546,-0.045305904,5.8980885,-0.061490048,-0.07318702,-0.036854863,6.894096,8.261228,-0.011521365,7.0077376,-0.054918032
PDLIM3,-0.08866155,10.87055,-0.02017228,-0.07939204,-0.10168018,-0.059856515,-0.049604822,6.6546135,-0.06864518,-0.08459776,-0.043135107,7.807863,9.397663,-0.011789919,8.332783,-0.061894484
FOXJ1,-0.08866155,10.87055,-0.02017228,-0.07939204,-0.10168018,-0.059856515,-0.049604822,6.6546135,-0.06864518,-0.08459776,-0.043135107,7.807863,9.397663,-0.011789919,8.332783,-0.061894484
SNAI1,-0.06787467,8.453743,-0.015581012,-0.06213373,-0.07865338,-0.04908928,-0.040954128,5.3507957,-0.054835666,-0.06467845,-0.033309262,6.1927714,7.3881607,-0.0101165725,6.177949,-0.04997341
DLC1,-0.07191325,8.923823,-0.016585393,-0.066086255,-0.08349313,-0.052182157,-0.04346317,5.6352434,-0.058387417,-0.0688121,-0.03510784,6.556125,7.827945,-0.010773271,6.591174,-0.052501693
PTGR1,-0.07586769,9.4015,-0.017322255,-0.06997401,-0.08834584,-0.054817546,-0.045305904,5.8980885,-0.061490048,-0.07318702,-0.036854863,6.894096,8.261228,-0.011521365,7.0077376,-0.054918032
STT3B,-0.074110314,9.189522,-0.017018389,-0.068207175,-0.08617184,-0.053661432,-0.044504993,5.7686872,-0.060079798,-0.07123646,-0.036110584,6.7527,8.05582,-0.011190105,6.8144746,-0.05384335
PSIP1,-0.075679384,9.395677,-0.01738443,-0.069734454,-0.0881543,-0.054649103,-0.0453198,5.9137554,-0.06145537,-0.07283686,-0.0369168,6.876537,8.234234,-0.011504149,6.9839416,-0.05472255
RPP40,-0.07317284,9.063656,-0.016667498,-0.067293085,-0.08496438,-0.05308671,-0.04386434,5.732131,-0.05924838,-0.07004126,-0.035682794,6.6470423,7.9581423,-0.011128762,6.704831,-0.053274997
CLDN11,-0.08866155,10.87055,-0.02017228,-0.07939204,-0.10168018,-0.059856515,-0.049604822,6.6546135,-0.06864518,-0.08459776,-0.043135107,7.807863,9.397663,-0.011789919,8.332783,-0.061894484
IMP4,-0.074466854,9.23564,-0.017171409,-0.06851681,-0.086499795,-0.053895663,-0.044818863,5.78442,-0.06029765,-0.071524985,-0.03632527,6.781494,8.088495,-0.011157072,6.846153,-0.053970464
EPB41L3,-0.08866155,10.87055,-0.02017228,-0.07939204,-0.10168018,-0.059856515,-0.049604822,6.6546135,-0.06864518,-0.08459776,-0.043135107,7.807863,9.397663,-0.011789919,8.332783,-0.061894484
STK38L,-0.08866155,10.87055,-0.02017228,-0.07939204,-0.10168018,-0.059856515,-0.049604822,6.6546135,-0.06864518,-0.08459776,-0.043135107,7.807863,9.397663,-0.011789919,8.332783,-0.061894484
TTC39C,-0.08869534,10.864172,-0.020135207,-0.07943336,-0.10164399,-0.05989927,-0.049558938,6.6515255,-0.06861956,-0.084519744,-0.043082867,7.800288,9.393436,-0.01183189,8.326346,-0.061878785
UBL7,-0.072921544,9.054356,-0.016584288,-0.067156285,-0.085073516,-0.052818432,-0.0436781,5.731454,-0.059341926,-0.0701453,-0.035564184,6.646093,7.9542737,-0.01126617,6.702601,-0.053260736
CASD1,-0.08866155,10.87055,-0.02017228,-0.07939204,-0.10168018,-0.059856515,-0.049604822,6.6546135,-0.06864518,-0.08459776,-0.043135107,7.807863,9.397663,-0.011789919,8.332783,-0.061894484
C11orf82,-0.08866155,10.87055,-0.02017228,-0.07939204,-0.10168018,-0.059856515,-0.049604822,6.6546135,-0.06864518,-0.08459776,-0.043135107,7.807863,9.397663,-0.011789919,8.332783,-0.061894484
NOP2,-0.071504,8.877884,-0.01642464,-0.065632775,-0.08292997,-0.051733673,-0.04317998,5.6103973,-0.05795151,-0.06832914,-0.03493283,6.508334,7.780451,-0.010751274,6.5481277,-0.052278075
GCNT2,-0.08866402,10.870904,-0.020174142,-0.07939557,-0.101678245,-0.05985451,-0.049607128,6.6548176,-0.06864538,-0.08459602,-0.043134164,7.8076015,9.397913,-0.011788229,8.332352,-0.06189516
CUX1,-0.05921105,8.384414,-0.013081994,-0.05525507,-0.064294934,-0.03845193,-0.036082555,3.9084318,-0.039613876,-0.06320791,-0.03430494,4.7946854,5.880936,-0.008749098,5.314825,-0.03788931
DNMT3B,-0.07109029,8.838836,-0.016257992,-0.06521525,-0.08249719,-0.051256265,-0.042814244,5.579397,-0.057562437,-0.06801992,-0.034683343,6.4728317,7.7432055,-0.010668833,6.517088,-0.05208976
ETV1,-0.071687505,8.890835,-0.016431902,-0.06577553,-0.08317501,-0.051886067,-0.04315893,5.619831,-0.05806064,-0.06852237,-0.035027213,6.523181,7.7913265,-0.010814307,6.56179,-0.0523533
BBS4,-0.08771385,10.372776,-0.01755314,-0.07919279,-0.097450495,-0.05643033,-0.050545696,6.3851385,-0.0723928,-0.08668155,-0.038808875,7.623209,9.739437,-0.012282023,8.55788,-0.06494176
OTX2,-0.07007231,8.704106,-0.016113177,-0.06436957,-0.08139883,-0.050864514,-0.042385466,5.525382,-0.056977324,-0.06694592,-0.034247577,6.3935184,7.6394367,-0.010601083,6.4092975,-0.05140399
TCF19,-0.07449411,9.5437355,-0.018942297,-0.08354708,-0.10101399,-0.067083105,-0.039185334,7.354411,-0.06790148,-0.081135176,-0.041421004,7.889117,8.595175,-0.02000286,7.215181,-0.049574155
TAOK3,-0.07132065,8.845416,-0.01637755,-0.065465294,-0.08282113,-0.051706485,-0.04297104,5.6022606,-0.057906263,-0.06820014,-0.03481595,6.498206,7.7581487,-0.01075252,6.529672,-0.05217595
USP44,-0.06994231,8.681966,-0.016065175,-0.0641298,-0.08117522,-0.05062802,-0.042278793,5.515212,-0.056835435,-0.06671711,-0.034155145,6.3745165,7.6149206,-0.010566686,6.3941703,-0.051346228
PRICKLE1,-0.07056673,8.353353,-0.013295602,-0.062172994,-0.07219454,-0.04504541,-0.037674032,5.729891,-0.04654426,-0.060410336,-0.035667505,5.7223377,7.863316,-0.008287823,6.780016,-0.046999447
NXT2,-0.07349039,9.094174,-0.01693406,-0.067621425,-0.08553963,-0.053329628,-0.044104207,5.7395353,-0.059730086,-0.07054123,-0.035788253,6.702573,7.988174,-0.0110668,6.750066,-0.05343161
DNAJB14,-0.074075826,9.176832,-0.017044058,-0.06812615,-0.0861351,-0.05361029,-0.044473656,5.769743,-0.060066972,-0.071114175,-0.03609417,6.748769,8.045889,-0.011152104,6.808489,-0.053772885
CCDC80,-0.08866155,10.87055,-0.02017228,-0.07939204,-0.10168018,-0.059856515,-0.049604822,6.6546135,-0.06864518,-0.08459776,-0.043135107,7.807863,9.397663,-0.011789919,8.332783,-0.061894484
KIFAP3,-0.05873253,7.193603,-0.012059857,-0.06477054,-0.071075805,-0.050183993,-0.028709041,6.2135572,-0.04536741,-0.057267822,-0.033682402,5.7314177,7.162756,-0.014528786,5.8296757,-0.037220877
ERCC-00043,-0.08866155,10.87055,-0.02017228,-0.07939204,-0.10168018,-0.059856515,-0.049604822,6.6546135,-0.06864518,-0.08459776,-0.043135107,7.807863,9.397663,-0.011789919,8.332783,-0.061894484
POLR3G,-0.068062946,9.8157,-0.013935804,-0.05751736,-0.08435372,-0.04946922,-0.04912861,5.7457438,-0.06309184,-0.06509826,-0.0396259,6.437156,7.88496,-0.008445205,6.0506034,-0.04581646
NANOG,-0.06175136,7.711879,-0.014046472,-0.056610554,-0.07195196,-0.045032524,-0.037210636,4.9255304,-0.050249495,-0.059067305,-0.030294642,5.6792226,6.7560196,-0.009376089,5.5792828,-0.046067785
CDCA7L,-0.08866155,10.87055,-0.02017228,-0.07939204,-0.10168018,-0.059856515,-0.049604822,6.6546135,-0.06864518,-0.08459776,-0.043135107,7.807863,9.397663,-0.011789919,8.332783,-0.061894484
C18orf21,-0.08866155,10.87055,-0.02017228,-0.07939204,-0.10168018,-0.059856515,-0.049604822,6.6546135,-0.06864518,-0.08459776,-0.043135107,7.807863,9.397663,-0.011789919,8.332783,-0.061894484
AMN1,-0.07707446,7.6876183,-0.012063303,-0.055845633,-0.076416425,-0.04435419,-0.038234375,4.906952,-0.055236235,-0.063753776,-0.029581279,5.9417663,6.4791126,-0.0135922115,6.671528,-0.058254123
FYTTD1,-0.07586769,9.4015,-0.017322255,-0.06997401,-0.08834584,-0.054817546,-0.045305904,5.8980885,-0.061490048,-0.07318702,-0.036854863,6.894096,8.261228,-0.011521365,7.0077376,-0.054918032
AKAP2,-0.09486779,9.4704275,-0.015039953,-0.06785524,-0.09380489,-0.0510575,-0.043794885,5.8322773,-0.06529062,-0.079037584,-0.036814693,7.121248,7.8749485,-0.0150502585,8.453974,-0.06871768
DSE,-0.07021103,8.7272625,-0.016139885,-0.064476825,-0.08147592,-0.050921123,-0.042503327,5.548889,-0.057089906,-0.06704003,-0.034275625,6.3952594,7.6656466,-0.01054483,6.431692,-0.05157844
ERBB2IP,-0.070964806,8.801504,-0.016247993,-0.0651124,-0.082356766,-0.051373288,-0.042806014,5.5784016,-0.057584267,-0.06778692,-0.03463028,6.4601183,7.723272,-0.010742691,6.4941754,-0.051969018
TRIM22,-0.06110163,7.621978,-0.018254833,-0.054893732,-0.08420798,-0.043499153,-0.040462304,4.9317255,-0.05471896,-0.06001957,-0.025579982,6.7835903,6.902824,-0.002839884,5.554308,-0.051012523
NAP1L3,-0.08856837,10.859844,-0.018110603,-0.07500654,-0.10575822,-0.056475453,-0.045676526,6.3173523,-0.06569473,-0.08434896,-0.043614205,7.960838,9.008476,-0.015511931,8.291811,-0.061065804
SCG3,-0.06883821,8.5779085,-0.015888037,-0.06349385,-0.080119036,-0.05034953,-0.041797947,5.4718056,-0.05622358,-0.065896526,-0.033798262,6.301027,7.543092,-0.010495878,6.298189,-0.05059404
MLLT3,-0.06796859,8.2529545,-0.01237353,-0.06811213,-0.07940185,-0.05584921,-0.0471475,5.475667,-0.05843432,-0.07018038,-0.031507432,6.2697334,8.166403,-0.014060277,6.2259345,-0.052019827
RNPS1,-0.07072355,8.790003,-0.01611581,-0.06472804,-0.082033426,-0.05075729,-0.042666145,5.53423,-0.057249397,-0.06757922,-0.034453467,6.434404,7.6866665,-0.010679594,6.47594,-0.051799588
FAM89A,-0.08866155,10.87055,-0.02017228,-0.07939204,-0.10168018,-0.059856515,-0.049604822,6.6546135,-0.06864518,-0.08459776,-0.043135107,7.807863,9.397663,-0.011789919,8.332783,-0.061894484
CHN1,-0.075380966,9.338353,-0.017232321,-0.06952038,-0.087801844,-0.05450906,-0.045022447,5.8497343,-0.061054204,-0.07271192,-0.036616635,6.8585305,8.202302,-0.011419664,6.9548335,-0.054577544
NFXL1,-0.07081295,8.598639,-0.0128367795,-0.071052305,-0.082638614,-0.05803173,-0.049036358,5.6775446,-0.06070972,-0.07327804,-0.032800302,6.5061865,8.514854,-0.014637874,6.529817,-0.053847913
TADA1,-0.070285425,8.723596,-0.016119093,-0.0645306,-0.081672676,-0.05099688,-0.042380963,5.5345354,-0.057089634,-0.0671808,-0.034376755,6.410985,7.6454825,-0.010714209,6.4231424,-0.051484186
UNC13B,-0.08866155,10.87055,-0.02017228,-0.07939204,-0.10168018,-0.059856515,-0.049604822,6.6546135,-0.06864518,-0.08459776,-0.043135107,7.807863,9.397663,-0.011789919,8.332783,-0.061894484
GXYLT1,-0.065355346,8.129765,-0.019413615,-0.058962096,-0.09050478,-0.04629374,-0.04269551,5.1900196,-0.058370102,-0.06492691,-0.02712136,7.248949,7.3671327,-0.003097048,5.9911757,-0.053955458
ZFP90,-0.07591671,9.401318,-0.01731752,-0.06990271,-0.08832851,-0.05479341,-0.045242812,5.899069,-0.06145273,-0.07309401,-0.03681799,6.8864903,8.251191,-0.011588908,7.0041347,-0.054903306
BMP2,-0.070848905,8.804938,-0.016329603,-0.06519494,-0.08235159,-0.05154443,-0.04282149,5.5753145,-0.057660855,-0.067872025,-0.03463073,6.470541,7.7289767,-0.010683447,6.4922447,-0.051881425
MYOCD,-0.073111966,9.063627,-0.016796768,-0.067244105,-0.08494253,-0.05308634,-0.043965124,5.686198,-0.0591954,-0.07022808,-0.03566017,6.6603575,7.935928,-0.010995867,6.6940837,-0.05320444
PHF21A,-0.07586769,9.4015,-0.017322255,-0.06997401,-0.08834584,-0.054817546,-0.045305904,5.8980885,-0.061490048,-0.07318702,-0.036854863,6.894096,8.261228,-0.011521365,7.0077376,-0.054918032
CNKSR3,-0.07422653,9.195722,-0.01713289,-0.06850052,-0.08652445,-0.053978056,-0.0446778,5.804577,-0.060550638,-0.0714229,-0.036149435,6.7787075,8.093752,-0.011248944,6.845663,-0.05383185
PODXL,-0.073111966,9.063627,-0.016796768,-0.067244105,-0.08494253,-0.05308634,-0.043965124,5.686198,-0.0591954,-0.07022808,-0.03566017,6.6603575,7.935928,-0.010995867,6.6940837,-0.05320444
CDK6,-0.070835195,8.796528,-0.016295232,-0.06509244,-0.08230524,-0.051427025,-0.042777307,5.577511,-0.05759461,-0.067751236,-0.034639467,6.462188,7.7173457,-0.010724855,6.4856114,-0.05184849
MIB1,-0.07130811,8.847316,-0.016366651,-0.0654471,-0.08279211,-0.051663987,-0.042972893,5.6016083,-0.057860825,-0.06816359,-0.034834616,6.4969225,7.7566795,-0.010765642,6.529112,-0.05214722
PLEKHA6,-0.075380966,9.338353,-0.017232321,-0.06952038,-0.087801844,-0.05450906,-0.045022447,5.8497343,-0.061054204,-0.07271192,-0.036616635,6.8585305,8.202302,-0.011419664,6.9548335,-0.054577544
XRCC6,-0.07036212,8.756374,-0.016212659,-0.06461705,-0.08173102,-0.0509574,-0.042592738,5.55492,-0.05723254,-0.06721073,-0.034457963,6.4196696,7.677711,-0.010596249,6.4453034,-0.05158014
TCF7L1,-0.063808106,7.981987,-0.0144705735,-0.058389105,-0.07415316,-0.046029013,-0.038488574,5.0648556,-0.05168084,-0.060891174,-0.031349614,5.848012,6.973409,-0.009772335,5.800518,-0.047273602
BET1,-0.06963976,8.649272,-0.015900446,-0.06383642,-0.08072278,-0.050369285,-0.042018946,5.494544,-0.05643555,-0.06643177,-0.034014624,6.3301826,7.582131,-0.010550549,6.3590655,-0.051207002
DKK1,-0.06147235,7.684795,-0.0140169365,-0.05644284,-0.071711324,-0.044913948,-0.037101317,4.903907,-0.050056327,-0.05887338,-0.03023541,5.6658444,6.7318645,-0.009341713,5.547708,-0.045829065
TATDN1,-0.074760534,9.2692795,-0.01720131,-0.06883839,-0.08691242,-0.054100722,-0.04491361,5.806692,-0.06055549,-0.07189144,-0.036426395,6.8073964,8.125074,-0.011238746,6.8800282,-0.054169897
WDR12,-0.075380966,9.338353,-0.017232321,-0.06952038,-0.087801844,-0.05450906,-0.045022447,5.8497343,-0.061054204,-0.07271192,-0.036616635,6.8585305,8.202302,-0.011419664,6.9548335,-0.054577544
SEPHS1,-0.071038954,8.422404,-0.019508999,-0.07105472,-0.081116125,-0.056644037,-0.037187815,5.108947,-0.055967916,-0.0737694,-0.032389257,6.956785,7.679778,-0.008205901,7.0675287,-0.046182908
RCAN2,-0.073111966,9.063627,-0.016796768,-0.067244105,-0.08494253,-0.05308634,-0.043965124,5.686198,-0.0591954,-0.07022808,-0.03566017,6.6603575,7.935928,-0.010995867,6.6940837,-0.05320444
GSC,-0.070046835,8.716208,-0.016201355,-0.064514205,-0.08143489,-0.051084526,-0.042444024,5.535489,-0.057099037,-0.06703172,-0.034329887,6.4072604,7.6574664,-0.010588086,6.42129,-0.051327594
KLHL28,-0.074466854,9.23564,-0.017171409,-0.06851681,-0.086499795,-0.053895663,-0.044818863,5.78442,-0.06029765,-0.071524985,-0.03632527,6.781494,8.088495,-0.011157072,6.846153,-0.053970464
SRSF2,-0.07159832,8.891481,-0.016470756,-0.06571567,-0.08306883,-0.051729955,-0.043261457,5.6121454,-0.058092803,-0.068463705,-0.034925606,6.5229936,7.7914734,-0.010720781,6.561753,-0.052318595
APC,-0.07533913,7.5289845,-0.011745131,-0.054584995,-0.07469302,-0.043412875,-0.037445247,4.8354263,-0.054095767,-0.062250912,-0.02895219,5.805935,6.3509893,-0.013410707,6.5198298,-0.057236522
DYNC1I1,-0.0889193,10.41764,-0.01683861,-0.07656467,-0.09045762,-0.052865,-0.043918777,6.881089,-0.056119766,-0.07652753,-0.044701375,6.998138,9.640343,-0.008961137,8.746416,-0.05640741
MAN1A1,-0.07071044,8.77551,-0.016167605,-0.064901724,-0.082128815,-0.05119506,-0.04263209,5.565954,-0.057413645,-0.06759165,-0.034515712,6.439961,7.699817,-0.010758327,6.470196,-0.05184194
EGF,-0.07474264,9.277058,-0.017186489,-0.0690174,-0.08704078,-0.054284588,-0.04505076,5.853244,-0.0609558,-0.072038904,-0.036376175,6.8232775,8.179109,-0.011339543,6.9308324,-0.054186635
RRN3,-0.07589046,9.387419,-0.017267035,-0.06944289,-0.087916575,-0.054385986,-0.045022286,5.897109,-0.060919307,-0.072695136,-0.03706055,6.8489976,8.209623,-0.011353954,6.9894624,-0.054807946
PPM1H,-0.0714324,8.465979,-0.019745631,-0.07133101,-0.081305146,-0.056778997,-0.037465774,5.159195,-0.056245252,-0.07382552,-0.032641556,7.0016093,7.724447,-0.00807982,7.1257014,-0.04637366
AES,-0.06009647,7.5007467,-0.013594334,-0.055106167,-0.07008966,-0.043880846,-0.036271725,4.798915,-0.04901544,-0.05754437,-0.02946991,5.532783,6.5750875,-0.009220731,5.4053497,-0.04496743
NTS,-0.07316038,9.063446,-0.016792092,-0.0671737,-0.08492541,-0.0530625,-0.043902814,5.687166,-0.05915855,-0.07013622,-0.03562375,6.6528463,7.9260154,-0.011062577,6.690525,-0.053189896
GEMIN6,-0.08866155,10.87055,-0.02017228,-0.07939204,-0.10168018,-0.059856515,-0.049604822,6.6546135,-0.06864518,-0.08459776,-0.043135107,7.807863,9.397663,-0.011789919,8.332783,-0.061894484
LHX1,-0.07094934,8.804835,-0.016283225,-0.06509184,-0.08235449,-0.05141392,-0.04278062,5.5784893,-0.057586372,-0.06778821,-0.034671064,6.4645114,7.7174053,-0.010717424,6.4932427,-0.05194135
AHSA2,-0.07310968,9.59432,-0.031672716,-0.07964871,-0.08588134,-0.06851958,-0.051814474,4.9379807,-0.06614176,-0.07960154,-0.034911778,6.637685,8.555939,-0.0037743791,7.005448,-0.04657393
PGAP1,-0.07319382,9.058938,-0.016853955,-0.06722919,-0.08516319,-0.05298874,-0.043908272,5.720585,-0.05945458,-0.07015059,-0.035655547,6.67529,7.94656,-0.01102981,6.7180343,-0.053264644
POU2AF1,-0.07325128,9.074917,-0.016772995,-0.06734565,-0.08507671,-0.05314758,-0.04400623,5.6980343,-0.05934857,-0.07033066,-0.035690084,6.6725187,7.9471383,-0.011025558,6.7050447,-0.053332523
MAP4K3,-0.073347144,9.10667,-0.016806005,-0.06748887,-0.08545616,-0.053143643,-0.043871105,5.7478685,-0.05964808,-0.070551015,-0.035804316,6.6937957,7.9792767,-0.0112849055,6.754819,-0.05347206
ANXA3,-0.07021103,8.7272625,-0.016139885,-0.064476825,-0.08147592,-0.050921123,-0.042503327,5.548889,-0.057089906,-0.06704003,-0.034275625,6.3952594,7.6656466,-0.01054483,6.431692,-0.05157844
CLSTN2,-0.07310968,9.59432,-0.031672716,-0.07964871,-0.08588134,-0.06851958,-0.051814474,4.9379807,-0.06614176,-0.07960154,-0.034911778,6.637685,8.555939,-0.0037743791,7.005448,-0.04657393
SMAD6,-0.070045345,8.711892,-0.01612526,-0.06429147,-0.08144723,-0.050779037,-0.042307936,5.5345945,-0.056982707,-0.066915594,-0.03433327,6.3937497,7.6287374,-0.010628548,6.4053655,-0.05136511
FRMD6,-0.07586769,9.4015,-0.017322255,-0.06997401,-0.08834584,-0.054817546,-0.045305904,5.8980885,-0.061490048,-0.07318702,-0.036854863,6.894096,8.261228,-0.011521365,7.0077376,-0.054918032
ZCCHC24,-0.07193306,8.918401,-0.016495941,-0.06609059,-0.083607964,-0.05212458,-0.04325569,5.640895,-0.05839273,-0.068884894,-0.03509382,6.559187,7.8251295,-0.01090516,6.5956745,-0.052542295
DDHD2,-0.07012943,8.705937,-0.016059376,-0.06428554,-0.08135731,-0.050807577,-0.042276915,5.524008,-0.056868013,-0.06693409,-0.034286253,6.3843207,7.626541,-0.010598887,6.405385,-0.05144743
ADD2,-0.08866155,10.87055,-0.02017228,-0.07939204,-0.10168018,-0.059856515,-0.049604822,6.6546135,-0.06864518,-0.08459776,-0.043135107,7.807863,9.397663,-0.011789919,8.332783,-0.061894484
USP1,-0.062079284,7.736736,-0.01841206,-0.056002762,-0.08627771,-0.04422037,-0.040715,4.992317,-0.055737767,-0.061528604,-0.025909998,6.9239826,7.006755,-0.0032356586,5.6454086,-0.05173615
ERLEC1,-0.08866155,10.87055,-0.02017228,-0.07939204,-0.10168018,-0.059856515,-0.049604822,6.6546135,-0.06864518,-0.08459776,-0.043135107,7.807863,9.397663,-0.011789919,8.332783,-0.061894484
GALNT11,-0.07090096,8.795744,-0.016311051,-0.06506271,-0.082338676,-0.05133502,-0.042840414,5.576268,-0.05763713,-0.06771593,-0.034610268,6.4650707,7.71627,-0.010710756,6.4917574,-0.05189721
NOB1,-0.08866155,10.87055,-0.02017228,-0.07939204,-0.10168018,-0.059856515,-0.049604822,6.6546135,-0.06864518,-0.08459776,-0.043135107,7.807863,9.397663,-0.011789919,8.332783,-0.061894484
PDGFRA,-0.08866155,10.87055,-0.02017228,-0.07939204,-0.10168018,-0.059856515,-0.049604822,6.6546135,-0.06864518,-0.08459776,-0.043135107,7.807863,9.397663,-0.011789919,8.332783,-0.061894484
TBX3,-0.06971914,8.681028,-0.016111288,-0.06426436,-0.081124514,-0.050858296,-0.042311575,5.517173,-0.056875877,-0.06677063,-0.034134094,6.3802185,7.630153,-0.010555362,6.3900213,-0.05115199
SDCCAG8,-0.07476719,9.261744,-0.017140748,-0.06881084,-0.0869687,-0.05406241,-0.0447612,5.827901,-0.060645025,-0.071896754,-0.03634233,6.801052,8.134651,-0.011248761,6.8902993,-0.05429911
CDCA8,-0.08866155,10.87055,-0.02017228,-0.07939204,-0.10168018,-0.059856515,-0.049604822,6.6546135,-0.06864518,-0.08459776,-0.043135107,7.807863,9.397663,-0.011789919,8.332783,-0.061894484
B4GALT4,-0.07422653,9.195722,-0.01713289,-0.06850052,-0.08652445,-0.053978056,-0.0446778,5.804577,-0.060550638,-0.0714229,-0.036149435,6.7787075,8.093752,-0.011248944,6.845663,-0.05383185
NFKBIB,-0.06770215,8.469223,-0.015577908,-0.06198436,-0.07888768,-0.048710637,-0.040889874,5.3552103,-0.054993924,-0.06469457,-0.033210073,6.207715,7.3884683,-0.010199339,6.191375,-0.049895592
OIP5,-0.067202225,9.408612,-0.015128489,-0.062893815,-0.072873645,-0.043833394,-0.04106766,4.39192,-0.04535554,-0.07151504,-0.038481053,5.424245,6.672221,-0.0096978005,6.1168604,-0.042325873
KIAA0494,-0.08866155,10.87055,-0.02017228,-0.07939204,-0.10168018,-0.059856515,-0.049604822,6.6546135,-0.06864518,-0.08459776,-0.043135107,7.807863,9.397663,-0.011789919,8.332783,-0.061894484
LRRCC1,-0.07716358,9.479579,-0.02245972,-0.06734766,-0.10404154,-0.050533526,-0.04674968,5.8801584,-0.06523271,-0.07556318,-0.032488998,8.195988,8.419739,-0.0025757493,7.220909,-0.06084166
ZNF239,-0.08866155,10.87055,-0.02017228,-0.07939204,-0.10168018,-0.059856515,-0.049604822,6.6546135,-0.06864518,-0.08459776,-0.043135107,7.807863,9.397663,-0.011789919,8.332783,-0.061894484
SLC5A6,-0.08866155,10.87055,-0.02017228,-0.07939204,-0.10168018,-0.059856515,-0.049604822,6.6546135,-0.06864518,-0.08459776,-0.043135107,7.807863,9.397663,-0.011789919,8.332783,-0.061894484
MCM10,-0.07182485,8.918065,-0.016544562,-0.065995574,-0.08342223,-0.05197514,-0.043385386,5.6400156,-0.058379687,-0.06872386,-0.035071824,6.5472465,7.8209214,-0.010850026,6.589697,-0.05245107
SOX17,-0.060040243,7.510971,-0.013579087,-0.055075295,-0.07010427,-0.04379292,-0.036173828,4.7862005,-0.04889739,-0.057568993,-0.02947726,5.544906,6.5764766,-0.00927623,5.415199,-0.044925727
MBIP,-0.08866155,10.87055,-0.02017228,-0.07939204,-0.10168018,-0.059856515,-0.049604822,6.6546135,-0.06864518,-0.08459776,-0.043135107,7.807863,9.397663,-0.011789919,8.332783,-0.061894484
SMAD5,-0.07187077,8.928884,-0.016525995,-0.06607399,-0.08351862,-0.052066393,-0.04334718,5.659004,-0.058424722,-0.06877337,-0.03512438,6.5510044,7.8376617,-0.010866191,6.600602,-0.052543726
MLF1IP,-0.08866155,10.87055,-0.02017228,-0.07939204,-0.10168018,-0.059856515,-0.049604822,6.6546135,-0.06864518,-0.08459776,-0.043135107,7.807863,9.397663,-0.011789919,8.332783,-0.061894484
THAP9,-0.08866155,10.87055,-0.02017228,-0.07939204,-0.10168018,-0.059856515,-0.049604822,6.6546135,-0.06864518,-0.08459776,-0.043135107,7.807863,9.397663,-0.011789919,8.332783,-0.061894484
E2F3,-0.06290007,7.8753285,-0.01426486,-0.05753243,-0.07309549,-0.045478854,-0.037977666,5.0056295,-0.051038727,-0.060065217,-0.030928906,5.757285,6.86696,-0.009648808,5.6972065,-0.04675094
NHSL1,-0.07036724,8.753283,-0.016206788,-0.06478278,-0.081773564,-0.05126555,-0.04255671,5.5449276,-0.05728684,-0.06738962,-0.03441715,6.4292703,7.6772223,-0.010646344,6.439392,-0.051552452
NLGN4X,-0.08866155,10.87055,-0.02017228,-0.07939204,-0.10168018,-0.059856515,-0.049604822,6.6546135,-0.06864518,-0.08459776,-0.043135107,7.807863,9.397663,-0.011789919,8.332783,-0.061894484
TBX20,-0.0748856,9.282164,-0.01716181,-0.068921715,-0.08708298,-0.054144666,-0.04487574,5.835907,-0.06079958,-0.072041884,-0.03642195,6.8093634,8.146568,-0.011349727,6.9124913,-0.054343276
DEK,-0.07164765,8.900335,-0.016444182,-0.06568631,-0.08315002,-0.051715687,-0.04313374,5.6142006,-0.058048077,-0.06854215,-0.034985166,6.525803,7.791948,-0.010728285,6.5699363,-0.052349627
EPHB2,-0.0702216,8.7129135,-0.01609391,-0.06437526,-0.08151405,-0.050943546,-0.042291317,5.5284758,-0.05697697,-0.06706481,-0.034309324,6.3958683,7.6325893,-0.010572318,6.406913,-0.05153374
NUP54,-0.08866155,10.87055,-0.02017228,-0.07939204,-0.10168018,-0.059856515,-0.049604822,6.6546135,-0.06864518,-0.08459776,-0.043135107,7.807863,9.397663,-0.011789919,8.332783,-0.061894484
ERCC-00002,-0.08866155,10.87055,-0.02017228,-0.07939204,-0.10168018,-0.059856515,-0.049604822,6.6546135,-0.06864518,-0.08459776,-0.043135107,7.807863,9.397663,-0.011789919,8.332783,-0.061894484
TRIB1,-0.07191541,8.917414,-0.01651,-0.06601643,-0.083519116,-0.052102145,-0.04332167,5.6449003,-0.0583746,-0.06875828,-0.035116687,6.552301,7.822348,-0.010852512,6.5906916,-0.0525246
MBOAT1,-0.08866155,10.87055,-0.02017228,-0.07939204,-0.10168018,-0.059856515,-0.049604822,6.6546135,-0.06864518,-0.08459776,-0.043135107,7.807863,9.397663,-0.011789919,8.332783,-0.061894484
ARNT2,-0.07279309,9.002273,-0.01671012,-0.06696585,-0.08468813,-0.052886724,-0.043679975,5.6892014,-0.059118547,-0.06983679,-0.03546979,6.6413317,7.9160495,-0.010984802,6.6753435,-0.053012863
RAD51,-0.06997039,8.701086,-0.01608734,-0.06423169,-0.08119537,-0.050691042,-0.04234924,5.525072,-0.05685778,-0.06679143,-0.03421623,6.3763347,7.632695,-0.010548602,6.404446,-0.0513698
ERCC-00162,-0.08866155,10.87055,-0.02017228,-0.07939204,-0.10168018,-0.059856515,-0.049604822,6.6546135,-0.06864518,-0.08459776,-0.043135107,7.807863,9.397663,-0.011789919,8.332783,-0.061894484
PPAT,-0.07012943,8.705937,-0.016059376,-0.06428554,-0.08135731,-0.050807577,-0.042276915,5.524008,-0.056868013,-0.06693409,-0.034286253,6.3843207,7.626541,-0.010598887,6.405385,-0.05144743
MYOF,-0.070938714,8.800124,-0.016288212,-0.065086655,-0.08237165,-0.051413104,-0.042785704,5.579342,-0.057620194,-0.0677722,-0.034660097,6.465452,7.7159157,-0.01072636,6.4915586,-0.051921744
CA12,-0.06938658,8.639373,-0.015782833,-0.063851476,-0.08105984,-0.05045391,-0.04160097,5.459655,-0.056519974,-0.06678436,-0.03394112,6.350533,7.5435433,-0.010894739,6.32979,-0.050929096
ZNF146,-0.08866155,10.87055,-0.02017228,-0.07939204,-0.10168018,-0.059856515,-0.049604822,6.6546135,-0.06864518,-0.08459776,-0.043135107,7.807863,9.397663,-0.011789919,8.332783,-0.061894484
KIF23,-0.08866155,10.87055,-0.02017228,-0.07939204,-0.10168018,-0.059856515,-0.049604822,6.6546135,-0.06864518,-0.08459776,-0.043135107,7.807863,9.397663,-0.011789919,8.332783,-0.061894484
TFB2M,-0.074466854,9.23564,-0.017171409,-0.06851681,-0.086499795,-0.053895663,-0.044818863,5.78442,-0.06029765,-0.071524985,-0.03632527,6.781494,8.088495,-0.011157072,6.846153,-0.053970464
SIX6,-0.070281535,8.73293,-0.016124822,-0.06457159,-0.081660606,-0.050966777,-0.042410396,5.537117,-0.05709228,-0.0672338,-0.034316495,6.410266,7.6598115,-0.010670521,6.4335723,-0.051565282
COL5A1,-0.07064902,8.764456,-0.016204642,-0.064825684,-0.08202506,-0.05123592,-0.042582095,5.5548897,-0.05733806,-0.06751428,-0.034522224,6.4370275,7.6822553,-0.010687789,6.4573617,-0.051741727
POP5,-0.08866155,10.87055,-0.02017228,-0.07939204,-0.10168018,-0.059856515,-0.049604822,6.6546135,-0.06864518,-0.08459776,-0.043135107,7.807863,9.397663,-0.011789919,8.332783,-0.061894484
BARX2,-0.08866155,10.87055,-0.02017228,-0.07939204,-0.10168018,-0.059856515,-0.049604822,6.6546135,-0.06864518,-0.08459776,-0.043135107,7.807863,9.397663,-0.011789919,8.332783,-0.061894484
PABPC4L,-0.08866155,10.87055,-0.02017228,-0.07939204,-0.10168018,-0.059856515,-0.049604822,6.6546135,-0.06864518,-0.08459776,-0.043135107,7.807863,9.397663,-0.011789919,8.332783,-0.061894484
KIAA1467,-0.088676825,10.868162,-0.020166513,-0.07939141,-0.1016689,-0.059871323,-0.04958598,6.6536627,-0.068659134,-0.08459038,-0.04310932,7.809318,9.397345,-0.011771487,8.333532,-0.061878126
CEP112,-0.0730262,9.036239,-0.01663864,-0.06725159,-0.08507182,-0.053013448,-0.04371173,5.709671,-0.059374385,-0.0702267,-0.035521947,6.6556654,7.947715,-0.01121283,6.70332,-0.053226884
NUCB2,-0.07586769,9.4015,-0.017322255,-0.06997401,-0.08834584,-0.054817546,-0.045305904,5.8980885,-0.061490048,-0.07318702,-0.036854863,6.894096,8.261228,-0.011521365,7.0077376,-0.054918032
MAPK10,-0.07204061,8.94023,-0.016579248,-0.0662383,-0.08373333,-0.05228986,-0.043505073,5.665045,-0.058615826,-0.06897082,-0.035168808,6.5681925,7.8532386,-0.01086343,6.6109047,-0.052622426
ALPK2,-0.072921544,9.054356,-0.016584288,-0.067156285,-0.085073516,-0.052818432,-0.0436781,5.731454,-0.059341926,-0.0701453,-0.035564184,6.646093,7.9542737,-0.01126617,6.702601,-0.053260736
HIST1H1B,-0.060220297,7.5489902,-0.017997308,-0.05439454,-0.0833272,-0.0430691,-0.039898984,4.88912,-0.054231837,-0.059569176,-0.025144627,6.7174444,6.8434076,-0.0029597136,5.504965,-0.050449923
RAD54L,-0.06658476,7.974419,-0.013103877,-0.061659858,-0.07475381,-0.04600406,-0.041399583,5.1257114,-0.057825178,-0.06611312,-0.02938332,5.987743,7.632826,-0.010838432,6.319969,-0.052386574
ZSWIM6,-0.07212753,8.941276,-0.016579205,-0.066225454,-0.08381269,-0.052253082,-0.043376684,5.6412554,-0.05845653,-0.06908072,-0.03515133,6.5691037,7.8414803,-0.010898279,6.6091733,-0.052624848
WDR35,-0.074466854,9.23564,-0.017171409,-0.06851681,-0.086499795,-0.053895663,-0.044818863,5.78442,-0.06029765,-0.071524985,-0.03632527,6.781494,8.088495,-0.011157072,6.846153,-0.053970464
GPC4,-0.072921544,9.054356,-0.016584288,-0.067156285,-0.085073516,-0.052818432,-0.0436781,5.731454,-0.059341926,-0.0701453,-0.035564184,6.646093,7.9542737,-0.01126617,6.702601,-0.053260736
NBEAL1,-0.08866155,10.87055,-0.02017228,-0.07939204,-0.10168018,-0.059856515,-0.049604822,6.6546135,-0.06864518,-0.08459776,-0.043135107,7.807863,9.397663,-0.011789919,8.332783,-0.061894484
ERCC-00145,-0.08866155,10.87055,-0.02017228,-0.07939204,-0.10168018,-0.059856515,-0.049604822,6.6546135,-0.06864518,-0.08459776,-0.043135107,7.807863,9.397663,-0.011789919,8.332783,-0.061894484
NUFIP1,-0.08866155,10.87055,-0.02017228,-0.07939204,-0.10168018,-0.059856515,-0.049604822,6.6546135,-0.06864518,-0.08459776,-0.043135107,7.807863,9.397663,-0.011789919,8.332783,-0.061894484
POU3F1,-0.063088946,7.893899,-0.014339409,-0.057759225,-0.07333599,-0.04568551,-0.038123064,5.0343647,-0.05125257,-0.06016789,-0.031081859,5.7811303,6.901102,-0.009751571,5.7272024,-0.046887506
SLC18B1,-0.08647987,10.166337,-0.010958673,-0.053686704,-0.09065334,-0.045287736,-0.04916745,5.7420406,-0.068467,-0.07058182,-0.040885456,6.6646,7.5732727,-0.011538639,7.410153,-0.058150962
C12orf23,-0.07012943,8.705937,-0.016059376,-0.06428554,-0.08135731,-0.050807577,-0.042276915,5.524008,-0.056868013,-0.06693409,-0.034286253,6.3843207,7.626541,-0.010598887,6.405385,-0.05144743
GTF3C4,-0.0742418,8.566284,-0.019739674,-0.06379629,-0.08371854,-0.0472889,-0.046476994,5.7992153,-0.06029382,-0.06360062,-0.034674916,6.3801775,7.2366395,-0.011051704,6.6483817,-0.049522717
POLR2G,-0.06479086,8.121666,-0.014800741,-0.059213333,-0.07546184,-0.04654788,-0.039094605,5.138235,-0.052527588,-0.061842255,-0.03184848,5.94872,7.0716176,-0.009895722,5.90417,-0.04797542
SFRP1,-0.072059065,8.929844,-0.016424676,-0.06617824,-0.08385473,-0.052199204,-0.043150257,5.647434,-0.058567103,-0.06915032,-0.035070777,6.571077,7.8346677,-0.011049665,6.609863,-0.052791566
RBM24,-0.075380966,9.338353,-0.017232321,-0.06952038,-0.087801844,-0.05450906,-0.045022447,5.8497343,-0.061054204,-0.07271192,-0.036616635,6.8585305,8.202302,-0.011419664,6.9548335,-0.054577544
ST3GAL6,-0.07398072,9.161181,-0.017048856,-0.06804251,-0.0860237,-0.05355519,-0.044501442,5.7799807,-0.06013098,-0.07091772,-0.0360282,6.7430425,8.045928,-0.011145189,6.8099575,-0.053722434
PMAIP1,-0.060531735,7.552547,-0.017975837,-0.054246686,-0.08328985,-0.04294232,-0.039980333,4.88476,-0.054028466,-0.059362132,-0.025390133,6.7043076,6.825167,-0.0028450643,5.4834704,-0.050611667
IGSF3,-0.06825638,8.094143,-0.018953493,-0.06810996,-0.07741225,-0.05449646,-0.03589479,4.9524126,-0.05363196,-0.07034671,-0.03126369,6.697887,7.376483,-0.007589557,6.7788525,-0.04454121
FBXO34,-0.08871893,10.870337,-0.020166738,-0.07930859,-0.101659894,-0.059828255,-0.049530976,6.6557617,-0.068601504,-0.08448888,-0.043091945,7.798961,9.385916,-0.011868977,8.328566,-0.06187724
PGM1,-0.08864996,10.866666,-0.020193411,-0.07933082,-0.10170407,-0.05980126,-0.04955996,6.6526127,-0.068604745,-0.0845803,-0.04306345,7.8013005,9.398973,-0.011806685,8.334734,-0.061887342
TMEM64,-0.07012412,8.707655,-0.016033126,-0.06428608,-0.08132979,-0.050815925,-0.042262204,5.524062,-0.05687815,-0.06691749,-0.03426008,6.3842263,7.6240983,-0.01062285,6.402528,-0.05144395
DUSP10,-0.07165379,8.2796755,-0.018950423,-0.061568193,-0.08089744,-0.045657557,-0.044897698,5.632187,-0.05832064,-0.061388467,-0.0334699,6.162705,6.9956326,-0.01084111,6.3942666,-0.048168916
ID1,-0.066262476,9.553151,-0.013558443,-0.055956125,-0.08202798,-0.04826785,-0.047773674,5.6232176,-0.061428923,-0.063227385,-0.03861779,6.2662416,7.6729465,-0.008258687,5.8630047,-0.044851936
ERCC-00130,-0.08866155,10.87055,-0.02017228,-0.07939204,-0.10168018,-0.059856515,-0.049604822,6.6546135,-0.06864518,-0.08459776,-0.043135107,7.807863,9.397663,-0.011789919,8.332783,-0.061894484
SFRP2,-0.07356624,9.1154175,-0.016844045,-0.06771339,-0.08556284,-0.05337026,-0.04409891,5.7311697,-0.05962566,-0.070737064,-0.035841923,6.6977077,7.993681,-0.011139649,6.7482524,-0.053526588
CSPP1,-0.07012943,8.705937,-0.016059376,-0.06428554,-0.08135731,-0.050807577,-0.042276915,5.524008,-0.056868013,-0.06693409,-0.034286253,6.3843207,7.626541,-0.010598887,6.405385,-0.05144743
DSCAM,-0.06704784,9.662386,-0.013647744,-0.05668405,-0.08325467,-0.04882908,-0.048313316,5.6907196,-0.06228935,-0.064104654,-0.03905362,6.3522377,7.779205,-0.008455026,5.9517684,-0.045309313
STEAP1B,-0.08866155,10.87055,-0.02017228,-0.07939204,-0.10168018,-0.059856515,-0.049604822,6.6546135,-0.06864518,-0.08459776,-0.043135107,7.807863,9.397663,-0.011789919,8.332783,-0.061894484
TIMM21,-0.08866155,10.87055,-0.02017228,-0.07939204,-0.10168018,-0.059856515,-0.049604822,6.6546135,-0.06864518,-0.08459776,-0.043135107,7.807863,9.397663,-0.011789919,8.332783,-0.061894484
DKK3,-0.072789595,9.021297,-0.016680019,-0.06696072,-0.08461636,-0.052822635,-0.04370366,5.671871,-0.05899624,-0.06998319,-0.03548616,6.6318855,7.9069858,-0.011037036,6.6665225,-0.053033
SERPINB6,-0.08866155,10.87055,-0.02017228,-0.07939204,-0.10168018,-0.059856515,-0.049604822,6.6546135,-0.06864518,-0.08459776,-0.043135107,7.807863,9.397663,-0.011789919,8.332783,-0.061894484
MLLT6,-0.070934795,8.80155,-0.016299859,-0.065097295,-0.0823472,-0.051420692,-0.042775705,5.576686,-0.057570424,-0.067773245,-0.034673937,6.464937,7.715834,-0.010708338,6.4911118,-0.051898208
C4orf46,-0.086892605,10.613937,-0.018808236,-0.073817536,-0.106003694,-0.061410792,-0.046175074,7.097822,-0.06511678,-0.083652645,-0.038383357,6.9351068,9.340414,-0.004978293,7.397137,-0.06775372
KHSRP,-0.0694338,8.589486,-0.015136201,-0.060462072,-0.08584208,-0.05263312,-0.039946746,5.935668,-0.05460242,-0.0669779,-0.030733664,5.738769,7.667418,-0.0050762356,5.712327,-0.056731567
ZNF8,-0.07426153,9.199169,-0.017059857,-0.06832233,-0.08628517,-0.053759918,-0.04463581,5.7858496,-0.06023715,-0.071287215,-0.0362035,6.7612114,8.07323,-0.011194271,6.827366,-0.05391753
RNF13,-0.07012943,8.705937,-0.016059376,-0.06428554,-0.08135731,-0.050807577,-0.042276915,5.524008,-0.056868013,-0.06693409,-0.034286253,6.3843207,7.626541,-0.010598887,6.405385,-0.05144743
ARHGAP28,-0.08866155,10.87055,-0.02017228,-0.07939204,-0.10168018,-0.059856515,-0.049604822,6.6546135,-0.06864518,-0.08459776,-0.043135107,7.807863,9.397663,-0.011789919,8.332783,-0.061894484
DACH1,-0.075161934,9.313604,-0.017204093,-0.06924918,-0.087475814,-0.05434914,-0.044968028,5.8446684,-0.060950458,-0.07240484,-0.03653217,6.8366637,8.177429,-0.011388598,6.9362383,-0.054480057
GATA6,-0.06948414,8.654975,-0.016016262,-0.06405214,-0.08087015,-0.050694287,-0.042024016,5.503091,-0.056669425,-0.066616625,-0.034051135,6.3563533,7.598042,-0.010603463,6.3627152,-0.05103689
ZEB1,-0.070239745,8.729371,-0.016142977,-0.064470105,-0.0816286,-0.050889976,-0.042363755,5.543579,-0.057119787,-0.06711491,-0.03441765,6.4122453,7.647295,-0.010701049,6.4287205,-0.05146715
TMEM48,-0.07318242,9.060246,-0.016761465,-0.06727594,-0.08515876,-0.05294574,-0.043907814,5.7208977,-0.059499938,-0.07027677,-0.035629436,6.667169,7.9521294,-0.011192355,6.721567,-0.053242154
BEX2,-0.074212104,9.188265,-0.016924078,-0.06840403,-0.08651776,-0.0536881,-0.04426143,5.791483,-0.060192235,-0.071494594,-0.036084525,6.7582927,8.071577,-0.011418513,6.8349843,-0.05388363
CDC14B,-0.07082606,8.799243,-0.016308798,-0.06505954,-0.08221181,-0.051367905,-0.042877946,5.586385,-0.05760835,-0.06765807,-0.034572147,6.455312,7.7297935,-0.010628093,6.4950547,-0.051934846
TRIM25,-0.070022784,8.511959,-0.012838559,-0.07004477,-0.08145571,-0.05733055,-0.048780568,5.6166697,-0.05998845,-0.07212104,-0.032577377,6.436501,8.399342,-0.0142968325,6.425817,-0.053256113
ZHX3,-0.07378419,9.135266,-0.016968025,-0.067680195,-0.08563622,-0.053219862,-0.044354904,5.7603216,-0.059803613,-0.07053993,-0.035920344,6.7122936,8.009964,-0.011062291,6.7828455,-0.053651422
KRCC1,-0.07455955,9.236644,-0.016992044,-0.06870359,-0.08683359,-0.053936776,-0.044491604,5.8097334,-0.060481176,-0.071849406,-0.03620613,6.78666,8.11631,-0.011368991,6.8730674,-0.05422089
PLXNA2,-0.07137004,8.857623,-0.016404884,-0.0655884,-0.08295944,-0.051766403,-0.043075144,5.612403,-0.058059856,-0.068304956,-0.034839205,6.510888,7.774478,-0.01081693,6.5435047,-0.052195396
DOK6,-0.075380966,9.338353,-0.017232321,-0.06952038,-0.087801844,-0.05450906,-0.045022447,5.8497343,-0.061054204,-0.07271192,-0.036616635,6.8585305,8.202302,-0.011419664,6.9548335,-0.054577544
DENND1A,-0.07201406,8.920642,-0.01652126,-0.066144794,-0.08364678,-0.05225236,-0.04339528,5.641526,-0.05853592,-0.068915494,-0.03511734,6.5704184,7.8272367,-0.010869078,6.5954037,-0.052570485
JUND,-0.06954551,8.63946,-0.01587717,-0.06390884,-0.081037454,-0.050480977,-0.041896522,5.468272,-0.056490783,-0.066637434,-0.033978995,6.3593884,7.565661,-0.010758928,6.3475785,-0.050987106
PATZ1,-0.06054369,7.574215,-0.013668467,-0.055505533,-0.07052481,-0.04404549,-0.036567934,4.847439,-0.04942918,-0.05793843,-0.029769016,5.568384,6.6334777,-0.009461024,5.4753613,-0.045252305
GCA,-0.08866155,10.87055,-0.02017228,-0.07939204,-0.10168018,-0.059856515,-0.049604822,6.6546135,-0.06864518,-0.08459776,-0.043135107,7.807863,9.397663,-0.011789919,8.332783,-0.061894484
APEX1,-0.072513476,8.998702,-0.016712507,-0.06661794,-0.08418621,-0.052477784,-0.043798435,5.679614,-0.058866262,-0.06937124,-0.03538348,6.6074066,7.896502,-0.010832557,6.6563773,-0.052863598
SAAL1,-0.08866155,10.87055,-0.02017228,-0.07939204,-0.10168018,-0.059856515,-0.049604822,6.6546135,-0.06864518,-0.08459776,-0.043135107,7.807863,9.397663,-0.011789919,8.332783,-0.061894484
RIPPLY1,-0.08866155,10.87055,-0.02017228,-0.07939204,-0.10168018,-0.059856515,-0.049604822,6.6546135,-0.06864518,-0.08459776,-0.043135107,7.807863,9.397663,-0.011789919,8.332783,-0.061894484
TIMM8A,-0.07127682,8.860985,-0.016466323,-0.06564911,-0.08288224,-0.0518982,-0.04309832,5.6065807,-0.058012392,-0.06831385,-0.034870323,6.512675,7.7781425,-0.010780308,6.544054,-0.05213331
JAKMIP2,-0.075380966,9.338353,-0.017232321,-0.06952038,-0.087801844,-0.05450906,-0.045022447,5.8497343,-0.061054204,-0.07271192,-0.036616635,6.8585305,8.202302,-0.011419664,6.9548335,-0.054577544
WDHD1,-0.08866155,10.87055,-0.02017228,-0.07939204,-0.10168018,-0.059856515,-0.049604822,6.6546135,-0.06864518,-0.08459776,-0.043135107,7.807863,9.397663,-0.011789919,8.332783,-0.061894484
DMBX1,-0.06879699,8.5708065,-0.015777547,-0.06309173,-0.07978613,-0.04983414,-0.041592084,5.4598227,-0.05591981,-0.0656047,-0.033707514,6.269226,7.505523,-0.010432831,6.2867327,-0.050770044
ITGB3BP,-0.07441953,9.233231,-0.017034598,-0.06854474,-0.08669546,-0.053868577,-0.04449836,5.8138885,-0.060453117,-0.071658075,-0.036268026,6.780854,8.09907,-0.011390823,6.8613453,-0.054085616
