,0,1,2,3,4,5,6,7,8,9,10,11,12,13,14,15
MYO1G,-0.03768109,3.8689606,-0.03533216,-0.057357367,8.608218,-0.01690782,7.844677,7.4502616,4.3338456,-0.071895406,-0.04799411,6.704597,-0.061453618,-0.024955634,9.896054,-0.03127955
PIK3C3,-0.03768109,3.8689606,-0.03533216,-0.057357367,8.608218,-0.01690782,7.844677,7.4502616,4.3338456,-0.071895406,-0.04799411,6.704597,-0.061453618,-0.024955634,9.896054,-0.03127955
F11R,-0.03768109,3.8689606,-0.03533216,-0.057357367,8.608218,-0.01690782,7.844677,7.4502616,4.3338456,-0.071895406,-0.04799411,6.704597,-0.061453618,-0.024955634,9.896054,-0.03127955
LEPROT,-0.037688885,3.8674357,-0.035316683,-0.057353444,8.60736,-0.016889434,7.841762,7.451775,4.3350444,-0.071905114,-0.047998402,6.7027173,-0.06142979,-0.024934998,9.897776,-0.03125238
IRF1,-0.03708067,3.9254308,-0.034066834,-0.056239784,8.164469,-0.018264584,7.2834907,7.2004304,4.2649093,-0.067876585,-0.046994343,6.195756,-0.05770017,-0.027764972,9.39313,-0.030210594
CCNG1,-0.03768109,3.8689606,-0.03533216,-0.057357367,8.608218,-0.01690782,7.844677,7.4502616,4.3338456,-0.071895406,-0.04799411,6.704597,-0.061453618,-0.024955634,9.896054,-0.03127955
ANKRD27,-0.03768109,3.8689606,-0.03533216,-0.057357367,8.608218,-0.01690782,7.844677,7.4502616,4.3338456,-0.071895406,-0.04799411,6.704597,-0.061453618,-0.024955634,9.896054,-0.03127955
GIMAP1,-0.03768109,3.8689606,-0.03533216,-0.057357367,8.608218,-0.01690782,7.844677,7.4502616,4.3338456,-0.071895406,-0.04799411,6.704597,-0.061453618,-0.024955634,9.896054,-0.03127955
MFGE8,-0.03768109,3.8689606,-0.03533216,-0.057357367,8.608218,-0.01690782,7.844677,7.4502616,4.3338456,-0.071895406,-0.04799411,6.704597,-0.061453618,-0.024955634,9.896054,-0.03127955
SEH1L,-0.028987715,3.2095678,-0.026472142,-0.043889903,6.6226406,-0.012956773,5.9409757,5.873156,3.326341,-0.054517135,-0.03917832,4.867833,-0.044819847,-0.02315433,7.6193533,-0.023060365
GIMAP5,-0.03768109,3.8689606,-0.03533216,-0.057357367,8.608218,-0.01690782,7.844677,7.4502616,4.3338456,-0.071895406,-0.04799411,6.704597,-0.061453618,-0.024955634,9.896054,-0.03127955
TARS,-0.03768109,3.8689606,-0.03533216,-0.057357367,8.608218,-0.01690782,7.844677,7.4502616,4.3338456,-0.071895406,-0.04799411,6.704597,-0.061453618,-0.024955634,9.896054,-0.03127955
ARHGAP4,-0.03768109,3.8689606,-0.03533216,-0.057357367,8.608218,-0.01690782,7.844677,7.4502616,4.3338456,-0.071895406,-0.04799411,6.704597,-0.061453618,-0.024955634,9.896054,-0.03127955
STEAP3,-0.03768109,3.8689606,-0.03533216,-0.057357367,8.608218,-0.01690782,7.844677,7.4502616,4.3338456,-0.071895406,-0.04799411,6.704597,-0.061453618,-0.024955634,9.896054,-0.03127955
TIFA,-0.03768109,3.8689606,-0.03533216,-0.057357367,8.608218,-0.01690782,7.844677,7.4502616,4.3338456,-0.071895406,-0.04799411,6.704597,-0.061453618,-0.024955634,9.896054,-0.03127955
ALDH1A1,-0.03768109,3.8689606,-0.03533216,-0.057357367,8.608218,-0.01690782,7.844677,7.4502616,4.3338456,-0.071895406,-0.04799411,6.704597,-0.061453618,-0.024955634,9.896054,-0.03127955
WDSUB1,-0.03768109,3.8689606,-0.03533216,-0.057357367,8.608218,-0.01690782,7.844677,7.4502616,4.3338456,-0.071895406,-0.04799411,6.704597,-0.061453618,-0.024955634,9.896054,-0.03127955
MAPK1,-0.032895826,3.5809,-0.02994311,-0.049466856,7.368917,-0.015465887,6.593414,6.545939,3.7962637,-0.06092409,-0.043149512,5.4857135,-0.050933875,-0.025917206,8.491845,-0.026476158
SATB1,-0.03768109,3.8689606,-0.03533216,-0.057357367,8.608218,-0.01690782,7.844677,7.4502616,4.3338456,-0.071895406,-0.04799411,6.704597,-0.061453618,-0.024955634,9.896054,-0.03127955
TMEM168,-0.037688885,3.8674357,-0.035316683,-0.057353444,8.60736,-0.016889434,7.841762,7.451775,4.3350444,-0.071905114,-0.047998402,6.7027173,-0.06142979,-0.024934998,9.897776,-0.03125238
ZKSCAN3,-0.03768109,3.8689606,-0.03533216,-0.057357367,8.608218,-0.01690782,7.844677,7.4502616,4.3338456,-0.071895406,-0.04799411,6.704597,-0.061453618,-0.024955634,9.896054,-0.03127955
SPPL2A,-0.03768109,3.8689606,-0.03533216,-0.057357367,8.608218,-0.01690782,7.844677,7.4502616,4.3338456,-0.071895406,-0.04799411,6.704597,-0.061453618,-0.024955634,9.896054,-0.03127955
PACS1,-0.037685342,3.8651218,-0.035297036,-0.05733375,8.607785,-0.016877055,7.848021,7.445017,4.334343,-0.07186814,-0.04800959,6.6979275,-0.061478,-0.02499984,9.8884945,-0.031291787
HCFC1,-0.031099007,3.4138281,-0.028420774,-0.047318175,7.0306664,-0.014123543,6.3047643,6.2257676,3.5459397,-0.058323365,-0.04161913,5.192159,-0.0475463,-0.024784515,8.083297,-0.024807848
TYMS,-0.020062173,2.3134832,-0.01908883,-0.032748867,4.9120116,-0.008181666,4.389345,4.2272086,2.3704736,-0.04057951,-0.029454833,3.4603043,-0.030706095,-0.017301895,5.3011274,-0.015718786
NARF,-0.03768109,3.8689606,-0.03533216,-0.057357367,8.608218,-0.01690782,7.844677,7.4502616,4.3338456,-0.071895406,-0.04799411,6.704597,-0.061453618,-0.024955634,9.896054,-0.03127955
VPS26C,-0.037666984,3.8695326,-0.035362393,-0.057275966,8.605942,-0.016895501,7.838974,7.4525867,4.3311825,-0.07185129,-0.047924314,6.7037067,-0.061484404,-0.024932515,9.889547,-0.031272363
IKZF1,-0.033582777,3.6234186,-0.030652473,-0.05087366,7.4010935,-0.01626959,6.6201735,6.5740566,3.8295548,-0.061375484,-0.04316973,5.53173,-0.051421594,-0.02641356,8.521548,-0.027078254
SESN1,-0.03768109,3.8689606,-0.03533216,-0.057357367,8.608218,-0.01690782,7.844677,7.4502616,4.3338456,-0.071895406,-0.04799411,6.704597,-0.061453618,-0.024955634,9.896054,-0.03127955
COQ8A,-0.03768109,3.8689606,-0.03533216,-0.057357367,8.608218,-0.01690782,7.844677,7.4502616,4.3338456,-0.071895406,-0.04799411,6.704597,-0.061453618,-0.024955634,9.896054,-0.03127955
TCF19,-0.019847345,2.2827196,-0.018676989,-0.032308567,4.8528504,-0.008075133,4.3531985,4.1737084,2.3352926,-0.040093377,-0.02914524,3.4196413,-0.030467365,-0.01697641,5.247759,-0.015402981
FAM234B,-0.03768109,3.8689606,-0.03533216,-0.057357367,8.608218,-0.01690782,7.844677,7.4502616,4.3338456,-0.071895406,-0.04799411,6.704597,-0.061453618,-0.024955634,9.896054,-0.03127955
TMEM56,-0.037688043,3.867993,-0.035310987,-0.057274703,8.602299,-0.016841164,7.8343306,7.442552,4.336292,-0.07188542,-0.047958996,6.697588,-0.061380703,-0.024939504,9.89604,-0.031218294
CD93,-0.03768109,3.8689606,-0.03533216,-0.057357367,8.608218,-0.01690782,7.844677,7.4502616,4.3338456,-0.071895406,-0.04799411,6.704597,-0.061453618,-0.024955634,9.896054,-0.03127955
RCC1,-0.019760862,2.2754962,-0.018704262,-0.032203697,4.8281736,-0.008141761,4.3174434,4.156283,2.3366845,-0.039888073,-0.028963145,3.3963976,-0.030253923,-0.017057566,5.2035108,-0.015385571
PTCD3,-0.03768109,3.8689606,-0.03533216,-0.057357367,8.608218,-0.01690782,7.844677,7.4502616,4.3338456,-0.071895406,-0.04799411,6.704597,-0.061453618,-0.024955634,9.896054,-0.03127955
KAT7,-0.023685064,2.6723034,-0.02139013,-0.03774784,5.6235967,-0.009736586,5.056839,4.8873715,2.703938,-0.046539493,-0.034046836,4.0182424,-0.035957728,-0.019866468,6.238726,-0.0180426
HSPH1,-0.037688885,3.8674357,-0.035316683,-0.057353444,8.60736,-0.016889434,7.841762,7.451775,4.3350444,-0.071905114,-0.047998402,6.7027173,-0.06142979,-0.024934998,9.897776,-0.03125238
CD9,-0.03768109,3.8689606,-0.03533216,-0.057357367,8.608218,-0.01690782,7.844677,7.4502616,4.3338456,-0.071895406,-0.04799411,6.704597,-0.061453618,-0.024955634,9.896054,-0.03127955
NUDCD1,-0.03768109,3.8689606,-0.03533216,-0.057357367,8.608218,-0.01690782,7.844677,7.4502616,4.3338456,-0.071895406,-0.04799411,6.704597,-0.061453618,-0.024955634,9.896054,-0.03127955
VPS35,-0.03768109,3.8689606,-0.03533216,-0.057357367,8.608218,-0.01690782,7.844677,7.4502616,4.3338456,-0.071895406,-0.04799411,6.704597,-0.061453618,-0.024955634,9.896054,-0.03127955
TNFAIP8,-0.03830854,3.966367,-0.032703623,-0.054808505,7.7076755,-0.008261538,8.272994,6.3711114,3.3025537,-0.068945624,-0.042156473,5.9661727,-0.059285425,-0.023838932,9.071666,-0.026635002
RNASE6,-0.03768109,3.8689606,-0.03533216,-0.057357367,8.608218,-0.01690782,7.844677,7.4502616,4.3338456,-0.071895406,-0.04799411,6.704597,-0.061453618,-0.024955634,9.896054,-0.03127955
NUF2,-0.023605691,2.6976638,-0.021946507,-0.03695073,5.582959,-0.010136512,5.018023,4.86635,2.726844,-0.045921586,-0.033529,3.9942038,-0.03595961,-0.020412626,6.2561574,-0.018897338
MGST3,-0.03768109,3.8689606,-0.03533216,-0.057357367,8.608218,-0.01690782,7.844677,7.4502616,4.3338456,-0.071895406,-0.04799411,6.704597,-0.061453618,-0.024955634,9.896054,-0.03127955
RMND5B,-0.036868963,4.1042113,-0.037123673,-0.048648056,7.667666,-0.018220467,7.53276,7.1279054,4.374134,-0.06516271,-0.043144975,6.54342,-0.060508933,-0.0314141,9.622339,-0.03579044
SRSF1,-0.03768109,3.8689606,-0.03533216,-0.057357367,8.608218,-0.01690782,7.844677,7.4502616,4.3338456,-0.071895406,-0.04799411,6.704597,-0.061453618,-0.024955634,9.896054,-0.03127955
SEPT8,-0.03768109,3.8689606,-0.03533216,-0.057357367,8.608218,-0.01690782,7.844677,7.4502616,4.3338456,-0.071895406,-0.04799411,6.704597,-0.061453618,-0.024955634,9.896054,-0.03127955
MAD2L1,-0.02527841,2.8632612,-0.023380525,-0.039118424,5.8977995,-0.0110329315,5.2948995,5.1776886,2.9130855,-0.04846359,-0.035197817,4.25603,-0.038628414,-0.021465609,6.6750727,-0.020285567
MAN2A2,-0.03768109,3.8689606,-0.03533216,-0.057357367,8.608218,-0.01690782,7.844677,7.4502616,4.3338456,-0.071895406,-0.04799411,6.704597,-0.061453618,-0.024955634,9.896054,-0.03127955
NAE1,-0.03768109,3.8689606,-0.03533216,-0.057357367,8.608218,-0.01690782,7.844677,7.4502616,4.3338456,-0.071895406,-0.04799411,6.704597,-0.061453618,-0.024955634,9.896054,-0.03127955
LLGL1,-0.03768109,3.8689606,-0.03533216,-0.057357367,8.608218,-0.01690782,7.844677,7.4502616,4.3338456,-0.071895406,-0.04799411,6.704597,-0.061453618,-0.024955634,9.896054,-0.03127955
WLS,-0.03768109,3.8689606,-0.03533216,-0.057357367,8.608218,-0.01690782,7.844677,7.4502616,4.3338456,-0.071895406,-0.04799411,6.704597,-0.061453618,-0.024955634,9.896054,-0.03127955
INCENP,-0.02103655,2.4306703,-0.020104637,-0.034153637,5.1341653,-0.008483874,4.6250653,4.4203,2.480094,-0.042608194,-0.030735293,3.6565871,-0.032357033,-0.01776189,5.5825777,-0.016648257
ELP3,-0.024888992,3.7635796,-0.020263892,-0.0369432,7.6880646,-0.0036039678,6.8192916,5.364753,3.0128365,-0.056695443,-0.04352166,4.864209,-0.045689978,-0.022307284,7.1668324,-0.018736187
WDR6,-0.040423974,4.2379556,-0.028655533,-0.06563803,6.8547835,-0.024539258,6.498499,6.435429,4.427588,-0.06626958,-0.052651428,5.214756,-0.057484347,-0.018764308,8.446516,-0.022707138
NDC1,-0.031976067,3.496868,-0.02941453,-0.048372794,7.1460676,-0.015243714,6.4041815,6.3478947,3.6806931,-0.05915417,-0.041706868,5.3017244,-0.04915948,-0.025678268,8.214805,-0.02593519
AURKA,-0.026226815,2.9489896,-0.024270942,-0.040502585,6.1666408,-0.011486699,5.5039725,5.4207373,3.0456731,-0.05050993,-0.036689986,4.476637,-0.04051921,-0.021943996,6.982093,-0.020945692
MAVS,-0.03771938,3.8671224,-0.03533142,-0.057351172,8.604662,-0.016929429,7.8424497,7.4491115,4.3358836,-0.07190493,-0.04799727,6.7039485,-0.061418064,-0.024926554,9.895682,-0.031279657
PA2G4,-0.031443525,3.4235163,-0.028982727,-0.047432464,7.1857576,-0.014240772,6.424322,6.3591733,3.6224008,-0.059405383,-0.042284016,5.347395,-0.048967224,-0.024495447,8.231272,-0.024892801
POGLUT1,-0.037016537,3.915846,-0.038165767,-0.05760392,7.7717376,-0.012729719,6.72134,7.3620996,3.6017141,-0.065904014,-0.04046577,5.586689,-0.05138263,-0.026385775,8.383591,-0.02393115
LZTR1,-0.0294575,2.6193163,-0.039718878,-0.04679031,6.649924,-0.008183595,7.478757,5.7752414,3.22096,-0.06359349,-0.029561669,6.474935,-0.05022033,-0.015466333,9.710875,-0.042681836
ABITRAM,-0.03768109,3.8689606,-0.03533216,-0.057357367,8.608218,-0.01690782,7.844677,7.4502616,4.3338456,-0.071895406,-0.04799411,6.704597,-0.061453618,-0.024955634,9.896054,-0.03127955
PRDM5,-0.03768109,3.8689606,-0.03533216,-0.057357367,8.608218,-0.01690782,7.844677,7.4502616,4.3338456,-0.071895406,-0.04799411,6.704597,-0.061453618,-0.024955634,9.896054,-0.03127955
SNCA,-0.03621378,3.6334767,-0.031063406,-0.06070863,8.185849,-0.010950744,8.018074,7.3526053,4.0157847,-0.07167978,-0.041992772,6.2694387,-0.05519916,-0.02926365,9.739993,-0.032613043
RPAP1,-0.03768109,3.8689606,-0.03533216,-0.057357367,8.608218,-0.01690782,7.844677,7.4502616,4.3338456,-0.071895406,-0.04799411,6.704597,-0.061453618,-0.024955634,9.896054,-0.03127955
RRM2,-0.020551639,2.3696897,-0.019594664,-0.03341171,5.026329,-0.008341211,4.514655,4.328677,2.431596,-0.041620977,-0.030103391,3.5684612,-0.031600855,-0.017495696,5.4443827,-0.01619346
ANXA1,-0.03766075,3.864713,-0.0353644,-0.057395186,8.604031,-0.01690314,7.845884,7.446114,4.3332605,-0.071941905,-0.047962517,6.7068615,-0.061405778,-0.024948359,9.895362,-0.0313187
FAM168B,-0.03768109,3.8689606,-0.03533216,-0.057357367,8.608218,-0.01690782,7.844677,7.4502616,4.3338456,-0.071895406,-0.04799411,6.704597,-0.061453618,-0.024955634,9.896054,-0.03127955
TSPAN33,-0.03768109,3.8689606,-0.03533216,-0.057357367,8.608218,-0.01690782,7.844677,7.4502616,4.3338456,-0.071895406,-0.04799411,6.704597,-0.061453618,-0.024955634,9.896054,-0.03127955
AP1B1,-0.03768109,3.8689606,-0.03533216,-0.057357367,8.608218,-0.01690782,7.844677,7.4502616,4.3338456,-0.071895406,-0.04799411,6.704597,-0.061453618,-0.024955634,9.896054,-0.03127955
EPS15,-0.032459445,3.4661787,-0.03175758,-0.055005133,8.16853,-0.017922532,8.126047,7.7907915,4.8424454,-0.07223696,-0.050511472,6.802477,-0.05401862,-0.024547117,9.281305,-0.033206355
MAPK9,-0.03347444,3.6327136,-0.03062083,-0.050506983,7.4283695,-0.016043508,6.6385865,6.5830746,3.841046,-0.06154212,-0.043402586,5.5445414,-0.05147514,-0.026307937,8.549333,-0.027131574
KEL,-0.03768109,3.8689606,-0.03533216,-0.057357367,8.608218,-0.01690782,7.844677,7.4502616,4.3338456,-0.071895406,-0.04799411,6.704597,-0.061453618,-0.024955634,9.896054,-0.03127955
TSPAN14,-0.03768109,3.8689606,-0.03533216,-0.057357367,8.608218,-0.01690782,7.844677,7.4502616,4.3338456,-0.071895406,-0.04799411,6.704597,-0.061453618,-0.024955634,9.896054,-0.03127955
DENND1C,-0.032584336,2.8585474,-0.030121423,-0.052427124,8.999116,-0.019146342,6.976375,7.501058,5.0696297,-0.07310854,-0.053670723,7.1325336,-0.060014386,-0.027927835,9.070119,-0.023024205
CD48,-0.03768109,3.8689606,-0.03533216,-0.057357367,8.608218,-0.01690782,7.844677,7.4502616,4.3338456,-0.071895406,-0.04799411,6.704597,-0.061453618,-0.024955634,9.896054,-0.03127955
H2-OB,-0.03768109,3.8689606,-0.03533216,-0.057357367,8.608218,-0.01690782,7.844677,7.4502616,4.3338456,-0.071895406,-0.04799411,6.704597,-0.061453618,-0.024955634,9.896054,-0.03127955
HDAC10,-0.034221414,3.703665,-0.031608716,-0.051591616,7.6069083,-0.016318742,6.781549,6.7411966,3.9160132,-0.06299693,-0.04414346,5.6832547,-0.052617714,-0.026821533,8.730074,-0.027725123
STAT3,-0.0340023,3.6682668,-0.03128859,-0.05150607,7.5248895,-0.016584046,6.7262244,6.670157,3.8993983,-0.06240082,-0.04366134,5.6261735,-0.052326597,-0.026767878,8.648262,-0.027577436
NFKBIA,-0.033453044,3.6165144,-0.030542813,-0.050594885,7.46651,-0.015978003,6.659332,6.628782,3.8633714,-0.061743747,-0.043294262,5.559589,-0.051691327,-0.026454963,8.579708,-0.027073648
SGTA,-0.03768109,3.8689606,-0.03533216,-0.057357367,8.608218,-0.01690782,7.844677,7.4502616,4.3338456,-0.071895406,-0.04799411,6.704597,-0.061453618,-0.024955634,9.896054,-0.03127955
GTF2H1,-0.02837734,3.1664999,-0.025960116,-0.043630242,6.485763,-0.012947781,5.813965,5.7323856,3.2868972,-0.05353484,-0.03858939,4.7429543,-0.043348774,-0.02366676,7.3830657,-0.022839414
SIGIRR,-0.03551874,4.047516,-0.032948576,-0.042493574,8.209424,-0.019762166,6.4923825,6.646362,3.1598792,-0.06169042,-0.049982805,5.261203,-0.04929099,-0.03378025,10.468758,-0.030600414
UNK,-0.03768109,3.8689606,-0.03533216,-0.057357367,8.608218,-0.01690782,7.844677,7.4502616,4.3338456,-0.071895406,-0.04799411,6.704597,-0.061453618,-0.024955634,9.896054,-0.03127955
CERS5,-0.03768109,3.8689606,-0.03533216,-0.057357367,8.608218,-0.01690782,7.844677,7.4502616,4.3338456,-0.071895406,-0.04799411,6.704597,-0.061453618,-0.024955634,9.896054,-0.03127955
HNRNPAB,-0.03768109,3.8689606,-0.03533216,-0.057357367,8.608218,-0.01690782,7.844677,7.4502616,4.3338456,-0.071895406,-0.04799411,6.704597,-0.061453618,-0.024955634,9.896054,-0.03127955
ST6GALNAC4,-0.03766592,3.8681233,-0.035336133,-0.05734749,8.607079,-0.016917223,7.8459396,7.4502435,4.3324437,-0.0718888,-0.04798178,6.7033916,-0.061441988,-0.024970625,9.895287,-0.03126104
IPO4,-0.03768109,3.8689606,-0.03533216,-0.057357367,8.608218,-0.01690782,7.844677,7.4502616,4.3338456,-0.071895406,-0.04799411,6.704597,-0.061453618,-0.024955634,9.896054,-0.03127955
WDR55,-0.037142448,3.2572434,-0.030796872,-0.058472853,8.269946,-0.016353734,7.7017746,7.601173,3.8519921,-0.069467865,-0.05145718,6.9487925,-0.05783809,-0.023398148,10.160675,-0.026748557
SQOR,-0.03768109,3.8689606,-0.03533216,-0.057357367,8.608218,-0.01690782,7.844677,7.4502616,4.3338456,-0.071895406,-0.04799411,6.704597,-0.061453618,-0.024955634,9.896054,-0.03127955
ST3GAL5,-0.03768109,3.8689606,-0.03533216,-0.057357367,8.608218,-0.01690782,7.844677,7.4502616,4.3338456,-0.071895406,-0.04799411,6.704597,-0.061453618,-0.024955634,9.896054,-0.03127955
UAP1L1,-0.03768109,3.8689606,-0.03533216,-0.057357367,8.608218,-0.01690782,7.844677,7.4502616,4.3338456,-0.071895406,-0.04799411,6.704597,-0.061453618,-0.024955634,9.896054,-0.03127955
UBAP1,-0.043365765,3.6806605,-0.03494441,-0.05922279,8.348059,-0.018609097,6.994009,7.5313516,3.9765267,-0.07009746,-0.039866533,5.77666,-0.062488675,-0.030784976,9.208742,-0.024518827
ITSN1,-0.03768109,3.8689606,-0.03533216,-0.057357367,8.608218,-0.01690782,7.844677,7.4502616,4.3338456,-0.071895406,-0.04799411,6.704597,-0.061453618,-0.024955634,9.896054,-0.03127955
PPARGC1A,-0.035304226,3.7776005,-0.03234611,-0.05329942,7.8135467,-0.017251197,6.977375,6.935021,4.08699,-0.06486678,-0.04532571,5.8849907,-0.054837555,-0.027102072,9.010099,-0.028654117
UBAC1,-0.032005873,3.4771879,-0.02912644,-0.048208587,7.2672033,-0.014884034,6.4708333,6.4476156,3.7015846,-0.05977309,-0.04266384,5.3915114,-0.049778096,-0.025272528,8.362852,-0.025554905
SLC16A1,-0.03768109,3.8689606,-0.03533216,-0.057357367,8.608218,-0.01690782,7.844677,7.4502616,4.3338456,-0.071895406,-0.04799411,6.704597,-0.061453618,-0.024955634,9.896054,-0.03127955
MMRN1,-0.03768109,3.8689606,-0.03533216,-0.057357367,8.608218,-0.01690782,7.844677,7.4502616,4.3338456,-0.071895406,-0.04799411,6.704597,-0.061453618,-0.024955634,9.896054,-0.03127955
SPTBN1,-0.03768109,3.8689606,-0.03533216,-0.057357367,8.608218,-0.01690782,7.844677,7.4502616,4.3338456,-0.071895406,-0.04799411,6.704597,-0.061453618,-0.024955634,9.896054,-0.03127955
DTL,-0.024577493,2.7916443,-0.022537256,-0.03829139,5.752612,-0.0109039685,5.1453147,5.038376,2.8470628,-0.047154292,-0.03466573,4.1300116,-0.037395865,-0.021426035,6.4606047,-0.01954947
ABCG2,-0.02488392,3.4271333,-0.025589332,-0.03739871,7.6181707,-0.0162394,5.1726484,5.984558,4.193468,-0.048124168,-0.040567093,4.270925,-0.05285659,-0.025831992,7.545938,-0.021126343
RAD51AP1,-0.026376434,3.1996174,-0.023969628,-0.033355635,5.999418,-0.014640821,4.803161,5.0417223,2.4680662,-0.04535375,-0.03815959,3.67989,-0.034648824,-0.028794665,7.448762,-0.021958284
BYSL,-0.032374762,3.5353734,-0.029734477,-0.048842844,7.265261,-0.015134937,6.4878483,6.440649,3.713566,-0.05999016,-0.04245866,5.39352,-0.04979039,-0.025887476,8.33926,-0.026133275
PIK3IP1,-0.03768109,3.8689606,-0.03533216,-0.057357367,8.608218,-0.01690782,7.844677,7.4502616,4.3338456,-0.071895406,-0.04799411,6.704597,-0.061453618,-0.024955634,9.896054,-0.03127955
TK1,-0.021269673,2.4464824,-0.020104604,-0.034402836,5.146037,-0.0086496705,4.637253,4.442155,2.4891117,-0.042756565,-0.030935002,3.661833,-0.032499135,-0.018053353,5.6131315,-0.01668007
PSMD9,-0.033290055,3.6026318,-0.030543115,-0.04991128,7.472462,-0.015925558,6.6368704,6.622637,3.8519282,-0.061497524,-0.043402303,5.565584,-0.051790256,-0.026055831,8.586521,-0.026895747
ZFP945,-0.03272766,4.0078044,-0.03948902,-0.057523414,8.364706,-0.009888923,7.995602,7.511684,3.9741464,-0.0711479,-0.048083253,6.8714156,-0.054126944,-0.018330285,9.4166155,-0.030776257
GPR180,-0.03768109,3.8689606,-0.03533216,-0.057357367,8.608218,-0.01690782,7.844677,7.4502616,4.3338456,-0.071895406,-0.04799411,6.704597,-0.061453618,-0.024955634,9.896054,-0.03127955
HIST1H2BC,-0.037685342,3.8651218,-0.035297036,-0.05733375,8.607785,-0.016877055,7.848021,7.445017,4.334343,-0.07186814,-0.04800959,6.6979275,-0.061478,-0.02499984,9.8884945,-0.031291787
NFE2,-0.03766075,3.864713,-0.0353644,-0.057395186,8.604031,-0.01690314,7.845884,7.446114,4.3332605,-0.071941905,-0.047962517,6.7068615,-0.061405778,-0.024948359,9.895362,-0.0313187
RAD51,-0.023929259,2.714189,-0.02219739,-0.03748819,5.670115,-0.0103797065,5.0782576,4.956262,2.777912,-0.04661044,-0.034035087,4.0718575,-0.036564045,-0.02055772,6.350219,-0.019062873
PIGQ,-0.03771938,3.8671224,-0.03533142,-0.057351172,8.604662,-0.016929429,7.8424497,7.4491115,4.3358836,-0.07190493,-0.04799727,6.7039485,-0.061418064,-0.024926554,9.895682,-0.031279657
RCOR1,-0.030754875,3.3772652,-0.02806477,-0.046485957,6.860785,-0.014564875,6.131628,6.08554,3.51441,-0.056646474,-0.040359758,5.0554047,-0.046859678,-0.02509832,7.8622565,-0.024767105
HAGH,-0.03272766,4.0078044,-0.03948902,-0.057523414,8.364706,-0.009888923,7.995602,7.511684,3.9741464,-0.0711479,-0.048083253,6.8714156,-0.054126944,-0.018330285,9.4166155,-0.030776257
MYH10,-0.03768109,3.8689606,-0.03533216,-0.057357367,8.608218,-0.01690782,7.844677,7.4502616,4.3338456,-0.071895406,-0.04799411,6.704597,-0.061453618,-0.024955634,9.896054,-0.03127955
PLEK,-0.030511059,3.3344605,-0.027709233,-0.04616409,6.745262,-0.014519497,6.0705376,6.002609,3.4584444,-0.05589841,-0.03964842,4.976616,-0.046254586,-0.024983596,7.7673407,-0.024531063
PRMT7,-0.041890226,3.7854664,-0.025404163,-0.05149891,7.562753,-0.018743873,7.300744,7.1521244,3.3975494,-0.06474266,-0.040611736,5.4160676,-0.06413827,-0.015672019,9.18242,-0.020514604
MCM5,-0.022875777,2.6127994,-0.021217551,-0.0360741,5.4305882,-0.009797752,4.8744597,4.7274756,2.64301,-0.04468154,-0.032679327,3.8678653,-0.03471544,-0.019998452,6.0577393,-0.018221863
ANXA6,-0.03768109,3.8689606,-0.03533216,-0.057357367,8.608218,-0.01690782,7.844677,7.4502616,4.3338456,-0.071895406,-0.04799411,6.704597,-0.061453618,-0.024955634,9.896054,-0.03127955
PSMF1,-0.03313164,3.5863569,-0.030362157,-0.04970909,7.4555945,-0.015795536,6.620576,6.604718,3.8316374,-0.061321396,-0.04336575,5.5480285,-0.051500004,-0.026075222,8.569657,-0.026771776
LCP1,-0.030511059,3.3344605,-0.027709233,-0.04616409,6.745262,-0.014519497,6.0705376,6.002609,3.4584444,-0.05589841,-0.03964842,4.976616,-0.046254586,-0.024983596,7.7673407,-0.024531063
AI506816,-0.03768109,3.8689606,-0.03533216,-0.057357367,8.608218,-0.01690782,7.844677,7.4502616,4.3338456,-0.071895406,-0.04799411,6.704597,-0.061453618,-0.024955634,9.896054,-0.03127955
TFRC,-0.03768109,3.8689606,-0.03533216,-0.057357367,8.608218,-0.01690782,7.844677,7.4502616,4.3338456,-0.071895406,-0.04799411,6.704597,-0.061453618,-0.024955634,9.896054,-0.03127955
SCARB1,-0.03768109,3.8689606,-0.03533216,-0.057357367,8.608218,-0.01690782,7.844677,7.4502616,4.3338456,-0.071895406,-0.04799411,6.704597,-0.061453618,-0.024955634,9.896054,-0.03127955
BTAF1,-0.030412018,3.3239267,-0.02880662,-0.0474018,7.1184015,-0.01294872,6.416889,6.221792,3.542998,-0.059407137,-0.041418537,5.335646,-0.04761123,-0.023494126,7.9540052,-0.024302023
KDM6A,-0.032485377,3.5374808,-0.029841878,-0.049319357,7.236253,-0.015673572,6.4727845,6.4234943,3.7349231,-0.059890155,-0.042190976,5.374179,-0.049824525,-0.026243078,8.301847,-0.026307091
BID,-0.04047583,4.1844635,-0.037366997,-0.062335253,8.91193,-0.01992473,7.9692698,7.8469915,4.6128325,-0.07429158,-0.050844055,6.9082537,-0.06319146,-0.028591739,10.289565,-0.033437256
MPL,-0.02542507,2.5072691,-0.037178934,-0.035046313,5.6149135,-0.012672173,5.8192906,4.797232,2.882552,-0.05081015,-0.0296296,5.4254,-0.04390084,-0.01271042,8.093817,-0.035017297
MYO1D,-0.037718438,3.8682826,-0.035313874,-0.057284545,8.605856,-0.016854342,7.838707,7.444649,4.3356094,-0.07186245,-0.04797997,6.7050133,-0.061441813,-0.024911659,9.895487,-0.0312903
ARHGEF6,-0.03768109,3.8689606,-0.03533216,-0.057357367,8.608218,-0.01690782,7.844677,7.4502616,4.3338456,-0.071895406,-0.04799411,6.704597,-0.061453618,-0.024955634,9.896054,-0.03127955
KRT18,-0.03768109,3.8689606,-0.03533216,-0.057357367,8.608218,-0.01690782,7.844677,7.4502616,4.3338456,-0.071895406,-0.04799411,6.704597,-0.061453618,-0.024955634,9.896054,-0.03127955
HSD3B7,-0.03768109,3.8689606,-0.03533216,-0.057357367,8.608218,-0.01690782,7.844677,7.4502616,4.3338456,-0.071895406,-0.04799411,6.704597,-0.061453618,-0.024955634,9.896054,-0.03127955
POLE3,-0.024419792,2.7617455,-0.02260653,-0.03826537,5.7709394,-0.010641266,5.1743236,5.0548096,2.8360982,-0.04752103,-0.034737922,4.1615133,-0.03722168,-0.02101648,6.4834757,-0.019517114
CTLA2B,-0.03768109,3.8689606,-0.03533216,-0.057357367,8.608218,-0.01690782,7.844677,7.4502616,4.3338456,-0.071895406,-0.04799411,6.704597,-0.061453618,-0.024955634,9.896054,-0.03127955
ABCD3,-0.027650777,3.091397,-0.025407262,-0.04221531,6.2381597,-0.012921436,5.6083984,5.5212555,3.1677506,-0.051448803,-0.036986597,4.542362,-0.041896854,-0.023517216,7.1085143,-0.022380061
IL15,-0.04276041,4.3157187,-0.039760973,-0.066755615,9.420658,-0.020706981,8.503046,8.243369,4.921873,-0.078856826,-0.051865637,7.4370036,-0.06804006,-0.028646318,10.843999,-0.036382474
SLC38A5,-0.03768109,3.8689606,-0.03533216,-0.057357367,8.608218,-0.01690782,7.844677,7.4502616,4.3338456,-0.071895406,-0.04799411,6.704597,-0.061453618,-0.024955634,9.896054,-0.03127955
ME2,-0.03768109,3.8689606,-0.03533216,-0.057357367,8.608218,-0.01690782,7.844677,7.4502616,4.3338456,-0.071895406,-0.04799411,6.704597,-0.061453618,-0.024955634,9.896054,-0.03127955
PON2,-0.03768109,3.8689606,-0.03533216,-0.057357367,8.608218,-0.01690782,7.844677,7.4502616,4.3338456,-0.071895406,-0.04799411,6.704597,-0.061453618,-0.024955634,9.896054,-0.03127955
ST3GAL6,-0.03768109,3.8689606,-0.03533216,-0.057357367,8.608218,-0.01690782,7.844677,7.4502616,4.3338456,-0.071895406,-0.04799411,6.704597,-0.061453618,-0.024955634,9.896054,-0.03127955
RNF4,-0.026776923,3.250552,-0.024490945,-0.033027332,6.237304,-0.013942656,4.9839163,5.2066803,2.459876,-0.047053635,-0.039640374,3.838366,-0.035979845,-0.027843375,7.8110085,-0.021812629
ADSSL1,-0.037638757,3.8630085,-0.03530491,-0.057351403,8.61293,-0.016926706,7.838837,7.4398713,4.336118,-0.07184548,-0.04794653,6.7076144,-0.061394203,-0.024960117,9.888724,-0.031275928
VHL,-0.031174531,3.0610096,-0.03329068,-0.049711756,6.506236,-0.015410158,5.117509,5.852317,3.2814288,-0.050055973,-0.031780355,5.419118,-0.04615497,-0.021966955,6.861599,-0.025509682
IARS2,-0.03768109,3.8689606,-0.03533216,-0.057357367,8.608218,-0.01690782,7.844677,7.4502616,4.3338456,-0.071895406,-0.04799411,6.704597,-0.061453618,-0.024955634,9.896054,-0.03127955
CCNB1,-0.02513761,2.841335,-0.023373403,-0.039013855,5.8759274,-0.010994651,5.2652783,5.1520076,2.8976252,-0.048315067,-0.03502487,4.243366,-0.038399328,-0.02128267,6.6258335,-0.020137947
RBPMS,-0.03768109,3.8689606,-0.03533216,-0.057357367,8.608218,-0.01690782,7.844677,7.4502616,4.3338456,-0.071895406,-0.04799411,6.704597,-0.061453618,-0.024955634,9.896054,-0.03127955
PLBD2,-0.03768109,3.8689606,-0.03533216,-0.057357367,8.608218,-0.01690782,7.844677,7.4502616,4.3338456,-0.071895406,-0.04799411,6.704597,-0.061453618,-0.024955634,9.896054,-0.03127955
1700017B05RIK,-0.03768109,3.8689606,-0.03533216,-0.057357367,8.608218,-0.01690782,7.844677,7.4502616,4.3338456,-0.071895406,-0.04799411,6.704597,-0.061453618,-0.024955634,9.896054,-0.03127955
FTSJ1,-0.03768109,3.8689606,-0.03533216,-0.057357367,8.608218,-0.01690782,7.844677,7.4502616,4.3338456,-0.071895406,-0.04799411,6.704597,-0.061453618,-0.024955634,9.896054,-0.03127955
BTRC,-0.0337288,3.6535878,-0.031190798,-0.050751388,7.5718985,-0.016075166,6.7592106,6.7057085,3.9129853,-0.06257384,-0.04385035,5.6704035,-0.05253681,-0.02619667,8.707642,-0.027591666
GATA1,-0.030159596,3.303335,-0.027344422,-0.04562111,6.6943173,-0.014225676,6.0055604,5.9567523,3.4198143,-0.055314228,-0.039407983,4.927399,-0.045702994,-0.024838064,7.699641,-0.024192538
MFN2,-0.03768109,3.8689606,-0.03533216,-0.057357367,8.608218,-0.01690782,7.844677,7.4502616,4.3338456,-0.071895406,-0.04799411,6.704597,-0.061453618,-0.024955634,9.896054,-0.03127955
ATP6V1A,-0.03768109,3.8689606,-0.03533216,-0.057357367,8.608218,-0.01690782,7.844677,7.4502616,4.3338456,-0.071895406,-0.04799411,6.704597,-0.061453618,-0.024955634,9.896054,-0.03127955
RNF13,-0.040423974,4.2379556,-0.028655533,-0.06563803,6.8547835,-0.024539258,6.498499,6.435429,4.427588,-0.06626958,-0.052651428,5.214756,-0.057484347,-0.018764308,8.446516,-0.022707138
TOPORS,-0.039848227,4.034363,-0.037557147,-0.062980704,9.144398,-0.018057935,8.279359,8.001553,4.69954,-0.0767642,-0.050275683,7.179781,-0.064169995,-0.027381994,10.397726,-0.033918735
TNFRSF13B,-0.037648406,3.8643203,-0.03536346,-0.057368442,8.610181,-0.016941117,7.8437266,7.451965,4.337182,-0.07190167,-0.04799682,6.7051587,-0.06148272,-0.024971694,9.892006,-0.031256743
AURKB,-0.02287705,2.6259036,-0.021462945,-0.036153592,5.460369,-0.00974176,4.9037833,4.740888,2.655056,-0.044976223,-0.03284049,3.8950498,-0.03482587,-0.019950109,6.076341,-0.01838306
FOXRED1,-0.03768109,3.8689606,-0.03533216,-0.057357367,8.608218,-0.01690782,7.844677,7.4502616,4.3338456,-0.071895406,-0.04799411,6.704597,-0.061453618,-0.024955634,9.896054,-0.03127955
NIF3L1,-0.03768109,3.8689606,-0.03533216,-0.057357367,8.608218,-0.01690782,7.844677,7.4502616,4.3338456,-0.071895406,-0.04799411,6.704597,-0.061453618,-0.024955634,9.896054,-0.03127955
LCP2,-0.030511059,3.3344605,-0.027709233,-0.04616409,6.745262,-0.014519497,6.0705376,6.002609,3.4584444,-0.05589841,-0.03964842,4.976616,-0.046254586,-0.024983596,7.7673407,-0.024531063
CNOT7,-0.0417106,4.252567,-0.03883177,-0.06461673,9.292711,-0.020372732,8.300793,8.14729,4.8457255,-0.07743931,-0.051780183,7.222525,-0.066169135,-0.029263755,10.67455,-0.03510812
AFF4,-0.030467052,3.3495085,-0.027806005,-0.046328295,6.7763705,-0.014481435,6.08269,6.021359,3.4807155,-0.056142528,-0.03986323,4.9924355,-0.04621685,-0.025084607,7.7687383,-0.02461965
PLAG1,-0.03768109,3.8689606,-0.03533216,-0.057357367,8.608218,-0.01690782,7.844677,7.4502616,4.3338456,-0.071895406,-0.04799411,6.704597,-0.061453618,-0.024955634,9.896054,-0.03127955
TRMT6,-0.032832637,3.5679643,-0.030154083,-0.04973373,7.3126183,-0.01574876,6.546173,6.4870214,3.774064,-0.060567725,-0.042572957,5.4416194,-0.050467134,-0.026245017,8.39962,-0.026643364
MIOS,-0.03768109,3.8689606,-0.03533216,-0.057357367,8.608218,-0.01690782,7.844677,7.4502616,4.3338456,-0.071895406,-0.04799411,6.704597,-0.061453618,-0.024955634,9.896054,-0.03127955
VPS33B,-0.03768109,3.8689606,-0.03533216,-0.057357367,8.608218,-0.01690782,7.844677,7.4502616,4.3338456,-0.071895406,-0.04799411,6.704597,-0.061453618,-0.024955634,9.896054,-0.03127955
ZFP639,-0.03768109,3.8689606,-0.03533216,-0.057357367,8.608218,-0.01690782,7.844677,7.4502616,4.3338456,-0.071895406,-0.04799411,6.704597,-0.061453618,-0.024955634,9.896054,-0.03127955
COPB1,-0.03768109,3.8689606,-0.03533216,-0.057357367,8.608218,-0.01690782,7.844677,7.4502616,4.3338456,-0.071895406,-0.04799411,6.704597,-0.061453618,-0.024955634,9.896054,-0.03127955
SMC2,-0.024962809,2.8285275,-0.023087425,-0.038760237,5.845161,-0.010915651,5.2477536,5.1270614,2.8920593,-0.048055936,-0.034917302,4.2153473,-0.03821493,-0.02123146,6.600321,-0.020044906
COL5A1,-0.03768109,3.8689606,-0.03533216,-0.057357367,8.608218,-0.01690782,7.844677,7.4502616,4.3338456,-0.071895406,-0.04799411,6.704597,-0.061453618,-0.024955634,9.896054,-0.03127955
SOX18,-0.027740479,3.611624,-0.029174501,-0.042116072,8.794277,-0.016735656,6.180127,6.747206,4.69525,-0.05644341,-0.044939723,5.2672815,-0.06270759,-0.023983568,8.764649,-0.02430149
TRPV2,-0.03768109,3.8689606,-0.03533216,-0.057357367,8.608218,-0.01690782,7.844677,7.4502616,4.3338456,-0.071895406,-0.04799411,6.704597,-0.061453618,-0.024955634,9.896054,-0.03127955
IRF5,-0.03768109,3.8689606,-0.03533216,-0.057357367,8.608218,-0.01690782,7.844677,7.4502616,4.3338456,-0.071895406,-0.04799411,6.704597,-0.061453618,-0.024955634,9.896054,-0.03127955
ZFP672,-0.03768109,3.8689606,-0.03533216,-0.057357367,8.608218,-0.01690782,7.844677,7.4502616,4.3338456,-0.071895406,-0.04799411,6.704597,-0.061453618,-0.024955634,9.896054,-0.03127955
TRIM47,-0.037638716,3.8635645,-0.03536957,-0.057367638,8.607018,-0.016928231,7.845108,7.450793,4.328433,-0.07185769,-0.04801693,6.699971,-0.061407395,-0.024985392,9.891268,-0.03126531
BTK,-0.03768461,3.8677928,-0.035336882,-0.05734855,8.607851,-0.016902225,7.8450522,7.4506726,4.3349643,-0.07188894,-0.047989096,6.705346,-0.06146007,-0.024945073,9.895217,-0.031287637
PRDM4,-0.037661593,3.8698657,-0.035345495,-0.05735251,8.606293,-0.016898034,7.8423276,7.44708,4.3358507,-0.071908824,-0.047976162,6.7010055,-0.06143442,-0.024978565,9.894817,-0.031261306
INTS13,-0.03768109,3.8689606,-0.03533216,-0.057357367,8.608218,-0.01690782,7.844677,7.4502616,4.3338456,-0.071895406,-0.04799411,6.704597,-0.061453618,-0.024955634,9.896054,-0.03127955
FAM91A1,-0.03768109,3.8689606,-0.03533216,-0.057357367,8.608218,-0.01690782,7.844677,7.4502616,4.3338456,-0.071895406,-0.04799411,6.704597,-0.061453618,-0.024955634,9.896054,-0.03127955
FOXO1,-0.036050472,3.8338158,-0.033088002,-0.05470023,7.9068923,-0.017860401,7.0509944,6.985837,4.0883417,-0.065679155,-0.045762323,5.953963,-0.055368852,-0.02777771,9.098601,-0.029095372
GLIPR2,-0.037612822,3.8657217,-0.03537388,-0.057283316,8.612739,-0.016832218,7.835302,7.4479423,4.3266177,-0.07180885,-0.047943167,6.698124,-0.061377328,-0.024910528,9.887711,-0.03123878
TWSG1,-0.03768109,3.8689606,-0.03533216,-0.057357367,8.608218,-0.01690782,7.844677,7.4502616,4.3338456,-0.071895406,-0.04799411,6.704597,-0.061453618,-0.024955634,9.896054,-0.03127955
TEAD3,-0.03621378,3.6334767,-0.031063406,-0.06070863,8.185849,-0.010950744,8.018074,7.3526053,4.0157847,-0.07167978,-0.041992772,6.2694387,-0.05519916,-0.02926365,9.739993,-0.032613043
PRPS2,-0.03768109,3.8689606,-0.03533216,-0.057357367,8.608218,-0.01690782,7.844677,7.4502616,4.3338456,-0.071895406,-0.04799411,6.704597,-0.061453618,-0.024955634,9.896054,-0.03127955
NARFL,-0.03768109,3.8689606,-0.03533216,-0.057357367,8.608218,-0.01690782,7.844677,7.4502616,4.3338456,-0.071895406,-0.04799411,6.704597,-0.061453618,-0.024955634,9.896054,-0.03127955
VIM,-0.03768109,3.8689606,-0.03533216,-0.057357367,8.608218,-0.01690782,7.844677,7.4502616,4.3338456,-0.071895406,-0.04799411,6.704597,-0.061453618,-0.024955634,9.896054,-0.03127955
SLA,-0.037638716,3.8635645,-0.03536957,-0.057367638,8.607018,-0.016928231,7.845108,7.450793,4.328433,-0.07185769,-0.04801693,6.699971,-0.061407395,-0.024985392,9.891268,-0.03126531
NFXL1,-0.03621378,3.6334767,-0.031063406,-0.06070863,8.185849,-0.010950744,8.018074,7.3526053,4.0157847,-0.07167978,-0.041992772,6.2694387,-0.05519916,-0.02926365,9.739993,-0.032613043
PLK1,-0.023420304,2.6808164,-0.021852743,-0.03674249,5.5572186,-0.010051456,4.9927664,4.8384476,2.710902,-0.0457112,-0.033389796,3.9735463,-0.03567171,-0.020333096,6.2152658,-0.018793628
AP5M1,-0.03768109,3.8689606,-0.03533216,-0.057357367,8.608218,-0.01690782,7.844677,7.4502616,4.3338456,-0.071895406,-0.04799411,6.704597,-0.061453618,-0.024955634,9.896054,-0.03127955
HNF4A,-0.03240788,3.5373983,-0.029845884,-0.049142648,7.1921086,-0.015677493,6.438855,6.372558,3.717185,-0.05960327,-0.041943744,5.3370185,-0.04961029,-0.026052495,8.245761,-0.026320666
RUVBL2,-0.027588226,3.0780857,-0.025909103,-0.043074388,6.502122,-0.011669752,5.8564677,5.7000546,3.2122931,-0.05412478,-0.03852943,4.7821627,-0.042737313,-0.022142693,7.2939672,-0.021889443
STXBP4,-0.03768109,3.8689606,-0.03533216,-0.057357367,8.608218,-0.01690782,7.844677,7.4502616,4.3338456,-0.071895406,-0.04799411,6.704597,-0.061453618,-0.024955634,9.896054,-0.03127955
PPAT,-0.03768109,3.8689606,-0.03533216,-0.057357367,8.608218,-0.01690782,7.844677,7.4502616,4.3338456,-0.071895406,-0.04799411,6.704597,-0.061453618,-0.024955634,9.896054,-0.03127955
PHAX,-0.029435432,3.2567697,-0.02683965,-0.04504342,6.6632743,-0.013672004,5.9628353,5.9164033,3.4087608,-0.05508828,-0.03952467,4.8944645,-0.044846106,-0.024429051,7.6132965,-0.023735542
SLC25A21,-0.03768109,3.8689606,-0.03533216,-0.057357367,8.608218,-0.01690782,7.844677,7.4502616,4.3338456,-0.071895406,-0.04799411,6.704597,-0.061453618,-0.024955634,9.896054,-0.03127955
NGLY1,-0.037714925,3.8694503,-0.03530915,-0.057293363,8.606223,-0.016859936,7.8383317,7.444238,4.334491,-0.07186891,-0.047984984,6.704264,-0.06143536,-0.024922222,9.896324,-0.031282213
CDCA5,-0.020425268,2.3559287,-0.019370522,-0.03334576,5.002333,-0.008281963,4.4967384,4.311928,2.4137714,-0.041444458,-0.03005818,3.546041,-0.031314578,-0.017560551,5.423832,-0.016038803
NOLC1,-0.032639835,3.548867,-0.030020196,-0.049333714,7.3113265,-0.015492012,6.5289893,6.4867353,3.7630215,-0.060473397,-0.0426609,5.4402614,-0.050305933,-0.026078947,8.39917,-0.0264826
ELOVL1,-0.03768109,3.8689606,-0.03533216,-0.057357367,8.608218,-0.01690782,7.844677,7.4502616,4.3338456,-0.071895406,-0.04799411,6.704597,-0.061453618,-0.024955634,9.896054,-0.03127955
EXT2,-0.03245871,3.4688497,-0.031797424,-0.055019934,8.168596,-0.017947702,8.123078,7.796447,4.8430667,-0.072257765,-0.050490983,6.8098955,-0.05400069,-0.02449235,9.288028,-0.033202205
HIST1H1C,-0.030000485,3.3049324,-0.027353842,-0.045388587,6.718897,-0.014054346,6.017298,5.9657955,3.4346967,-0.055471607,-0.039565302,4.944252,-0.045741085,-0.024548499,7.713667,-0.024229636
PRSS50,-0.03768109,3.8689606,-0.03533216,-0.057357367,8.608218,-0.01690782,7.844677,7.4502616,4.3338456,-0.071895406,-0.04799411,6.704597,-0.061453618,-0.024955634,9.896054,-0.03127955
PRPF4,-0.02895746,3.2088764,-0.026340554,-0.044233143,6.5452905,-0.013374105,5.873997,5.8159304,3.3449662,-0.054101605,-0.038881693,4.806905,-0.044186737,-0.023895,7.4932685,-0.02327501
TRPS1,-0.0384933,4.0359282,-0.034903992,-0.05908705,8.406734,-0.019073559,7.479114,7.388494,4.3364887,-0.06981372,-0.048522353,6.3775525,-0.0591491,-0.02886821,9.655796,-0.030908389
AHCTF1,-0.021594929,2.480463,-0.020741291,-0.03489461,5.2829623,-0.008635222,4.764376,4.546945,2.5446384,-0.043807693,-0.031412672,3.7901268,-0.033580247,-0.01772428,5.752931,-0.01707497
ATG4B,-0.03768109,3.8689606,-0.03533216,-0.057357367,8.608218,-0.01690782,7.844677,7.4502616,4.3338456,-0.071895406,-0.04799411,6.704597,-0.061453618,-0.024955634,9.896054,-0.03127955
HACD3,-0.03768109,3.8689606,-0.03533216,-0.057357367,8.608218,-0.01690782,7.844677,7.4502616,4.3338456,-0.071895406,-0.04799411,6.704597,-0.061453618,-0.024955634,9.896054,-0.03127955
4833439L19RIK,-0.03768109,3.8689606,-0.03533216,-0.057357367,8.608218,-0.01690782,7.844677,7.4502616,4.3338456,-0.071895406,-0.04799411,6.704597,-0.061453618,-0.024955634,9.896054,-0.03127955
CNN2,-0.03768109,3.8689606,-0.03533216,-0.057357367,8.608218,-0.01690782,7.844677,7.4502616,4.3338456,-0.071895406,-0.04799411,6.704597,-0.061453618,-0.024955634,9.896054,-0.03127955
NUDCD3,-0.03768109,3.8689606,-0.03533216,-0.057357367,8.608218,-0.01690782,7.844677,7.4502616,4.3338456,-0.071895406,-0.04799411,6.704597,-0.061453618,-0.024955634,9.896054,-0.03127955
OPTN,-0.03768109,3.8689606,-0.03533216,-0.057357367,8.608218,-0.01690782,7.844677,7.4502616,4.3338456,-0.071895406,-0.04799411,6.704597,-0.061453618,-0.024955634,9.896054,-0.03127955
NCEH1,-0.03768109,3.8689606,-0.03533216,-0.057357367,8.608218,-0.01690782,7.844677,7.4502616,4.3338456,-0.071895406,-0.04799411,6.704597,-0.061453618,-0.024955634,9.896054,-0.03127955
APLP2,-0.03768109,3.8689606,-0.03533216,-0.057357367,8.608218,-0.01690782,7.844677,7.4502616,4.3338456,-0.071895406,-0.04799411,6.704597,-0.061453618,-0.024955634,9.896054,-0.03127955
MAPK12,-0.037299097,3.9500415,-0.03411361,-0.056889046,8.156545,-0.018351452,7.280294,7.193564,4.23791,-0.067893215,-0.047105167,6.1772013,-0.0574014,-0.028227577,9.3623495,-0.030187087
NCOA6,-0.03331628,3.609311,-0.03055837,-0.050501436,7.415451,-0.016051048,6.6194224,6.5752006,3.8335419,-0.06137693,-0.043185785,5.527409,-0.05122573,-0.026548143,8.515946,-0.027014703
ELP2,-0.027678642,3.0236363,-0.024853706,-0.042989943,6.447193,-0.011577295,5.8074865,5.648243,3.1282568,-0.053535055,-0.03855473,4.7212505,-0.04256158,-0.021830393,7.2887187,-0.021034721
ZFP275,-0.03768109,3.8689606,-0.03533216,-0.057357367,8.608218,-0.01690782,7.844677,7.4502616,4.3338456,-0.071895406,-0.04799411,6.704597,-0.061453618,-0.024955634,9.896054,-0.03127955
HACD4,-0.03768109,3.8689606,-0.03533216,-0.057357367,8.608218,-0.01690782,7.844677,7.4502616,4.3338456,-0.071895406,-0.04799411,6.704597,-0.061453618,-0.024955634,9.896054,-0.03127955
GTF3C3,-0.029087605,4.248579,-0.023873355,-0.043066107,8.990572,-0.005284554,7.963614,6.219787,3.5921032,-0.06578581,-0.049317412,5.884094,-0.055324752,-0.023867728,8.460528,-0.023456229
HERC4,-0.032540534,3.527491,-0.029715087,-0.048983056,7.363966,-0.015365847,6.5491033,6.525094,3.7636309,-0.0605675,-0.04306211,5.4709253,-0.050538,-0.025799233,8.468826,-0.026206553
NEAT1,-0.03768109,3.8689606,-0.03533216,-0.057357367,8.608218,-0.01690782,7.844677,7.4502616,4.3338456,-0.071895406,-0.04799411,6.704597,-0.061453618,-0.024955634,9.896054,-0.03127955
CES2G,-0.03768109,3.8689606,-0.03533216,-0.057357367,8.608218,-0.01690782,7.844677,7.4502616,4.3338456,-0.071895406,-0.04799411,6.704597,-0.061453618,-0.024955634,9.896054,-0.03127955
APBB1,-0.03768109,3.8689606,-0.03533216,-0.057357367,8.608218,-0.01690782,7.844677,7.4502616,4.3338456,-0.071895406,-0.04799411,6.704597,-0.061453618,-0.024955634,9.896054,-0.03127955
EFTUD2,-0.029819774,3.2845194,-0.027068429,-0.045278005,6.670281,-0.014065123,5.9810166,5.928173,3.4382162,-0.055129178,-0.03942639,4.90502,-0.04542997,-0.024631258,7.6375546,-0.024099384
TMEM129,-0.03768109,3.8689606,-0.03533216,-0.057357367,8.608218,-0.01690782,7.844677,7.4502616,4.3338456,-0.071895406,-0.04799411,6.704597,-0.061453618,-0.024955634,9.896054,-0.03127955
TRIB2,-0.03768109,3.8689606,-0.03533216,-0.057357367,8.608218,-0.01690782,7.844677,7.4502616,4.3338456,-0.071895406,-0.04799411,6.704597,-0.061453618,-0.024955634,9.896054,-0.03127955
HELLS,-0.020663805,2.4677017,-0.01984425,-0.03537261,5.294539,-0.010601986,5.0983734,4.9859667,2.9574437,-0.045507576,-0.034456518,3.9906213,-0.031675912,-0.020181503,5.8680296,-0.019675808
GM4759,-0.037142448,3.2572434,-0.030796872,-0.058472853,8.269946,-0.016353734,7.7017746,7.601173,3.8519921,-0.069467865,-0.05145718,6.9487925,-0.05783809,-0.023398148,10.160675,-0.026748557
H2-DMB1,-0.027740479,3.611624,-0.029174501,-0.042116072,8.794277,-0.016735656,6.180127,6.747206,4.69525,-0.05644341,-0.044939723,5.2672815,-0.06270759,-0.023983568,8.764649,-0.02430149
UBA7,-0.03306385,3.5745983,-0.030228453,-0.04992545,7.422723,-0.015884893,6.6196775,6.573567,3.8065572,-0.061219204,-0.043217443,5.5162516,-0.051142395,-0.026378227,8.54132,-0.026710667
IRF6,-0.03768109,3.8689606,-0.03533216,-0.057357367,8.608218,-0.01690782,7.844677,7.4502616,4.3338456,-0.071895406,-0.04799411,6.704597,-0.061453618,-0.024955634,9.896054,-0.03127955
TCF12,-0.033294726,3.6005466,-0.030666688,-0.05055472,7.3826294,-0.01609097,6.614739,6.5569153,3.8198473,-0.061296638,-0.042957388,5.5163245,-0.051092215,-0.026380822,8.496224,-0.0270589
LIG1,-0.024645472,2.7969663,-0.022643236,-0.03829049,5.7455354,-0.010857303,5.1569667,5.045338,2.8500118,-0.047192972,-0.034469865,4.1297817,-0.03752286,-0.021293547,6.4838476,-0.019713473
ABTB1,-0.03809659,3.882117,-0.03625879,-0.05883602,8.675933,-0.01750779,7.8545694,7.55404,4.412877,-0.07267572,-0.04817713,6.7866607,-0.061153293,-0.02613927,9.918864,-0.03217552
ZEB2,-0.034510568,3.7229793,-0.031935226,-0.05210787,7.695515,-0.016753515,6.8679256,6.7971983,3.9837947,-0.06369306,-0.044533703,5.7757087,-0.053613927,-0.02675388,8.856166,-0.028242635
UHRF1,-0.027042346,3.1071966,-0.019483082,-0.044282418,4.8583775,-0.015745012,4.511699,4.590725,2.9915383,-0.045184713,-0.038075946,3.3736708,-0.03626636,-0.01828795,5.820799,-0.0154590625
GM28875,-0.03768109,3.8689606,-0.03533216,-0.057357367,8.608218,-0.01690782,7.844677,7.4502616,4.3338456,-0.071895406,-0.04799411,6.704597,-0.061453618,-0.024955634,9.896054,-0.03127955
MED22,-0.035955176,3.8218176,-0.032814987,-0.054142598,7.9357495,-0.017745547,7.0636816,7.048146,4.1685724,-0.06576783,-0.04601138,5.999189,-0.056083515,-0.027195157,9.151402,-0.029055165
TBL3,-0.03162877,3.461252,-0.028867036,-0.04775722,7.119147,-0.014715192,6.3635106,6.3284726,3.6424494,-0.058741953,-0.04180887,5.277099,-0.048698697,-0.02538706,8.1852865,-0.025432037
UROS,-0.03768109,3.8689606,-0.03533216,-0.057357367,8.608218,-0.01690782,7.844677,7.4502616,4.3338456,-0.071895406,-0.04799411,6.704597,-0.061453618,-0.024955634,9.896054,-0.03127955
COLGALT1,-0.03768109,3.8689606,-0.03533216,-0.057357367,8.608218,-0.01690782,7.844677,7.4502616,4.3338456,-0.071895406,-0.04799411,6.704597,-0.061453618,-0.024955634,9.896054,-0.03127955
FAAP100,-0.03768109,3.8689606,-0.03533216,-0.057357367,8.608218,-0.01690782,7.844677,7.4502616,4.3338456,-0.071895406,-0.04799411,6.704597,-0.061453618,-0.024955634,9.896054,-0.03127955
XRCC3,-0.026747227,3.0098224,-0.024399864,-0.041209627,6.1557474,-0.012135738,5.5223603,5.4379525,3.100674,-0.050635874,-0.036875043,4.468663,-0.04069165,-0.022946002,6.998328,-0.021568995
FAM76B,-0.03768109,3.8689606,-0.03533216,-0.057357367,8.608218,-0.01690782,7.844677,7.4502616,4.3338456,-0.071895406,-0.04799411,6.704597,-0.061453618,-0.024955634,9.896054,-0.03127955
PRKAB1,-0.03768109,3.8689606,-0.03533216,-0.057357367,8.608218,-0.01690782,7.844677,7.4502616,4.3338456,-0.071895406,-0.04799411,6.704597,-0.061453618,-0.024955634,9.896054,-0.03127955
SGPP1,-0.03768109,3.8689606,-0.03533216,-0.057357367,8.608218,-0.01690782,7.844677,7.4502616,4.3338456,-0.071895406,-0.04799411,6.704597,-0.061453618,-0.024955634,9.896054,-0.03127955
PPOX,-0.03768109,3.8689606,-0.03533216,-0.057357367,8.608218,-0.01690782,7.844677,7.4502616,4.3338456,-0.071895406,-0.04799411,6.704597,-0.061453618,-0.024955634,9.896054,-0.03127955
PSEN2,-0.03768109,3.8689606,-0.03533216,-0.057357367,8.608218,-0.01690782,7.844677,7.4502616,4.3338456,-0.071895406,-0.04799411,6.704597,-0.061453618,-0.024955634,9.896054,-0.03127955
HMBS,-0.027740479,3.611624,-0.029174501,-0.042116072,8.794277,-0.016735656,6.180127,6.747206,4.69525,-0.05644341,-0.044939723,5.2672815,-0.06270759,-0.023983568,8.764649,-0.02430149
TUBGCP2,-0.03768109,3.8689606,-0.03533216,-0.057357367,8.608218,-0.01690782,7.844677,7.4502616,4.3338456,-0.071895406,-0.04799411,6.704597,-0.061453618,-0.024955634,9.896054,-0.03127955
ZFP24,-0.03768109,3.8689606,-0.03533216,-0.057357367,8.608218,-0.01690782,7.844677,7.4502616,4.3338456,-0.071895406,-0.04799411,6.704597,-0.061453618,-0.024955634,9.896054,-0.03127955
DIS3L2,-0.03768109,3.8689606,-0.03533216,-0.057357367,8.608218,-0.01690782,7.844677,7.4502616,4.3338456,-0.071895406,-0.04799411,6.704597,-0.061453618,-0.024955634,9.896054,-0.03127955
TSC22D3,-0.03768109,3.8689606,-0.03533216,-0.057357367,8.608218,-0.01690782,7.844677,7.4502616,4.3338456,-0.071895406,-0.04799411,6.704597,-0.061453618,-0.024955634,9.896054,-0.03127955
CREB5,-0.03588642,3.8246596,-0.033077367,-0.05433528,7.8877745,-0.01776765,7.0271177,6.957409,4.072766,-0.0654499,-0.045521576,5.924371,-0.055196438,-0.027690625,9.055441,-0.028988587
ASB8,-0.03768109,3.8689606,-0.03533216,-0.057357367,8.608218,-0.01690782,7.844677,7.4502616,4.3338456,-0.071895406,-0.04799411,6.704597,-0.061453618,-0.024955634,9.896054,-0.03127955
STX12,-0.03768109,3.8689606,-0.03533216,-0.057357367,8.608218,-0.01690782,7.844677,7.4502616,4.3338456,-0.071895406,-0.04799411,6.704597,-0.061453618,-0.024955634,9.896054,-0.03127955
RARB,-0.03257048,3.5493033,-0.029869048,-0.04943645,7.2452817,-0.01571856,6.4731402,6.4214263,3.7415688,-0.05994175,-0.042247176,5.373989,-0.049916543,-0.026332157,8.306209,-0.026358053
ZSCAN21,-0.03768109,3.8689606,-0.03533216,-0.057357367,8.608218,-0.01690782,7.844677,7.4502616,4.3338456,-0.071895406,-0.04799411,6.704597,-0.061453618,-0.024955634,9.896054,-0.03127955
FNTA,-0.03768109,3.8689606,-0.03533216,-0.057357367,8.608218,-0.01690782,7.844677,7.4502616,4.3338456,-0.071895406,-0.04799411,6.704597,-0.061453618,-0.024955634,9.896054,-0.03127955
METTL8,-0.03768109,3.8689606,-0.03533216,-0.057357367,8.608218,-0.01690782,7.844677,7.4502616,4.3338456,-0.071895406,-0.04799411,6.704597,-0.061453618,-0.024955634,9.896054,-0.03127955
GRINA,-0.03768109,3.8689606,-0.03533216,-0.057357367,8.608218,-0.01690782,7.844677,7.4502616,4.3338456,-0.071895406,-0.04799411,6.704597,-0.061453618,-0.024955634,9.896054,-0.03127955
TRIM59,-0.03768109,3.8689606,-0.03533216,-0.057357367,8.608218,-0.01690782,7.844677,7.4502616,4.3338456,-0.071895406,-0.04799411,6.704597,-0.061453618,-0.024955634,9.896054,-0.03127955
ABCF3,-0.03768109,3.8689606,-0.03533216,-0.057357367,8.608218,-0.01690782,7.844677,7.4502616,4.3338456,-0.071895406,-0.04799411,6.704597,-0.061453618,-0.024955634,9.896054,-0.03127955
NCAPH,-0.023225049,2.6569164,-0.021570351,-0.036472306,5.4984236,-0.010019826,4.935139,4.7866015,2.6838465,-0.0451844,-0.033075646,3.9211051,-0.035279002,-0.020317448,6.144184,-0.018576916
SNAP23,-0.03768109,3.8689606,-0.03533216,-0.057357367,8.608218,-0.01690782,7.844677,7.4502616,4.3338456,-0.071895406,-0.04799411,6.704597,-0.061453618,-0.024955634,9.896054,-0.03127955
HMGB2,-0.024928965,2.8152494,-0.022940172,-0.038602818,5.8054643,-0.010947915,5.2018137,5.098177,2.8653104,-0.047644205,-0.034653883,4.176271,-0.03796636,-0.021378588,6.552459,-0.01987185
RGS2,-0.03768109,3.8689606,-0.03533216,-0.057357367,8.608218,-0.01690782,7.844677,7.4502616,4.3338456,-0.071895406,-0.04799411,6.704597,-0.061453618,-0.024955634,9.896054,-0.03127955
MINPP1,-0.03768109,3.8689606,-0.03533216,-0.057357367,8.608218,-0.01690782,7.844677,7.4502616,4.3338456,-0.071895406,-0.04799411,6.704597,-0.061453618,-0.024955634,9.896054,-0.03127955
ASNS,-0.037612822,3.8657217,-0.03537388,-0.057283316,8.612739,-0.016832218,7.835302,7.4479423,4.3266177,-0.07180885,-0.047943167,6.698124,-0.061377328,-0.024910528,9.887711,-0.03123878
MTFR1,-0.03768109,3.8689606,-0.03533216,-0.057357367,8.608218,-0.01690782,7.844677,7.4502616,4.3338456,-0.071895406,-0.04799411,6.704597,-0.061453618,-0.024955634,9.896054,-0.03127955
PLD3,-0.03768109,3.8689606,-0.03533216,-0.057357367,8.608218,-0.01690782,7.844677,7.4502616,4.3338456,-0.071895406,-0.04799411,6.704597,-0.061453618,-0.024955634,9.896054,-0.03127955
FAR1,-0.03768109,3.8689606,-0.03533216,-0.057357367,8.608218,-0.01690782,7.844677,7.4502616,4.3338456,-0.071895406,-0.04799411,6.704597,-0.061453618,-0.024955634,9.896054,-0.03127955
NCAPG2,-0.025577826,2.8921356,-0.023627982,-0.039604697,5.9715056,-0.011244358,5.3647847,5.252007,2.9693532,-0.049104087,-0.035626266,4.3193383,-0.039282802,-0.021635596,6.7693014,-0.020578345
PGM1,-0.031680413,2.8356416,-0.038111247,-0.06320698,7.9217496,-0.014848906,7.9029684,6.7368608,4.409176,-0.07380817,-0.038288806,7.0352163,-0.052052334,-0.016360555,8.980272,-0.039379206
GATA2,-0.030484706,3.3344643,-0.02771587,-0.046212763,6.781084,-0.01448897,6.0778155,6.031001,3.4710202,-0.056019053,-0.039823256,4.9967127,-0.046319403,-0.025122307,7.7886324,-0.024504017
UCKL1,-0.03768109,3.8689606,-0.03533216,-0.057357367,8.608218,-0.01690782,7.844677,7.4502616,4.3338456,-0.071895406,-0.04799411,6.704597,-0.061453618,-0.024955634,9.896054,-0.03127955
SLC30A6,-0.03768109,3.8689606,-0.03533216,-0.057357367,8.608218,-0.01690782,7.844677,7.4502616,4.3338456,-0.071895406,-0.04799411,6.704597,-0.061453618,-0.024955634,9.896054,-0.03127955
SLA2,-0.03768109,3.8689606,-0.03533216,-0.057357367,8.608218,-0.01690782,7.844677,7.4502616,4.3338456,-0.071895406,-0.04799411,6.704597,-0.061453618,-0.024955634,9.896054,-0.03127955
KIF22,-0.020392368,2.3483691,-0.01929785,-0.033169277,4.9623256,-0.008339445,4.4536347,4.277285,2.4016254,-0.041117813,-0.029795382,3.50889,-0.031171208,-0.017494567,5.375034,-0.01594592
NCAPD2,-0.020216972,2.3288789,-0.019108176,-0.032945186,4.9252925,-0.008279857,4.415678,4.2447796,2.3837826,-0.04078264,-0.029582765,3.4758432,-0.03087187,-0.017436082,5.3283257,-0.015799245
AMPD3,-0.03768109,3.8689606,-0.03533216,-0.057357367,8.608218,-0.01690782,7.844677,7.4502616,4.3338456,-0.071895406,-0.04799411,6.704597,-0.061453618,-0.024955634,9.896054,-0.03127955
SELENBP1,-0.03768109,3.8689606,-0.03533216,-0.057357367,8.608218,-0.01690782,7.844677,7.4502616,4.3338456,-0.071895406,-0.04799411,6.704597,-0.061453618,-0.024955634,9.896054,-0.03127955
ATP13A1,-0.036868963,4.1042113,-0.037123673,-0.048648056,7.667666,-0.018220467,7.53276,7.1279054,4.374134,-0.06516271,-0.043144975,6.54342,-0.060508933,-0.0314141,9.622339,-0.03579044
GOLM1,-0.03768109,3.8689606,-0.03533216,-0.057357367,8.608218,-0.01690782,7.844677,7.4502616,4.3338456,-0.071895406,-0.04799411,6.704597,-0.061453618,-0.024955634,9.896054,-0.03127955
PLCB2,-0.03768109,3.8689606,-0.03533216,-0.057357367,8.608218,-0.01690782,7.844677,7.4502616,4.3338456,-0.071895406,-0.04799411,6.704597,-0.061453618,-0.024955634,9.896054,-0.03127955
PMPCA,-0.035179213,3.5693197,-0.032885127,-0.053503383,8.051243,-0.015128331,7.40784,6.9353223,3.98143,-0.06723877,-0.044055272,6.274719,-0.05762598,-0.022814523,9.236344,-0.029209375
MAU2,-0.037714925,3.8694503,-0.03530915,-0.057293363,8.606223,-0.016859936,7.8383317,7.444238,4.334491,-0.07186891,-0.047984984,6.704264,-0.06143536,-0.024922222,9.896324,-0.031282213
D1ERTD622E,-0.03272766,4.0078044,-0.03948902,-0.057523414,8.364706,-0.009888923,7.995602,7.511684,3.9741464,-0.0711479,-0.048083253,6.8714156,-0.054126944,-0.018330285,9.4166155,-0.030776257
MEF2C,-0.032643188,3.5397348,-0.029825721,-0.049550746,7.242141,-0.015682215,6.4815464,6.4334884,3.751209,-0.060049932,-0.042213667,5.3863106,-0.049979907,-0.02616973,8.316982,-0.026455611
DDX20,-0.02562913,3.9217076,-0.020731462,-0.03746661,7.7392893,-0.0054745083,6.712872,5.5197945,3.1624277,-0.05605138,-0.044330258,4.8199077,-0.045757737,-0.02494682,7.2737517,-0.019897392
SPTLC1,-0.037654288,3.8658707,-0.035360947,-0.057350304,8.609868,-0.016877217,7.842602,7.450523,4.3331685,-0.07191234,-0.04801701,6.7076797,-0.06144501,-0.024928862,9.898305,-0.031309314
VKORC1L1,-0.03771938,3.8671224,-0.03533142,-0.057351172,8.604662,-0.016929429,7.8424497,7.4491115,4.3358836,-0.07190493,-0.04799727,6.7039485,-0.061418064,-0.024926554,9.895682,-0.031279657
TMEM64,-0.030924814,2.8548,-0.043987636,-0.043439038,7.072293,-0.014140672,7.30536,5.8728976,3.5390208,-0.06380912,-0.035563007,6.9100933,-0.05647479,-0.011158319,9.866937,-0.041348338
COPS8,-0.030983638,3.387768,-0.028430756,-0.046921816,7.067929,-0.014362863,6.3041434,6.2570353,3.5882387,-0.058126185,-0.041545704,5.239934,-0.048120942,-0.024623215,8.1180525,-0.02497504
FARSB,-0.03768109,3.8689606,-0.03533216,-0.057357367,8.608218,-0.01690782,7.844677,7.4502616,4.3338456,-0.071895406,-0.04799411,6.704597,-0.061453618,-0.024955634,9.896054,-0.03127955
MCM7,-0.023205094,2.6455758,-0.02155102,-0.03657324,5.4927573,-0.010134298,4.918292,4.7928843,2.6970234,-0.045159187,-0.033075973,3.9267313,-0.035234578,-0.020336088,6.12719,-0.018549807
DCP1A,-0.038615853,4.0203347,-0.03535176,-0.05843533,8.715956,-0.01845284,7.8047037,7.635257,4.512825,-0.07287013,-0.05040287,6.672651,-0.061637644,-0.027590672,9.990063,-0.03091965
ASAH1,-0.03768109,3.8689606,-0.03533216,-0.057357367,8.608218,-0.01690782,7.844677,7.4502616,4.3338456,-0.071895406,-0.04799411,6.704597,-0.061453618,-0.024955634,9.896054,-0.03127955
RAB32,-0.03768109,3.8689606,-0.03533216,-0.057357367,8.608218,-0.01690782,7.844677,7.4502616,4.3338456,-0.071895406,-0.04799411,6.704597,-0.061453618,-0.024955634,9.896054,-0.03127955
CENPA,-0.022049524,2.5439267,-0.021187598,-0.03546938,5.369038,-0.008889064,4.846324,4.614988,2.5867255,-0.0445347,-0.03199327,3.8574727,-0.034237087,-0.018033478,5.8702817,-0.017534435
DCAF13,-0.032832637,3.5679643,-0.030154087,-0.04973373,7.3126183,-0.01574876,6.5461736,6.4870214,3.7740645,-0.060567725,-0.042572957,5.4416194,-0.050467134,-0.026245017,8.39962,-0.02664337
IFI203,-0.03768109,3.8689606,-0.03533216,-0.057357367,8.608218,-0.01690782,7.844677,7.4502616,4.3338456,-0.071895406,-0.04799411,6.704597,-0.061453618,-0.024955634,9.896054,-0.03127955
ARHGAP15,-0.03768109,3.8689606,-0.03533216,-0.057357367,8.608218,-0.01690782,7.844677,7.4502616,4.3338456,-0.071895406,-0.04799411,6.704597,-0.061453618,-0.024955634,9.896054,-0.03127955
DCTD,-0.03768109,3.8689606,-0.03533216,-0.057357367,8.608218,-0.01690782,7.844677,7.4502616,4.3338456,-0.071895406,-0.04799411,6.704597,-0.061453618,-0.024955634,9.896054,-0.03127955
PML,-0.033146884,3.614572,-0.030675549,-0.049850337,7.4311795,-0.01539508,6.6570225,6.6050253,3.8253522,-0.061588187,-0.043214917,5.551092,-0.051347144,-0.025927497,8.5320635,-0.026772475
JUN,-0.033134338,3.596522,-0.030396972,-0.05018203,7.3450713,-0.016030915,6.575987,6.518697,3.8031332,-0.060868368,-0.042742543,5.471417,-0.050895132,-0.026383912,8.442193,-0.026859354
GCLC,-0.03768109,3.8689606,-0.03533216,-0.057357367,8.608218,-0.01690782,7.844677,7.4502616,4.3338456,-0.071895406,-0.04799411,6.704597,-0.061453618,-0.024955634,9.896054,-0.03127955
NCLN,-0.03768109,3.8689606,-0.03533216,-0.057357367,8.608218,-0.01690782,7.844677,7.4502616,4.3338456,-0.071895406,-0.04799411,6.704597,-0.061453618,-0.024955634,9.896054,-0.03127955
ELAC2,-0.032901704,3.5780683,-0.030273497,-0.050005164,7.3212276,-0.015826045,6.549156,6.477757,3.7719865,-0.06065699,-0.042613763,5.4411798,-0.05041447,-0.026417982,8.387712,-0.026710507
NFATC1,-0.02620591,3.9540772,-0.020801526,-0.038603388,7.70408,-0.0063575227,6.7222257,5.4893937,3.1833,-0.056035604,-0.04412406,4.8044024,-0.04610389,-0.025498591,7.2549543,-0.020335061
ACAA2,-0.03768109,3.8689606,-0.03533216,-0.057357367,8.608218,-0.01690782,7.844677,7.4502616,4.3338456,-0.071895406,-0.04799411,6.704597,-0.061453618,-0.024955634,9.896054,-0.03127955
ASF1B,-0.023226414,2.6604016,-0.021594191,-0.036442295,5.5100446,-0.010014399,4.9423485,4.790232,2.6879804,-0.045185965,-0.03306673,3.9287903,-0.03533458,-0.02036311,6.158076,-0.01864282
WARS,-0.03768109,3.8689606,-0.03533216,-0.057357367,8.608218,-0.01690782,7.844677,7.4502616,4.3338456,-0.071895406,-0.04799411,6.704597,-0.061453618,-0.024955634,9.896054,-0.03127955
CDCA8,-0.022163536,2.756756,-0.020491704,-0.02893397,5.319553,-0.011432592,4.2717657,4.395614,2.0915208,-0.04018178,-0.034177847,3.2073448,-0.029212348,-0.024789114,6.466034,-0.018340606
FIGNL1,-0.021269673,2.4464824,-0.020104604,-0.034402836,5.146037,-0.0086496705,4.637253,4.442155,2.4891117,-0.042756565,-0.030935002,3.661833,-0.032499135,-0.018053353,5.6131315,-0.01668007
NUP88,-0.031976067,3.496868,-0.02941453,-0.048372794,7.1460676,-0.015243714,6.4041815,6.3478947,3.6806931,-0.05915417,-0.041706868,5.3017244,-0.04915948,-0.025678268,8.214805,-0.02593519
ARHGEF18,-0.032455195,3.4700174,-0.0317927,-0.05502875,8.168964,-0.017953295,8.122704,7.7960362,4.841948,-0.07226423,-0.050496,6.8091464,-0.05399424,-0.02450291,9.288865,-0.033194117
SAMD14,-0.037638757,3.8630085,-0.03530491,-0.057351403,8.61293,-0.016926706,7.838837,7.4398713,4.336118,-0.07184548,-0.04794653,6.7076144,-0.061394203,-0.024960117,9.888724,-0.031275928
CRBN,-0.019146992,3.9912431,-0.0177157,-0.027824815,9.176631,-0.0051123872,6.299064,5.5167313,3.953507,-0.050333813,-0.04626302,4.446779,-0.056578726,-0.022895662,7.3291235,-0.016478175
TIMM29,-0.03768109,3.8689606,-0.03533216,-0.057357367,8.608218,-0.01690782,7.844677,7.4502616,4.3338456,-0.071895406,-0.04799411,6.704597,-0.061453618,-0.024955634,9.896054,-0.03127955
LDAH,-0.03768109,3.8689606,-0.03533216,-0.057357367,8.608218,-0.01690782,7.844677,7.4502616,4.3338456,-0.071895406,-0.04799411,6.704597,-0.061453618,-0.024955634,9.896054,-0.03127955
RASSF5,-0.03551874,4.047516,-0.032948576,-0.042493574,8.209424,-0.019762166,6.4923825,6.646362,3.1598792,-0.06169042,-0.049982805,5.261203,-0.04929099,-0.03378025,10.468758,-0.030600414
PREP,-0.030892126,2.85016,-0.044018935,-0.04345012,7.0742555,-0.01417397,7.30441,5.8746,3.542357,-0.063815385,-0.03556571,6.910655,-0.056503892,-0.011174377,9.862888,-0.041325536
NRF1,-0.037831582,4.0034475,-0.03497345,-0.057484005,8.4383745,-0.018510066,7.515342,7.420298,4.390173,-0.07002633,-0.04866737,6.428691,-0.05932168,-0.028227009,9.694815,-0.031054616
WDR45B,-0.039653074,3.5957568,-0.042649478,-0.063959375,8.320631,-0.019935926,6.6913533,7.327309,4.2508636,-0.06518326,-0.03844745,7.2727275,-0.061938636,-0.023292651,8.798111,-0.033729542
ATAD1,-0.03768109,3.8689606,-0.03533216,-0.057357367,8.608218,-0.01690782,7.844677,7.4502616,4.3338456,-0.071895406,-0.04799411,6.704597,-0.061453618,-0.024955634,9.896054,-0.03127955
EDC3,-0.029313253,3.2019482,-0.027106665,-0.04374106,6.876471,-0.012174131,6.170879,5.916701,3.316671,-0.05660377,-0.039923683,5.053304,-0.046914034,-0.02140196,7.7756686,-0.022474362
DPH6,-0.03768109,3.8689606,-0.03533216,-0.057357367,8.608218,-0.01690782,7.844677,7.4502616,4.3338456,-0.071895406,-0.04799411,6.704597,-0.061453618,-0.024955634,9.896054,-0.03127955
PAFAH1B2,-0.027740479,3.611624,-0.029174501,-0.042116072,8.794277,-0.016735656,6.180127,6.747206,4.69525,-0.05644341,-0.044939723,5.2672815,-0.06270759,-0.023983568,8.764649,-0.02430149
SP4,-0.03768109,3.8689606,-0.03533216,-0.057357367,8.608218,-0.01690782,7.844677,7.4502616,4.3338456,-0.071895406,-0.04799411,6.704597,-0.061453618,-0.024955634,9.896054,-0.03127955
PGR,-0.032782897,3.7915266,-0.032046128,-0.044103034,6.661891,-0.017242532,6.378183,6.3046927,3.8701015,-0.056203965,-0.03921249,5.393786,-0.05052352,-0.031375356,8.277636,-0.030650519
B3GALNT2,-0.03768109,3.8689606,-0.03533216,-0.057357367,8.608218,-0.01690782,7.844677,7.4502616,4.3338456,-0.071895406,-0.04799411,6.704597,-0.061453618,-0.024955634,9.896054,-0.03127955
UMPS,-0.03768109,3.8689606,-0.03533216,-0.057357367,8.608218,-0.01690782,7.844677,7.4502616,4.3338456,-0.071895406,-0.04799411,6.704597,-0.061453618,-0.024955634,9.896054,-0.03127955
HDAC9,-0.035766847,3.8389933,-0.03325009,-0.054128382,7.9040747,-0.017496573,7.040241,6.976768,4.100902,-0.06562795,-0.04547928,5.9358816,-0.055204958,-0.027676063,9.048843,-0.029113883
KLF3,-0.037654288,3.8658707,-0.035360947,-0.057350304,8.609868,-0.016877217,7.842602,7.450523,4.3331685,-0.07191234,-0.04801701,6.7076797,-0.06144501,-0.024928862,9.898305,-0.031309314
NADK,-0.03768109,3.8689606,-0.03533216,-0.057357367,8.608218,-0.01690782,7.844677,7.4502616,4.3338456,-0.071895406,-0.04799411,6.704597,-0.061453618,-0.024955634,9.896054,-0.03127955
NUP107,-0.020497227,2.392389,-0.020024389,-0.03350866,5.10591,-0.008143584,4.5978208,4.370737,2.4728246,-0.042276677,-0.030231055,3.6402714,-0.0321113,-0.017132286,5.495614,-0.016546667
GFM1,-0.03768109,3.8689606,-0.03533216,-0.057357367,8.608218,-0.01690782,7.844677,7.4502616,4.3338456,-0.071895406,-0.04799411,6.704597,-0.061453618,-0.024955634,9.896054,-0.03127955
FEM1B,-0.0326497,3.5594954,-0.030169742,-0.049005374,7.3538876,-0.015175292,6.5760508,6.5198936,3.750019,-0.060724746,-0.042923015,5.484378,-0.050646286,-0.025476543,8.468684,-0.026343908
XPC,-0.029638454,3.2682824,-0.02689297,-0.044931937,6.6347303,-0.014028133,5.927199,5.869982,3.3833687,-0.05469612,-0.039263047,4.8581486,-0.044946175,-0.024673995,7.5822835,-0.023815662
SSX2IP,-0.03768109,3.8689606,-0.03533216,-0.057357367,8.608218,-0.01690782,7.844677,7.4502616,4.3338456,-0.071895406,-0.04799411,6.704597,-0.061453618,-0.024955634,9.896054,-0.03127955
EPDR1,-0.03768109,3.8689606,-0.03533216,-0.057357367,8.608218,-0.01690782,7.844677,7.4502616,4.3338456,-0.071895406,-0.04799411,6.704597,-0.061453618,-0.024955634,9.896054,-0.03127955
FTSJ3,-0.03170577,3.4734282,-0.029193474,-0.047816552,7.168024,-0.014488682,6.412983,6.3525352,3.634262,-0.059149615,-0.04193763,5.317777,-0.04891599,-0.025282634,8.229779,-0.025496798
PKLR,-0.032901704,3.5780683,-0.030273497,-0.050005164,7.3212276,-0.015826045,6.549156,6.477757,3.7719865,-0.06065699,-0.042613763,5.4411798,-0.05041447,-0.026417982,8.387712,-0.026710507
ZFP467,-0.03768109,3.8689606,-0.03533216,-0.057357367,8.608218,-0.01690782,7.844677,7.4502616,4.3338456,-0.071895406,-0.04799411,6.704597,-0.061453618,-0.024955634,9.896054,-0.03127955
TMX3,-0.03768109,3.8689606,-0.03533216,-0.057357367,8.608218,-0.01690782,7.844677,7.4502616,4.3338456,-0.071895406,-0.04799411,6.704597,-0.061453618,-0.024955634,9.896054,-0.03127955
ARL8B,-0.027726062,3.6136627,-0.02914016,-0.04215568,8.797669,-0.016770463,6.1742997,6.7471814,4.6920323,-0.056372896,-0.04498648,5.2686653,-0.062682435,-0.02394547,8.7611265,-0.024284996
FCHSD2,-0.03768109,3.8689606,-0.03533216,-0.057357367,8.608218,-0.01690782,7.844677,7.4502616,4.3338456,-0.071895406,-0.04799411,6.704597,-0.061453618,-0.024955634,9.896054,-0.03127955
PBK,-0.024685923,2.8031273,-0.0228837,-0.038376287,5.782562,-0.010770603,5.186139,5.065842,2.8499432,-0.047492407,-0.034551226,4.159393,-0.037664536,-0.021173634,6.5158825,-0.019804163
TMEM186,-0.037688885,3.8674357,-0.035316683,-0.057353444,8.60736,-0.016889434,7.841762,7.451775,4.3350444,-0.071905114,-0.047998402,6.7027173,-0.06142979,-0.024934998,9.897776,-0.03125238
EIF2B1,-0.03768109,3.8689606,-0.03533216,-0.057357367,8.608218,-0.01690782,7.844677,7.4502616,4.3338456,-0.071895406,-0.04799411,6.704597,-0.061453618,-0.024955634,9.896054,-0.03127955
RPP40,-0.03768109,3.8689606,-0.03533216,-0.057357367,8.608218,-0.01690782,7.844677,7.4502616,4.3338456,-0.071895406,-0.04799411,6.704597,-0.061453618,-0.024955634,9.896054,-0.03127955
D230025D16RIK,-0.03768109,3.8689606,-0.03533216,-0.057357367,8.608218,-0.01690782,7.844677,7.4502616,4.3338456,-0.071895406,-0.04799411,6.704597,-0.061453618,-0.024955634,9.896054,-0.03127955
ZYX,-0.03768109,3.8689606,-0.03533216,-0.057357367,8.608218,-0.01690782,7.844677,7.4502616,4.3338456,-0.071895406,-0.04799411,6.704597,-0.061453618,-0.024955634,9.896054,-0.03127955
NFIA,-0.03768109,3.8689606,-0.03533216,-0.057357367,8.608218,-0.01690782,7.844677,7.4502616,4.3338456,-0.071895406,-0.04799411,6.704597,-0.061453618,-0.024955634,9.896054,-0.03127955
SNAPC3,-0.028879518,3.1386335,-0.024261715,-0.048338234,6.470575,-0.009630726,6.181744,5.9377866,3.2332559,-0.055880673,-0.035749506,4.6632137,-0.04095611,-0.028156077,7.6179967,-0.025217162
PLEC,-0.03768109,3.8689606,-0.03533216,-0.057357367,8.608218,-0.01690782,7.844677,7.4502616,4.3338456,-0.071895406,-0.04799411,6.704597,-0.061453618,-0.024955634,9.896054,-0.03127955
CHP1,-0.03768109,3.8689606,-0.03533216,-0.057357367,8.608218,-0.01690782,7.844677,7.4502616,4.3338456,-0.071895406,-0.04799411,6.704597,-0.061453618,-0.024955634,9.896054,-0.03127955
EZR,-0.03768109,3.8689606,-0.03533216,-0.057357367,8.608218,-0.01690782,7.844677,7.4502616,4.3338456,-0.071895406,-0.04799411,6.704597,-0.061453618,-0.024955634,9.896054,-0.03127955
CYP20A1,-0.03768109,3.8689606,-0.03533216,-0.057357367,8.608218,-0.01690782,7.844677,7.4502616,4.3338456,-0.071895406,-0.04799411,6.704597,-0.061453618,-0.024955634,9.896054,-0.03127955
TACC3,-0.03768109,3.8689606,-0.03533216,-0.057357367,8.608218,-0.01690782,7.844677,7.4502616,4.3338456,-0.071895406,-0.04799411,6.704597,-0.061453618,-0.024955634,9.896054,-0.03127955
TMEM173,-0.037529673,3.981229,-0.03477023,-0.056558397,8.325913,-0.018455798,7.4026456,7.3179564,4.3458757,-0.06901502,-0.04771975,6.311986,-0.05885029,-0.028081743,9.5453415,-0.030688422
PIP4K2A,-0.03768109,3.8689606,-0.03533216,-0.057357367,8.608218,-0.01690782,7.844677,7.4502616,4.3338456,-0.071895406,-0.04799411,6.704597,-0.061453618,-0.024955634,9.896054,-0.03127955
BCAP29,-0.03768109,3.8689606,-0.03533216,-0.057357367,8.608218,-0.01690782,7.844677,7.4502616,4.3338456,-0.071895406,-0.04799411,6.704597,-0.061453618,-0.024955634,9.896054,-0.03127955
CDC45,-0.020238936,2.3305974,-0.019153154,-0.032936092,4.929565,-0.008289375,4.420695,4.2477894,2.385565,-0.040818565,-0.029594023,3.4817986,-0.030947737,-0.017385993,5.3333817,-0.015808659
NEDD1,-0.03768109,3.8689606,-0.03533216,-0.057357367,8.608218,-0.01690782,7.844677,7.4502616,4.3338456,-0.071895406,-0.04799411,6.704597,-0.061453618,-0.024955634,9.896054,-0.03127955
HSDL1,-0.03766075,3.864713,-0.0353644,-0.057395186,8.604031,-0.01690314,7.845884,7.446114,4.3332605,-0.071941905,-0.047962517,6.7068615,-0.061405778,-0.024948359,9.895362,-0.0313187
CPQ,-0.03621378,3.6334767,-0.031063406,-0.06070863,8.185849,-0.010950744,8.018074,7.3526053,4.0157847,-0.07167978,-0.041992772,6.2694387,-0.05519916,-0.02926365,9.739993,-0.032613043
CAST,-0.03768109,3.8689606,-0.03533216,-0.057357367,8.608218,-0.01690782,7.844677,7.4502616,4.3338456,-0.071895406,-0.04799411,6.704597,-0.061453618,-0.024955634,9.896054,-0.03127955
PGLYRP2,-0.03768109,3.8689606,-0.03533216,-0.057357367,8.608218,-0.01690782,7.844677,7.4502616,4.3338456,-0.071895406,-0.04799411,6.704597,-0.061453618,-0.024955634,9.896054,-0.03127955
EXOC2,-0.03768109,3.8689606,-0.03533216,-0.057357367,8.608218,-0.01690782,7.844677,7.4502616,4.3338456,-0.071895406,-0.04799411,6.704597,-0.061453618,-0.024955634,9.896054,-0.03127955
NT5DC1,-0.031680413,2.8356416,-0.038111247,-0.06320698,7.9217496,-0.014848906,7.9029684,6.7368608,4.409176,-0.07380817,-0.038288806,7.0352163,-0.052052334,-0.016360555,8.980272,-0.039379206
CRIP2,-0.03768109,3.8689606,-0.03533216,-0.057357367,8.608218,-0.01690782,7.844677,7.4502616,4.3338456,-0.071895406,-0.04799411,6.704597,-0.061453618,-0.024955634,9.896054,-0.03127955
CLPTM1L,-0.03768109,3.8689606,-0.03533216,-0.057357367,8.608218,-0.01690782,7.844677,7.4502616,4.3338456,-0.071895406,-0.04799411,6.704597,-0.061453618,-0.024955634,9.896054,-0.03127955
ZFP30,-0.03768109,3.8689606,-0.03533216,-0.057357367,8.608218,-0.01690782,7.844677,7.4502616,4.3338456,-0.071895406,-0.04799411,6.704597,-0.061453618,-0.024955634,9.896054,-0.03127955
OASL2,-0.04276041,4.3157187,-0.039760973,-0.066755615,9.420658,-0.020706981,8.503046,8.243369,4.921873,-0.078856826,-0.051865637,7.4370036,-0.06804006,-0.028646318,10.843999,-0.036382474
DNAJC5,-0.03768109,3.8689606,-0.03533216,-0.057357367,8.608218,-0.01690782,7.844677,7.4502616,4.3338456,-0.071895406,-0.04799411,6.704597,-0.061453618,-0.024955634,9.896054,-0.03127955
LAPTM4B,-0.03771938,3.8671224,-0.03533142,-0.057351172,8.604662,-0.016929429,7.8424497,7.4491115,4.3358836,-0.07190493,-0.04799727,6.7039485,-0.061418064,-0.024926554,9.895682,-0.031279657
CACFD1,-0.03768109,3.8689606,-0.03533216,-0.057357367,8.608218,-0.01690782,7.844677,7.4502616,4.3338456,-0.071895406,-0.04799411,6.704597,-0.061453618,-0.024955634,9.896054,-0.03127955
TYK2,-0.03456857,3.7185142,-0.03195038,-0.05228218,7.6510415,-0.016907848,6.8095036,6.7553463,3.9356694,-0.06337488,-0.044288993,5.7062545,-0.053000674,-0.02732207,8.762634,-0.027941918
NECAP2,-0.03768109,3.8689606,-0.03533216,-0.057357367,8.608218,-0.01690782,7.844677,7.4502616,4.3338456,-0.071895406,-0.04799411,6.704597,-0.061453618,-0.024955634,9.896054,-0.03127955
CD1D1,-0.03768109,3.8689606,-0.03533216,-0.057357367,8.608218,-0.01690782,7.844677,7.4502616,4.3338456,-0.071895406,-0.04799411,6.704597,-0.061453618,-0.024955634,9.896054,-0.03127955
CD34,-0.03768109,3.8689606,-0.03533216,-0.057357367,8.608218,-0.01690782,7.844677,7.4502616,4.3338456,-0.071895406,-0.04799411,6.704597,-0.061453618,-0.024955634,9.896054,-0.03127955
SLC30A5,-0.03768109,3.8689606,-0.03533216,-0.057357367,8.608218,-0.01690782,7.844677,7.4502616,4.3338456,-0.071895406,-0.04799411,6.704597,-0.061453618,-0.024955634,9.896054,-0.03127955
CYTH4,-0.030511059,3.3344605,-0.027709233,-0.04616409,6.745262,-0.014519497,6.0705376,6.002609,3.4584444,-0.05589841,-0.03964842,4.976616,-0.046254586,-0.024983596,7.7673407,-0.024531063
GEMIN5,-0.028488979,3.1167393,-0.026277384,-0.043507975,6.6480694,-0.012043527,5.9583993,5.802943,3.2535553,-0.055053376,-0.039198726,4.900486,-0.044826157,-0.021418104,7.4978867,-0.02171467
NDRG1,-0.033084657,3.638306,-0.027633067,-0.04714126,6.6029134,-0.0075830277,6.9747834,5.567935,2.8416643,-0.05821259,-0.03808356,4.849725,-0.048688054,-0.02497522,7.7704935,-0.02228487
EPAS1,-0.032482732,3.5368083,-0.02976473,-0.049077883,7.2970405,-0.015349394,6.5148754,6.476639,3.7379043,-0.06023106,-0.042484064,5.411171,-0.050112747,-0.025976336,8.389134,-0.026231864
TEAD2,-0.03768109,3.8689606,-0.03533216,-0.057357367,8.608218,-0.01690782,7.844677,7.4502616,4.3338456,-0.071895406,-0.04799411,6.704597,-0.061453618,-0.024955634,9.896054,-0.03127955
AK3,-0.041890226,3.7854664,-0.025404163,-0.05149891,7.562753,-0.018743873,7.300744,7.1521244,3.3975494,-0.06474266,-0.040611736,5.4160676,-0.06413827,-0.015672019,9.18242,-0.020514604
PDZK1IP1,-0.037682157,3.87037,-0.03535842,-0.05728584,8.607081,-0.016886096,7.8377113,7.452605,4.332585,-0.0718579,-0.047936644,6.704912,-0.061496038,-0.024917526,9.890315,-0.03129087
BC005561,-0.02995704,3.3074038,-0.027324127,-0.04545958,6.619381,-0.014395918,5.949699,5.879949,3.4251056,-0.05485212,-0.03889291,4.856363,-0.045459967,-0.024737014,7.575743,-0.024114069
EPOR,-0.02739059,2.5721014,-0.024669053,-0.04409439,7.477958,-0.017434442,5.591148,6.3780885,4.327362,-0.060032148,-0.046748236,5.672537,-0.047739405,-0.02857933,7.439671,-0.018343292
DYNLT3,-0.02341278,2.6728065,-0.022303637,-0.03710239,5.6153398,-0.00953938,5.0796885,4.849766,2.7050004,-0.046620913,-0.03351651,4.05517,-0.036270108,-0.018865827,6.2221103,-0.018505547
JAK3,-0.03768109,3.8689606,-0.03533216,-0.057357367,8.608218,-0.01690782,7.844677,7.4502616,4.3338456,-0.071895406,-0.04799411,6.704597,-0.061453618,-0.024955634,9.896054,-0.03127955
LDHB,-0.03768109,3.8689606,-0.03533216,-0.057357367,8.608218,-0.01690782,7.844677,7.4502616,4.3338456,-0.071895406,-0.04799411,6.704597,-0.061453618,-0.024955634,9.896054,-0.03127955
PTGS1,-0.038346827,3.9645288,-0.032702886,-0.054802306,7.704119,-0.008283147,8.270768,6.3699613,3.3045912,-0.068955146,-0.04215964,5.9655247,-0.05924987,-0.02380985,9.071293,-0.026635118
FLOT2,-0.047574893,3.5971663,-0.025016412,-0.053364333,7.3025937,-0.02044515,6.450076,7.233214,3.0402303,-0.06294472,-0.03248416,4.4881306,-0.06517332,-0.021501359,8.495108,-0.013753884
TLK1,-0.03830854,3.966367,-0.032703623,-0.054808505,7.7076755,-0.008261538,8.272994,6.3711114,3.3025537,-0.068945624,-0.042156473,5.9661727,-0.059285425,-0.023838932,9.071666,-0.026635002
PITRM1,-0.03768109,3.8689606,-0.03533216,-0.057357367,8.608218,-0.01690782,7.844677,7.4502616,4.3338456,-0.071895406,-0.04799411,6.704597,-0.061453618,-0.024955634,9.896054,-0.03127955
CD84,-0.03768109,3.8689606,-0.03533216,-0.057357367,8.608218,-0.01690782,7.844677,7.4502616,4.3338456,-0.071895406,-0.04799411,6.704597,-0.061453618,-0.024955634,9.896054,-0.03127955
TAB1,-0.033866446,3.6555445,-0.031382874,-0.051244706,7.5549774,-0.016437981,6.7477922,6.691812,3.918517,-0.06256451,-0.043666232,5.659906,-0.052478507,-0.026595375,8.683528,-0.027743243
METAP1,-0.03768109,3.8689606,-0.03533216,-0.057357367,8.608218,-0.01690782,7.844677,7.4502616,4.3338456,-0.071895406,-0.04799411,6.704597,-0.061453618,-0.024955634,9.896054,-0.03127955
SLC18A2,-0.03768461,3.8677928,-0.035336882,-0.05734855,8.607851,-0.016902225,7.8450522,7.4506726,4.3349643,-0.07188894,-0.047989096,6.705346,-0.06146007,-0.024945073,9.895217,-0.031287637
DDX1,-0.03768109,3.8689606,-0.03533216,-0.057357367,8.608218,-0.01690782,7.844677,7.4502616,4.3338456,-0.071895406,-0.04799411,6.704597,-0.061453618,-0.024955634,9.896054,-0.03127955
PTDSS2,-0.03768109,3.8689606,-0.03533216,-0.057357367,8.608218,-0.01690782,7.844677,7.4502616,4.3338456,-0.071895406,-0.04799411,6.704597,-0.061453618,-0.024955634,9.896054,-0.03127955
PRKAA1,-0.04041413,4.2138004,-0.037336715,-0.06219577,8.905479,-0.019909577,7.9659514,7.8220005,4.642477,-0.07430341,-0.05087952,6.8708405,-0.06316576,-0.028902967,10.234562,-0.033403248
RMND5A,-0.03768109,3.8689606,-0.03533216,-0.057357367,8.608218,-0.01690782,7.844677,7.4502616,4.3338456,-0.071895406,-0.04799411,6.704597,-0.061453618,-0.024955634,9.896054,-0.03127955
GUSB,-0.032760005,3.5555546,-0.030028021,-0.04946866,7.307756,-0.015705792,6.5389037,6.491045,3.7730744,-0.06046919,-0.042578466,5.4406285,-0.05051634,-0.026077623,8.409966,-0.026530175
ATP1B2,-0.03768109,3.8689606,-0.03533216,-0.057357367,8.608218,-0.01690782,7.844677,7.4502616,4.3338456,-0.071895406,-0.04799411,6.704597,-0.061453618,-0.024955634,9.896054,-0.03127955
DCAF4,-0.028812725,3.1934025,-0.026178032,-0.04392859,6.453752,-0.013673355,5.770582,5.7020116,3.295226,-0.05322358,-0.03837918,4.715172,-0.043537583,-0.024262644,7.347381,-0.023163414
CYB5R1,-0.03768109,3.8689606,-0.03533216,-0.057357367,8.608218,-0.01690782,7.844677,7.4502616,4.3338456,-0.071895406,-0.04799411,6.704597,-0.061453618,-0.024955634,9.896054,-0.03127955
ALG9,-0.03768109,3.8689606,-0.03533216,-0.057357367,8.608218,-0.01690782,7.844677,7.4502616,4.3338456,-0.071895406,-0.04799411,6.704597,-0.061453618,-0.024955634,9.896054,-0.03127955
MAPKAPK3,-0.033686996,3.6550221,-0.03104235,-0.05089589,7.4534035,-0.016391862,6.646718,6.607161,3.8734207,-0.061807945,-0.043271955,5.5437636,-0.051746115,-0.02669282,8.547873,-0.027305884
LYZ2,-0.032760005,3.5555546,-0.030028021,-0.04946866,7.307756,-0.015705792,6.5389037,6.491045,3.7730744,-0.06046919,-0.042578466,5.4406285,-0.05051634,-0.026077623,8.409966,-0.026530175
GFI1B,-0.032817986,3.563555,-0.030179415,-0.049694337,7.2958856,-0.01578686,6.5212326,6.4730115,3.7542713,-0.060383737,-0.04249432,5.4264693,-0.050288834,-0.026302144,8.378595,-0.026555575
PRIM2,-0.025578689,2.8836129,-0.023610596,-0.039565627,5.965413,-0.011232564,5.353575,5.2423687,2.9671495,-0.04907551,-0.035548225,4.3195148,-0.039258335,-0.021458438,6.755208,-0.020521555
RASAL3,-0.03768109,3.8689606,-0.03533216,-0.057357367,8.608218,-0.01690782,7.844677,7.4502616,4.3338456,-0.071895406,-0.04799411,6.704597,-0.061453618,-0.024955634,9.896054,-0.03127955
SPO11,-0.02285336,2.3042047,-0.033767376,-0.031572893,5.1147614,-0.011141637,5.3229575,4.35524,2.6023815,-0.046212416,-0.027415363,4.9040027,-0.03928926,-0.012014006,7.3452806,-0.03190314
PDE4B,-0.03768109,3.8689606,-0.03533216,-0.057357367,8.608218,-0.01690782,7.844677,7.4502616,4.3338456,-0.071895406,-0.04799411,6.704597,-0.061453618,-0.024955634,9.896054,-0.03127955
GPKOW,-0.029472275,3.2521098,-0.026754584,-0.04479559,6.5897145,-0.013883976,5.9100266,5.8601704,3.388806,-0.054477047,-0.039022878,4.845714,-0.044837408,-0.024282193,7.5509443,-0.023722354
YOD1,-0.03768109,3.8689606,-0.03533216,-0.057357367,8.608218,-0.01690782,7.844677,7.4502616,4.3338456,-0.071895406,-0.04799411,6.704597,-0.061453618,-0.024955634,9.896054,-0.03127955
KIF20B,-0.020815002,2.4019296,-0.01985593,-0.033788905,5.075938,-0.0084696235,4.5615473,4.3727365,2.4574025,-0.042078204,-0.030390417,3.6063564,-0.03196676,-0.017700396,5.5071764,-0.016418971
MAGED1,-0.03768109,3.8689606,-0.03533216,-0.057357367,8.608218,-0.01690782,7.844677,7.4502616,4.3338456,-0.071895406,-0.04799411,6.704597,-0.061453618,-0.024955634,9.896054,-0.03127955
LRRFIP1,-0.042812984,4.287876,-0.03908113,-0.066827126,9.411711,-0.020532275,8.464668,8.180602,4.881301,-0.078568764,-0.051574744,7.37302,-0.06800929,-0.028724734,10.781714,-0.035815742
FAM45A,-0.03768109,3.8689606,-0.03533216,-0.057357367,8.608218,-0.01690782,7.844677,7.4502616,4.3338456,-0.071895406,-0.04799411,6.704597,-0.061453618,-0.024955634,9.896054,-0.03127955
NUBP2,-0.03768109,3.8689606,-0.03533216,-0.057357367,8.608218,-0.01690782,7.844677,7.4502616,4.3338456,-0.071895406,-0.04799411,6.704597,-0.061453618,-0.024955634,9.896054,-0.03127955
COG7,-0.03768109,3.8689606,-0.03533216,-0.057357367,8.608218,-0.01690782,7.844677,7.4502616,4.3338456,-0.071895406,-0.04799411,6.704597,-0.061453618,-0.024955634,9.896054,-0.03127955
PLAC8,-0.033591982,3.632632,-0.030904483,-0.050754182,7.4642735,-0.016232409,6.6674614,6.615261,3.8510253,-0.06181724,-0.043350417,5.5633516,-0.05167553,-0.026649402,8.575065,-0.027207078
PAK1,-0.03390221,3.6542094,-0.031421173,-0.051511936,7.5605345,-0.016488237,6.761214,6.7075624,3.9222107,-0.062666655,-0.043751094,5.669339,-0.052381866,-0.026861185,8.688811,-0.027761396
UGCG,-0.037685342,3.8651218,-0.035297036,-0.05733375,8.607785,-0.016877055,7.848021,7.445017,4.334343,-0.07186814,-0.04800959,6.6979275,-0.061478,-0.02499984,9.8884945,-0.031291787
INTS8,-0.03122839,3.4172409,-0.028400935,-0.04737683,6.975792,-0.014801521,6.2314095,6.1888523,3.5792103,-0.057661794,-0.04101934,5.147481,-0.04759746,-0.025440773,7.987199,-0.025141202
UBE2C,-0.027459383,3.0624967,-0.025481476,-0.04199345,6.4352074,-0.012113321,5.7454066,5.646048,3.181982,-0.052775934,-0.03808884,4.7009706,-0.042779416,-0.022252288,7.309413,-0.021917567
ARMC8,-0.037142448,3.2572434,-0.030796872,-0.058472853,8.269946,-0.016353734,7.7017746,7.601173,3.8519921,-0.069467865,-0.05145718,6.9487925,-0.05783809,-0.023398148,10.160675,-0.026748557
EYA1,-0.042652164,4.293603,-0.039027147,-0.06696217,9.425091,-0.020424582,8.471279,8.193097,4.8939533,-0.078664355,-0.051916108,7.390444,-0.06781998,-0.02871779,10.776974,-0.03575591
ZFP961,-0.03768109,3.8689606,-0.03533216,-0.057357367,8.608218,-0.01690782,7.844677,7.4502616,4.3338456,-0.071895406,-0.04799411,6.704597,-0.061453618,-0.024955634,9.896054,-0.03127955
CDK19,-0.034520645,3.6892173,-0.0315368,-0.05184036,7.6049438,-0.017274048,6.7508426,6.72377,3.928668,-0.062906384,-0.0447411,5.705607,-0.0531846,-0.026836542,8.738307,-0.027440714
PACSIN2,-0.03768109,3.8689606,-0.03533216,-0.057357367,8.608218,-0.01690782,7.844677,7.4502616,4.3338456,-0.071895406,-0.04799411,6.704597,-0.061453618,-0.024955634,9.896054,-0.03127955
RFC4,-0.024505096,2.7834814,-0.022500668,-0.03812406,5.743456,-0.010777669,5.1466627,5.0321712,2.8315883,-0.04710806,-0.03459083,4.123452,-0.0372828,-0.021292655,6.475806,-0.019572685
ACSS2,-0.03768109,3.8689606,-0.03533216,-0.057357367,8.608218,-0.01690782,7.844677,7.4502616,4.3338456,-0.071895406,-0.04799411,6.704597,-0.061453618,-0.024955634,9.896054,-0.03127955
GYPA,-0.029670427,3.2532363,-0.026760042,-0.04509623,6.620396,-0.014070483,5.9023495,5.883084,3.3945963,-0.054458387,-0.03897364,4.8518295,-0.045054443,-0.024757909,7.581319,-0.023776054
ELMO1,-0.03761191,3.8604743,-0.035398357,-0.057360575,8.608668,-0.016897628,7.843033,7.451054,4.3277555,-0.071874626,-0.04803983,6.7030544,-0.061398786,-0.024958618,9.893518,-0.031295076
CDC20,-0.025896996,2.9291518,-0.02389375,-0.039980743,6.016801,-0.011359931,5.4043903,5.2955775,2.98641,-0.049459584,-0.03586612,4.3521132,-0.0395653,-0.021968631,6.8333907,-0.020855565
CYTIP,-0.03768109,3.8689606,-0.03533216,-0.057357367,8.608218,-0.01690782,7.844677,7.4502616,4.3338456,-0.071895406,-0.04799411,6.704597,-0.061453618,-0.024955634,9.896054,-0.03127955
P2RX4,-0.03768109,3.8689606,-0.03533216,-0.057357367,8.608218,-0.01690782,7.844677,7.4502616,4.3338456,-0.071895406,-0.04799411,6.704597,-0.061453618,-0.024955634,9.896054,-0.03127955
MIS18BP1,-0.020318134,2.3381538,-0.019229474,-0.033023782,4.973467,-0.008200999,4.4692235,4.2770185,2.3908708,-0.041116018,-0.029783342,3.5228739,-0.031296264,-0.017215563,5.389708,-0.015879555
NR3C2,-0.039497744,4.10129,-0.036422092,-0.060881913,8.740413,-0.019586544,7.800022,7.7097373,4.521192,-0.07267014,-0.050152086,6.741452,-0.061586708,-0.02868901,10.081859,-0.0324937
CBFB,-0.0319188,3.482085,-0.029167539,-0.048383836,7.0847664,-0.0152854435,6.3416657,6.2966347,3.654145,-0.05869457,-0.041447476,5.2458105,-0.048733175,-0.025758956,8.136919,-0.025743673
C1QTNF12,-0.03768109,3.8689606,-0.03533216,-0.057357367,8.608218,-0.01690782,7.844677,7.4502616,4.3338456,-0.071895406,-0.04799411,6.704597,-0.061453618,-0.024955634,9.896054,-0.03127955
PICALM,-0.03768109,3.8689606,-0.03533216,-0.057357367,8.608218,-0.01690782,7.844677,7.4502616,4.3338456,-0.071895406,-0.04799411,6.704597,-0.061453618,-0.024955634,9.896054,-0.03127955
JPT2,-0.037638716,3.8635645,-0.03536957,-0.057367638,8.607018,-0.016928231,7.845108,7.450793,4.328433,-0.07185769,-0.04801693,6.699971,-0.061407395,-0.024985392,9.891268,-0.03126531
LMNA,-0.03768461,3.8677928,-0.035336882,-0.05734855,8.607851,-0.016902225,7.8450522,7.4506726,4.3349643,-0.07188894,-0.047989096,6.705346,-0.06146007,-0.024945073,9.895217,-0.031287637
SMAD2,-0.037472975,3.9630423,-0.033821438,-0.05661308,8.313717,-0.018052414,7.3609285,7.2938304,4.2448597,-0.06867168,-0.048328068,6.247637,-0.0581191,-0.028324638,9.527249,-0.029586246
TOM1L1,-0.03768109,3.8689606,-0.03533216,-0.057357367,8.608218,-0.01690782,7.844677,7.4502616,4.3338456,-0.071895406,-0.04799411,6.704597,-0.061453618,-0.024955634,9.896054,-0.03127955
CCNF,-0.031735335,3.467244,-0.029029507,-0.047828354,7.2006187,-0.014714587,6.428028,6.388136,3.6730123,-0.059272822,-0.04221894,5.3442955,-0.049305286,-0.025152259,8.287788,-0.025554253
GNG11,-0.03768109,3.8689606,-0.03533216,-0.057357367,8.608218,-0.01690782,7.844677,7.4502616,4.3338456,-0.071895406,-0.04799411,6.704597,-0.061453618,-0.024955634,9.896054,-0.03127955
USP4,-0.030924814,2.8548,-0.043987636,-0.043439038,7.072293,-0.014140672,7.30536,5.8728976,3.5390208,-0.06380912,-0.035563007,6.9100933,-0.05647479,-0.011158319,9.866937,-0.041348338
STAP1,-0.029087605,4.248579,-0.023873355,-0.043066107,8.990572,-0.005284554,7.963614,6.219787,3.5921032,-0.06578581,-0.049317412,5.884094,-0.055324752,-0.023867728,8.460528,-0.023456229
TMEM177,-0.03768109,3.8689606,-0.03533216,-0.057357367,8.608218,-0.01690782,7.844677,7.4502616,4.3338456,-0.071895406,-0.04799411,6.704597,-0.061453618,-0.024955634,9.896054,-0.03127955
PHF10,-0.033023678,3.5854187,-0.030184511,-0.050098293,7.3588896,-0.015791502,6.5316243,6.5480976,3.8072238,-0.06086539,-0.043043654,5.4552307,-0.05058076,-0.026447512,8.4284525,-0.02646204
CPT2,-0.03768109,3.8689606,-0.03533216,-0.057357367,8.608218,-0.01690782,7.844677,7.4502616,4.3338456,-0.071895406,-0.04799411,6.704597,-0.061453618,-0.024955634,9.896054,-0.03127955
IFI30,-0.03768109,3.8689606,-0.03533216,-0.057357367,8.608218,-0.01690782,7.844677,7.4502616,4.3338456,-0.071895406,-0.04799411,6.704597,-0.061453618,-0.024955634,9.896054,-0.03127955
CSGALNACT2,-0.03768109,3.8689606,-0.03533216,-0.057357367,8.608218,-0.01690782,7.844677,7.4502616,4.3338456,-0.071895406,-0.04799411,6.704597,-0.061453618,-0.024955634,9.896054,-0.03127955
SMIM1,-0.03768109,3.8689606,-0.03533216,-0.057357367,8.608218,-0.01690782,7.844677,7.4502616,4.3338456,-0.071895406,-0.04799411,6.704597,-0.061453618,-0.024955634,9.896054,-0.03127955
BUB1B,-0.020813176,2.4029953,-0.019895809,-0.03380072,5.0895066,-0.008429616,4.575756,4.3778896,2.4618626,-0.042182676,-0.030417344,3.6189914,-0.032103732,-0.01754572,5.5161805,-0.0164208
CYB5R3,-0.036754727,4.0126143,-0.026628906,-0.058882117,6.2535005,-0.022990331,5.7365594,5.946494,4.0103846,-0.05889092,-0.04800101,4.518807,-0.049837045,-0.022387395,7.6073074,-0.021109443
KIDINS220,-0.037462372,3.9848921,-0.03493963,-0.056417983,8.309591,-0.018208478,7.3876715,7.293547,4.3062797,-0.068958335,-0.04733524,6.2764874,-0.058462746,-0.02816818,9.488311,-0.030566229
9430015G10RIK,-0.03768109,3.8689606,-0.03533216,-0.057357367,8.608218,-0.01690782,7.844677,7.4502616,4.3338456,-0.071895406,-0.04799411,6.704597,-0.061453618,-0.024955634,9.896054,-0.03127955
TMEM185A,-0.03768109,3.8689606,-0.03533216,-0.057357367,8.608218,-0.01690782,7.844677,7.4502616,4.3338456,-0.071895406,-0.04799411,6.704597,-0.061453618,-0.024955634,9.896054,-0.03127955
GNAI3,-0.03768109,3.8689606,-0.03533216,-0.057357367,8.608218,-0.01690782,7.844677,7.4502616,4.3338456,-0.071895406,-0.04799411,6.704597,-0.061453618,-0.024955634,9.896054,-0.03127955
NFAT5,-0.03768109,3.8689606,-0.03533216,-0.057357367,8.608218,-0.01690782,7.844677,7.4502616,4.3338456,-0.071895406,-0.04799411,6.704597,-0.061453618,-0.024955634,9.896054,-0.03127955
PRKCH,-0.03230786,2.933048,-0.035482712,-0.06065812,7.021206,-0.006202624,8.331286,5.6577106,3.3778841,-0.07085839,-0.032451164,6.296792,-0.04988414,-0.015243851,8.155884,-0.034734663
FECH,-0.03768109,3.8689606,-0.03533216,-0.057357367,8.608218,-0.01690782,7.844677,7.4502616,4.3338456,-0.071895406,-0.04799411,6.704597,-0.061453618,-0.024955634,9.896054,-0.03127955
ADGRL4,-0.03768109,3.8689606,-0.03533216,-0.057357367,8.608218,-0.01690782,7.844677,7.4502616,4.3338456,-0.071895406,-0.04799411,6.704597,-0.061453618,-0.024955634,9.896054,-0.03127955
TMEM176B,-0.03768109,3.8689606,-0.03533216,-0.057357367,8.608218,-0.01690782,7.844677,7.4502616,4.3338456,-0.071895406,-0.04799411,6.704597,-0.061453618,-0.024955634,9.896054,-0.03127955
CCNE1,-0.027430356,3.0657032,-0.02515748,-0.04217689,6.342712,-0.012237017,5.684815,5.60958,3.1804156,-0.052154936,-0.037683833,4.6293073,-0.042132895,-0.022887966,7.2327714,-0.022066474
FKBP1A,-0.03768109,3.8689606,-0.03533216,-0.057357367,8.608218,-0.01690782,7.844677,7.4502616,4.3338456,-0.071895406,-0.04799411,6.704597,-0.061453618,-0.024955634,9.896054,-0.03127955
CTPS,-0.029799761,3.2951205,-0.02717607,-0.04519167,6.6508365,-0.013934708,5.967587,5.916038,3.4196963,-0.055031795,-0.03927839,4.8914824,-0.045358375,-0.024420828,7.620739,-0.023954485
CNOT10,-0.03721931,3.9587176,-0.034660984,-0.056797158,8.347884,-0.018068539,7.436619,7.3896055,4.3502517,-0.06915427,-0.048183087,6.3823977,-0.05847296,-0.027914688,9.58517,-0.030643126
NUSAP1,-0.020871513,2.4128568,-0.02004191,-0.03377396,5.0978417,-0.008464779,4.58463,4.3835454,2.4648042,-0.042219006,-0.030396378,3.6285722,-0.032229852,-0.017547674,5.528886,-0.016535599
H1F0,-0.030145084,3.3146143,-0.027521621,-0.04558919,6.7217197,-0.014209233,6.0255775,5.960238,3.4383752,-0.055524133,-0.039434396,4.94374,-0.045827806,-0.024801109,7.7132235,-0.024341831
CASP1,-0.03541655,3.797975,-0.032871697,-0.053378265,7.8601904,-0.017309442,7.023739,6.952631,4.0964866,-0.06522386,-0.04527521,5.9279513,-0.055168755,-0.027090691,9.045735,-0.029000811
RABIF,-0.03768109,3.8689606,-0.03533216,-0.057357367,8.608218,-0.01690782,7.844677,7.4502616,4.3338456,-0.071895406,-0.04799411,6.704597,-0.061453618,-0.024955634,9.896054,-0.03127955
RASA3,-0.037682157,3.87037,-0.03535842,-0.05728584,8.607081,-0.016886096,7.8377113,7.452605,4.332585,-0.0718579,-0.047936644,6.704912,-0.061496038,-0.024917526,9.890315,-0.03129087
TES,-0.03768109,3.8689606,-0.03533216,-0.057357367,8.608218,-0.01690782,7.844677,7.4502616,4.3338456,-0.071895406,-0.04799411,6.704597,-0.061453618,-0.024955634,9.896054,-0.03127955
HEATR5A,-0.03768109,3.8689606,-0.03533216,-0.057357367,8.608218,-0.01690782,7.844677,7.4502616,4.3338456,-0.071895406,-0.04799411,6.704597,-0.061453618,-0.024955634,9.896054,-0.03127955
SETD2,-0.031460293,3.4568174,-0.028916052,-0.047872428,7.015917,-0.014841124,6.2858953,6.226815,3.6121774,-0.05820976,-0.041173603,5.193262,-0.047888048,-0.025566347,8.0322895,-0.025552344
YBX3,-0.03768109,3.8689606,-0.03533216,-0.057357367,8.608218,-0.01690782,7.844677,7.4502616,4.3338456,-0.071895406,-0.04799411,6.704597,-0.061453618,-0.024955634,9.896054,-0.03127955
MMUT,-0.037682157,3.87037,-0.03535842,-0.05728584,8.607081,-0.016886096,7.8377113,7.452605,4.332585,-0.0718579,-0.047936644,6.704912,-0.061496038,-0.024917526,9.890315,-0.03129087
VILL,-0.03768109,3.8689606,-0.03533216,-0.057357367,8.608218,-0.01690782,7.844677,7.4502616,4.3338456,-0.071895406,-0.04799411,6.704597,-0.061453618,-0.024955634,9.896054,-0.03127955
GRAMD1A,-0.03768461,3.8677928,-0.035336882,-0.05734855,8.607851,-0.016902225,7.8450522,7.4506726,4.3349643,-0.07188894,-0.047989096,6.705346,-0.06146007,-0.024945073,9.895217,-0.031287637
UROD,-0.037142448,3.2572434,-0.030796872,-0.058472853,8.269946,-0.016353734,7.7017746,7.601173,3.8519921,-0.069467865,-0.05145718,6.9487925,-0.05783809,-0.023398148,10.160675,-0.026748557
CNIH1,-0.03768109,3.8689606,-0.03533216,-0.057357367,8.608218,-0.01690782,7.844677,7.4502616,4.3338456,-0.071895406,-0.04799411,6.704597,-0.061453618,-0.024955634,9.896054,-0.03127955
KPNA3,-0.03768109,3.8689606,-0.03533216,-0.057357367,8.608218,-0.01690782,7.844677,7.4502616,4.3338456,-0.071895406,-0.04799411,6.704597,-0.061453618,-0.024955634,9.896054,-0.03127955
SERPINB1A,-0.03768109,3.8689606,-0.03533216,-0.057357367,8.608218,-0.01690782,7.844677,7.4502616,4.3338456,-0.071895406,-0.04799411,6.704597,-0.061453618,-0.024955634,9.896054,-0.03127955
HEMGN,-0.03768109,3.8689606,-0.03533216,-0.057357367,8.608218,-0.01690782,7.844677,7.4502616,4.3338456,-0.071895406,-0.04799411,6.704597,-0.061453618,-0.024955634,9.896054,-0.03127955
TMEM263,-0.03768109,3.8689606,-0.03533216,-0.057357367,8.608218,-0.01690782,7.844677,7.4502616,4.3338456,-0.071895406,-0.04799411,6.704597,-0.061453618,-0.024955634,9.896054,-0.03127955
RTP4,-0.03768109,3.8689606,-0.03533216,-0.057357367,8.608218,-0.01690782,7.844677,7.4502616,4.3338456,-0.071895406,-0.04799411,6.704597,-0.061453618,-0.024955634,9.896054,-0.03127955
ITGA6,-0.03768109,3.8689606,-0.03533216,-0.057357367,8.608218,-0.01690782,7.844677,7.4502616,4.3338456,-0.071895406,-0.04799411,6.704597,-0.061453618,-0.024955634,9.896054,-0.03127955
PSMD5,-0.03306942,3.5864701,-0.030439159,-0.04956999,7.4455113,-0.015718987,6.6198955,6.598734,3.8255057,-0.061283614,-0.043279886,5.5455365,-0.051442593,-0.025951352,8.556299,-0.026757998
ZFP871,-0.03768109,3.8689606,-0.03533216,-0.057357367,8.608218,-0.01690782,7.844677,7.4502616,4.3338456,-0.071895406,-0.04799411,6.704597,-0.061453618,-0.024955634,9.896054,-0.03127955
ARMT1,-0.03768109,3.8689606,-0.03533216,-0.057357367,8.608218,-0.01690782,7.844677,7.4502616,4.3338456,-0.071895406,-0.04799411,6.704597,-0.061453618,-0.024955634,9.896054,-0.03127955
AAR2,-0.03768109,3.8689606,-0.03533216,-0.057357367,8.608218,-0.01690782,7.844677,7.4502616,4.3338456,-0.071895406,-0.04799411,6.704597,-0.061453618,-0.024955634,9.896054,-0.03127955
NSD2,-0.03768109,3.8689606,-0.03533216,-0.057357367,8.608218,-0.01690782,7.844677,7.4502616,4.3338456,-0.071895406,-0.04799411,6.704597,-0.061453618,-0.024955634,9.896054,-0.03127955
CKS1B,-0.03768109,3.8689606,-0.03533216,-0.057357367,8.608218,-0.01690782,7.844677,7.4502616,4.3338456,-0.071895406,-0.04799411,6.704597,-0.061453618,-0.024955634,9.896054,-0.03127955
AP1G2,-0.03768109,3.8689606,-0.03533216,-0.057357367,8.608218,-0.01690782,7.844677,7.4502616,4.3338456,-0.071895406,-0.04799411,6.704597,-0.061453618,-0.024955634,9.896054,-0.03127955
CALCRL,-0.03830854,3.966367,-0.032703623,-0.054808505,7.7076755,-0.008261538,8.272994,6.3711114,3.3025537,-0.068945624,-0.042156473,5.9661727,-0.059285425,-0.023838932,9.071666,-0.026635002
CD82,-0.037638757,3.8630085,-0.03530491,-0.057351403,8.61293,-0.016926706,7.838837,7.4398713,4.336118,-0.07184548,-0.04794653,6.7076144,-0.061394203,-0.024960117,9.888724,-0.031275928
FZR1,-0.03071723,3.3704305,-0.027979722,-0.04643921,6.938964,-0.014304581,6.2031403,6.16297,3.5442188,-0.057182144,-0.04084909,5.1254563,-0.04731143,-0.024775052,7.980559,-0.024745869
CUL4A,-0.025225667,2.8676045,-0.023924448,-0.040094085,5.9983315,-0.010776692,5.367295,5.2192707,2.9643438,-0.049850482,-0.035891328,4.354013,-0.038738087,-0.020991446,6.6161427,-0.019960156
CD63,-0.03768109,3.8689606,-0.03533216,-0.057357367,8.608218,-0.01690782,7.844677,7.4502616,4.3338456,-0.071895406,-0.04799411,6.704597,-0.061453618,-0.024955634,9.896054,-0.03127955
ANKLE1,-0.03768109,3.8689606,-0.03533216,-0.057357367,8.608218,-0.01690782,7.844677,7.4502616,4.3338456,-0.071895406,-0.04799411,6.704597,-0.061453618,-0.024955634,9.896054,-0.03127955
D10WSU102E,-0.03768109,3.8689606,-0.03533216,-0.057357367,8.608218,-0.01690782,7.844677,7.4502616,4.3338456,-0.071895406,-0.04799411,6.704597,-0.061453618,-0.024955634,9.896054,-0.03127955
ATAD2,-0.029797414,3.2854338,-0.027208451,-0.045331195,6.6574297,-0.014088666,5.984984,5.9079723,3.4192145,-0.055115454,-0.039218955,4.904484,-0.045363773,-0.024483556,7.6404324,-0.024207015
CELA1,-0.037685342,3.8651218,-0.035297036,-0.05733375,8.607785,-0.016877055,7.848021,7.445017,4.334343,-0.07186814,-0.04800959,6.6979275,-0.061478,-0.02499984,9.8884945,-0.031291787
ZFP592,-0.03768109,3.8689606,-0.03533216,-0.057357367,8.608218,-0.01690782,7.844677,7.4502616,4.3338456,-0.071895406,-0.04799411,6.704597,-0.061453618,-0.024955634,9.896054,-0.03127955
ATL2,-0.037661593,3.8698657,-0.035345495,-0.05735251,8.606293,-0.016898034,7.8423276,7.44708,4.3358507,-0.071908824,-0.047976162,6.7010055,-0.06143442,-0.024978565,9.894817,-0.031261306
SEC23IP,-0.03768109,3.8689606,-0.03533216,-0.057357367,8.608218,-0.01690782,7.844677,7.4502616,4.3338456,-0.071895406,-0.04799411,6.704597,-0.061453618,-0.024955634,9.896054,-0.03127955
ITFG1,-0.03768109,3.8689606,-0.03533216,-0.057357367,8.608218,-0.01690782,7.844677,7.4502616,4.3338456,-0.071895406,-0.04799411,6.704597,-0.061453618,-0.024955634,9.896054,-0.03127955
NASP,-0.019760862,2.2754962,-0.018704262,-0.032203697,4.8281736,-0.008141761,4.3174434,4.156283,2.3366845,-0.039888073,-0.028963145,3.3963976,-0.030253923,-0.017057566,5.2035108,-0.015385571
SVIP,-0.03619428,3.6343815,-0.031076742,-0.060703773,8.183923,-0.010940957,8.015725,7.349424,4.01779,-0.0716932,-0.041974824,6.265847,-0.05517996,-0.02928658,9.738756,-0.032594804
NXPE2,-0.037680827,3.8689349,-0.035331715,-0.057356786,8.608189,-0.016907457,7.8446655,7.4502997,4.3338933,-0.07189513,-0.047993626,6.704581,-0.061453804,-0.02495513,9.89607,-0.03127948
NET1,-0.03768109,3.8689606,-0.03533216,-0.057357367,8.608218,-0.01690782,7.844677,7.4502616,4.3338456,-0.071895406,-0.04799411,6.704597,-0.061453618,-0.024955634,9.896054,-0.03127955
ICA1,-0.03768109,3.8689606,-0.03533216,-0.057357367,8.608218,-0.01690782,7.844677,7.4502616,4.3338456,-0.071895406,-0.04799411,6.704597,-0.061453618,-0.024955634,9.896054,-0.03127955
TIE1,-0.037612822,3.8657217,-0.03537388,-0.057283316,8.612739,-0.016832218,7.835302,7.4479423,4.3266177,-0.07180885,-0.047943167,6.698124,-0.061377328,-0.024910528,9.887711,-0.03123878
TMEM206,-0.03771938,3.8671224,-0.03533142,-0.057351172,8.604662,-0.016929429,7.8424497,7.4491115,4.3358836,-0.07190493,-0.04799727,6.7039485,-0.061418064,-0.024926554,9.895682,-0.031279657
HARS2,-0.03768109,3.8689606,-0.03533216,-0.057357367,8.608218,-0.01690782,7.844677,7.4502616,4.3338456,-0.071895406,-0.04799411,6.704597,-0.061453618,-0.024955634,9.896054,-0.03127955
PLA2G12A,-0.037654288,3.8658707,-0.035360947,-0.057350304,8.609868,-0.016877217,7.842602,7.450523,4.3331685,-0.07191234,-0.04801701,6.7076797,-0.06144501,-0.024928862,9.898305,-0.031309314
MTHFD1,-0.037142448,3.2572434,-0.030796872,-0.058472853,8.269946,-0.016353734,7.7017746,7.601173,3.8519921,-0.069467865,-0.05145718,6.9487925,-0.05783809,-0.023398148,10.160675,-0.026748557
AHCYL1,-0.03768109,3.8689606,-0.03533216,-0.057357367,8.608218,-0.01690782,7.844677,7.4502616,4.3338456,-0.071895406,-0.04799411,6.704597,-0.061453618,-0.024955634,9.896054,-0.03127955
AQP9,-0.037612822,3.8657217,-0.03537388,-0.057283316,8.612739,-0.016832218,7.835302,7.4479423,4.3266177,-0.07180885,-0.047943167,6.698124,-0.061377328,-0.024910528,9.887711,-0.03123878
PROCR,-0.037638716,3.8635645,-0.03536957,-0.057367638,8.607018,-0.016928231,7.845108,7.450793,4.328433,-0.07185769,-0.04801693,6.699971,-0.061407395,-0.024985392,9.891268,-0.03126531
MFSD1,-0.03768109,3.8689606,-0.03533216,-0.057357367,8.608218,-0.01690782,7.844677,7.4502616,4.3338456,-0.071895406,-0.04799411,6.704597,-0.061453618,-0.024955634,9.896054,-0.03127955
GOLPH3,-0.03768109,3.8689606,-0.03533216,-0.057357367,8.608218,-0.01690782,7.844677,7.4502616,4.3338456,-0.071895406,-0.04799411,6.704597,-0.061453618,-0.024955634,9.896054,-0.03127955
SNX10,-0.036145512,3.6302378,-0.031105127,-0.06063458,8.190369,-0.010875141,8.008699,7.350286,4.008557,-0.071593225,-0.04194183,6.2629657,-0.05512287,-0.029218541,9.731648,-0.032572273
RFC5,-0.026632763,2.9966288,-0.024397017,-0.041138437,6.135316,-0.011944895,5.5143566,5.422068,3.0861723,-0.050576042,-0.036705103,4.459952,-0.0406173,-0.022538971,6.971163,-0.021388853
